svm_type c_svc
kernel_type polynomial
degree 3
gamma 100
coef0 0
nr_class 7
total_sv 436
rho -0.762656 0.19944 -0.271197 -0.1939 0.244444 0.307304 0.387164 -0.354552 -0.435684 0.524375 0.533672 -0.594825 -0.813485 -0.139929 0.163527 -0.043329 0.818532 0.905209 0.908663 0.998027 0.0564579
label 7 6 4 1 2 5 3
probA -4.65159 -4.55254 -2.42596 -4.10104 -1.72174 -4.45846 -4.8687 -4.42889 -4.27741 -4.47834 -4.63967 -4.3295 -4.6657 -3.6347 -4.57602 -4.69821 -3.89955 -4.25303 -3.48218 -4.29849 -4.35345
probB -0.0209769 -0.296094 -0.0357326 -0.073302 -0.083662 0.0188039 0.159822 -0.193623 -0.0165384 -0.0215671 0.121041 -0.119774 -0.203346 0.0534131 0.0206916 -0.0104634 0.0218268 0.187326 0.396324 0.129105 -0.0574826
nr_sv 70 77 91 50 40 55 53
SV
0 0 0 0 2.131918849747752e-11 0 1:0.02 2:0.5 3:0.44 4:0.86 5:0.66 6:0.64 7:0.658965 8:0.978262 9:0.591098 10:0.613872 11:0.132615 12:0.947214 13:0.5 14:0.723607 15:0.73 16:0.382353 17:0.375 18:0.277861 19:0.00604046 20:0.489277 21:0.97362 22:0.881872 23:0.510488 24:0.827752 25:0.338266 26:0.257596 27:0.546166 28:0.612745 29:0.643645 30:0.278955 31:0.392274 32:0.160328 33:0.228021 34:0.484003 35:1 36:0.230448 37:1 38:0.909784 39:0.0213013 40:0.0345458 41:0.0343693 42:0.727809 43:0.0263395 44:0.218066 45:0.0277856 46:0.7661 47:0.0958404 48:0.0777902 49:0.0602692 50:0.0103007 51:0.0962308 52:0.147701 53:0.0872642 54:0.766913 55:0.0598413 56:0.0459189 57:0.0270302 58:0.0714286 59:0.0846413 60:0.14582 61:0.0181056 62:0.141863 63:0.191164 64:0.053323 65:0.123701 66:0.169953 67:0 68:0.0805644 69:0.0622928 70:0.0364732 71:0.170879 72:0.156049 73:0.0580174 74:0.259429 75:0.176295 76:0.031081 77:0.0093282 78:0.0534826 79:0.175708 80:0.155907 81:0.185337 82:0.083944 83:0.198607 84:0.106604 85:0.131227 86:0.0226855 87:0.0017224 88:0 89:0 90:0.02 91:0.5 92:0.48 93:0.86 94:0.62 95:0.64 96:0.663667 97:0.986403 98:0.569486 99:0.592648 100:0.173953 101:0.947214 102:0.5 103:0.723607 104:0.73 105:0.397059 106:0.375 107:0.306212 108:0 109:0.523784 110:0.97362 111:0.956133 112:0.44752 113:0.620485 114:0.435143 115:0.302496 116:0.520521 117:0.628846 118:0.663086 119:0.480305 120:0.74944 121:0.404541 122:0.515876 123:0.815509 124:0.852416 125:1 126:0 127:0.848168 128:0.0500451 129:0.029713 130:0.0720736 131:0.56028 132:0.0291838 133:0.345257 134:0.0652794 135:0.545293 136:0.199147 137:0.131311 138:0.124249 139:0.0275938 140:0.178797 141:0.1823 142:0.106974 143:0.666488 144:0.0327359 145:0.107658 146:0.0324035 147:0.0714286 148:0.115064 149:0.205965 150:0.0101394 151:0.0975336 152:0.101756 153:0.0612892 154:0.151651 155:0.185173 156:0 157:0.0581392 158:0.0847179 159:0.0566912 160:0.209577 161:0.11997 162:0.0977552 163:0.262082 164:0.111067 165:0.0573428 166:0.0183185 167:0.0776284 168:0.213816 169:0.0989037 170:0.224564 171:0.113718 172:0.104862 173:0.0908471 174:0.160953 175:0.0293219 176:0.00206969 177:0 178:0 179:0.159091 180:0.5 181:0.431818 182:0.931818 183:0.681818 184:0.522727 185:0.607598 186:0.983548 187:0.613776 188:0.556888 189:0.346914 190:0.947214 191:0.5 192:0.723607 193:0.647727 194:0.411765 195:0.3125 196:0 197:0 198:0.37497 199:0.912908 200:1.13095 201:0.348771 202:0.287902 203:0.927557 204:0.259635 205:0.5375 206:0.58125 207:0.673155 208:0.231561 209:0.391667 210:0.0174352 211:0.0396825 212:0.717749 213:0.897584 214:1 215:0 216:0.960603 217:0.00867353 218:0.0220495 219:0.00867353 220:0.742877 221:0.0326981 222:0.215751 223:0.00867353 224:0.844469 225:0.0607147 226:0.0514488 227:0.0433676 228:0 229:0.00779713 230:0.127497 231:0.115548 232:0.982143 233:0 234:0.00126575 235:0.0165914 236:0.0714286 237:0.0656974 238:0.120418 239:0.0129728 240:0.15004 241:0.211703 242:0.0584557 243:0.12187 244:0.187414 245:0.0353966 246:0.10746 247:0 248:0.0859552 249:0.191258 250:0.0643072 251:0.145753 252:0.337114 253:0.032755 254:0.0887059 255:0.066077 256:0.112685 257:0.159437 258:0.245096 259:0.231715 260:0 261:0.0756712 262:0.0206122 263:0.133308 264:0.021367 265:0.000717294 266:0 267:0 268:0.184211 269:0.5 270:0.473684 271:0.973684 272:0.710526 273:0.473684 274:0.592716 275:0.983117 276:0.628831 277:0.5 278:1.10887 279:0.5 280:0.5 281:0.5 282:0.618421 283:0.411765 284:0.333333 285:0 286:0 287:0 288:0.840897 289:1.2315 290:0.305879 291:0.0921053 292:3 293:0.275617 294:0.711538 295:0.5 296:0.538462 297:0.125 298:0.0357143 299:0 300:0 301:1.07126e-33 302:1 303:1 304:0 305:0.970601 306:0 307:0.0293993 308:0 309:0.941201 310:0 311:0.0587986 312:0 313:0.99265 314:0 315:0.00734983 316:0 317:0 318:0 319:0 320:0.0100007 321:1 322:0 323:0 324:0 325:0.0714286 326:0.0779116 327:0.155181 328:0 329:0.139233 330:0.179044 331:0.0714286 332:0.112245 333:0.193529 334:0.0714286 335:0.0714286 336:0 337:0.0842645 338:0.221946 339:0.0592692 340:0.20145 341:0.280451 342:0.00976202 343:0.168672 344:0.0699246 345:0.118547 346:0.142857 347:0.20063 348:0.239282 349:0 350:0.0562362 351:0.00385194 352:0.168787 353:0.0321315 354:0.00108269 355:0 356:0 
0 0 0 0 1.258800184604513e-11 0 1:0.02 2:0.5 3:0.44 4:0.86 5:0.66 6:0.64 7:0.658965 8:0.978262 9:0.591098 10:0.613872 11:0.131032 12:0.947214 13:0.5 14:0.723607 15:0.73 16:0.382353 17:0.375 18:0.274544 19:0 20:0.477468 21:0.97362 22:0.881872 23:0.510488 24:0.837752 25:0.334228 26:0.255023 27:0.550085 28:0.608173 29:0.643286 30:0.268486 31:0.362099 32:0.146967 33:0.20902 34:0.440003 35:1 36:0.204843 37:1 38:0.912908 39:0.0198744 40:0.0351505 41:0.032067 42:0.743123 43:0.0245751 44:0.206377 45:0.0259243 46:0.781768 47:0.0894205 48:0.0725793 49:0.056232 50:0.00956117 51:0.0893219 52:0.139508 53:0.0837163 54:0.784842 55:0.0552381 56:0.0423866 57:0.024951 58:0.0714286 59:0.083513 60:0.142556 61:0.0184527 62:0.144713 63:0.19506 64:0.0529759 65:0.122487 66:0.168814 67:0 68:0.0801377 69:0.0627194 70:0.0341936 71:0.169555 72:0.162203 73:0.0543913 74:0.25715 75:0.179649 76:0.0291384 77:0.00874518 78:0.0501399 79:0.171841 80:0.157863 81:0.183205 82:0.0849076 83:0.204765 84:0.109394 85:0.129144 86:0.0220001 87:0.00162151 88:0 89:0 90:0.02 91:0.5 92:0.48 93:0.86 94:0.62 95:0.64 96:0.663667 97:0.986403 98:0.569486 99:0.592648 100:0.173953 101:0.947214 102:0.5 103:0.723607 104:0.73 105:0.397059 106:0.375 107:0.306212 108:0 109:0.523784 110:0.97362 111:0.956133 112:0.44752 113:0.620485 114:0.435143 115:0.302496 116:0.520521 117:0.628846 118:0.663086 119:0.480305 120:0.74944 121:0.404541 122:0.515876 123:0.815509 124:0.852416 125:1 126:0 127:0.848168 128:0.0500451 129:0.029713 130:0.0720736 131:0.56028 132:0.0291838 133:0.345257 134:0.0652794 135:0.545293 136:0.199147 137:0.131311 138:0.124249 139:0.0275938 140:0.178797 141:0.1823 142:0.106974 143:0.666488 144:0.0327359 145:0.107658 146:0.0324035 147:0.0714286 148:0.115064 149:0.205965 150:0.0101394 151:0.0975336 152:0.101756 153:0.0612892 154:0.151651 155:0.185173 156:0 157:0.0581392 158:0.0847179 159:0.0566912 160:0.209577 161:0.11997 162:0.0977552 163:0.262082 164:0.111067 165:0.0573428 166:0.0183185 167:0.0776284 168:0.213816 169:0.0989037 170:0.224564 171:0.113718 172:0.104862 173:0.0908471 174:0.160953 175:0.0293219 176:0.00206969 177:0 178:0 179:0.159091 180:0.5 181:0.431818 182:0.931818 183:0.681818 184:0.522727 185:0.607598 186:0.983548 187:0.613776 188:0.556888 189:0.346914 190:0.947214 191:0.5 192:0.723607 193:0.647727 194:0.411765 195:0.3125 196:0 197:0 198:0.37497 199:0.912908 200:1.13095 201:0.348771 202:0.287902 203:0.927557 204:0.259635 205:0.5375 206:0.58125 207:0.673155 208:0.231561 209:0.391667 210:0.0174352 211:0.0396825 212:0.717749 213:0.897584 214:1 215:0 216:0.960603 217:0.00867353 218:0.0220495 219:0.00867353 220:0.742877 221:0.0326981 222:0.215751 223:0.00867353 224:0.844469 225:0.0607147 226:0.0514488 227:0.0433676 228:0 229:0.00779713 230:0.127497 231:0.115548 232:0.982143 233:0 234:0.00126575 235:0.0165914 236:0.0714286 237:0.0656974 238:0.120418 239:0.0129728 240:0.15004 241:0.211703 242:0.0584557 243:0.12187 244:0.187414 245:0.0353966 246:0.10746 247:0 248:0.0859552 249:0.191258 250:0.0643072 251:0.145753 252:0.337114 253:0.032755 254:0.0887059 255:0.066077 256:0.112685 257:0.159437 258:0.245096 259:0.231715 260:0 261:0.0756712 262:0.0206122 263:0.133308 264:0.021367 265:0.000717294 266:0 267:0 268:0.184211 269:0.5 270:0.473684 271:0.973684 272:0.710526 273:0.473684 274:0.592716 275:0.983117 276:0.628831 277:0.5 278:1.19417 279:0.5 280:0.5 281:0.5 282:0.618421 283:0.411765 284:0.333333 285:0 286:0 287:0 288:0.840897 289:1.2315 290:0.305879 291:0.0855263 292:3.23077 293:0.275436 294:0.770833 295:0.479167 296:0.5 297:0.125 298:0.0357143 299:0 300:0 301:0 302:0 303:1 304:0 305:0.963251 306:0 307:0.0367491 308:0 309:0.955901 310:0 311:0.044099 312:0 313:0.99265 314:0 315:0.00734983 316:0 317:0 318:0 319:0 320:0.0141324 321:1 322:0 323:0 324:0 325:0.0714286 326:0.0795323 327:0.15356 328:0 329:0.139477 330:0.178856 331:0.0714286 332:0.112529 333:0.193188 334:0.0714286 335:0.0714286 336:0 337:0.0874735 338:0.233963 339:0.0511051 340:0.198241 341:0.277389 342:0.00897194 343:0.166541 344:0.0720549 345:0.118547 346:0.142857 347:0.207603 348:0.239773 349:0 350:0.0506985 351:0.00192597 352:0.168573 353:0.0319309 354:0.00102988 355:0 356:0 
3.459239299474501e-12 0 0 8.297966979765533e-12 0 3.011801594213041e-12 1:0.108696 2:0.434783 3:0.586957 4:0.847826 5:0.695652 6:0.673913 7:0.58119 8:0.96862 9:0.665395 10:0.555132 11:0.125452 12:0 13:0.5 14:0.5 15:0.684783 16:0.416667 17:0.409091 18:0.186743 19:0 20:0.283572 21:0.90675 22:1.02225 23:0.446106 24:0.785783 25:0.359652 26:0.298956 27:0.543472 28:0.611111 29:0.613095 30:0.177481 31:0.298997 32:0.0554041 33:0.0869048 34:0.517143 35:1 36:0.204506 37:1 38:0.949863 39:0.00491401 40:0.0353946 41:0.00982802 42:0.863201 43:0.00491401 44:0.122057 45:0.00982802 46:0.831373 47:0.0417691 48:0.098505 49:0.0283532 50:0.00598331 51:0.0649918 52:0.122824 53:0.0976362 54:0.805908 55:0.0224898 56:0.0367915 57:0.0425621 58:0.0714286 59:0.15657 60:0.171801 61:0 62:0.123528 63:0.0858967 64:0.0714286 65:0.139708 66:0.179641 67:0 68:0.0625441 69:0.080313 70:0.105847 71:0.180561 72:0.135911 73:0.0359712 74:0.218495 75:0.180358 76:0.067333 77:0.0169555 78:0.0557488 79:0.194364 80:0.0926913 81:0.173016 82:0.137067 83:0.0947094 84:0.168115 85:0.176092 86:0.0370747 87:0.00311099 88:0 89:0 90:0.108696 91:0.434783 92:0.586957 93:0.847826 94:0.695652 95:0.717391 96:0.58559 97:0.965099 98:0.664153 99:0.582076 100:0.559627 101:0 102:0.5 103:0.5 104:0.684783 105:0.416667 106:0.386364 107:0.0306214 108:0 109:0 110:0.90675 111:1.02225 112:0.446106 113:0.177483 114:1.59232 115:0.347681 116:0.583333 117:0.641667 118:0.516667 119:0.0816327 120:0.0816327 121:0 122:0 123:0.257143 124:1 125:0.0238095 126:1 127:0.975599 128:0 129:0.0244014 130:0 131:0.951197 132:0 133:0.0488028 134:0 135:0.903759 136:0.0172777 137:0.0732043 138:0.00575922 139:0 140:0 141:0.000156109 142:0.0352367 143:0.959184 144:0 145:0 146:0 147:0.0714286 148:0.189741 149:0.238321 150:0 151:0.0143226 152:0.0100988 153:0.0714286 154:0.167424 155:0.237236 156:0 157:0.050361 158:0.0924961 159:0.163742 160:0.138796 161:0.0895014 162:0.0657541 163:0.271456 164:0.127893 165:0.111998 166:0.00894201 167:0.107221 168:0.238971 169:0.00213152 170:0.216369 171:0.146534 172:0.0148436 173:0.15299 174:0.227494 175:0.0568194 176:0.00563641 177:0 178:0 179:0.0652174 180:0.434783 181:0.543478 182:0.847826 183:0.695652 184:0.673913 185:0.615508 186:0.968521 187:0.656174 188:0.578087 189:0.270206 190:0.5 191:0.5 192:0.5 193:0.717391 194:0.416667 195:0.431818 196:0.168797 197:0 198:0.0843983 199:0.90675 200:1.02225 201:0.446106 202:0.386367 203:0.731452 204:0.308267 205:0.520492 206:0.643443 207:0.598361 208:0.230696 209:0.428571 210:0.107143 211:0.142857 212:0.740476 213:1 214:0.359692 215:1 216:0.942801 217:0.0115184 218:0.034162 219:0.0115184 220:0.866474 221:0.0115184 222:0.122007 223:0 224:0.774562 225:0.0460738 226:0.13329 227:0.0460738 228:0.0043101 229:0.0749213 230:0.134364 231:0.125676 232:0.792517 233:0.0341664 234:0.0251394 235:0.0359322 236:0.0714286 237:0.178531 238:0.194429 239:0 240:0.0862417 241:0.0699741 242:0.0714286 243:0.13911 244:0.188857 245:0 246:0.0603172 247:0.08254 248:0.136338 249:0.18601 250:0.0982902 251:0.041157 252:0.267473 253:0.127874 254:0.0860131 255:0.0306109 256:0.0575086 257:0.230186 258:0.090754 259:0.188833 260:0.118832 261:0.0434065 262:0.153857 263:0.180941 264:0.0386192 265:0.00315672 266:0 267:0 268:0.119048 269:0.452381 270:0.547619 271:0.880952 272:0.738095 273:0.690476 274:0.594728 275:0.961112 276:0.672917 277:0.586459 278:0.253939 279:0.5 280:0.5 281:0.5 282:0.666667 283:0.411765 284:0.431818 285:0.161005 286:0 287:0.497651 288:0.890275 289:0.996491 290:0.482513 291:0.406673 292:0.717202 293:0.260552 294:0.547024 295:0.564655 296:0.689655 297:0.205121 298:0.372789 299:0.0590695 300:0.117857 301:0.577333 302:0.75 303:0.27046 304:1 305:0.949439 306:0 307:0.0390423 308:0.0115184 309:0.798228 310:0 311:0.178735 312:0.0230369 313:0.857699 314:0.0575922 315:0.0585634 316:0.0261454 317:0.0099656 318:0.0828089 319:0.132312 320:0.106849 321:0.857143 322:0.0151292 323:0.0631498 324:0.0288639 325:0.0714286 326:0.117393 327:0.139565 328:0 329:0.181384 330:0.146566 331:0.0714286 332:0.0999485 333:0.172287 334:0 335:0.0755563 336:0.0673009 337:0.0379716 338:0.197323 339:0.15454 340:0.00348355 341:0.170431 342:0.293394 343:0.0166254 344:0.0164034 345:0.00413822 346:0.160316 347:0.163738 348:0.133478 349:0.141113 350:0.161161 351:0.203028 352:0.147201 353:0.0259594 354:0.00132232 355:0 356:0 
0 0 1.979555238600737e-12 0 0 0 1:0.108696 2:0.434783 3:0.586957 4:0.847826 5:0.695652 6:0.673913 7:0.58119 8:0.96862 9:0.665395 10:0.555132 11:0.121259 12:0 13:0.5 14:0.5 15:0.684783 16:0.416667 17:0.409091 18:0.1805 19:0 20:0.280778 21:0.90675 22:1.02225 23:0.446106 24:0.812957 25:0.347631 26:0.296145 27:0.541812 28:0.614504 29:0.610687 30:0.172179 31:0.29119 32:0.0524881 33:0.0823308 34:0.505608 35:1 36:0.195295 37:1 38:0.948176 39:0.00468992 40:0.0377546 41:0.00937984 42:0.867452 43:0.00468992 44:0.118478 45:0.00937984 46:0.835088 47:0.0398643 48:0.0979871 49:0.0270602 50:0.00569742 51:0.0618864 52:0.1135 53:0.0908396 54:0.813827 55:0.0291949 56:0.0324795 57:0.040434 58:0.0714286 59:0.153644 60:0.166918 61:0 62:0.129605 63:0.091175 64:0.0714286 65:0.139039 66:0.176763 67:0 68:0.0633726 69:0.0794845 70:0.101245 71:0.179454 72:0.142279 73:0.0344073 74:0.21032 75:0.189438 76:0.0644055 77:0.0162183 78:0.053325 79:0.188889 80:0.0940481 81:0.169 82:0.138074 83:0.104741 84:0.171299 85:0.173691 86:0.0362284 87:0.00302888 88:0 89:0 90:0.108696 91:0.434783 92:0.586957 93:0.847826 94:0.695652 95:0.717391 96:0.58559 97:0.965099 98:0.664153 99:0.582076 100:0.559627 101:0 102:0.5 103:0.5 104:0.684783 105:0.416667 106:0.386364 107:0.0306214 108:0 109:0 110:0.90675 111:1.02225 112:0.446106 113:0.177483 114:1.59232 115:0.347681 116:0.583333 117:0.641667 118:0.516667 119:0.0816327 120:0.0816327 121:0 122:0 123:0.257143 124:1 125:0.0238095 126:1 127:0.975599 128:0 129:0.0244014 130:0 131:0.951197 132:0 133:0.0488028 134:0 135:0.903759 136:0.0172777 137:0.0732043 138:0.00575922 139:0 140:0 141:0.000156109 142:0.0352367 143:0.959184 144:0 145:0 146:0 147:0.0714286 148:0.189741 149:0.238321 150:0 151:0.0143226 152:0.0100988 153:0.0714286 154:0.167424 155:0.237236 156:0 157:0.050361 158:0.0924961 159:0.163742 160:0.138796 161:0.0895014 162:0.0657541 163:0.271456 164:0.127893 165:0.111998 166:0.00894201 167:0.107221 168:0.238971 169:0.00213152 170:0.216369 171:0.146534 172:0.0148436 173:0.15299 174:0.227494 175:0.0568194 176:0.00563641 177:0 178:0 179:0.0652174 180:0.434783 181:0.543478 182:0.847826 183:0.695652 184:0.673913 185:0.615508 186:0.968521 187:0.656174 188:0.578087 189:0.270206 190:0.5 191:0.5 192:0.5 193:0.717391 194:0.416667 195:0.431818 196:0.168797 197:0 198:0.0843983 199:0.90675 200:1.02225 201:0.446106 202:0.386367 203:0.731452 204:0.308267 205:0.520492 206:0.643443 207:0.598361 208:0.230696 209:0.428571 210:0.107143 211:0.142857 212:0.740476 213:1 214:0.359692 215:1 216:0.942801 217:0.0115184 218:0.034162 219:0.0115184 220:0.866474 221:0.0115184 222:0.122007 223:0 224:0.774562 225:0.0460738 226:0.13329 227:0.0460738 228:0.0043101 229:0.0749213 230:0.134364 231:0.125676 232:0.792517 233:0.0341664 234:0.0251394 235:0.0359322 236:0.0714286 237:0.178531 238:0.194429 239:0 240:0.0862417 241:0.0699741 242:0.0714286 243:0.13911 244:0.188857 245:0 246:0.0603172 247:0.08254 248:0.136338 249:0.18601 250:0.0982902 251:0.041157 252:0.267473 253:0.127874 254:0.0860131 255:0.0306109 256:0.0575086 257:0.230186 258:0.090754 259:0.188833 260:0.118832 261:0.0434065 262:0.153857 263:0.180941 264:0.0386192 265:0.00315672 266:0 267:0 268:0.125 269:0.45 270:0.525 271:0.925 272:0.75 273:0.675 274:0.617653 275:0.961112 276:0.672917 277:0.586459 278:0.275044 279:1 280:0.5 281:0.5 282:0.675 283:0.411765 284:0.475 285:0.0951198 286:0 287:0.475599 288:0.866302 289:1.03907 290:0.463648 291:0.39424 292:0.745105 293:0.263875 294:0.538934 295:0.569444 296:0.685185 297:0.179611 298:0.321769 299:0.0496032 300:0.10119 301:0.530095 302:1 303:0.229932 304:1 305:0.939679 306:0 307:0.0488028 308:0.0115184 309:0.82751 310:0 311:0.149453 312:0.0230369 313:0.874977 314:0.0460738 315:0.0585634 316:0.0203861 317:0.00350321 318:0.0675754 319:0.11752 320:0.0783114 321:0.882653 322:0.0291389 323:0.040589 324:0.0221088 325:0.0714286 326:0.110188 327:0.121961 328:0 329:0.175036 330:0.147695 331:0.0714286 332:0.116165 333:0.186098 334:0 335:0.0871066 336:0.0557505 337:0.0386715 338:0.21311 339:0.144191 340:0.00892404 341:0.154947 342:0.297299 343:0.0159545 344:0.023986 345:0.00401049 346:0.157877 347:0.160273 348:0.153858 349:0.125633 350:0.149053 351:0.209356 352:0.156412 353:0.0282483 354:0.00123872 355:0 356:0 
2.124286966102274e-11 3.789246067643952e-12 5.85063621302409e-12 0 0 2.66269153624054e-11 1:0.108696 2:0.434783 3:0.586957 4:0.847826 5:0.695652 6:0.673913 7:0.58119 8:0.96862 9:0.665395 10:0.555132 11:0.122902 12:0.146447 13:0.5 14:0.146447 15:0.706522 16:0.416667 17:0.409091 18:0.182947 19:0 20:0.291359 21:0.90675 22:1.02225 23:0.446106 24:0.802088 25:0.352341 26:0.28907 27:0.538585 28:0.614341 29:0.614341 30:0.158878 31:0.273923 32:0.0498637 33:0.0782143 34:0.501554 35:1 36:0.198093 37:1 38:0.948535 39:0.00448537 40:0.0380084 41:0.00897075 42:0.871333 43:0.00448537 44:0.115211 45:0.00897075 46:0.849882 47:0.0381257 48:0.0861118 49:0.02588 50:0.0054376 51:0.0590642 52:0.10728 53:0.0769958 54:0.817413 55:0.0330841 56:0.0297991 57:0.0396423 58:0.0714286 59:0.146129 60:0.155565 61:0 62:0.145234 63:0.104009 64:0.0714286 65:0.137133 66:0.169072 67:0 68:0.0653581 69:0.0774991 70:0.0901861 71:0.178921 72:0.154717 73:0.0300454 74:0.192365 75:0.210909 76:0.0568267 77:0.0146111 78:0.0471393 79:0.177963 80:0.099138 81:0.159735 82:0.138182 83:0.128453 84:0.177952 85:0.167239 86:0.0339819 87:0.0027739 88:0 89:0 90:0.108696 91:0.434783 92:0.586957 93:0.847826 94:0.695652 95:0.717391 96:0.58559 97:0.965099 98:0.664153 99:0.582076 100:0.370226 101:0.146447 102:0.5 103:0.146447 104:0.706522 105:0.416667 106:0.386364 107:0 108:0 109:0 110:0.90675 111:1.02225 112:0.446106 113:0.26828 114:1.05341 115:0.342963 116:0.508721 117:0.656977 118:0.505814 119:0.117037 120:0.169643 121:0.0102041 122:0.0204082 123:0.279762 124:1 125:0.0470779 126:1 127:0.963309 128:0.0103583 129:0.0263325 130:0 131:0.928199 132:0.0103583 133:0.0614424 134:0 135:0.859855 136:0.0362541 137:0.0935327 138:0.0103583 139:0.00488761 140:0.0293889 141:0.0203099 142:0.0404824 143:0.9375 144:0.00595238 145:0.00595238 146:0.00736923 147:0.0714286 148:0.185697 149:0.236813 150:0 151:0.0232439 152:0.020646 153:0.0714286 154:0.1627 155:0.228043 156:0 157:0.052136 158:0.0907211 159:0.163781 160:0.14483 161:0.0921682 162:0.0661653 163:0.266374 164:0.123825 165:0.113037 166:0.0137451 167:0.102478 168:0.231988 169:0.0163687 170:0.210279 171:0.144494 172:0.0212105 173:0.1464 174:0.219721 175:0.0539494 176:0.00535891 177:0 178:0 179:0.0652174 180:0.434783 181:0.543478 182:0.847826 183:0.695652 184:0.673913 185:0.615508 186:0.968521 187:0.656174 188:0.578087 189:0.212512 190:1 191:0.5 192:0.5 193:0.717391 194:0.416667 195:0.431818 196:0.243384 197:0 198:0.221258 199:0.90675 200:1.02225 201:0.446106 202:0.491261 203:0.575272 204:0.290901 205:0.528927 206:0.623377 207:0.618506 208:0.263336 209:0.492857 210:0.110155 211:0.157143 212:0.747698 213:0.75 214:0.373196 215:1 216:0.944173 217:0.0103583 218:0.03511 219:0.0103583 220:0.832507 221:0.0103583 222:0.151955 223:0.00517916 224:0.757782 225:0.0466124 226:0.146198 227:0.0494078 228:0.0114607 229:0.0846675 230:0.160468 231:0.128878 232:0.741071 233:0.0429511 234:0.0401055 235:0.0580432 236:0.0714286 237:0.160601 238:0.174763 239:0 240:0.132079 241:0.0884086 242:0.0714286 243:0.13183 244:0.169461 245:0 246:0.0640887 247:0.0787685 248:0.10761 249:0.208233 250:0.116199 251:0.0313325 252:0.244821 253:0.148948 254:0.0648908 255:0.0298465 256:0.0418004 257:0.216877 258:0.125403 259:0.168893 260:0.118241 261:0.067131 262:0.166917 263:0.164283 264:0.0325731 265:0.00239948 266:0 267:0 268:0.125 269:0.45 270:0.5 271:0.925 272:0.75 273:0.65 274:0.625227 275:0.961112 276:0.672917 277:0.586459 278:0.28599 279:1 280:0.5 281:0.5 282:0.675 283:0.411765 284:0.472222 285:0.0494526 286:0 287:0.494526 288:0.866302 289:1.0839 290:0.422854 291:0.379151 292:0.758273 293:0.261161 294:0.53322 295:0.572115 296:0.6875 297:0.136667 298:0.242262 299:0.0323129 300:0.0663265 301:0.465476 302:1 303:0.14983 304:0.75 305:0.945754 306:0 307:0.0438874 308:0.0103583 309:0.849272 310:0 311:0.130012 312:0.0207166 313:0.897137 314:0.0362541 315:0.0482762 316:0.0183329 317:0.000571506 318:0.0408042 319:0.0857925 320:0.0502341 321:0.919177 322:0.0362216 323:0.0178156 324:0.0133929 325:0.0714286 326:0.0994656 327:0.111054 328:0 329:0.185048 330:0.161217 331:0.0714286 332:0.117891 333:0.182467 334:0 335:0.0986928 336:0.0441643 337:0.0250692 338:0.226824 339:0.143791 340:0.00861713 341:0.132902 342:0.31994 343:0.00931815 344:0.0194135 345:0.00192116 346:0.14822 347:0.160882 348:0.163516 349:0.124638 350:0.167818 351:0.204274 352:0.15143 353:0.0262119 354:0.000894789 355:0 356:0 
0 0 4.081730646540097e-12 0 0 0 1:0.0652174 2:0.434783 3:0.586957 4:0.847826 5:0.695652 6:0.673913 7:0.611324 8:0.971728 9:0.657243 10:0.552414 11:0.130525 12:0.5 13:0.5 14:0 15:0.717391 16:0.416667 17:0.409091 18:0.198399 19:0 20:0.314702 21:0.90675 22:1.02225 23:0.446106 24:0.794402 25:0.35575 26:0.284475 27:0.541816 28:0.607422 29:0.621094 30:0.158878 31:0.273923 32:0.0498637 33:0.0782143 34:0.501554 35:1 36:0.202295 37:1 38:0.948535 39:0.00448537 40:0.0380084 41:0.00897075 42:0.869432 43:0.00448537 44:0.117111 45:0.00897075 46:0.855926 47:0.035883 48:0.082311 49:0.02588 50:0.0054376 51:0.0590642 52:0.10728 53:0.0785708 54:0.817413 55:0.0330841 56:0.0297991 57:0.0430437 58:0.0714286 59:0.141663 60:0.148348 61:0 62:0.155695 63:0.11157 64:0.0714286 65:0.135444 66:0.164423 67:0 68:0.0666359 69:0.0762212 70:0.0837898 71:0.176972 72:0.164133 73:0.0285813 74:0.181086 75:0.222581 76:0.0538505 77:0.0136796 78:0.0431755 79:0.17029 80:0.10211 81:0.153233 82:0.13737 83:0.143318 84:0.182973 85:0.162987 86:0.0325099 87:0.00260223 88:0 89:0 90:0.0652174 91:0.434783 92:0.586957 93:0.847826 94:0.695652 95:0.673913 96:0.611324 97:0.971728 98:0.657243 99:0.552414 100:0.337044 101:0.5 102:0.5 103:0 104:0.717391 105:0.416667 106:0.409091 107:0.105995 108:0 109:0 110:0.90675 111:1.02225 112:0.446106 113:0.307643 114:0.918627 115:0.337949 116:0.543367 117:0.65051 118:0.52551 119:0.143823 120:0.223214 121:0.0510204 122:0.0408163 123:0.384762 124:1 125:0.0530303 126:1 127:0.953741 128:0.0103583 129:0.0307212 130:0.00517916 131:0.910644 132:0.0103583 133:0.0789974 134:0 135:0.845108 136:0.0310749 137:0.0979215 138:0.0258958 139:0.0020471 140:0.0287249 141:0.0591818 142:0.0693931 143:0.901786 144:0.00751916 145:0.0222427 146:0.00736923 147:0.0714286 148:0.184829 149:0.226491 150:0 151:0.0347181 152:0.0314155 153:0.0714286 154:0.159214 155:0.220475 156:0 157:0.0523026 158:0.0905545 159:0.163201 160:0.151143 161:0.0903449 162:0.0623592 163:0.26805 164:0.122045 165:0.110956 166:0.0195937 167:0.094409 168:0.227302 169:0.0301642 170:0.207861 171:0.136225 172:0.0255303 173:0.147959 174:0.213018 175:0.0509397 176:0.00489111 177:0 178:0 179:0.0681818 180:0.431818 181:0.545455 182:0.886364 183:0.704545 184:0.681818 185:0.630239 186:0.968521 187:0.656174 188:0.578087 189:0.206064 190:1 191:0.5 192:0.5 193:0.727273 194:0.416667 195:0.431818 196:0.225272 197:0 198:0.31109 199:0.885067 200:1.02225 201:0.463648 202:0.529662 203:0.54709 204:0.285976 205:0.528195 206:0.623418 207:0.625 208:0.264302 209:0.507738 210:0.0999507 211:0.136735 212:0.714206 213:0.75 214:0.272998 215:1 216:0.948562 217:0.0103583 218:0.0307212 219:0.0103583 220:0.810563 221:0.0103583 222:0.173899 223:0.00517916 224:0.756201 225:0.0517916 226:0.13742 227:0.054587 228:0.0107361 229:0.088408 230:0.180205 231:0.136806 232:0.792007 233:0.0249569 234:0.0294064 235:0.044729 236:0.0714286 237:0.15097 238:0.152701 239:0 240:0.137637 241:0.0880088 242:0.0714286 243:0.142294 244:0.185532 245:0 246:0.0667636 247:0.0760935 248:0.0926855 249:0.215807 250:0.128585 251:0.0249437 252:0.225325 253:0.169797 254:0.0536803 255:0.0266747 256:0.0347454 257:0.19594 258:0.136773 259:0.170974 260:0.122836 261:0.0739892 262:0.184388 263:0.167738 264:0.0338317 265:0.00248876 266:0 267:0 268:0.175 269:0.475 270:0.475 271:0.925 272:0.775 273:0.625 274:0.612372 275:0.956435 276:0.682574 277:0.591287 278:0.326261 279:1 280:0.5 281:0.5 282:0.6375 283:0.40625 284:0.46875 285:0 286:0 287:0.456679 288:0.896055 289:1.10715 290:0.380506 291:0.314772 292:0.873647 293:0.265688 294:0.533333 295:0.555556 296:0.691667 297:0.10461 298:0.181548 299:0.0323129 300:0.0663265 301:0.423413 302:1 303:0.110714 304:0.75 305:0.950143 306:0 307:0.0394987 308:0.0103583 309:0.870355 310:0 311:0.114107 312:0.0155375 313:0.923457 314:0.0310749 315:0.03511 316:0.0103583 317:0.000571506 318:0.0294752 319:0.0492812 320:0.0294167 321:0.919177 322:0.0334326 323:0.0206046 324:0.0178571 325:0.0714286 326:0.0743206 327:0.125686 328:0 329:0.145859 330:0.214201 331:0.0714286 332:0.0974213 333:0.199655 334:0 335:0.142857 336:0 337:0.0178571 338:0.235569 339:0.0737207 340:0.0112416 341:0.151416 342:0.367339 343:0.00619926 344:0.0217014 345:0 346:0.168992 347:0.171321 348:0.200368 349:0.0987896 350:0.15658 351:0.176049 352:0.147917 353:0.0247299 354:0.000634563 355:0 356:0 
0 1.271083249008053e-11 1.159536798426371e-11 2.412060823605253e-11 0 2.730678687252658e-11 1:0.0652174 2:0.434783 3:0.521739 4:0.891304 5:0.695652 6:0.695652 7:0.643617 8:0.967464 9:0.64762 10:0.598414 11:0.132828 12:0.5 13:0.5 14:0.5 15:0.706522 16:0.416667 17:0.416667 18:0.183009 19:0 20:0.339873 21:0.90675 22:0.982794 23:0.480887 24:0.831513 25:0.346409 26:0.269357 27:0.533414 28:0.610075 29:0.627799 30:0.151273 31:0.262526 32:0.0453306 33:0.0711039 34:0.477596 35:1 36:0.188519 37:1 38:0.952664 39:0.00412552 40:0.0349591 41:0.00825103 42:0.870853 43:0.00618827 44:0.114707 45:0.00825103 46:0.861926 47:0.0350669 48:0.0792032 49:0.0238037 50:0.00498312 51:0.0546628 52:0.100763 53:0.0657831 54:0.839501 55:0.0302072 56:0.0272079 57:0.0424064 58:0.0714286 59:0.130052 60:0.133696 61:0 62:0.180549 63:0.124324 64:0.0714286 65:0.131293 66:0.157228 67:0 68:0.0839305 69:0.0589266 70:0.0653887 71:0.222484 72:0.139947 73:0.0238699 74:0.190139 75:0.215315 76:0.0426406 77:0.0135738 78:0.0322672 79:0.188977 80:0.137604 81:0.176347 82:0.109248 83:0.14385 84:0.155492 85:0.151937 86:0.0288045 87:0.00217826 88:0 89:0 90:0.0652174 91:0.434783 92:0.543478 93:0.847826 94:0.695652 95:0.673913 96:0.615508 97:0.968521 98:0.656174 99:0.578087 100:0.244688 101:0.5 102:0.5 103:0.5 104:0.717391 105:0.416667 106:0.431818 107:0.191069 108:0 109:0.0764275 110:0.90675 111:1.02225 112:0.446106 113:0.426662 114:0.662372 115:0.316201 116:0.538603 117:0.639706 118:0.577206 119:0.223081 120:0.373016 121:0.0803571 122:0.107143 123:0.60034 124:1 125:0.25824 126:1 127:0.949282 128:0.00941049 129:0.0318973 130:0.00941049 131:0.878949 132:0.00941049 133:0.11164 134:0 135:0.799152 136:0.0423472 137:0.120859 138:0.037642 139:0.00344188 140:0.0598292 141:0.112642 142:0.0953895 143:0.814815 144:0.0279666 145:0.0260967 146:0.0292067 147:0.0714286 148:0.181479 149:0.20075 150:0 151:0.0729049 152:0.0596544 153:0.0714286 154:0.144397 155:0.197958 156:0 157:0.0585456 158:0.0843116 159:0.141333 160:0.178477 161:0.095164 162:0.0454497 163:0.26986 164:0.12686 165:0.0908912 166:0.0255091 167:0.0671375 168:0.232707 169:0.0756283 170:0.194662 171:0.122261 172:0.0383771 173:0.152827 174:0.189732 175:0.0417721 176:0.00354727 177:0 178:0 179:0.113636 180:0.454545 181:0.545455 182:0.886364 183:0.727273 184:0.681818 185:0.61123 186:0.965099 187:0.664153 188:0.582076 189:0.216117 190:1 191:0.5 192:0.5 193:0.693182 194:0.411765 195:0.431818 196:0.189207 197:0 198:0.461191 199:0.912908 200:0.996491 201:0.463648 202:0.480475 203:0.591271 204:0.258211 205:0.540787 206:0.583904 207:0.681507 208:0.199221 209:0.369312 210:0.0532307 211:0.10625 212:0.567143 213:1 214:0.252276 215:1 216:0.938038 217:0 218:0.0478459 219:0.0141157 220:0.823192 221:0 222:0.157987 223:0.018821 224:0.842433 225:0.0470525 226:0.0797432 227:0.0307711 228:0.00869501 229:0.0776889 230:0.131711 231:0.0904283 232:0.858769 233:0.0250062 234:0.0382201 235:0.042291 236:0.0714286 237:0.109033 238:0.117463 239:0 240:0.178283 241:0.16204 242:0.0714286 243:0.108357 244:0.181966 245:0 246:0.0742542 247:0.068603 248:0.0444559 249:0.187952 250:0.153266 251:0.00580591 252:0.171636 253:0.294027 254:0.0194569 255:0.0195145 256:0.00760724 257:0.14655 258:0.163237 259:0.139565 260:0.127377 261:0.169073 262:0.207619 263:0.138064 264:0.0234448 265:0.00126407 266:0 267:0 268:0.184211 269:0.473684 270:0.368421 271:0.973684 272:0.789474 273:0.578947 274:0.651303 275:0.950631 276:0.680253 277:0.620168 278:0.433545 279:0.5 280:0.5 281:1 282:0.618421 283:0.40625 284:0.416667 285:0 286:0 287:0.0781476 288:0.870903 289:1.21203 290:0.305879 291:0.252559 292:1.06802 293:0.278411 294:0.521429 295:0.589286 296:0.657143 297:0.0427923 298:0.0740741 299:0 300:0 301:0.265306 302:1 303:0.0571429 304:0.5 305:0.95941 306:0 307:0.0358844 308:0.00470525 309:0.918821 310:0.00470525 311:0.0717689 312:0.00470525 313:0.953269 314:0.018821 315:0.0279101 316:0 317:0 318:0.00129017 319:0.021982 320:0.0114937 321:0.984127 322:0 323:0 324:0.015873 325:0.0714286 326:0.0865851 327:0.176273 328:0 329:0.13319 330:0.162724 331:0.0714286 332:0.0993705 333:0.198999 334:0.142857 335:0 336:0 337:0.154762 338:0.13552 339:0.033903 340:0.00595238 341:0.350846 342:0.176159 343:0.146147 344:0.0407268 345:0.116698 346:0.113488 347:0.209275 348:0.164136 349:0.0630501 350:0.056832 351:0.0896469 352:0.164628 353:0.0290683 354:0.000394566 355:0 356:0 
0 6.262416896004759e-13 0 0 0 0 1:0.0652174 2:0.434783 3:0.565217 4:0.891304 5:0.695652 6:0.73913 7:0.627462 8:0.967464 9:0.64762 10:0.598414 11:0.133612 12:0.5 13:0.5 14:0.5 15:0.706522 16:0.416667 17:0.428571 18:0.164366 19:0 20:0.328732 21:0.90675 22:0.909753 23:0.546789 24:0.826628 25:0.361605 26:0.26726 27:0.562767 28:0.602362 29:0.61122 30:0.177787 31:0.272381 32:0.0943649 33:0.0739348 34:0.409661 35:1 36:0.217131 37:1 38:0.95215 39:0.00937984 40:0.0337805 41:0.00468992 42:0.8367 43:0.00234496 44:0.142195 45:0.0187597 46:0.859132 47:0.0312105 48:0.0708726 49:0.038785 50:0.00596655 51:0.0807978 52:0.106705 53:0.0836199 54:0.821429 55:0.0164462 56:0.0411998 57:0.03127 58:0.0714286 59:0.136111 60:0.167369 61:0 62:0.171253 63:0.109578 64:0.0714286 65:0.13048 66:0.142353 67:0 68:0.0799275 69:0.0629296 70:0.0558785 71:0.172686 72:0.193072 73:0.00708291 74:0.151796 75:0.276628 76:0.0250136 77:0.00950421 78:0.0274305 79:0.178783 80:0.0955487 81:0.135555 82:0.165543 83:0.177068 84:0.185554 85:0.157236 86:0.0309202 87:0.00255877 88:0 89:0 90:0.0652174 91:0.434783 92:0.586957 93:0.847826 94:0.695652 95:0.76087 96:0.606553 97:0.96414 98:0.654713 99:0.603142 100:0.282564 101:0.5 102:0.5 103:0.5 104:0.717391 105:0.416667 106:0.423077 107:0.174865 108:0 109:0.116577 110:0.90675 111:0.945311 112:0.514451 113:0.372958 114:0.786894 115:0.318274 116:0.550425 117:0.658482 118:0.569196 119:0.22449 120:0.342857 121:0.125 122:0.0833333 123:0.441106 124:1 125:0.143235 126:1 127:0.956563 128:0.0172777 129:0.0146409 130:0.0115184 131:0.849197 132:0.00575922 133:0.122007 134:0.0230369 135:0.794557 136:0.0230369 137:0.12038 138:0.0620261 139:0.00463702 140:0.0905943 141:0.122245 142:0.10669 143:0.857143 144:0.00689265 145:0.0237196 146:0.00591688 147:0.0714286 148:0.180206 149:0.227013 150:0 151:0.0663909 152:0.0502135 153:0.0714286 154:0.147078 155:0.186241 156:0 157:0.0589049 158:0.0839522 159:0.137238 160:0.152803 161:0.120979 162:0.0143463 163:0.240673 164:0.191103 165:0.0610608 166:0.0248692 167:0.0630417 168:0.233567 169:0.0541453 170:0.168733 171:0.17483 172:0.0421124 173:0.17764 174:0.199879 175:0.0467139 176:0.00468589 177:0 178:0 179:0.113636 180:0.431818 181:0.477273 182:0.886364 183:0.659091 184:0.704545 185:0.619261 186:0.961657 187:0.635781 188:0.635781 189:0.221213 190:0.853553 191:0.5 192:0.853553 193:0.693182 194:0.421875 195:0.4375 196:0.15619 197:0 198:0.564687 199:0.942 200:0.927295 201:0.499347 202:0.472909 203:0.600731 204:0.267739 205:0.523424 206:0.548077 207:0.709615 208:0.221146 209:0.391156 210:0.150013 211:0.150794 212:0.505601 213:0.75 214:0.376071 215:1 216:0.941922 217:0.0172777 218:0.0292817 219:0.0115184 220:0.737341 221:0 222:0.222345 223:0.0403145 224:0.822514 225:0.0651345 226:0.0503252 227:0.0620261 228:0.0111125 229:0.113891 230:0.154706 231:0.0857387 232:0.806122 233:0.0293188 234:0.0539311 235:0.0521444 236:0.0714286 237:0.107219 238:0.171912 239:0 240:0.176317 241:0.138143 242:0.0714286 243:0.114148 244:0.149405 245:0 246:0.112781 247:0.0300757 248:0.0479438 249:0.230229 250:0.110837 251:0.0156687 252:0.192485 253:0.25998 254:0.0252676 255:0.0238199 256:0.013211 257:0.198654 258:0.161637 259:0.174182 260:0.122075 261:0.126397 262:0.154757 263:0.146429 264:0.0264466 265:0.00171172 266:0 267:0 268:0.175 269:0.45 270:0.425 271:0.975 272:0.75 273:0.575 274:0.674812 275:0.961112 276:0.672917 277:0.586459 278:0.492283 279:0.5 280:0.5 281:0.5 282:0.625 283:0.4 284:0.375 285:0 286:0 287:0 288:0.927295 289:1.19029 290:0.291457 291:0.220267 292:1.16336 293:0.28083 294:0.651515 295:0.568182 296:0.549242 297:0.112245 298:0.102041 299:0 300:0 301:0.264286 302:1 303:0.047619 304:0.5 305:0.956077 306:0 307:0.0439226 308:0 309:0.911276 310:0 311:0.0829648 312:0.00575922 313:0.95432 314:0.0115184 315:0.034162 316:0 317:0 318:0.00218096 319:0.0101745 320:0.0138575 321:0.989796 322:0 323:0 324:0.0102041 325:0.0714286 326:0.0834413 327:0.156087 328:0 329:0.134358 330:0.198627 331:0.0714286 332:0.10561 333:0.17902 334:0.142857 335:0 336:0 337:0.121429 338:0.163955 339:0.0468125 340:0 341:0.355841 342:0.169105 343:0.141429 344:0.0114286 345:0.111429 346:0.134151 347:0.25209 348:0.135692 349:0.0341506 350:0.0673711 351:0.11226 352:0.153891 353:0.0256408 354:0.000255145 355:0 356:0 
0 0 0 7.22791878450951e-13 0 0 1:0.0555556 2:0.462963 3:0.555556 4:0.759259 5:0.685185 6:0.703704 7:0.596173 8:0.967464 9:0.64762 10:0.598414 11:0.131326 12:0.5 13:0.5 14:0.5 15:0.712963 16:0.411765 17:0.416667 18:0.193864 19:0 20:0.316644 21:1.00887 22:0.956133 23:0.418224 24:0.716425 25:0.361879 26:0.308227 27:0.536309 28:0.640625 29:0.62207 30:0.143044 31:0.279101 32:0.10084 33:0.0420168 34:0.436624 35:1 36:0.154 37:1 38:0.963441 39:0.00516059 40:0.0262381 41:0.00516059 42:0.851134 43:0.0025803 44:0.135965 45:0.0103212 46:0.810582 47:0.0287305 48:0.123765 49:0.036923 50:0.00861134 51:0.115024 52:0.144805 53:0.100536 54:0.825397 55:0.0119048 56:0.0277778 57:0.0271481 58:0.0714286 59:0.156617 60:0.214031 61:0.00968567 62:0.0827245 63:0.103786 64:0.0617429 65:0.116317 66:0.183667 67:0 68:0.0549501 69:0.087907 70:0.101493 71:0.16361 72:0.0949589 73:0.0542988 74:0.282628 75:0.160154 76:0.0659192 77:0.0133554 78:0.0743043 79:0.227147 80:0.0975707 81:0.176185 82:0.145541 83:0.0903965 84:0.10958 85:0.160127 86:0.0292897 87:0.00226565 88:0 89:0 90:0.0555556 91:0.462963 92:0.574074 93:0.759259 94:0.722222 95:0.648148 96:0.60289 97:0.9669 98:0.672016 99:0.549147 100:0.742206 101:0.5 102:0.5 103:0.5 104:0.712963 105:0.397059 106:0.454545 107:0 108:0 109:0 110:1.00887 111:0.996491 112:0.386876 113:0.126918 114:2.00626 115:0.360596 116:0.629808 117:0.605769 118:0.528846 119:0.0612245 120:0.122449 121:0 122:0 123:0.157143 124:1 125:1.42834e-33 126:1 127:0.975599 128:0 129:0.0244014 130:0 131:0.965838 132:0 133:0.034162 134:0 135:0.925917 136:0 137:0.068324 138:0.00575922 139:0 140:0.000988794 141:0.0141319 142:0.0279829 143:0.979592 144:0 145:0 146:0 147:0.0714286 148:0.180752 149:0.247819 150:0.00530251 151:0.0126751 152:0.0247503 153:0.0661261 154:0.152912 155:0.238234 156:0 157:0.0242964 158:0.118561 159:0.150947 160:0.119074 161:0.0693957 162:0.0943857 163:0.276803 164:0.146537 165:0.104421 166:0.00914522 167:0.116885 168:0.209101 169:0.0162803 170:0.208427 171:0.186478 172:0.0187505 173:0.130512 174:0.207642 175:0.0428437 176:0.00347241 177:0 178:0 179:0.0555556 180:0.462963 181:0.574074 182:0.796296 183:0.685185 184:0.685185 185:0.625055 186:0.974045 187:0.642214 188:0.571107 189:0.29531 190:0.5 191:0.5 192:0.5 193:0.722222 194:0.411765 195:0.386364 196:0.265982 197:0 198:0.0559962 199:1.00887 200:0.996491 201:0.386876 202:0.33071 203:0.769948 204:0.321563 205:0.510067 206:0.725877 207:0.583333 208:0.118515 209:0.226531 210:0.0833333 211:0.0238095 212:0.479123 213:0.75 214:0.0952381 215:1 216:0.969839 217:0.00575922 218:0.0244014 219:0 220:0.894234 221:0.00575922 222:0.0942478 223:0.00575922 224:0.750598 225:0.0322218 226:0.173757 227:0.043423 228:0.0090574 229:0.14208 230:0.136706 231:0.080591 232:0.877551 233:0.0153061 234:0.0153061 235:0.0102041 236:0.0714286 237:0.1752 238:0.2318 239:0.00530251 240:0.0524107 241:0.0847415 242:0.0661261 243:0.12007 244:0.192921 245:0 246:0.0331578 247:0.109699 248:0.125195 249:0.145736 250:0.0914711 251:0.0446022 252:0.292963 253:0.157175 254:0.0721841 255:0.0235576 256:0.0676752 257:0.219446 258:0.0878878 259:0.156379 260:0.175718 261:0.0504496 262:0.146702 263:0.164963 264:0.0301567 265:0.00220786 266:0 267:0 268:0.104167 269:0.4375 270:0.541667 271:0.854167 272:0.6875 273:0.708333 274:0.628127 275:0.96414 276:0.654713 277:0.603142 278:0.233041 279:1 280:0.5 281:0.5 282:0.708333 283:0.4375 284:0.409091 285:0.168254 286:0 287:0.516781 288:0.982794 289:0.968509 290:0.429762 291:0.433372 292:0.612927 293:0.269138 294:0.514925 295:0.615672 296:0.664179 297:0.239732 298:0.468254 299:0.242857 300:0.114286 301:0.776147 302:0.804087 303:0.506571 304:1 305:0.95757 306:0.0129712 307:0.0164874 308:0.0129712 309:0.742224 310:0 311:0.231834 312:0.0259424 313:0.781292 314:0.0488998 315:0.120908 316:0.0488998 317:0.00957751 318:0.139571 319:0.171256 320:0.145994 321:0.77381 322:0.00595238 323:0.0416667 324:0.0100156 325:0.0714286 326:0.113543 327:0.125189 328:0 329:0.158185 330:0.179557 331:0.0714286 332:0.106252 333:0.174418 334:0 335:0.0715357 336:0.0713214 337:0.0485795 338:0.186884 339:0.139367 340:0.0312019 341:0.229263 342:0.221848 343:0.0280607 344:0.0261563 345:0.0216798 346:0.16506 347:0.169969 348:0.159406 349:0.115528 350:0.145155 351:0.168985 352:0.131113 353:0.021123 354:0.00116699 355:0 356:0 
2.528341025024595e-11 2.849516520601528e-11 0 1.365967378762516e-11 3.877040536233193e-11 3.019214595832734e-11 1:0.119048 2:0.452381 3:0.47619 4:0.928571 5:0.738095 6:0.714286 7:0.632817 8:0.954344 9:0.660357 10:0.633631 11:0.123049 12:1 13:0.5 14:0.5 15:0.702381 16:0.411765 17:0.395833 18:0.0591953 19:0.00657725 20:0.328863 21:0.890275 22:0.956133 23:0.519146 24:0.904995 25:0.328863 26:0.263813 27:0.540117 28:0.582585 29:0.647629 30:0.396683 31:0.340278 32:0.180193 33:0.0920635 34:0.400559 35:1 36:0.21713 37:1 38:0.894872 39:0.0143407 40:0.0704822 41:0.0203049 42:0.814322 43:0.0114726 44:0.136919 45:0.0372858 46:0.85948 47:0.045184 48:0.0752594 49:0.020077 50:0.00608433 51:0.0512755 52:0.0679704 53:0.049838 54:0.771839 55:0.0295961 56:0.0718079 57:0.0310405 58:0.0714286 59:0.102467 60:0.140754 61:0 62:0.177403 63:0.130232 64:0.0714286 65:0.122684 66:0.183602 67:0 68:0.136402 69:0.00645535 70:0.0318772 71:0.233373 72:0.133498 73:0.0173516 74:0.188965 75:0.252078 76:0.00833601 77:0.0218762 78:0.0185837 79:0.22177 80:0.155993 81:0.197414 82:0.0814418 83:0.137676 84:0.15691 85:0.156046 86:0.0292387 87:0.00180433 88:0 89:0 90:0.119048 91:0.452381 92:0.47619 93:0.928571 94:0.738095 95:0.714286 96:0.632817 97:0.954344 98:0.660357 99:0.633631 100:0.204836 101:1 102:0.5 103:0.5 104:0.702381 105:0.411765 106:0.395833 107:0.0547447 108:0 109:0.481753 110:0.890275 111:0.956133 112:0.519146 113:0.543649 114:0.547447 115:0.271419 116:0.487128 117:0.611775 118:0.664062 119:0.311746 120:0.413492 121:0.144402 122:0.138095 123:0.583496 124:1 125:0.275 126:1 127:0.925114 128:0.0194568 129:0.0274791 130:0.0279504 131:0.737429 132:0.00648561 133:0.210686 134:0.0453993 135:0.771163 136:0.0662443 137:0.123679 138:0.0389137 139:0.0187871 140:0.111035 141:0.159477 142:0.11101 143:0.778474 144:0.0147346 145:0.0377813 146:0.00234332 147:0.0714286 148:0.115063 149:0.15184 150:0 151:0.151646 152:0.122369 153:0.0714286 154:0.122459 155:0.193766 156:0 157:0.132267 158:0.01059 159:0.0672964 160:0.251037 161:0.074739 162:0.0366311 163:0.287797 164:0.139643 165:0.0175982 166:0.0461831 167:0.0392323 168:0.256243 169:0.167429 170:0.24784 171:0.0574766 172:0.0694399 173:0.0985582 174:0.164024 175:0.0325762 176:0.00234692 177:0 178:0 179:0.175 180:0.475 181:0.4 182:0.925 183:0.775 184:0.6 185:0.626824 186:0.950631 187:0.680253 188:0.620168 189:0.181027 190:0 191:0.5 192:0.5 193:0.6375 194:0.40625 195:0.357143 196:0 197:0.0108769 198:0.228414 199:0.896055 200:1.15839 201:0.336675 202:0.574614 203:0.467706 204:0.278104 205:0.532631 206:0.567497 207:0.662879 208:0.763959 209:0.493915 210:0.28189 211:0.138095 212:0.539891 213:1 214:0.214286 215:1 216:0.809214 217:0.0129712 218:0.1319 219:0.0459147 220:0.753715 221:0.0259424 222:0.155486 223:0.0648561 224:0.842897 225:0.0738652 226:0.0767522 227:0.00648561 228:0 229:0.00355663 230:0.0242814 231:0.05109 232:0.809524 233:0.0238095 234:0.0603676 235:0.0467752 236:0.0714286 237:0.099098 238:0.194442 239:0 240:0.14918 241:0.136662 242:0.0714286 243:0.0928016 244:0.184959 245:0.139444 246:0.00341292 247:0 248:0.146252 249:0.158215 250:0.0413202 251:0.0504902 252:0.30268 253:0.158186 254:0.157808 255:0.056633 256:0.117525 257:0.183384 258:0.171035 259:0.113031 260:0.0174274 261:0.0628263 262:0.12033 263:0.159729 264:0.0279942 265:0.000643772 266:0 267:0 268:0.175 269:0.475 270:0.375 271:0.925 272:0.775 273:0.575 274:0.632684 275:0.950631 276:0.680253 277:0.620168 278:0.674998 279:0.5 280:0.5 281:0.5 282:0.6375 283:0.4375 284:0.416667 285:0 286:0 287:0 288:0.896055 289:1.21203 290:0.291457 291:0.154105 292:1.70338 293:0.28432 294:0.625 295:0.545455 296:0.602273 297:0.172619 298:0.178571 299:0.114286 300:1.71401e-33 301:0.0714286 302:1 303:0 304:0 305:0.923059 306:0 307:0.0769414 308:0 309:0.935587 310:0.0129712 311:0.0384707 312:0.0129712 313:0.994504 314:0 315:0.00549582 316:0 317:0 318:0 319:0.00594867 320:0.0212243 321:0.952381 322:0 323:0.0119048 324:0 325:0.0714286 326:0.103059 327:0.199199 328:0 329:0.141246 330:0.127262 331:0.0714286 332:0.0990704 333:0.187306 334:0.142857 335:0 336:0 337:0.134921 338:0.160752 339:0.0643527 340:0 341:0.359643 342:0.137474 343:0.142857 344:0.00634921 345:0.128571 346:0.229876 347:0.190683 348:0.10847 349:0 350:0.0738531 351:0.11934 352:0.16286 353:0.0285192 354:0.000461634 355:0 356:0 
0 3.662439215173606e-12 1.001985257374122e-11 7.262009050912174e-12 0 0 1:0.119048 2:0.452381 3:0.47619 4:0.928571 5:0.738095 6:0.714286 7:0.632817 8:0.954344 9:0.660357 10:0.633631 11:0.120668 12:1 13:0.5 14:0.5 15:0.702381 16:0.411765 17:0.395833 18:0.0580499 19:0 20:0.328949 21:0.890275 22:0.956133 23:0.519146 24:0.922852 25:0.322499 26:0.263443 27:0.539106 28:0.576301 29:0.654412 30:0.373349 31:0.320261 32:0.168931 33:0.0863095 34:0.383379 35:1 36:0.200427 37:1 38:0.895822 39:0.0135831 40:0.0713626 41:0.0192322 42:0.82183 43:0.0108665 44:0.131988 45:0.035316 46:0.866903 47:0.042797 48:0.0712834 49:0.0190163 50:0.00574496 51:0.0484155 52:0.0654021 53:0.0510791 54:0.781058 55:0.0278552 56:0.0675839 57:0.0292146 58:0.0714286 59:0.101732 60:0.141093 61:0 62:0.178115 63:0.129868 64:0.0714286 65:0.123183 66:0.183152 67:0 68:0.136725 69:0.00613258 70:0.0302834 71:0.23269 72:0.136864 73:0.016484 74:0.184622 75:0.2562 76:0.00791921 77:0.0207824 78:0.0176545 79:0.221045 80:0.153957 81:0.193897 82:0.0821213 83:0.141595 84:0.161029 85:0.155682 86:0.0290512 87:0.00176944 88:0 89:0 90:0.119048 91:0.452381 92:0.47619 93:0.928571 94:0.738095 95:0.714286 96:0.632817 97:0.954344 98:0.660357 99:0.633631 100:0.204836 101:1 102:0.5 103:0.5 104:0.702381 105:0.411765 106:0.395833 107:0.0547447 108:0 109:0.481753 110:0.890275 111:0.956133 112:0.519146 113:0.543649 114:0.547447 115:0.271419 116:0.487128 117:0.611775 118:0.664062 119:0.311746 120:0.413492 121:0.144402 122:0.138095 123:0.583496 124:1 125:0.275 126:1 127:0.925114 128:0.0194568 129:0.0274791 130:0.0279504 131:0.737429 132:0.00648561 133:0.210686 134:0.0453993 135:0.771163 136:0.0662443 137:0.123679 138:0.0389137 139:0.0187871 140:0.111035 141:0.159477 142:0.11101 143:0.778474 144:0.0147346 145:0.0377813 146:0.00234332 147:0.0714286 148:0.115063 149:0.15184 150:0 151:0.151646 152:0.122369 153:0.0714286 154:0.122459 155:0.193766 156:0 157:0.132267 158:0.01059 159:0.0672964 160:0.251037 161:0.074739 162:0.0366311 163:0.287797 164:0.139643 165:0.0175982 166:0.0461831 167:0.0392323 168:0.256243 169:0.167429 170:0.24784 171:0.0574766 172:0.0694399 173:0.0985582 174:0.164024 175:0.0325762 176:0.00234692 177:0 178:0 179:0.175 180:0.475 181:0.4 182:0.925 183:0.775 184:0.6 185:0.626824 186:0.950631 187:0.680253 188:0.620168 189:0.181027 190:0 191:0.5 192:0.5 193:0.6375 194:0.40625 195:0.357143 196:0 197:0.0108769 198:0.228414 199:0.896055 200:1.15839 201:0.336675 202:0.574614 203:0.467706 204:0.278104 205:0.532631 206:0.567497 207:0.662879 208:0.763959 209:0.493915 210:0.28189 211:0.138095 212:0.539891 213:1 214:0.214286 215:1 216:0.809214 217:0.0129712 218:0.1319 219:0.0459147 220:0.753715 221:0.0259424 222:0.155486 223:0.0648561 224:0.842897 225:0.0738652 226:0.0767522 227:0.00648561 228:0 229:0.00355663 230:0.0242814 231:0.05109 232:0.809524 233:0.0238095 234:0.0603676 235:0.0467752 236:0.0714286 237:0.099098 238:0.194442 239:0 240:0.14918 241:0.136662 242:0.0714286 243:0.0928016 244:0.184959 245:0.139444 246:0.00341292 247:0 248:0.146252 249:0.158215 250:0.0413202 251:0.0504902 252:0.30268 253:0.158186 254:0.157808 255:0.056633 256:0.117525 257:0.183384 258:0.171035 259:0.113031 260:0.0174274 261:0.0628263 262:0.12033 263:0.159729 264:0.0279942 265:0.000643772 266:0 267:0 268:0.175 269:0.475 270:0.375 271:0.925 272:0.775 273:0.575 274:0.632684 275:0.950631 276:0.680253 277:0.620168 278:0.783486 279:0.5 280:0.5 281:0.5 282:0.6375 283:0.40625 284:0.416667 285:0 286:0 287:0 288:0.896055 289:1.21203 290:0.291457 291:0.132767 292:1.97716 293:0.284883 294:0.618421 295:0.539474 296:0.598684 297:0.0714286 298:0.0952381 299:0.0285714 300:4.28503e-34 301:0.107143 302:1 303:1.07126e-33 304:1 305:0.939546 306:0 307:0.060454 308:0 309:0.942072 310:0.0129712 311:0.0384707 312:0.00648561 313:0.994504 314:0 315:0.00549582 316:0 317:0 318:0 319:0 320:0.00858199 321:0.97619 322:0 323:0 324:0 325:0.0714286 326:0.103059 327:0.199902 328:0 329:0.143838 330:0.122964 331:0.0714286 332:0.10155 333:0.185829 334:0.142857 335:0 336:0 337:0.134921 338:0.160391 339:0.0708741 340:0 341:0.351746 342:0.139211 343:0.142857 344:0.00634921 345:0.128571 346:0.229616 347:0.188451 348:0.105976 349:0 350:0.0764026 351:0.121776 352:0.163076 353:0.0286245 354:0.000495997 355:0 356:0 
0 0 0 0 5.575433869468995e-13 0 1:0.119048 2:0.404762 3:0.452381 4:0.880952 5:0.738095 6:0.690476 7:0.605867 8:0.940386 9:0.692669 10:0.63762 11:0.134618 12:0.5 13:0.5 14:1 15:0.714286 16:0.426471 17:0.442308 18:0.0741045 19:0 20:0.429806 21:0.890275 22:0.91795 23:0.554307 24:0.803241 25:0.377933 26:0.253942 27:0.526483 28:0.576897 29:0.666314 30:0.131593 31:0.234832 32:0.0484179 33:0.0531136 34:0.302712 35:1 36:0.123601 37:1 38:0.958384 39:0.00492355 40:0.0331377 41:0.00355507 42:0.886265 43:0 44:0.101293 45:0.0124428 46:0.926982 47:0.0163394 48:0.043276 49:0.0134022 50:0.00401392 51:0.0319677 52:0.080926 53:0.0445021 54:0.873005 55:0.0300242 56:0.0259554 57:0.0206676 58:0.0714286 59:0.101623 60:0.129576 61:0 62:0.188727 63:0.151089 64:0.0714286 65:0.120407 66:0.165721 67:0 68:0.0952098 69:0.0476473 70:0.027043 71:0.200322 72:0.181921 73:0.0186405 74:0.156168 75:0.273047 76:0.0114129 77:0.0169608 78:0.0161076 79:0.180291 80:0.135438 81:0.139198 82:0.104622 83:0.197925 84:0.198044 85:0.15003 86:0.0276461 87:0.00178541 88:0 89:0 90:0.119048 91:0.404762 92:0.47619 93:0.880952 94:0.738095 95:0.761905 96:0.624628 97:0.933224 98:0.689536 99:0.662459 100:0.165571 101:0.5 102:0.5 103:1 104:0.714286 105:0.426471 106:0.416667 107:0.107594 108:0 109:0.520038 110:0.890275 111:0.956133 112:0.519146 113:0.663871 114:0.448309 115:0.263036 116:0.518421 117:0.569198 118:0.690789 119:0.291016 120:0.562619 121:0.124001 122:0.121693 123:0.678117 124:1 125:0.346821 126:1 127:0.928297 128:0.0119403 129:0.0511407 130:0.00862159 131:0.753398 132:0 133:0.216427 134:0.0301756 135:0.852803 136:0.0353147 137:0.0793803 138:0.0325023 139:0.0107247 140:0.0855548 141:0.193123 142:0.103822 143:0.735685 144:0.0632081 145:0.0665081 146:0.0331206 147:0.0714286 148:0.114701 149:0.129206 150:0 151:0.18566 152:0.150586 153:0.0714286 154:0.125687 155:0.151303 156:0 157:0.0874899 158:0.0553672 159:0.0518737 160:0.24076 161:0.127194 162:0.0208273 163:0.220265 164:0.196223 165:0.0178614 166:0.0255202 167:0.0280415 168:0.192114 169:0.177936 170:0.184136 171:0.100591 172:0.137268 173:0.136532 174:0.15509 175:0.0300853 176:0.00233209 177:0 178:0 179:0.175 180:0.475 181:0.35 182:0.875 183:0.775 184:0.55 185:0.593105 186:0.9445 187:0.6905 188:0.627 189:0.329261 190:0.5 191:0.5 192:1 193:0.65 194:0.40625 195:0.428571 196:0 197:0 198:0.209081 199:0.896055 200:1.15839 201:0.336675 202:0.298928 203:0.899047 204:0.26898 205:0.532609 206:0.603261 207:0.61413 208:0.114286 209:0.171429 210:0.0238095 211:0.047619 212:0.267857 213:0.75 214:0.0595238 215:0.75 216:0.959818 217:0 218:0.040182 219:0 220:0.901371 221:0 222:0.0986285 223:0 224:0.962155 225:0.00431079 226:0.0292233 227:0.00431079 228:0 229:0.00455383 230:0.0285374 231:0.0305771 232:0.957143 233:0.0142857 234:0 235:0.0142857 236:0.0714286 237:0.0990047 238:0.174838 239:0 240:0.162158 241:0.158916 242:0.0714286 243:0.0937726 244:0.168454 245:0.133406 246:0.00945118 247:0 248:0.138916 249:0.143032 250:0.0765323 251:0.0133752 252:0.348066 253:0.137222 254:0.135186 255:0.0376275 256:0.109675 257:0.18953 258:0.192737 259:0.120742 260:0.0152895 261:0.102876 262:0.0963365 263:0.151103 264:0.0253041 265:0.000524952 266:0 267:0 268:0.175 269:0.475 270:0.375 271:0.875 272:0.775 273:0.525 274:0.590141 275:0.95091 276:0.693247 277:0.596623 278:2.58736 279:0.5 280:0.5 281:0.5 282:0.65 283:0.4375 284:0.458333 285:0 286:0 287:0 288:0.896055 289:1.21203 290:0.291457 291:0.0375 292:7 293:0.278233 294:0.45 295:0.6 296:0.7 297:0 298:0 299:0 300:0 301:5.35628e-34 302:1 303:0 304:0 305:0.985388 306:0 307:0.0146116 308:0 309:1 310:0 311:0 312:0 313:0.996347 314:0 315:0.00365291 316:0 317:0 318:0.00137606 319:0.00515989 320:0 321:1 322:0 323:0 324:0 325:0.0714286 326:0.102096 327:0.190383 328:0 329:0.148134 330:0.139088 331:0.0714286 332:0.0996247 333:0.177818 334:0.142857 335:0 336:0 337:0.142857 338:0.134043 339:0.0802662 340:0 341:0.401671 342:0.0983052 343:0.142857 344:0.00714286 345:0.135714 346:0.202536 347:0.213968 348:0.138622 349:0 350:0.0853101 351:0.0738496 352:0.155737 353:0.0269375 354:0.00067487 355:0 356:0 
0 0 0 0 7.713081857231774e-12 0 1:0.0681818 2:0.431818 3:0.522727 4:0.795455 5:0.75 6:0.704545 7:0.565439 8:0.946516 9:0.695351 10:0.611629 11:0.115291 12:0.5 13:0.5 14:0.5 15:0.75 16:0.430556 17:0.392857 18:0.154439 19:0 20:0.456881 21:0.885067 22:0.909753 23:0.566729 24:0.882963 25:0.347487 26:0.2617 27:0.516425 28:0.612305 29:0.64959 30:0.15463 31:0.258957 32:0.0639382 33:0.0462843 34:0.458377 35:1 36:0.216029 37:1 38:0.944392 39:0.00897075 40:0.0399089 41:0.00672806 42:0.839128 43:0.00224269 44:0.143963 45:0.0146666 46:0.877793 47:0.0281227 48:0.0616905 49:0.0323938 50:0.00625648 51:0.075672 52:0.136354 53:0.0652104 54:0.809665 55:0.0302447 56:0.0249005 57:0.0465523 58:0.0714286 59:0.128261 60:0.153479 61:0 62:0.163416 63:0.143013 64:0.0714286 65:0.112431 66:0.156543 67:0 68:0.0924834 69:0.0503738 70:0.0570525 71:0.182491 72:0.149582 73:0.0415856 74:0.191672 75:0.234759 76:0.0334455 77:0.0121076 78:0.0511939 79:0.195482 80:0.105627 81:0.169774 82:0.122174 83:0.191169 84:0.119025 85:0.158139 86:0.0324059 87:0.00315888 88:0 89:0 90:0.0681818 91:0.431818 92:0.613636 93:0.840909 94:0.75 95:0.704545 96:0.61372 97:0.959627 98:0.689258 99:0.554074 100:0.266118 101:0.5 102:0.5 103:0.5 104:0.738636 105:0.430556 106:0.4 107:0.21585 108:0 109:0.21585 110:0.885067 111:1.0637 112:0.426627 113:0.394844 114:0.719501 115:0.31501 116:0.51875 117:0.666667 118:0.608333 119:0.217705 120:0.328274 121:0.108247 122:0.0748299 123:0.535053 124:0.5 125:0.251134 126:1 127:0.948562 128:0.00517916 129:0.0307212 130:0.0155375 131:0.875534 132:0.00517916 133:0.114107 134:0.00517916 135:0.818922 136:0.0298831 137:0.116133 138:0.0350622 139:0.00231608 140:0.0579401 141:0.145908 142:0.0898362 143:0.825893 144:0.0288839 145:0.0237623 146:0.0411037 147:0.0714286 148:0.177831 149:0.210833 150:0 151:0.0592352 152:0.0606558 153:0.0714286 154:0.137751 155:0.210838 156:0 157:0.00573076 158:0.137126 159:0.0941684 160:0.154683 161:0.134788 162:0.0383594 163:0.240187 164:0.194958 165:0.0319136 166:0.012889 167:0.0793862 168:0.182278 169:0.0779068 170:0.149482 171:0.23689 172:0.0442841 173:0.184969 174:0.194499 175:0.0423643 176:0.00312828 177:0 178:0 179:0.119048 180:0.404762 181:0.47619 182:0.833333 183:0.690476 184:0.714286 185:0.572041 186:0.943484 187:0.677394 188:0.647828 189:0.180463 190:1 191:0.5 192:0.5 193:0.702381 194:0.441176 195:0.395833 196:0.0960389 197:0 198:0.629588 199:0.890275 200:0.956133 201:0.519146 202:0.55781 203:0.533549 204:0.256348 205:0.513575 206:0.579861 207:0.701703 208:0.197126 209:0.369345 210:0.094842 211:0.0574108 212:0.585125 213:0.5 214:0.393405 215:1 216:0.944173 217:0.0155375 218:0.03511 219:0.00517916 220:0.730221 221:0 222:0.235909 223:0.0338703 224:0.84584 225:0.0557788 226:0.0482762 227:0.0501047 228:0.0130498 229:0.129495 230:0.201604 231:0.0873146 232:0.798457 233:0.0234142 234:0.0265963 235:0.0527892 236:0.0714286 237:0.108658 238:0.101191 239:0 240:0.2128 241:0.162769 242:0.0714286 243:0.121697 244:0.150028 245:0 246:0.128902 247:0.0139552 248:0.0504295 249:0.255505 250:0.120572 251:0.0544861 252:0.21279 253:0.163359 254:0.0253261 255:0.0364332 256:0.0415336 257:0.199793 258:0.191146 259:0.218313 260:0.0605936 261:0.135425 262:0.0914357 263:0.146442 264:0.0269489 265:0.00206567 266:0 267:0 268:0.184211 269:0.473684 270:0.368421 271:0.868421 272:0.789474 273:0.526316 274:0.572467 275:0.944331 276:0.705076 277:0.602538 278:0.507441 279:0.5 280:0.5 281:1 282:0.644737 283:0.40625 284:0.375 285:0 286:0 287:0 288:0.870903 289:1.21203 290:0.305879 291:0.189661 292:1.42221 293:0.261602 294:0.537037 295:0.583333 296:0.611111 297:0.0357143 298:0.0714286 299:0 300:0 301:0.212302 302:1 303:0.0119048 304:0.195913 305:0.960501 306:0 307:0.0394987 308:0 309:0.921003 310:0 311:0.0789974 312:0 313:0.989642 314:0.00517916 315:0 316:0.00517916 317:0 318:0.00311897 319:0.0290202 320:0.0282273 321:0.991071 322:0.00736179 323:0.00156678 324:0 325:0.0714286 326:0.0923378 327:0.144223 328:0 329:0.167 330:0.187495 331:0.0714286 332:0.0860182 333:0.180069 334:0.142857 335:0 336:0 337:0.142857 338:0.133576 339:0.0655584 340:0 341:0.387935 342:0.127217 343:0.142857 344:0.0107541 345:0.132103 346:0.147684 347:0.245579 348:0.131429 349:0.0142253 350:0.093757 351:0.0816114 352:0.148117 353:0.0240578 354:0.00037728 355:0 356:0 
0 0 0 0 2.338102029041749e-11 0 1:0.075 2:0.4 3:0.525 4:0.875 5:0.75 6:0.725 7:0.620769 8:0.946516 9:0.695351 10:0.611629 11:0.121652 12:0.5 13:0.5 14:0.5 15:0.725 16:0.426471 17:0.416667 18:0.095059 19:0 20:0.387026 21:0.866302 22:0.956133 23:0.54042 24:0.920481 25:0.332706 26:0.273869 27:0.534949 28:0.612103 29:0.631538 30:0.146919 31:0.252268 32:0.048987 33:0.0416667 34:0.436033 35:1 36:0.181317 37:1 38:0.956479 39:0.00897075 40:0.0323072 41:0.00224269 42:0.849222 43:0 44:0.140081 45:0.0106973 46:0.888614 47:0.0156136 48:0.0717043 49:0.0240683 50:0.00289538 51:0.0586149 52:0.138077 53:0.0710348 54:0.819771 55:0.0245986 56:0.0242855 57:0.0381971 58:0.0714286 59:0.132803 60:0.153935 61:0 62:0.146437 63:0.143188 64:0.0714286 65:0.105805 66:0.174973 67:0 68:0.0880919 69:0.0547653 70:0.0499909 71:0.17535 72:0.149627 73:0.0352126 74:0.180015 75:0.266948 76:0.0367144 77:0.012514 78:0.0350878 79:0.186011 80:0.117025 81:0.154822 82:0.132314 83:0.164369 84:0.161143 85:0.176342 86:0.0386524 87:0.00365205 88:0 89:0 90:0.075 91:0.4 92:0.55 93:0.875 94:0.75 95:0.75 96:0.629521 97:0.946516 98:0.695351 99:0.611629 100:0.205047 101:0.5 102:0.5 103:0.5 104:0.725 105:0.426471 106:0.409091 107:0.160224 108:0 109:0.377672 110:0.866302 111:0.996491 112:0.502843 113:0.546109 114:0.549341 115:0.304451 116:0.530766 117:0.639286 118:0.61534 119:0.229752 120:0.439881 121:0.0816327 122:0.0612245 123:0.644687 124:1 125:0.203373 126:1 127:0.952951 128:0.0155375 129:0.0263325 130:0.00517916 131:0.817133 132:0 133:0.168522 134:0.0143456 135:0.807374 136:0.0308783 137:0.121703 138:0.0400447 139:0.00339134 140:0.0850932 141:0.176712 142:0.133222 143:0.808036 144:0.0104954 145:0.0386118 146:0.0178571 147:0.0714286 148:0.158957 149:0.181183 150:0 151:0.0847485 152:0.0930092 153:0.0714286 154:0.127845 155:0.2114 156:0 157:0.0663215 158:0.0765356 159:0.107223 160:0.178108 161:0.0837569 162:0.0680287 163:0.272037 164:0.147989 165:0.0732798 166:0.0238572 167:0.0680957 168:0.212864 169:0.114152 170:0.187769 171:0.118764 172:0.0494668 173:0.151752 174:0.199906 175:0.0476556 176:0.00462506 177:0 178:0 179:0.125 180:0.45 181:0.425 182:0.875 183:0.75 184:0.725 185:0.613536 186:0.935194 187:0.674078 188:0.674078 189:0.214772 190:0.853553 191:0.5 192:0.853553 193:0.6875 194:0.411765 195:0.4 196:0 197:0 198:0.523417 199:0.866302 200:1.03907 201:0.463648 202:0.501512 203:0.585729 204:0.254918 205:0.4868 206:0.590074 207:0.686747 208:0.196333 209:0.338988 210:0.0430239 211:0.0680272 212:0.515847 213:1 214:0.231905 215:1 216:0.953741 217:0.0155375 218:0.0307212 219:0 220:0.773824 221:0 222:0.206651 223:0.0195247 224:0.895119 225:0.0155375 226:0.0658312 227:0.023512 228:0.00371971 229:0.0728175 230:0.169521 231:0.0575253 232:0.865162 233:0.0292619 234:0.0286526 235:0.0322807 236:0.0714286 237:0.125407 238:0.122732 239:0 240:0.191735 241:0.17443 242:0.0714286 243:0.0915289 244:0.15131 245:0 246:0.138131 247:0.00472636 248:0.047852 249:0.23239 250:0.124823 251:0.0328282 252:0.19765 253:0.221599 254:0.0166274 255:0.0401329 256:0.0170689 257:0.210485 258:0.176697 259:0.183132 260:0.0907633 261:0.141984 262:0.12311 263:0.148925 264:0.0266746 265:0.0015163 266:0 267:0 268:0.175 269:0.475 270:0.4 271:0.875 272:0.775 273:0.55 274:0.594888 275:0.95091 276:0.693247 277:0.596623 278:0.490389 279:0.5 280:0.5 281:0.5 282:0.625 283:0.40625 284:0.35 285:0 286:0 287:0 288:0.896055 289:1.26791 290:0.244979 291:0.197855 292:1.29514 293:0.266092 294:0.594828 295:0.590517 296:0.581897 297:0.0758929 298:0.0982143 299:0.0204082 300:3.06073e-34 301:0.154762 302:1 303:0 304:0 305:0.959711 306:0.00517916 307:0.03511 308:0 309:0.933378 310:0 311:0.0614424 312:0.00517916 313:0.95892 314:0.00517916 315:0.0307212 316:0.00517916 317:0 318:0.00430402 319:0.019696 320:0.0146387 321:0.991071 322:0 323:0.00892857 324:0 325:0.0714286 326:0.0904075 327:0.153614 328:0 329:0.164801 330:0.218642 331:0.0714286 332:0.0696087 333:0.16007 334:0.142857 335:0 336:0 337:0.131872 338:0.124122 339:0.0813711 340:0.0096448 341:0.352745 342:0.157388 343:0.142857 344:0.0205993 345:0.116668 346:0.139724 347:0.235093 348:0.0991408 349:0.0222356 350:0.124214 351:0.0994683 352:0.145354 353:0.0235884 354:0.000348731 355:0 356:0 
0 0 1.44858173518728e-11 0 0 0 1:0.075 2:0.4 3:0.525 4:0.875 5:0.75 6:0.725 7:0.620769 8:0.946516 9:0.695351 10:0.611629 11:0.120831 12:0.5 13:0.5 14:0.5 15:0.725 16:0.426471 17:0.416667 18:0.0876738 19:0 20:0.384416 21:0.866302 22:0.956133 23:0.54042 24:0.926731 25:0.330463 26:0.26602 27:0.532706 28:0.61122 29:0.634439 30:0.129654 31:0.203755 32:0.0391896 33:0.0333333 34:0.327336 35:1 36:0.133615 37:1 38:0.96115 39:0.00736473 40:0.0296437 41:0.00184118 42:0.876215 43:0 44:0.115003 45:0.0087822 46:0.910115 47:0.0128184 48:0.057307 49:0.0197594 50:0.00235778 51:0.0472558 52:0.108646 53:0.0541036 54:0.859925 55:0.0198681 56:0.0196152 57:0.0281042 58:0.0714286 59:0.124819 60:0.148575 61:0 62:0.1584 63:0.155847 64:0.0714286 65:0.101099 66:0.168403 67:0 68:0.0904263 69:0.0524309 70:0.0363008 71:0.163758 72:0.172069 73:0.0243603 74:0.152759 75:0.307897 76:0.0254582 77:0.0103564 78:0.0241121 79:0.172663 80:0.117021 81:0.138716 82:0.143734 83:0.192259 84:0.17568 85:0.168347 86:0.034877 87:0.00287341 88:0 89:0 90:0.075 91:0.4 92:0.55 93:0.875 94:0.75 95:0.75 96:0.629521 97:0.946516 98:0.695351 99:0.611629 100:0.163441 101:0.5 102:0.5 103:0.5 104:0.725 105:0.426471 106:0.409091 107:0.118591 108:0 109:0.437876 110:0.866302 111:0.996491 112:0.502843 113:0.685126 114:0.437876 115:0.287469 116:0.518374 117:0.622222 118:0.643875 119:0.226387 120:0.408333 121:0.0731456 122:0.0687831 123:0.660578 124:1 125:0.313201 126:1 127:0.957186 128:0.0129324 129:0.0255704 130:0.00431079 131:0.776591 132:0 133:0.207158 134:0.0162511 135:0.827396 136:0.0257011 137:0.104951 138:0.0419522 139:0.00580968 140:0.0974716 141:0.206904 142:0.123589 143:0.753617 144:0.0290202 145:0.0313051 146:0.0450833 147:0.0714286 148:0.148181 149:0.160011 150:0 151:0.121788 152:0.120846 153:0.0714286 154:0.116104 155:0.190213 156:0 157:0.070689 158:0.0721681 159:0.0792068 160:0.170001 161:0.132526 162:0.0480252 163:0.217874 164:0.20951 165:0.0524329 166:0.0201868 167:0.0480463 168:0.182598 169:0.121782 170:0.164033 171:0.13957 172:0.105793 173:0.165558 174:0.183472 175:0.041125 176:0.00392515 177:0 178:0 179:0.175 180:0.475 181:0.4 182:0.875 183:0.775 184:0.6 185:0.593105 186:0.9445 187:0.6905 188:0.627 189:0.267371 190:0.5 191:0.5 192:0.5 193:0.65 194:0.40625 195:0.428571 196:0 197:0 198:0.322583 199:0.896055 200:1.15839 201:0.336675 202:0.368122 203:0.730057 204:0.260257 205:0.537037 206:0.585648 207:0.648148 208:0.110714 209:0.15 210:0.0357143 211:0.0238095 212:0.303571 213:1 214:0.0608466 215:1 216:0.95916 217:0.00431079 218:0.0365291 219:0 220:0.862387 221:0 222:0.128991 223:0.00862159 224:0.949881 225:0.00431079 226:0.0328762 227:0.0129324 228:0.00107392 229:0.0256032 230:0.0767054 231:0.0317978 232:0.942857 233:0.00357143 234:0.0107143 235:0.00964971 236:0.0714286 237:0.0930478 238:0.148102 239:0 240:0.17054 241:0.216042 242:0.0714286 243:0.069237 244:0.160174 245:0.089218 246:0.0536392 247:0 248:0.0833255 249:0.162454 250:0.101568 251:0.0257191 252:0.242813 253:0.241263 254:0.0971587 255:0.0365149 256:0.0629936 257:0.137902 258:0.190592 259:0.130123 260:0.0673626 261:0.158466 262:0.118888 263:0.143297 264:0.0232825 265:0.00055352 266:0 267:0 268:0.175 269:0.475 270:0.4 271:0.875 272:0.775 273:0.55 274:0.594888 275:0.95091 276:0.693247 277:0.596623 278:1.077 279:0.5 280:0.5 281:0.5 282:0.625 283:0.40625 284:0.45 285:0 286:0 287:0 288:0.896055 289:1.26791 290:0.244979 291:0.0900888 292:2.84441 293:0.271183 294:0.615385 295:0.576923 296:0.586538 297:0.05 298:0.0142857 299:0 300:0 301:0.0178571 302:1 303:0 304:0 305:0.963471 306:0 307:0.0365291 308:0 309:0.992036 310:0 311:0.00365291 312:0.00431079 313:0.992694 314:0 315:0.00730581 316:0 317:0 318:0 319:0.00294694 320:0.00358901 321:1 322:0 323:0 324:0 325:0.0714286 326:0.0891924 327:0.155327 328:0 329:0.149669 330:0.221307 331:0.0714286 332:0.074808 333:0.166839 334:0.142857 335:0 336:0 337:0.130893 338:0.103177 339:0.0957414 340:0 341:0.383458 342:0.143873 343:0.142857 344:0.00827731 345:0.12068 346:0.145804 347:0.227773 348:0.109998 349:0.0166944 350:0.133159 351:0.0947564 352:0.148523 353:0.0245171 354:0.000379687 355:0 356:0 
0 2.791356892687581e-12 1.470180943028406e-12 0 0 5.83980652536332e-12 1:0.075 2:0.4 3:0.525 4:0.875 5:0.75 6:0.725 7:0.620769 8:0.946516 9:0.695351 10:0.611629 11:0.123326 12:0.5 13:0.5 14:0 15:0.725 16:0.426471 17:0.416667 18:0.0894842 19:0 20:0.399237 21:0.866302 22:0.956133 23:0.54042 24:0.907981 25:0.337287 26:0.262022 27:0.529465 28:0.609879 29:0.639708 30:0.129654 31:0.203755 32:0.0391896 33:0.0333333 34:0.294895 35:1 36:0.133615 37:1 38:0.96115 39:0.00736473 40:0.0296437 41:0.00184118 42:0.877775 43:0 44:0.113442 45:0.0087822 46:0.913236 47:0.0128184 48:0.0541866 49:0.0197594 50:0.00235778 51:0.0452807 52:0.103345 53:0.0508392 54:0.868167 55:0.0184945 56:0.0182416 57:0.0281042 58:0.0714286 59:0.122041 60:0.145053 61:0 62:0.164475 63:0.162071 64:0.0714286 65:0.0990496 66:0.164453 67:0 68:0.0915348 69:0.0513224 70:0.0313023 71:0.161618 72:0.179303 73:0.0195066 74:0.144613 75:0.3208 76:0.0205321 77:0.0103564 78:0.019186 79:0.167574 80:0.120383 81:0.133101 82:0.147387 83:0.201631 84:0.17985 85:0.164163 86:0.0329681 87:0.00249937 88:0 89:0 90:0.075 91:0.4 92:0.55 93:0.875 94:0.75 95:0.75 96:0.629521 97:0.946516 98:0.695351 99:0.611629 100:0.160513 101:0.5 102:0.5 103:0 104:0.725 105:0.426471 106:0.409091 107:0.116466 108:0 109:0.465866 110:0.866302 111:0.996491 112:0.502843 113:0.697626 114:0.43003 115:0.279303 116:0.509822 117:0.616848 118:0.657052 119:0.240672 120:0.436905 121:0.0810821 122:0.0846561 123:0.606114 124:1 125:0.341772 126:1 127:0.953534 128:0.0129324 129:0.0292233 130:0.00431079 131:0.769285 132:0 133:0.214464 134:0.0162511 135:0.831049 136:0.0257011 137:0.101298 138:0.0419522 139:0.00580968 140:0.104541 141:0.205102 142:0.111663 143:0.742947 144:0.0432608 145:0.0308243 146:0.0419927 147:0.0714286 148:0.143337 149:0.14967 150:0 151:0.138652 152:0.136577 153:0.0714286 154:0.11124 155:0.177668 156:0 157:0.0726683 158:0.0701889 159:0.0679521 160:0.166648 161:0.150075 162:0.0385172 163:0.194704 164:0.239246 165:0.0423986 166:0.0201868 167:0.0384732 168:0.169836 169:0.12399 170:0.151322 171:0.147387 172:0.136563 173:0.169843 174:0.17537 175:0.037988 176:0.00351112 177:0 178:0 179:0.175 180:0.475 181:0.375 182:0.875 183:0.775 184:0.575 185:0.59865 186:0.9445 187:0.6905 188:0.627 189:0.289032 190:0.5 191:0.5 192:1 193:0.65 194:0.40625 195:0.416667 196:0 197:0 198:0.238597 199:0.896055 200:1.21203 201:0.291457 202:0.340533 203:0.77085 204:0.262427 205:0.535 206:0.5975 207:0.6425 208:0.0928571 209:0.142857 210:0.0357143 211:0.0238095 212:0.278571 213:1 214:0.0449735 215:1 216:0.962813 217:0.00431079 218:0.0328762 219:0 220:0.88131 221:0 222:0.11438 223:0.00431079 224:0.946228 225:0.00431079 226:0.0365291 227:0.0129324 228:0 229:0.0154196 230:0.0658369 231:0.0288548 232:0.942857 233:0.00357143 234:0.0107143 235:0.00964971 236:0.0714286 237:0.0918411 238:0.150041 239:0 240:0.169893 241:0.215251 242:0.0714286 243:0.069237 244:0.16088 245:0.142857 246:0 247:0 248:0.0992445 249:0.151349 250:0.0861959 251:0.0161401 252:0.330428 253:0.173784 254:0.142857 255:0.0208785 256:0.0945061 257:0.125189 258:0.245197 259:0.119228 260:0.035631 261:0.118989 262:0.0975238 263:0.143475 264:0.0231679 265:0.000455095 266:0 267:0 268:0.175 269:0.475 270:0.4 271:0.875 272:0.775 273:0.55 274:0.594888 275:0.95091 276:0.693247 277:0.596623 278:1.41129 279:0.5 280:0.5 281:0.5 282:0.65 283:0.40625 284:0.45 285:0 286:0 287:0 288:0.896055 289:1.26791 290:0.244979 291:0.06875 292:3.72727 293:0.271504 294:0.575 295:0.55 296:0.625 297:0.05 298:0.0142857 299:0 300:0 301:0 302:0 303:0 304:0 305:0.970777 306:0 307:0.0292233 308:0 309:0.996347 310:0 311:0.00365291 312:0 313:0.996347 314:0 315:0.00365291 316:0 317:0 318:0.00194596 319:0.00458999 320:0.000199419 321:1 322:0 323:0 324:0 325:0.0714286 326:0.0891924 327:0.155203 328:0 329:0.146966 330:0.222396 331:0.0714286 332:0.0758403 333:0.167545 334:0.142857 335:0 336:0 337:0.131375 338:0.101844 339:0.0950252 340:0 341:0.387942 342:0.140957 343:0.142857 344:0.00783674 345:0.121608 346:0.147063 347:0.23023 348:0.110007 349:0.0155226 350:0.129974 351:0.0949023 352:0.148585 353:0.0245231 354:0.000383577 355:0 356:0 
0 0 6.556295516907884e-12 0 0 0 1:0.0652174 2:0.456522 3:0.543478 4:0.76087 5:0.717391 6:0.717391 7:0.55195 8:0.955842 9:0.670941 10:0.613961 11:0.120194 12:0.5 13:0 14:0.5 15:0.717391 16:0.421053 17:0.454545 18:0.109579 19:0 20:0.246553 21:0.88035 22:1.046 23:0.446106 24:0.79355 25:0.362981 26:0.304029 27:0.563431 28:0.596125 29:0.606353 30:0.177968 31:0.313333 32:0.0462082 33:0.0419501 34:0.485486 35:0.75 36:0.193237 37:1 38:0.930323 39:0.0327142 40:0.0308879 41:0.00607513 42:0.835739 43:0.0121503 44:0.140659 45:0.0114512 46:0.802837 47:0.0380903 48:0.114666 49:0.0444068 50:0.00399726 51:0.0837317 52:0.143137 53:0.0999892 54:0.855184 55:0.0186254 56:0.0161421 57:0.0432889 58:0.0714286 59:0.191343 60:0.194685 61:0 62:0.0801665 63:0.0849763 64:0.0714286 65:0.118837 66:0.187135 67:0 68:0.0412123 69:0.101645 70:0.115561 71:0.161675 72:0.111442 73:0.0623549 74:0.256128 75:0.149982 76:0.0845546 77:0.0237919 78:0.0629466 79:0.230487 80:0.0815881 81:0.153986 82:0.138235 83:0.0733274 84:0.151084 85:0.18579 86:0.0401262 87:0.00342682 88:0 89:0 90:0.0652174 91:0.456522 92:0.543478 93:0.804348 94:0.76087 95:0.673913 96:0.585854 97:0.956304 98:0.68789 99:0.580524 100:0.492762 101:0.5 102:0 103:0.5 104:0.706522 105:0.407895 106:0.477273 107:0.0793585 108:0 109:0 110:0.88035 111:1.046 112:0.446106 113:0.205452 114:1.402 115:0.33847 116:0.640152 117:0.537879 118:0.511364 119:0.164286 120:0.271429 121:0.0357143 122:0.0714286 123:0.656349 124:0.75 125:0.285714 126:0.5 127:0.947422 128:0.0148434 129:0.0377342 130:0 131:0.910821 132:0.00742168 133:0.0817573 134:0 135:0.879172 136:0.0148434 137:0.0837192 138:0.022265 139:0 140:0.00542953 141:0.0528961 142:0.0643897 143:0.942857 144:0.0142857 145:0 146:0.0285714 147:0.0714286 148:0.221651 149:0.206233 150:0 151:0.0249464 152:0.0289556 153:0.0714286 154:0.136872 155:0.238485 156:0 157:0.0368688 158:0.105988 159:0.156524 160:0.140432 161:0.0847342 162:0.0917644 163:0.266536 164:0.117151 165:0.115266 166:0.023452 167:0.0993039 168:0.239683 169:0.0236827 170:0.181419 171:0.143398 172:0.0262467 173:0.147549 174:0.227465 175:0.0559114 176:0.0054829 177:0 178:0 179:0.0652174 180:0.434783 181:0.565217 182:0.76087 183:0.73913 184:0.695652 185:0.574009 186:0.951466 187:0.697516 188:0.58465 189:0.371494 190:0.5 191:0.5 192:0.5 193:0.73913 194:0.430556 195:0.425 196:0.251575 197:0 198:0 199:0.90675 200:1.0637 201:0.410127 202:0.259236 203:1.0692 204:0.336385 205:0.5132 206:0.7007 207:0.580882 208:0.141221 209:0.245714 210:0.0267857 211:0.0178571 212:0.210177 213:0.5 214:0 215:0 216:0.937178 217:0.0354004 218:0.0125781 219:0.0148434 220:0.920001 221:0.022265 222:0.0503122 223:0.00742168 224:0.793329 225:0.0205571 226:0.152422 227:0.0336925 228:0.00304642 229:0.0741786 230:0.122713 231:0.0422625 232:0.985714 233:0 234:0 235:0 236:0.0714286 237:0.196298 238:0.222446 239:0 240:0.0330378 241:0.0609761 242:0.0714286 243:0.131924 244:0.212461 245:0 246:0.00950402 247:0.133353 248:0.15404 249:0.125207 250:0.0929269 251:0.0766798 252:0.269534 253:0.138754 254:0.109272 255:0.0340236 256:0.0808305 257:0.204325 258:0.0497796 259:0.153889 260:0.165536 261:0.0398705 262:0.162474 263:0.205772 264:0.0473846 265:0.00425076 266:0 267:0 268:0.0714286 269:0.404762 270:0.52381 271:0.833333 272:0.738095 273:0.714286 274:0.62189 275:0.946516 276:0.695351 277:0.611629 278:0.226822 279:0.853553 280:0.853553 281:0.5 282:0.738095 283:0.426471 284:0.45 285:0.215219 286:0 287:0.481078 288:0.890275 289:1.03907 290:0.444419 291:0.470174 292:0.607677 293:0.281126 294:0.534304 295:0.583333 296:0.672663 297:0.228397 298:0.422857 299:0.0752919 300:0.00396825 301:0.707921 302:0.75 303:0.357576 304:1 305:0.930314 306:0.0371084 307:0.0251561 308:0.00742168 309:0.748973 310:0 311:0.23047 312:0.0205571 313:0.773123 314:0.0650871 315:0.103535 316:0.0582553 317:0.00302233 318:0.116006 319:0.135935 320:0.0952421 321:0.859066 322:0.0123627 323:0.0047738 324:0.0237976 325:0.0714286 326:0.131116 327:0.15972 328:0 329:0.138699 330:0.147294 331:0.0714286 332:0.114559 333:0.165755 334:0 335:0.0589789 336:0.0838782 337:0.0774438 338:0.188535 339:0.107734 340:0.0685456 341:0.235447 342:0.179437 343:0.0669726 344:0.0418915 345:0.0302373 346:0.199006 347:0.145396 348:0.151924 349:0.0936702 350:0.103365 351:0.167537 352:0.161627 353:0.0314641 354:0.00213454 355:0 356:0 
0 0 0 8.515085236090664e-12 0 0 1:0.0652174 2:0.456522 3:0.521739 4:0.76087 5:0.717391 6:0.73913 7:0.553693 8:0.949325 9:0.668497 10:0.640414 11:0.11322 12:0.5 13:0 14:0.5 15:0.717391 16:0.421053 17:0.4375 18:0.108104 19:0 20:0.286158 21:0.88035 22:1.00748 23:0.480887 24:0.854651 25:0.34339 26:0.297046 27:0.559187 28:0.583948 29:0.620407 30:0.181465 31:0.324256 32:0.0489197 33:0.0518519 34:0.471391 35:0.75 36:0.22282 37:1 38:0.929348 39:0.0308895 40:0.0340259 41:0.00573628 42:0.819722 43:0.0114726 44:0.152257 45:0.0165488 46:0.810966 47:0.0388338 48:0.108271 49:0.0419299 50:0.00441985 51:0.0993855 52:0.151516 53:0.0964337 54:0.824057 55:0.0211422 56:0.0235932 57:0.0552281 58:0.0714286 59:0.187205 60:0.186373 61:0 62:0.0911763 63:0.0932402 64:0.0714286 65:0.11734 66:0.181808 67:0 68:0.0596064 69:0.0832507 70:0.111222 71:0.198565 72:0.0809272 73:0.0667539 74:0.278617 75:0.121057 76:0.0875442 77:0.023101 78:0.0655637 79:0.260908 80:0.0939415 81:0.181821 82:0.0961453 83:0.0736213 84:0.117353 85:0.182703 86:0.0394346 87:0.00352534 88:0 89:0 90:0.0652174 91:0.456522 92:0.543478 93:0.804348 94:0.76087 95:0.673913 96:0.585854 97:0.956304 98:0.68789 99:0.580524 100:0.480063 101:0.5 102:0 103:0.5 104:0.706522 105:0.407895 106:0.477273 107:0.0773134 108:0 109:0 110:0.88035 111:1.046 112:0.446106 113:0.210887 114:1.36587 115:0.339759 116:0.650735 117:0.536765 118:0.503676 119:0.136905 120:0.22619 121:0.0285714 122:0.0571429 123:0.527976 124:0.75 125:0.190476 126:0.695913 127:0.954054 128:0.0129712 129:0.0329749 130:0 131:0.916573 132:0.00648561 133:0.0769414 134:0 135:0.894412 136:0.0129712 137:0.07316 138:0.0194568 139:0 140:0.00464589 141:0.0435774 142:0.0562399 143:0.940476 144:0.0238095 145:0 146:0.0238095 147:0.0714286 148:0.223811 149:0.204149 150:0 151:0.0235936 152:0.0281276 153:0.0714286 154:0.138038 155:0.239423 156:0 157:0.0365908 158:0.106266 159:0.15668 160:0.143481 161:0.0831642 162:0.0931579 163:0.266164 164:0.114497 165:0.115809 166:0.0233301 167:0.0995423 168:0.242028 169:0.0225097 170:0.185325 171:0.140693 172:0.0249339 173:0.145829 174:0.228714 175:0.0563175 176:0.00552226 177:0 178:0 179:0.0652174 180:0.434783 181:0.543478 182:0.76087 183:0.73913 184:0.717391 185:0.574081 186:0.946516 187:0.695351 188:0.611629 189:0.292857 190:0.5 191:0.5 192:0.5 193:0.73913 194:0.430556 195:0.409091 196:0.245186 197:0 198:0.0490371 199:0.90675 200:1.02225 201:0.446106 202:0.33249 203:0.849977 204:0.324204 205:0.525 206:0.671084 207:0.6 208:0.192315 209:0.333333 210:0.0405779 211:0.0571429 212:0.256834 213:0.5 214:0.0714286 215:0.5 216:0.93312 217:0.0374211 218:0.0164874 219:0.0129712 220:0.889906 221:0.0194568 222:0.0841517 223:0.00648561 224:0.784944 225:0.0244499 226:0.149685 227:0.0409217 228:0.00660346 229:0.0862062 230:0.143965 231:0.0606418 232:0.952381 233:0 234:0.00759748 235:0.0281168 236:0.0714286 237:0.191353 238:0.220201 239:0 240:0.0454525 241:0.0705898 242:0.0714286 243:0.128906 244:0.20064 245:0 246:0.038861 247:0.103996 248:0.148036 249:0.152527 250:0.066643 251:0.0767057 252:0.29007 253:0.123161 254:0.10506 255:0.0351093 256:0.0732437 257:0.245826 258:0.068563 259:0.180135 260:0.121834 261:0.0348744 262:0.135355 263:0.197363 264:0.0441095 265:0.0038101 266:0 267:0 268:0.0714286 269:0.404762 270:0.5 271:0.833333 272:0.738095 273:0.738095 274:0.622719 275:0.940386 276:0.692669 277:0.63762 278:0.201325 279:0.853553 280:0.853553 281:0.5 282:0.738095 283:0.426471 284:0.431818 285:0.199486 286:0 287:0.531962 288:0.890275 289:0.996491 290:0.482513 291:0.537095 292:0.543045 293:0.274339 294:0.530897 295:0.5625 296:0.688653 297:0.229317 298:0.43373 299:0.0776099 300:0.0412698 301:0.602979 302:0.75 303:0.452907 304:1 305:0.928111 306:0.032428 307:0.0329749 308:0.00648561 309:0.723696 310:0 311:0.245368 312:0.0309355 313:0.795253 314:0.0633636 315:0.0904761 316:0.0509078 317:0.00419555 318:0.14806 319:0.163055 320:0.0721723 321:0.775412 322:0.020118 323:0.0265382 324:0.0588842 325:0.0714286 326:0.126671 327:0.148533 328:0 329:0.153109 330:0.153764 331:0.0714286 332:0.11345 333:0.161616 334:0 335:0.0770912 336:0.065766 337:0.0697004 338:0.208545 339:0.107501 340:0.0674065 341:0.23735 342:0.16664 343:0.0628524 344:0.0377549 345:0.0279811 346:0.203905 347:0.157603 348:0.173269 349:0.0791364 350:0.111923 351:0.145575 352:0.159251 353:0.0310805 354:0.002309 355:0 356:0 
0 1.911067640028876e-11 6.932987014237957e-12 1.908753633418431e-12 3.657303144904258e-11 6.808541384035427e-12 1:0.0652174 2:0.434783 3:0.5 4:0.76087 5:0.73913 6:0.717391 7:0.56824 8:0.940386 9:0.692669 10:0.63762 11:0.112245 12:0.5 13:0.5 14:0.5 15:0.717391 16:0.430556 17:0.442308 18:0.154472 19:0 20:0.339839 21:0.90675 22:0.945311 23:0.514451 24:0.879574 25:0.33366 26:0.287242 27:0.550416 28:0.582927 29:0.63253 30:0.198101 31:0.317787 32:0.0552738 33:0.0590278 34:0.432947 35:0.75 36:0.229256 37:1 38:0.926589 39:0.026541 40:0.0414364 41:0.00543323 42:0.813132 43:0.0108665 44:0.160327 45:0.0156745 46:0.833181 47:0.0367822 48:0.0903224 49:0.0397148 50:0.00417333 51:0.109792 52:0.154621 53:0.0725929 54:0.799884 55:0.0238722 56:0.0263637 57:0.0507021 58:0.0714286 59:0.159968 60:0.189661 61:0 62:0.109192 63:0.120627 64:0.0714286 65:0.111236 66:0.166459 67:0 68:0.0797193 69:0.0631379 70:0.0938701 71:0.19256 72:0.0893429 73:0.0959709 74:0.230194 75:0.155206 76:0.0943126 77:0.0252057 78:0.0674317 79:0.2303 80:0.10311 81:0.17252 82:0.0915722 83:0.109517 84:0.106031 85:0.17227 86:0.0365259 87:0.00348716 88:0 89:0 90:0.0652174 91:0.434783 92:0.543478 93:0.76087 94:0.782609 95:0.673913 96:0.58119 97:0.941054 98:0.720527 99:0.582698 100:0.425369 101:0.5 102:0.5 103:0.5 104:0.717391 105:0.416667 106:0.477273 107:0 108:0 109:0 110:0.90675 111:1.02225 112:0.446106 113:0.231747 114:1.21947 115:0.347793 116:0.626463 117:0.602108 118:0.507143 119:0.10119 120:0.154762 121:0.0142857 122:0.0285714 123:0.184524 124:0.75 125:0.0714286 126:0.5 127:0.947081 128:0.0309355 129:0.0219833 130:0 131:0.897116 132:0.0194568 133:0.0769414 134:0.00648561 135:0.862165 136:0.0244499 137:0.0809574 138:0.032428 139:0 140:0.00633203 141:0.0481278 142:0.0584356 143:0.97619 144:0 145:0 146:0.0119048 147:0.0714286 148:0.206741 149:0.22183 150:0 151:0.0166741 152:0.0328682 153:0.0714286 154:0.140623 155:0.238406 156:0 157:0.0356858 158:0.107171 159:0.153333 160:0.140432 161:0.0634389 162:0.0946889 163:0.283106 164:0.122144 165:0.117524 166:0.0199615 167:0.102237 168:0.248389 169:0.0247167 170:0.195065 171:0.134087 172:0.0222589 173:0.135761 174:0.226379 175:0.0548112 176:0.00513335 177:0 178:0 179:0.0652174 180:0.434783 181:0.543478 182:0.76087 183:0.73913 184:0.717391 185:0.574081 186:0.946516 187:0.695351 188:0.611629 189:0.244596 190:0.5 191:0.5 192:0.5 193:0.73913 194:0.430556 195:0.409091 196:0.286693 197:0 198:0.163824 199:0.90675 200:1.02225 201:0.446106 202:0.398094 203:0.709905 204:0.296942 205:0.525 206:0.669523 207:0.613636 208:0.250309 209:0.44881 210:0.100811 211:0.0603175 212:0.604461 213:0.5 214:0.363605 215:1 216:0.915643 217:0.0439067 218:0.0274791 219:0.0129712 220:0.862427 221:0.0194568 222:0.111631 223:0.00648561 224:0.742514 225:0.0374211 226:0.166172 227:0.0538929 228:0.00660346 229:0.0991693 230:0.169249 231:0.113236 232:0.841944 233:0.0330562 234:0.036377 235:0.0314425 236:0.0714286 237:0.173056 238:0.216718 239:0 240:0.0782606 241:0.103162 242:0.0714286 243:0.11282 244:0.173126 245:0 246:0.041849 247:0.101008 248:0.108685 249:0.186359 250:0.0707175 251:0.0609852 252:0.301843 253:0.128553 254:0.083115 255:0.0309098 256:0.0488953 257:0.257344 258:0.122988 259:0.159798 260:0.108929 261:0.0486647 262:0.139357 263:0.170481 264:0.0342057 265:0.00245799 266:0 267:0 268:0.166667 269:0.428571 270:0.428571 271:0.833333 272:0.714286 273:0.666667 274:0.567855 275:0.936648 276:0.687135 277:0.655946 278:0.232229 279:0.5 280:0.5 281:0.5 282:0.666667 283:0.40625 284:0.425 285:0 286:0 287:0.695331 288:0.91972 289:1.0122 290:0.444419 291:0.410904 292:0.680845 293:0.258749 294:0.516393 295:0.514423 296:0.732188 297:0.221693 298:0.320635 299:0.0617789 300:0.1 301:0.42489 302:0.647584 303:0.192641 304:0.75 305:0.932071 306:0.0129712 307:0.0549582 308:0 309:0.747394 310:0 311:0.221671 312:0.0309355 313:0.911655 314:0.0503923 315:0.0164874 316:0.0214648 317:0.00291519 318:0.132131 319:0.150268 320:0.0338987 321:0.914091 322:0.0257969 323:0.0107509 324:0.0185878 325:0.0714286 326:0.10214 327:0.101143 328:0 329:0.207164 330:0.202248 331:0.0714286 332:0.106246 333:0.138201 334:0 335:0.142857 336:0 337:0.0535805 338:0.251326 339:0.102318 340:0.0587284 341:0.213814 342:0.177375 343:0.0430138 344:0.0479635 345:0.0154292 346:0.188308 347:0.21472 348:0.212266 349:0.0452764 350:0.13056 351:0.102464 352:0.138653 353:0.0234804 354:0.00128305 355:0 356:0 
0 0 0 0 1.578867891569205e-11 0 1:0.0652174 2:0.434783 3:0.5 4:0.76087 5:0.73913 6:0.717391 7:0.56824 8:0.940386 9:0.692669 10:0.63762 11:0.115823 12:0.5 13:0.5 14:0.5 15:0.717391 16:0.430556 17:0.442308 18:0.172148 19:0 20:0.382552 21:0.90675 22:0.945311 23:0.514451 24:0.8524 25:0.344296 26:0.282464 27:0.540103 28:0.580155 29:0.646271 30:0.187597 31:0.296779 32:0.0508095 33:0.0500992 34:0.43136 35:1 36:0.220265 37:1 38:0.928891 39:0.026541 40:0.0391344 41:0.00543323 42:0.813132 43:0.0108665 44:0.160327 45:0.0156745 46:0.842389 47:0.0367822 48:0.0811143 49:0.0397148 50:0.00417333 51:0.108482 52:0.153472 53:0.067986 54:0.804085 55:0.0245389 56:0.0298986 57:0.0465004 58:0.0714286 59:0.154568 60:0.185163 61:0 62:0.119073 63:0.129281 64:0.0714286 65:0.109107 66:0.15995 67:0 68:0.0805734 69:0.0622837 70:0.0862995 71:0.188343 72:0.100558 73:0.0909763 74:0.215389 75:0.175577 76:0.08831 77:0.0242843 78:0.0619718 79:0.220043 80:0.104372 81:0.164057 82:0.0975098 83:0.128524 84:0.110928 85:0.167779 86:0.0351914 87:0.00339757 88:0 89:0 90:0.0652174 91:0.434783 92:0.565217 93:0.76087 94:0.73913 95:0.695652 96:0.574009 97:0.951466 98:0.697516 99:0.58465 100:0.38018 101:0.5 102:0.5 103:0.5 104:0.717391 105:0.430556 106:0.475 107:0.0643644 108:0 109:0 110:0.90675 111:1.0637 112:0.410127 113:0.253313 114:1.09419 115:0.347618 116:0.579861 117:0.623578 118:0.545139 119:0.122562 120:0.195238 121:0 122:0 123:0.0928571 124:0.75 125:0 126:0 127:0.940596 128:0.0309355 129:0.0219833 130:0.00648561 131:0.896126 132:0.0259424 133:0.0714456 134:0.00648561 135:0.83946 136:0.0244499 137:0.0921835 138:0.0439067 139:0 140:0.0306738 141:0.0735991 142:0.0161034 143:1 144:0 145:0 146:0 147:0.0714286 148:0.202604 149:0.225402 150:0 151:0.0196163 152:0.041032 153:0.0714286 154:0.139384 155:0.229105 156:0 157:0.00896475 158:0.133892 159:0.153835 160:0.119933 161:0.0961352 162:0.0876641 163:0.257543 164:0.142032 165:0.115442 166:0.0238415 167:0.094943 168:0.208097 169:0.0271908 170:0.152971 171:0.172086 172:0.0359772 173:0.169452 174:0.220529 175:0.0528062 176:0.00487415 177:0 178:0 179:0.0681818 180:0.431818 181:0.545455 182:0.795455 183:0.75 184:0.727273 185:0.58782 186:0.946516 187:0.695351 188:0.611629 189:0.200392 190:0.5 191:0.5 192:0.5 193:0.75 194:0.430556 195:0.409091 196:0.201327 197:0 198:0.357914 199:0.885067 200:1.02225 201:0.463648 202:0.507994 203:0.570426 204:0.289036 205:0.519797 206:0.646351 207:0.640303 208:0.253823 209:0.453571 210:0.100811 211:0.0603175 212:0.649433 213:0.75 214:0.309184 215:1 216:0.910147 217:0.0439067 218:0.0329749 219:0.0129712 220:0.797581 221:0.0194568 222:0.164998 223:0.0179643 224:0.733533 225:0.0424142 226:0.155181 227:0.0688721 228:0.00929684 229:0.104687 230:0.150061 231:0.127994 232:0.864151 233:0.0168016 234:0.0138886 235:0.0192501 236:0.0714286 237:0.165379 238:0.206851 239:0 240:0.0854082 241:0.106915 242:0.0714286 243:0.113482 244:0.179108 245:0 246:0.0434988 247:0.0993583 248:0.0905484 249:0.187915 250:0.0904544 251:0.0451294 252:0.28339 253:0.159705 254:0.0657452 255:0.0229505 256:0.0414046 257:0.244641 258:0.120622 259:0.16137 260:0.121158 261:0.0644398 262:0.15767 263:0.17078 264:0.0344792 265:0.00246892 266:0 267:0 268:0.166667 269:0.428571 270:0.428571 271:0.833333 272:0.714286 273:0.666667 274:0.567855 275:0.936648 276:0.687135 277:0.655946 278:0.23505 279:0.853553 280:0.5 281:0.853553 282:0.666667 283:0.40625 284:0.425 285:0 286:0 287:0.689115 288:0.91972 289:1.0122 290:0.444419 291:0.405973 292:0.689115 293:0.253284 294:0.511585 295:0.514423 296:0.732188 297:0.218179 298:0.315873 299:0.0617789 300:0.1 301:0.459995 302:1 303:0.0616883 304:1 305:0.932071 306:0.0129712 307:0.0549582 308:0 309:0.747394 310:0 311:0.221671 312:0.0309355 313:0.924627 314:0.0374211 315:0.0164874 316:0.0214648 317:0.000244855 318:0.0826537 319:0.134666 320:0.0389071 321:0.921331 322:0.00912929 323:0.0313644 324:0.0143655 325:0.0714286 326:0.0951631 327:0.0901071 328:0 329:0.216253 330:0.213228 331:0.0714286 332:0.107072 333:0.13532 334:0 335:0.142857 336:0 337:0.0286496 338:0.253871 339:0.124466 340:0.0317168 341:0.200147 342:0.218294 343:0.0204373 344:0.0280985 345:0.0072027 346:0.186794 347:0.221705 348:0.198776 349:0.0545515 350:0.161984 351:0.120451 352:0.13458 353:0.0216785 354:0.00092308 355:0 356:0 
0 0 0 0 4.086632587633629e-11 0 1:0.119048 2:0.452381 3:0.5 4:0.880952 5:0.785714 6:0.738095 7:0.605867 8:0.940386 9:0.692669 10:0.63762 11:0.122881 12:0.5 13:0.5 14:0.5 15:0.714286 16:0.397059 17:0.403846 18:0.0608796 19:0 20:0.466744 21:0.890275 22:0.91795 23:0.554307 24:0.879957 25:0.344984 26:0.25546 27:0.523598 28:0.608871 29:0.658679 30:0.132486 31:0.201814 32:0.0406924 33:0.0367605 34:0.456737 35:1 36:0.182226 37:1 38:0.94595 39:0.0112134 40:0.036108 41:0.00672806 42:0.842869 43:0.00793853 44:0.14298 45:0.00621195 46:0.887519 47:0.0219108 48:0.0589942 49:0.0315759 50:0.00375227 51:0.0635594 52:0.103891 53:0.0491513 54:0.867404 55:0.0112508 56:0.0151438 57:0.0483824 58:0.0714286 59:0.0917496 60:0.115582 61:0 62:0.124729 63:0.229043 64:0.0714286 65:0.104181 66:0.191859 67:0 68:0.0982173 69:0.0446399 70:0.0319422 71:0.16436 72:0.127652 73:0.0406029 74:0.182604 75:0.309982 76:0.0161547 77:0.0269307 78:0.0269153 79:0.135718 80:0.15581 81:0.148222 82:0.11514 83:0.195334 84:0.179775 85:0.150854 86:0.0290214 87:0.00240049 88:0 89:0 90:0.119048 91:0.452381 92:0.547619 93:0.880952 94:0.785714 95:0.690476 96:0.607435 97:0.951466 98:0.697516 99:0.58465 100:0.170213 101:0.5 102:0.5 103:0.5 104:0.714286 105:0.397059 106:0.431818 107:0.096057 108:0 109:0.451468 110:0.890275 111:0.996491 112:0.482513 113:0.619672 114:0.470679 115:0.263223 116:0.525907 117:0.623512 118:0.653883 119:0.262954 120:0.377976 121:0.0907539 122:0.0948258 123:0.809465 124:1 125:0.46692 126:1 127:0.925828 128:0.0155375 129:0.0482762 130:0.0103583 131:0.748429 132:0.0131537 133:0.229251 134:0.00916643 135:0.800457 136:0.0402414 137:0.0967397 138:0.0625615 139:0.00678545 140:0.135002 141:0.165944 142:0.0798658 143:0.782731 144:0.0172764 145:0.0264867 146:0.0708386 147:0.0714286 148:0.111623 149:0.0848769 150:0 151:0.132101 152:0.231187 153:0.0714286 154:0.108263 155:0.189093 156:0 157:0.0542824 158:0.0885747 159:0.0644 160:0.169988 161:0.11875 162:0.0476837 163:0.241811 164:0.21451 165:0.0292873 166:0.0343508 167:0.042885 168:0.114007 169:0.201436 170:0.160795 171:0.120862 172:0.146967 173:0.14941 174:0.151801 175:0.0289492 176:0.00226382 177:0 178:0 179:0.175 180:0.425 181:0.4 182:0.875 183:0.775 184:0.6 185:0.595095 186:0.933289 187:0.716645 188:0.623797 189:0.22677 190:0.5 191:0.853553 192:0.853553 193:0.65 194:0.421875 195:0.388889 196:0 197:0 198:0.519357 199:0.896055 200:1.05841 201:0.422854 202:0.445262 203:0.631651 204:0.262159 205:0.501707 206:0.566667 207:0.697063 208:0.122205 209:0.188095 210:0.0255102 211:0.0102041 212:0.499964 213:0.804087 214:0.170635 215:1 216:0.931007 217:0.0155375 218:0.0482762 219:0.00517916 220:0.802316 221:0.00517916 222:0.183338 223:0.00916643 224:0.925841 225:0.0207166 226:0.03511 227:0.0183329 228:0.00431611 229:0.0407995 230:0.0900321 231:0.0614593 232:0.922776 233:0.0102593 234:0.00446429 235:0.0223214 236:0.0714286 237:0.105949 238:0.153937 239:0 240:0.155021 241:0.180519 242:0.0714286 243:0.0947015 244:0.167015 245:0 246:0.142857 247:0 248:0.0340412 249:0.227849 250:0.102908 251:0.0268809 252:0.293153 253:0.17231 254:0.010747 255:0.0318629 256:0.0174212 257:0.238987 258:0.198696 259:0.22761 260:0.0707675 261:0.115616 262:0.0882926 263:0.14896 264:0.025394 265:0.000980022 266:0 267:0 268:0.175 269:0.45 270:0.375 271:0.875 272:0.75 273:0.575 274:0.612527 275:0.9445 276:0.6905 277:0.627 278:0.818392 279:0.5 280:0.5 281:1 282:0.65 283:0.4 284:0.416667 285:0 286:0 287:0 288:0.927295 289:1.19029 290:0.291457 291:0.120267 292:2.13068 293:0.284637 294:0.485294 295:0.580882 296:0.705882 297:0.0267857 298:0.0535714 299:0.0204082 300:3.06073e-34 301:0.107143 302:0.75 303:5.35628e-34 304:1 305:0.981655 306:0.00517916 307:0.0131662 308:0 309:0.956113 310:0 311:0.0438874 312:0 313:0.972087 314:0 315:0.017555 316:0.0103583 317:0 318:0 319:0.00154456 320:0.00645544 321:0.982143 322:0 323:0 324:0 325:0.0714286 326:0.101916 327:0.191521 328:0 329:0.146929 330:0.142801 331:0.0714286 332:0.0961059 333:0.177869 334:0.142857 335:0 336:0 337:0.142857 338:0.0986216 339:0.0947866 340:0 341:0.355025 342:0.165852 343:0.142857 344:0.00714286 345:0.135714 346:0.227427 347:0.162748 348:0.0954199 349:0.00178409 350:0.103863 351:0.123044 352:0.15442 353:0.0262998 354:0.000573075 355:0 356:0 
4.539954325867562e-12 0 0 0 0 0 1:0.0555556 2:0.5 3:0.5 4:0.833333 5:0.648148 6:0.611111 7:0.595292 8:0.986403 9:0.592648 10:0.569486 11:0.122547 12:0.788675 13:0.211325 14:0.211325 15:0.75 16:0.394737 17:0.416667 18:0.340612 19:0 20:0.283844 21:0.957589 22:0.902507 23:0.507099 24:0.815524 25:0.346289 26:0.251393 27:0.555451 28:0.623505 29:0.602444 30:0.355507 31:0.639087 32:0.157916 33:0.191919 34:0.747786 35:0.804087 36:0.614333 37:1 38:0.897571 39:0.0221508 40:0.0479017 41:0.0323767 42:0.737139 43:0.018459 44:0.216567 45:0.0278353 46:0.688509 47:0.083569 48:0.149391 49:0.0785308 50:0.0129059 51:0.13157 52:0.213501 53:0.180042 54:0.61899 55:0.0651845 56:0.0781565 57:0.0989564 58:0.0682546 59:0.094118 60:0.135856 61:0.0153239 62:0.141654 63:0.184005 64:0.0592787 65:0.141712 66:0.159798 67:0 68:0.0988663 69:0.0439909 70:0.0390166 71:0.23883 72:0.0967549 73:0.0505684 74:0.349383 75:0.0825898 76:0.0370994 77:0.0108577 78:0.0389327 79:0.203851 80:0.21735 81:0.27114 82:0.0505995 83:0.115802 84:0.0543671 85:0.12512 86:0.0194316 87:0.00111407 88:0 89:0 90:0.0555556 91:0.5 92:0.574074 93:0.87037 94:0.648148 95:0.611111 96:0.643201 97:0.991444 98:0.589353 99:0.522338 100:0.275081 101:0.788675 102:0.211325 103:0.211325 104:0.740741 105:0.394737 106:0.431818 107:0.40556 108:0 109:0.122897 110:0.957589 111:1.046 112:0.386876 113:0.376708 114:0.700513 115:0.318849 116:0.565647 117:0.68395 118:0.497768 119:0.363821 120:0.620238 121:0.312099 122:0.293651 123:0.855694 124:0.5 125:1 126:0 127:0.903209 128:0.00867353 129:0.0293993 130:0.0587186 131:0.783472 132:0.0346941 133:0.17316 134:0.00867353 135:0.595308 136:0.0962466 137:0.226032 138:0.0824138 139:0.0196461 140:0.144205 141:0.179976 142:0.141416 143:0.803571 144:0.00772668 145:0.0303914 146:0.0154533 147:0.0714286 148:0.129397 149:0.23856 150:0 151:0.0551218 152:0.0563101 153:0.0714286 154:0.16397 155:0.213784 156:0 157:0.0494339 158:0.0934232 159:0.0696011 160:0.199354 161:0.100943 162:0.0567929 163:0.3174 164:0.113051 165:0.0440324 166:0.0149077 167:0.0634438 168:0.231636 169:0.0874679 170:0.243003 171:0.151735 172:0.0323276 173:0.131446 174:0.169208 175:0.0291389 176:0.00147287 177:0 178:0 179:0.113636 180:0.454545 181:0.5 182:0.931818 183:0.681818 184:0.590909 185:0.642922 186:0.979022 187:0.633062 188:0.553225 189:0.253239 190:0.853553 191:0.853553 192:0.5 193:0.704545 194:0.397059 195:0.388889 196:0.256092 197:0 198:0.323485 199:0.912908 200:1.0839 201:0.388319 202:0.421546 203:0.64697 204:0.284037 205:0.540094 206:0.617925 207:0.669811 208:0.336628 209:0.63631 210:0.15303 211:0.177249 212:0.906553 213:0.804087 214:1 215:0 216:0.881573 217:0.0520412 218:0.0316921 219:0.0346941 220:0.736671 221:0 222:0.21528 223:0.0480491 224:0.696934 225:0.0844098 226:0.12724 227:0.0914167 228:0.00776119 229:0.0730412 230:0.142791 231:0.187609 232:0.892857 233:0 234:0.0331828 235:0.0025315 236:0.0714286 237:0.0935388 238:0.156504 239:0 240:0.111348 241:0.142339 242:0.0714286 243:0.149587 244:0.203825 245:0 246:0.0849032 247:0.057954 248:0.0270033 249:0.247797 250:0.0975935 251:0.0814177 252:0.345158 253:0.0581735 254:0.0370674 255:0.0204923 256:0.048933 257:0.210362 258:0.16753 259:0.311305 260:0.0648785 261:0.0798686 262:0.0595624 263:0.154973 264:0.0263003 265:0.000886559 266:0 267:0 268:0.175 269:0.5 270:0.375 271:0.975 272:0.7 273:0.475 274:0.60542 275:0.981543 276:0.620386 277:0.560193 278:0.316104 279:0.788675 280:0.211325 281:0.788675 282:0.65 283:0.411765 284:0.375 285:0.114163 286:0 287:0.190272 288:0.866302 289:1.13095 290:0.380506 291:0.328477 292:0.856224 293:0.260326 294:0.555851 295:0.574468 296:0.659574 297:0.366071 298:0.660714 299:0.0238095 300:0.047619 301:0.560714 302:0.695913 303:1 304:0 305:0.941201 306:0 307:0.0587986 308:0 309:0.776858 310:0.00867353 311:0.205795 312:0.00867353 313:0.84109 314:0.0520412 315:0.0808481 316:0.0260206 317:0 318:0.0473674 319:0.138574 320:0.11257 321:0.982143 322:9.58268e-10 323:0 324:0 325:0.0714286 326:0.0628938 327:0.0864421 328:0 329:0.137579 330:0.234861 331:0.0714286 332:0.145873 333:0.189494 334:0.0704168 335:0.0724403 336:0 337:0.16016 338:0.182495 339:0.0282979 340:0.320645 341:0.158067 342:0.00747802 343:0.119626 344:0.176296 345:0.256889 346:0.0955534 347:0.169245 348:0.146481 349:0 350:0.0359096 351:0 352:0.147622 353:0.0255982 354:0.000956483 355:0 356:0 
0 3.9141807816124e-14 0 0 0 0 1:0.0892857 2:0.392857 3:0.589286 4:0.767857 5:0.678571 6:0.553571 7:0.619782 8:0.960277 9:0.693801 10:0.475775 11:0.106374 12:0.5 13:1 14:0.5 15:0.723214 16:0.4 17:0.475 18:0.144307 19:0 20:0 21:1.07899 22:0.982794 23:0.343024 24:0.866207 25:0.273153 26:0.33663 27:0.532893 28:0.621628 29:0.491321 30:1 31:0.154366 32:0.285714 33:9.5162e-17 34:1 35:0 36:1 37:0 38:0.868702 39:0.0417452 40:0 41:0.0895526 42:0.640308 43:0.119023 44:0.149045 45:0.091624 46:0.505176 47:0.105692 48:0.282865 49:0.106266 50:0 51:0.0142713 52:0.0319151 53:0.0373013 54:0.928571 55:0 56:0 57:0 58:0.0761464 59:0.162953 60:0.196935 61:0.0367658 62:0.0611146 63:0.0709095 64:0.0672411 65:0.157175 66:0.170759 67:0 68:0.0608291 69:0.116847 70:0.195625 71:0.109219 72:0.0850499 73:0.012418 74:0.272782 75:0.147231 76:0.0906271 77:0 78:0.114286 79:0.14984 80:0.089384 81:0.190137 82:0.19574 83:0.0757475 84:0.0942386 85:0.176968 86:0.0284046 87:0.00178568 88:0 89:0 90:0.0892857 91:0.392857 92:0.607143 93:0.839286 94:0.642857 95:0.607143 96:0.670478 97:0.974342 98:0.658114 99:0.5 100:0.227608 101:0.981125 102:0.596225 103:0.403775 104:0.705357 105:0.416667 106:0.444444 107:0.390727 108:0.13367 109:0.236492 110:1.07899 111:1.03038 112:0.310998 113:0.434173 114:0.534679 115:0.303547 116:0.500917 117:0.741071 118:0.511377 119:1 120:1 121:1 122:1 123:1 124:0 125:1 126:0 127:0.865979 128:0.0504671 129:0 130:0.0835543 131:0.681808 132:0.1235 133:0.114703 134:0.0799892 135:0.49446 136:0.0922956 137:0.315132 138:0.0981122 139:0 140:0.0165336 141:0.219161 142:0.197281 143:0 144:0 145:0 146:0 147:0.0717734 148:0.0896777 149:0.171767 150:0.0437009 151:0.143714 152:0.179581 153:0.0427642 154:0.110097 155:0.146925 156:0 157:0.0531583 158:0.104854 159:0.0823516 160:0.109087 161:0.151933 162:0.00520959 163:0.226171 164:0.267235 165:0.0392469 166:0 167:0.047619 168:0.0974248 169:0.153411 170:0.120944 171:0.198467 172:0.203167 173:0.13972 174:0.123284 175:0.0165778 176:0.00056953 177:0 178:0 179:0.267857 180:0.428571 181:0.553571 182:0.767857 183:0.678571 184:0.553571 185:0.470021 186:0 187:0 188:0 189:0.163429 190:0.00970966 191:0.5 192:0.598058 193:0.589286 194:0.383333 195:0.45 196:0.38632 197:0 198:0 199:1.07899 200:0.982794 201:0.343024 202:0.42757 203:0.553377 204:0.298587 205:0.49814 206:0.51956 207:0.505739 208:1 209:1 210:1 211:1 212:1 213:0 214:1 215:0 216:0.866563 217:0.0345694 218:0 219:0.0988676 220:0.630675 221:0.118954 222:0.143719 223:0.106652 224:0.497566 225:0.123003 226:0.261075 227:0.118356 228:0 229:0.0025902 230:0.170794 231:0.208704 232:0 233:0 234:0 235:0 236:0.0639103 237:0.153004 238:0.189744 239:0.041312 240:0.086888 241:0.101958 242:0.0688207 243:0.130413 244:0.163949 245:0 246:0.0594166 247:0.112601 248:0.154092 249:0.127871 250:0.0934791 251:0.0103484 252:0.279123 253:0.16307 254:0.0636933 255:0 256:0.0952381 257:0.150944 258:0.12074 259:0.178265 260:0.197496 261:0.0988523 262:0.0947708 263:0.160609 264:0.0248825 265:0.00139368 266:0 267:0 268:0.0892857 269:0.428571 270:0.589286 271:0.767857 272:0.678571 273:0.553571 274:0.608773 275:0.9686 276:0.672642 277:0.475337 278:6.75771 279:0.5 280:0.5 281:0.5 282:0.705357 283:0.35 284:0.475 285:0 286:0 287:0 288:1.07899 289:0.982794 290:0.343024 291:0.0133929 292:17.6667 293:0.371316 294:1 295:0.5 296:0.25 297:1 298:1 299:1 300:1 301:1 302:0 303:1 304:0 305:1 306:0 307:0 308:0 309:0.954812 310:0 311:0.0451878 312:0 313:1 314:0 315:0 316:0 317:0 318:0.105445 319:0.237594 320:0.187317 321:0 322:0 323:0 324:0 325:0.0714286 326:0.200949 327:0.207721 328:0.0353324 329:0.0270192 330:0.0243362 331:0.082875 332:0.169365 333:0.180974 334:0 335:0.0517497 336:0.134848 337:0.243043 338:0.0890098 339:0.0762459 340:0.0155226 341:0.255913 342:0.133668 343:0.111312 344:0 345:0.142857 346:0.150225 347:0.0402205 348:0.195903 349:0.220394 350:0.0395251 351:0.0995629 352:0.19886 353:0.0335267 354:0.00240069 355:0 356:0 
