svm_type c_svc
kernel_type polynomial
degree 3
gamma 100
coef0 0
nr_class 3
total_sv 42
rho 0.0195179 0.485973 0.16916
label 4 5 3
probA -3.98004 -3.90716 -4.39052
probB 0.649688 0.445203 -0.465307
nr_sv 13 17 12
SV
3.681869622053936e-12 4.384962275503184e-12 1:0.166667 2:0.452381 3:0.428571 4:0.928571 5:0.785714 6:0.47619 7:0.64744 8:0.95733 9:0.700082 10:0.528583 11:0.0711817 12:1 13:0.5 14:0.5 15:0.642857 16:0.416667 17:0.46875 18:0.0162768 19:0.244151 20:-0.0528995 21:0.950547 22:1.08084 23:0.363979 24:1 25:0.179044 26:0.251922 27:0.62294 28:0.56045 29:0.559687 30:0.154246 31:0.244848 32:0.0874478 33:0.10936 34:0.450066 35:1 36:0.183993 37:1 38:0.86994 39:0.0167954 40:0.0978573 41:0.0154077 42:0.882901 43:0.0183565 44:0.0640749 45:0.0346678 46:0.921086 47:0.0149132 48:0.0456444 49:0.0183565 50:0.000908233 51:0.022507 52:0.0747558 53:0.101904 54:0.794847 55:0.0485687 56:0.0248826 57:0.0209123 58:0.0714286 59:0.184439 60:0.0640902 61:0 62:0.200526 63:0.134907 64:0.0714286 65:0.185606 66:0.0875741 67:0.0593101 68:0.083547 69:0 70:0.132548 71:0.401198 72:0.0463068 73:0.0574673 74:0.190113 75:0.0295092 76:0.0928598 77:0.0537758 78:0.102384 79:0.217068 80:0.237478 81:0.220634 82:0.015723 83:0.0370492 84:0.0230273 85:0.123478 86:0.0154412 87:0.000467662 88:0 89:0 90:0.166667 91:0.452381 92:0.428571 93:0.880952 94:0.5 95:0.47619 96:0.557637 97:0.997792 98:0.533186 99:0.533186 100:0.12969 101:1 102:0.5 103:0.5 104:0.654762 105:0.516667 106:0.46875 107:0 108:0 109:0.0258236 110:0.950547 111:1.08084 112:0.363979 113:0.691505 114:0.378746 115:0.254864 116:0.60443 117:0.426876 118:0.639662 119:0.179199 120:0.276275 121:0.139026 122:0.151312 123:0.598186 124:1 125:0.190435 126:1 127:0.8726 128:0.0228519 129:0.0969138 130:0.00763386 131:0.873865 132:0.0186267 133:0.0840665 134:0.0234416 135:0.916978 136:0.0161413 137:0.0457683 138:0.021112 139:0.000738052 140:0.0144432 141:0.0662223 142:0.114801 143:0.775447 144:0.0398163 145:0.0275953 146:0.0106618 147:0.0714286 148:0.193859 149:0.0628174 150:0 151:0.196977 152:0.120303 153:0.0714286 154:0.199057 155:0.0841283 156:0.0538153 157:0.0890418 158:0 159:0.124183 160:0.40716 161:0.0668494 162:0 163:0.210023 164:0.0489276 165:0.0579636 166:0.0238002 167:0.0964394 168:0.251311 169:0.234759 170:0.219163 171:0.0222531 172:0.0574958 173:0.0368151 174:0.124594 175:0.0151755 176:0.000374446 177:0 178:0 179:0.214286 180:0.642857 181:0.404762 182:0.880952 183:0.690476 184:0.547619 185:0.600642 186:0.987713 187:0.534837 188:0.60451 189:0.25344 190:0.5 191:0 192:0.5 193:0.619048 194:0.472222 195:0.392857 196:0 197:0.105948 198:0 199:1.1659 200:0.909753 201:0.321751 202:0.337093 203:0.653346 204:0.273071 205:0.572115 206:0.620192 207:0.557692 208:0.0663265 209:0.122449 210:0.0137363 211:0.0274725 212:0.235119 213:1 214:0.0428571 215:1 216:0.926904 217:0.00322826 218:0.0601829 219:0.00968479 220:0.948789 221:0.0129131 222:0.0382982 223:0 224:0.95251 225:0.00322826 226:0.0410338 227:0.00322826 228:0 229:0.00651844 230:0.0271486 231:0.0512247 232:0.959184 233:0.00765306 234:0.00765306 235:0.0102041 236:0.0714286 237:0.136288 238:0.148707 239:0 240:0.0752259 241:0.220853 242:0.0663901 243:0.0784817 244:0.202625 245:0.0631496 246:0.0726322 247:0 248:0.0523472 249:0.152691 250:0.077001 251:0.0943109 252:0.320072 253:0.167796 254:0.0862809 255:0.0241159 256:0.0982063 257:0.212517 258:0.145911 259:0.203298 260:0.0713516 261:0.0986044 262:0.0597148 263:0.107617 264:0.00623377 265:0.000116858 266:0 267:0 268:0.184211 269:0.421053 270:0.394737 271:0.973684 272:0.789474 273:0.5 274:0.677308 275:0.94982 276:0.709916 277:0.559976 278:0.14231 279:0.5 280:0.5 281:0.5 282:0.618421 283:0.410714 284:0.428571 285:0.0341407 286:0.512111 287:0 288:0.93577 289:1.10715 290:0.35299 291:0.770803 292:0.341407 293:0.269693 294:0.623611 295:0.683651 296:0.502276 297:0.18682 298:0.302313 299:0.0909154 300:0.13213 301:0.513312 302:1 303:0.316914 304:1 305:0.825911 306:0.0171408 307:0.127894 308:0.0290544 309:0.866944 310:0.0218549 311:0.0520929 312:0.0591082 313:0.906056 314:0.0193696 315:0.0519761 316:0.0225978 317:0.00150863 318:0.0417741 319:0.111527 320:0.128255 321:0.75314 322:0.0672176 323:0.0287355 324:0.0278066 325:0.0758505 326:0.16984 327:0.0949996 328:0.000728558 329:0.193474 330:0.124818 331:0.0714286 332:0.160022 333:0.108839 334:0.0461076 335:0.100101 336:0.00161726 337:0.135121 338:0.27875 339:0.108118 340:0.128425 341:0.174588 342:0.0271722 343:0.14214 344:0.06153 345:0.107645 346:0.165656 347:0.178616 348:0.198166 349:0.0329166 350:0.0648352 351:0.0484952 352:0.147121 353:0.0220371 354:0.00072292 355:0 356:0 
1.921757206323404e-11 0 1:0.184211 2:0.473684 3:0.315789 4:0.921053 5:0.789474 6:0.315789 7:0.568833 8:0.959573 9:0.69696 10:0.5 11:0.0603954 12:0.5 13:0.5 14:0.5 15:0.657895 16:0.40625 17:0.5 18:0 19:0.186362 20:-0.0317212 21:0.870903 22:1.0122 23:0.484478 24:1 25:0.178432 26:0.258362 27:0.665829 28:0.520101 29:0.564729 30:0.134799 31:0.232243 32:0.0888783 33:0.0526241 34:0.370334 35:1 36:0.132611 37:1 38:0.880647 39:0.00772704 40:0.10905 41:0.00257568 42:0.845072 43:0.0115906 44:0.0926062 45:0.0507314 46:0.961236 47:0.0103027 48:0.0207347 49:0.00772704 50:0.00154634 51:0.0426151 52:0.0896386 53:0.0622357 54:0.842388 55:0.0131108 56:0.0170911 57:0.0258456 58:0.0714286 59:0.203291 60:0.0780077 61:0 62:0.206308 63:0.0828322 64:0.0714286 65:0.182156 66:0.104547 67:0.125853 68:0.0170044 69:0 70:0.274662 71:0.236432 72:0.0776275 73:0.135904 74:0.116695 75:0.0158223 76:0.172947 77:0.148242 78:0.190617 79:0.16901 80:0.115292 81:0.109612 82:0.0109163 83:0.0285192 84:0.054844 85:0.154964 86:0.0270715 87:0.00184564 88:0 89:0 90:0.184211 91:0.473684 92:0.315789 93:0.921053 94:0.526316 95:0.578947 96:0.556438 97:0.969809 98:0.533558 99:0.667789 100:0.122633 101:0.5 102:0.5 103:0.5 104:0.657895 105:0.484375 106:0.375 107:0 108:0 109:0.230457 110:0.870903 111:1.0122 112:0.484478 113:0.799329 114:0.370377 115:0.265778 116:0.588483 117:0.386236 118:0.701993 119:0.173491 120:0.339937 121:0.13809 122:0.0943878 123:0.435773 124:1 125:0.210917 126:1 127:0.863527 128:0.0121503 129:0.121285 130:0.00303756 131:0.821213 132:0.0151878 133:0.102596 134:0.0610034 135:0.957218 136:0.0121503 137:0.0154439 138:0.0151878 139:0.00273579 140:0.0683351 141:0.110206 142:0.0623429 143:0.771393 144:0.0151951 145:0.0201494 146:0.0359668 147:0.0714286 148:0.200356 149:0.0895697 150:0 151:0.189055 152:0.0826404 153:0.0714286 154:0.18005 155:0.115472 156:0.127855 157:0.0150021 158:0 159:0.252877 160:0.219286 161:0.0961976 162:0.141183 163:0.123777 164:0.0238223 165:0.175839 166:0.129931 167:0.192766 168:0.16622 169:0.109467 170:0.106017 171:0.0180036 172:0.0321356 173:0.0696208 174:0.162184 175:0.0298364 176:0.00217208 177:0 178:0 179:0.184211 180:0.552632 181:0.315789 182:0.921053 183:0.710526 184:0.526316 185:0.616218 186:0.970871 187:0.600901 188:0.634535 189:0.212462 190:0.5 191:0.5 192:0 193:0.631579 194:0.477273 195:0.45 196:0 197:0 198:0 199:1.046 200:0.832981 201:0.484478 202:0.460333 203:0.571669 204:0.270317 205:0.671875 206:0.539062 207:0.519531 208:0.0571429 209:0.0571429 210:0.00510204 211:0.0102041 212:0.148352 213:1 214:0.012987 215:0.5 216:0.933076 217:0 218:0.0669237 219:0 220:0.89848 221:0.0151878 222:0.0772197 223:0.00911269 224:0.967258 225:0.00607513 226:0.0205919 227:0.00607513 228:0.000603969 229:0.0102934 230:0.0170612 231:0.0171439 232:0.990476 233:0.0047619 234:0 235:0.0047619 236:0.0714286 237:0.192912 238:0.104344 239:0 240:0.117211 241:0.156352 242:0.0714286 243:0.119667 244:0.166656 245:0.122304 246:0.020553 247:0 248:0.136883 249:0.232266 250:0.0567738 251:0.105388 252:0.226221 253:0.0996115 254:0.121827 255:0.107413 256:0.141156 257:0.260732 258:0.108244 259:0.106902 260:0.002058 261:0.0445085 262:0.107161 263:0.134704 264:0.0158592 265:0.000716863 266:0 267:0 268:0.184211 269:0.421053 270:0.342105 271:0.921053 272:0.789474 273:0.342105 274:0.592455 275:0.947214 276:0.723607 277:0.5 278:0.138887 279:0.5 280:0.5 281:0.5 282:0.631579 283:0.390625 284:0.5 285:0 286:0.434786 287:0 288:0.870903 289:1.05841 290:0.442374 291:0.741442 292:0.39042 293:0.255257 294:0.748626 295:0.641484 296:0.433007 297:0.148953 298:0.248413 299:0.0968029 300:0.0446901 301:0.518338 302:1 303:0.172997 304:1 305:0.867831 306:0.00607513 307:0.123056 308:0.00303756 309:0.839106 310:0.0121503 311:0.0900896 312:0.0586542 313:0.961646 314:0.0121503 315:0.0231659 316:0.00303756 317:0.00104339 318:0.035814 319:0.109999 320:0.0963734 321:0.838848 322:0.0132571 323:0.023148 324:0.0199849 325:0.0714286 326:0.176044 327:0.0881145 328:0 329:0.212105 330:0.106033 331:0.0714286 332:0.152184 333:0.122662 334:0.121195 335:0.0216617 336:0 337:0.281748 338:0.171503 339:0.0844099 340:0.13238 341:0.165912 342:0.0211911 343:0.174162 344:0.15931 345:0.182488 346:0.13567 347:0.130265 348:0.112956 349:0.0209136 350:0.0351482 351:0.049087 352:0.148819 353:0.0250825 354:0.0014996 355:0 356:0 
6.735891416207988e-12 1.094696011138315e-11 1:0.184211 2:0.473684 3:0.315789 4:0.921053 5:0.789474 6:0.315789 7:0.568833 8:0.959573 9:0.69696 10:0.5 11:0.0603954 12:0.5 13:0.5 14:0.5 15:0.657895 16:0.40625 17:0.5 18:0 19:0.186362 20:-0.0356864 21:0.870903 22:1.0122 23:0.484478 24:1 25:0.178432 26:0.258074 27:0.668342 28:0.521357 29:0.56096 30:0.134799 31:0.232243 32:0.0888783 33:0.0526241 34:0.370334 35:1 36:0.132611 37:1 38:0.881738 39:0.00772704 40:0.107959 41:0.00257568 42:0.843981 43:0.0115906 44:0.0936975 45:0.0507314 46:0.961236 47:0.0103027 48:0.0207347 49:0.00772704 50:0.00154634 51:0.0426151 52:0.0896386 53:0.0622357 54:0.842388 55:0.0131108 56:0.0170911 57:0.0258456 58:0.0714286 59:0.203496 60:0.0778047 61:0 62:0.207157 63:0.0823574 64:0.0714286 65:0.181799 66:0.104528 67:0.125853 68:0.0170044 69:0 70:0.276517 71:0.235152 72:0.0776275 73:0.138129 74:0.113895 75:0.0158223 76:0.173677 77:0.151334 78:0.191315 79:0.16809 80:0.113062 81:0.108241 82:0.0109163 83:0.0285192 84:0.054844 85:0.15464 86:0.0270058 87:0.00186471 88:0 89:0 90:0.184211 91:0.473684 92:0.315789 93:0.921053 94:0.526316 95:0.578947 96:0.556438 97:0.969809 98:0.533558 99:0.667789 100:0.121632 101:0.5 102:0.5 103:0.5 104:0.657895 105:0.484375 106:0.375 107:0 108:0 109:0.228575 110:0.870903 111:1.0122 112:0.484478 113:0.805908 114:0.367353 115:0.264194 116:0.593056 117:0.3875 118:0.696971 119:0.173491 120:0.339937 121:0.13809 122:0.0943878 123:0.457751 124:1 125:0.223904 126:1 127:0.863527 128:0.0121503 129:0.121285 130:0.00303756 131:0.818639 132:0.0151878 133:0.10517 134:0.0610034 135:0.957218 136:0.0121503 137:0.0154439 138:0.0151878 139:0.00273579 140:0.0683351 141:0.108651 142:0.0594135 143:0.766631 144:0.019957 145:0.0201494 146:0.0407287 147:0.0714286 148:0.212943 149:0.0808085 150:0 151:0.196409 152:0.0713514 153:0.0714286 154:0.190513 155:0.105119 156:0.130186 157:0.0126712 158:0 159:0.254521 160:0.241023 161:0.10329 162:0.118103 163:0.116383 164:0.0238223 165:0.17063 166:0.124784 167:0.184614 168:0.175313 169:0.109127 170:0.108398 171:0.0180036 172:0.0344337 173:0.0746975 174:0.160385 175:0.0288965 176:0.00210124 177:0 178:0 179:0.184211 180:0.526316 181:0.263158 182:0.921053 183:0.789474 184:0.526316 185:0.637661 186:0.946304 187:0.659394 188:0.659394 189:0.205178 190:0.5 191:0.5 192:1 193:0.631579 194:0.4375 195:0.475 196:0 197:0.0784902 198:0.0130817 199:1.00748 200:0.876058 201:0.484478 202:0.502912 203:0.536349 204:0.26429 205:0.649254 206:0.572761 207:0.536976 208:0.0766206 209:0.0961905 210:0.0102041 211:0.0204082 212:0.142857 213:1 214:0.012987 215:0.5 216:0.919908 217:0.00303756 218:0.0770546 219:0 220:0.899414 221:0.0151878 222:0.0746457 223:0.0107522 224:0.964684 225:0.00911269 226:0.0231659 227:0.00303756 228:0.000603969 229:0.012858 230:0.028448 231:0.0255358 232:0.985714 233:0 234:0 235:0.0047619 236:0.0714286 237:0.231488 238:0.0673099 239:0 240:0.138308 241:0.130264 242:0.0714286 243:0.157203 244:0.132569 245:0.12268 246:0.020177 247:0 248:0.181592 249:0.284512 250:0.0687093 251:0.0592895 252:0.181642 253:0.081398 254:0.122312 255:0.106498 256:0.141984 257:0.25568 258:0.112882 259:0.112049 260:0.00347081 261:0.0455624 262:0.0995622 263:0.134137 264:0.0159711 265:0.000724061 266:0 267:0 268:0.184211 269:0.421053 270:0.342105 271:0.921053 272:0.789474 273:0.342105 274:0.592455 275:0.947214 276:0.723607 277:0.5 278:0.140131 279:0.5 280:0.5 281:0 282:0.631579 283:0.390625 284:0.5 285:0 286:0.447631 287:0 288:0.870903 289:1.05841 290:0.442374 291:0.734863 292:0.393915 293:0.25527 294:0.751389 295:0.645833 296:0.426707 297:0.139429 298:0.248413 299:0.0968029 300:0.0446901 301:0.512844 302:1 303:0.172997 304:1 305:0.870405 306:0.00607513 307:0.120482 308:0.00303756 309:0.839106 310:0.0121503 311:0.0900896 312:0.0586542 313:0.961646 314:0.0121503 315:0.0231659 316:0.00303756 317:0.00104339 318:0.035814 319:0.109951 320:0.100096 321:0.838848 322:0.0132571 323:0.023148 324:0.0199849 325:0.0714286 326:0.163924 327:0.0964134 328:0 329:0.206803 330:0.116241 331:0.0714286 332:0.140789 333:0.132973 334:0.121461 335:0.0213959 336:0 337:0.284113 338:0.154364 339:0.0698025 340:0.160631 341:0.167042 342:0.0211911 343:0.183719 344:0.171598 345:0.191828 346:0.124394 347:0.126976 348:0.109626 349:0.018934 350:0.0314665 351:0.0414585 352:0.148968 353:0.0252158 354:0.00146054 355:0 356:0 
0 9.612743230723181e-12 1:0.184211 2:0.447368 3:0.394737 4:0.973684 5:0.763158 6:0.447368 7:0.642338 8:0.963352 9:0.685341 10:0.53089 11:0.0651155 12:0.5 13:0.5 14:0.5 15:0.618421 16:0.4 17:0.464286 18:0.0120685 19:0.241371 20:-0.0402285 21:0.902507 22:1.13417 23:0.35299 24:1 25:0.164937 26:0.26065 27:0.640293 28:0.527926 29:0.575285 30:0.141463 31:0.226961 32:0.0960053 33:0.0758469 34:0.415675 35:1 36:0.16579 37:1 38:0.86561 39:0.0098579 40:0.114674 41:0.0098579 42:0.871273 43:0.0154278 44:0.0719771 45:0.0413218 46:0.94178 47:0.00835477 48:0.0401184 49:0.00974723 50:0.00268737 51:0.0348182 52:0.0791455 53:0.0708241 54:0.813081 55:0.0199682 56:0.0163322 57:0.0315844 58:0.0714286 59:0.216279 60:0.082955 61:0 62:0.223054 63:0.0678953 64:0.0714286 65:0.193564 66:0.0733967 67:0.0787746 68:0.0640825 69:0 70:0.156776 71:0.366009 72:0.104738 73:0.121546 74:0.0898561 75:0.0182178 76:0.163933 77:0.056093 78:0.139577 79:0.179144 80:0.172691 81:0.170033 82:0.0280658 83:0.0530243 84:0.0374379 85:0.141189 86:0.020047 87:0.00068854 88:0 89:0 90:0.194444 91:0.444444 92:0.388889 93:0.916667 94:0.444444 95:0.5 96:0.537864 97:0.994186 98:0.5 99:0.576029 100:0.108364 101:0.5 102:0.5 103:0.5 104:0.652778 105:0.5 106:0.428571 107:0 108:0 109:0.0988656 110:0.876058 111:1.13417 112:0.370891 113:0.842895 114:0.329552 115:0.261626 116:0.577957 117:0.417217 118:0.687686 119:0.186339 120:0.318878 121:0.128986 122:0.106893 123:0.590379 124:1 125:0.240731 126:1 127:0.833941 128:0.00894187 129:0.147432 130:0.00968479 131:0.85257 132:0.0225978 133:0.0711252 134:0.0537065 135:0.942332 136:0.0129131 137:0.0382982 138:0.00645653 139:0.00366422 140:0.0398316 141:0.0968888 142:0.084603 143:0.737829 144:0.0282375 145:0.0196478 146:0.0289449 147:0.0714286 148:0.238953 149:0.0509356 150:0 151:0.21879 152:0.0538876 153:0.0714286 154:0.246476 155:0.0481004 156:0.0749407 157:0.0679164 158:0 159:0.144967 160:0.424076 161:0.129335 162:0.0238176 163:0.107803 164:0.0271447 165:0.121192 166:0.0236075 167:0.099598 168:0.200381 169:0.176496 170:0.226675 171:0.0398947 172:0.0675183 173:0.0446378 174:0.145709 175:0.0188091 176:0.00059029 177:0 178:0 179:0.184211 180:0.605263 181:0.421053 182:0.868421 183:0.710526 184:0.631579 185:0.628806 186:0.972805 187:0.572739 188:0.645479 189:0.179837 190:0.5 191:0.5 192:0.5 193:0.644737 194:0.444444 195:0.25 196:0.0130812 197:0.170056 198:0.0261624 199:1.12842 200:0.982794 201:0.305879 202:0.502931 203:0.444761 204:0.277704 205:0.577381 206:0.604346 207:0.590003 208:0.0673716 209:0.0846939 210:0.00549451 211:0.010989 212:0.299603 213:1 214:0.0714286 215:1 216:0.908379 217:0.00497069 218:0.0727378 219:0.0139126 220:0.925662 221:0.0131696 222:0.0547117 223:0.00645653 224:0.937354 225:0.00322826 226:0.046505 227:0.0129131 228:0 229:0 230:0.0193804 231:0.0272568 232:0.959184 233:0 234:0 235:0.0255102 236:0.0714286 237:0.168353 238:0.140623 239:0 240:0.096374 241:0.177203 242:0.0714286 243:0.1435 244:0.131089 245:0 246:0.142857 247:0 248:0.0714286 249:0.215295 250:0.11357 251:0.0714286 252:0.220861 253:0.16456 254:0.0714286 255:0.0155388 256:0.0558898 257:0.230247 258:0.13404 259:0.218809 260:0.0750056 261:0.11729 262:0.0817511 263:0.115368 264:0.00803858 265:0.000182131 266:0 267:0 268:0.184211 269:0.447368 270:0.421053 271:0.973684 272:0.763158 273:0.473684 274:0.649016 275:0.963352 276:0.685341 277:0.53089 278:0.14426 279:0.5 280:0.5 281:0 282:0.618421 283:0.4 284:0.458333 285:0 286:0.525832 287:-0.00891241 288:0.902507 289:1.19029 290:0.305879 291:0.738178 292:0.356496 293:0.269769 294:0.704114 295:0.648086 296:0.461377 297:0.146912 298:0.228118 299:0.122105 300:0.0914757 301:0.380108 302:1 303:0.194647 304:1 305:0.862699 306:0.0139126 307:0.110219 308:0.0131696 309:0.868141 310:0.0131696 311:0.0765964 312:0.0420933 313:0.939104 314:0.00645653 315:0.0382982 316:0.0161413 317:0.00280346 318:0.042887 319:0.0875933 320:0.0912251 321:0.83569 322:0.0216829 323:0.0211827 324:0.0245059 325:0.0714286 326:0.166007 327:0.124553 328:0 329:0.202885 330:0.103144 331:0.0714286 332:0.14007 333:0.120484 334:0 335:0.142857 336:0 337:0.157116 338:0.269536 339:0.0762212 340:0.174817 341:0.161492 342:0.0179609 343:0.127266 344:0.0857827 345:0.118884 346:0.22163 347:0.177551 348:0.176335 349:0.0122685 350:0.0390851 351:0.0411975 352:0.14934 353:0.0235611 354:0.000704281 355:0 356:0 
1.003779422696478e-14 1.52753094549925e-11 1:0.134615 2:0.461538 3:0.442308 4:0.980769 5:0.692308 6:0.480769 7:0.734776 8:0.981919 9:0.631432 10:0.521905 11:0.0910125 12:0.5 13:0.5 14:0.5 15:0.653846 16:0.433333 17:0.40625 18:0.00398733 19:0.195379 20:0.00797466 21:1.04752 22:1.08084 23:0.298499 24:1 25:0.195379 26:0.29853 27:0.599246 28:0.544742 29:0.57235 30:0.18038 31:0.290511 32:0.104697 33:0.127518 34:0.488004 35:1 36:0.230255 37:1 38:0.851898 39:0.0141597 40:0.121559 41:0.0123842 42:0.880673 43:0.0251584 44:0.0637165 45:0.0304519 46:0.931416 47:0.0118897 48:0.0448049 49:0.0118897 50:0.000107036 51:0.0275378 52:0.113495 53:0.0869556 54:0.768855 55:0.0418737 56:0.0415534 57:0.0448203 58:0.0714286 59:0.20696 60:0.12478 61:0 62:0.108808 63:0.0861672 64:0.0714286 65:0.184535 66:0.145892 67:0.0454922 68:0.0949557 69:0.00240921 70:0.132252 71:0.331227 72:0.0421797 73:0.0963374 74:0.228494 75:0.0266536 76:0.133791 77:0.0166058 78:0.120869 79:0.239501 80:0.161806 81:0.257067 82:0.0318529 83:0.0133378 84:0.0251692 85:0.143147 86:0.0161721 87:0.000378823 88:0 89:0 90:0.1 91:0.46 92:0.44 93:0.9 94:0.5 95:0.52 96:0.665663 97:0.996904 98:0.524845 99:0.54969 100:0.177441 101:0.5 102:0.5 103:0.5 104:0.68 105:0.516667 106:0.375 107:0 108:0 109:0.132256 110:1.03038 111:1.08084 112:0.309703 113:0.56708 114:0.42322 115:0.305037 116:0.551474 117:0.436622 118:0.670181 119:0.189636 120:0.310238 121:0.168624 122:0.179162 123:0.494975 124:1 125:0.2516 126:1 127:0.843448 128:0.0121701 129:0.134697 130:0.00968479 131:0.857617 132:0.0412245 133:0.0505029 134:0.050656 135:0.927919 136:0.0186267 137:0.0437694 138:0.00968479 139:0.000264774 140:0.0263723 141:0.118041 142:0.126411 143:0.745082 144:0.0305753 145:0.0398004 146:0.0310713 147:0.0714286 148:0.216958 149:0.140024 150:0 151:0.101328 152:0.0721808 153:0.0714286 154:0.199346 155:0.127306 156:0.0407195 157:0.102138 158:0 159:0.128773 160:0.336611 161:0.0521872 162:0.0904984 163:0.216423 164:0.0326498 165:0.14219 166:0.00524928 167:0.111224 168:0.237763 169:0.154798 170:0.262525 171:0.048448 172:0.0116726 173:0.0261293 174:0.153289 175:0.0179245 176:0.000473264 177:0 178:0 179:0.1 180:0.5 181:0.46 182:0.94 183:0.66 184:0.58 185:0.719968 186:0.986403 187:0.592648 188:0.569486 189:0.190491 190:0.5 191:0 192:0.5 193:0.67 194:0.466667 195:0.321429 196:0 197:0.220608 198:0 199:1.03038 200:1.13417 201:0.273009 202:0.566616 203:0.414743 204:0.30332 205:0.569544 206:0.587004 207:0.571379 208:0.198217 209:0.314172 210:0.0525433 211:0.0772894 212:0.52921 213:1 214:0.203564 215:1 216:0.825645 217:0.0203691 218:0.143867 219:0.0101192 220:0.905737 221:0.0283667 222:0.0601829 223:0.00571361 224:0.914241 225:0.00645653 226:0.0574473 227:0.0218549 228:0 229:0.0281207 230:0.0903176 231:0.0640608 232:0.845432 233:0.0167867 234:0.0204346 235:0.0376811 236:0.0714286 237:0.355277 238:0.0378979 239:0 240:0.0866729 241:0.0466578 242:0.0714286 243:0.265028 244:0.0656087 245:0.0392949 246:0.080181 247:0.0233812 248:0.130457 249:0.37112 250:0.20262 251:0.00672818 252:0.0755809 253:0.0706366 254:0.0583481 255:0.00770408 256:0.108897 257:0.242139 258:0.0793638 259:0.195066 260:0.163687 261:0.0497321 262:0.0950627 263:0.144584 264:0.00951115 265:0.000171688 266:0 267:0 268:0.134615 269:0.461538 270:0.423077 271:0.980769 272:0.692308 273:0.5 274:0.742684 275:0.980537 276:0.631056 277:0.543685 278:0.214839 279:0.5 280:0.5 281:0.5 282:0.653846 283:0.466667 284:0.428571 285:0.0281558 286:0.488034 287:0 288:1.04752 289:1.13417 290:0.262995 291:0.512259 292:0.450493 293:0.299713 294:0.650907 295:0.624731 296:0.492291 297:0.20277 298:0.314342 299:0.102264 300:0.142177 301:0.456395 302:1 303:0.178585 304:1 305:0.844929 306:0.0215464 307:0.113721 308:0.019804 309:0.888338 310:0.0186819 311:0.0711252 312:0.0218549 313:0.928905 314:0.00645653 315:0.0492405 316:0.0153984 317:0 318:0.0281318 319:0.124108 320:0.0586781 321:0.811517 322:0.0637214 323:0.0295181 324:0.0309252 325:0.0714286 326:0.165198 327:0.156395 328:0 329:0.103095 330:0.104877 331:0.0714286 332:0.129521 333:0.198057 334:0.0435181 335:0.0723461 336:0.026993 337:0.134215 338:0.203965 339:0.05398 340:0.118576 341:0.276688 342:0.0697184 343:0.141207 344:0.0237821 345:0.127999 346:0.191515 347:0.148022 348:0.214015 349:0.0596239 350:0.0386666 351:0.0551694 352:0.143807 353:0.0171653 354:0.000356943 355:0 356:0 
1.35109380424813e-11 5.660362712714269e-12 1:0.134615 2:0.461538 3:0.442308 4:0.942308 5:0.692308 6:0.519231 7:0.706007 8:0.978759 9:0.636788 10:0.545596 11:0.0889538 12:0.5 13:0.5 14:0.5 15:0.663462 16:0.433333 17:0.375 18:0.00405594 19:0.194685 20:-0.0202797 21:1.04752 22:1.08084 23:0.298499 24:1 25:0.198741 26:0.298944 27:0.606505 28:0.542876 29:0.56708 30:0.18038 31:0.278607 32:0.100997 33:0.11949 34:0.452054 35:1 36:0.195663 37:1 38:0.851898 39:0.0141597 40:0.121559 41:0.0123842 42:0.885682 43:0.0251584 44:0.0614188 45:0.0277404 46:0.93392 47:0.010534 48:0.043656 49:0.0118897 50:0 51:0.0222638 52:0.0936907 53:0.0814526 54:0.802585 55:0.0385995 56:0.0407577 57:0.0404383 58:0.0714286 59:0.206829 60:0.125249 61:0 62:0.108105 63:0.0857258 64:0.0714286 65:0.184226 66:0.147008 67:0.0454922 68:0.0949557 69:0.00240921 70:0.132014 71:0.332322 72:0.0421797 73:0.0920695 74:0.231904 75:0.0266536 76:0.124666 77:0.0183199 78:0.122782 79:0.247717 80:0.160353 81:0.255802 82:0.0318529 83:0.0133378 84:0.0251692 85:0.143352 86:0.0161258 87:0.000355106 88:0 89:0 90:0.1 91:0.46 92:0.42 93:0.9 94:0.5 95:0.46 96:0.668703 97:0.998755 98:0.524938 99:0.524938 100:0.16093 101:0.5 102:0.5 103:0.5 104:0.68 105:0.516667 106:0.392857 107:0.00802648 108:0 109:0.0561853 110:1.03038 111:1.13417 112:0.273009 113:0.622938 114:0.377244 115:0.304712 116:0.576289 117:0.460169 118:0.633283 119:0.210044 120:0.34085 121:0.158663 122:0.15755 123:0.522483 124:1 125:0.188128 126:1 127:0.816093 128:0.0121701 129:0.162052 130:0.00968479 131:0.861338 132:0.0412245 133:0.0532385 134:0.0441995 135:0.925184 136:0.0153984 137:0.046505 138:0.0129131 139:0 140:0.0162015 141:0.0841208 142:0.116925 143:0.796102 144:0.0239466 145:0.0512698 146:0.0198034 147:0.0714286 148:0.315591 149:0.0640936 150:0 151:0.0987789 152:0.0464629 153:0.0714286 154:0.272599 155:0.0596175 156:0.0668519 157:0.0760053 158:0 159:0.16079 160:0.464988 161:0.0657903 162:0.0230543 163:0.112344 164:0.0301751 165:0.0906615 166:0.0164184 167:0.142822 168:0.309815 169:0.117597 170:0.230242 171:0.0508752 172:0.0153404 173:0.0262283 174:0.146785 175:0.0111142 176:0.000215364 177:0 178:0 179:0.134615 180:0.461538 181:0.461538 182:0.980769 183:0.692308 184:0.5 185:0.740555 186:0.981919 187:0.631432 188:0.521905 189:0.186515 190:0.5 191:0.5 192:0.5 193:0.634615 194:0.433333 195:0.392857 196:0.0326855 197:0.465768 198:0 199:1.04752 200:1.13417 201:0.262995 202:0.588358 203:0.392226 204:0.299476 205:0.640669 206:0.641186 207:0.478307 208:0.223178 209:0.375567 210:0.113253 211:0.164155 212:0.699807 213:0.75 214:0.391088 215:1 216:0.817573 217:0.0215464 218:0.141077 219:0.019804 220:0.882867 221:0.0186819 222:0.0765964 223:0.0218549 224:0.914241 225:0.00968479 226:0.0574473 227:0.0186267 228:0 229:0.0408894 230:0.156117 231:0.0786654 232:0.713532 233:0.0529342 234:0.0544309 235:0.0730815 236:0.0714286 237:0.242561 238:0.0973905 239:0 240:0.107104 241:0.0802301 242:0.0714286 243:0.190493 244:0.139364 245:0.0439415 246:0.0747281 247:0.0241875 248:0.131922 249:0.283439 250:0.124482 251:0.0414714 252:0.200881 253:0.0749473 254:0.0837359 255:0.0129399 256:0.119231 257:0.22734 258:0.128232 259:0.199749 260:0.097543 261:0.0506941 262:0.0805359 263:0.141251 264:0.0145155 265:0.000298705 266:0 267:0 268:0.134615 269:0.5 270:0.423077 271:0.942308 272:0.692308 273:0.538462 274:0.716212 275:0.981773 276:0.614708 277:0.568825 278:0.474831 279:0.5 280:0.146447 281:0.853553 282:0.663462 283:0.45 284:0.35 285:0 286:0 287:0 288:1.04752 289:1.24905 290:0.189988 291:0.220671 292:1.00219 293:0.307003 294:0.71131 295:0.5625 296:0.479167 297:0.0943878 298:0.0969388 299:0.021978 300:0.043956 301:0.115278 302:1 303:0.0214286 304:0.5 305:0.961209 306:0 307:0.0355626 308:0.00322826 309:0.923676 310:0.00322826 311:0.0601829 312:0.0129131 313:0.977623 314:0.00322826 315:0.0191491 316:0 317:0 318:0.00257417 319:0.014406 320:0.0233676 321:0.964286 322:0.0127551 323:0.0127551 324:0.00510204 325:0.0714286 326:0.105302 327:0.209219 328:0 329:0.0994232 330:0.11618 331:0.0714286 332:0.101156 333:0.225862 334:0.0535714 335:0.0572856 336:0.0320001 337:0.132948 338:0.134945 339:0.0232606 340:0.226823 341:0.306708 342:0.0324595 343:0.221297 344:0.0353957 345:0.144003 346:0.128254 347:0.150499 348:0.232934 349:0.0352442 350:0.0313053 351:0.021068 352:0.147227 353:0.0191859 354:0.000258895 355:0 356:0 
0 1.681769216457469e-11 1:0.173077 2:0.442308 3:0.442308 4:0.980769 5:0.711538 6:0.519231 7:0.704261 8:0.972417 9:0.657472 10:0.544992 11:0.092606 12:0.5 13:0.5 14:0.5 15:0.644231 16:0.421875 17:0.375 18:-0.00833308 19:0.20416 20:-0.0124996 21:1.01914 22:1.10715 23:0.298499 24:1 25:0.208327 26:0.290692 27:0.606861 28:0.54533 29:0.568419 30:0.116793 31:0.15799 32:0.0639479 33:0.064345 34:0.246483 35:1 36:0.0981768 37:1 38:0.890902 39:0.016382 40:0.0810169 41:0.0116992 42:0.911952 43:0.017484 44:0.0468247 45:0.0237392 46:0.946794 47:0.00676946 48:0.0372749 49:0.00916212 50:0.000992869 51:0.0307573 52:0.0595083 53:0.0471761 54:0.885908 55:0.0133355 56:0.0248688 57:0.0134987 58:0.0714286 59:0.197885 60:0.122572 61:0 62:0.147681 63:0.0552183 64:0.0714286 65:0.20072 66:0.133067 67:0.0343715 68:0.108486 69:0 70:0.137956 71:0.338193 72:0.0601529 73:0.105645 74:0.194103 75:0.0210931 76:0.156487 77:0.0198049 78:0.103383 79:0.191385 80:0.165477 81:0.282679 82:0.0411796 83:0.017045 84:0.0225603 85:0.140777 86:0.0163256 87:0.000413419 88:0 89:0 90:0.14 91:0.46 92:0.42 93:0.9 94:0.5 95:0.5 96:0.638059 97:0.996573 98:0.526135 99:0.552271 100:0.174624 101:0.5 102:0.5 103:0.5 104:0.67 105:0.516667 106:0.357143 107:0 108:0 109:0.118661 110:1.03038 111:1.13417 112:0.273009 113:0.54778 114:0.429004 115:0.301967 116:0.552651 117:0.402651 118:0.679781 119:0.118713 120:0.157603 121:0.0895358 122:0.0913643 123:0.242405 124:1 125:0.0466805 126:0.950771 127:0.87375 128:0.0169642 129:0.0937831 130:0.0155027 131:0.913541 132:0.0243835 133:0.0322801 134:0.0297951 135:0.949109 136:0.0105887 137:0.0291485 138:0.0111542 139:0 140:0.0260232 141:0.0588177 142:0.0445341 143:0.906045 144:0.013489 145:0.0221663 146:0.00566836 147:0.0714286 148:0.26877 149:0.0864658 150:0 151:0.0971041 152:0.0636959 153:0.0714286 154:0.249932 155:0.0911751 156:0.0549247 157:0.0879324 158:0 159:0.162984 160:0.376663 161:0.0679457 162:0.121135 163:0.107166 164:0.02125 165:0.137258 166:0.0445164 167:0.154095 168:0.227783 169:0.104215 170:0.244774 171:0.0635224 172:0.0133601 173:0.0104773 174:0.144941 175:0.013923 176:0.000300065 177:0 178:0 179:0.14 180:0.48 181:0.42 182:0.98 183:0.72 184:0.5 185:0.719169 186:0.978759 187:0.636788 188:0.545596 189:0.18208 190:0.5 191:0 192:0.5 193:0.65 194:0.40625 195:0.357143 196:0.0249063 197:0.448314 198:0 199:1.00148 200:1.15839 201:0.273009 202:0.602256 203:0.398502 204:0.295746 205:0.653646 206:0.641158 207:0.489256 208:0.149012 209:0.224899 210:0.0703338 211:0.0694981 212:0.378744 213:1 214:0.228215 215:1 216:0.876405 217:0.0205521 218:0.0917538 219:0.0112895 220:0.897312 221:0.0156568 222:0.062461 223:0.0245701 224:0.939453 225:0.00491401 226:0.0458047 227:0.00982802 228:0.00233805 229:0.0464052 230:0.0813148 231:0.0688705 232:0.817732 233:0.018797 234:0.0380424 235:0.0270126 236:0.0714286 237:0.26245 238:0.0841415 239:0 240:0.131929 241:0.0454968 242:0.0714286 243:0.235056 244:0.0980697 245:0.0730972 246:0.0697599 247:0 248:0.196733 249:0.370294 250:0.0597191 251:0.0847878 252:0.12158 253:0.0240295 254:0.15241 255:0.0517533 256:0.148081 257:0.225835 258:0.11459 259:0.226715 260:0.0372796 261:0.0147411 262:0.0285943 263:0.146011 264:0.0153113 265:0.000377288 266:0 267:0 268:0.173077 269:0.442308 270:0.461538 271:0.980769 272:0.711538 273:0.538462 274:0.709625 275:0.972417 276:0.657472 277:0.544992 278:0.483442 279:0.5 280:0.5 281:0.5 282:0.644231 283:0.453125 284:0.357143 285:0 286:0 287:0 288:1.01914 289:1.15839 290:0.262995 291:0.221032 292:1.0658 293:0.29644 294:0.723837 295:0.581395 296:0.456395 297:0.0321753 298:0.0171958 299:0 300:0 301:0.0684524 302:1 303:4.53152e-18 304:6.70788e-09 305:0.977347 306:0.0025803 307:0.0174921 308:0.0025803 309:0.93541 310:0 311:0.0568492 312:0.00774089 313:0.979928 314:0.0025803 315:0.0174921 316:0 317:0 318:0.00265533 319:0.0153171 320:0.0074284 321:1 322:1.59711e-10 323:0 324:0 325:0.0714286 326:0.11429 327:0.19972 328:0 329:0.138558 330:0.0784829 331:0.0714286 332:0.118197 333:0.207894 334:0.0449368 335:0.0728368 336:0.0250835 337:0.129913 338:0.191051 339:0.0350776 340:0.193508 341:0.242662 342:0.0649315 343:0.242942 344:0.02516 345:0.101661 346:0.116993 347:0.150089 348:0.227867 349:0.025997 350:0.0403613 351:0.0689298 352:0.147018 353:0.0190725 354:0.000371417 355:0 356:0 
0 4.345676410159644e-12 1:0.173077 2:0.480769 3:0.403846 4:0.942308 5:0.75 6:0.442308 7:0.660338 8:0.971405 9:0.664992 10:0.52357 11:0.0767542 12:0.5 13:1 14:0.5 15:0.653846 16:0.421875 17:0.475 18:0 19:0.126638 20:-0.112165 21:1.01914 22:1.0122 23:0.367174 24:1 25:0.188148 26:0.286972 27:0.633889 28:0.558561 29:0.553661 30:0.25509 31:0.414484 32:0.160015 33:0.149812 34:0.598159 35:1 36:0.27623 37:1 38:0.824068 39:0.026583 40:0.126964 41:0.022385 42:0.826981 43:0.0211606 44:0.0939996 45:0.0578591 46:0.901059 47:0.0284473 48:0.0526557 49:0.0178382 50:0.00199569 51:0.0376596 52:0.110774 53:0.0986401 54:0.73257 55:0.0581959 56:0.0588373 57:0.0462462 58:0.0714286 59:0.21504 60:0.111375 61:0 62:0.118218 63:0.0843526 64:0.0673731 65:0.18539 66:0.146822 67:0.0921051 68:0.0475743 69:0 70:0.184168 71:0.186411 72:0.142655 73:0.151686 74:0.140938 75:0.054463 76:0.15952 77:0.0735219 78:0.19294 79:0.163523 80:0.0913994 81:0.116528 82:0.0709095 83:0.0376847 84:0.0939735 85:0.141228 86:0.0186794 87:0.00111885 88:0 89:0 90:0.173077 91:0.5 92:0.403846 93:0.942308 94:0.538462 95:0.557692 96:0.645433 97:0.989702 98:0.524485 99:0.59794 100:0.155867 101:0.5 102:1 103:0.5 104:0.653846 105:0.516667 106:0.4 107:0.0228985 108:0 109:0.0839611 110:1.04752 111:0.982794 112:0.367174 113:0.629871 114:0.389274 115:0.287973 116:0.568017 117:0.459627 118:0.661767 119:0.351536 120:0.538161 121:0.253405 122:0.193173 123:0.815171 124:1 125:0.431393 126:1 127:0.79458 128:0.0278353 129:0.141516 130:0.0360685 131:0.82299 132:0.0257025 133:0.099266 134:0.0520419 135:0.872393 136:0.0360685 137:0.0656961 138:0.0258427 139:0.00183774 140:0.021017 141:0.0739934 142:0.1051 143:0.671938 144:0.0718796 145:0.078374 146:0.0428378 147:0.0714286 148:0.258594 149:0.077928 150:0 151:0.107442 152:0.0783024 153:0.0691986 154:0.233104 155:0.104002 156:0.103347 157:0.0376862 158:0 159:0.155623 160:0.21818 161:0.21099 162:0.0266671 163:0.125083 164:0.122424 165:0.0943759 166:0.0476847 167:0.151743 168:0.182353 169:0.0777515 170:0.10305 171:0.12868 172:0.0605631 173:0.153798 174:0.1352 175:0.0139468 176:0.000507252 177:0 178:0 179:0.173077 180:0.442308 181:0.423077 182:0.942308 183:0.711538 184:0.5 185:0.66872 186:0.969841 187:0.664444 188:0.546984 189:0.156782 190:0.5 191:0.5 192:1 193:0.653846 194:0.421875 195:0.444444 196:0.029465 197:0.331481 198:0.00736625 199:1.01914 200:1.05841 201:0.333244 202:0.652664 203:0.375679 204:0.285129 205:0.643993 206:0.653935 207:0.487269 208:0.281443 209:0.468559 210:0.163227 211:0.198035 212:0.623107 213:1 214:0.269773 215:1 216:0.789711 217:0.0378896 218:0.144844 219:0.0275561 220:0.810398 221:0.0275561 222:0.085993 223:0.076053 224:0.874577 225:0.0447786 226:0.0642143 227:0.0164299 228:0.00537331 229:0.0444874 230:0.11543 231:0.111615 232:0.752389 233:0.0671439 234:0.0654204 235:0.038753 236:0.0714286 237:0.270329 238:0.0702285 239:0 240:0.121287 241:0.0674414 242:0.0645287 243:0.223647 244:0.111109 245:0.0647753 246:0.072662 247:0 248:0.126417 249:0.220771 250:0.265148 251:0.0115439 252:0.155526 253:0.0831563 254:0.054904 255:0.0140648 256:0.139184 257:0.222124 258:0.107402 259:0.109409 260:0.129797 261:0.0658527 262:0.157262 263:0.135666 264:0.0148675 265:0.000655146 266:0 267:0 268:0.145833 269:0.5 270:0.416667 271:0.979167 272:0.75 273:0.458333 274:0.703893 275:0.978365 276:0.643509 277:0.523918 278:0.230392 279:0.5 280:0.5 281:0.5 282:0.666667 283:0.433333 284:0.472222 285:0 286:0.319614 287:0 288:1.0122 289:1.03038 290:0.358771 291:0.472575 292:0.529016 293:0.304986 294:0.784476 295:0.597973 296:0.439189 297:0.137464 298:0.240476 299:0.064739 300:0.0549887 301:0.343463 302:1 303:0.13482 304:1 305:0.882242 306:0.013778 307:0.10398 308:0 309:0.828672 310:0.00688902 311:0.0918306 312:0.0726085 313:0.962613 314:0.0103335 315:0.017513 316:0.00954085 317:0.00268707 318:0.043831 319:0.11996 320:0.0390191 321:0.867351 322:0.0284779 323:0.0217535 324:0.0258507 325:0.0714286 326:0.126601 327:0.189638 328:0 329:0.104743 330:0.104438 331:0.0714286 332:0.101842 333:0.229882 334:0.0572823 335:0.0855748 336:0 337:0.149163 338:0.14445 339:0.0299904 340:0.205817 341:0.288789 342:0.0389333 343:0.200734 344:0.0328409 345:0.16856 346:0.159063 347:0.160016 348:0.207628 349:0.0281713 350:0.0131619 351:0.0298252 352:0.163593 353:0.0235057 354:0.000921092 355:0 356:0 
0 1.405597598785433e-11 1:0.173077 2:0.480769 3:0.403846 4:0.942308 5:0.75 6:0.442308 7:0.660338 8:0.971405 9:0.664992 10:0.52357 11:0.0767542 12:0.5 13:1 14:0.5 15:0.653846 16:0.421875 17:0.475 18:0 19:0.126638 20:-0.112165 21:1.01914 22:1.0122 23:0.367174 24:1 25:0.188148 26:0.287615 27:0.633889 28:0.558561 29:0.553661 30:0.240085 31:0.390103 32:0.150317 33:0.140732 34:0.560774 35:1 36:0.257815 37:1 38:0.833861 39:0.0251032 40:0.119897 41:0.0211389 42:0.836612 43:0.0199827 44:0.0887671 45:0.0546383 46:0.906566 47:0.0268638 48:0.0497246 49:0.0168452 50:0.00188142 51:0.0355032 52:0.104431 53:0.092409 54:0.748302 55:0.0547726 56:0.0553763 57:0.0435258 58:0.0714286 59:0.208952 60:0.11661 61:0 62:0.116946 63:0.0864698 64:0.0675923 65:0.179957 66:0.152044 67:0.0904091 68:0.049442 69:0 70:0.185749 71:0.179385 72:0.134944 73:0.168782 74:0.13977 75:0.051519 76:0.166579 77:0.0766952 78:0.198415 79:0.15982 80:0.0906945 81:0.116178 82:0.0670766 83:0.0356477 84:0.0888939 85:0.141986 86:0.0190698 87:0.00115019 88:0 89:0 90:0.173077 91:0.5 92:0.403846 93:0.942308 94:0.576923 95:0.596154 96:0.654654 97:0.982805 98:0.54828 99:0.620701 100:0.151009 101:0.5 102:1 103:0.5 104:0.653846 105:0.5 106:0.375 107:0.0291632 108:0 109:0.0947803 110:1.04752 111:0.982794 112:0.367174 113:0.65942 114:0.37183 115:0.288174 116:0.566044 117:0.4718 118:0.65664 119:0.329989 120:0.507753 121:0.232288 122:0.177075 123:0.764874 124:1 125:0.399333 126:1 127:0.799058 128:0.0294152 129:0.137874 130:0.0336524 131:0.825039 132:0.0274253 133:0.0955354 134:0.0520004 135:0.874577 136:0.0336524 137:0.0642143 138:0.0275561 139:0.0017058 140:0.0195081 141:0.0613629 142:0.0928589 143:0.691679 144:0.0663504 145:0.0723453 146:0.0450371 147:0.0714286 148:0.260759 149:0.0770603 150:0 151:0.106515 152:0.0775189 153:0.069338 154:0.234882 155:0.102498 156:0.103806 157:0.0373419 158:0 159:0.155275 160:0.219731 161:0.215449 162:0.0259706 163:0.122792 164:0.119635 165:0.0948634 166:0.0466953 167:0.151798 168:0.184895 169:0.0773734 170:0.0989713 171:0.127257 172:0.0600892 173:0.158057 174:0.135503 175:0.0139228 176:0.000505476 177:0 178:0 179:0.173077 180:0.442308 181:0.461538 182:0.942308 183:0.75 184:0.5 185:0.677519 186:0.963739 187:0.685496 188:0.523187 189:0.165009 190:0.5 191:0.5 192:0 193:0.653846 194:0.40625 195:0.416667 196:0 197:0.382605 198:0 199:1.01914 200:1.05841 201:0.333244 202:0.628284 203:0.390257 204:0.285122 205:0.663583 206:0.667857 207:0.45119 208:0.278695 209:0.474054 210:0.163227 211:0.198035 212:0.636166 213:1 214:0.325229 215:1 216:0.802437 217:0.0344451 218:0.139006 219:0.0241116 220:0.807479 221:0.0275561 222:0.0889118 223:0.076053 224:0.890748 225:0.0344451 226:0.0583766 227:0.0164299 228:0.00301222 229:0.0473506 230:0.139241 231:0.118404 232:0.734568 233:0.061837 234:0.0720645 235:0.0453263 236:0.0714286 237:0.254868 238:0.0822567 239:0 240:0.118991 241:0.0734796 242:0.063543 243:0.208146 244:0.127288 245:0.0632065 246:0.0732788 247:0 248:0.124598 249:0.216405 250:0.238376 251:0.0125806 252:0.190877 253:0.0806782 254:0.0556636 255:0.0121714 256:0.13768 257:0.229581 258:0.120116 259:0.121322 260:0.117855 261:0.0605591 262:0.145051 263:0.135984 264:0.0153888 265:0.000716315 266:0 267:0 268:0.145833 269:0.5 270:0.458333 271:0.979167 272:0.75 273:0.5 274:0.71702 275:0.978365 276:0.643509 277:0.523918 278:0.342042 279:0.5 280:0.146447 281:0.146447 282:0.666667 283:0.433333 284:0.392857 285:0 286:0.114535 287:0 288:1.0122 289:1.13417 290:0.283794 291:0.318317 292:0.752657 293:0.312922 294:0.775463 295:0.564815 296:0.451389 297:0.0763287 298:0.1337 299:0.0178571 300:0.0119048 301:0.254113 302:1 303:0.0587302 304:0.5 305:0.925978 306:0.00688902 307:0.0671331 308:0 309:0.882251 310:0.00344451 311:0.0729708 312:0.0413341 313:0.981961 314:0.00344451 315:0.0145942 316:0 317:0 318:0.0177273 319:0.0751864 320:0.0236573 321:0.962168 322:0.0131072 323:0.00824176 324:0.0164835 325:0.0714286 326:0.112877 327:0.204104 328:0 329:0.0990566 330:0.106357 331:0.0714286 332:0.0931469 333:0.241602 334:0.0469363 335:0.0794597 336:0.0164611 337:0.153288 338:0.14311 339:0.0152195 340:0.222628 341:0.275737 342:0.0471604 343:0.222291 344:0.0382195 345:0.157121 346:0.126411 347:0.160454 348:0.215044 349:0.0421724 350:0.0128247 351:0.0254619 352:0.16596 353:0.0237494 354:0.000595409 355:0 356:0 
0 1.995167946734057e-11 1:0.173077 2:0.480769 3:0.403846 4:0.942308 5:0.75 6:0.442308 7:0.660338 8:0.971405 9:0.664992 10:0.52357 11:0.0792076 12:0.5 13:0.853553 14:0.853553 15:0.653846 16:0.453125 17:0.475 18:-0.00373388 19:0.104549 20:-0.100815 21:1.01914 22:1.0122 23:0.367174 24:1 25:0.194162 26:0.288839 27:0.637615 28:0.564455 29:0.54449 30:0.211288 31:0.339361 32:0.128153 33:0.122202 34:0.491775 35:1 36:0.208422 37:1 38:0.853582 39:0.0231686 40:0.10506 41:0.0181889 42:0.854285 43:0.0184428 44:0.080807 45:0.0464649 46:0.915088 47:0.0234726 48:0.0458926 49:0.0155471 50:0.00110618 51:0.0305015 52:0.0906787 53:0.076542 54:0.786084 55:0.0491021 56:0.0461945 57:0.034335 58:0.0714286 59:0.200449 60:0.123969 61:0 62:0.114772 63:0.0897079 64:0.06788 65:0.17214 66:0.159653 67:0.087163 68:0.0529136 69:0 70:0.188743 71:0.1681 72:0.123534 73:0.200426 74:0.13478 75:0.0443405 76:0.180497 77:0.0822306 78:0.209033 79:0.152077 80:0.0893292 81:0.11435 82:0.0605065 83:0.03168 84:0.0802966 85:0.143401 86:0.0197507 87:0.0011947 88:0 89:0 90:0.173077 91:0.5 92:0.403846 93:0.903846 94:0.615385 95:0.596154 96:0.628176 97:0.977997 98:0.575473 99:0.625789 100:0.131419 101:0.5 102:0.853553 103:0.853553 104:0.663462 105:0.516667 106:0.375 107:0.00661243 108:0.0396746 109:0.0132249 110:1.04752 111:0.982794 112:0.367174 113:0.727069 114:0.337234 115:0.286651 116:0.568792 117:0.515919 118:0.614246 119:0.31484 120:0.470688 121:0.197281 122:0.17 123:0.696338 124:1 125:0.26726 126:1 127:0.813222 128:0.0350527 129:0.119011 130:0.0327142 131:0.838915 132:0.0272227 133:0.0971185 134:0.0367442 135:0.859691 136:0.0357517 137:0.0772197 138:0.0273381 139:0 140:0.0123818 141:0.0696168 142:0.0946083 143:0.739932 144:0.0576874 145:0.0645761 146:0.0250667 147:0.0714286 148:0.270076 149:0.0669863 150:0 151:0.112737 152:0.0777716 153:0.0695703 154:0.233219 155:0.0982121 156:0.100651 157:0.0406864 158:0 159:0.152794 160:0.238512 161:0.211824 162:0.0244147 163:0.111185 164:0.119933 165:0.0913654 166:0.0439613 167:0.152502 168:0.194864 169:0.083065 170:0.0903414 171:0.118906 172:0.0618728 173:0.163122 174:0.133121 175:0.0129061 176:0.000420219 177:0 178:0 179:0.173077 180:0.442308 181:0.423077 182:0.942308 183:0.711538 184:0.461538 185:0.666502 186:0.971405 187:0.664992 188:0.52357 189:0.145784 190:0.5 191:0.5 192:0.5 193:0.653846 194:0.421875 195:0.472222 196:0 197:0.364232 198:0 199:1.01914 200:1.05841 201:0.333244 202:0.699575 203:0.350488 204:0.286674 205:0.686355 206:0.65021 207:0.454832 208:0.262965 209:0.453704 210:0.155215 211:0.179948 212:0.655694 213:1 214:0.329434 215:1 216:0.812908 217:0.0303756 218:0.135453 219:0.0212629 220:0.800983 221:0.0212629 222:0.101573 223:0.0761805 224:0.903656 225:0.0303756 226:0.0514798 227:0.0144888 228:0.00263401 229:0.0564676 230:0.16661 231:0.104624 232:0.72234 233:0.0544524 234:0.0588941 235:0.0501025 236:0.0714286 237:0.209015 238:0.119191 239:0 240:0.113245 241:0.0901296 242:0.0652953 243:0.169571 244:0.162124 245:0.0615815 246:0.076458 247:0 248:0.140121 249:0.183997 250:0.162236 251:0.0930869 252:0.213312 253:0.0692084 254:0.118171 255:0.0243266 256:0.151455 257:0.193501 258:0.133847 259:0.142984 260:0.0831166 261:0.0450469 262:0.107552 263:0.13909 264:0.0177248 265:0.000953171 266:0 267:0 268:0.145833 269:0.458333 270:0.458333 271:0.979167 272:0.75 273:0.541667 274:0.740558 275:0.969841 276:0.664444 277:0.546984 278:0.57149 279:0 280:0.5 281:0.5 282:0.666667 283:0.45 284:0.4 285:0 286:0 287:0 288:1.0122 289:1.24905 290:0.205395 291:0.193972 292:1.18144 293:0.319498 294:0.75 295:0.557143 296:0.475 297:0.0261905 298:0.052381 299:0.0153061 300:0.0102041 301:0.113919 302:1 303:0.0285714 304:0.5 305:0.969112 306:0 307:0.0308879 308:0 309:0.939408 310:0 311:0.0514798 312:0.00911269 313:0.992278 314:0 315:0.00772197 316:0 317:0 318:0.00426373 319:0.0251527 320:0.0140016 321:0.976736 322:0.00897858 323:0 324:0.00952381 325:0.0714286 326:0.10722 327:0.210129 328:0 329:0.0974909 330:0.108168 331:0.0714286 332:0.0900873 333:0.244048 334:0 335:0.0992901 336:0.043567 337:0.105808 338:0.140753 339:0.0428203 340:0.142304 341:0.319333 342:0.106123 343:0.18217 344:0.00679784 345:0.0607296 346:0.144524 347:0.141502 348:0.267332 349:0.0624292 350:0.0565203 351:0.0779954 352:0.168012 353:0.0244009 354:0.000421306 355:0 356:0 
0 2.941339488014303e-12 1:0.173077 2:0.480769 3:0.403846 4:0.942308 5:0.75 6:0.442308 7:0.660338 8:0.971405 9:0.664992 10:0.52357 11:0.0792076 12:0.5 13:0.853553 14:0.853553 15:0.653846 16:0.453125 17:0.475 18:-0.00373388 19:0.104549 20:-0.100815 21:1.01914 22:1.0122 23:0.367174 24:1 25:0.194162 26:0.28903 27:0.637615 28:0.564455 29:0.54449 30:0.205728 31:0.33043 32:0.124689 33:0.118899 34:0.478114 35:1 36:0.202292 37:1 38:0.857249 39:0.0225884 40:0.102429 41:0.0177334 42:0.857935 43:0.0179809 44:0.0787832 45:0.0453012 46:0.917214 47:0.0228848 48:0.0447432 49:0.0151577 50:0.00107777 51:0.0297179 52:0.0883493 53:0.0745758 54:0.791713 55:0.0478099 56:0.0449789 57:0.0334315 58:0.0714286 59:0.198058 60:0.126024 61:0 62:0.114282 63:0.0905326 64:0.0679666 65:0.170012 66:0.161697 67:0.0865183 68:0.0536262 69:0 70:0.189345 71:0.165376 72:0.120521 73:0.206504 74:0.13485 75:0.043259 76:0.183171 77:0.0833849 78:0.210962 79:0.150685 80:0.0891546 81:0.114367 82:0.0590308 83:0.0309073 84:0.0783381 85:0.143652 86:0.0198723 87:0.00119783 88:0 89:0 90:0.173077 91:0.5 92:0.403846 93:0.903846 94:0.615385 95:0.596154 96:0.628176 97:0.977997 98:0.575473 99:0.625789 100:0.131419 101:0.5 102:0.853553 103:0.853553 104:0.663462 105:0.516667 106:0.375 107:0.00661243 108:0.0396746 109:0.0132249 110:1.04752 111:0.982794 112:0.367174 113:0.727069 114:0.337234 115:0.286651 116:0.568792 117:0.515919 118:0.614246 119:0.31484 120:0.470688 121:0.197281 122:0.17 123:0.696338 124:1 125:0.26726 126:1 127:0.813222 128:0.0350527 129:0.119011 130:0.0327142 131:0.838915 132:0.0272227 133:0.0971185 134:0.0367442 135:0.859691 136:0.0357517 137:0.0772197 138:0.0273381 139:0 140:0.0123818 141:0.0696168 142:0.0946083 143:0.739932 144:0.0576874 145:0.0645761 146:0.0250667 147:0.0714286 148:0.270076 149:0.0669863 150:0 151:0.112737 152:0.0777716 153:0.0695703 154:0.233219 155:0.0982121 156:0.100651 157:0.0406864 158:0 159:0.152794 160:0.238512 161:0.211824 162:0.0244147 163:0.111185 164:0.119933 165:0.0913654 166:0.0439613 167:0.152502 168:0.194864 169:0.083065 170:0.0903414 171:0.118906 172:0.0618728 173:0.163122 174:0.133121 175:0.0129061 176:0.000420219 177:0 178:0 179:0.173077 180:0.442308 181:0.423077 182:0.942308 183:0.711538 184:0.461538 185:0.666502 186:0.971405 187:0.664992 188:0.52357 189:0.145784 190:0.5 191:0.5 192:0.5 193:0.653846 194:0.421875 195:0.472222 196:0 197:0.364232 198:0 199:1.01914 200:1.05841 201:0.333244 202:0.699575 203:0.350488 204:0.286674 205:0.686355 206:0.65021 207:0.454832 208:0.262965 209:0.453704 210:0.155215 211:0.179948 212:0.655694 213:1 214:0.329434 215:1 216:0.812908 217:0.0303756 218:0.135453 219:0.0212629 220:0.800983 221:0.0212629 222:0.101573 223:0.0761805 224:0.903656 225:0.0303756 226:0.0514798 227:0.0144888 228:0.00263401 229:0.0564676 230:0.16661 231:0.104624 232:0.72234 233:0.0544524 234:0.0588941 235:0.0501025 236:0.0714286 237:0.209015 238:0.119191 239:0 240:0.113245 241:0.0901296 242:0.0652953 243:0.169571 244:0.162124 245:0.0615815 246:0.076458 247:0 248:0.140121 249:0.183997 250:0.162236 251:0.0930869 252:0.213312 253:0.0692084 254:0.118171 255:0.0243266 256:0.151455 257:0.193501 258:0.133847 259:0.142984 260:0.0831166 261:0.0450469 262:0.107552 263:0.13909 264:0.0177248 265:0.000953171 266:0 267:0 268:0.145833 269:0.458333 270:0.458333 271:0.979167 272:0.75 273:0.541667 274:0.740558 275:0.969841 276:0.664444 277:0.546984 278:0.681242 279:0 280:0.5 281:0.5 282:0.666667 283:0.45 284:0.4 285:0 286:0 287:0 288:1.0122 289:1.24905 290:0.205395 291:0.162722 292:1.40833 293:0.320245 294:0.732759 295:0.560345 296:0.49569 297:0.0214286 298:0.0428571 299:0.00510204 300:0.0102041 301:0.0857143 302:0.75 303:0.0285714 304:0.5 305:0.971686 306:0 307:0.0283139 308:0 309:0.952277 310:0 311:0.0386098 312:0.00911269 313:0.992278 314:0 315:0.00772197 316:0 317:0 318:0 319:0.0112008 320:0.0132822 321:0.981498 322:0.00421667 323:0 324:0.00952381 325:0.0714286 326:0.106776 327:0.210345 328:0 329:0.0978023 330:0.108278 331:0.0714286 332:0.0895025 333:0.244438 334:0 335:0.0982394 336:0.0446178 337:0.104791 338:0.143476 339:0.0408467 340:0.151467 341:0.328535 342:0.0880271 343:0.189404 344:0.0072834 345:0.0607296 346:0.145844 347:0.143384 348:0.274014 349:0.0538217 350:0.0544899 351:0.0710285 352:0.168694 353:0.0246431 354:0.000394125 355:0 356:0 
1.061213839817522e-11 0 1:0.173077 2:0.480769 3:0.403846 4:0.942308 5:0.75 6:0.442308 7:0.660338 8:0.971405 9:0.664992 10:0.52357 11:0.0792076 12:0.5 13:0.853553 14:0.853553 15:0.653846 16:0.453125 17:0.475 18:-0.00373388 19:0.104549 20:-0.100815 21:1.01914 22:1.0122 23:0.367174 24:1 25:0.194162 26:0.289204 27:0.637615 28:0.564455 29:0.54449 30:0.200453 31:0.321958 32:0.121408 33:0.11577 34:0.465192 35:1 36:0.196512 37:1 38:0.860737 39:0.0220365 40:0.0999266 41:0.0173001 42:0.861406 43:0.0175415 44:0.0768583 45:0.0441943 46:0.919237 47:0.0223256 48:0.04365 49:0.0147874 50:0.00105078 51:0.0289737 52:0.0861366 53:0.072708 54:0.797054 55:0.046584 56:0.0438256 57:0.0325743 58:0.0714286 59:0.195781 60:0.127981 61:0 62:0.113815 63:0.0913181 64:0.068049 65:0.167985 66:0.163643 67:0.0859042 68:0.0543048 69:0 70:0.189918 71:0.162782 72:0.117652 73:0.212294 74:0.134916 75:0.042229 76:0.185717 77:0.0844842 78:0.212799 79:0.14936 80:0.0889882 81:0.114383 82:0.0576253 83:0.0301714 84:0.0764729 85:0.143881 86:0.0199823 87:0.00119953 88:0 89:0 90:0.173077 91:0.5 92:0.403846 93:0.903846 94:0.615385 95:0.596154 96:0.628176 97:0.977997 98:0.575473 99:0.625789 100:0.121341 101:0.5 102:0.853553 103:0.853553 104:0.663462 105:0.516667 106:0.375 107:0 108:0.00610535 109:0.00610535 110:1.04752 111:0.982794 112:0.367174 113:0.787456 114:0.311373 115:0.286213 116:0.567794 117:0.532585 118:0.603779 119:0.325186 120:0.496329 121:0.196548 122:0.184063 123:0.67296 124:1 125:0.244989 126:1 127:0.806189 128:0.0330976 129:0.126956 130:0.0337576 131:0.834434 132:0.0285725 133:0.0965624 134:0.040431 135:0.859788 136:0.0366257 137:0.0777735 138:0.0258132 139:0 140:0.0210279 141:0.0721832 142:0.108128 143:0.745025 144:0.0630105 145:0.0608406 146:0.0254317 147:0.0714286 148:0.265586 149:0.0699601 150:0 151:0.113709 152:0.0794461 153:0.0679076 154:0.230902 155:0.101061 156:0.101953 157:0.0379965 158:0 159:0.155276 160:0.232312 161:0.209482 162:0.0267414 163:0.114139 164:0.122098 165:0.094943 166:0.0464887 167:0.15239 168:0.191472 169:0.0819623 170:0.0898868 171:0.117829 172:0.0611477 173:0.16388 174:0.133089 175:0.0128927 176:0.000423878 177:0 178:0 179:0.173077 180:0.442308 181:0.423077 182:0.942308 183:0.711538 184:0.461538 185:0.666502 186:0.971405 187:0.664992 188:0.52357 189:0.147966 190:0.5 191:0.5 192:0.5 193:0.653846 194:0.421875 195:0.472222 196:0 197:0.341784 198:0 199:1.01914 200:1.05841 201:0.333244 202:0.689256 203:0.355735 204:0.28674 205:0.697468 206:0.64089 207:0.457627 208:0.242065 209:0.416419 210:0.142486 211:0.16319 212:0.621953 213:1 214:0.304362 215:1 216:0.82908 217:0.0286814 218:0.127898 219:0.0143407 220:0.812521 221:0.020077 222:0.0983383 223:0.0690633 224:0.914328 225:0.0258132 226:0.046178 227:0.0136806 228:0.00247841 229:0.053132 230:0.152894 231:0.0943163 232:0.737973 233:0.050538 234:0.0529811 235:0.0469711 236:0.0714286 237:0.188985 238:0.134835 239:0 240:0.110859 241:0.097616 242:0.0656181 243:0.153972 244:0.176685 245:0.0606094 246:0.0776837 247:0 248:0.145614 249:0.171434 250:0.131174 251:0.124609 252:0.22477 253:0.0641066 254:0.140538 255:0.0298779 256:0.156557 257:0.181901 258:0.138906 259:0.152777 260:0.0689443 261:0.0387362 262:0.0917621 263:0.139636 264:0.018158 265:0.00096618 266:0 267:0 268:0.104167 269:0.458333 270:0.458333 271:0.979167 272:0.75 273:0.541667 274:0.773345 275:0.972417 276:0.657472 277:0.544992 278:0.999257 279:0.5 280:0.5 281:0.5 282:0.677083 283:0.45 284:0.4 285:0 286:0 287:0 288:1.0122 289:1.24905 290:0.205395 291:0.115847 292:1.97818 293:0.320979 294:0.7 295:0.5875 296:0.51875 297:0.00952381 298:0.0190476 299:0 300:0 301:0.0582418 302:0.75 303:0.025974 304:0.5 305:0.976834 306:0 307:0.0231659 308:0 309:0.967721 310:0 311:0.0231659 312:0.00911269 313:0.994852 314:0 315:0.00514798 316:0 317:0 318:0 319:0.00181637 320:0.00734084 321:0.990476 322:0 323:0 324:0.00952381 325:0.0714286 326:0.106333 327:0.210562 328:0 329:0.0981137 330:0.108388 331:0.0714286 332:0.0900476 333:0.243698 334:0 335:0.0971886 336:0.0456685 337:0.103773 338:0.148001 339:0.0373831 340:0.16063 341:0.329795 342:0.0775601 343:0.196638 344:0.00776896 345:0.0607296 346:0.143615 347:0.145577 348:0.278532 349:0.0491503 350:0.0512964 351:0.0666921 352:0.169385 353:0.0249031 354:0.00037726 355:0 356:0 
1.807273996259398e-11 0 1:0.173077 2:0.5 3:0.442308 4:0.942308 5:0.730769 6:0.403846 7:0.627733 8:0.978365 9:0.643509 10:0.476082 11:0.075666 12:0.5 13:0 14:0.5 15:0.653846 16:0.441176 17:0.479167 18:-0.00723919 19:0.104968 20:-0.130305 21:0.991722 22:0.956133 23:0.432408 24:1 25:0.199078 26:0.285376 27:0.653466 28:0.581533 29:0.510384 30:0.197761 31:0.295134 32:0.109791 33:0.129414 34:0.505211 35:1 36:0.21968 37:1 38:0.847125 39:0.0266421 40:0.0996504 41:0.026583 42:0.824576 43:0.0209899 44:0.104597 45:0.0498365 46:0.893532 47:0.0262342 48:0.0510256 49:0.0292078 50:0.000743416 51:0.0386829 52:0.115319 53:0.0820482 54:0.776198 55:0.0433283 56:0.0350876 57:0.032736 58:0.0815007 59:0.210543 60:0.110028 61:0 62:0.127381 63:0.071144 64:0.0666715 65:0.201717 66:0.131015 67:0.0631285 68:0.0855316 69:0 70:0.144614 71:0.259791 72:0.131047 73:0.184301 74:0.0983871 75:0.033199 76:0.149279 77:0.0409086 78:0.203006 79:0.188191 80:0.127963 81:0.124103 82:0.0590597 83:0.0325996 84:0.0748904 85:0.149834 86:0.0227943 87:0.00165977 88:0 89:0 90:0.173077 91:0.557692 92:0.423077 93:0.942308 94:0.557692 95:0.576923 96:0.64725 97:0.99029 98:0.5 99:0.598058 100:0.154459 101:0.5 102:0 103:0.5 104:0.653846 105:0.535714 106:0.363636 107:0.0227189 108:0 109:0.015146 110:1.07685 111:0.904827 112:0.400241 113:0.634848 114:0.386222 115:0.29092 116:0.586635 117:0.499239 118:0.593664 119:0.26541 120:0.366468 121:0.0606424 122:0.104473 123:0.769725 124:1 125:0.310343 126:1 127:0.828001 128:0.0379117 129:0.0943275 130:0.0397603 131:0.810211 132:0.0306775 133:0.115884 134:0.043228 135:0.83885 136:0.0417529 137:0.0711105 138:0.0482869 139:0 140:0.0117504 141:0.0665515 142:0.121965 143:0.777994 144:0.0397691 145:0.0377416 146:0.0347525 147:0.0714286 148:0.266414 149:0.0776015 150:0 151:0.100434 152:0.0740218 153:0.0690161 154:0.243893 155:0.0971907 156:0.101083 157:0.0395615 158:0 159:0.133524 160:0.298087 161:0.174073 162:0.0190686 163:0.122583 164:0.11202 165:0.0897743 166:0.0290974 167:0.143906 168:0.221017 169:0.0907337 170:0.130032 171:0.103506 172:0.0572279 173:0.134706 174:0.136298 175:0.0129131 176:0.000387376 177:0 178:0 179:0.173077 180:0.384615 181:0.480769 182:0.942308 183:0.730769 184:0.442308 185:0.672742 186:0.955488 187:0.704969 188:0.477226 189:0.148141 190:0.5 191:0.5 192:0.5 193:0.653846 194:0.426471 195:0.475 196:0.0202429 197:0.364372 198:0.0134953 199:0.991722 200:1.03907 201:0.367174 202:0.712501 203:0.357624 204:0.285439 205:0.692757 206:0.674065 207:0.442968 208:0.256133 209:0.395531 210:0.228038 211:0.238552 212:0.576799 213:1 214:0.323637 215:1 216:0.800307 217:0.0286225 218:0.144307 219:0.0267634 220:0.780779 221:0.0190817 222:0.123762 223:0.0763771 224:0.89805 225:0.0241116 226:0.0496201 227:0.028218 228:0.00175751 229:0.0748696 230:0.178842 231:0.0985033 232:0.690563 233:0.0584915 234:0.0503571 235:0.0300897 236:0.0879531 237:0.216215 238:0.100784 239:0 240:0.123678 241:0.0706206 242:0.0629144 243:0.216305 244:0.121529 245:0.0547329 246:0.093379 247:0 248:0.10513 249:0.236638 250:0.223656 251:0.104301 252:0.127273 253:0.0548903 254:0.101386 255:0.0194425 256:0.143191 257:0.190261 258:0.1276 259:0.131298 260:0.111135 261:0.0495505 262:0.126136 263:0.144205 264:0.0194837 265:0.00118889 266:0 267:0 268:0.173077 269:0.442308 270:0.480769 271:0.942308 272:0.711538 273:0.519231 274:0.681818 275:0.971405 276:0.664992 277:0.52357 278:0.431728 279:0 280:0.5 281:0.5 282:0.653846 283:0.453125 284:0.458333 285:0 286:0 287:0 288:1.01914 289:1.21203 290:0.226799 291:0.236229 292:0.976889 293:0.300739 294:0.764881 295:0.589286 296:0.406519 297:0.0400833 298:0.0791209 299:0.00297619 300:0.00595238 301:0.158442 302:1 303:0.031746 304:0.5 305:0.973731 306:0 307:0.0262695 308:0 309:0.903727 310:0.00344451 311:0.0798435 312:0.0129854 313:0.969235 314:0.00344451 315:0.0204318 316:0.00688902 317:0 318:0.00806909 319:0.0552385 320:0.0351742 321:0.983516 322:0 323:0.00549451 324:0.010989 325:0.0714286 326:0.121589 327:0.194948 328:0 329:0.149974 330:0.0678052 331:0.0714286 332:0.116556 333:0.20627 334:0 335:0.0969116 336:0.0459455 337:0.071466 338:0.214188 339:0.084278 340:0.218713 341:0.241448 342:0.02705 343:0.180565 344:0.0481437 345:0.0614698 346:0.139801 347:0.102018 348:0.310604 349:0.061451 350:0.066118 351:0.0298295 352:0.147404 353:0.0198808 354:0.000408274 355:0 356:0 
-0 1.533241092626516e-13 1:0.1 2:0.3 3:0.2 4:0.94 5:0.74 6:0.96 7:0.768706 8:0.845612 9:0.681035 10:0.812696 11:0.0966458 12:0.5 13:0.5 14:0.5 15:0.67 16:0.381579 17:0.322917 18:0.0572604 19:0.232223 20:0.763473 21:0.805803 22:0.901157 23:0.64987 24:1 25:0.216317 26:0.283788 27:0.522426 28:0.582424 29:0.69237 30:0.212544 31:0.365503 32:0.0983179 33:0.133893 34:0.325814 35:1 36:0.267293 37:1 38:0.854764 39:0.0266631 40:0.111463 41:0.00711015 42:0.650894 43:0.115019 44:0.23231 45:0.00177754 46:0.944173 47:0.0359746 48:0.0180751 49:0.00177754 50:0.0289729 51:0.262461 52:0.187781 53:0.0320351 54:0.731534 55:0.0895483 56:0.0741172 57:0.0495409 58:0.0826767 59:0.133545 60:0.127372 61:0.00589261 62:0.130302 63:0.134514 64:0.0710873 65:0.142443 66:0.172166 67:0.0325088 68:0.0665333 69:0.0651724 70:0.14694 71:0.114402 72:0.142789 73:0.0517956 74:0.106932 75:0.272927 76:0.0998201 77:0.057019 78:0.079016 79:0.099642 80:0.0885837 81:0.113181 82:0.139551 83:0.129499 84:0.193689 85:0.217017 86:0.0711946 87:0.0123804 88:0 89:0 90:0.1 91:0.36 92:0.34 93:0.94 94:0.76 95:0.62 96:0.710122 97:0.932278 98:0.705847 99:0.644093 100:0.155692 101:0.5 102:0.5 103:0.5 104:0.67 105:0.375 106:0.426471 107:0.0512779 108:0.262799 109:0.698661 110:0.97362 111:0.815692 112:0.569313 113:0.780063 114:0.371765 115:0.273885 116:0.536646 117:0.597973 118:0.675378 119:0.295838 120:0.568095 121:0.118964 122:0.171517 123:0.461317 124:1 125:0.307051 126:1 127:0.785569 128:0.0517295 129:0.149769 130:0.0129324 131:0.595259 132:0.167165 133:0.237577 134:0 135:0.91572 136:0.0543989 137:0.0255704 138:0.00431079 139:0.0220491 140:0.252392 141:0.24003 142:0.0542902 143:0.683602 144:0.102239 145:0.100121 146:0.0511577 147:0.105486 148:0.157264 149:0.133915 150:0.0069683 151:0.138182 152:0.0905182 153:0.0852307 154:0.131411 155:0.151025 156:0.0340309 157:0.0860136 158:0.0767466 159:0.190903 160:0.196373 161:0.043679 162:0.163869 163:0.177242 164:0.0311428 165:0.182268 166:0.0844292 167:0.129789 168:0.155283 169:0.117356 170:0.174481 171:0.0625764 172:0.0281994 173:0.0656188 174:0.157955 175:0.0301791 176:0.00292571 177:0 178:0 179:0.104167 180:0.354167 181:0.270833 182:0.9375 183:0.729167 184:0.854167 185:0.765271 186:0.884331 187:0.672949 188:0.769032 189:0.128207 190:0.704124 191:0.704124 192:0.908248 193:0.666667 194:0.390625 195:0.305556 196:0.0147821 197:0.216805 198:0.877073 199:0.927295 200:0.844154 201:0.588003 202:1 203:0.285788 204:0.2769 205:0.513402 206:0.582734 207:0.708969 208:0.261969 209:0.496381 210:0.176042 211:0.268195 212:0.33185 213:0.5 214:0.455009 215:1 216:0.812092 217:0.0344864 218:0.153422 219:0 220:0.410916 221:0.193372 222:0.395712 223:0 224:0.932984 225:0.0633631 226:0.00365291 227:0 228:0.0538755 229:0.450265 230:0.223885 231:0.0326182 232:0.640085 233:0.106313 234:0.134636 235:0.0725381 236:0.082092 237:0.106684 238:0.1515 239:0.0054992 240:0.157474 241:0.133032 242:0.0748619 243:0.113932 244:0.174925 245:0.0184745 246:0.0637376 247:0.0824033 248:0.0938401 249:0.165886 250:0.118757 251:0.0808351 252:0.184351 253:0.191715 254:0.0758339 255:0.0555544 256:0.0634606 257:0.140493 258:0.136282 259:0.155004 260:0.123568 261:0.10918 262:0.140625 263:0.171714 264:0.0413191 265:0.0057693 266:0 267:0 268:0.152174 269:0.456522 270:0.434783 271:0.934783 272:0.673913 273:0.608696 274:0.679724 275:0.971082 276:0.630856 277:0.604685 278:0.469908 279:0.5 280:0.5 281:1 282:0.652174 283:0.416667 284:0.25 285:0 286:0 287:0.0737883 288:0.992894 289:1.19029 290:0.255182 291:0.220961 292:1.08223 293:0.290298 294:0.506579 295:0.549342 296:0.694079 297:0.1 298:0.0857143 299:0.015873 300:2.38057e-34 301:0.1875 302:0.75 303:0.0238095 304:1 305:0.95916 306:0 307:0.0365291 308:0.00431079 309:0.903051 310:0.00862159 311:0.0840169 312:0.00431079 313:0.981735 314:0 315:0.0182645 316:0 317:0 318:0.0103703 319:0.0429462 320:0.0164297 321:0.978571 322:0 323:0 324:0.00714286 325:0.0714286 326:0.103912 327:0.198892 328:0 329:0.162639 330:0.0967557 331:0.0714286 332:0.114133 333:0.180811 334:0 335:0.115385 336:0.0274725 337:0.0501715 338:0.316467 339:0.0148431 340:0.164114 341:0.254664 342:0.0568828 343:0.133465 344:0.045751 345:0.0350699 346:0.210596 347:0.224522 348:0.24729 349:0.0274725 350:0.00955091 351:0.0662831 352:0.146383 353:0.0204102 354:0.000345127 355:0 356:0 
-7.397821709218875e-13 3.748495989316638e-12 1:0.1 2:0.3 3:0.2 4:0.94 5:0.74 6:0.92 7:0.753141 8:0.852754 9:0.684776 10:0.802361 11:0.0951168 12:0.5 13:0.5 14:0.5 15:0.67 16:0.381579 17:0.333333 18:0.0639102 19:0.236468 20:0.760532 21:0.805803 22:0.901157 23:0.64987 24:1 25:0.217295 26:0.277401 27:0.525814 28:0.58114 29:0.688828 30:0.188909 31:0.32419 32:0.083221 33:0.120042 34:0.290055 35:0.897584 36:0.233704 37:1 38:0.87002 39:0.0241578 40:0.10099 41:0.00483156 42:0.683696 43:0.104212 44:0.210482 45:0.00161052 46:0.950783 47:0.0325944 48:0.0150121 49:0.00161052 50:0.0261626 51:0.236459 52:0.165838 53:0.0250892 54:0.763143 55:0.0805934 56:0.0667055 57:0.0445869 58:0.0772203 59:0.123088 60:0.134785 61:0.00474508 62:0.127356 63:0.144287 64:0.0663588 65:0.139382 66:0.182778 67:0.0251163 68:0.0564226 69:0.071109 70:0.118165 71:0.104532 72:0.164627 73:0.04239 74:0.102057 75:0.315581 76:0.0793756 77:0.0466379 78:0.0634824 79:0.0920207 80:0.0859937 81:0.103922 82:0.159402 83:0.148403 84:0.220763 85:0.209355 86:0.0664754 87:0.0113577 88:0 89:0 90:0.1 91:0.34 92:0.28 93:0.94 94:0.78 95:0.76 96:0.733001 97:0.895173 98:0.706995 99:0.725813 100:0.121957 101:0.5 102:0.5 103:0.5 104:0.67 105:0.367647 106:0.375 107:0.0734388 108:0.289165 109:0.784877 110:0.896055 111:0.866302 112:0.597177 113:1 114:0.284575 115:0.272023 116:0.524578 117:0.60034 118:0.687086 119:0.319863 120:0.603135 121:0.178931 122:0.260197 123:0.436467 124:0.897584 125:0.431717 126:1 127:0.76887 128:0.0516853 129:0.172061 130:0.00738362 131:0.499564 132:0.199126 133:0.301311 134:0 135:0.915326 136:0.0653402 137:0.0156419 138:0.00369181 139:0.0373562 140:0.371241 141:0.254244 142:0.0354283 143:0.569698 144:0.14746 145:0.124414 146:0.0668323 147:0.0941987 148:0.15414 149:0.126276 150:0.00504999 151:0.141007 152:0.105516 153:0.0774922 154:0.144336 155:0.151984 156:0.0351125 157:0.0876399 158:0.0553869 159:0.198446 160:0.178914 161:0.0607152 162:0.119638 163:0.171304 164:0.0928421 165:0.152664 166:0.0865849 167:0.119795 168:0.149274 169:0.110254 170:0.169978 171:0.0736747 172:0.0526121 173:0.0851626 174:0.175037 175:0.0430788 176:0.00604499 177:0 178:0 179:0.108696 180:0.369565 181:0.282609 182:0.934783 183:0.717391 184:0.847826 185:0.73252 186:0.88979 187:0.664122 188:0.766698 189:0.133255 190:0.5 191:0.658114 192:0.974342 193:0.663043 194:0.382353 195:0.308824 196:0 197:0.185895 198:0.847465 199:0.934288 200:0.785398 201:0.636508 202:0.994014 203:0.311648 204:0.270621 205:0.506165 206:0.583984 207:0.704643 208:0.219788 209:0.325159 210:0.0759535 211:0.127465 212:0.33516 213:0.75 214:0.241104 215:0.787062 216:0.855842 217:0.018459 218:0.122007 219:0.00369181 220:0.565401 221:0.126695 222:0.304212 223:0.00369181 224:0.947703 225:0.0366553 226:0.0156419 227:0 228:0.0358603 229:0.287375 230:0.192246 231:0.0275192 232:0.815614 233:0.0448569 234:0.070747 235:0.0449721 236:0.0742615 237:0.118639 238:0.181042 239:0.000749916 240:0.164228 241:0.0995 242:0.0672219 243:0.120364 244:0.173993 245:0.00410312 246:0.0505173 247:0.0915078 248:0.0544376 249:0.18146 250:0.161642 251:0.0501282 252:0.18023 253:0.225973 254:0.0443388 255:0.0315625 256:0.0366173 257:0.159407 258:0.130934 259:0.141878 260:0.163426 261:0.116489 262:0.175348 263:0.172243 264:0.0383307 265:0.00476625 266:0 267:0 268:0.152174 269:0.456522 270:0.456522 271:0.934783 272:0.673913 273:0.543478 274:0.67316 275:0.979022 276:0.633062 277:0.553225 278:0.665246 279:0.5 280:0.5 281:0.5 282:0.652174 283:0.416667 284:0.3 285:0 286:0 287:0 288:0.992894 289:1.24905 290:0.214061 291:0.153493 292:1.52252 293:0.292382 294:0.567308 295:0.543269 296:0.634615 297:0.0625 298:0.0654762 299:0.012987 300:1.94774e-34 301:0.0714286 302:0.75 303:5.35628e-34 304:1 305:0.968153 306:0 307:0.0281555 308:0.00369181 309:0.955076 310:0.00369181 311:0.0375406 312:0.00369181 313:0.984358 314:0 315:0.0156419 316:0 317:0 318:0 319:0 320:0 321:0.988095 322:0 323:0 324:0 325:0.0714286 326:0.103675 327:0.200385 328:0 329:0.162497 330:0.0957933 331:0.0714286 332:0.112261 333:0.182532 334:0.0107143 335:0.10521 336:0.0269329 337:0.121568 338:0.219327 339:0.0154127 340:0.294716 341:0.157834 342:0.0482847 343:0.20328 344:0.104932 345:0.0908256 346:0.138165 347:0.166559 348:0.201349 349:0.0269329 350:0.00912468 351:0.058832 352:0.146474 353:0.0203403 354:0.000305744 355:0 356:0 
-2.520891410071593e-12 0 1:0.1875 2:0.416667 3:0.25 4:0.895833 5:0.791667 6:0.791667 7:0.683426 8:0.866121 9:0.693829 10:0.779975 11:0.0853582 12:0.211325 13:0.211325 14:0.211325 15:0.65625 16:0.397059 17:0.367647 18:0.00367664 19:0.102946 20:0.580909 21:0.954499 22:0.785398 23:0.616297 24:1 25:0.213245 26:0.272655 27:0.555875 28:0.53998 29:0.663876 30:0.138882 31:0.259252 32:0.0176541 33:0.0267507 34:0.354257 35:0.75 36:0.0597702 37:1 38:0.920306 39:0.00139246 40:0.075517 41:0.00278492 42:0.745813 43:0.0439179 44:0.208877 45:0.00139246 46:0.979316 47:0.0111397 48:0.00707972 49:0.00246448 50:0.00663908 51:0.10393 52:0.276298 53:0.0946594 54:0.93526 55:0.0170668 56:0.0109044 57:0.0125594 58:0.088652 59:0.0923392 60:0.0886239 61:0.00175011 62:0.195893 63:0.185755 64:0.0688425 65:0.116569 66:0.161576 67:0.0572965 68:0.0630403 69:0.0399231 70:0.195849 71:0.122617 72:0.0836045 73:0.162546 74:0.139068 75:0.136055 76:0.120149 77:0.158239 78:0.139923 79:0.0841033 80:0.122935 81:0.119043 82:0.0655559 83:0.0978886 84:0.0921633 85:0.166007 86:0.041048 87:0.00598561 88:0 89:0 90:0.1875 91:0.458333 92:0.458333 93:0.895833 94:0.708333 95:0.5 96:0.619298 97:0.970771 98:0.666155 99:0.527692 100:0.254754 101:0.211325 102:0.211325 103:0.211325 104:0.65625 105:0.433333 106:0.607143 107:0 108:0 109:0 110:1.0122 111:1.13417 112:0.283794 113:0.369136 114:0.649037 115:0.269032 116:0.698077 117:0.498077 118:0.528846 119:0.0898376 120:0.180272 121:0.021978 122:0.021978 123:0.190476 124:0.75 125:0.0142857 126:1 127:0.936589 128:0 129:0.0601829 130:0.00322826 131:0.869729 132:0.0290544 133:0.101217 134:0 135:0.976637 136:0.00645653 137:0.0136779 138:0.00322826 139:0 140:0.00995067 141:0.0407965 142:0.0452355 143:0.979592 144:0 145:0 146:0 147:0.0714286 148:0.105299 149:0.106528 150:0 151:0.210041 152:0.163118 153:0.0714286 154:0.0984279 155:0.173728 156:0 157:0.0655915 158:0.0772657 159:0.212537 160:0.149679 161:0.0363398 162:0.387535 163:0.0695832 164:0.00146942 165:0.193604 166:0.234711 167:0.171431 168:0.0608324 169:0.112791 170:0.110937 171:0.02972 172:0.0246301 173:0.0613442 174:0.124825 175:0.0160205 176:0.000234606 177:0 178:0 179:0.145833 180:0.375 181:0.291667 182:0.895833 183:0.75 184:0.666667 185:0.68558 186:0.908248 187:0.704124 188:0.704124 189:0.141346 190:0.5 191:0.5 192:0.5 193:0.666667 194:0.367647 195:0.365385 196:0 197:0.16029 198:0.801451 199:0.954499 200:0.91795 201:0.496423 202:0.812329 203:0.346227 204:0.263306 205:0.504936 206:0.577555 207:0.695091 208:0.220206 209:0.438946 210:0.0351832 211:0.0699634 212:0.525992 213:0.666667 214:0.101954 215:1 216:0.898291 217:0.00322826 218:0.0984811 219:0 220:0.65909 221:0.0727642 222:0.268145 223:0 224:0.970924 225:0.0129131 226:0.0136779 227:0.00248534 228:0.0159783 229:0.168013 230:0.358464 231:0.127152 232:0.884068 233:0.0375649 234:0.0221589 235:0.0119947 236:0.0868161 237:0.0998604 238:0.0818192 239:0.00195601 240:0.216462 241:0.17108 242:0.072443 243:0.118352 244:0.151211 245:0.0340771 246:0.0766018 247:0.0534235 248:0.16607 249:0.165411 250:0.0983903 251:0.14555 252:0.156208 253:0.104268 254:0.102203 255:0.136148 256:0.109957 257:0.10305 258:0.149439 259:0.145533 260:0.0642596 261:0.0989977 262:0.0904119 263:0.142308 264:0.0270162 265:0.0028381 266:0 267:0 268:0.1875 269:0.416667 270:0.3125 271:0.895833 272:0.75 273:0.645833 274:0.680308 275:0.916247 276:0.695881 277:0.695881 278:0.17324 279:0.5 280:0.5 281:1 282:0.65625 283:0.4 284:0.35 285:0 286:0.00848362 287:0.822911 288:1.0122 289:0.982794 290:0.394791 291:0.613928 292:0.415697 293:0.265303 294:0.507812 295:0.534598 296:0.719866 297:0.121345 298:0.197279 299:0.00549451 300:0.010989 301:0.36627 302:0.5 303:0.0571429 304:1 305:0.94206 306:0 307:0.0547117 308:0.00322826 309:0.731199 310:0.0193696 311:0.246203 312:0.00322826 313:0.981123 314:0.0161413 315:0.00273559 316:0 317:0.000683619 318:0.0829944 319:0.319235 320:0.10313 321:0.959184 322:0.00510204 323:0.00510204 324:0.0153061 325:0.0714286 326:0.0899612 327:0.100919 328:0 329:0.174805 330:0.209825 331:0.0714286 332:0.0866608 333:0.194972 334:0.012645 335:0.0890295 336:0.0411827 337:0.0799081 338:0.179635 339:0.0975697 340:0.11562 341:0.266903 342:0.117506 343:0.0561322 344:0.0770989 345:0.0721873 346:0.140855 347:0.207898 348:0.19585 349:0.0603952 350:0.105415 351:0.0841675 352:0.128216 353:0.0192929 354:0.00112257 355:0 356:0 
-5.082850878684903e-12 1.575580025279706e-12 1:0.152174 2:0.521739 3:0.608696 4:0.891304 5:0.695652 6:0.652174 7:0.554004 8:0.985913 9:0.614332 10:0.528583 11:0.0612152 12:0.704124 13:0.295876 14:0.0917517 15:0.663043 16:0.444444 17:0.520833 18:0 19:-0.00699888 20:0.391938 21:0.90675 22:0.982794 23:0.480887 24:1 25:0.18547 26:0.244261 27:0.697059 28:0.5 29:0.516377 30:0.198159 31:0.393027 32:0.0355362 33:0.0723104 34:0.561255 35:1 36:0.188545 37:1 38:0.892668 39:0.00515443 40:0.100459 41:0.00171814 42:0.662952 43:0.075203 44:0.260126 45:0.00171814 46:0.961129 47:0.016786 48:0.00873559 49:0.0133498 50:0.00723071 51:0.12191 52:0.311153 53:0.175274 54:0.843627 55:0.0489452 56:0.0553457 57:0.0240205 58:0.0714286 59:0.101837 60:0.0972113 61:0 62:0.261932 63:0.156827 64:0.0714286 65:0.125241 66:0.114095 67:0.0404147 68:0.0758224 69:0.0266201 70:0.20713 71:0.202341 72:0.0668168 73:0.150439 74:0.170981 75:0.0594353 76:0.126325 77:0.160949 78:0.111278 79:0.110293 80:0.174441 81:0.166887 82:0.0399808 83:0.0613254 84:0.0485212 85:0.130739 86:0.0227238 87:0.00197279 88:0 89:0 90:0.159091 91:0.5 92:0.613636 93:0.886364 94:0.636364 95:0.340909 96:0.572926 97:0.961112 98:0.586459 99:0.327083 100:0.12467 101:0.704124 102:0.295876 103:0.0917517 104:0.681818 105:0.455882 106:0.666667 107:0 108:0 109:0 110:0.912908 111:0.956133 112:0.499347 113:0.790692 114:0.36648 115:0.255472 116:0.905208 117:0.43125 118:0.300427 119:0.251157 120:0.50368 121:0.036487 122:0.0738095 123:0.743468 124:0.5 125:0.232685 126:1 127:0.869498 128:0.0119321 129:0.114592 130:0.00397736 131:0.618888 132:0.102496 133:0.278616 134:0 135:0.959294 136:0.0189715 137:0.00674072 138:0.0149941 139:0.00459083 140:0.126724 141:0.320776 142:0.19368 143:0.825986 144:0.067977 145:0.0786632 146:0.00789281 147:0.0801692 148:0.0895491 149:0.106625 150:0.00736427 151:0.223759 152:0.142883 153:0.0823544 154:0.127593 155:0.139704 156:0.0666289 157:0.0829466 158:0.0203569 159:0.178349 160:0.208826 161:0.0447303 162:0.146366 163:0.191981 164:0.059816 165:0.135462 166:0.146934 167:0.111322 168:0.118669 169:0.163888 170:0.202185 171:0.0296085 172:0.0470342 173:0.0448967 174:0.142827 175:0.0256956 176:0.00208349 177:0 178:0 179:0.195652 180:0.5 181:0.478261 182:0.847826 183:0.717391 184:0.521739 185:0.563668 186:0.973396 187:0.657799 188:0.53156 189:0.233921 190:0.5 191:0.146447 192:0.146447 193:0.641304 194:0.416667 195:0.541667 196:0 197:0 198:0 199:0.992894 200:1.19029 201:0.255182 202:0.368087 203:0.649658 204:0.250159 205:0.712302 206:0.474206 207:0.545635 208:0.126623 209:0.24026 210:0.0178571 211:0.0357143 212:0.271958 213:1 214:0 215:0 216:0.925245 217:0.00397736 218:0.0707776 219:0 220:0.852039 221:0.0159094 222:0.128074 223:0.00397736 224:0.974586 225:0.00397736 226:0.0134814 227:0.00795472 228:0 229:0.0084001 230:0.0636298 231:0.0690725 232:0.980519 233:0 234:0.00649351 235:2.8837e-18 236:0.0714286 237:0.0701745 238:0.128654 239:0 240:0.175393 241:0.236855 242:0.0714286 243:0.0768562 244:0.16921 245:0 246:0.127551 247:0.0153061 248:0.165674 249:0.12669 250:0.0269945 251:0.242489 252:0.279613 253:0.0156826 254:0.150085 255:0.194525 256:0.0635537 257:0.120484 258:0.194953 259:0.218833 260:0 261:0.0261879 262:0.0313787 263:0.111274 264:0.0136458 265:0.000211713 266:0 267:0 268:0.159091 269:0.431818 270:0.25 271:0.886364 272:0.75 273:0.659091 274:0.660796 275:0.907189 276:0.678145 277:0.729044 278:0.141754 279:0.5 280:0.5 281:1 282:0.636364 283:0.390625 284:0.354167 285:0 286:0.0360756 287:0.808093 288:0.942 289:0.927295 290:0.499347 291:0.787489 292:0.360756 293:0.258006 294:0.500992 295:0.577381 296:0.705357 297:0.24026 298:0.470779 299:0.0594609 300:0.121429 301:0.666825 302:0.647584 303:0.328722 304:1 305:0.902259 306:0 307:0.0977405 308:0 309:0.610986 310:0.0715925 311:0.313444 312:0.00397736 313:0.950722 314:0.0198868 315:0.0134814 316:0.0159094 317:0.0129447 318:0.16834 319:0.411211 320:0.15751 321:0.798701 322:0.0489779 323:0.0601095 324:0.0467568 325:0.0714286 326:0.110771 327:0.168602 328:0 329:0.163398 330:0.171622 331:0.0714286 332:0.0866426 333:0.156108 334:0.0236082 335:0.0803723 336:0.0388766 337:0.122667 338:0.166791 339:0.0673532 340:0.151609 341:0.242931 342:0.105791 343:0.118745 344:0.0947837 345:0.0817213 346:0.158524 347:0.165602 348:0.170877 349:0.0696904 350:0.0765528 351:0.0635027 352:0.141564 353:0.0261958 354:0.00244825 355:0 356:0 
-0 2.203667314751412e-11 1:0.195652 2:0.5 3:0.543478 4:0.891304 5:0.76087 6:0.673913 7:0.552236 8:0.961112 9:0.672917 10:0.586459 11:0.0606773 12:0.5 13:0.5 14:0 15:0.630435 16:0.411765 17:0.442308 18:0.00349738 19:-0.00699477 20:0.45466 21:0.934288 22:0.91795 23:0.514451 24:1 25:0.185361 26:0.247855 27:0.675287 28:0.505747 29:0.547414 30:0.190743 31:0.3789 32:0.0342671 33:0.0595238 34:0.569894 35:1 36:0.18578 37:1 38:0.899464 39:0.00332519 40:0.0972112 41:0 42:0.670687 43:0.0698289 44:0.257821 45:0.00166259 46:0.965453 47:0.0133007 48:0.0112709 49:0.00997556 50:0.00622533 51:0.12239 52:0.325163 53:0.166878 54:0.849985 55:0.0490938 56:0.0513759 57:0.0273783 58:0.0707266 59:0.0900599 60:0.114425 61:0 62:0.222563 63:0.184901 64:0.0709951 65:0.107265 66:0.139063 67:0.0513213 68:0.0640582 69:0.0261338 70:0.212731 71:0.141864 72:0.0522375 73:0.192906 74:0.182388 75:0.0763604 76:0.135132 77:0.184225 78:0.134696 79:0.0966345 80:0.150823 81:0.141741 82:0.0437908 83:0.0632351 84:0.0497221 85:0.133687 86:0.0243223 87:0.002337 88:0 89:0 90:0.204545 91:0.477273 92:0.590909 93:0.886364 94:0.659091 95:0.363636 96:0.555826 97:0.959855 98:0.622628 99:0.346715 100:0.134692 101:0.5 102:0.5 103:0 104:0.647727 105:0.4375 106:0.613636 107:0 108:0 109:0 110:0.942 111:0.968509 112:0.463648 113:0.687997 114:0.404666 115:0.258245 116:0.909404 117:0.428899 118:0.317661 119:0.219317 120:0.440476 121:0.0222012 122:0.0452381 123:0.748942 124:0.5 125:0.181406 126:1 127:0.884194 128:0.00795472 129:0.107852 130:0 131:0.667069 132:0.0835246 133:0.249407 134:0 135:0.973372 136:0.0119321 137:0.00674072 138:0.00795472 139:0.000427774 140:0.0899445 141:0.285753 142:0.199907 143:0.868194 144:0.0571304 145:0.0594303 146:0.00875149 147:0.0812579 148:0.0781289 149:0.115378 150:0.00905845 151:0.209133 152:0.158737 153:0.0832238 154:0.109828 155:0.155256 156:0.0665946 157:0.0870463 158:0.0196825 159:0.165584 160:0.187239 161:0.0366002 162:0.177726 163:0.20827 164:0.0512566 165:0.139735 166:0.159037 167:0.118562 168:0.114956 169:0.161933 170:0.194684 171:0.0235379 172:0.0471389 173:0.0404161 174:0.137603 175:0.0231801 176:0.00158876 177:0 178:0 179:0.159091 180:0.454545 181:0.409091 182:0.840909 183:0.727273 184:0.545455 185:0.596825 186:0.956435 187:0.682574 188:0.591287 189:0.222869 190:0.5 191:0.5 192:0 193:0.647727 194:0.4 195:0.464286 196:0 197:0 198:0.284831 199:0.972377 200:1.13417 201:0.308053 202:0.418909 203:0.596789 204:0.25573 205:0.594203 206:0.512681 207:0.652174 208:0.12987 209:0.246753 210:0.0214286 211:0.0428571 212:0.331746 213:1 214:0.0748299 215:1 216:0.931986 217:0.00397736 218:0.0640369 219:0 220:0.825684 221:0.0119321 222:0.158407 223:0.00397736 224:0.973979 225:0.0119321 226:0.0101111 227:0.00397736 228:0.000427774 229:0.0270567 230:0.118718 231:0.0835761 232:0.961039 233:0.00113948 234:0.00535403 235:0.00649351 236:0.0714286 237:0.101373 238:0.180653 239:0 240:0.147357 241:0.191559 242:0.0714286 243:0.0748668 244:0.161334 245:0.0271932 246:0.0955767 247:0.0200873 248:0.195245 249:0.103178 250:0.0283173 251:0.32514 252:0.182676 253:0.0225875 254:0.237739 255:0.192969 256:0.111265 257:0.0984844 258:0.126512 259:0.157265 260:0.013785 261:0.0316622 262:0.0303183 263:0.122217 264:0.0164849 265:0.000421293 266:0 267:0 268:0.159091 269:0.386364 270:0.25 271:0.886364 272:0.75 273:0.659091 274:0.673513 275:0.899501 276:0.69975 277:0.724719 278:0.139051 279:0.5 280:0.5 281:1 282:0.636364 283:0.375 284:0.354167 285:0.00694386 286:0.0416631 287:0.826319 288:0.942 289:0.927295 290:0.499347 291:0.818251 292:0.347193 293:0.262038 294:0.502863 295:0.574427 296:0.708015 297:0.218615 298:0.441558 299:0.0594609 300:0.0928571 301:0.628995 302:0.647584 303:0.328545 304:1 305:0.909 306:0 307:0.0909998 308:0 309:0.586787 310:0.0795472 311:0.333666 312:0 313:0.947352 314:0.0198868 315:0.0168518 316:0.0159094 317:0.0151915 318:0.199382 319:0.419314 320:0.145014 321:0.801246 322:0.0563754 323:0.0594709 324:0.0504406 325:0.0828667 326:0.113613 327:0.156564 328:0.00280216 329:0.200492 330:0.13371 331:0.0769161 332:0.0973711 333:0.135665 334:0.0423763 335:0.079132 336:0.0409248 337:0.111302 338:0.183979 339:0.104933 340:0.111964 341:0.212275 342:0.113115 343:0.101265 344:0.0864588 345:0.078437 346:0.162062 347:0.156781 348:0.163067 349:0.0856384 350:0.0890381 351:0.0772538 352:0.145359 353:0.0277428 354:0.00271252 355:0 356:0 
-2.457835420432583e-11 2.740843716388657e-12 1:0.152174 2:0.521739 3:0.695652 4:0.934783 5:0.73913 6:0.565217 7:0.568167 8:0.975665 9:0.632129 10:0.420723 11:0.0616704 12:0.5 13:0.341886 14:0.0256584 15:0.673913 16:0.430556 17:0.578125 18:0.00325938 19:-0.0195563 20:0.319419 21:0.90675 22:0.844154 23:0.607802 24:1 25:0.185785 26:0.258056 27:0.770408 28:0.497959 29:0.430662 30:0.19477 31:0.377905 32:0.0395983 33:0.0734127 34:0.415916 35:1 36:0.142937 37:1 38:0.868349 39:0 40:0.127832 41:0.00381911 42:0.591523 43:0.129274 44:0.279203 45:0 46:0.973693 47:0.00910833 48:0.00809066 49:0.00910833 50:0.0148799 51:0.241166 52:0.289966 53:0.100448 54:0.837287 55:0.0339869 56:0.0404076 57:0.0221098 58:0.0786958 59:0.10292 60:0.11062 61:0.00469777 62:0.227351 63:0.119305 64:0.0786958 65:0.128706 66:0.149009 67:0.0603629 68:0.0843361 69:0.0174122 70:0.211212 71:0.197707 72:0.0396436 73:0.16744 74:0.173014 75:0.048872 76:0.150223 77:0.153288 78:0.148664 79:0.124362 80:0.149384 81:0.16897 82:0.0234648 83:0.0347138 84:0.0469307 85:0.158511 86:0.0332317 87:0.00370139 88:0 89:0 90:0.152174 91:0.521739 92:0.673913 93:0.934783 94:0.652174 95:0.282609 96:0.619713 97:0.942326 98:0.573721 99:0.278837 100:0.119093 101:0.5 102:0.341886 103:0.0256584 104:0.673913 105:0.458333 106:0.683333 107:0 108:0 109:0 110:0.90675 111:0.876058 112:0.577902 113:0.928533 114:0.327773 115:0.26561 116:0.958015 117:0.437023 118:0.234216 119:0.241129 120:0.47119 121:0.0759741 122:0.156085 123:0.535061 124:0.5 125:0.357027 126:1 127:0.845262 128:0 129:0.146116 130:0.00862159 131:0.483267 132:0.162169 133:0.354564 134:0 135:0.963845 136:0.0119403 137:0.00365291 138:0.0205619 139:0.0197821 140:0.284148 141:0.362863 142:0.117521 143:0.757504 144:0.0656848 145:0.0580374 146:0.0389671 147:0.0714286 148:0.102589 149:0.12622 150:0 151:0.209642 152:0.128039 153:0.0714286 154:0.124625 155:0.166027 156:0.0360463 157:0.083321 158:0.0234899 159:0.165146 160:0.207027 161:0.0571571 162:0.146914 163:0.19084 164:0.0900577 165:0.130429 166:0.115901 167:0.104613 168:0.129028 169:0.165706 170:0.184455 171:0.0395556 172:0.0555673 173:0.0747439 174:0.163519 175:0.0352431 176:0.00403164 177:0 178:0 179:0.195652 180:0.478261 181:0.478261 182:0.934783 183:0.695652 184:0.478261 185:0.60815 186:0.979683 187:0.641083 188:0.5 189:0.275221 190:0.5 191:0.146447 192:0.146447 193:0.641304 194:0.421875 195:0.625 196:0 197:0 198:0 199:0.962994 200:1.10715 201:0.334737 202:0.349917 203:0.729986 204:0.269563 205:0.840517 206:0.439655 207:0.394397 208:0.0607143 209:0.121429 210:0.00396825 211:0.00793651 212:0.374702 213:1 214:0.0277778 215:0.75 216:0.926942 217:0 218:0.0730581 219:0 220:0.816108 221:0.0560403 222:0.127852 223:0 224:0.989041 225:0 226:0.0109587 227:0 228:0 229:0.00882592 230:0.0785648 231:0.109915 232:0.985714 233:2.87481e-10 234:0.00482485 235:0.002318 236:0.0863646 237:0.0762027 238:0.124555 239:0.0122104 240:0.216009 241:0.125509 242:0.0863646 243:0.0990388 244:0.173746 245:0.0271047 246:0.136461 247:0.0215189 248:0.14481 249:0.195419 250:0.045155 251:0.249792 252:0.17043 253:0.00930874 254:0.16226 255:0.157704 256:0.103533 257:0.131066 258:0.153757 259:0.216318 260:0.00440281 261:0.0298773 262:0.0410823 263:0.135695 264:0.0197088 265:0.000468309 266:0 267:0 268:0.195652 269:0.391304 270:0.304348 271:0.934783 272:0.782609 273:0.652174 274:0.683498 275:0.908013 276:0.716007 277:0.692006 278:0.177862 279:0.5 280:0.5 281:0.5 282:0.641304 283:0.359375 284:0.375 285:0 286:0.119527 287:0.836691 288:0.962994 289:0.927295 290:0.480887 291:0.636565 292:0.435421 293:0.270552 294:0.497368 295:0.592105 296:0.703472 297:0.233424 298:0.446825 299:0.0288596 300:0.0357143 301:0.326852 302:0.75 303:0.0671429 304:1 305:0.868424 306:0 307:0.131576 308:0 309:0.610776 310:0.132121 311:0.257103 312:0 313:0.982615 314:0.00941049 315:0.00797432 316:0 317:0.0170843 318:0.308624 319:0.268963 320:0.0416146 321:0.873016 322:0.0120957 323:0.0215419 324:0.0139814 325:0.0806747 326:0.0748063 327:0.138145 328:0.00755883 329:0.182081 330:0.156267 331:0.0806747 332:0.095478 333:0.184315 334:0.0385385 335:0.0912656 336:0.0392486 337:0.117533 338:0.164164 339:0.0621497 340:0.200819 341:0.199892 342:0.08639 343:0.120229 344:0.126752 345:0.110246 346:0.129723 347:0.153768 348:0.176423 349:0.0425921 350:0.0694905 351:0.0707762 352:0.148349 353:0.0277623 354:0.00249547 355:0 356:0 
-1.690093135158003e-12 0 1:0.166667 2:0.404762 3:0.357143 4:0.928571 5:0.880952 6:0.785714 7:0.6283 8:0.882692 9:0.739182 10:0.715264 11:0.0725521 12:0.5 13:0.146447 14:0.146447 15:0.642857 16:0.380952 17:0.383333 18:0 19:0.170061 20:0.367888 21:0.785398 22:0.950547 23:0.620249 24:1 25:0.197826 26:0.260406 27:0.584194 28:0.565217 29:0.602588 30:0.241163 31:0.464039 32:0.0303657 33:0.0503401 34:0.626614 35:1 36:0.111144 37:1 38:0.851055 39:0.00166259 40:0.142295 41:0.00498778 42:0.698568 43:0.0982251 44:0.203206 45:0 46:0.969161 47:0.00831296 48:0.0112709 49:0.0112555 50:0.00291734 51:0.0877577 52:0.333616 53:0.232708 54:0.866506 55:0.0458487 56:0.0365629 57:0.0152224 58:0.0848301 59:0.122942 60:0.123875 61:0.00362913 62:0.188233 63:0.126211 64:0.0739146 65:0.135328 66:0.141037 67:0.0743426 68:0.0655381 69:0.023067 70:0.190705 71:0.183039 72:0.0696897 73:0.114063 74:0.147917 75:0.131638 76:0.141502 77:0.122319 78:0.127693 79:0.120327 80:0.12119 81:0.143037 82:0.0711928 83:0.0656062 84:0.0871319 85:0.194275 86:0.0522624 87:0.00743851 88:0 89:0 90:0.166667 91:0.5 92:0.547619 93:0.880952 94:0.738095 95:0.452381 96:0.571016 97:0.970592 98:0.656864 99:0.437254 100:0.185491 101:0.5 102:0.146447 103:0.146447 104:0.654762 105:0.426471 106:0.642857 107:0.0116387 108:0 109:0 110:0.890275 111:1.18019 112:0.321751 113:0.511428 114:0.523743 115:0.276372 116:0.779605 117:0.449013 118:0.435855 119:0.165964 120:0.284632 121:0.025 122:0.05 123:0.550617 124:1 125:0.102041 126:1 127:0.897068 128:0.00397736 129:0.0909998 130:0.00795472 131:0.806739 132:0.0517057 133:0.141555 134:0 135:0.951329 136:0.0159094 137:0.0168518 138:0.0159094 139:0 140:0.0314953 141:0.151308 142:0.14437 143:0.918831 144:0.0292208 145:0.0194805 146:0.012987 147:0.0902601 148:0.0833371 149:0.151451 150:0 151:0.172072 152:0.15024 153:0.0714286 154:0.0970022 155:0.184209 156:0.0333716 157:0.0927223 158:0.0355948 159:0.135318 160:0.182923 161:0.0347143 162:0.225391 163:0.193249 164:0.0667158 165:0.167004 166:0.133823 167:0.0937594 168:0.127363 169:0.156505 170:0.183217 171:0.0249732 172:0.0440155 173:0.0693401 174:0.156482 175:0.0279621 176:0.000870916 177:0 178:0 179:0.166667 180:0.333333 181:0.309524 182:0.928571 183:0.809524 184:0.690476 185:0.688506 186:0.89036 187:0.743975 188:0.69518 189:0.167182 190:0.5 191:0.5 192:0.5 193:0.642857 194:0.388889 195:0.363636 196:0 197:0.309991 198:0.76682 199:0.86217 200:1.02225 201:0.482513 202:0.729667 203:0.407883 204:0.269713 205:0.500497 206:0.617718 207:0.67796 208:0.25879 209:0.490693 210:0.0493096 211:0.0695238 212:0.465998 213:0.5 214:0.170254 215:1 216:0.857838 217:0 218:0.138185 219:0.00397736 220:0.672765 221:0.127592 222:0.199643 223:0 224:0.976109 225:0 226:0.0168518 227:0.00703941 228:0.00570656 229:0.136013 230:0.365594 231:0.13209 232:0.837662 233:0.0457608 234:0.0570167 235:0.0169674 236:0.0883402 237:0.0919235 238:0.14914 239:0 240:0.175681 241:0.141259 242:0.0714286 243:0.111122 244:0.171106 245:0.0343355 246:0.0898578 247:0.0348392 248:0.139883 249:0.187224 250:0.0506266 251:0.165429 252:0.18834 253:0.109464 254:0.13381 255:0.113482 256:0.0996075 257:0.134 258:0.150572 259:0.174164 260:0.0538241 261:0.0613882 262:0.0791511 263:0.169331 264:0.0364309 265:0.00331871 266:0 267:0 268:0.166667 269:0.357143 270:0.285714 271:0.928571 272:0.833333 273:0.666667 274:0.682372 275:0.89036 276:0.743975 277:0.69518 278:0.163935 279:0.5 280:0.723607 281:0.947214 282:0.642857 283:0.368421 284:0.35 285:0 286:0.359965 287:0.71993 288:0.835357 289:1.08632 290:0.444419 291:0.74412 292:0.399961 293:0.26456 294:0.501116 295:0.613839 296:0.671875 297:0.264069 298:0.529221 299:0.0150584 300:0.0309524 301:0.863228 302:0.5 303:0.0816327 304:1 305:0.841593 306:0 307:0.158407 308:0 309:0.680885 310:0.103411 311:0.215703 312:0 313:0.984698 314:0.00397736 315:0.00337036 316:0.00795472 317:0.00161299 318:0.055884 319:0.343266 320:0.295567 321:0.918831 322:0.0292208 323:0.0231643 324:0.00930321 325:0.0770568 326:0.111616 327:0.173105 328:0.000839327 329:0.14157 330:0.135111 331:0.0689234 332:0.110917 333:0.180861 334:0.0317576 335:0.0789983 336:0.0364736 337:0.0946924 338:0.195798 339:0.0747202 340:0.0716924 341:0.256271 342:0.159596 343:0.087451 344:0.057504 345:0.0595445 346:0.192729 347:0.148632 348:0.188894 349:0.0740966 350:0.0862298 351:0.104918 352:0.164901 353:0.0320745 354:0.00213402 355:0 356:0 
-4.244966716399358e-13 3.304427702119994e-12 1:0.227273 2:0.295455 3:0.227273 4:0.863636 5:0.886364 6:0.863636 7:0.660482 8:0.79554 9:0.77443 10:0.79554 11:0.080727 12:0.5 13:0.5 14:0.5 15:0.642857 16:0.397727 17:0.342105 18:0 19:0.25903 20:0.644168 21:0.80865 22:0.835357 23:0.712358 24:1 25:0.211314 26:0.257941 27:0.521401 28:0.589981 29:0.670919 30:0.236401 31:0.435119 32:0.0314365 33:0.0580541 34:0.584939 35:1 36:0.213865 37:1 38:0.846748 39:0.00515443 40:0.141225 41:0.00687258 42:0.668284 43:0.11472 44:0.216996 45:0 46:0.967735 47:0.0103089 48:0.0116475 49:0.0103089 50:0.0128666 51:0.163648 52:0.289146 53:0.151231 54:0.815023 55:0.0463933 56:0.0462091 57:0.0385322 58:0.0745876 59:0.103787 60:0.106045 61:0.0102565 62:0.182359 63:0.176918 64:0.0635711 65:0.123195 66:0.159281 67:0.0589432 68:0.0651444 69:0.0262402 70:0.191394 71:0.135422 72:0.077232 73:0.12938 74:0.128198 75:0.188046 76:0.107229 77:0.144982 78:0.133257 79:0.0914577 80:0.107683 81:0.120393 82:0.0929987 83:0.101112 84:0.100888 85:0.197451 86:0.0586183 87:0.0101638 88:0 89:0 90:0.214286 91:0.404762 92:0.47619 93:0.880952 94:0.833333 95:0.571429 96:0.594899 97:0.917585 98:0.768447 99:0.559655 100:0.210066 101:0.5 102:0.5 103:0.5 104:0.642857 105:0.426471 106:0.5 107:0 108:0 109:0.100252 110:0.890275 111:1.13095 112:0.363979 113:0.474994 114:0.576448 115:0.26638 116:0.57363 117:0.561644 118:0.611301 119:0.172078 120:0.253247 121:0.0178571 122:0.0357143 123:0.582011 124:1 125:0.156463 126:1 127:0.884194 128:0.00397736 129:0.107852 130:0.00397736 131:0.838286 132:0.043751 133:0.117963 134:0 135:0.9758 136:0 137:0.0202222 138:0.00397736 139:0 140:0.0100676 141:0.0806773 142:0.0935864 143:0.896104 144:0.0204483 145:0.0185127 146:0.025974 147:0.0779095 148:0.0763563 149:0.103543 150:0.00251032 151:0.169613 152:0.212268 153:0.0688027 154:0.0821419 155:0.206854 156:0.00189074 157:0.0530966 158:0.0954634 159:0.0440177 160:0.242672 161:0.0393325 162:0.196551 163:0.308534 164:0.0184417 165:0.0552976 166:0.148828 167:0.0326635 168:0.162149 169:0.197183 170:0.25256 171:0.0397854 172:0.0370208 173:0.0745137 174:0.149766 175:0.0251187 176:0.000567705 177:0 178:0 179:0.166667 180:0.309524 181:0.309524 182:0.880952 183:0.833333 184:0.738095 185:0.637401 186:0.86295 187:0.766164 188:0.71777 189:0.128234 190:0.5 191:0.5 192:0.5 193:0.654762 194:0.392857 195:0.365385 196:0 197:0.384752 198:0.757092 199:0.785398 200:1.01649 201:0.554307 202:0.959184 203:0.341312 204:0.248274 205:0.494444 206:0.631481 207:0.678157 208:0.334111 209:0.674675 210:0.070593 211:0.128175 212:0.494427 213:0.5 214:0.267237 215:1 216:0.78861 217:0.00397736 218:0.195481 219:0.0119321 220:0.563822 221:0.189998 222:0.24618 223:0 224:0.96144 225:0.0119321 226:0.00674072 227:0.0198868 228:0.022418 229:0.285619 230:0.343403 231:0.123827 232:0.787245 233:0.0505679 234:0.0498469 235:0.0337281 236:0.0693924 237:0.116492 238:0.119389 239:0 240:0.172118 241:0.174411 242:0.0596812 243:0.120358 244:0.168157 245:0.0125718 246:0.0748164 247:0.0426619 248:0.133386 249:0.180823 250:0.0841732 251:0.132467 252:0.189377 253:0.149724 254:0.0883355 255:0.109211 256:0.0865154 257:0.124808 258:0.148956 259:0.15979 260:0.0916875 261:0.0900805 262:0.100616 263:0.168658 264:0.0388067 265:0.00469454 266:0 267:0 268:0.166667 269:0.357143 270:0.309524 271:0.880952 272:0.785714 273:0.690476 274:0.65938 275:0.889906 276:0.733944 277:0.70795 278:0.14199 279:0.5 280:0.853553 281:0.853553 282:0.654762 283:0.397059 284:0.318182 285:0 286:0.147634 287:0.81199 288:0.890275 289:0.996491 290:0.482513 291:0.806367 292:0.361704 293:0.259807 294:0.504167 295:0.575 296:0.703552 297:0.211816 298:0.411688 299:0.00714286 300:0.0142857 301:0.705979 302:0.5 303:0.209325 304:1 305:0.877453 306:0.00397736 307:0.114592 308:0.00397736 309:0.618227 310:0.0985188 311:0.283254 312:0 313:0.972765 314:0.0159094 315:0.00337036 316:0.00795472 317:0.0087854 318:0.123782 319:0.364556 320:0.210558 321:0.884018 322:0.0336928 323:0.045158 324:0.0306376 325:0.0745672 326:0.0960911 327:0.140588 328:0 329:0.161542 330:0.178582 331:0.0714286 332:0.10095 333:0.176251 334:0.012043 335:0.0854155 336:0.048443 337:0.0779485 338:0.186099 339:0.0971195 340:0.083178 341:0.214132 342:0.195621 343:0.0537514 344:0.0588047 345:0.0615663 346:0.145325 347:0.171913 348:0.17411 349:0.10389 350:0.124263 351:0.106375 352:0.149954 353:0.0289935 354:0.00252103 355:0 356:0 
-0 2.124561527028398e-12 1:0.159091 2:0.454545 3:0.454545 4:0.840909 5:0.772727 6:0.772727 7:0.564394 8:0.917311 9:0.694745 10:0.694745 11:0.0627759 12:0.5 13:0.5 14:0 15:0.647727 16:0.407895 17:0.403846 18:0 19:0.0593801 20:0.342309 21:0.858439 22:0.970746 23:0.533708 24:1 25:0.188619 26:0.259121 27:0.631488 28:0.544028 29:0.579478 30:0.205728 31:0.403741 32:0.039713 33:0.0795414 34:0.625507 35:1 36:0.207793 37:1 38:0.886058 39:0.00515443 40:0.101915 41:0.00687258 42:0.685146 43:0.0787758 44:0.236078 45:0 46:0.950268 47:0.00687258 48:0.0247508 49:0.0181088 50:0.00344409 51:0.0984005 52:0.351161 53:0.182821 54:0.824642 55:0.0539379 56:0.0503321 57:0.0425244 58:0.0841228 59:0.118132 60:0.146273 61:0.00473141 62:0.169659 63:0.139327 64:0.0829478 65:0.113681 66:0.141126 67:0.0818273 68:0.0657568 69:0.0244119 70:0.214018 71:0.14013 72:0.0448969 73:0.185313 74:0.144291 75:0.0993554 76:0.195614 77:0.132569 78:0.155647 79:0.10349 80:0.114574 81:0.129937 82:0.0494515 83:0.0619684 84:0.056749 85:0.161554 86:0.0361345 87:0.00428795 88:0 89:0 90:0.159091 91:0.5 92:0.568182 93:0.886364 94:0.681818 95:0.386364 96:0.586588 97:0.971405 98:0.617851 99:0.382149 100:0.168528 101:0.5 102:0.5 103:0 104:0.636364 105:0.441176 106:0.6875 107:0 108:0 109:0 110:0.912908 111:1.13095 112:0.348771 113:0.57215 114:0.46674 115:0.277708 116:0.863889 117:0.440278 118:0.383333 119:0.204545 120:0.396104 121:0.0321429 122:0.0642857 123:0.819929 124:0.5 125:0.239796 126:1 127:0.897068 128:0.00397736 129:0.0909998 130:0.00795472 131:0.764636 132:0.0556831 133:0.179681 134:0 135:0.950387 136:0.00397736 137:0.0337036 138:0.0119321 139:0.000427774 140:0.0389477 141:0.218766 142:0.218556 143:0.86039 144:0.0326392 145:0.0451442 146:0.035853 147:0.0714286 148:0.127426 149:0.195115 150:0.00245476 151:0.131911 152:0.125849 153:0.0779841 154:0.0998673 155:0.167964 156:0.0313859 157:0.103301 158:0.0175124 159:0.16852 160:0.159936 161:0.0335723 162:0.234584 163:0.180704 164:0.0704847 165:0.189885 166:0.110032 167:0.133137 168:0.164535 169:0.11468 170:0.16532 171:0.0304116 172:0.041637 173:0.0503613 174:0.151842 175:0.0273098 176:0.0014199 177:0 178:0 179:0.159091 180:0.431818 181:0.431818 182:0.886364 183:0.795455 184:0.613636 185:0.65802 186:0.936436 187:0.718218 188:0.609109 189:0.22369 190:0.5 191:0.5 192:0.5 193:0.659091 194:0.375 195:0.416667 196:0 197:0 198:0.366098 199:0.942 200:1.21203 201:0.266252 202:0.465598 203:0.536944 204:0.280265 205:0.584459 206:0.560811 207:0.625 208:0.133117 209:0.266234 210:0.025 211:0.05 212:0.452116 213:1 214:0.0714286 215:0.5 216:0.917897 217:0.00397736 218:0.074148 219:0.00397736 220:0.807346 221:0.0477283 222:0.144926 223:0 224:0.957128 225:0.00397736 226:0.0269629 227:0.0119321 228:0.000855548 229:0.0341211 230:0.127994 231:0.116977 232:0.948052 233:0.0162338 234:0.00974026 235:0.0194805 236:0.0714286 237:0.0907992 238:0.203393 239:0.00329398 240:0.128884 241:0.152025 242:0.079292 243:0.0800444 244:0.190839 245:0.0114796 246:0.110453 247:0.0324044 248:0.125197 249:0.153088 250:0.0274697 251:0.307201 252:0.180147 253:0.0525599 254:0.176723 255:0.126605 256:0.140549 257:0.162148 258:0.126045 259:0.15525 260:0.0227312 261:0.0324894 262:0.0574582 263:0.145041 264:0.0241775 265:0.000738179 266:0 267:0 268:0.175 269:0.4 270:0.275 271:0.875 272:0.8 273:0.775 274:0.630706 275:0.868932 276:0.710819 277:0.763523 278:0.11905 279:0.5 280:0.5 281:1 282:0.675 283:0.368421 284:0.291667 285:0 286:0.150588 287:0.821958 288:0.811034 289:1.00748 290:0.54042 291:0.996097 292:0.319999 293:0.262626 294:0.49795 295:0.594925 296:0.700233 297:0.26393 298:0.521212 299:0.0500822 300:0.100476 301:0.598466 302:0.397584 303:0.278758 304:1 305:0.870105 306:0.00397736 307:0.117963 308:0.00795472 309:0.567441 310:0.102812 311:0.329747 312:0 313:0.955923 314:0.00795472 315:0.0101111 316:0.0260109 317:0.0074969 318:0.176055 319:0.48663 320:0.128115 321:0.797141 322:0.0668357 323:0.054721 324:0.0345694 325:0.0714286 326:0.109312 327:0.157727 328:0 329:0.138165 330:0.160867 331:0.0741502 332:0.115619 333:0.172731 334:0.0256779 335:0.0740663 336:0.0468448 337:0.112366 338:0.170296 339:0.0793536 340:0.104833 341:0.19407 342:0.192493 343:0.0987839 344:0.0664652 345:0.0777609 346:0.134217 347:0.143647 348:0.169566 349:0.101824 350:0.0983116 351:0.109425 352:0.179746 353:0.0428223 354:0.00524818 355:0 356:0 
-0 5.522774869968085e-13 1:0.159091 2:0.340909 3:0.159091 4:0.840909 5:0.840909 6:0.886364 7:0.705935 8:0.805677 9:0.724163 10:0.826056 11:0.0823813 12:0.5 13:0.5 14:0.5 15:0.670455 16:0.3625 17:0.305556 18:0 19:0.214887 20:0.668165 21:0.832981 22:0.837981 23:0.68573 24:1 25:0.201457 26:0.268125 27:0.523079 28:0.592664 29:0.66846 30:0.229955 31:0.453038 32:0.0459477 33:0.0920068 34:0.642728 35:1 36:0.262478 37:1 38:0.890897 39:0.00332519 40:0.0958023 41:0.00997556 42:0.681677 43:0.0762288 44:0.242094 45:0 46:0.943817 47:0.00831296 48:0.0253594 49:0.0225111 50:0.00347996 51:0.0955714 52:0.35887 53:0.213162 54:0.778154 55:0.0797358 56:0.0793692 57:0.0454993 58:0.0784519 59:0.122017 60:0.14322 61:0.00414988 62:0.169426 63:0.148031 64:0.0780516 65:0.117774 66:0.138877 67:0.0858273 68:0.0489235 69:0.0241797 70:0.21505 71:0.125582 72:0.0674202 73:0.140122 74:0.129271 75:0.163625 76:0.165555 77:0.129545 78:0.147804 79:0.082637 80:0.110188 81:0.10929 82:0.0973279 83:0.0810419 84:0.0766124 85:0.20199 86:0.0610551 87:0.01066 88:0 89:0 90:0.159091 91:0.431818 92:0.431818 93:0.886364 94:0.795455 95:0.568182 96:0.651129 97:0.941054 98:0.720527 99:0.582698 100:0.237007 101:0.5 102:0.5 103:0.5 104:0.659091 105:0.375 106:0.458333 107:0 108:0 109:0.235199 110:0.942 111:1.21203 112:0.266252 113:0.434835 114:0.57493 115:0.280456 116:0.608696 117:0.557971 118:0.603261 119:0.12013 120:0.24026 121:0.025 122:0.05 123:0.43254 124:1 125:0.0612245 126:0.5 127:0.924638 128:0.00397736 129:0.0674072 130:0.00397736 131:0.824805 132:0.043751 133:0.131444 134:0 135:0.953757 136:0.00397736 137:0.0303333 138:0.0119321 139:0 140:0.0266555 141:0.0910358 142:0.120169 143:0.954545 144:2.61346e-10 145:0.00649351 146:0.0194805 147:0.0714286 148:0.0954285 149:0.205156 150:0.00329398 151:0.12879 152:0.145761 153:0.079292 154:0.0803865 155:0.190463 156:0.0114796 157:0.11714 158:0.0257169 159:0.130299 160:0.161786 161:0.0200138 162:0.327609 163:0.182207 164:0.023748 165:0.189478 166:0.13449 167:0.14542 168:0.163012 169:0.12556 170:0.172567 171:0.0134854 172:0.0204352 173:0.0355524 174:0.144872 175:0.0236957 176:0.000543018 177:0 178:0 179:0.159091 180:0.386364 181:0.25 182:0.840909 183:0.795455 184:0.704545 185:0.653047 186:0.872219 187:0.723331 188:0.748146 189:0.131456 190:0.788675 191:0.788675 192:0.788675 193:0.670455 194:0.375 195:0.333333 196:0 197:0.156577 198:0.815505 199:0.885067 200:0.982794 201:0.499347 202:0.870904 203:0.33925 204:0.256119 205:0.499822 206:0.594488 207:0.697882 208:0.244449 209:0.482251 210:0.0465108 211:0.0933333 212:0.621111 213:0.5 214:0.289949 215:1 216:0.876239 217:0.00795472 218:0.107852 219:0.00795472 220:0.587663 221:0.102812 222:0.309525 223:0 224:0.949183 225:0.0119321 226:0.0168518 227:0.0220336 228:0.00525017 229:0.191915 230:0.465967 231:0.123189 232:0.790648 233:0.0732324 234:0.0613114 235:0.0410629 236:0.0714286 237:0.0920581 238:0.151424 239:0 240:0.161899 241:0.183535 242:0.0714286 243:0.101432 244:0.166795 245:0.0283724 246:0.0747851 247:0.0396997 248:0.138432 249:0.157474 250:0.0511938 251:0.146475 252:0.208854 253:0.154714 254:0.117155 255:0.0989094 256:0.0949984 257:0.12629 258:0.167444 259:0.159417 260:0.0654982 261:0.0878181 262:0.0824702 263:0.148822 264:0.0305574 265:0.00324328 266:0 267:0 268:0.214286 269:0.404762 270:0.261905 271:0.880952 272:0.785714 273:0.738095 274:0.650409 275:0.868932 276:0.710819 277:0.763523 278:0.137285 279:0.5 280:0.5 281:1 282:0.642857 283:0.382353 284:0.318182 285:0 286:0.086827 287:0.759736 288:0.890275 289:0.996491 290:0.482513 291:0.822654 292:0.354543 293:0.26196 294:0.484756 295:0.605691 296:0.688424 297:0.320876 298:0.628571 299:0.0678571 300:0.135714 301:0.874533 302:0.5 303:0.399397 304:0.75 305:0.88972 306:0 307:0.0943701 308:0.0159094 309:0.644573 310:0.0666999 311:0.288727 312:0 313:0.940611 314:0.00795472 315:0.0235925 316:0.0278415 317:0.0046672 318:0.0802342 319:0.343046 320:0.313603 321:0.751972 322:0.0831671 323:0.10559 324:0.0475618 325:0.0714286 326:0.0916153 327:0.135129 328:0 329:0.170624 330:0.174975 331:0.0714286 332:0.105714 333:0.179085 334:0.0199208 335:0.0884 336:0.0345363 337:0.0782209 338:0.19631 339:0.0888379 340:0.0560426 341:0.233423 342:0.204308 343:0.0402163 344:0.0608604 345:0.0543491 346:0.14117 347:0.179531 348:0.200704 349:0.116578 350:0.1102 351:0.0963909 352:0.154429 353:0.0299005 354:0.00233945 355:0 356:0 
