svm_type c_svc
kernel_type polynomial
degree 3
gamma 100
coef0 0
nr_class 6
total_sv 182
rho -1.45837 -0.0578903 -0.879301 0.0222264 -0.388252 0.815681 -0.21765 0.438771 0.156718 -1.09344 0.370002 -0.403385 1.16003 0.532856 -0.456273
label 7 6 4 1 5 3
probA -2.69258 -3.59818 -2.59965 -3.79089 -4.48313 -3.46223 -2.99075 -3.97831 -4.01547 -2.76921 -4.24648 -3.90478 -3.24817 -3.64608 -4.66947
probB -1.13588 -1.3806 -1.37072 -0.0137009 -0.187317 -0.00881056 -0.314234 0.647159 0.677758 -0.418618 0.697161 0.430009 1.55957 0.969138 -0.221003
nr_sv 56 18 24 8 53 23
SV
2.771179160774997e-11 0 0 0 0 1:0.227273 2:0.469697 3:0.515152 4:0.80303 5:0.621212 6:0.636364 7:0.485427 8:0.973817 9:0.624689 10:0.599751 11:0.0536253 12:0.0527864 13:0.5 14:0.276393 15:0.628788 16:0.407895 17:0.375 18:0.179197 19:0.0106983 20:0.213967 21:1.04839 22:0.870903 23:0.451453 24:1 25:0.181872 26:0.26759 27:0.548491 28:0.636011 29:0.568576 30:0.301061 31:0.476107 32:0.233864 33:0.269189 34:0.629783 35:1 36:0.366707 37:1 38:0.902556 39:0.0229381 40:0.0347083 41:0.0397974 42:0.735135 43:0.0336033 44:0.205849 45:0.0254119 46:0.702534 47:0.0979828 48:0.141883 49:0.0576004 50:0.00702679 51:0.111671 52:0.195672 53:0.1415 54:0.596168 55:0.0715337 56:0.0590391 57:0.0441464 58:0.0633758 59:0.0799849 60:0.156197 61:0.0243809 62:0.13969 63:0.166378 64:0.0551005 65:0.147927 66:0.166965 67:0 68:0.0796881 69:0.063169 70:0.0737282 71:0.179814 72:0.12353 73:0.0774762 74:0.25955 75:0.143044 76:0.0641817 77:0.0180526 78:0.0644101 79:0.178259 80:0.140361 81:0.211661 82:0.0520818 83:0.176579 84:0.0944147 85:0.122164 86:0.0186829 87:0.0014286 88:0 89:0 90:0.227273 91:0.469697 92:0.545455 93:0.863636 94:0.621212 95:0.606061 96:0.53436 97:0.984329 98:0.615316 99:0.546127 100:0.130628 101:0.0527864 102:0.5 103:0.276393 104:0.613636 105:0.407895 106:0.392857 107:0.192814 108:0.00602542 109:0.0482034 110:1.04839 111:0.93577 112:0.401229 113:0.628649 114:0.397678 115:0.340423 116:0.547297 117:0.664672 118:0.522523 119:0.325865 120:0.543381 121:0.278806 122:0.230479 123:0.726526 124:1 125:0.376364 126:1 127:0.906851 128:0.0154966 129:0.0365291 130:0.0411239 131:0.744533 132:0.0291835 133:0.1971 134:0.0291835 135:0.651901 136:0.0942033 137:0.205143 138:0.0487534 139:0.00135084 140:0.106094 141:0.176599 142:0.165101 143:0.615815 144:0.0474513 145:0.0525198 146:0.0327027 147:0.0714286 148:0.132905 149:0.275481 150:0.00724893 151:0.0282664 152:0.0200426 153:0.0641796 154:0.192833 155:0.207615 156:0 157:0.0632976 158:0.0795595 159:0.136584 160:0.167487 161:0.065325 162:0.0886098 163:0.314113 164:0.0850241 165:0.0927826 166:0.0198689 167:0.105391 168:0.279001 169:0.0293084 170:0.246384 171:0.104651 172:0.00929573 173:0.113318 174:0.179998 175:0.0296074 176:0.00200303 177:0 178:0 179:0.106061 180:0.5 181:0.530303 182:0.80303 183:0.621212 184:0.651515 185:0.588651 186:0.98553 187:0.58444 188:0.58444 189:0.107484 190:0.5 191:0.5 192:0.5 193:0.734848 194:0.394737 195:0.423077 196:0.317659 197:0 198:0.245051 199:1.04839 200:0.970746 201:0.375271 202:0.834706 203:0.294969 204:0.2884 205:0.562106 206:0.631579 207:0.565051 208:0.434074 209:0.762109 210:0.398926 211:0.549825 212:0.916115 213:0.852416 214:0.724259 215:1 216:0.851865 217:0.0401318 218:0.0439908 219:0.0640125 220:0.607738 221:0.0566204 222:0.294576 223:0.0410658 224:0.571261 225:0.166308 226:0.167184 227:0.0952469 228:0.0166065 229:0.187492 230:0.285125 231:0.169768 232:0.407809 233:0.0741376 234:0.0756757 235:0.0687361 236:0.0661549 237:0.0967808 238:0.176519 239:0.018372 240:0.112799 241:0.132687 242:0.0583302 243:0.158247 244:0.180109 245:0 246:0.0536562 247:0.089201 248:0.0791178 249:0.172799 250:0.125289 251:0.0910472 252:0.241837 253:0.147054 254:0.0751682 255:0.0211224 256:0.0728001 257:0.162804 258:0.104614 259:0.205385 260:0.0964452 261:0.142166 262:0.119494 263:0.128983 264:0.0186222 265:0.00118328 266:0 267:0 268:0.159091 269:0.5 270:0.431818 271:0.931818 272:0.681818 273:0.522727 274:0.607598 275:0.983548 276:0.613776 277:0.556888 278:0.280488 279:0.947214 280:0.5 281:0.723607 282:0.647727 283:0.411765 284:0.3125 285:0 286:0 287:0.239346 288:0.912908 289:1.13095 290:0.348771 291:0.356084 292:0.749951 293:0.2545 294:0.591346 295:0.557692 296:0.633196 297:0.15691 298:0.170952 299:0.00581174 300:0.0132275 301:0.215152 302:1 303:1.07126e-33 304:1 305:0.962155 306:0.00431079 307:0.0292233 308:0.00431079 309:0.850291 310:0.0162511 311:0.129147 312:0.00431079 313:0.919047 314:0.0301756 315:0.0292233 316:0.021554 317:0 318:0.00351635 319:0.0554968 320:0.0626827 321:0.971429 322:0 323:0.000506299 324:0.00663656 325:0.0714286 326:0.0629055 327:0.113982 328:0.00698538 329:0.153396 330:0.222916 331:0.0644432 332:0.117329 333:0.186614 334:0.0427989 335:0.100058 336:0 337:0.0719787 338:0.187895 339:0.0638898 340:0.113361 341:0.394109 342:0.0259088 343:0.0749882 344:0.0518972 345:0.10426 346:0.163151 347:0.263761 348:0.251731 349:0 350:0.0748908 351:0.0153223 352:0.129892 353:0.020298 354:0.000602789 355:0 356:0 
6.076656597113388e-12 8.615101954429699e-12 0 2.075375109821173e-11 9.468101589981111e-12 1:0.227273 2:0.469697 3:0.515152 4:0.80303 5:0.621212 6:0.636364 7:0.485427 8:0.973817 9:0.624689 10:0.599751 11:0.0534822 12:0.0527864 13:0.5 14:0.276393 15:0.628788 16:0.407895 17:0.375 18:0.178719 19:0.0106698 20:0.216064 21:1.04839 22:0.870903 23:0.451453 24:1 25:0.181387 26:0.262341 27:0.54829 28:0.635449 29:0.569325 30:0.280298 31:0.443272 32:0.217159 33:0.249962 34:0.583132 35:1 36:0.33737 37:1 38:0.908857 39:0.0214548 40:0.0324639 41:0.0372239 42:0.750854 43:0.0314304 44:0.193947 45:0.0237687 46:0.72177 47:0.0916467 48:0.132708 49:0.0538756 50:0.00655722 51:0.104209 52:0.181109 53:0.129085 54:0.624018 55:0.0666004 56:0.0549674 57:0.0411019 58:0.0626775 59:0.0757645 60:0.148174 61:0.0255188 62:0.147492 63:0.176661 64:0.0546609 65:0.14495 66:0.164101 67:0 68:0.0785949 69:0.0642623 70:0.0691202 71:0.176222 72:0.132569 73:0.072634 74:0.253667 75:0.15293 76:0.0601704 77:0.0169243 78:0.0603845 79:0.169412 80:0.145749 81:0.205458 82:0.0519352 83:0.191818 84:0.0981492 85:0.118486 86:0.0178947 87:0.00135607 88:0 89:0 90:0.227273 91:0.469697 92:0.545455 93:0.863636 94:0.621212 95:0.606061 96:0.53436 97:0.984329 98:0.615316 99:0.546127 100:0.116279 101:0.0527864 102:0.5 103:0.276393 104:0.613636 105:0.407895 106:0.392857 107:0.203816 108:0 109:0.0268179 110:1.04839 111:0.93577 112:0.401229 113:0.706223 114:0.353996 115:0.33932 116:0.542083 117:0.660202 118:0.519309 119:0.335527 120:0.572814 121:0.283239 122:0.240606 123:0.720098 124:1 125:0.338924 126:1 127:0.893544 128:0.01736 129:0.037074 130:0.0520218 131:0.732138 132:0.0388583 133:0.202077 134:0.0269262 135:0.636171 136:0.101911 137:0.205003 138:0.0569145 139:0.00398125 140:0.108944 141:0.20168 142:0.160925 143:0.606459 144:0.0540773 145:0.0664359 146:0.0313938 147:0.0714286 148:0.137363 149:0.272466 150:0.00673115 151:0.0278163 152:0.018611 153:0.0646974 154:0.191194 155:0.209693 156:0 157:0.0613801 158:0.0814771 159:0.140683 160:0.17062 161:0.0610921 162:0.0931068 163:0.310555 164:0.0810864 165:0.102328 166:0.0210841 167:0.10587 168:0.272724 169:0.0272149 170:0.248549 171:0.103065 172:0.00863175 173:0.110533 174:0.17707 175:0.0289894 176:0.00196101 177:0 178:0 179:0.0806452 180:0.5 181:0.516129 182:0.822581 183:0.629032 184:0.645161 185:0.607919 186:0.98553 187:0.58444 188:0.58444 189:0.106237 190:0.5 191:0.5 192:0.5 193:0.75 194:0.394737 195:0.428571 196:0.291548 197:0 198:0.282577 199:1.02094 200:0.93577 201:0.424194 202:0.898984 203:0.287062 204:0.276841 205:0.544192 206:0.638787 207:0.572807 208:0.419256 209:0.714905 210:0.357121 211:0.492461 212:0.934589 213:0.852416 214:0.721714 215:1 216:0.870671 217:0.0370277 218:0.0372178 219:0.0550839 220:0.614486 221:0.0522409 222:0.295383 223:0.0378895 224:0.614534 225:0.153445 226:0.144141 227:0.0878797 228:0.0124707 229:0.1593 230:0.257398 231:0.185952 232:0.462889 233:0.0853932 234:0.06967 235:0.0743003 236:0.065777 237:0.0961655 238:0.156068 239:0.0183733 240:0.121691 241:0.155845 242:0.0587068 243:0.151761 244:0.175612 245:0 246:0.0723302 247:0.0705269 248:0.0650868 249:0.186687 250:0.125687 251:0.0837282 252:0.248219 253:0.147735 254:0.0653286 255:0.0158851 256:0.0656493 257:0.171601 258:0.124305 259:0.217886 260:0.075563 261:0.162456 262:0.101326 263:0.129125 264:0.0201675 265:0.00147305 266:0 267:0 268:0.175 269:0.5 270:0.45 271:0.975 272:0.7 273:0.5 274:0.608209 275:0.984182 276:0.621046 277:0.530261 278:0.363509 279:0.853553 280:0.5 281:0.853553 282:0.65 283:0.411765 284:0.321429 285:0 286:0 287:0.132003 288:0.866302 289:1.18019 290:0.336675 291:0.284084 292:0.968024 293:0.266923 294:0.596875 295:0.571875 296:0.61378 297:0.102566 298:0.074026 299:0 300:0 301:0.094709 302:1 303:6.12147e-34 304:1 305:0.96906 306:0 307:0.0269629 308:0.00397736 309:0.901654 310:0.0149941 311:0.0833515 312:0 313:0.956521 314:0.0119321 315:0.0235925 316:0.00795472 317:0 318:0.00322157 319:0.0254515 320:0.0240862 321:0.987013 322:0 323:0 324:0 325:0.0714286 326:0.0669299 327:0.11828 328:0 329:0.140055 330:0.212607 331:0.0714286 332:0.12145 333:0.197822 334:0.0692345 335:0.0736226 336:0 337:0.0892823 338:0.185706 339:0.05677 340:0.184373 341:0.319022 342:0.0219897 343:0.118068 344:0.0788655 345:0.144565 346:0.13322 347:0.202947 348:0.239621 349:0 350:0.0685909 351:0.014123 352:0.153442 353:0.0269845 354:0.000786937 355:0 356:0 
0 2.684570872182279e-12 0 0 0 1:0.296875 2:0.515625 3:0.578125 4:0.828125 5:0.640625 6:0.578125 7:0.444453 8:0.986709 9:0.61452 10:0.5 11:0.0502705 12:0.5 13:0.5 14:0.5 15:0.585938 16:0.416667 17:0.464286 18:0.16983 19:0.0172709 20:0.00863544 21:1.05841 22:0.909753 23:0.41241 24:1 25:0.184223 26:0.295634 27:0.551508 28:0.645588 29:0.51588 30:0.259677 31:0.437345 32:0.157209 33:0.167068 34:0.769895 35:1 36:0.395616 37:1 38:0.908306 39:0.0249389 40:0.0422657 41:0.024489 42:0.772545 43:0.00626776 44:0.185689 45:0.0354984 46:0.732374 47:0.0890188 48:0.135864 49:0.0427437 50:0.00550325 51:0.0993853 52:0.203403 53:0.175786 54:0.62733 55:0.0741609 56:0.0722387 57:0.0634533 58:0.0690569 59:0.108885 60:0.226893 61:0.0101423 62:0.0769167 63:0.103796 64:0.0636579 65:0.1511 66:0.189552 67:0 68:0.0891977 69:0.0536594 70:0.065231 71:0.181768 72:0.102996 73:0.056275 74:0.286955 75:0.163918 76:0.0497475 77:0.01294 78:0.0574484 79:0.226479 80:0.0998111 81:0.224862 82:0.118783 83:0.087141 84:0.122788 85:0.139779 86:0.0201309 87:0.00126096 88:0 89:0 90:0.25 91:0.519231 92:0.615385 93:0.903846 94:0.634615 95:0.692308 96:0.508272 97:0.98912 98:0.586315 99:0.557544 100:0.122898 101:0.5 102:0.5 103:0.5 104:0.605769 105:0.430556 106:0.423077 107:0.240448 108:0 109:0 110:0.965252 111:0.945311 112:0.463648 113:0.679821 114:0.403104 115:0.279939 116:0.542483 117:0.665943 118:0.462613 119:0.257274 120:0.386069 121:0.149174 122:0.172483 123:0.767201 124:0.75 125:0.571888 126:1 127:0.912136 128:0.0278415 129:0.037074 130:0.0229489 131:0.790638 132:0.00397736 133:0.161661 134:0.0437242 135:0.720748 136:0.078063 137:0.142851 138:0.0583383 139:0.00880146 140:0.115636 141:0.204452 142:0.140348 143:0.677356 144:0.0503868 145:0.0472174 146:0.0729412 147:0.0714286 148:0.102726 149:0.213262 150:0.00334012 151:0.0872645 152:0.113497 153:0.0680885 154:0.150488 155:0.189904 156:0 157:0.0585143 158:0.0843428 159:0.0505401 160:0.157257 161:0.149575 162:0.0465269 163:0.219891 164:0.233353 165:0.0443523 166:0.00561228 167:0.0471391 168:0.175238 169:0.072107 170:0.188462 171:0.152613 172:0.143393 173:0.171084 174:0.156754 175:0.0268016 176:0.00190106 177:0 178:0 179:0.171875 180:0.515625 181:0.515625 182:0.796875 183:0.546875 184:0.703125 185:0.532007 186:0.978365 187:0.523918 188:0.643509 189:0.222544 190:0.146447 191:0.146447 192:0.5 193:0.671875 194:0.458333 195:0.357143 196:0.202268 197:0 198:0.22356 199:1.05841 200:0.909753 201:0.41241 202:0.366932 203:0.681325 204:0.34315 205:0.491853 206:0.618976 207:0.644578 208:0.175911 209:0.312987 210:0.0464286 211:0.0928571 212:0.604603 213:1 214:0.205593 215:1 216:0.943039 217:0.0119321 218:0.037074 219:0.00795472 220:0.867342 221:0 222:0.124703 223:0.00795472 224:0.820829 225:0.0477283 226:0.120425 227:0.0110168 228:0.00250662 229:0.0655347 230:0.150551 231:0.128046 232:0.840909 233:0.0509803 234:0.0550231 235:0.0056644 236:0.0714286 237:0.1315 238:0.289612 239:0.00129695 240:0.0178745 241:0.0190309 242:0.0701316 243:0.179763 244:0.219362 245:0 246:0.107813 247:0.035044 248:0.0935934 249:0.169237 250:0.0909319 251:0.0624429 252:0.272943 253:0.167995 254:0.0672063 255:0.00720605 256:0.0804878 257:0.284376 258:0.0138627 259:0.241666 260:0.137773 261:0.0190569 262:0.148365 263:0.182007 264:0.0294469 265:0.00207539 266:0 267:0 268:0.078125 269:0.515625 270:0.546875 271:0.828125 272:0.640625 273:0.578125 274:0.619732 275:0.992781 276:0.58213 277:0.520533 278:0.159127 279:0.5 280:0.5 281:0.5 282:0.734375 283:0.388889 284:0.446429 285:0.30059 286:0.0196037 287:0.0588111 288:1.05841 289:0.909753 290:0.41241 291:0.597782 292:0.418212 293:0.324749 294:0.594242 295:0.642536 296:0.495075 297:0.287718 298:0.526671 299:0.244584 300:0.202449 301:0.93788 302:1 303:0.498698 304:1 305:0.904034 306:0.0238642 307:0.0404443 308:0.0316579 309:0.750094 310:0.0110168 311:0.201669 312:0.03722 313:0.731505 314:0.111029 315:0.121505 316:0.0359613 317:0.00292726 318:0.0847943 319:0.164712 320:0.185153 321:0.596643 322:0.0897618 323:0.0796062 324:0.0627063 325:0.0698342 326:0.116069 327:0.259707 328:0.00548525 329:0.0477778 330:0.0652842 331:0.0675377 332:0.162686 333:0.20562 334:0 335:0.0933774 336:0.0494797 337:0.0736228 338:0.170664 339:0.0911338 340:0.0718226 341:0.296169 342:0.153731 343:0.0573106 344:0.0170206 345:0.069626 346:0.250192 347:0.0650284 348:0.236031 349:0.133218 350:0.0391475 351:0.132426 352:0.159584 353:0.0247589 354:0.00169879 355:0 356:0 
0 0 2.610431966014309e-11 2.027163542971129e-12 0 1:0.166667 2:0.481481 3:0.592593 4:0.759259 5:0.666667 6:0.740741 7:0.487637 8:0.964207 9:0.645065 10:0.616052 11:0.0573261 12:0.5 13:0.5 14:0 15:0.62963 16:0.430556 17:0.428571 18:0.0964656 19:0.0033264 20:0.169646 21:0.982794 22:0.909753 23:0.478352 24:1 25:0.196258 26:0.279641 27:0.578408 28:0.627451 29:0.555392 30:0.129366 31:0.248505 32:0.0743279 33:0.0530612 34:0.460378 35:1 36:0.140988 37:1 38:0.95752 39:0.0057226 40:0.0310352 41:0.0057226 42:0.86591 43:0.00228904 44:0.123372 45:0.00842904 46:0.852553 47:0.0225176 48:0.0975706 49:0.0273591 50:0.00472496 51:0.0816211 52:0.131405 53:0.0806916 54:0.834187 55:0.0169087 56:0.0268351 57:0.0317775 58:0.0714286 59:0.162096 60:0.187877 61:0.0140288 62:0.132943 63:0.109835 64:0.0573998 65:0.116719 66:0.147673 67:0 68:0.0665274 69:0.0763298 70:0.082587 71:0.184434 72:0.143637 73:0.0268073 74:0.244026 75:0.175652 76:0.0453615 77:0.015395 78:0.0461371 79:0.235343 80:0.107527 81:0.153119 82:0.136952 83:0.141581 84:0.118584 85:0.144662 86:0.0260031 87:0.00213425 88:0 89:0 90:0.173077 91:0.480769 92:0.615385 93:0.826923 94:0.711538 95:0.653846 96:0.528082 97:0.970771 98:0.666155 99:0.527692 100:0.139019 101:0.5 102:0.5 103:0 104:0.625 105:0.416667 106:0.480769 107:0.223287 108:0 109:0 110:0.965252 111:0.945311 112:0.463648 113:0.624411 114:0.438875 115:0.298625 116:0.646331 117:0.615909 118:0.456818 119:0.171558 120:0.32465 121:0.0835037 122:0.0857143 123:0.567729 124:0.804087 125:0.133242 126:1 127:0.94917 128:0.00814984 129:0.0345303 130:0.00814984 131:0.859175 132:0.00271661 133:0.128968 134:0.00914058 135:0.856353 136:0.0231992 137:0.0943829 138:0.0260654 139:0.000840586 140:0.0603783 141:0.136839 142:0.0829198 143:0.841095 144:0.0225946 145:0.0219391 146:0.0219342 147:0.0714286 148:0.168788 149:0.231951 150:0 151:0.0841763 152:0.0666746 153:0.0714286 154:0.126825 155:0.178728 156:0 157:0.0504021 158:0.0924551 159:0.101602 160:0.1687 161:0.122747 162:0.0297502 163:0.262902 164:0.171441 165:0.0515902 166:0.0198211 167:0.0568298 168:0.249836 169:0.0701254 170:0.155292 171:0.165087 172:0.0684905 173:0.162928 174:0.166496 175:0.0324921 176:0.00260432 177:0 178:0 179:0.0555556 180:0.444444 181:0.574074 182:0.796296 183:0.666667 184:0.685185 185:0.615667 186:0.974045 187:0.642214 188:0.571107 189:0.187218 190:0.5 191:0.5 192:0.5 193:0.685185 194:0.416667 195:0.431818 196:0.079875 197:0 198:0.05325 199:0.982794 200:1.02225 201:0.386876 202:0.521648 203:0.497 204:0.333062 205:0.589678 206:0.645619 207:0.564433 208:0.113926 209:0.215126 210:0.0401786 211:0.0267857 212:0.375581 213:1 214:0.0796703 215:1 216:0.964226 217:0.00543323 218:0.0276243 219:0.00271661 220:0.922486 221:0.00271661 222:0.0720808 223:0.00271661 224:0.831299 225:0.015199 226:0.130303 227:0.0231992 228:0.00400546 229:0.0670392 230:0.0910498 231:0.0667759 232:0.911765 233:0.00777714 234:0.0181703 235:0.0202711 236:0.0714286 237:0.203718 238:0.211578 239:0.00901024 240:0.049308 241:0.0498799 242:0.0624183 243:0.14158 244:0.201079 245:0 246:0.0329357 247:0.109921 248:0.140521 249:0.158706 250:0.104691 251:0.0535972 252:0.270481 253:0.129147 254:0.0799987 255:0.0196866 256:0.0875017 257:0.225602 258:0.0565662 259:0.167597 260:0.178073 261:0.0409063 262:0.144068 263:0.182121 264:0.0353782 265:0.00274748 266:0 267:0 268:0.0625 269:0.458333 270:0.541667 271:0.854167 272:0.708333 273:0.75 274:0.638846 275:0.962453 276:0.646038 277:0.621698 278:0.147692 279:0.5 280:0.5 281:0.5 282:0.739583 283:0.411765 284:0.365385 285:0.201307 286:0 287:0.46732 288:0.954499 289:0.91795 290:0.496423 291:0.724432 292:0.388235 293:0.264495 294:0.520849 295:0.630435 296:0.646739 297:0.119946 298:0.232493 299:0.0982143 300:0.0446429 301:0.453887 302:1 303:0.210052 304:1 305:0.961509 306:0.00543323 307:0.0276243 308:0.00543323 309:0.840967 310:0.00271661 311:0.14545 312:0.0108665 313:0.844388 314:0.0220985 315:0.0973569 316:0.0361571 317:0.00959396 318:0.116591 319:0.141351 320:0.0699864 321:0.810924 322:0.0123975 323:0.0277676 324:0.0381731 325:0.0714286 326:0.106437 327:0.130676 328:0 329:0.146336 330:0.18439 331:0.0714286 332:0.109672 333:0.179632 334:0 335:0.0803995 336:0.0624577 337:0.0445888 338:0.152542 339:0.167979 340:0.0271394 341:0.184726 342:0.280168 343:0.0289113 344:0.0122547 345:0.0293977 346:0.162788 347:0.122959 348:0.137763 349:0.108812 350:0.212467 351:0.184647 352:0.139727 353:0.024594 354:0.00181874 355:0 356:0 
0 2.95233561933541e-12 0 0 4.939102569839096e-12 1:0.166667 2:0.481481 3:0.592593 4:0.759259 5:0.666667 6:0.703704 7:0.481857 8:0.969776 9:0.646805 10:0.588083 11:0.0560868 12:0.5 13:0.5 14:0 15:0.62963 16:0.430556 17:0.446429 18:0.0955124 19:0 20:0.164677 21:0.982794 22:0.909753 23:0.478352 24:1 25:0.194318 26:0.278415 27:0.579434 28:0.625969 29:0.555717 30:0.129672 31:0.242857 32:0.0725994 33:0.0518272 34:0.449417 35:1 36:0.137463 37:1 38:0.956547 39:0.005598 40:0.0322569 41:0.005598 42:0.86788 43:0.0022392 44:0.121635 45:0.00824551 46:0.855763 47:0.0220273 48:0.0954462 49:0.0267634 50:0.00461979 51:0.0798044 52:0.129631 53:0.0795048 54:0.837956 55:0.0165245 56:0.0262252 57:0.0310553 58:0.0714286 59:0.160744 60:0.186053 61:0.0140603 62:0.13611 63:0.111555 64:0.0573683 65:0.116576 66:0.146105 67:0 68:0.066804 69:0.0760532 70:0.0808298 71:0.182627 72:0.148021 73:0.0262369 74:0.239832 75:0.179595 76:0.0443963 77:0.0150674 78:0.0451554 79:0.232483 80:0.107284 81:0.150771 82:0.137554 83:0.146967 84:0.120321 85:0.143572 86:0.0257074 87:0.00211189 88:0 89:0 90:0.173077 91:0.480769 92:0.615385 93:0.826923 94:0.711538 95:0.653846 96:0.528082 97:0.970771 98:0.666155 99:0.527692 100:0.13191 101:0.5 102:0.5 103:0 104:0.625 105:0.416667 106:0.480769 107:0.233786 108:0 109:0 110:0.965252 111:0.945311 112:0.463648 113:0.658065 114:0.416431 115:0.301528 116:0.641849 117:0.606838 118:0.472222 119:0.173932 120:0.330423 121:0.0827934 122:0.0890756 123:0.553823 124:0.804087 125:0.133079 126:1 127:0.945161 128:0.00774089 129:0.0393571 130:0.00774089 131:0.866241 132:0.0025803 133:0.122497 134:0.00868191 135:0.854815 136:0.0220351 137:0.0983928 138:0.0247575 139:0.000796178 140:0.0583068 141:0.134988 142:0.0831671 143:0.841987 144:0.0220357 145:0.0279604 146:0.0207156 147:0.0714286 148:0.171828 149:0.230236 150:0 151:0.0804892 152:0.0639256 153:0.0714286 154:0.1293 155:0.181364 156:0 157:0.0502685 158:0.0925887 159:0.104163 160:0.169284 161:0.120984 162:0.031063 163:0.263603 164:0.168045 165:0.0530502 166:0.0188772 167:0.0598221 168:0.250311 169:0.0671355 170:0.159198 171:0.164746 172:0.0656836 173:0.161176 174:0.169576 175:0.0333082 176:0.00268776 177:0 178:0 179:0.0555556 180:0.444444 181:0.574074 182:0.759259 183:0.666667 184:0.685185 185:0.58807 186:0.971477 187:0.648888 188:0.574444 189:0.15972 190:0.5 191:0.5 192:0.5 193:0.694444 194:0.416667 195:0.431818 196:0.118902 197:0 198:0.110975 199:0.982794 200:1.02225 201:0.386876 202:0.58405 203:0.443899 204:0.32839 205:0.58007 206:0.65625 207:0.569444 208:0.121128 209:0.228571 210:0.0462185 211:0.0252101 212:0.382468 213:1 214:0.0739796 215:1 216:0.963835 217:0.00516059 218:0.0284246 219:0.0025803 220:0.914761 221:0.0025803 222:0.0800784 223:0.0025803 224:0.819104 225:0.0164228 226:0.134697 227:0.0297759 228:0.00568021 229:0.0742675 230:0.116131 231:0.0693297 232:0.90873 233:0.00734508 234:0.0171608 235:0.0191449 236:0.0714286 237:0.201736 238:0.209028 239:0.0094393 240:0.0561531 241:0.0559871 242:0.0619893 243:0.138633 244:0.195606 245:0 246:0.0335015 247:0.109356 248:0.131579 249:0.166205 250:0.105085 251:0.051045 252:0.268872 253:0.134357 254:0.074847 255:0.0180308 256:0.0833349 257:0.22682 258:0.0678124 259:0.162813 260:0.177311 261:0.0448164 262:0.144215 263:0.177929 264:0.034117 265:0.00259764 266:0 267:0 268:0.0625 269:0.458333 270:0.541667 271:0.854167 272:0.708333 273:0.708333 274:0.631997 275:0.967464 276:0.64762 277:0.598414 278:0.143024 279:0.5 280:0.5 281:0.5 282:0.739583 283:0.411765 284:0.384615 285:0.197057 286:0 287:0.450416 288:0.954499 289:0.91795 290:0.496423 291:0.740057 292:0.380038 293:0.262917 294:0.524556 295:0.627119 296:0.645127 297:0.121219 298:0.219577 299:0.092437 300:0.0420168 301:0.425519 302:1 303:0.195048 304:1 305:0.959068 306:0.00516059 307:0.0306111 308:0.00516059 309:0.846761 310:0.0025803 311:0.140338 312:0.0103212 313:0.852196 314:0.0209896 315:0.0924716 316:0.0343427 317:0.00908711 318:0.110431 319:0.133883 320:0.0694899 321:0.821429 322:0.0117087 323:0.026225 324:0.0360523 325:0.0714286 326:0.104841 327:0.128463 328:0 329:0.146553 330:0.189309 331:0.0714286 332:0.109258 333:0.178718 334:0 335:0.0808117 336:0.0620454 337:0.0424656 338:0.149879 339:0.171593 340:0.025847 341:0.179068 342:0.28829 343:0.0275345 344:0.0116711 345:0.0279978 346:0.159828 347:0.121927 348:0.134363 349:0.109054 350:0.218607 351:0.189017 352:0.138251 353:0.0240885 354:0.0017528 355:0 356:0 
0 1.077247314569769e-11 0 0 0 1:0.152174 2:0.456522 3:0.565217 4:0.847826 5:0.717391 6:0.73913 7:0.53255 8:0.955842 9:0.670941 10:0.613961 11:0.053054 12:0.5 13:0.5 14:0.5 15:0.630435 16:0.447368 17:0.464286 18:0.0695298 19:-0.00604607 20:0.151152 21:0.88035 22:0.93577 23:0.546789 24:1 25:0.16929 26:0.283016 27:0.607371 28:0.600937 29:0.542927 30:0.272945 31:0.296772 32:0.0695118 33:0.0498713 34:0.478215 35:1 36:0.207805 37:1 38:0.931777 39:0.0115906 40:0.0436519 41:0.0129808 42:0.822113 43:0.00515136 44:0.150076 45:0.0226593 46:0.833861 47:0.0393096 48:0.102931 49:0.0238983 50:0.00577382 51:0.0890908 52:0.114452 53:0.0663314 54:0.792305 55:0.0190365 56:0.0372283 57:0.0466758 58:0.0714286 59:0.165755 60:0.19745 61:0 62:0.112829 63:0.0831509 64:0.0714286 65:0.118176 66:0.179782 67:0 68:0.0948105 69:0.0480467 70:0.0820341 71:0.209756 72:0.104819 73:0.0448544 74:0.252668 75:0.163012 76:0.056416 77:0.0183959 78:0.0482627 79:0.268217 80:0.0901737 81:0.198637 82:0.102872 83:0.0953904 84:0.121636 85:0.177397 86:0.0380169 87:0.00354275 88:0 89:0 90:0.159091 91:0.477273 92:0.568182 93:0.886364 94:0.75 95:0.704545 96:0.547541 97:0.961112 98:0.672917 99:0.586459 100:0.136731 101:0.5 102:0.5 103:0.5 104:0.636364 105:0.444444 106:0.482143 107:0.157621 108:0 109:0 110:0.885067 111:0.909753 112:0.566729 113:0.720948 114:0.425576 115:0.290788 116:0.706081 117:0.600225 118:0.418254 119:0.241711 120:0.318384 121:0.0365646 122:0.0331633 123:0.471316 124:1 125:0.201082 126:1 127:0.959072 128:0.00911269 129:0.0257399 130:0.00607513 131:0.813449 132:0.00303756 133:0.169557 134:0.0139571 135:0.859738 136:0.0303756 137:0.0875156 138:0.0223707 139:0.00531227 140:0.108638 141:0.131288 142:0.0738753 143:0.866667 144:0.00747218 145:0.0180633 146:0.0504066 147:0.0714286 148:0.153006 149:0.225685 150:0 151:0.0845746 152:0.0622914 153:0.0714286 154:0.120598 155:0.210988 156:0 157:0.0980608 158:0.0447963 159:0.070752 160:0.204936 161:0.087417 162:0.0535686 163:0.267263 164:0.173206 165:0.0556112 166:0.01939 167:0.0451942 168:0.294818 169:0.0717841 170:0.204616 171:0.0905521 172:0.0717278 173:0.146307 174:0.193703 175:0.0443017 176:0.0042846 177:0 178:0 179:0.108696 180:0.413043 181:0.521739 182:0.804348 183:0.717391 184:0.73913 185:0.564933 186:0.940386 187:0.692669 188:0.63762 189:0.180564 190:0 191:0.5 192:0.5 193:0.695652 194:0.434211 195:0.4375 196:0.0596384 197:0 198:0.00993974 199:0.88035 200:1.00748 201:0.480887 202:0.546773 203:0.536746 204:0.332353 205:0.582447 206:0.607713 207:0.538564 208:0.183848 209:0.206349 210:0.0178571 211:0.00510204 212:0.451465 213:1 214:0.12381 215:1 216:0.954851 217:0.00607513 218:0.0360359 219:0.00303756 220:0.898224 221:0.00607513 222:0.0926636 223:0.00303756 224:0.861517 225:0.0182254 226:0.108108 227:0.0121503 228:0 229:0.0212037 230:0.0693019 231:0.0582019 232:0.909524 233:0.00651315 234:0.0220583 235:0.0195928 236:0.0714286 237:0.206855 238:0.218155 239:0 240:0.0255469 241:0.0242219 242:0.0714286 243:0.1416 244:0.240764 245:0 246:0.0581002 247:0.0847569 248:0.147498 249:0.155349 250:0.0804044 251:0.0288138 252:0.322396 253:0.122681 254:0.0926809 255:0.019017 256:0.0636317 257:0.276284 258:0.0216791 259:0.227512 260:0.125009 261:0.0220026 262:0.152184 263:0.220829 264:0.0531261 265:0.00525225 266:0 267:0 268:0.0652174 269:0.413043 270:0.521739 271:0.847826 272:0.717391 273:0.73913 274:0.605378 275:0.951129 276:0.675439 277:0.625314 278:0.113302 279:0.5 280:0.5 281:0.5 282:0.717391 283:0.434211 284:0.410714 285:0.124944 286:0.00567929 287:0.31804 288:0.88035 289:0.93577 290:0.546789 291:0.956947 292:0.31804 293:0.265152 294:0.519397 295:0.611503 296:0.639098 297:0.399749 298:0.362011 299:0.139492 300:0.0935374 301:0.525133 302:1 303:0.297934 304:1 305:0.895457 306:0.0182254 307:0.0617758 308:0.0245419 309:0.800441 310:0.00911269 311:0.150958 312:0.0394883 313:0.777639 314:0.0593044 315:0.132098 316:0.0309593 317:0.00879862 318:0.10677 319:0.136467 320:0.0868836 321:0.702411 322:0.0342405 323:0.0541902 324:0.0434841 325:0.0714286 326:0.15086 327:0.175734 328:0 329:0.146959 330:0.108547 331:0.0714286 332:0.115491 333:0.15955 334:0 335:0.0942002 336:0.048657 337:0.0721157 338:0.209871 339:0.131492 340:0.0271787 341:0.223795 342:0.192691 343:0.0407642 344:0.0168081 345:0.0389466 346:0.225777 347:0.117784 348:0.182583 349:0.125411 350:0.126533 351:0.125393 352:0.158106 353:0.0312435 354:0.00264969 355:0 356:0 
0 0 0 1.479742179016288e-11 0 1:0.152174 2:0.456522 3:0.565217 4:0.847826 5:0.717391 6:0.73913 7:0.53255 8:0.955842 9:0.670941 10:0.613961 11:0.0521996 12:0.5 13:0.5 14:0 15:0.652174 16:0.421053 17:0.464286 18:0.0654357 19:0.0059487 20:0.154666 21:0.88035 22:0.93577 23:0.546789 24:1 25:0.166564 26:0.284461 27:0.603628 28:0.604079 29:0.543055 30:0.304974 31:0.327148 32:0.078586 33:0.0547619 34:0.500627 35:1 36:0.220049 37:1 38:0.923791 39:0.0122017 40:0.0516979 41:0.0123095 42:0.810022 43:0.00813449 44:0.15799 45:0.0238542 46:0.8251 47:0.0413824 48:0.108359 49:0.0251584 50:0.00587551 51:0.0900983 52:0.120347 53:0.0791739 54:0.778782 55:0.0197459 56:0.0475812 57:0.0512531 58:0.0714286 59:0.168026 60:0.196361 61:0 62:0.108477 63:0.082298 64:0.0714286 65:0.118066 66:0.183914 67:0 68:0.0944694 69:0.0483877 70:0.0862409 71:0.210857 72:0.0975171 73:0.0471546 74:0.259341 75:0.156032 76:0.0593091 77:0.0193393 78:0.0507377 79:0.269341 80:0.0905084 81:0.203799 82:0.100608 83:0.0891548 84:0.117202 85:0.178934 86:0.0385994 87:0.00362977 88:0 89:0 90:0.159091 91:0.454545 92:0.568182 93:0.886364 94:0.727273 95:0.704545 96:0.537722 97:0.961112 98:0.672917 99:0.586459 100:0.130557 101:0.5 102:0.5 103:0 104:0.659091 105:0.421053 106:0.482143 107:0.158029 108:0 109:0 110:0.858439 111:0.93577 112:0.566729 113:0.755039 114:0.413886 115:0.297681 116:0.690171 117:0.604701 118:0.428856 119:0.274283 120:0.35133 121:0.047619 122:0.0412088 123:0.575738 124:1 125:0.220952 126:1 127:0.948789 128:0.00968479 129:0.0382982 130:0.00322826 131:0.799001 132:0.00322826 133:0.182937 134:0.0148333 135:0.844968 136:0.0355109 137:0.0957455 138:0.0237752 139:0.00514616 140:0.10552 141:0.126385 142:0.0831763 143:0.841837 144:0.0131937 145:0.0294719 146:0.048905 147:0.0714286 148:0.178792 149:0.216496 150:0 151:0.0649768 152:0.0417976 153:0.0714286 154:0.133165 155:0.221915 156:0 157:0.0957598 158:0.0470973 159:0.0940932 160:0.220279 161:0.0647329 162:0.0659107 163:0.293085 164:0.119042 165:0.0727997 166:0.0205306 167:0.061122 168:0.311913 169:0.0612983 170:0.232362 171:0.0750248 172:0.0389373 173:0.126012 174:0.207067 175:0.0489859 176:0.00478953 177:0 178:0 179:0.0652174 180:0.413043 181:0.521739 182:0.804348 183:0.717391 184:0.695652 185:0.585115 186:0.95177 187:0.686023 188:0.606299 189:0.186129 190:0.5 191:0.5 192:0.5 193:0.706522 194:0.434211 195:0.458333 196:0.089034 197:0 198:0.108819 199:0.88035 200:1.00748 201:0.480887 202:0.549375 203:0.534204 204:0.329797 205:0.539901 206:0.629213 207:0.56882 208:0.133666 209:0.184354 210:0.00824176 211:0.00549451 212:0.437347 213:1 214:0.153095 215:1 216:0.951524 217:0.00968479 218:0.0355626 219:0.00322826 220:0.912865 221:0.00645653 222:0.0774498 223:0.00322826 224:0.831841 225:0.0250832 226:0.129543 227:0.0135334 228:0.000882533 229:0.0458644 230:0.0879814 231:0.0538426 232:0.903061 233:0.00599735 234:0.0144108 235:0.0311964 236:0.0714286 237:0.202901 238:0.211242 239:0 240:0.0326225 241:0.0348084 242:0.0714286 243:0.142125 244:0.233445 245:0 246:0.0564203 247:0.0864368 248:0.146813 249:0.15429 250:0.0839823 251:0.0176823 252:0.324974 253:0.129401 254:0.0853646 255:0.0190361 256:0.0593332 257:0.263401 258:0.0317377 259:0.22769 260:0.135155 261:0.0255746 262:0.152709 263:0.215664 264:0.0512874 265:0.00503564 266:0 267:0 268:0.0681818 269:0.386364 270:0.522727 271:0.886364 272:0.704545 273:0.75 274:0.629614 275:0.951129 276:0.675439 277:0.625314 278:0.112864 279:0.5 280:1 281:0.5 282:0.727273 283:0.430556 284:0.410714 285:0.118805 286:0.0113147 287:0.328128 288:0.885067 289:0.909753 290:0.566729 291:1 292:0.305498 293:0.26471 294:0.522984 295:0.604141 296:0.640858 297:0.466568 298:0.413379 299:0.163959 300:0.106227 301:0.506395 302:1 303:0.320584 304:1 305:0.88118 306:0.0193696 307:0.0765964 308:0.0228544 309:0.787419 310:0.0129131 311:0.1577 312:0.0419674 313:0.772871 314:0.0630275 315:0.137655 316:0.0264464 317:0.00886604 318:0.0989689 319:0.133263 320:0.0979097 321:0.696461 322:0.0315843 323:0.078469 324:0.0516921 325:0.0714286 326:0.151737 327:0.149928 328:0 329:0.171415 330:0.0962272 331:0.0714286 332:0.134694 333:0.153142 334:0 335:0.0895369 336:0.0533203 337:0.0603851 338:0.223156 339:0.168977 340:0.0164102 341:0.188183 342:0.200032 343:0.0293739 344:0.0150028 345:0.0309265 346:0.211758 347:0.118756 348:0.173228 349:0.131005 350:0.135181 351:0.154768 352:0.161064 353:0.0322503 354:0.00269107 355:0 356:0 
0 6.581129277547216e-13 0 0 0 1:0.152174 2:0.456522 3:0.521739 4:0.847826 5:0.717391 6:0.73913 7:0.540275 8:0.949325 9:0.668497 10:0.640414 11:0.0539191 12:0.5 13:0.5 14:0.5 15:0.652174 16:0.447368 17:0.446429 18:0.0666247 19:0.0030284 20:0.163533 21:0.88035 22:0.93577 23:0.546789 24:1 25:0.16959 26:0.28209 27:0.592084 28:0.601771 29:0.555078 30:0.286516 31:0.301728 32:0.0859211 33:0.0518018 34:0.464288 35:1 36:0.189434 37:1 38:0.924334 39:0.0115906 40:0.0523823 41:0.0116929 42:0.826085 43:0.00772704 44:0.143528 45:0.0226593 46:0.837135 47:0.0393096 48:0.0996575 49:0.0238983 50:0.0044546 51:0.0751605 52:0.103065 53:0.0681549 54:0.787606 55:0.0207862 56:0.0476419 57:0.0437289 58:0.0714286 59:0.165551 60:0.19238 61:0 62:0.114777 63:0.0862123 64:0.0714286 65:0.116582 66:0.181641 67:0 68:0.0948105 69:0.0480467 70:0.0820341 71:0.207053 72:0.106162 73:0.0448544 74:0.245869 75:0.171171 76:0.056416 77:0.0183959 78:0.0482627 79:0.259825 80:0.0896942 81:0.197005 82:0.107098 83:0.100242 84:0.123061 85:0.17649 86:0.0379166 87:0.00361458 88:0 89:0 90:0.152174 91:0.456522 92:0.543478 93:0.847826 94:0.76087 95:0.673913 96:0.544524 97:0.951466 98:0.697516 99:0.58465 100:0.136863 101:0.5 102:0.5 103:0.5 104:0.652174 105:0.434211 106:0.480769 107:0.193091 108:0 109:0 110:0.88035 111:0.970746 112:0.514451 113:0.703656 114:0.4248 115:0.307419 116:0.664474 117:0.596491 118:0.458783 119:0.247519 120:0.31189 121:0.0340136 122:0.0382653 123:0.546303 124:1 125:0.158081 126:1 127:0.94924 128:0.00911269 129:0.0386098 130:0.00303756 131:0.824208 132:0.00303756 133:0.161835 134:0.0109195 135:0.854126 136:0.0334132 137:0.0900896 138:0.0223707 139:0.00208819 140:0.0729602 141:0.0988197 142:0.071177 143:0.866667 144:0.0104394 145:0.0197193 146:0.0370532 147:0.0714286 148:0.193298 149:0.218088 150:0 151:0.0578649 152:0.0468289 153:0.0714286 154:0.124729 155:0.216333 156:0 157:0.0799548 158:0.0629023 159:0.114079 160:0.187202 161:0.0764986 162:0.0685264 163:0.287653 164:0.123184 165:0.0854182 166:0.0247617 167:0.0684252 168:0.291483 169:0.0555146 170:0.207503 171:0.0995978 172:0.0351779 173:0.132119 174:0.202592 175:0.0457945 176:0.00407008 177:0 178:0 179:0.0652174 180:0.413043 181:0.521739 182:0.804348 183:0.717391 184:0.695652 185:0.585115 186:0.95177 187:0.686023 188:0.606299 189:0.16655 190:0.5 191:0.5 192:0.5 193:0.728261 194:0.434211 195:0.458333 196:0.203596 197:0 198:0.247857 199:0.88035 200:1.00748 201:0.480887 202:0.61396 203:0.478009 204:0.314735 205:0.543098 206:0.632979 207:0.595745 208:0.123349 209:0.196825 210:0.0178571 211:0.0153061 212:0.412661 213:1 214:0.175226 215:1 216:0.959536 217:0.00911269 218:0.0283139 219:0.00303756 220:0.889122 221:0.00303756 222:0.0987277 223:0.00911269 224:0.827589 225:0.0277468 226:0.116742 227:0.0279218 228:0.00456921 229:0.0666902 230:0.122718 231:0.0653012 232:0.843402 233:0.0106498 234:0.0291404 235:0.035855 236:0.0714286 237:0.190645 238:0.199236 239:0 240:0.0597793 241:0.0580725 242:0.0714286 243:0.134646 244:0.214763 245:0 246:0.057891 247:0.0849661 248:0.119572 249:0.178065 250:0.091321 251:0.00822503 252:0.309809 253:0.150152 254:0.0653071 255:0.0136222 256:0.0472339 257:0.243863 258:0.0691235 259:0.217772 260:0.151412 261:0.0392604 262:0.152406 263:0.199886 264:0.0449368 265:0.0040419 266:0 267:0 268:0.119048 269:0.452381 270:0.47619 271:0.928571 272:0.738095 273:0.714286 274:0.632817 275:0.954344 276:0.660357 277:0.633631 278:0.123864 279:1 280:0.5 281:0.5 282:0.702381 283:0.411765 284:0.395833 285:0.0595872 286:0.0066208 287:0.337661 288:0.890275 289:0.956133 290:0.519146 291:0.899042 292:0.33104 293:0.264121 294:0.536118 295:0.583303 296:0.651087 297:0.418367 298:0.353439 299:0.193064 300:0.0986395 301:0.431372 302:1 303:0.236869 304:1 305:0.888662 306:0.0151878 307:0.0746457 308:0.0215044 309:0.805928 310:0.0121503 311:0.142434 312:0.0394883 313:0.851179 314:0.0478531 315:0.0797051 316:0.0212629 317:0.0064663 318:0.0544946 319:0.0722376 320:0.0509902 321:0.756628 322:0.0315692 323:0.0765951 324:0.0331098 325:0.0714286 326:0.103284 327:0.140377 328:0 329:0.177188 330:0.1298 331:0.0714286 332:0.12285 333:0.183644 334:0 335:0.136043 336:0.00681398 337:0.0336482 338:0.23492 339:0.131027 340:0.0183155 341:0.191868 342:0.247364 343:0.00879912 344:0.0230916 345:0.0196162 346:0.222246 347:0.156989 348:0.200104 349:0.0810832 350:0.134496 351:0.153576 352:0.156295 353:0.0294013 354:0.0018525 355:0 356:0 
0 0 0 0 2.74516151527094e-12 1:0.152174 2:0.456522 3:0.521739 4:0.847826 5:0.717391 6:0.73913 7:0.540275 8:0.949325 9:0.668497 10:0.640414 11:0.056872 12:0 13:0.5 14:0.5 15:0.652174 16:0.421053 17:0.446429 18:0.0574965 19:0.0063885 20:0.137353 21:0.88035 22:0.93577 23:0.546789 24:1 25:0.178878 26:0.282131 27:0.588344 28:0.598281 29:0.561776 30:0.281086 31:0.291019 32:0.0836688 33:0.0469755 34:0.448538 35:1 36:0.175195 37:1 38:0.927805 39:0.0103027 40:0.0501997 41:0.0116929 42:0.835299 43:0.00772704 44:0.136368 45:0.0206054 46:0.843554 47:0.0380217 48:0.0952924 49:0.0231322 50:0.00431089 51:0.0682083 52:0.100305 53:0.0652745 54:0.800764 55:0.0189065 56:0.0451357 57:0.0387164 58:0.0714286 59:0.164383 60:0.19149 61:0 62:0.116294 63:0.0867856 64:0.0714286 65:0.116077 66:0.182113 67:0 68:0.0948105 69:0.0480467 70:0.0820341 71:0.204492 72:0.108318 73:0.0448544 74:0.243664 75:0.173781 76:0.056416 77:0.0183959 78:0.0482627 79:0.256718 80:0.0891736 81:0.195715 82:0.108127 83:0.103147 84:0.124045 85:0.17649 86:0.0380111 87:0.00365768 88:0 89:0 90:0.152174 91:0.456522 92:0.565217 93:0.847826 94:0.76087 95:0.695652 96:0.551067 97:0.951466 98:0.697516 99:0.58465 100:0.149232 101:0 102:0.5 103:0.5 104:0.652174 105:0.407895 106:0.479167 107:0.202119 108:0 109:0.00842163 110:0.88035 111:1.00748 112:0.480887 113:0.645336 114:0.454768 115:0.316159 116:0.662511 117:0.586806 118:0.471065 119:0.233763 120:0.284762 121:0.0280612 122:0.0255102 123:0.541148 124:1 125:0.127056 126:1 127:0.957425 128:0.00607513 129:0.0334619 130:0.00303756 131:0.835645 132:0.00303756 133:0.155242 134:0.00607513 135:0.861081 136:0.0303756 137:0.0849417 138:0.0236015 139:0.00173696 140:0.0505066 141:0.0963954 142:0.0736098 143:0.890476 144:0.00567754 145:0.0133701 146:0.0291167 147:0.0714286 148:0.196029 149:0.218983 150:0 151:0.0503864 152:0.0403077 153:0.0714286 154:0.126896 155:0.224541 156:0 157:0.0623307 158:0.0805264 159:0.113705 160:0.181655 161:0.0845272 162:0.0288138 163:0.312825 164:0.135617 165:0.0728397 166:0.0186726 167:0.0491611 168:0.285313 169:0.0527167 170:0.210992 171:0.122965 172:0.0296073 173:0.157733 174:0.207634 175:0.0474061 176:0.00417368 177:0 178:0 179:0.0652174 180:0.413043 181:0.521739 182:0.804348 183:0.717391 184:0.695652 185:0.585115 186:0.95177 187:0.686023 188:0.606299 189:0.158378 190:0.5 191:0.5 192:0.5 193:0.728261 194:0.434211 195:0.458333 196:0.218861 197:0 198:0.286203 199:0.88035 200:1.00748 201:0.480887 202:0.645636 203:0.454557 204:0.308206 205:0.542184 206:0.627525 207:0.606061 208:0.14496 209:0.233492 210:0.0209601 211:0.0221088 212:0.393764 213:1 214:0.177588 215:1 216:0.961646 217:0.0121503 218:0.0231659 219:0.00303756 220:0.873678 221:0.00303756 222:0.114172 223:0.00911269 224:0.821978 225:0.0277468 226:0.119316 227:0.0309593 228:0.00329521 229:0.0798027 230:0.125174 231:0.0614897 232:0.829117 233:0.0106498 234:0.0318419 235:0.0379155 236:0.0714286 237:0.183266 238:0.194794 239:0 240:0.0719611 241:0.0685299 242:0.0714286 243:0.130224 244:0.208368 245:0 246:0.0587371 247:0.08412 248:0.110992 249:0.177118 250:0.10121 251:0.00616877 252:0.298285 253:0.163369 254:0.0587514 255:0.0123803 256:0.0445076 257:0.23313 258:0.0770214 259:0.209911 260:0.158263 261:0.0507806 262:0.155254 263:0.193584 264:0.0425681 265:0.00370907 266:0 267:0 268:0.166667 269:0.452381 270:0.47619 271:0.928571 272:0.738095 273:0.714286 274:0.602246 275:0.949325 276:0.668497 277:0.640414 278:0.125198 279:0.5 280:0.5 281:0.5 282:0.666667 283:0.411765 284:0.395833 285:0.0140636 286:0.00703182 287:0.344559 288:0.890275 289:0.956133 290:0.519146 291:0.846492 292:0.351591 293:0.26023 294:0.542324 295:0.579017 296:0.653037 297:0.415986 298:0.348677 299:0.182859 300:0.0986395 301:0.376209 302:1 303:0.203102 304:1 305:0.8917 306:0.0121503 307:0.0746457 308:0.0215044 309:0.805928 310:0.0121503 311:0.142434 312:0.0394883 313:0.874808 314:0.0448156 315:0.0591132 316:0.0212629 317:0.0064663 318:0.0516541 319:0.0515149 320:0.0352161 321:0.780437 322:0.0306319 323:0.0737078 324:0.0321725 325:0.0714286 326:0.0990795 327:0.136633 328:0 329:0.185085 330:0.134365 331:0.0714286 332:0.121611 333:0.180369 334:0 335:0.137367 336:0.00549023 337:0.0251554 338:0.236228 339:0.139312 340:0.0121326 341:0.180598 342:0.263717 343:0.00412954 344:0.0192965 345:0.0134263 346:0.216902 347:0.161487 348:0.193175 349:0.0839822 350:0.145324 351:0.162277 352:0.152749 353:0.027754 354:0.00150533 355:0 356:0 
0 0 0 0 6.228904054634055e-12 1:0.152174 2:0.478261 3:0.586957 4:0.804348 5:0.73913 6:0.717391 7:0.500464 8:0.956435 9:0.682574 10:0.591287 11:0.053069 12:0.5 13:0.5 14:0.5 15:0.663043 16:0.444444 17:0.483333 18:0.0581341 19:0.00322967 20:0.155024 21:0.90675 22:0.876058 23:0.577902 24:1 25:0.180862 26:0.274729 27:0.614991 28:0.597683 29:0.542308 30:0.148249 31:0.230522 32:0.0485207 33:0.0408357 34:0.418213 35:1 36:0.104951 37:1 38:0.961821 39:0.00501291 40:0.0293886 41:0.00377799 42:0.844068 43:0.00186005 44:0.143421 45:0.010651 46:0.889688 47:0.0217882 48:0.0645528 49:0.023971 50:0.0041472 51:0.0495291 52:0.109975 53:0.0553454 54:0.863453 55:0.0208766 56:0.0257732 57:0.0229799 58:0.0714286 59:0.150025 60:0.196994 61:0 62:0.123521 63:0.108471 64:0.0714286 65:0.115108 66:0.163024 67:0 68:0.0826997 69:0.0601574 70:0.0647886 71:0.192583 72:0.135177 73:0.0225138 74:0.241931 75:0.200149 76:0.0285735 77:0.0126793 78:0.0418311 79:0.243972 80:0.102075 81:0.175284 82:0.133219 83:0.133371 84:0.128994 85:0.168451 86:0.0358352 87:0.00350108 88:0 89:0 90:0.152174 91:0.478261 92:0.608696 93:0.804348 94:0.73913 95:0.695652 96:0.502615 97:0.960721 98:0.684289 99:0.56143 100:0.11812 101:0.5 102:0.5 103:0.5 104:0.663043 105:0.444444 106:0.5 107:0.14512 108:0 109:0 110:0.90675 111:0.909753 112:0.546789 113:0.749003 114:0.399081 115:0.307171 116:0.710765 117:0.602371 118:0.417026 119:0.12819 120:0.178009 121:0.0375305 122:0.00991014 123:0.487563 124:1 125:0.0631099 126:1 127:0.973891 128:0.00491401 129:0.0187383 130:0.00245701 131:0.825973 132:0.00434858 133:0.161977 134:0.00770165 135:0.885035 136:0.0283532 137:0.066625 138:0.0199867 139:0.00341245 140:0.0546784 141:0.101481 142:0.05398 143:0.899084 144:0.00571129 145:0.0181978 146:0.0168568 147:0.0714286 148:0.180117 149:0.226705 150:0 151:0.0596441 152:0.0589112 153:0.0714286 154:0.130602 155:0.201164 156:0 157:0.0647567 158:0.0781005 159:0.104713 160:0.185943 161:0.0912999 162:0.0385428 163:0.297026 164:0.139618 165:0.0498562 166:0.0175801 167:0.0710396 168:0.280402 169:0.0671223 170:0.196908 171:0.138778 172:0.0522994 173:0.126014 174:0.200591 175:0.0466572 176:0.00448676 177:0 178:0 179:0.0652174 180:0.434783 181:0.565217 182:0.76087 183:0.695652 184:0.782609 185:0.54972 186:0.949325 187:0.668497 188:0.640414 189:0.116197 190:0.5 191:0.5 192:0.5 193:0.717391 194:0.444444 195:0.410714 196:0.169683 197:0 198:0.326314 199:0.90675 200:0.909753 201:0.546789 202:0.832753 203:0.358946 204:0.293869 205:0.575192 206:0.578811 207:0.63004 208:0.185901 209:0.317043 210:0.0606733 211:0.0666701 212:0.473405 213:1 214:0.124963 215:1 216:0.959752 217:0.00680559 218:0.0270664 219:0.0063755 220:0.821969 221:0 222:0.160832 223:0.017199 224:0.860857 225:0.0201282 226:0.0780458 227:0.0409689 228:0.00455045 229:0.0607743 230:0.137194 231:0.0707641 232:0.839803 233:0.0272072 234:0.0331449 235:0.0261296 236:0.0714286 237:0.167576 238:0.196842 239:0 240:0.0952814 241:0.08923 242:0.0714286 243:0.135669 244:0.172544 245:0 246:0.0704012 247:0.072456 248:0.0935603 249:0.200948 250:0.105687 251:0.0240532 252:0.284052 253:0.148842 254:0.0372757 255:0.0128153 256:0.0620166 257:0.258762 258:0.100065 259:0.194659 260:0.135528 261:0.0826183 262:0.11626 263:0.18398 264:0.0401526 265:0.00366699 266:0 267:0 268:0.166667 269:0.428571 270:0.452381 271:0.880952 272:0.761905 273:0.642857 274:0.595419 275:0.940415 276:0.705527 277:0.617444 278:0.162545 279:0.5 280:0.5 281:0.5 282:0.678571 283:0.421875 284:0.409091 285:0.01909 286:0 287:0.448614 288:0.91972 289:0.968509 290:0.482513 291:0.623614 292:0.458159 293:0.25835 294:0.537779 295:0.574468 296:0.662234 297:0.149407 298:0.258521 299:0.0600163 300:0.0727513 301:0.337741 302:1 303:0.151864 304:1 305:0.951363 306:0 307:0.0437227 308:0.00491401 309:0.87088 310:0 311:0.114378 312:0.014742 313:0.938519 314:0.012285 315:0.0374766 316:0.0117196 317:0.00285989 318:0.0345048 319:0.085329 320:0.0422287 321:0.870707 322:0.0250835 323:0.0258486 324:0.0256104 325:0.0714286 326:0.0787597 327:0.139653 328:0 329:0.170338 330:0.191557 331:0.0714286 332:0.100349 333:0.176486 334:0 335:0.132869 336:0.00998818 337:0.020877 338:0.217436 339:0.122747 340:0.0265362 341:0.222711 342:0.246835 343:0.00708971 344:0.0228721 345:0.0123024 346:0.210408 347:0.184885 348:0.195108 349:0.0645312 350:0.163003 351:0.139801 352:0.142894 353:0.0244774 354:0.00117007 355:0 356:0 
0 0 0 5.207401961096569e-12 0 1:0.152174 2:0.478261 3:0.586957 4:0.804348 5:0.73913 6:0.717391 7:0.500464 8:0.956435 9:0.682574 10:0.591287 11:0.0553295 12:0.146447 13:0.5 14:0.146447 15:0.663043 16:0.416667 17:0.45 18:0.0572432 19:0.00336725 20:0.13469 21:0.90675 22:0.876058 23:0.577902 24:1 25:0.188566 26:0.272315 27:0.606886 28:0.59859 29:0.5515 30:0.136626 31:0.211377 32:0.0437849 33:0.0351116 34:0.382352 35:1 36:0.0954703 37:1 38:0.964865 39:0.0047233 40:0.0268516 41:0.00355973 42:0.859625 43:0.000762354 44:0.129577 45:0.0100356 46:0.899341 47:0.0205295 48:0.0583061 49:0.0218238 50:0.00350295 51:0.0424581 52:0.0977068 53:0.0535235 54:0.875727 55:0.0198287 56:0.022061 57:0.0209098 58:0.0714286 59:0.147459 60:0.194983 61:0 62:0.128081 63:0.11222 64:0.0714286 65:0.113063 66:0.161338 67:0 68:0.0827777 69:0.0600795 70:0.0611213 71:0.188642 72:0.142312 73:0.0212394 74:0.231972 75:0.211856 76:0.0269561 77:0.0119616 78:0.0394633 79:0.237395 80:0.10096 81:0.169463 82:0.13647 83:0.143973 84:0.133358 85:0.166033 86:0.0350408 87:0.00341748 88:0 89:0 90:0.152174 91:0.478261 92:0.608696 93:0.804348 94:0.73913 95:0.652174 96:0.499762 97:0.963352 98:0.685341 99:0.53089 100:0.121174 101:0.146447 102:0.5 103:0.146447 104:0.663043 105:0.416667 106:0.482143 107:0.127264 108:0 109:-0.0149723 110:0.90675 111:0.909753 112:0.546789 113:0.725981 114:0.411737 115:0.311967 116:0.692084 117:0.608553 118:0.436404 119:0.125674 120:0.162965 121:0.0310028 122:0.00107411 123:0.45836 124:1 125:0.0515873 126:1 127:0.975081 128:0.00468992 129:0.0178838 130:0.00234496 131:0.841468 132:0.00180531 133:0.149376 134:0.00735043 135:0.889738 136:0.0270602 137:0.0635868 138:0.0196149 139:0.00223272 140:0.0402976 141:0.0871431 142:0.0527007 143:0.907189 144:0.00593745 145:0.0118733 146:0.0142857 147:0.0714286 148:0.184281 149:0.228368 150:0 151:0.0501159 152:0.0529035 153:0.0714286 154:0.134942 155:0.206533 156:0 157:0.0641112 158:0.078746 159:0.113203 160:0.188835 161:0.0796181 162:0.0412517 163:0.309859 164:0.124377 165:0.0538997 166:0.0181789 167:0.0771594 168:0.288419 169:0.0630071 170:0.207626 171:0.134315 172:0.0398645 173:0.117531 174:0.205142 175:0.0481112 176:0.00455398 177:0 178:0 179:0.0652174 180:0.434783 181:0.565217 182:0.804348 183:0.73913 184:0.73913 185:0.580917 186:0.95177 187:0.686023 188:0.606299 189:0.111454 190:0.5 191:0.5 192:0.5 193:0.728261 194:0.430556 195:0.428571 196:0.154017 197:0 198:0.349501 199:0.90675 200:0.909753 201:0.546789 202:0.917458 203:0.325806 204:0.282966 205:0.565706 206:0.582304 207:0.629464 208:0.21232 209:0.372619 210:0.081916 211:0.0894769 212:0.533468 213:1 214:0.19164 215:1 216:0.951652 217:0.00649523 218:0.0357676 219:0.00608476 220:0.814191 221:0 222:0.169395 223:0.0164147 224:0.863586 225:0.0192103 226:0.0804479 227:0.0367556 228:0.00624812 229:0.0597376 230:0.150506 231:0.0897214 232:0.792842 233:0.0364913 234:0.0432792 235:0.0272746 236:0.0714286 237:0.157523 238:0.188118 239:0 240:0.117992 241:0.106447 242:0.0714286 243:0.128156 244:0.158908 245:0 246:0.071885 247:0.0709721 248:0.0775137 249:0.188108 250:0.133392 251:0.0191095 252:0.24401 253:0.19501 254:0.0303692 255:0.0118188 256:0.04973 257:0.231592 258:0.100826 259:0.173062 260:0.149372 261:0.122156 262:0.131073 263:0.173684 264:0.0373102 265:0.00361252 266:0 267:0 268:0.125 269:0.475 270:0.375 271:0.875 272:0.775 273:0.575 274:0.62026 275:0.950631 276:0.680253 277:0.620168 278:0.229711 279:1 280:0.5 281:0.5 282:0.6625 283:0.40625 284:0.375 285:0 286:0 287:0.400257 288:0.896055 289:1.10715 290:0.380506 291:0.452834 292:0.607287 293:0.26935 294:0.536761 295:0.556818 296:0.668561 297:0.0879063 298:0.144167 299:0.0273822 300:0.0313283 301:0.20938 302:1 303:0.047619 304:1 305:0.963517 306:0 307:0.0317934 308:0.00468992 309:0.916216 310:0 311:0.076749 312:0.00703488 313:0.966957 314:0.00703488 315:0.021858 316:0.00415027 317:0.00228742 318:0.0146222 319:0.0330958 320:0.0290924 321:0.942857 322:0.0120192 323:0.0058379 324:0.011341 325:0.0714286 326:0.100915 327:0.180984 328:0 329:0.157816 330:0.152472 331:0.0714286 332:0.0950183 333:0.169938 334:0.0689419 335:0.0739153 336:0 337:0.0785693 338:0.177268 339:0.0911855 340:0.0158415 341:0.344454 342:0.149825 343:0.0811412 344:0.0222935 345:0.0592507 346:0.261728 347:0.180725 348:0.161555 349:0.0126539 350:0.111542 351:0.109112 352:0.15281 353:0.0262019 354:0.000741974 355:0 356:0 
0 0 5.956671082619939e-12 0 8.948934415839744e-12 1:0.152174 2:0.478261 3:0.586957 4:0.804348 5:0.73913 6:0.717391 7:0.500464 8:0.956435 9:0.682574 10:0.591287 11:0.0551438 12:0.146447 13:0.5 14:0.146447 15:0.663043 16:0.416667 17:0.45 18:0.0570511 19:0.00335595 20:0.134238 21:0.90675 22:0.876058 23:0.577902 24:1 25:0.187933 26:0.271586 27:0.605464 28:0.60019 29:0.551295 30:0.133947 31:0.207232 32:0.0429092 33:0.0344094 34:0.374549 35:1 36:0.093439 37:1 38:0.965529 39:0.00463406 40:0.0263443 41:0.00349248 42:0.862277 43:0.000747951 44:0.127129 45:0.00984602 46:0.900419 47:0.0201416 48:0.0580278 49:0.0214115 50:0.003418 51:0.0413407 52:0.0961425 53:0.0524928 54:0.878164 55:0.0194399 56:0.0216284 57:0.0204998 58:0.0714286 59:0.146688 60:0.194572 61:0 62:0.129328 63:0.113412 64:0.0714286 65:0.112504 66:0.160639 67:0 68:0.0828017 69:0.0600554 70:0.0599894 71:0.187557 72:0.144452 73:0.0208461 74:0.229145 75:0.215153 76:0.0264569 77:0.0117401 78:0.0387325 79:0.235601 80:0.100749 81:0.167805 82:0.137398 83:0.14708 84:0.134437 85:0.1653 86:0.0347818 87:0.00338364 88:0 89:0 90:0.152174 91:0.478261 92:0.608696 93:0.804348 94:0.73913 95:0.652174 96:0.499762 97:0.963352 98:0.685341 99:0.53089 100:0.118512 101:0.146447 102:0.5 103:0.146447 104:0.663043 105:0.416667 106:0.482143 107:0.124469 108:0 109:-0.0146434 110:0.90675 111:0.909753 112:0.546789 113:0.742285 114:0.402693 115:0.312937 116:0.687159 117:0.605769 118:0.444444 119:0.11969 120:0.155205 121:0.0294527 122:0.00102041 123:0.449273 124:1 125:0.0485528 126:1 127:0.976168 128:0.00448537 129:0.0171038 130:0.00224269 131:0.842681 132:0.00172658 133:0.148563 134:0.00702985 135:0.894547 136:0.02588 137:0.0608135 138:0.0187594 139:0.0021309 140:0.0374514 141:0.0832778 142:0.0557908 143:0.908207 144:0.00565472 145:0.0113079 146:0.0136054 147:0.0714286 148:0.184628 149:0.228684 150:0 151:0.0484214 152:0.0515829 153:0.0714286 154:0.136435 155:0.207392 156:0 157:0.0639187 158:0.0789384 159:0.113885 160:0.187561 161:0.0803161 162:0.0416339 163:0.310482 164:0.123265 165:0.0528564 166:0.0180746 167:0.0783568 168:0.289627 169:0.0612246 170:0.208042 171:0.135124 172:0.03904 173:0.117654 174:0.206125 175:0.0484648 176:0.00459256 177:0 178:0 179:0.0652174 180:0.434783 181:0.565217 182:0.804348 183:0.73913 184:0.73913 185:0.580917 186:0.95177 187:0.686023 188:0.606299 189:0.11015 190:0.5 191:0.5 192:0.5 193:0.728261 194:0.430556 195:0.428571 196:0.158068 197:0 198:0.339554 199:0.90675 200:0.909753 201:0.546789 202:0.928328 203:0.321991 204:0.281165 205:0.570062 206:0.581145 207:0.62588 208:0.209013 209:0.354875 210:0.0778202 211:0.0850031 212:0.539226 213:1 214:0.18877 215:1 216:0.953761 217:0.00621195 218:0.0342076 219:0.00581938 220:0.820394 221:0 222:0.163907 223:0.0156988 224:0.867635 225:0.0183724 226:0.0788397 227:0.0351526 228:0.00596319 229:0.0570134 230:0.142806 231:0.0904257 232:0.795904 233:0.0347537 234:0.0412183 235:0.0293772 236:0.0714286 237:0.154757 238:0.184391 239:0 240:0.123113 241:0.111145 242:0.0714286 243:0.12667 244:0.157066 245:0 246:0.0722035 247:0.0706536 248:0.074284 249:0.184685 250:0.139589 251:0.0183132 252:0.235323 253:0.204949 254:0.0291038 255:0.0113263 256:0.0476579 257:0.225242 258:0.100086 259:0.16826 260:0.150418 261:0.132626 262:0.135279 263:0.171807 264:0.0367403 265:0.00357284 266:0 267:0 268:0.125 269:0.475 270:0.375 271:0.875 272:0.775 273:0.575 274:0.62026 275:0.950631 276:0.680253 277:0.620168 278:0.226583 279:1 280:0.5 281:0.5 282:0.6625 283:0.40625 284:0.375 285:0 286:0 287:0.394808 288:0.896055 289:1.10715 290:0.380506 291:0.459084 292:0.599019 293:0.269421 294:0.532481 295:0.563433 296:0.666045 297:0.0837203 298:0.137302 299:0.026013 300:0.0297619 301:0.19836 302:1 303:0.0448179 304:1 305:0.965108 306:0 307:0.0304068 308:0.00448537 309:0.91987 310:0 311:0.0734017 312:0.00672806 313:0.966498 314:0.00672806 315:0.0228051 316:0.00396927 317:0.0021831 318:0.0139554 319:0.0315866 320:0.0277657 321:0.945578 322:0.0114469 323:0.00555991 324:0.010801 325:0.0714286 326:0.101042 327:0.181298 328:0 329:0.157479 330:0.152476 331:0.0714286 332:0.0951754 333:0.169672 334:0.0680633 335:0.0747938 336:0 337:0.077415 338:0.177338 339:0.092345 340:0.0151815 341:0.344883 342:0.14998 343:0.0799827 344:0.0213646 345:0.0587403 346:0.264225 347:0.179557 348:0.161417 349:0.0121266 350:0.113097 351:0.10949 352:0.152839 353:0.0262093 354:0.000740393 355:0 356:0 
0 0 0 9.362853000685076e-12 5.977233530071861e-12 1:0.204545 2:0.477273 3:0.568182 4:0.795455 5:0.75 6:0.704545 7:0.461679 8:0.944331 9:0.705076 10:0.602538 11:0.0480268 12:0.5 13:0.5 14:0.5 15:0.647727 16:0.444444 17:0.482143 18:0.0459626 19:0.00656609 20:0.1937 21:0.885067 22:0.909753 23:0.566729 24:1 25:0.177284 26:0.282672 27:0.616323 28:0.608398 29:0.531826 30:0.163695 31:0.252625 32:0.0412585 33:0.0337289 34:0.416725 35:1 36:0.151676 37:1 38:0.947821 39:0.00686712 40:0.0407337 41:0.00457808 42:0.835884 43:0.00686712 44:0.143624 45:0.0136249 46:0.880794 47:0.0243893 48:0.0673672 49:0.0274501 50:0.00434016 51:0.0654722 52:0.129249 53:0.0650101 54:0.849713 55:0.0222418 56:0.0210539 57:0.0371694 58:0.0714286 59:0.150064 60:0.187889 61:0 62:0.113314 63:0.102464 64:0.0714286 65:0.122792 66:0.180619 67:0 68:0.0871635 69:0.0556936 70:0.0842696 71:0.19899 72:0.1007 73:0.0621346 74:0.251372 75:0.159677 76:0.0528212 77:0.0186693 78:0.0726122 79:0.248361 80:0.096517 81:0.194154 82:0.102146 83:0.111521 84:0.103198 85:0.179991 86:0.0405265 87:0.00425209 88:0 89:0 90:0.204545 91:0.477273 92:0.568182 93:0.795455 94:0.75 95:0.613636 96:0.452967 97:0.952876 98:0.70902 99:0.534837 100:0.107149 101:0.5 102:0.5 103:0.5 104:0.647727 105:0.444444 106:0.517857 107:0.119446 108:0 109:0 110:0.885067 111:0.909753 112:0.566729 113:0.761087 114:0.403132 115:0.283988 116:0.707312 117:0.617257 118:0.40708 119:0.191526 120:0.298095 121:0.0283809 122:0.0306831 123:0.425898 124:1 125:0.132236 126:1 127:0.95313 128:0.00543323 129:0.0414364 130:0 131:0.817664 132:0.00814984 133:0.159613 134:0.0145738 135:0.885803 136:0.0238243 137:0.0644566 138:0.0259158 139:0.00298192 140:0.0664359 141:0.1359 142:0.0695841 143:0.87599 144:0.0181603 145:0.0190302 146:0.0281075 147:0.0714286 148:0.157321 149:0.21661 150:0 151:0.0871542 152:0.0837767 153:0.0714286 154:0.122898 155:0.189383 156:0 157:0.0827133 158:0.0601438 159:0.0932509 160:0.209067 161:0.0732667 162:0.0644734 163:0.293201 164:0.123883 165:0.0586158 166:0.0272753 167:0.0688621 168:0.280078 169:0.101064 170:0.201649 171:0.0953411 172:0.0632916 173:0.103823 174:0.184007 175:0.041658 176:0.0041005 177:0 178:0 179:0.113636 180:0.431818 181:0.590909 182:0.840909 183:0.75 184:0.681818 185:0.576728 186:0.955104 187:0.699108 188:0.556888 189:0.169454 190:0 191:0.5 192:0.5 193:0.681818 194:0.430556 195:0.454545 196:0.0481996 197:0 198:0.0674795 199:0.885067 200:1.02225 201:0.463648 202:0.589405 203:0.491636 204:0.333508 205:0.599462 206:0.619624 207:0.555108 208:0.159172 209:0.217507 210:0.0339651 211:0.0238095 212:0.354888 213:1 214:0.0758242 215:1 216:0.954189 217:0.00271661 218:0.0322283 219:0.0108665 220:0.905846 221:0.0108665 222:0.0805707 223:0.00271661 224:0.868602 225:0.00752467 226:0.100049 227:0.0238243 228:0.00061683 229:0.0259644 230:0.0757026 231:0.0535197 232:0.926471 233:0.00921127 234:0.00787825 235:0.0186248 236:0.0714286 237:0.192187 238:0.225696 239:0 240:0.026597 241:0.034966 242:0.0714286 243:0.152251 244:0.225446 245:0 246:0.0370749 247:0.105782 248:0.131331 249:0.15719 250:0.0938352 251:0.059949 252:0.287919 253:0.126918 254:0.0521485 255:0.0166159 256:0.107091 257:0.251299 258:0.0409581 259:0.192126 260:0.179169 261:0.0213099 262:0.139282 263:0.220125 264:0.0531491 265:0.00464059 266:0 267:0 268:0.0681818 269:0.431818 270:0.522727 271:0.795455 272:0.75 273:0.704545 274:0.565439 275:0.946516 276:0.695351 277:0.611629 278:0.123221 279:0.5 280:0.5 281:0.5 282:0.75 283:0.430556 284:0.392857 285:0.16506 286:0 287:0.46767 288:0.885067 289:0.909753 290:0.566729 291:0.826145 292:0.371385 293:0.255526 294:0.51358 295:0.617585 296:0.649556 297:0.1574 298:0.269468 299:0.0732263 300:0.0444625 301:0.50204 302:1 303:0.246968 304:1 305:0.941849 306:0.0108665 307:0.0391344 308:0.00814984 309:0.818944 310:0.00271661 311:0.160573 312:0.0177659 313:0.851968 314:0.0340656 315:0.0747269 316:0.0392392 317:0.00711576 318:0.0874287 319:0.160112 320:0.0787066 321:0.800595 322:0.0288871 323:0.0287293 324:0.0491024 325:0.0714286 326:0.125198 327:0.149593 328:0 329:0.171486 330:0.150088 331:0.0714286 332:0.108545 333:0.152232 334:0 335:0.0945178 336:0.0483393 337:0.0518777 338:0.189434 339:0.151264 340:0.0356713 341:0.195358 342:0.233537 343:0.0287655 344:0.0145291 345:0.0416639 346:0.194519 347:0.1187 348:0.170614 349:0.120337 350:0.190846 351:0.120026 352:0.151125 353:0.0296463 354:0.00268931 355:0 356:0 
0 0 1.633036420083393e-11 3.742516063714551e-11 1.892163510496802e-11 1:0.159091 2:0.477273 3:0.568182 4:0.795455 5:0.75 6:0.704545 7:0.489939 8:0.95091 9:0.693247 10:0.596623 11:0.0549104 12:0.5 13:0.5 14:0.5 15:0.659091 16:0.444444 17:0.446429 18:0.0318338 19:0 20:0.191003 21:0.885067 22:0.909753 23:0.566729 24:1 25:0.191003 26:0.277055 27:0.598065 28:0.608025 29:0.548447 30:0.130512 31:0.201701 32:0.0311052 33:0.0222613 34:0.338392 35:1 36:0.109794 37:1 38:0.957391 39:0.00605809 40:0.0325124 41:0.00403872 42:0.869492 43:0.00605809 44:0.115827 45:0.00862241 46:0.895769 47:0.0197289 48:0.0602861 49:0.0242161 50:0.00274784 51:0.0451823 52:0.102156 53:0.0574303 54:0.883954 55:0.0153414 56:0.0150693 57:0.0286973 58:0.0714286 59:0.142895 60:0.179698 61:0 62:0.126774 63:0.118207 64:0.0714286 65:0.115927 66:0.173642 67:0 68:0.0875419 69:0.0553152 70:0.0745462 71:0.185649 72:0.119335 73:0.0549652 74:0.225988 75:0.196659 76:0.0467264 77:0.0165152 78:0.0642339 79:0.22676 80:0.0921189 81:0.182678 82:0.114398 83:0.147561 84:0.109009 85:0.173948 86:0.0386102 87:0.00410301 88:0 89:0 90:0.159091 91:0.477273 92:0.590909 93:0.840909 94:0.75 95:0.590909 96:0.51686 97:0.964238 98:0.685695 99:0.5 100:0.131008 101:0.5 102:0.5 103:0.5 104:0.647727 105:0.444444 106:0.5 107:0.194621 108:0 109:0 110:0.885067 111:0.945311 112:0.533708 113:0.700664 114:0.429787 115:0.306951 116:0.692977 117:0.596591 118:0.4375 119:0.157393 120:0.222262 121:0.0112782 122:0.0075188 123:0.360053 124:1 125:0.0554563 126:1 127:0.961172 128:0.00468992 129:0.0317934 130:0.00234496 131:0.869082 132:0.0117248 133:0.114504 134:0.00468992 135:0.88968 136:0.0164147 137:0.0715351 138:0.0223703 139:0 140:0.0283189 141:0.0909009 142:0.0611527 143:0.926253 144:0.00520271 145:0.00782958 146:0.0178571 147:0.0714286 148:0.178633 149:0.224508 150:0 151:0.050887 152:0.0553304 153:0.0714286 154:0.135737 155:0.212047 156:0 157:0.0650946 158:0.0777625 159:0.121467 160:0.186924 161:0.0680176 162:0.0894058 163:0.29096 164:0.100369 165:0.0781501 166:0.0245422 167:0.106321 168:0.266616 169:0.07015 170:0.201402 171:0.122328 172:0.0315215 173:0.09897 174:0.20485 175:0.0481579 176:0.00438994 177:0 178:0 179:0.0681818 180:0.431818 181:0.522727 182:0.795455 183:0.704545 184:0.75 185:0.561905 186:0.949325 187:0.668497 188:0.640414 189:0.111816 190:0.5 191:0.5 192:0.5 193:0.727273 194:0.444444 195:0.375 196:0.157006 197:0 198:0.401934 199:0.885067 200:0.909753 201:0.566729 202:0.904716 203:0.339132 204:0.296945 205:0.547538 206:0.597328 207:0.634714 208:0.174861 209:0.26119 210:0.0597845 211:0.0487203 212:0.422996 213:1 214:0.201186 215:1 216:0.94746 217:0.00937984 218:0.0337805 219:0.00937984 220:0.833063 221:0.00703488 222:0.144567 223:0.0153354 224:0.854694 225:0.0294052 226:0.0843746 227:0.0315261 228:0.00551869 229:0.0804068 230:0.144284 231:0.0659209 232:0.821577 233:0.0319307 234:0.0265736 235:0.0500638 236:0.0714286 237:0.166924 238:0.186787 239:0 240:0.0926151 241:0.0779175 242:0.0714286 243:0.139678 244:0.193221 245:0 246:0.0857939 247:0.0570632 248:0.108134 249:0.211784 250:0.0734934 251:0.0867157 252:0.272466 253:0.10455 254:0.0695015 255:0.0157175 256:0.107825 257:0.266804 258:0.0872248 259:0.219421 260:0.0882849 261:0.0713518 262:0.0738692 263:0.195253 264:0.0449998 265:0.00451992 266:0 267:0 268:0.166667 269:0.404762 270:0.452381 271:0.833333 272:0.738095 273:0.642857 274:0.553803 275:0.933289 276:0.716645 277:0.623797 278:0.158796 279:1 280:0.5 281:0.5 282:0.690476 283:0.426471 284:0.409091 285:0 286:0 287:0.491462 288:0.890275 289:0.996491 290:0.482513 291:0.60558 292:0.481632 293:0.240601 294:0.524115 295:0.58689 296:0.657288 297:0.0752791 298:0.140595 299:0.027423 300:0.0211514 301:0.261508 302:1 303:0.0848923 304:1 305:0.963159 306:0.00703488 307:0.0298063 308:0 309:0.870262 310:0 311:0.116748 312:0.0129905 313:0.941568 314:0.01822 315:0.0198709 316:0.0203409 317:0.0049767 318:0.0394572 319:0.0642994 320:0.0325118 321:0.927172 322:0.00653424 323:0.008549 324:0.0131019 325:0.0714286 326:0.0914585 327:0.0809967 328:0 329:0.227016 330:0.214582 331:0.0714286 332:0.101535 333:0.141554 334:0 335:0.130664 336:0.0121933 337:0.0160937 338:0.205237 339:0.186756 340:0.0163491 341:0.14269 342:0.290017 343:0.00382261 344:0.0145744 345:0.0117022 346:0.156204 347:0.184521 348:0.182373 349:0.0847843 350:0.238866 351:0.123152 352:0.130452 353:0.0206006 354:0.00085616 355:0 356:0 
0 6.78805370170378e-12 0 0 0 1:0.159091 2:0.477273 3:0.590909 4:0.840909 5:0.75 6:0.727273 7:0.511248 8:0.956435 9:0.682574 10:0.591287 11:0.0499616 12:0.5 13:0.5 14:0.5 15:0.647727 16:0.444444 17:0.483333 18:0.0577707 19:-0.00304056 20:0.194596 21:0.885067 22:0.876058 23:0.598419 24:1 25:0.167231 26:0.272463 27:0.584687 28:0.598384 29:0.555998 30:0.182627 31:0.280116 32:0.0724454 33:0.0844657 34:0.592147 35:1 36:0.234124 37:1 38:0.920368 39:0.0198138 40:0.0492506 41:0.0105674 42:0.812605 43:0.016564 44:0.1593 45:0.0115308 46:0.838189 47:0.0358749 48:0.0840454 49:0.0418908 50:0.00713838 51:0.0977632 52:0.122062 53:0.0783242 54:0.774278 55:0.0317374 56:0.0418629 57:0.0482603 58:0.0714286 59:0.146382 60:0.175301 61:0 62:0.126375 63:0.111506 64:0.0714286 65:0.121392 66:0.176187 67:0 68:0.0906189 69:0.0522383 70:0.0767983 71:0.214163 72:0.108138 73:0.0616053 74:0.239412 75:0.157026 76:0.0602318 77:0.0147295 78:0.0612799 79:0.229266 80:0.126409 81:0.189412 82:0.0960953 83:0.108495 84:0.114081 85:0.174104 86:0.0388671 87:0.0042509 88:0 89:0 90:0.159091 91:0.477273 92:0.590909 93:0.840909 94:0.75 95:0.590909 96:0.502655 97:0.964238 98:0.685695 99:0.5 100:0.110996 101:0.5 102:0.5 103:0.5 104:0.647727 105:0.444444 106:0.533333 107:0.171762 108:0 109:0 110:0.885067 111:0.876058 112:0.598419 113:0.82699 114:0.377876 115:0.285801 116:0.665552 117:0.569954 118:0.425929 119:0.182071 120:0.290317 121:0.102646 122:0.123866 123:0.714757 124:0.891827 125:0.289312 126:1 127:0.915107 128:0.0243005 129:0.0514798 130:0.00911269 131:0.809025 132:0.0182254 133:0.154647 134:0.0181024 135:0.845145 136:0.0352941 137:0.0720717 138:0.0474888 139:0.0106332 140:0.0980473 141:0.0949161 142:0.097595 143:0.74311 144:0.048586 145:0.0634578 146:0.0385339 147:0.0714286 148:0.154241 149:0.222234 150:0 151:0.0852776 152:0.0762324 153:0.0714286 154:0.122335 155:0.196822 156:0 157:0.0854344 158:0.0574227 159:0.0885565 160:0.193861 161:0.094377 162:0.067971 163:0.250768 164:0.161609 165:0.0707656 166:0.0123696 167:0.0709017 168:0.267622 169:0.0773278 170:0.185275 171:0.0987885 172:0.0899877 173:0.126962 174:0.191324 175:0.0458073 176:0.00538243 177:0 178:0 179:0.0681818 180:0.477273 181:0.568182 182:0.795455 183:0.75 184:0.659091 185:0.557606 186:0.964991 187:0.674371 188:0.558124 189:0.124301 190:0.5 191:0 192:0.5 193:0.704545 194:0.416667 195:0.5 196:0.101148 197:0 198:0.0866981 199:0.885067 200:0.982794 201:0.499347 202:0.786428 203:0.375692 204:0.30957 205:0.577434 206:0.605088 207:0.58719 208:0.200903 209:0.29 210:0.0577782 211:0.0821995 212:0.515392 213:1 214:0.148754 215:1 216:0.905531 217:0.0243005 218:0.0489058 219:0.0212629 220:0.858226 221:0.02594 222:0.106721 223:0.00911269 224:0.786971 225:0.0380903 226:0.118623 227:0.0563156 228:0.00119879 229:0.0742401 230:0.121673 231:0.0798012 232:0.842885 233:0.0178747 234:0.0316635 235:0.0195951 236:0.0714286 237:0.18351 238:0.182378 239:0 240:0.0732969 241:0.0707271 242:0.0714286 243:0.14567 244:0.201561 245:0 246:0.0428387 247:0.100018 248:0.132746 249:0.180756 250:0.0878912 251:0.0645184 252:0.299245 253:0.091987 254:0.0879167 255:0.0147011 256:0.0939546 257:0.226183 258:0.096363 259:0.190257 260:0.12496 261:0.0381122 262:0.127553 263:0.198262 264:0.0459843 265:0.00432457 266:0 267:0 268:0.119048 269:0.452381 270:0.5 271:0.880952 272:0.785714 273:0.738095 274:0.605867 275:0.940386 276:0.692669 277:0.63762 278:0.127183 279:0.5 280:0.5 281:0.5 282:0.714286 283:0.397059 284:0.403846 285:0.0630107 286:0 287:0.476081 288:0.890275 289:0.91795 290:0.554307 291:0.850195 292:0.357061 293:0.255741 294:0.520388 295:0.617647 296:0.654842 297:0.18548 298:0.28254 299:0.0581321 300:0.0525149 301:0.618088 302:1 303:0.264306 304:1 305:0.931942 306:0.0151878 307:0.0437578 308:0.00911269 309:0.794899 310:0.0107522 311:0.185935 312:0.00841366 313:0.847653 314:0.0296766 315:0.0799035 316:0.0427673 317:0.00516568 318:0.0875011 319:0.142044 320:0.0686456 321:0.828651 322:0.0118248 323:0.0156038 324:0.0629735 325:0.0714286 326:0.0971159 327:0.102062 328:0 329:0.124618 330:0.237192 331:0.0714286 332:0.106247 333:0.189908 334:0 335:0.0960028 336:0.0468543 337:0.0425896 338:0.180794 339:0.106996 340:0.0541372 341:0.2206 342:0.252026 343:0.0215396 344:0.0359076 345:0.0358871 346:0.142429 347:0.178296 348:0.169746 349:0.0973207 350:0.167754 351:0.15112 352:0.151693 353:0.0294323 354:0.00250575 355:0 356:0 
0 1.577217735701562e-11 0 2.956238119209271e-11 0 1:0.159091 2:0.477273 3:0.590909 4:0.840909 5:0.75 6:0.727273 7:0.511248 8:0.956435 9:0.682574 10:0.591287 11:0.0500246 12:0.5 13:0.5 14:0.5 15:0.647727 16:0.444444 17:0.483333 18:0.0547992 19:-0.0060888 20:0.197886 21:0.885067 22:0.876058 23:0.598419 24:1 25:0.167442 26:0.269552 27:0.585637 28:0.596483 29:0.557424 30:0.159583 31:0.249303 32:0.0652008 33:0.0760191 34:0.521252 35:1 36:0.202812 37:1 38:0.927788 39:0.0179676 40:0.0446615 41:0.00958273 42:0.828219 43:0.0150206 44:0.147502 45:0.00925859 46:0.856311 47:0.0325321 48:0.0731691 49:0.0379875 50:0.00645738 51:0.0869626 52:0.108147 53:0.0758992 54:0.803068 55:0.0285348 56:0.0388915 57:0.0427449 58:0.0714286 59:0.142392 60:0.173636 61:0 62:0.134054 63:0.114164 64:0.0714286 65:0.120907 66:0.17199 67:0 68:0.0925389 69:0.0503183 70:0.0698166 71:0.209688 72:0.120679 73:0.0560048 74:0.224594 75:0.17636 76:0.0547562 77:0.0133904 78:0.055709 79:0.221221 80:0.123551 81:0.181467 82:0.102614 83:0.123855 84:0.123437 85:0.170812 86:0.0377327 87:0.00412402 88:0 89:0 90:0.159091 91:0.477273 92:0.590909 93:0.795455 94:0.75 95:0.590909 96:0.473908 97:0.959573 98:0.69696 99:0.5 100:0.101452 101:0.5 102:0.5 103:0.5 104:0.659091 105:0.444444 106:0.533333 107:0.173176 108:0 109:0 110:0.885067 111:0.876058 112:0.598419 113:0.853046 114:0.366335 115:0.297763 116:0.662677 117:0.569079 118:0.43466 119:0.166227 120:0.281101 121:0.100565 122:0.125132 123:0.649001 124:1 125:0.264753 126:1 127:0.912551 128:0.0229451 129:0.0558997 130:0.00860441 131:0.817684 132:0.0172088 133:0.150882 134:0.0142246 135:0.853783 136:0.0333255 137:0.0680518 138:0.04484 139:0.0100051 140:0.0903991 141:0.100656 142:0.0916229 143:0.765351 144:0.0482927 145:0.0526313 146:0.0340574 147:0.0714286 148:0.168382 149:0.221409 150:0 151:0.0657347 152:0.0609689 153:0.0714286 154:0.133867 155:0.206782 156:0 157:0.0829449 158:0.0599122 159:0.111245 160:0.202251 161:0.06951 162:0.0971941 163:0.26436 164:0.112583 165:0.0970596 166:0.0117185 167:0.0971886 168:0.274993 169:0.0692473 170:0.205238 171:0.0809299 172:0.0607794 173:0.102845 174:0.204539 175:0.0511508 176:0.0061561 177:0 178:0 179:0.0681818 180:0.454545 181:0.568182 182:0.840909 183:0.772727 184:0.704545 185:0.615149 186:0.956304 187:0.68789 188:0.580524 189:0.119039 190:0.5 191:0.5 192:0.5 193:0.715909 194:0.426471 195:0.4375 196:0.140587 197:-0.00639033 198:0.319516 199:0.912908 200:0.956133 201:0.499347 202:0.889128 203:0.325907 204:0.297324 205:0.531074 206:0.599609 207:0.642978 208:0.213686 209:0.308631 210:0.0661614 211:0.0823473 212:0.574333 213:1 214:0.25807 215:1 216:0.914544 217:0.0229451 218:0.0510388 219:0.0114726 220:0.819608 221:0.021625 222:0.15369 223:0.00507623 224:0.815193 225:0.0445701 226:0.0998547 227:0.0403819 228:0.0047068 229:0.115655 230:0.141935 231:0.0598858 232:0.790945 233:0.0186993 234:0.0403953 235:0.0473938 236:0.0714286 237:0.142814 238:0.18071 239:0 240:0.0841076 241:0.125203 242:0.0714286 243:0.122744 244:0.201565 245:0 246:0.0460118 247:0.0968454 248:0.0940639 249:0.149074 250:0.104331 251:0.060622 252:0.281742 253:0.16731 254:0.0693845 255:0.0108277 256:0.0728046 257:0.185466 258:0.118107 259:0.173125 260:0.136852 261:0.0919859 262:0.141449 263:0.182347 264:0.0405506 265:0.00399565 266:0 267:0 268:0.214286 269:0.428571 270:0.428571 271:0.880952 272:0.761905 273:0.666667 274:0.58204 275:0.926006 276:0.713003 277:0.652145 278:0.188717 279:0.5 280:1 281:0.5 282:0.642857 283:0.421875 284:0.375 285:0 286:0 287:0.539793 288:0.91972 289:1.0122 290:0.444419 291:0.518276 292:0.539793 293:0.257384 294:0.513032 295:0.556667 296:0.695984 297:0.0758954 298:0.124554 299:0.0230943 300:0.00735931 301:0.310359 302:1 303:0.0916005 304:1 305:0.954502 306:0.00860441 307:0.0340259 308:0.00286814 309:0.865784 310:0.00573628 311:0.123404 312:0.00507623 313:0.948772 314:0.0143407 315:0.0267346 316:0.0101525 317:0.00486054 318:0.0425886 319:0.0610828 320:0.0297916 321:0.925674 322:0.0114927 323:0.00926199 324:0.0245536 325:0.0714286 326:0.0752741 327:0.117793 328:0 329:0.176596 330:0.208466 331:0.0714286 332:0.100998 333:0.178015 334:0 335:0.142857 336:0 337:0.0293103 338:0.201489 339:0.124647 340:0.0231033 341:0.209924 342:0.268669 343:0.00461865 344:0.0312557 345:0.0138874 346:0.185382 347:0.181183 348:0.197331 349:0.0683124 350:0.173773 351:0.144256 352:0.138425 353:0.0228065 354:0.00100423 355:0 356:0 
1.190849530613591e-12 0 0 0 0 1:0.267857 2:0.428571 3:0.589286 4:0.839286 5:0.642857 6:0.589286 7:0.513128 8:0 9:0 10:0 11:0.0445405 12:0.5 13:0.5 14:0 15:0.571429 16:0.4 17:0.4 18:0.0755895 19:0.0156392 20:0.0443111 21:1.07899 22:0.982794 23:0.343024 24:1 25:0.138146 26:0.300405 27:0.518387 28:0.590067 29:0.525964 30:1 31:0.145854 32:0.221988 33:0.0573042 34:0.683859 35:0.891827 36:1 37:0 38:0.816541 39:0.0565505 40:0 41:0.126909 42:0.552469 43:0.154101 44:0.191343 45:0.102086 46:0.346775 47:0.13315 48:0.377571 49:0.142505 50:0 51:0 52:0.018601 53:0.0546231 54:0.892857 55:0.0143554 56:0.0035017 57:0 58:0.0651321 59:0.112166 60:0.177287 61:0.0440442 62:0.128176 63:0.15664 64:0.0536382 65:0.110748 66:0.152169 67:0 68:0.0680925 69:0.0933866 70:0.104161 71:0.142834 72:0.109075 73:0.00665253 74:0.306818 75:0.168981 76:0.0477053 77:0 78:0.0612245 79:0.144256 80:0.192359 81:0.167761 82:0.161714 83:0.136271 84:0.0887092 85:0.133975 86:0.0190059 87:0.000813261 88:0 89:0 90:0.267857 91:0.428571 92:0.607143 93:0.839286 94:0.642857 95:0.607143 96:0.517581 97:0 98:0 99:0 100:0.0889228 101:0.5 102:0.5 103:0 104:0.571429 105:0.4 106:0.388889 107:0.150911 108:0.0312229 109:0.0988725 110:1.07899 111:1.03038 112:0.310998 113:0.857887 114:0.270598 115:0.279663 116:0.500572 117:0.561107 118:0.551818 119:1 120:0.0215184 121:1 122:1 123:1 124:0 125:1 126:0 127:0.810559 128:0.0689498 129:0 130:0.120491 131:0.598476 132:0.161349 133:0.152381 134:0.087793 135:0.33694 136:0.12156 137:0.414365 138:0.127135 139:0 140:0 141:0 142:0.0123557 143:1 144:0 145:0 146:0 147:0.0660485 148:0.0815368 149:0.167945 150:0.0460934 151:0.159442 152:0.197651 153:0.0422512 154:0.0956997 155:0.143333 156:0 157:0.0550764 158:0.0991474 159:0.0617637 160:0.10738 161:0.167309 162:0.00390719 163:0.228955 164:0.276462 165:0.0294352 166:0 167:0.0357143 168:0.0937345 169:0.164442 170:0.11733 171:0.194645 172:0.226871 173:0.137828 174:0.113864 175:0.0146954 176:0.000417341 177:0 178:0 179:0.267857 180:0.428571 181:0.553571 182:0.767857 183:0.678571 184:0.553571 185:0.470021 186:0.947214 187:0.723607 188:0.5 189:0.160086 190:0.00970966 191:0.5 192:0.598058 193:0.589286 194:0.383333 195:0.45 196:0.378417 197:0 198:0 199:1.07899 200:0.982794 201:0.343024 202:0.436498 203:0.542057 204:0.323363 205:0.560872 206:0.517115 207:0.473772 208:0.14265 209:0.237609 210:1 211:1 212:1 213:0 214:1 215:0 216:0.912127 217:0.0227652 218:0 219:0.0651079 220:0.727028 221:0.0783354 222:0.124402 223:0.0702344 224:0.669129 225:0.0810019 226:0.171927 227:0.0779421 228:0 229:0.022802 230:0.0403949 231:0.0108772 232:1 233:0 234:0 235:0 236:0.0657899 237:0.16499 238:0.194238 239:0.0398171 240:0.0719208 241:0.0825529 242:0.0723343 243:0.140151 244:0.168205 245:0 246:0.0574999 247:0.118162 248:0.182282 249:0.113435 250:0.0890746 251:0.0116419 252:0.275567 253:0.152338 254:0.0834843 255:0 256:0.107143 257:0.147343 258:0.102643 259:0.182674 260:0.194911 261:0.0858327 262:0.0959688 263:0.170325 264:0.027178 265:0.00167262 266:0 267:0 268:0.0892857 269:0.428571 270:0.589286 271:0.839286 272:0.642857 273:0.589286 274:0.655833 275:0.980762 276:0.637361 277:0.5 278:0.228195 279:0.99029 280:0.5 281:0.401942 282:0.6875 283:0.366667 284:0.45 285:0.397037 286:0.135828 287:0.219415 288:1.07899 289:0.982794 290:0.343024 291:0.427272 292:0.553762 293:0.298467 294:0.505462 295:0.731359 296:0.533906 297:1 298:1 299:1 300:1 301:1 302:0 303:1 304:0 305:0.85714 306:0.0345694 307:0 308:0.108291 309:0.648491 310:0.109753 311:0.167903 312:0.0738532 313:0.501241 314:0.101719 315:0.270384 316:0.126656 317:0 318:0 319:0.12039 320:0.313685 321:0 322:0 323:0 324:0 325:0.0563921 326:0.105059 327:0.171767 328:0.0472915 329:0.146357 330:0.179581 331:0.0547665 332:0.0918606 333:0.146925 334:0 335:0.0670835 336:0.0903537 337:0.0829984 338:0.152569 339:0.110424 340:0.00517419 341:0.324835 342:0.166562 343:0.0397329 344:0 345:0.047619 346:0.141399 347:0.240527 348:0.156207 349:0.149669 350:0.137023 351:0.0878228 352:0.121474 353:0.0164426 354:0.000625316 355:0 356:0 
1.587101084351076e-13 1.489899455723812e-14 1.173389917077015e-13 1.733397549595822e-12 2.150187110416981e-14 1:0.0892857 2:0.392857 3:0.589286 4:0.803571 5:0.642857 6:0.625 7:0.637002 8:0.971405 9:0.664992 10:0.52357 11:0.0726098 12:0.5 13:1 14:0.5 15:0.714286 16:0.416667 17:0.425 18:0.126646 19:0.04792 20:0.0821486 21:1.07899 22:0.982794 23:0.343024 24:1 25:0.181411 26:0.299287 27:0.519963 28:0.662508 29:0.515198 30:0.603586 31:0.233486 32:0.190476 33:6.34413e-17 34:0.560398 35:1 36:1 37:0 38:0.859173 39:0.0389079 40:0.00734983 41:0.0945692 42:0.632604 43:0.114573 44:0.168083 45:0.0847392 46:0.501184 47:0.103126 48:0.275397 49:0.120293 50:0 51:0 52:0.0354453 53:0.108511 54:0.928571 55:0 56:0 57:0 58:0.0651321 59:0.112166 60:0.176904 61:0.0440442 62:0.128357 63:0.156301 64:0.0536382 65:0.110853 66:0.152605 67:0 68:0.0680925 69:0.0933866 70:0.104161 71:0.144935 72:0.104623 73:0.00665253 74:0.304053 75:0.174097 76:0.0477053 77:0 78:0.0612245 79:0.145499 80:0.201206 81:0.161482 82:0.160286 83:0.127255 84:0.095343 85:0.13328 86:0.0189954 87:0.000839511 88:0 89:0 90:0.0892857 91:0.392857 92:0.589286 93:0.767857 94:0.678571 95:0.553571 96:0.619782 97:0 98:0 99:0 100:0.107482 101:0.5 102:1 103:0.5 104:0.723214 105:0.4 106:0.475 107:0.14581 108:0 109:0.00520751 110:1.07899 111:0.982794 112:0.343024 113:0.857278 114:0.275998 115:0.324787 116:0.499528 117:0.630315 118:0.508558 119:1 120:0.071123 121:1 122:1 123:1 124:0 125:1 126:0 127:0.823869 128:0.0559996 129:0 130:0.120132 131:0.547245 132:0.159665 133:0.170181 134:0.12291 135:0.336212 136:0.141782 137:0.379453 138:0.142553 139:0 140:0 141:0.0471147 142:0.0639964 143:1 144:0 145:0 146:0 147:0.0773259 148:0.153454 149:0.194238 150:0.0371241 151:0.0696385 152:0.0825529 153:0.0633326 154:0.154128 155:0.168205 156:0 157:0.063099 158:0.112347 159:0.177818 160:0.118992 161:0.0873471 162:0.0116419 163:0.274752 164:0.154003 165:0.0775696 166:0 167:0.107143 168:0.153166 169:0.0996417 170:0.188695 171:0.197887 172:0.0829909 173:0.0929076 174:0.171361 175:0.0269895 176:0.00160008 177:0 178:0 179:0.0892857 180:0.428571 181:0.589286 182:0.839286 183:0.642857 184:0.589286 185:0.655833 186:0.980762 187:0.637361 188:0.5 189:0.223524 190:0.99029 191:0.5 192:0.401942 193:0.6875 194:0.366667 195:0.45 196:0.38891 197:0.133048 198:0.204689 199:1.07899 200:0.982794 201:0.343024 202:0.436201 203:0.542427 204:0.323138 205:0.567279 206:0.70244 207:0.498417 208:0.165485 209:0.253165 210:1 211:1 212:1 213:0 214:1 215:0 216:0.905921 217:0.0227652 218:0 219:0.0713135 220:0.73876 221:0.0722764 222:0.140328 223:0.048635 224:0.671549 225:0.0669856 226:0.178058 227:0.0834078 228:0 229:0 230:0 231:0.00536216 232:1 233:0 234:0 235:0 236:0.0601512 237:0.129032 238:0.180756 239:0.0443018 240:0.116522 241:0.14077 242:0.0617936 243:0.111237 244:0.155437 245:0 246:0.0632501 247:0.101477 248:0.120033 249:0.13904 250:0.101927 251:0.00776128 252:0.306481 253:0.16003 254:0.0536846 255:0 256:0.0714286 257:0.145317 258:0.189434 259:0.166131 260:0.171505 261:0.111742 262:0.0907578 263:0.14111 264:0.0206391 265:0.000996298 266:0 267:0 268:0.214286 269:0.404762 270:0.47619 271:0.928571 272:0.690476 273:0.571429 274:0.623348 275:0.960721 276:0.684289 277:0.56143 278:3.68782 279:0.5 280:0.5 281:0.5 282:0.607143 283:0.433333 284:0.25 285:0 286:0 287:0 288:0.950547 289:1.31019 290:0.188222 291:0.0262751 292:9.06164 293:0.283888 294:0.458333 295:0.75 296:0.666667 297:1 298:1 299:1 300:1 301:1 302:0 303:1 304:0 305:0.977406 306:0 307:0.0225939 308:0 309:0.954812 310:0 311:0.0451878 312:0 313:0.973337 314:0 315:0 316:0.0266631 317:0 318:0.00947095 319:0.20771 320:0.384673 321:0 322:0 323:0 324:0 325:0.0714286 326:0.0719566 327:0.168859 328:0.0231306 329:0.168743 330:0.180866 331:0.048298 332:0.0813743 333:0.185344 334:0.044087 335:0.0987702 336:0 337:0.115516 338:0.184927 339:0.0104701 340:0.287309 341:0.203871 342:0.0550496 343:0.125683 344:0.190349 345:0.142261 346:0.188821 347:0.184412 348:0.101993 349:0 350:0.00702284 351:0.0594585 352:0.143657 353:0.0229164 354:0.000341595 355:0 356:0 
0 1.731510771608549e-12 0 0 0 1:0.267857 2:0.482143 3:0.607143 4:0.767857 5:0.660714 6:0.571429 7:0.416947 8:0 9:0 10:0 11:0.0455441 12:0.00970966 13:0.5 14:0.598058 15:0.589286 16:0.430556 17:0.480769 18:0.100872 19:0.00305672 20:-0.0122269 21:0.999459 22:0.945311 23:0.43467 24:1 25:0.180346 26:0.283038 27:0.506959 28:0.478477 29:0.480522 30:0.387765 31:0.567546 32:0.236257 33:0.0556807 34:0.322958 35:1 36:0.314219 37:0.913244 38:0.752545 39:0.0768856 40:0.0593683 41:0.111201 42:0.588791 43:0.163793 44:0.172201 45:0.0752155 46:0.507246 47:0.13819 48:0.229588 49:0.124976 50:0 51:0.000265477 52:0.0143969 53:0.0378819 54:0.821849 55:0.00848884 56:0.0125196 57:0.00510175 58:0.0820082 59:0.134511 60:0.187352 61:0.0179368 62:0.0915971 63:0.129172 64:0.0544484 65:0.130138 66:0.172835 67:0 68:0.0386914 69:0.114685 70:0.0888685 71:0.155893 72:0.118644 73:0.0246854 74:0.230813 75:0.22772 76:0.0194653 77:0.00786389 78:0.0862317 79:0.172574 80:0.11037 81:0.139261 82:0.202805 83:0.137356 84:0.124072 85:0.146648 86:0.0236621 87:0.00150808 88:0 89:0 90:0.267857 91:0.428571 92:0.553571 93:0.767857 94:0.678571 95:0.553571 96:0.470021 97:0.947214 98:0.723607 99:0.5 100:0.160086 101:0.00970966 102:0.5 103:0.598058 104:0.589286 105:0.383333 106:0.45 107:0.378417 108:0 109:0 110:1.07899 111:0.982794 112:0.343024 113:0.436498 114:0.542057 115:0.323363 116:0.560872 117:0.517115 118:0.473772 119:0.14265 120:0.237609 121:1 122:1 123:1 124:0 125:1 126:0 127:0.912127 128:0.0227652 129:0 130:0.0651079 131:0.727028 132:0.0783354 133:0.124402 134:0.0702344 135:0.669129 136:0.0810019 137:0.171927 138:0.0779421 139:0 140:0.022802 141:0.0403949 142:0.0108772 143:1 144:0 145:0 146:0 147:0.0657899 148:0.16499 149:0.194238 150:0.0398171 151:0.0719208 152:0.0825529 153:0.0723343 154:0.140151 155:0.168205 156:0 157:0.0574999 158:0.118162 159:0.182282 160:0.113435 161:0.0890746 162:0.0116419 163:0.275567 164:0.152338 165:0.0834843 166:0 167:0.107143 168:0.147343 169:0.102643 170:0.182674 171:0.194911 172:0.0858327 173:0.0959688 174:0.170325 175:0.027178 176:0.00167262 177:0 178:0 179:0.0892857 180:0.428571 181:0.589286 182:0.803571 183:0.642857 184:0.625 185:0.627733 186:0.978365 187:0.643509 188:0.523918 189:0.210895 190:0.99029 191:0.5 192:0.401942 193:0.696429 194:0.366667 195:0.425 196:0.383361 197:0.141238 198:0.211858 199:1.07899 200:0.982794 201:0.343024 202:0.442514 203:0.534688 204:0.273447 205:0.497145 206:0.734649 207:0.557334 208:0.192468 209:0.372046 210:1 211:1 212:1 213:0 214:1 215:0 216:0.891042 217:0.0227652 218:0.0148789 219:0.0713135 220:0.73876 221:0.0722764 222:0.140328 223:0.048635 224:0.65399 225:0.0669856 226:0.178058 227:0.100966 228:0 229:0.00681218 230:0.0302249 231:0.0439322 232:1 233:0 234:0 235:0 236:0.0545125 237:0.0930728 238:0.167273 239:0.0487864 240:0.161741 241:0.197059 242:0.0512529 243:0.0822063 244:0.144096 245:0 246:0.0690003 247:0.084792 248:0.0622488 249:0.159257 250:0.114852 251:0.00388064 252:0.320196 253:0.185773 254:0.0297996 255:0 256:0.0357143 257:0.140724 258:0.261507 259:0.142875 260:0.141867 261:0.14868 262:0.0988334 263:0.111255 264:0.0145055 265:0.000491263 266:0 267:0 268:0.240741 269:0.481481 270:0.62963 271:0.759259 272:0.666667 273:0.592593 274:0.430655 275:0 276:0 277:0 278:0.112663 279:0.107768 280:0.205826 281:0.401942 282:0.592593 283:0.458333 284:0.479167 285:0.249528 286:0 287:0 288:0.982794 289:0.982794 290:0.418224 291:0.612266 292:0.431004 293:0.29798 294:0.482109 295:0.300865 296:0.437743 297:1 298:1 299:1 300:1 301:1 302:0 303:1 304:0 305:0.611389 306:0.13637 307:0.125578 308:0.126663 309:0.56135 310:0.236899 311:0.142671 312:0.0590794 313:0.511098 314:0.178949 315:0.193188 316:0.116765 317:0 318:0 319:0.0394431 320:0.0703448 321:1 322:0 323:0 324:0 325:0.093739 326:0.151318 327:0.189353 328:0.0176753 329:0.0848973 330:0.0988059 331:0.0537533 332:0.141145 333:0.169313 334:0 335:0.0359164 336:0.127691 337:0.0911871 338:0.177427 339:0.117623 340:0.0409442 341:0.203118 342:0.206092 343:0 344:0.0165896 345:0.115388 346:0.199546 347:0.0765182 348:0.138559 349:0.243464 350:0.106409 351:0.103525 352:0.161728 353:0.028825 354:0.00212862 355:0 356:0 
0 1.208100541960008e-13 0 0 0 1:0.0892857 2:0.482143 3:0.642857 4:0.803571 5:0.696429 6:0.642857 7:0.584316 8:0.978913 9:0.643674 10:0.5 11:0.069912 12:0.99029 13:0.5 14:0.401942 15:0.696429 16:0.388889 17:0.461538 18:0.103794 19:0.0334818 20:-0.0167409 21:0.999459 22:0.945311 23:0.43467 24:1 25:0.197542 26:0.288685 27:0.504945 28:0.534933 29:0.47785 30:0.577623 31:0.860119 32:0.581978 33:0.18962 34:0.529409 35:0.986169 36:0.491793 37:1 38:0.70614 39:0.0985225 40:0.0593683 41:0.135969 42:0.578728 43:0.183982 44:0.158294 45:0.078996 46:0.519058 47:0.122857 48:0.208974 49:0.149111 50:0 51:0.0014834 52:0.0105648 53:0 54:0.596063 55:0.0690968 56:0.0695213 57:0.0141842 58:0.0729717 59:0.126745 60:0.197612 61:0.0226003 62:0.117523 63:0.116876 64:0.0530533 65:0.120665 66:0.171953 67:0 68:0.0305964 69:0.11752 70:0.111016 71:0.154068 72:0.103597 73:0.0467118 74:0.245109 75:0.191381 76:0.0327789 77:0.052381 78:0.0720324 79:0.176522 80:0.108738 81:0.14155 82:0.179897 83:0.111376 84:0.124725 85:0.141061 86:0.0230264 87:0.00164404 88:0 89:0 90:0.0892857 91:0.428571 92:0.589286 93:0.839286 94:0.642857 95:0.589286 96:0.655833 97:0.980762 98:0.637361 99:0.5 100:0.223524 101:0.99029 102:0.5 103:0.401942 104:0.6875 105:0.366667 106:0.45 107:0.38891 108:0.133048 109:0.204689 110:1.07899 111:0.982794 112:0.343024 113:0.436201 114:0.542427 115:0.323138 116:0.567279 117:0.70244 118:0.498417 119:0.165485 120:0.253165 121:1 122:1 123:1 124:0 125:1 126:0 127:0.905921 128:0.0227652 129:0 130:0.0713135 131:0.73876 132:0.0722764 133:0.140328 134:0.048635 135:0.671549 136:0.0669856 137:0.178058 138:0.0834078 139:0 140:0 141:0 142:0.00536216 143:1 144:0 145:0 146:0 147:0.0601512 148:0.129032 149:0.180756 150:0.0443018 151:0.116522 152:0.14077 153:0.0617936 154:0.111237 155:0.155437 156:0 157:0.0632501 158:0.101477 159:0.120033 160:0.13904 161:0.101927 162:0.00776128 163:0.306481 164:0.16003 165:0.0536846 166:0 167:0.0714286 168:0.145317 169:0.189434 170:0.166131 171:0.171505 172:0.111742 173:0.0907578 174:0.14111 175:0.0206391 176:0.000996298 177:0 178:0 179:0.240741 180:0.444444 181:0.592593 182:0.759259 183:0.703704 184:0.555556 185:0.47616 186:0.946304 187:0.723152 188:0.468121 189:0.161309 190:0.0285955 191:0.382149 192:0.617851 193:0.592593 194:0.421875 195:0.475 196:0.411388 197:0 198:0 199:1.03584 200:1.0122 201:0.354706 202:0.450148 203:0.545088 204:0.27337 205:0.497288 206:0.391471 207:0.529813 208:0.289697 209:0.309 210:1 211:1 212:1 213:0 214:1 215:0 216:0.853824 217:0.0567763 218:0.0148789 219:0.0745206 220:0.742649 221:0.0859242 222:0.125866 223:0.0455615 224:0.670728 225:0.0553612 226:0.163549 227:0.110362 228:0 229:0.048037 230:0.0260371 231:0.0490846 232:1 233:0 234:0 235:0 236:0.0909866 237:0.111326 238:0.184824 239:0.0310076 240:0.112058 241:0.143668 242:0.0599389 243:0.11222 244:0.15397 245:0 246:0.0512869 247:0.130179 248:0.111787 249:0.0935079 250:0.12622 251:0.0083864 252:0.236444 253:0.24219 254:0.04351 255:0 256:0.0714286 257:0.117538 258:0.119177 259:0.135333 260:0.224626 261:0.162535 262:0.125853 263:0.146136 264:0.0232451 265:0.00131224 266:0 267:0 268:0.0925926 269:0.444444 270:0.666667 271:0.796296 272:0.703704 273:0.666667 274:0.585255 275:0.969172 276:0.672853 277:0.5 278:0.191513 279:0.9 280:0.5 281:0.2 282:0.694444 283:0.402778 284:0.416667 285:0.25537 286:0.0472907 287:0.0189163 288:0.982794 289:0.982794 290:0.418224 291:0.489486 292:0.539114 293:0.30564 294:0.473975 295:0.526316 296:0.434549 297:1 298:1 299:1 300:1 301:1 302:0 303:1 304:0 305:0.545025 306:0.153548 307:0.125578 308:0.175849 309:0.521924 310:0.277073 311:0.108307 312:0.0926963 313:0.519884 314:0.168316 315:0.152796 316:0.159005 317:0 318:0 319:0 320:0 321:1 322:0 323:0 324:0 325:0.0770544 326:0.136504 327:0.207284 328:0.0262718 329:0.139519 330:0.0756504 331:0.0506862 332:0.119135 333:0.167895 334:0 335:0.0207685 336:0.132464 337:0.139344 338:0.171296 339:0.082345 340:0.0517221 341:0.283569 342:0.118492 343:0.0257937 344:0.0876599 345:0.0775355 346:0.217066 347:0.103183 348:0.155074 349:0.183008 350:0.0506935 351:0.0999857 352:0.147617 353:0.0254511 354:0.00187718 355:0 356:0 
5.257133469670097e-12 0 0 0 0 1:0.0892857 2:0.482143 3:0.642857 4:0.803571 5:0.696429 6:0.642857 7:0.584316 8:0.978913 9:0.643674 10:0.5 11:0.0663128 12:0.99029 13:0.5 14:0.401942 15:0.696429 16:0.388889 17:0.461538 18:0.111153 19:0.0317581 20:-0.00952742 21:0.999459 22:0.945311 23:0.43467 24:1 25:0.187373 26:0.281693 27:0.503479 28:0.540013 29:0.51422 30:0.619063 31:0.891476 32:0.611512 33:0.309936 34:0.522227 35:0.986169 36:0.818407 37:1 38:0.730232 39:0.0860963 40:0.0518804 41:0.131791 42:0.576266 43:0.160777 44:0.187439 45:0.0755181 46:0.544275 47:0.131812 48:0.193609 49:0.130304 50:0 51:0.0192624 52:0.0116655 53:0.0138402 54:0.425393 55:0.0954045 56:0.119316 57:0.0568606 58:0.0712058 59:0.122933 60:0.195423 61:0.024518 62:0.1271 63:0.12431 64:0.0522605 65:0.112373 66:0.169877 67:0 68:0.0268516 69:0.120681 70:0.104938 71:0.156468 72:0.107601 73:0.0421594 74:0.260622 75:0.180679 76:0.026045 77:0.051967 78:0.0668691 79:0.173526 80:0.12763 81:0.141445 82:0.181071 83:0.109501 84:0.121945 85:0.134412 86:0.0213109 87:0.00142701 88:0 89:0 90:0.0892857 91:0.428571 92:0.589286 93:0.839286 94:0.642857 95:0.589286 96:0.655833 97:0.980762 98:0.637361 99:0.5 100:0.223524 101:0.99029 102:0.5 103:0.401942 104:0.6875 105:0.366667 106:0.45 107:0.38891 108:0.133048 109:0.204689 110:1.07899 111:0.982794 112:0.343024 113:0.436201 114:0.542427 115:0.323138 116:0.567279 117:0.70244 118:0.498417 119:0.165485 120:0.253165 121:1 122:1 123:1 124:0 125:1 126:0 127:0.905921 128:0.0227652 129:0 130:0.0713135 131:0.73876 132:0.0722764 133:0.140328 134:0.048635 135:0.671549 136:0.0669856 137:0.178058 138:0.0834078 139:0 140:0 141:0 142:0.00536216 143:1 144:0 145:0 146:0 147:0.0601512 148:0.129032 149:0.180756 150:0.0443018 151:0.116522 152:0.14077 153:0.0617936 154:0.111237 155:0.155437 156:0 157:0.0632501 158:0.101477 159:0.120033 160:0.13904 161:0.101927 162:0.00776128 163:0.306481 164:0.16003 165:0.0536846 166:0 167:0.0714286 168:0.145317 169:0.189434 170:0.166131 171:0.171505 172:0.111742 173:0.0907578 174:0.14111 175:0.0206391 176:0.000996298 177:0 178:0 179:0.240741 180:0.444444 181:0.592593 182:0.759259 183:0.703704 184:0.555556 185:0.47616 186:0.946304 187:0.723152 188:0.468121 189:0.161309 190:0.0285955 191:0.382149 192:0.617851 193:0.592593 194:0.421875 195:0.475 196:0.411388 197:0 198:0 199:1.03584 200:1.0122 201:0.354706 202:0.450148 203:0.545088 204:0.27337 205:0.497288 206:0.391471 207:0.529813 208:0.289697 209:0.309 210:1 211:1 212:1 213:0 214:1 215:0 216:0.853824 217:0.0567763 218:0.0148789 219:0.0745206 220:0.742649 221:0.0859242 222:0.125866 223:0.0455615 224:0.670728 225:0.0553612 226:0.163549 227:0.110362 228:0 229:0.048037 230:0.0260371 231:0.0490846 232:1 233:0 234:0 235:0 236:0.0909866 237:0.111326 238:0.184824 239:0.0310076 240:0.112058 241:0.143668 242:0.0599389 243:0.11222 244:0.15397 245:0 246:0.0512869 247:0.130179 248:0.111787 249:0.0935079 250:0.12622 251:0.0083864 252:0.236444 253:0.24219 254:0.04351 255:0 256:0.0714286 257:0.117538 258:0.119177 259:0.135333 260:0.224626 261:0.162535 262:0.125853 263:0.146136 264:0.0232451 265:0.00131224 266:0 267:0 268:0.104167 269:0.354167 270:0.604167 271:0.895833 272:0.729167 273:0.6875 274:0.653608 275:0.949838 276:0.713081 277:0.547351 278:0.252894 279:0.936436 280:0.718218 281:0.609109 282:0.697917 283:0.402778 284:0.375 285:0.311347 286:0.0478996 287:0.0718494 288:0.927295 289:0.982794 290:0.463648 291:0.434937 292:0.646645 293:0.287894 294:0.491997 295:0.678707 296:0.591695 297:0.826262 298:1 299:1 300:1 301:1 302:0 303:1 304:0 305:0.767222 306:0.0739551 307:0 308:0.158823 309:0.582465 310:0.126098 311:0.1947 312:0.0967371 313:0.601121 314:0.110922 315:0.152915 316:0.135043 317:0 318:0 319:0.00858507 320:0.0414811 321:1 322:0 323:0 324:0 325:0.0725387 326:0.106497 327:0.197494 328:0.0168512 329:0.143258 330:0.0799498 331:0.0647321 332:0.11965 333:0.199029 334:0 335:0.0182473 336:0.134985 337:0.0947007 338:0.193068 339:0.0968185 340:0.033865 341:0.326513 342:0.101802 343:0.0111607 344:0.0539779 345:0.059687 346:0.20203 347:0.152137 348:0.183767 349:0.160423 350:0.0459051 351:0.130911 352:0.15174 353:0.0283011 354:0.00210747 355:0 356:0 
4.159857282305834e-12 1.595897752431064e-12 0 0 0 1:0.0892857 2:0.482143 3:0.642857 4:0.803571 5:0.696429 6:0.607143 7:0.584986 8:0.978365 9:0.643509 10:0.476082 11:0.0634821 12:0.99029 13:0.5 14:0.401942 15:0.696429 16:0.388889 17:0.480769 18:0.106287 19:0.0364411 20:0 21:0.999459 22:0.945311 23:0.43467 24:1 25:0.179169 26:0.275016 27:0.508527 28:0.556474 29:0.521357 30:0.600028 31:0.846299 32:0.577375 33:0.321877 34:0.618905 35:0.986169 36:0.727016 37:1 38:0.744048 39:0.0822127 40:0.0509501 41:0.12279 42:0.576041 43:0.157397 44:0.199502 45:0.0670601 46:0.575363 47:0.121483 48:0.181685 49:0.121469 50:0 51:0.0207613 52:0.0415489 53:0.0562278 54:0.446255 55:0.0985989 56:0.146672 57:0.0466819 58:0.0697932 59:0.119197 60:0.194336 61:0.0275828 62:0.134802 63:0.130503 64:0.0500957 65:0.105266 66:0.168425 67:0 68:0.02554 69:0.121525 70:0.0886249 71:0.169745 72:0.105279 73:0.0338072 74:0.28241 75:0.17307 76:0.0211918 77:0.0428895 78:0.0576177 79:0.171163 80:0.156321 81:0.145187 82:0.18058 83:0.109998 84:0.115051 85:0.12921 86:0.0197887 87:0.00121283 88:0 89:0 90:0.0892857 91:0.428571 92:0.589286 93:0.803571 94:0.642857 95:0.625 96:0.627733 97:0.978365 98:0.643509 99:0.523918 100:0.206724 101:0.99029 102:0.5 103:0.401942 104:0.696429 105:0.366667 106:0.425 107:0.375779 108:0.138445 109:0.197779 110:1.07899 111:0.982794 112:0.343024 113:0.451443 114:0.524113 115:0.298466 116:0.550077 117:0.709949 118:0.524983 119:0.178977 120:0.312605 121:0 122:0 123:1 124:0 125:1 126:0 127:0.918777 128:0.0169704 129:0.0110916 130:0.053161 131:0.783075 132:0.0538788 133:0.126791 134:0.0362552 135:0.742065 136:0.0499348 137:0.132734 138:0.0752659 139:0 140:0 141:0.00669852 142:0.0356735 143:1 144:0 145:0 146:0 147:0.0578957 148:0.114648 149:0.175363 150:0.0460956 151:0.134797 152:0.162514 153:0.0575773 154:0.099638 155:0.151472 156:0 157:0.0655502 158:0.0948031 159:0.0960267 160:0.147096 161:0.107169 162:0.00620902 163:0.306441 164:0.176705 165:0.0429477 166:0 167:0.0571429 168:0.143993 169:0.216436 170:0.153481 171:0.160896 172:0.126124 173:0.0989793 174:0.129136 175:0.0182767 176:0.000801617 177:0 178:0 179:0.240741 180:0.481481 181:0.62963 182:0.759259 183:0.666667 184:0.592593 185:0.430655 186:0.969809 187:0.667789 188:0.466442 189:0.109828 190:0.0285955 191:0.382149 192:0.617851 193:0.592593 194:0.458333 195:0.479167 196:0.243249 197:0 198:0 199:0.982794 200:0.982794 201:0.418224 202:0.628073 203:0.420157 204:0.278176 205:0.479808 206:0.344329 207:0.459897 208:0.719111 209:0.987455 210:0.238998 211:0.220347 212:1 213:0 214:1 215:0 216:0.699217 217:0.101657 218:0.104704 219:0.0944218 220:0.650823 221:0.176598 222:0.128538 223:0.044041 224:0.622457 225:0.133398 226:0.144013 227:0.100132 228:0 229:0 230:0.0473919 231:0.0580842 232:0.892857 233:0.00441519 234:0.0312991 235:0 236:0.0892769 237:0.135255 238:0.182677 239:0.0196958 240:0.0987378 241:0.138115 242:0.0517328 243:0.122019 244:0.162492 245:0 246:0.0323046 247:0.127153 248:0.0729497 249:0.158058 250:0.129821 251:0.0327554 252:0.19792 253:0.249038 254:0 255:0.0132717 256:0.0923108 257:0.171755 258:0.0948145 259:0.125212 260:0.240744 261:0.145576 262:0.116317 263:0.148358 264:0.0253914 265:0.00174393 266:0 267:0 268:0.104167 269:0.354167 270:0.604167 271:0.895833 272:0.729167 273:0.645833 274:0.651406 275:0.951359 276:0.713801 277:0.523756 278:0.214934 279:0.936436 280:0.718218 281:0.609109 282:0.697917 283:0.402778 284:0.395833 285:0.27572 286:0.0714828 287:0.0919065 288:0.927295 289:0.982794 290:0.463648 291:0.510029 292:0.551439 293:0.277224 294:0.507107 295:0.677648 296:0.58628 297:0.656041 298:0.811749 299:0.406688 300:0.381579 301:1 302:0 303:1 304:0 305:0.789204 306:0.0682193 307:0.0110916 308:0.131485 309:0.580376 310:0.127243 311:0.220267 312:0.0721131 313:0.657305 314:0.092764 315:0.136174 316:0.113757 317:0 318:0.00663636 319:0.047254 320:0.139045 321:0.785714 322:0.0377331 323:0.0694098 324:1.58603e-17 325:0.0696088 326:0.097714 327:0.18544 328:0.021546 329:0.15084 330:0.102302 331:0.0607143 332:0.109291 333:0.202543 334:0 335:0.0145978 336:0.13656 337:0.0650463 338:0.2043 339:0.0969667 340:0.027092 341:0.344379 342:0.111058 343:0.00892857 344:0.0367697 345:0.0448818 346:0.167985 347:0.196538 348:0.196722 349:0.171427 350:0.0542369 351:0.122512 352:0.144453 353:0.0254768 354:0.00164695 355:0 356:0 
