svm_type c_svc
kernel_type polynomial
degree 3
gamma 100
coef0 0
nr_class 7
total_sv 418
rho -1.11563 0.0481313 -0.304304 -0.120759 0.0502713 -0.118505 0.0895347 -0.320967 -0.851914 0.241178 0.237684 -1.99551 -1.30552 0.120957 -0.0888501 0.50711 1.10903 0.67412 1.04093 1.18824 0.0900715
label 7 6 4 1 2 5 3
probA -3.67747 -4.96914 -2.47222 -4.23988 -1.51533 -3.60832 -4.81417 -4.5016 -4.3636 -4.35917 -4.73855 -4.31364 -4.54429 -4.3602 -4.68509 -4.67763 -4.04858 -4.35083 -4.04404 -4.25537 -4.53331
probB -0.130169 -0.317452 -0.251556 -0.324954 -0.156168 -0.109014 -0.0253282 -0.196645 -0.146513 -0.171236 0.0804399 -0.293489 -0.35518 -0.0130312 -0.0124 -0.107702 0.114609 0.0546432 0.221858 -0.0213229 0.185138
nr_sv 81 72 78 49 36 56 46
SV
0 0 0 0 2.310999490824557e-12 0 1:0.0517241 2:0.517241 3:0.5 4:0.844828 5:0.655172 6:0.637931 7:0.635293 8:0.98553 9:0.58444 10:0.58444 11:0.116147 12:0.947214 13:0.5 14:0.276393 15:0.75 16:0.388889 17:0.4 18:0.308935 19:0.00490374 20:0.362876 21:1.0153 22:0.876058 23:0.477345 24:0.878992 25:0.304032 26:0.257 27:0.54349 28:0.618 29:0.608214 30:0.334107 31:0.546163 32:0.250354 33:0.356108 34:0.701135 35:1 36:0.447041 37:1 38:0.886776 39:0.0343693 40:0.0314174 41:0.0474373 42:0.674938 43:0.0447985 44:0.252478 45:0.0277856 46:0.680302 47:0.122826 48:0.118993 49:0.0778786 50:0.0115061 51:0.131912 52:0.20496 53:0.150104 54:0.603118 55:0.0768628 56:0.0528042 57:0.0533467 58:0.0645119 59:0.0796629 60:0.120452 61:0.0218929 62:0.135938 63:0.211813 64:0.0564524 65:0.127145 66:0.182131 67:0 68:0.0776075 69:0.0652496 70:0.04132 71:0.176239 72:0.132254 73:0.0744413 74:0.259417 75:0.173471 76:0.0474671 77:0.0136014 78:0.0530947 79:0.141362 80:0.173604 81:0.202109 82:0.0653343 83:0.204674 84:0.0987526 85:0.119674 86:0.0191118 87:0.00147919 88:0 89:0 90:0.0517241 91:0.517241 92:0.568966 93:0.913793 94:0.655172 95:0.568966 96:0.706006 97:0.99372 98:0.578995 99:0.5 100:0.21874 101:0.947214 102:0.5 103:0.276393 104:0.732759 105:0.388889 106:0.454545 107:0.388786 108:0 109:0.26783 110:1.0153 111:1.02225 112:0.362544 113:0.4989 114:0.501102 115:0.323484 116:0.52762 117:0.645331 118:0.572428 119:0.451023 120:0.833501 121:0.473793 122:0.634887 123:1 124:0.647584 125:1 126:0 127:0.843149 128:0.046053 129:0.0146997 130:0.0960982 131:0.629832 132:0.0725514 133:0.264977 134:0.0326397 135:0.503741 136:0.188477 137:0.208043 138:0.0997392 139:0.003162 140:0.139813 141:0.214489 142:0.154765 143:0.642857 144:0.0119048 145:0.0841309 146:0.0465895 147:0.0714286 148:0.11828 149:0.209476 150:0.00744988 151:0.0714587 152:0.0762573 153:0.0639787 154:0.15431 155:0.22736 156:0 157:0.0250064 158:0.117851 159:0.0751116 160:0.180012 161:0.0976181 162:0.103638 163:0.274162 164:0.126602 165:0.0646502 166:0.0169285 167:0.0908999 168:0.163115 169:0.0827311 170:0.236273 171:0.163495 172:0.0668794 173:0.115028 174:0.159788 175:0.0254355 176:0.00139799 177:0 178:0 179:0.104167 180:0.5 181:0.5 182:0.895833 183:0.666667 184:0.666667 185:0.616504 186:0.979212 187:0.600887 188:0.600887 189:0.193379 190:0.853553 191:0.5 192:0.853553 193:0.697917 194:0.382353 195:0.384615 196:0.234113 197:0 198:0.6243 199:0.954499 200:0.91795 201:0.496423 202:0.533931 203:0.526753 204:0.260133 205:0.523966 206:0.616379 207:0.687962 208:0.444153 209:0.733558 210:0.353715 211:0.537683 212:0.7439 213:0.75 214:1 215:0 216:0.855497 217:0.0346941 218:0.0444126 219:0.0653961 220:0.585233 221:0.0378573 222:0.318308 223:0.0586019 224:0.676632 225:0.142951 226:0.0715191 227:0.108898 228:0.00730543 229:0.156103 230:0.176024 231:0.147198 232:0.732143 233:0 234:0.0516277 235:0.0555152 236:0.0714286 237:0.0795465 238:0.14051 239:0.0163651 240:0.138324 241:0.18385 242:0.0550635 243:0.13032 244:0.184592 245:0 246:0.0676285 247:0.0752287 248:0.0148745 249:0.183001 250:0.174008 251:0.0400103 252:0.246566 253:0.198684 254:0.00590082 255:0.0111709 256:0.0357523 257:0.164103 258:0.14648 259:0.190878 260:0.109738 261:0.201444 262:0.134533 263:0.132579 264:0.0218599 265:0.00126096 266:0 267:0 268:0.184211 269:0.5 270:0.421053 271:0.973684 272:0.710526 273:0.473684 274:0.593944 275:0.982118 276:0.628565 277:0.532141 278:0.676363 279:0.5 280:0.5 281:1 282:0.618421 283:0.411765 284:0.375 285:0 286:0 287:0 288:0.840897 289:1.2315 290:0.305879 291:0.151316 292:1.82609 293:0.276249 294:0.590909 295:0.568182 296:0.590909 297:0.107143 298:0.0714286 299:0 300:0 301:0.142857 302:1 303:1 304:0 305:0.9853 306:0 307:0.0146997 308:0 309:0.882403 310:0 311:0.117597 312:0 313:0.970601 314:0 315:0.0293993 316:0 317:0 318:0.00519809 319:0.0282358 320:0.0269115 321:1 322:0 323:0 324:0 325:0.0714286 326:0.0795323 327:0.15356 328:0 329:0.137292 330:0.177037 331:0.0714286 332:0.112589 333:0.197132 334:0.0714286 335:0.0714286 336:0 337:0.0979777 338:0.215879 339:0.0463692 340:0.208145 341:0.278917 342:0.00985572 343:0.178607 344:0.080398 345:0.118547 346:0.132653 347:0.197166 348:0.242368 349:0 350:0.0464109 351:0.00385194 352:0.168902 353:0.0320811 354:0.00102576 355:0 356:0 
0 0 0 0 3.593265881591117e-12 0 1:0.0192308 2:0.461538 3:0.461538 4:0.865385 5:0.653846 6:0.653846 7:0.66988 8:0.976017 9:0.608186 10:0.608186 11:0.121979 12:0.908248 13:0.704124 14:0.704124 15:0.75 16:0.397059 17:0.383333 18:0.295598 19:0 20:0.417004 21:0.991722 22:0.847817 23:0.523278 24:0.910802 25:0.306155 26:0.249567 27:0.554707 28:0.609864 29:0.621023 30:0.230903 31:0.324798 32:0.138408 33:0.194265 34:0.394649 35:1 36:0.207415 37:1 38:0.923788 39:0.0231992 40:0.0277225 41:0.0252906 42:0.775859 43:0.0248151 44:0.17888 45:0.020446 46:0.793884 47:0.0801402 48:0.0768185 49:0.0491571 50:0.00829724 51:0.0842119 52:0.118622 53:0.0813241 54:0.782873 55:0.0486168 56:0.0308734 57:0.0329438 58:0.0714286 59:0.0791671 60:0.127113 61:0.0179264 62:0.146619 63:0.2027 64:0.0535022 65:0.1269 66:0.174645 67:0 68:0.0719195 69:0.0709377 70:0.0266186 71:0.162908 72:0.178808 73:0.044332 74:0.236005 75:0.208472 76:0.0279763 77:0.00618229 78:0.0360762 79:0.143166 80:0.152322 81:0.182846 82:0.0958238 83:0.225188 84:0.130419 85:0.123907 86:0.0205345 87:0.00151906 88:0 89:0 90:0.0192308 91:0.461538 92:0.5 93:0.865385 94:0.653846 95:0.692308 96:0.686221 97:0.976017 98:0.608186 99:0.608186 100:0.143134 101:0.908248 102:0.704124 103:0.704124 104:0.75 105:0.397059 106:0.365385 107:0.346864 108:0 109:0.452162 110:0.991722 111:0.91795 112:0.463648 113:0.776186 114:0.346864 115:0.299009 116:0.538572 117:0.629932 118:0.628041 119:0.466186 120:0.784547 121:0.432445 122:0.597837 123:0.829077 124:0.852416 125:0.660811 126:0.985043 127:0.845531 128:0.0553854 129:0.0387052 130:0.0603785 131:0.569309 132:0.0592432 133:0.322635 134:0.0488125 135:0.529905 136:0.191326 137:0.161412 138:0.117357 139:0.0214702 140:0.202732 141:0.239738 142:0.129359 143:0.512434 144:0.0657739 145:0.0610442 146:0.0770144 147:0.0714286 148:0.107251 149:0.176969 150:0.0103233 151:0.101173 152:0.127162 153:0.0611053 154:0.151312 155:0.193276 156:0 157:0.0482933 158:0.0945638 159:0.0566875 160:0.170363 161:0.140211 162:0.0932627 163:0.21837 164:0.178249 165:0.0581702 166:0.0133244 167:0.0780033 168:0.163717 169:0.0879238 170:0.186498 171:0.123696 172:0.150067 173:0.1386 174:0.157174 175:0.0291806 176:0.00238805 177:0 178:0 179:0.159091 180:0.5 181:0.431818 182:0.931818 183:0.681818 184:0.522727 185:0.607598 186:0.983548 187:0.613776 188:0.556888 189:0.304806 190:0.947214 191:0.5 192:0.723607 193:0.647727 194:0.411765 195:0.3125 196:0 197:0 198:0.277437 199:0.912908 200:1.13095 201:0.348771 202:0.327675 203:0.814971 204:0.257304 205:0.579787 206:0.569149 207:0.636728 208:0.190089 209:0.284921 210:0.0104611 211:0.0238095 212:0.430303 213:1 214:3.21377e-33 215:1 216:0.95955 217:0.00648561 218:0.0274791 219:0.00648561 220:0.785754 221:0.0244499 222:0.183311 223:0.00648561 224:0.878206 225:0.0453993 226:0.0439665 227:0.032428 228:0 229:0.00554642 230:0.0902794 231:0.107277 232:0.952381 233:0 234:0.000843832 235:0.0110609 236:0.0714286 237:0.0638414 238:0.117262 239:0.01009 240:0.151291 241:0.218036 242:0.0613386 243:0.119684 244:0.187029 245:0.0422264 246:0.100631 247:0 248:0.0777424 249:0.187497 250:0.0644057 251:0.12487 252:0.374642 253:0.0279865 254:0.0777873 255:0.0576009 256:0.11156 257:0.165566 258:0.253399 259:0.241512 260:0 261:0.0760646 262:0.0165096 263:0.131848 264:0.0209214 265:0.000665634 266:0 267:0 268:0.184211 269:0.5 270:0.473684 271:0.973684 272:0.710526 273:0.473684 274:0.592716 275:0.983117 276:0.628831 277:0.5 278:1.41129 279:0.5 280:0.5 281:0.5 282:0.618421 283:0.411765 284:0.333333 285:0 286:0 287:0 288:0.840897 289:1.2315 290:0.305879 291:0.0723684 292:3.81818 293:0.274507 294:0.675 295:0.475 296:0.6 297:0.0714286 298:1.07126e-33 299:0 300:0 301:5.35628e-34 302:1 303:0 304:0 305:0.972521 306:0 307:0.0274791 308:0 309:0.978017 310:0 311:0.0219833 312:0 313:0.994504 314:0 315:0.00549582 316:0 317:0 318:0 319:0 320:0 321:1 322:0 323:0 324:0 325:0.0714286 326:0.0802527 327:0.15284 328:0 329:0.139775 330:0.178627 331:0.0714286 332:0.112877 333:0.192772 334:0.0714286 335:0.0714286 336:0 337:0.0888997 338:0.25206 339:0.0387313 340:0.196815 341:0.27167 342:0.00896745 343:0.167962 344:0.0706347 345:0.118547 346:0.142857 347:0.216675 348:0.240264 349:0 350:0.0430616 351:0 352:0.168275 353:0.0316027 354:0.000919108 355:0 356:0 
0 9.64465986977438e-12 0 6.663229370610177e-12 1.203257818273025e-11 1.293627409913753e-12 1:0.140625 2:0.484375 3:0.515625 4:0.828125 5:0.640625 6:0.609375 7:0.579217 8:0.983312 9:0.609844 10:0.565906 11:0.12489 12:0.211325 13:0.788675 14:0.788675 15:0.6875 16:0.402778 17:0.410714 18:0.120721 19:0.0109747 20:0.00548734 21:1.05841 22:0.909753 23:0.41241 24:0.711866 25:0.35119 26:0.338153 27:0.550893 28:0.640544 29:0.548376 30:0.255108 31:0.45371 32:0.177142 33:0.163129 34:0.737953 35:1 36:0.259448 37:1 38:0.91146 39:0.020077 40:0.046178 41:0.0222851 42:0.786761 43:0.00794437 44:0.178594 45:0.0267012 46:0.766925 47:0.0813149 48:0.122299 49:0.0294605 50:0.000174829 51:0.0382746 52:0.161263 53:0.189062 54:0.720402 55:0.0703538 56:0.0557855 57:0.0409728 58:0.0704887 59:0.126116 60:0.282193 61:0.00285115 62:0.0272477 63:0.0364913 64:0.0695173 65:0.172626 66:0.212468 67:0 68:0.100195 69:0.0426619 70:0.0831825 71:0.1699 72:0.091235 73:0.0710062 74:0.285654 75:0.156164 76:0.0666976 77:0.0117711 78:0.0747747 79:0.274596 80:0.0291341 81:0.242468 82:0.134981 83:0.0227413 84:0.142836 85:0.172951 86:0.0277641 87:0.00196915 88:0 89:0 90:0.140625 91:0.484375 92:0.5 93:0.796875 94:0.546875 95:0.6875 96:0.563093 97:0.978759 98:0.545596 99:0.636788 100:0.378325 101:0.211325 102:0.788675 103:0.788675 104:0.695312 105:0.444444 106:0.346154 107:0.0690005 108:0 109:0.189751 110:1.05841 111:0.945311 112:0.385883 113:0.226448 114:1.08676 115:0.356219 116:0.480769 117:0.608173 118:0.670673 119:0.214286 120:0.357143 121:0.0785714 122:0.157143 123:0.706548 124:0.75 125:0.125 126:0.304087 127:0.936577 128:0.0129712 129:0.0439665 130:0.00648561 131:0.850623 132:0 133:0.142891 134:0.00648561 135:0.84919 136:0.0389137 137:0.0989247 138:0.0129712 139:0 140:0.0243936 141:0.136878 142:0.137145 143:0.89881 144:0.0437557 145:0.043441 146:0.00208904 147:0.0714286 148:0.131851 149:0.29672 150:0 151:0.0115146 152:0.00956239 153:0.0714286 154:0.191875 155:0.215619 156:0 157:0.113668 158:0.0291888 159:0.104234 160:0.160343 161:0.0964739 162:0.0702016 163:0.264021 164:0.161869 165:0.0917008 166:0 167:0.0821049 168:0.281355 169:0.000798428 170:0.241383 171:0.126945 172:0.013774 173:0.161939 174:0.1922 175:0.0313304 176:0.00218221 177:0 178:0 179:0.078125 180:0.515625 181:0.515625 182:0.796875 183:0.578125 184:0.671875 185:0.611551 186:0.986834 187:0.542333 188:0.605833 189:0.61147 190:0.5 191:0.5 192:0.5 193:0.742188 194:0.416667 195:0.354167 196:0 197:0 198:0 199:1.05841 200:0.982794 201:0.358771 202:0.150904 203:1.60491 204:0.36041 205:0.680147 206:0.580882 207:0.525735 208:0.14881 209:0.22619 210:0.0285714 211:0.0285714 212:0.318452 213:1 214:0.047619 215:0.695913 216:0.943062 217:0 218:0.0439665 219:0.0129712 220:0.896126 221:0.00648561 222:0.0714456 223:0.0259424 224:0.914593 225:0.0129712 226:0.0659498 227:0.00648561 228:0 229:0.00184881 230:0.0359768 231:0.0446486 232:0.964286 233:6.38846e-10 234:0.0119048 235:5.28678e-18 236:0.0714286 237:0.13258 238:0.288926 239:0 240:0.0184703 241:0.0171141 242:0.0714286 243:0.191336 244:0.208716 245:0 246:0.121894 247:0.0209633 248:0.0918772 249:0.16963 250:0.088764 251:0.0623906 252:0.2925 253:0.151981 254:0.0825659 255:0 256:0.0714286 257:0.304759 258:0.00466274 259:0.251357 260:0.107734 261:0.0239017 262:0.153591 263:0.191555 264:0.0312875 265:0.00215449 266:0 267:0 268:0.05 269:0.516667 270:0.55 271:0.85 272:0.65 273:0.616667 274:0.647857 275:0.991539 276:0.581923 277:0.540962 278:0.212243 279:0.853553 280:0.146447 281:0.5 282:0.75 283:0.388889 284:0.428571 285:0.278201 286:0.0260814 287:0.0521628 288:1.03038 289:0.909753 290:0.436627 291:0.479269 292:0.539015 293:0.331438 294:0.583861 295:0.66837 296:0.471805 297:0.41243 298:0.769418 299:0.424283 300:0.303673 301:1 302:0.717953 303:0.719023 304:1 305:0.868707 306:0.032428 307:0.0549582 308:0.0439067 309:0.701152 310:0.0179643 311:0.233477 312:0.0474073 313:0.653226 314:0.131989 315:0.161138 316:0.0536466 317:0.000427159 318:0.0704909 319:0.221704 320:0.268492 321:0.571656 322:0.055433 323:0.0491103 324:0.0595526 325:0.0714286 326:0.124099 327:0.277815 328:0.00381354 329:0.0363146 330:0.0511807 331:0.067615 332:0.152608 333:0.215126 334:0 335:0.0904265 336:0.0524306 337:0.075282 338:0.176041 339:0.0760416 340:0.0981789 341:0.308187 342:0.123412 343:0.0774309 344:0.0210574 345:0.0754703 346:0.26427 347:0.046768 348:0.254033 349:0.12683 350:0.0220099 351:0.112131 352:0.172256 353:0.0296129 354:0.00224287 355:0 356:0 
6.388724948448653e-12 1.166830006890864e-12 4.238416712859581e-12 4.951514426125921e-12 0 2.286078426388157e-12 1:0.152174 2:0.434783 3:0.565217 4:0.847826 5:0.695652 6:0.695652 7:0.549459 8:0.961112 9:0.672917 10:0.586459 11:0.101417 12:0 13:0.5 14:0.5 15:0.652174 16:0.416667 17:0.4375 18:0.070147 19:0 20:0.25136 21:0.90675 22:0.982794 23:0.480887 24:0.929725 25:0.309816 26:0.301895 27:0.544849 28:0.62 29:0.606667 30:0.153162 31:0.258385 32:0.0431661 33:0.0662338 34:0.459456 35:1 36:0.160736 37:1 38:0.953783 39:0.00618827 40:0.0297152 41:0.0103138 42:0.872916 43:0.00412552 44:0.114707 45:0.00825103 46:0.820464 47:0.0391924 48:0.112414 49:0.0279292 50:0.00498312 51:0.0561048 52:0.142447 53:0.0918873 54:0.833452 55:0.0176084 56:0.0303279 57:0.037748 58:0.0714286 59:0.161982 60:0.189676 61:0 62:0.107383 63:0.0709748 64:0.0714286 65:0.137821 66:0.189306 67:0 68:0.0556838 69:0.0871733 70:0.104727 71:0.180287 72:0.135856 73:0.00773495 74:0.253982 75:0.174556 76:0.0489676 77:0.0172606 78:0.0458133 79:0.218954 80:0.0802216 81:0.181289 82:0.153606 83:0.0795092 84:0.17438 85:0.181516 86:0.0396223 87:0.00359704 88:0 89:0 90:0.152174 91:0.434783 92:0.565217 93:0.847826 94:0.73913 95:0.73913 96:0.56742 97:0.946516 98:0.695351 99:0.611629 100:0.374043 101:0 102:0.5 103:0.5 104:0.652174 105:0.402778 106:0.416667 107:0.250525 108:0 109:0 110:0.90675 111:0.982794 112:0.480887 113:0.260323 114:1.10648 115:0.33038 116:0.588068 117:0.647727 118:0.528409 119:0.047619 120:0.0634921 121:0 122:0 123:0.267347 124:1 125:0.0571429 126:1 127:0.974641 128:0.00470525 129:0.0159486 130:0.00470525 131:0.948167 132:0 133:0.0518331 134:0 135:0.86882 136:0.0141157 137:0.107653 138:0.00941049 139:0 140:0.00893283 141:0.0873959 142:0.0472326 143:0.968254 144:0 145:0 146:0.015873 147:0.0714286 148:0.183595 149:0.238311 150:0 151:0.0369895 152:0.0189534 153:0.0714286 154:0.150176 155:0.229119 156:0 157:0.0490176 158:0.0938395 159:0.146922 160:0.155539 161:0.107011 162:0.0167591 163:0.298629 164:0.132283 165:0.0666724 166:0.02239 167:0.0748874 168:0.256651 169:0.0172846 170:0.21543 171:0.166202 172:0.0257035 173:0.154779 174:0.213673 175:0.0525141 176:0.00549803 177:0 178:0 179:0.0652174 180:0.434783 181:0.586957 182:0.847826 183:0.695652 184:0.673913 185:0.611324 186:0.971728 187:0.657243 188:0.552414 189:0.281195 190:0.5 191:0.5 192:0 193:0.717391 194:0.416667 195:0.409091 196:0.147386 197:0 198:0 199:0.90675 200:1.02225 201:0.446106 202:0.368744 203:0.766409 204:0.332486 205:0.540254 206:0.648305 207:0.555085 208:0.163557 209:0.253968 210:0.0535714 211:0.0535714 212:0.455306 213:1 214:0.0598268 215:1 216:0.945295 217:0.00941049 218:0.0358844 219:0.00941049 220:0.910846 221:0.00941049 222:0.0797432 223:0 224:0.825948 225:0.0282315 226:0.112884 227:0.0329367 228:0.00196814 229:0.0495592 230:0.0797437 231:0.0637224 232:0.89418 233:0.0134863 234:0.0209053 235:0.00125942 236:0.0714286 237:0.185296 238:0.21878 239:0 240:0.0452518 241:0.0393738 242:0.0714286 243:0.155495 244:0.212946 245:0 246:0.05285 247:0.0900072 248:0.160771 249:0.156184 250:0.0916963 251:0.0598104 252:0.265814 253:0.122867 254:0.107851 255:0.0232868 256:0.0868577 257:0.225673 258:0.0401322 259:0.203955 260:0.133817 261:0.0286936 262:0.149733 263:0.206854 264:0.0486467 265:0.00458526 266:0 267:0 268:0.113636 269:0.454545 270:0.545455 271:0.886364 272:0.727273 273:0.681818 274:0.61123 275:0.965099 276:0.664153 277:0.582076 278:0.185286 279:0.5 280:0.5 281:0.5 282:0.715909 283:0.411765 284:0.431818 285:0.202768 286:0 287:0.405537 288:0.912908 289:0.996491 290:0.463648 291:0.560425 292:0.506921 293:0.275812 294:0.544374 295:0.604167 296:0.666667 297:0.247699 298:0.461905 299:0.074064 300:0.146429 301:0.655714 302:0.695913 303:0.281128 304:1 305:0.93732 306:0 307:0.0438588 308:0.018821 309:0.803256 310:0 311:0.177923 312:0.018821 313:0.794458 314:0.0470525 315:0.108897 316:0.0495921 317:0.0101688 318:0.0940219 319:0.18353 320:0.126975 321:0.799245 322:0.0170328 323:0.0514079 324:0.0513873 325:0.0714286 326:0.121452 327:0.146612 328:0 329:0.145995 330:0.133646 331:0.0714286 332:0.114536 333:0.194901 334:0 335:0.0702104 336:0.0726467 337:0.0682654 338:0.18232 339:0.125053 340:0.0216521 341:0.212356 342:0.247496 343:0.0393995 344:0.0244518 345:0.0222352 346:0.169291 347:0.147321 348:0.158229 349:0.125238 350:0.122728 351:0.191105 352:0.153675 353:0.0290038 354:0.00199197 355:0 356:0 
0 0 2.008255898330599e-12 4.927624040411933e-12 0 0 1:0.108696 2:0.434783 3:0.565217 4:0.847826 5:0.695652 6:0.695652 7:0.578796 8:0.965099 9:0.664153 10:0.582076 11:0.108361 12:0.5 13:0.5 14:0.5 15:0.684783 16:0.416667 17:0.4375 18:0.0948681 19:0 20:0.272746 21:0.90675 22:0.982794 23:0.480887 24:0.916604 25:0.314251 26:0.294771 27:0.542077 28:0.622466 29:0.608108 30:0.144886 31:0.241524 32:0.0415531 33:0.0651786 34:0.470849 35:1 36:0.159001 37:1 38:0.955889 39:0.00572867 40:0.0307445 41:0.00763822 42:0.882355 43:0.00381911 44:0.106188 45:0.00763822 46:0.840271 47:0.0362816 48:0.0975927 49:0.0258549 50:0.00459874 51:0.0514345 52:0.118199 53:0.0828972 54:0.843442 55:0.0252607 56:0.0250312 57:0.0332996 58:0.0714286 59:0.154006 60:0.174405 61:0 62:0.12497 63:0.0855968 64:0.0714286 65:0.136658 66:0.181507 67:0 68:0.057225 69:0.0856322 70:0.091796 71:0.176643 72:0.153217 73:0.00574597 74:0.229498 75:0.200243 76:0.0433071 77:0.0138803 78:0.0400272 79:0.201503 80:0.0845926 81:0.170514 82:0.154686 83:0.107863 84:0.183628 85:0.175438 86:0.0373908 87:0.00333395 88:0 89:0 90:0.108696 91:0.434783 92:0.565217 93:0.847826 94:0.73913 95:0.73913 96:0.595873 97:0.95177 98:0.686023 99:0.606299 100:0.434386 101:0.5 102:0.5 103:0.5 104:0.684783 105:0.402778 106:0.416667 107:0.161612 108:0 109:0 110:0.90675 111:0.982794 112:0.480887 113:0.235401 114:1.22363 115:0.335877 116:0.586538 117:0.657051 118:0.519231 119:0.075 120:0.0785714 121:0 122:0 123:0.278571 124:1 125:0.0357143 126:1 127:0.981078 128:0.00431079 129:0.0146116 130:0 131:0.952512 132:0 133:0.0474878 134:0 135:0.88946 136:0.021554 137:0.080364 138:0.00862159 139:0 140:0.00351635 141:0.0604 142:0.0377458 143:0.971429 144:0 145:0 146:0.00714286 147:0.0714286 148:0.185462 149:0.240184 150:0 151:0.0271644 152:0.0137319 153:0.0714286 154:0.156019 155:0.234582 156:0 157:0.048151 158:0.0947061 159:0.145859 160:0.155998 161:0.104064 162:0.0123759 163:0.306519 164:0.132327 165:0.0678744 166:0.0160426 167:0.0747017 168:0.263032 169:0.00982435 170:0.224269 171:0.163819 172:0.0220141 173:0.158423 174:0.219311 175:0.0544935 176:0.00564253 177:0 178:0 179:0.0652174 180:0.434783 181:0.543478 182:0.847826 183:0.695652 184:0.673913 185:0.615508 186:0.968521 187:0.656174 188:0.578087 189:0.209238 190:0.5 191:0.5 192:0.5 193:0.717391 194:0.416667 195:0.431818 196:0.250527 197:0 198:0.185172 199:0.90675 200:1.02225 201:0.446106 202:0.498947 203:0.56641 204:0.310236 205:0.539775 206:0.637821 207:0.588141 208:0.217167 209:0.367143 210:0.0777394 211:0.106349 212:0.622024 213:1 214:0.286628 215:1 216:0.949881 217:0.00862159 218:0.0328762 219:0.00862159 220:0.864243 221:0.00862159 222:0.122825 223:0.00431079 224:0.79043 225:0.0431079 226:0.125338 227:0.0411239 228:0.00756243 229:0.0676276 230:0.128277 231:0.111291 232:0.77619 233:0.0417366 234:0.0354918 235:0.0391658 236:0.0714286 237:0.171933 238:0.193644 239:0 240:0.0933328 241:0.0655869 242:0.0714286 243:0.14187 244:0.190776 245:0 246:0.0601276 247:0.0827295 248:0.133067 249:0.184976 250:0.101652 251:0.0419535 252:0.258272 253:0.137222 254:0.0816806 255:0.0285288 256:0.061973 257:0.227306 258:0.0865214 259:0.185254 260:0.121519 261:0.0481639 262:0.159054 263:0.183982 264:0.0395706 265:0.00325501 266:0 267:0 268:0.119048 269:0.452381 270:0.547619 271:0.880952 272:0.738095 273:0.690476 274:0.594728 275:0.961112 276:0.672917 277:0.586459 278:0.233438 279:0.5 280:0.5 281:0.5 282:0.666667 283:0.411765 284:0.431818 285:0.148007 286:0 287:0.484385 288:0.890275 289:0.996491 290:0.482513 291:0.442387 292:0.659302 293:0.257908 294:0.542616 295:0.574219 296:0.679688 297:0.167475 298:0.30582 299:0.0443021 300:0.0883929 301:0.517823 302:1 303:0.18799 304:1 305:0.950718 306:0 307:0.0398716 308:0.00941049 309:0.827179 310:0 311:0.154 312:0.018821 313:0.875767 314:0.0470525 315:0.0558202 316:0.0213606 317:0.00795814 318:0.066128 319:0.106125 320:0.0772217 321:0.87963 322:0.0344572 323:0.0409767 324:0.0171587 325:0.0714286 326:0.11395 327:0.131915 328:0 329:0.181767 330:0.157493 331:0.0714286 332:0.101445 333:0.170573 334:0 335:0.0764939 336:0.0663632 337:0.031643 338:0.18798 339:0.166725 340:0.00290296 341:0.146098 342:0.321794 343:0.0138545 344:0.0136695 345:0.00344851 346:0.145052 347:0.156409 348:0.126051 349:0.147885 350:0.183132 351:0.210499 352:0.145353 353:0.0252539 354:0.00123377 355:0 356:0 
2.003356701580653e-11 0 0 0 3.860926900716513e-12 1.9400154686395e-11 1:0.108696 2:0.434783 3:0.565217 4:0.891304 5:0.695652 6:0.695652 7:0.608367 8:0.968521 9:0.656174 10:0.578087 11:0.114743 12:0 13:0.5 14:0.5 15:0.673913 16:0.416667 17:0.395833 18:0.149332 19:0 20:0.304637 21:0.90675 22:0.982794 23:0.480887 24:0.909851 25:0.316583 26:0.280006 27:0.537854 28:0.613176 29:0.615709 30:0.135476 31:0.23157 32:0.0383567 33:0.0601648 34:0.438324 35:1 36:0.158839 37:1 38:0.956197 39:0.00355507 40:0.0331377 41:0.00711015 42:0.882686 43:0.00533261 44:0.104872 45:0.00711015 46:0.86719 47:0.0319957 48:0.0803017 49:0.0205123 50:0.00426942 51:0.0468339 52:0.087711 53:0.0649828 54:0.850051 55:0.0257321 56:0.0231771 57:0.0361239 58:0.0714286 59:0.138067 60:0.147658 61:0 62:0.159023 63:0.109209 64:0.0714286 65:0.135952 66:0.167233 67:0 68:0.0811472 69:0.0617099 70:0.0779941 71:0.215888 72:0.128994 73:0.0300723 74:0.205224 75:0.198971 76:0.051238 77:0.0132543 78:0.0424114 79:0.198944 80:0.119448 81:0.186903 82:0.111902 83:0.124869 84:0.15103 85:0.162441 86:0.0325368 87:0.00268685 88:0 89:0 90:0.108696 91:0.434783 92:0.586957 93:0.847826 94:0.695652 95:0.673913 96:0.58119 97:0.96862 98:0.665395 99:0.555132 100:0.274738 101:0 102:0.5 103:0.5 104:0.684783 105:0.416667 106:0.409091 107:0.0605873 108:0 109:0 110:0.90675 111:1.02225 112:0.446106 113:0.358807 114:0.787635 115:0.338465 116:0.543103 117:0.653017 118:0.521552 119:0.132916 120:0.2 121:0.0396825 122:0.031746 123:0.342143 124:1 125:0.0472583 126:1 127:0.961497 128:0.00862159 129:0.0255704 130:0.00431079 131:0.91832 132:0.00862159 133:0.0730581 134:0 135:0.841197 136:0.0301756 137:0.107074 138:0.021554 139:0.00167247 140:0.0234681 141:0.0489034 142:0.0614081 143:0.907143 144:0.00601533 145:0.0177942 146:0.00589538 147:0.0714286 148:0.185271 149:0.228703 150:0 151:0.0337828 152:0.0282687 153:0.0714286 154:0.15845 155:0.222667 156:0 157:0.0519004 158:0.0909568 159:0.16253 160:0.148835 161:0.0925339 162:0.0608744 163:0.269205 164:0.123164 165:0.108418 166:0.0200185 167:0.09452 168:0.22793 169:0.0260701 170:0.209308 171:0.14206 172:0.0240517 173:0.147624 174:0.214044 175:0.0514377 176:0.00497751 177:0 178:0 179:0.0681818 180:0.431818 181:0.545455 182:0.886364 183:0.704545 184:0.681818 185:0.630239 186:0.968521 187:0.656174 188:0.578087 189:0.173171 190:1 191:0.5 192:0.5 193:0.727273 194:0.416667 195:0.431818 196:0.207343 197:0 198:0.378627 199:0.885067 200:1.02225 201:0.463648 202:0.630268 203:0.459761 204:0.277325 205:0.529015 206:0.601064 207:0.646277 208:0.245903 209:0.463333 210:0.0975807 211:0.146032 212:0.683571 213:0.75 214:0.267342 215:1 216:0.933953 217:0.00862159 218:0.040182 219:0.0172432 220:0.796517 221:0.00862159 222:0.177619 223:0.0172432 224:0.779835 225:0.0603511 226:0.11438 227:0.0454346 228:0.00923828 229:0.0912604 230:0.198101 231:0.132235 232:0.76932 233:0.0224723 234:0.0591468 235:0.0476546 236:0.0714286 237:0.140073 238:0.135555 239:0 240:0.159102 241:0.104411 242:0.0714286 243:0.140574 244:0.177429 245:0 246:0.0686634 247:0.0741938 248:0.0784262 249:0.207731 250:0.153707 251:0.0211062 252:0.19529 253:0.200882 254:0.0454218 255:0.0225709 256:0.0293999 257:0.17467 258:0.136563 259:0.160696 260:0.125608 261:0.113717 262:0.191354 263:0.160701 264:0.0315016 265:0.00229813 266:0 267:0 268:0.184211 269:0.473684 270:0.394737 271:0.973684 272:0.789474 273:0.605263 274:0.644915 275:0.950631 276:0.680253 277:0.620168 278:0.382296 279:0.5 280:0.5 281:1 282:0.618421 283:0.40625 284:0.428571 285:0 286:0 287:0.298609 288:0.870903 289:1.15839 290:0.35299 291:0.286416 292:0.964737 293:0.275941 294:0.522436 295:0.570513 296:0.673077 297:0.0579155 298:0.0928571 299:0.00529101 300:0.0119048 301:0.270833 302:1 303:0.0761905 304:0.5 305:0.954849 306:0 307:0.0365291 308:0.00862159 309:0.909699 310:0.00431079 311:0.0730581 312:0.0129324 313:0.952876 314:0.021554 315:0.0255704 316:0 317:0 318:0.00229406 319:0.0181298 320:0.00927057 321:0.965104 322:0.00632501 323:0.00238095 324:0.0261905 325:0.0714286 326:0.086995 327:0.177752 328:0 329:0.134626 330:0.162343 331:0.0714286 332:0.0974581 333:0.197969 334:0.0851742 335:0.057683 336:0 337:0.108219 338:0.169977 339:0.0525643 340:0.0122791 341:0.262938 342:0.251166 343:0.0972646 344:0.0360018 345:0.0695899 346:0.136902 347:0.174077 348:0.171245 349:0.089782 350:0.099321 351:0.125816 352:0.164749 353:0.0292779 354:0.000485019 355:0 356:0 
0 0 1.333566760287852e-12 0 0 0 1:0.0652174 2:0.434783 3:0.565217 4:0.891304 5:0.695652 6:0.73913 7:0.627462 8:0.967464 9:0.64762 10:0.598414 11:0.122351 12:0.5 13:0.5 14:0.5 15:0.706522 16:0.416667 17:0.392857 18:0.138471 19:0 20:0.313065 21:0.90675 22:0.909753 23:0.546789 24:0.902715 25:0.331127 26:0.288958 27:0.567173 28:0.593972 29:0.612589 30:0.177918 31:0.238889 32:0.0779536 33:0.0610766 34:0.325437 35:1 36:0.173705 37:1 38:0.957851 39:0.00793281 40:0.0302497 41:0.00396641 42:0.846767 43:0.0019832 44:0.135384 45:0.0158656 46:0.874141 47:0.0263957 48:0.0666612 49:0.0328017 50:0.00500917 51:0.0678331 52:0.0877146 53:0.066218 54:0.848214 55:0.0137051 56:0.0343332 57:0.0260583 58:0.0714286 59:0.151788 60:0.18528 61:0 62:0.131768 63:0.0853846 64:0.0714286 65:0.140321 66:0.162602 67:0 68:0.0761611 69:0.066696 70:0.0817814 71:0.174734 72:0.161512 73:0.0132739 74:0.195126 75:0.230715 76:0.0371809 77:0.00892415 78:0.0478508 79:0.208118 80:0.0756241 81:0.162662 82:0.159449 83:0.129662 84:0.170529 85:0.179682 86:0.039511 87:0.00389457 88:0 89:0 90:0.0652174 91:0.434783 92:0.586957 93:0.847826 94:0.695652 95:0.717391 96:0.60088 97:0.968521 98:0.656174 99:0.578087 100:0.455779 101:0.5 102:0.5 103:0.5 104:0.717391 105:0.416667 106:0.403846 107:0 108:0 109:0 110:0.90675 111:0.945311 112:0.514451 113:0.229056 114:1.28125 115:0.346761 116:0.615385 117:0.586538 118:0.522436 119:0.135779 120:0.113757 121:0.0178571 122:2.67814e-34 123:0.0673469 124:1 125:0.0285714 126:1 127:0.975359 128:0.00470525 129:0.0199358 130:0 131:0.919539 132:0.00470525 133:0.075756 134:0 135:0.933525 136:0.00470525 137:0.057064 138:0.00470525 139:0.000911209 140:0.00628304 141:0.0104568 142:0.0197902 143:0.97619 144:0 145:0 146:0.00793651 147:0.0714286 148:0.194625 149:0.233946 150:0 151:0.0141085 152:0.0140473 153:0.0714286 154:0.170644 155:0.229772 156:0 157:0.05313 158:0.0897271 159:0.154037 160:0.132679 161:0.114691 162:0.0286927 163:0.248482 164:0.178561 165:0.0714286 166:0.00868644 167:0.102246 168:0.241383 169:0.00570097 170:0.189774 171:0.187189 172:0.00890171 173:0.184691 174:0.236484 175:0.0616904 176:0.00691759 177:0 178:0 179:0.0652174 180:0.434783 181:0.586957 182:0.847826 183:0.695652 184:0.76087 185:0.606553 186:0.96414 187:0.654713 188:0.603142 189:0.188207 190:0.5 191:0.5 192:0.5 193:0.717391 194:0.416667 195:0.423077 196:0.213533 197:0 198:0.359124 199:0.90675 200:0.945311 201:0.514451 202:0.559937 203:0.524127 204:0.294256 205:0.532054 206:0.635802 207:0.615741 208:0.258795 209:0.426455 210:0.177083 211:0.160714 212:0.529242 213:1 214:0.322397 215:1 216:0.951833 217:0.018821 218:0.0199358 219:0.00941049 220:0.786653 221:0.00470525 222:0.18041 223:0.0282315 224:0.763356 225:0.0485093 226:0.110311 227:0.0778235 228:0.0103495 229:0.134468 230:0.16542 231:0.131084 232:0.753968 233:0.0093292 234:0.0513775 235:0.0157046 236:0.0714286 237:0.159324 238:0.200595 239:0 240:0.121606 241:0.0814133 242:0.0714286 243:0.134404 244:0.1598 245:0 246:0.0657672 247:0.0770899 248:0.0935925 249:0.178696 250:0.14534 251:0.00956422 252:0.189026 253:0.240925 254:0.0421964 255:0.0175325 256:0.0420141 257:0.198592 258:0.0917337 259:0.146031 260:0.183958 261:0.095842 262:0.1821 263:0.176536 264:0.0376648 265:0.00340249 266:0 267:0 268:0.159091 269:0.454545 270:0.454545 271:0.931818 272:0.727273 273:0.636364 274:0.656997 275:0.960301 276:0.662459 277:0.608306 278:0.268558 279:1 280:0.5 281:0.5 282:0.647727 283:0.4 284:0.388889 285:0 286:0 287:0.363581 288:0.972377 289:1.03038 290:0.388319 291:0.390685 292:0.668988 293:0.261141 294:0.574535 295:0.552966 296:0.637712 297:0.153019 298:0.210053 299:0.0470332 300:0.014881 301:0.34142 302:1 303:0.118207 304:1 305:0.955423 306:0.00470525 307:0.0398716 308:0 309:0.822666 310:0 311:0.163218 312:0.0141157 313:0.913805 314:0.0354763 315:0.0318973 316:0.018821 317:0.00250083 318:0.0343816 319:0.0600679 320:0.0409249 321:0.920635 322:0.00441432 323:0.0114587 324:0.015873 325:0.0714286 326:0.0710351 327:0.16417 328:0 329:0.165951 330:0.200984 331:0.0714286 332:0.0849906 333:0.170012 334:0 335:0.142857 336:0 337:0.0275234 338:0.227086 339:0.0826963 340:0.00483314 341:0.201229 342:0.313775 343:0.00575903 344:0.0218936 345:0.00265296 346:0.201183 347:0.190131 348:0.191377 349:0.0939314 350:0.151751 351:0.141322 352:0.129744 353:0.0196186 354:0.000448163 355:0 356:0 
0 1.438638730809684e-11 1.048843206412002e-12 5.26382769653368e-12 0 0 1:0.0652174 2:0.434783 3:0.565217 4:0.891304 5:0.695652 6:0.73913 7:0.627462 8:0.967464 9:0.64762 10:0.598414 11:0.121619 12:0.5 13:0.5 14:0.5 15:0.706522 16:0.416667 17:0.428571 18:0.143627 19:0 20:0.311192 21:0.90675 22:0.909753 23:0.546789 24:0.90815 25:0.329145 26:0.278105 27:0.5667 28:0.59507 29:0.611796 30:0.152501 31:0.204762 32:0.0664049 33:0.0520282 34:0.300095 35:1 36:0.150706 37:1 38:0.959117 39:0.00687258 40:0.0305746 41:0.00343629 42:0.870159 43:0.00171814 44:0.114378 45:0.0137452 46:0.890963 47:0.0228678 48:0.0577518 49:0.0284177 50:0.00431654 51:0.0584537 52:0.0755862 53:0.0552751 54:0.867347 55:0.0117473 56:0.0294284 57:0.0248867 58:0.0714286 59:0.14206 60:0.174031 61:0 62:0.150256 63:0.0961825 64:0.0714286 65:0.13779 66:0.156823 67:0 68:0.0764896 69:0.0663675 70:0.0662672 71:0.16399 72:0.187006 73:0.0105101 74:0.166916 75:0.262453 76:0.0300792 77:0.00705151 78:0.038677 79:0.188562 80:0.0797748 81:0.142979 82:0.163448 83:0.16187 84:0.187559 85:0.169267 86:0.0353869 87:0.00323158 88:0 89:0 90:0.0652174 91:0.434783 92:0.586957 93:0.847826 94:0.695652 95:0.76087 96:0.606553 97:0.96414 98:0.654713 99:0.603142 100:0.288201 101:0.5 102:0.5 103:0.5 104:0.717391 105:0.416667 106:0.423077 107:0.10404 108:0 109:0.0445886 110:0.90675 111:0.945311 112:0.514451 113:0.365662 114:0.802594 115:0.334668 116:0.563772 117:0.68319 118:0.536638 119:0.169534 120:0.194372 121:0.0464286 122:0.0214286 123:0.206964 124:1 125:0.0340136 126:1 127:0.9758 128:0.00397736 129:0.0202222 130:0 131:0.908393 132:0.00397736 133:0.0876294 134:0 135:0.871266 136:0.00397736 137:0.089876 138:0.034881 139:0.00308209 140:0.0661026 141:0.0467862 142:0.0371295 143:0.935065 144:0.00438623 145:0.0150943 146:0.00649351 147:0.0714286 148:0.184446 149:0.236195 150:0 151:0.0378666 152:0.031014 153:0.0714286 154:0.158874 155:0.208748 156:0 157:0.0545123 158:0.0883448 159:0.148437 160:0.138848 161:0.114754 162:0.0204948 163:0.253874 164:0.180736 165:0.0680882 166:0.0159272 167:0.0835133 168:0.239662 169:0.0297621 170:0.180397 171:0.177697 172:0.0233877 173:0.181565 174:0.220141 175:0.0549347 176:0.00588205 177:0 178:0 179:0.0681818 180:0.454545 181:0.568182 182:0.886364 183:0.727273 184:0.75 185:0.62292 186:0.96414 187:0.654713 188:0.603142 189:0.158241 190:0.853553 191:0.5 192:0.146447 193:0.727273 194:0.411765 195:0.392857 196:0.187695 197:0 198:0.440676 199:0.912908 200:0.881872 201:0.566729 202:0.696245 203:0.432515 204:0.274113 205:0.532539 206:0.599747 207:0.660354 208:0.251119 209:0.402165 210:0.154293 211:0.133333 212:0.447046 213:1 214:0.349878 215:1 216:0.94978 217:0.0119321 218:0.0303333 219:0.00795472 220:0.76805 221:0 222:0.204108 223:0.0278415 224:0.795987 225:0.0449824 226:0.0932464 227:0.0657845 228:0.00951785 229:0.11552 230:0.16282 231:0.112546 232:0.772727 233:0.0255159 234:0.0533209 235:0.0336088 236:0.0714286 237:0.115717 238:0.192204 239:0 240:0.139819 241:0.114084 242:0.0714286 243:0.119157 244:0.176161 245:0 246:0.0832463 247:0.0596108 248:0.0577144 249:0.171042 250:0.130501 251:0.00643514 252:0.193997 253:0.297453 254:0.0253549 255:0.0121482 256:0.0244686 257:0.189175 258:0.110526 259:0.155532 260:0.158426 261:0.138638 262:0.185732 263:0.165469 264:0.0338206 265:0.00289794 266:0 267:0 268:0.175 269:0.45 270:0.425 271:0.975 272:0.75 273:0.575 274:0.674812 275:0.961112 276:0.672917 277:0.586459 278:0.416483 279:0.5 280:0.5 281:0.5 282:0.625 283:0.4 284:0.375 285:0 286:0 287:0.072017 288:0.927295 289:1.19029 290:0.291457 291:0.260355 292:0.984232 293:0.281543 294:0.637821 295:0.544872 296:0.586538 297:0.0876623 298:0.0974026 299:0.0142857 300:2.14251e-34 301:0.233333 302:1 303:0.0408163 304:0.5 305:0.962926 306:0 307:0.037074 308:0 309:0.928615 310:0 311:0.0674072 312:0.00397736 313:0.961105 314:0.0119321 315:0.0269629 316:0 317:0 318:0.0056553 319:0.0107694 320:0.015637 321:0.980519 322:0 323:0 324:0.012987 325:0.0714286 326:0.0819251 327:0.155501 328:0 329:0.136941 330:0.191893 331:0.0714286 332:0.105627 333:0.185256 334:0.142857 335:0 336:0 337:0.117347 338:0.167254 339:0.0453153 340:0 341:0.365609 342:0.161618 343:0.140306 344:0.0153061 345:0.104592 346:0.141406 347:0.246906 348:0.143389 349:0.0286504 350:0.0606068 351:0.118838 352:0.154695 353:0.0258688 354:0.000264452 355:0 356:0 
0 0 1.757790917882493e-11 8.434624705633796e-12 0 0 1:0.0555556 2:0.444444 3:0.537037 4:0.759259 5:0.666667 6:0.685185 7:0.581352 8:0.967464 9:0.64762 10:0.598414 11:0.115747 12:0.5 13:0.5 14:0.5 15:0.712963 16:0.416667 17:0.423077 18:0.148084 19:0 20:0.307559 21:0.982794 22:0.945311 23:0.448723 24:0.812853 25:0.330341 26:0.297385 27:0.551673 28:0.626689 29:0.617399 30:0.130023 31:0.254329 32:0.085034 33:0.0408163 34:0.450121 35:1 36:0.160963 37:1 38:0.959791 39:0.00644689 40:0.027315 41:0.00644689 42:0.855988 43:0.00214896 44:0.133268 45:0.00859585 46:0.83132 47:0.0239278 48:0.114002 49:0.0307508 50:0.00839521 51:0.107344 52:0.13805 53:0.0947935 54:0.827922 55:0.01445 56:0.0268967 57:0.0321744 58:0.0714286 59:0.178221 60:0.180403 61:0.0113996 62:0.110077 63:0.0936335 64:0.060029 65:0.1282 66:0.166608 67:0 68:0.0698633 69:0.0729938 70:0.110427 71:0.189199 72:0.114154 73:0.0800273 74:0.232713 75:0.130622 76:0.0802834 77:0.018954 78:0.0897086 79:0.230736 80:0.0960824 81:0.164391 82:0.11842 83:0.106727 84:0.0946969 85:0.157718 86:0.0290692 87:0.00235495 88:0 89:0 90:0.0555556 91:0.444444 92:0.574074 93:0.796296 94:0.703704 95:0.648148 96:0.621177 97:0.969841 98:0.664444 99:0.546984 100:0.587258 101:0.5 102:0.5 103:0.5 104:0.703704 105:0.402778 106:0.454545 107:0.0551836 108:0 109:0 110:0.982794 111:1.02225 112:0.386876 113:0.16779 114:1.54514 115:0.35275 116:0.6875 117:0.558824 118:0.529412 119:0.0892857 120:0.178571 121:0.0102041 122:0.0204082 123:0.277778 124:1 125:0.0238095 126:1 127:0.963309 128:0.00517916 129:0.0263325 130:0.00517916 131:0.956113 132:0 133:0.0438874 134:0 135:0.915823 136:0 137:0.0789974 138:0.00517916 139:0 140:0.00286935 141:0.0219157 142:0.0399108 143:0.982143 144:0 145:0.00156678 146:0.00736179 147:0.0714286 148:0.210834 149:0.217738 150:0.00819113 151:0.0194879 152:0.0227235 153:0.0632374 154:0.159553 155:0.226807 156:0 157:0.0277097 158:0.115147 159:0.153835 160:0.146315 161:0.0934139 162:0.07571 163:0.270099 164:0.11777 165:0.0942419 166:0.00851868 167:0.116193 168:0.221293 169:0.0188721 170:0.197448 171:0.184465 172:0.0232605 173:0.135707 174:0.205239 175:0.0423209 176:0.00342743 177:0 178:0 179:0.0555556 180:0.462963 181:0.574074 182:0.796296 183:0.685185 184:0.685185 185:0.625055 186:0.974045 187:0.642214 188:0.571107 189:0.287267 190:0.5 191:0.5 192:0.5 193:0.722222 194:0.411765 195:0.386364 196:0.258738 197:0 198:0.0544711 199:1.00887 200:0.996491 201:0.386876 202:0.339969 203:0.748978 204:0.325783 205:0.5182 206:0.722458 207:0.576271 208:0.112629 209:0.216071 210:0.0714286 211:0.0204082 212:0.434984 213:0.75 214:0.107143 215:1 216:0.968488 217:0.00517916 218:0.0263325 219:0 220:0.900498 221:0.00517916 222:0.089144 223:0.00517916 224:0.775718 225:0.0289765 226:0.156256 227:0.0390495 228:0.00804297 229:0.127602 230:0.131418 231:0.0761065 232:0.883929 233:0.0133929 234:0.0133929 235:0.0178571 236:0.0714286 237:0.176348 238:0.232613 239:0.00482047 240:0.0482161 241:0.0795191 242:0.0666081 243:0.124646 244:0.195801 245:0 246:0.0317331 247:0.111124 248:0.128106 249:0.144081 250:0.0898696 251:0.0493501 252:0.289649 253:0.156088 254:0.0760746 255:0.021416 256:0.0727223 257:0.216366 258:0.0811759 259:0.161718 260:0.177876 261:0.0472657 262:0.145385 263:0.16928 264:0.031344 265:0.0023296 266:0 267:0 268:0.104167 269:0.4375 270:0.520833 271:0.854167 272:0.6875 273:0.6875 274:0.620682 275:0.96414 276:0.654713 277:0.603142 278:0.208038 279:1 280:0.5 281:0.5 282:0.708333 283:0.4375 284:0.416667 285:0.150203 286:0 287:0.514981 288:0.982794 289:0.927295 290:0.463648 291:0.485455 292:0.557896 293:0.261097 294:0.519481 295:0.607143 296:0.662338 297:0.179799 298:0.35119 299:0.173469 300:0.0816327 301:0.682871 302:1 303:0.414811 304:1 305:0.95734 306:0.0103583 307:0.0219437 308:0.0103583 309:0.75904 310:0 311:0.220243 312:0.0207166 313:0.825349 314:0.0390495 315:0.0965524 316:0.0390495 317:0.010735 318:0.138084 319:0.175143 320:0.115754 321:0.758929 322:0.017416 323:0.0411491 324:0.0275463 325:0.0714286 326:0.107212 327:0.115776 328:0 329:0.168432 330:0.192078 331:0.0714286 332:0.104247 333:0.169398 334:0 335:0.083607 336:0.0592501 337:0.0408767 338:0.21562 339:0.11709 340:0.028495 341:0.241855 342:0.213207 343:0.0251627 344:0.0223105 345:0.0186361 346:0.187611 347:0.191627 348:0.18258 349:0.0802323 350:0.146558 351:0.145282 352:0.12771 353:0.0204162 354:0.00117126 355:0 356:0 
0 0 8.249317633779666e-12 0 0 0 1:0.0555556 2:0.462963 3:0.537037 4:0.759259 5:0.685185 6:0.722222 7:0.596253 8:0.962453 9:0.646038 10:0.621698 11:0.119609 12:0.5 13:0.5 14:0.5 15:0.712963 16:0.411765 17:0.365385 18:0.174675 19:0 20:0.378462 21:1.00887 22:0.91795 23:0.448723 24:0.795129 25:0.331882 26:0.281444 27:0.52688 28:0.636207 29:0.630172 30:0.0972777 31:0.189524 32:0.0714286 33:0.0297619 34:0.390375 35:1 36:0.164046 37:1 38:0.964854 39:0.00381911 40:0.0275082 41:0.00381911 42:0.875268 43:0.00190956 44:0.115184 45:0.00763822 46:0.854966 47:0.0212621 48:0.0964469 49:0.027325 50:0.00742386 51:0.095874 52:0.121651 53:0.0718919 54:0.834286 55:0.012716 56:0.0231677 57:0.0373862 58:0.0714286 59:0.133517 60:0.190524 61:0.011708 62:0.124183 63:0.147725 64:0.0597206 65:0.102411 66:0.158783 67:0 68:0.0744064 69:0.0684507 70:0.0753562 71:0.154473 72:0.132471 73:0.0681726 74:0.20897 75:0.2177 76:0.0598372 77:0.0143932 78:0.0669588 79:0.200817 80:0.102724 81:0.135883 82:0.126259 83:0.177312 84:0.115815 85:0.141051 86:0.0249108 87:0.00208017 88:0 89:0 90:0.0555556 91:0.462963 92:0.574074 93:0.796296 94:0.685185 95:0.685185 96:0.625055 97:0.974045 98:0.642214 99:0.571107 100:0.307775 101:0.5 102:0.5 103:0.5 104:0.703704 105:0.411765 106:0.386364 107:0.160489 108:0 109:0 110:1.00887 111:0.996491 112:0.386876 113:0.317317 114:0.802445 115:0.347557 116:0.533291 117:0.679825 118:0.594298 119:0.0821429 120:0.161429 121:0.0238095 122:0.015873 123:0.271289 124:1 125:0.0833333 126:1 127:0.967124 128:0 129:0.0328762 130:0 131:0.93359 132:0.00431079 133:0.0620994 134:0 135:0.832568 136:0.0154966 137:0.122752 138:0.0291835 139:0.00274551 140:0.0687989 141:0.0752369 142:0.0691437 143:0.95 144:3.83307e-10 145:0 146:0.0214286 147:0.0714286 148:0.180152 149:0.243671 150:0.00271924 151:0.0251581 152:0.0480607 153:0.0687093 154:0.142617 155:0.217484 156:0 157:0.0289075 158:0.11395 159:0.147726 160:0.124309 161:0.0804065 162:0.0724991 163:0.282502 164:0.149701 165:0.0931044 166:0.0175813 167:0.099544 168:0.215519 169:0.039163 170:0.181792 171:0.182144 172:0.029907 173:0.141245 174:0.190933 175:0.0378562 176:0.00304448 177:0 178:0 179:0.0625 180:0.458333 181:0.5625 182:0.854167 183:0.708333 184:0.729167 185:0.639778 186:0.967464 187:0.64762 188:0.598414 189:0.16377 190:0.5 191:0.5 192:0.5 193:0.739583 194:0.411765 195:0.375 196:0.225641 197:0 198:0.467399 199:0.954499 200:0.956133 201:0.463648 202:0.646307 203:0.427106 204:0.282723 205:0.513976 206:0.635 207:0.65625 208:0.196766 209:0.380952 210:0.174603 211:0.0793651 212:0.624253 213:1 214:0.292414 215:1 216:0.953534 217:0.00862159 218:0.0292233 219:0.00862159 220:0.773212 221:0.00431079 222:0.205234 223:0.0172432 224:0.767682 225:0.0350664 226:0.139877 227:0.057375 228:0.0157391 229:0.179817 230:0.200443 231:0.110198 232:0.742857 233:0.0210757 234:0.047205 235:0.023443 236:0.0714286 237:0.123964 238:0.153873 239:0 240:0.122785 241:0.149585 242:0.0714286 243:0.114347 244:0.192589 245:0 246:0.0612671 247:0.08159 248:0.0590119 249:0.166661 250:0.143034 251:0.0134604 252:0.241557 253:0.233418 254:0.027471 255:0.00964557 256:0.0344014 257:0.183183 258:0.130642 259:0.156985 260:0.135026 261:0.140092 262:0.182554 263:0.152183 264:0.0280377 265:0.00210402 266:0 267:0 268:0.166667 269:0.428571 270:0.380952 271:0.880952 272:0.714286 273:0.619048 274:0.624642 275:0.943484 276:0.677394 277:0.647828 278:0.385858 279:0.5 280:0.5 281:1 282:0.654762 283:0.4375 284:0.375 285:0 286:0 287:0.433509 288:0.91972 289:1.21203 290:0.2783 291:0.260883 292:0.981098 293:0.270244 294:0.515244 295:0.560976 296:0.67378 297:0.015873 298:0.031746 299:0 300:0 301:0.259184 302:1 303:0.0857143 304:1 305:0.976077 306:0 307:0.023923 308:0 309:0.878423 310:0 311:0.116871 312:0.00470525 313:0.971372 314:0.00470525 315:0.023923 316:0 317:0.00129877 318:0.031639 319:0.0461989 320:0.018462 321:0.968254 322:0 323:0 324:0.0238095 325:0.0714286 326:0.0980368 327:0.148934 328:0 329:0.175394 330:0.166028 331:0.0714286 332:0.104005 333:0.164745 334:0.142857 335:0 336:0 337:0.105392 338:0.186296 339:0.0822086 340:0.0255602 341:0.305909 342:0.151776 343:0.150076 344:0.0306122 345:0.0931209 346:0.164811 347:0.219973 348:0.120199 349:0.00375757 350:0.0973113 351:0.120138 352:0.140782 353:0.0223366 354:0.0005162 355:0 356:0 
0 0 0 0 0 2.735153261947762e-12 1:0.0681818 2:0.409091 3:0.522727 4:0.886364 5:0.727273 6:0.75 7:0.618324 8:0.951129 9:0.675439 10:0.625314 11:0.106585 12:0.5 13:1 14:0.5 15:0.727273 16:0.434211 17:0.410714 18:0.112195 19:0.0053426 20:0.299186 21:0.858439 22:0.93577 23:0.566729 24:1 25:0.293843 26:0.260014 27:0.535277 28:0.598645 29:0.631944 30:0.366344 31:0.33467 32:0.150161 33:0.0767196 34:0.424682 35:1 36:0.228538 37:1 38:0.899157 39:0.014742 40:0.0687071 41:0.0173943 42:0.825339 43:0.00982802 44:0.130434 45:0.0343981 46:0.827134 47:0.0479697 48:0.104768 49:0.0201282 50:0.00703259 51:0.0841031 52:0.107769 53:0.0665586 54:0.740625 55:0.0289117 56:0.0690975 57:0.0394083 58:0.0714286 59:0.140465 60:0.165602 61:0 62:0.152692 63:0.103881 64:0.0714286 65:0.1213 66:0.173203 67:0 68:0.0962553 69:0.0466019 70:0.0519473 71:0.19779 72:0.161954 73:0.0187624 74:0.181513 75:0.245176 76:0.0278658 77:0.0115931 78:0.0290656 79:0.205054 80:0.107445 81:0.161324 82:0.138736 83:0.148467 84:0.17045 85:0.161795 86:0.0323736 87:0.00266052 88:0 89:0 90:0.0681818 91:0.409091 92:0.568182 93:0.840909 94:0.727273 95:0.704545 96:0.592334 97:0.956304 98:0.68789 99:0.580524 100:0.235815 101:0.5 102:1 103:0.5 104:0.738636 105:0.434211 106:0.4375 107:0.253184 108:0 109:0.215207 110:0.858439 111:1.00748 112:0.499347 113:0.448829 114:0.670938 115:0.293671 116:0.516955 117:0.647177 118:0.602823 119:0.167381 120:0.289116 121:0.0416667 122:0.0357143 123:0.465775 124:1 125:0.217893 126:1 127:0.958321 128:0.0172777 129:0.0244014 130:0 131:0.863859 132:0 133:0.118864 134:0.0172777 135:0.749829 136:0.0468488 137:0.16766 138:0.035662 139:0.00917959 140:0.123845 141:0.199749 142:0.118681 143:0.827699 144:0.0108263 145:0.0336221 146:0.0258118 147:0.0714286 148:0.170889 149:0.183484 150:0 151:0.0911777 152:0.07809 153:0.0714286 154:0.128727 155:0.204775 156:0 157:0.0592448 158:0.0836124 159:0.0963148 160:0.196036 161:0.1014 162:0 163:0.291146 164:0.172246 165:0.0416544 166:0.0159506 167:0.0369665 168:0.210874 169:0.104755 170:0.207555 171:0.172156 172:0.0509454 173:0.159142 174:0.184352 175:0.0396845 176:0.00328385 177:0 178:0 179:0.166667 180:0.452381 181:0.452381 182:0.928571 183:0.738095 184:0.690476 185:0.61033 186:0.949325 187:0.668497 188:0.640414 189:0.158528 190:1 191:0.5 192:0.5 193:0.666667 194:0.411765 195:0.386364 196:0 197:0 198:0.391769 199:0.890275 200:0.996491 201:0.482513 202:0.668519 203:0.436288 204:0.261024 205:0.52067 206:0.580685 207:0.667188 208:0.641398 209:0.492063 210:0.27191 211:0.15873 212:0.655847 213:1 214:0.468254 215:1 216:0.862987 217:0.0230369 218:0.0732043 219:0.0407723 220:0.703879 221:0.0115184 222:0.221251 223:0.0633514 224:0.794555 225:0.0734519 226:0.0974377 227:0.0345553 228:0.0110564 229:0.0722351 230:0.07967 231:0.0825677 232:0.744898 233:0.0237196 234:0.0616933 235:0.0391629 236:0.0714286 237:0.101543 238:0.125734 239:0 240:0.194163 241:0.13893 242:0.0714286 243:0.119509 244:0.177263 245:0 246:0.136477 247:0.0063805 248:0.0383468 249:0.265214 250:0.107295 251:0.0269185 252:0.222881 253:0.196487 254:0.00510438 255:0.0354581 256:0.0215177 257:0.220934 258:0.189882 259:0.219361 260:0.0699783 261:0.111468 262:0.126297 263:0.149694 264:0.0267366 265:0.00141839 266:0 267:0 268:0.175 269:0.475 270:0.375 271:0.925 272:0.775 273:0.575 274:0.632684 275:0.950631 276:0.680253 277:0.620168 278:0.377039 279:0.5 280:0.5 281:0.5 282:0.6375 283:0.4375 284:0.416667 285:0 286:0.0226541 287:0 288:0.896055 289:1.21203 290:0.291457 291:0.275888 292:0.951472 293:0.280912 294:0.583333 295:0.532051 296:0.666667 297:0.331633 298:0.234694 299:0.136905 300:0.0357143 301:0.185714 302:1 303:0.015873 304:1 305:0.871355 306:0.0115184 307:0.117127 308:0 309:0.906881 310:0.0172777 311:0.0585634 312:0.0172777 313:0.973841 314:0.00575922 315:0.0146409 316:0.00575922 317:0 318:0 319:0.00408008 320:0.0134685 321:0.923469 322:0.00510204 323:0.0408163 324:0 325:0.0714286 326:0.103148 327:0.197936 328:0 329:0.145824 330:0.127132 331:0.0714286 332:0.0982108 333:0.184891 334:0.142857 335:0 336:0 337:0.142857 338:0.166009 339:0.0532906 340:0 341:0.370204 342:0.124782 343:0.142857 344:0.0135714 345:0.129286 346:0.229028 347:0.199534 348:0.113481 349:0 350:0.0625031 351:0.109741 352:0.159906 353:0.0275215 354:0.000409267 355:0 356:0 
0 2.668896630601412e-12 0 1.825039028374221e-12 1.123086875577433e-11 0 1:0.0681818 2:0.386364 3:0.522727 4:0.886364 5:0.704545 6:0.75 7:0.629614 8:0.951129 9:0.675439 10:0.625314 11:0.107157 12:0.5 13:1 14:0.5 15:0.727273 16:0.430556 17:0.410714 18:0.112797 19:0.0053713 20:0.300793 21:0.885067 22:0.909753 23:0.566729 24:1 25:0.29005 26:0.259629 27:0.535523 28:0.597586 29:0.632867 30:0.366344 31:0.33467 32:0.150161 33:0.0767196 34:0.399472 35:1 36:0.228538 37:1 38:0.901239 39:0.014742 40:0.066625 41:0.0173943 42:0.825339 43:0.00982802 44:0.130434 45:0.0343981 46:0.827134 47:0.0479697 48:0.104768 49:0.0201282 50:0.00664159 51:0.074138 52:0.0983948 53:0.0665154 54:0.748144 55:0.0289117 56:0.0690975 57:0.0394083 58:0.0714286 59:0.145879 60:0.147338 61:0 62:0.181813 63:0.0981611 64:0.0714286 65:0.134376 66:0.149576 67:0 68:0.090522 69:0.0523352 70:0.0466613 71:0.20945 72:0.191986 73:0.0126806 74:0.158149 75:0.238216 76:0.022698 77:0.0115931 78:0.0238978 79:0.198889 80:0.111018 81:0.151897 82:0.142474 83:0.158835 84:0.178698 85:0.156311 86:0.0302823 87:0.00233626 88:0 89:0 90:0.0681818 91:0.386364 92:0.568182 93:0.840909 94:0.704545 95:0.704545 96:0.603735 97:0.956304 98:0.68789 99:0.580524 100:0.217052 101:0.5 102:1 103:0.5 104:0.738636 105:0.430556 106:0.4375 107:0.244692 108:0 109:0.267996 110:0.885067 111:0.982794 112:0.499347 113:0.487627 114:0.605903 115:0.286832 116:0.513621 117:0.639706 118:0.619485 119:0.223893 120:0.347279 121:0.0489068 122:0.0515873 123:0.430929 124:1 125:0.27417 126:1 127:0.957442 128:0.0230369 129:0.0195211 130:0 131:0.839457 132:0 133:0.143265 134:0.0172777 135:0.734309 136:0.0468488 137:0.177421 138:0.0414212 139:0.00563732 140:0.127986 141:0.189013 142:0.09553 143:0.797087 144:0.0108263 145:0.039411 146:0.0404311 147:0.0714286 148:0.170254 149:0.15728 150:0 151:0.133317 152:0.0873561 153:0.0714286 154:0.136606 155:0.17233 156:0 157:0.0632649 158:0.0795923 159:0.0816981 160:0.218667 161:0.142883 162:0 163:0.242193 164:0.171703 165:0.0345116 166:0.0159506 167:0.0298236 168:0.192704 169:0.119543 170:0.191032 171:0.17756 172:0.0733147 173:0.16556 174:0.17215 175:0.0353398 176:0.00275402 177:0 178:0 179:0.125 180:0.45 181:0.425 182:0.925 183:0.75 184:0.675 185:0.633857 186:0.949325 187:0.668497 188:0.640414 189:0.16055 190:0.853553 191:0.5 192:0.853553 193:0.675 194:0.411765 195:0.375 196:0 197:0 198:0.360695 199:0.866302 200:1.03907 201:0.463648 202:0.693106 203:0.423817 204:0.266875 205:0.530426 206:0.559555 207:0.674051 208:0.689225 209:0.486621 210:0.276575 211:0.166667 212:0.613214 213:1 214:0.353175 215:1 216:0.838585 217:0.0230369 218:0.0976057 219:0.0407723 220:0.717641 221:0.0115184 222:0.20173 223:0.0691107 224:0.815834 225:0.0734519 226:0.0876771 227:0.0230369 228:0.00791182 229:0.0557461 230:0.0415263 231:0.0645932 232:0.765306 233:0.0357143 234:0.0357143 235:0.0327391 236:0.0714286 237:0.12443 238:0.172674 239:0 240:0.173179 241:0.107755 242:0.0714286 243:0.11496 244:0.164145 245:0 246:0.142857 247:0 248:0.0490585 249:0.260666 250:0.100667 251:0.0239558 252:0.231975 253:0.190819 254:0.0161992 255:0.0293647 256:0.0236417 257:0.273033 258:0.164677 259:0.212065 260:0.0672972 261:0.0940064 262:0.119715 263:0.161605 264:0.029797 265:0.00129353 266:0 267:0 268:0.175 269:0.425 270:0.375 271:0.925 272:0.775 273:0.575 274:0.64736 275:0.940415 276:0.705527 277:0.617444 278:0.482232 279:0.5 280:1 281:0.5 282:0.6375 283:0.421875 284:0.416667 285:0 286:0.0566352 287:0 288:0.896055 289:1.21203 290:0.291457 291:0.220711 292:1.18934 293:0.282676 294:0.625 295:0.572581 296:0.584677 297:0.22449 298:0.204082 299:0.125 300:0.0119048 301:0.142857 302:1 303:0.015873 304:1 305:0.900636 306:0.0115184 307:0.0878451 308:0 309:0.922401 310:0.0172777 311:0.0488028 312:0.0115184 313:0.9796 314:0.00575922 315:0.0146409 316:0 317:0 318:0 319:0.000837201 320:0.00817181 321:0.928571 322:0 323:0.0408163 324:4.53152e-18 325:0.0714286 326:0.103148 327:0.198569 328:0 329:0.144753 330:0.126409 331:0.0714286 332:0.100002 333:0.184261 334:0.142857 335:0 336:0 337:0.135714 338:0.166009 339:0.0604334 340:0 341:0.363061 342:0.131925 343:0.142857 344:0.00642857 345:0.129286 346:0.228793 347:0.1984 348:0.109647 349:0 350:0.0694438 351:0.115144 352:0.161487 353:0.0280552 354:0.000446503 355:0 356:0 
0 0 0 0 0 1.268804537460742e-12 1:0.0681818 2:0.386364 3:0.522727 4:0.886364 5:0.704545 6:0.75 7:0.629614 8:0.951129 9:0.675439 10:0.625314 11:0.105458 12:0.5 13:1 14:0.5 15:0.727273 16:0.430556 17:0.410714 18:0.111009 19:0 20:0.301309 21:0.885067 22:0.909753 23:0.566729 24:1 25:0.28545 26:0.258807 27:0.534793 28:0.592156 29:0.638699 30:0.348026 31:0.317937 32:0.142257 33:0.0726817 34:0.385215 35:1 36:0.214254 37:1 38:0.901768 39:0.0140698 40:0.0675609 41:0.0166011 42:0.831317 43:0.00937984 44:0.126473 45:0.0328294 46:0.835017 47:0.0457822 48:0.0999906 49:0.0192103 50:0.00632424 51:0.0705956 52:0.0940697 53:0.0659986 54:0.757165 55:0.0274661 56:0.0656426 57:0.0374379 58:0.0714286 59:0.144976 60:0.147014 61:0 62:0.183709 63:0.0982268 64:0.0714286 65:0.134739 66:0.148479 67:0 68:0.0906676 69:0.0521896 70:0.0446325 71:0.207378 72:0.198193 73:0.0121293 74:0.153924 75:0.240886 76:0.0217111 77:0.011089 78:0.0228587 79:0.197108 80:0.109929 81:0.148671 82:0.143988 83:0.162421 84:0.182225 85:0.155506 86:0.0299541 87:0.00228551 88:0 89:0 90:0.0681818 91:0.386364 92:0.568182 93:0.840909 94:0.704545 95:0.704545 96:0.603735 97:0.956304 98:0.68789 99:0.580524 100:0.217052 101:0.5 102:1 103:0.5 104:0.738636 105:0.430556 106:0.4375 107:0.244692 108:0 109:0.267996 110:0.885067 111:0.982794 112:0.499347 113:0.487627 114:0.605903 115:0.286832 116:0.513621 117:0.639706 118:0.619485 119:0.223893 120:0.347279 121:0.0489068 122:0.0515873 123:0.430929 124:1 125:0.27417 126:1 127:0.957442 128:0.0230369 129:0.0195211 130:0 131:0.839457 132:0 133:0.143265 134:0.0172777 135:0.734309 136:0.0468488 137:0.177421 138:0.0414212 139:0.00563732 140:0.127986 141:0.189013 142:0.09553 143:0.797087 144:0.0108263 145:0.039411 146:0.0404311 147:0.0714286 148:0.170254 149:0.15728 150:0 151:0.133317 152:0.0873561 153:0.0714286 154:0.136606 155:0.17233 156:0 157:0.0632649 158:0.0795923 159:0.0816981 160:0.218667 161:0.142883 162:0 163:0.242193 164:0.171703 165:0.0345116 166:0.0159506 167:0.0298236 168:0.192704 169:0.119543 170:0.191032 171:0.17756 172:0.0733147 173:0.16556 174:0.17215 175:0.0353398 176:0.00275402 177:0 178:0 179:0.125 180:0.45 181:0.425 182:0.925 183:0.75 184:0.675 185:0.633857 186:0.949325 187:0.668497 188:0.640414 189:0.16055 190:0.853553 191:0.5 192:0.853553 193:0.675 194:0.411765 195:0.375 196:0 197:0 198:0.360695 199:0.866302 200:1.03907 201:0.463648 202:0.693106 203:0.423817 204:0.266875 205:0.530426 206:0.559555 207:0.674051 208:0.689225 209:0.486621 210:0.276575 211:0.166667 212:0.613214 213:1 214:0.353175 215:1 216:0.838585 217:0.0230369 218:0.0976057 219:0.0407723 220:0.717641 221:0.0115184 222:0.20173 223:0.0691107 224:0.815834 225:0.0734519 226:0.0876771 227:0.0230369 228:0.00791182 229:0.0557461 230:0.0415263 231:0.0645932 232:0.765306 233:0.0357143 234:0.0357143 235:0.0327391 236:0.0714286 237:0.12443 238:0.172674 239:0 240:0.173179 241:0.107755 242:0.0714286 243:0.11496 244:0.164145 245:0 246:0.142857 247:0 248:0.0490585 249:0.260666 250:0.100667 251:0.0239558 252:0.231975 253:0.190819 254:0.0161992 255:0.0293647 256:0.0236417 257:0.273033 258:0.164677 259:0.212065 260:0.0672972 261:0.0940064 262:0.119715 263:0.161605 264:0.029797 265:0.00129353 266:0 267:0 268:0.175 269:0.475 270:0.375 271:0.925 272:0.775 273:0.575 274:0.632684 275:0.950631 276:0.680253 277:0.620168 278:0.601779 279:0.5 280:0.5 281:0.5 282:0.6375 283:0.4375 284:0.416667 285:0 286:0 287:0 288:0.896055 289:1.21203 290:0.291457 291:0.172855 292:1.51861 293:0.284381 294:0.61 295:0.52 296:0.64 297:0.147959 298:0.153061 299:0.0952381 300:1.42834e-33 301:0.0857143 302:1 303:7.14171e-34 304:1 305:0.921915 306:0 307:0.0780845 308:0 309:0.937921 310:0.0115184 311:0.0390423 312:0.0115184 313:0.99512 314:0 315:0.00488028 316:0 317:0 318:0 319:0.00519839 320:0.0342839 321:0.94898 322:0 323:0.0102041 324:0 325:0.0714286 326:0.103148 327:0.199202 328:0 329:0.14338 330:0.123668 331:0.0714286 332:0.101248 333:0.186497 334:0.142857 335:0 336:0 337:0.135714 338:0.160299 339:0.068507 340:0 341:0.354197 342:0.138426 343:0.142857 344:0.00642857 345:0.129286 346:0.229508 347:0.189262 348:0.106441 349:0 350:0.0755576 351:0.12066 352:0.162655 353:0.0284539 354:0.000480969 355:0 356:0 
0 0 0 0 0 1.044459152216034e-11 1:0.075 2:0.375 3:0.525 4:0.875 5:0.725 6:0.725 7:0.608125 8:0.946516 9:0.695351 10:0.611629 11:0.106056 12:0.5 13:0.5 14:0.5 15:0.725 16:0.458333 17:0.458333 18:0.0710337 19:0 20:0.307813 21:0.837981 22:0.982794 23:0.54042 24:1 25:0.295974 26:0.28113 27:0.557559 28:0.594178 29:0.622937 30:0.173998 31:0.275362 32:0.0445336 33:0.0378788 34:0.437023 35:1 36:0.181028 37:1 38:0.942177 39:0.00825103 40:0.0454468 41:0.00412552 42:0.842894 43:0.00412552 44:0.141078 45:0.0119018 46:0.890558 47:0.014361 48:0.0729433 49:0.0221373 50:0.00265338 51:0.0537157 52:0.130685 53:0.0767047 54:0.816809 55:0.0224596 56:0.0221737 57:0.0379812 58:0.0714286 59:0.161368 60:0.146304 61:0 62:0.142537 63:0.101622 64:0.0714286 65:0.138482 66:0.166831 67:0 68:0.0831583 69:0.0596988 70:0.0740647 71:0.209944 72:0.151924 73:0.0449632 74:0.188636 75:0.18761 76:0.0558682 77:0.0124613 78:0.0499734 79:0.205034 80:0.100899 81:0.172827 82:0.119482 83:0.131988 84:0.151467 85:0.190136 86:0.0447961 87:0.00475864 88:0 89:0 90:0.075 91:0.375 92:0.55 93:0.825 94:0.725 95:0.75 96:0.585829 97:0.940415 98:0.705527 99:0.617444 100:0.229266 101:0.5 102:0.5 103:0.5 104:0.7375 105:0.458333 106:0.454545 107:0.13463 108:0 109:0.053852 110:0.837981 111:1.02225 112:0.502843 113:0.464236 114:0.659687 115:0.322565 116:0.603987 117:0.605159 118:0.577381 119:0.198716 120:0.29127 121:0.0178571 122:0.0178571 123:0.418612 124:1 125:0.1 126:1 127:0.934051 128:0.00470525 129:0.0518331 130:0.00941049 131:0.875743 132:0.00941049 133:0.110141 134:0.00470525 135:0.857604 136:0.0186423 137:0.0946182 138:0.0291356 139:0.000127219 140:0.0412095 141:0.0866726 142:0.0796972 143:0.920635 144:0 145:0.00793651 146:0.015873 147:0.0714286 148:0.199551 149:0.192098 150:0 151:0.0387609 152:0.038984 153:0.0714286 154:0.166516 155:0.221233 156:0 157:0.0551085 158:0.0877487 159:0.153818 160:0.181942 161:0.0853679 162:0.0814922 163:0.2631 164:0.0914235 165:0.11312 166:0.0188996 167:0.0986489 168:0.244215 169:0.0446148 170:0.207958 171:0.103068 172:0.01919 173:0.150286 174:0.227153 175:0.0596642 176:0.00623755 177:0 178:0 179:0.075 180:0.4 181:0.55 182:0.875 183:0.75 184:0.75 185:0.629521 186:0.946516 187:0.695351 188:0.611629 189:0.170972 190:0.5 191:0.5 192:0 193:0.725 194:0.426471 195:0.409091 196:0.0858847 197:0 198:0.505765 199:0.866302 200:0.996491 201:0.502843 202:0.654948 203:0.458052 204:0.273161 205:0.511961 206:0.606105 207:0.670916 208:0.239636 209:0.445767 210:0.0778245 211:0.0863095 212:0.594499 213:1 214:0.38473 215:1 216:0.957974 217:0.0141157 218:0.0279101 219:0 220:0.752161 221:0 222:0.230101 223:0.0177382 224:0.836243 225:0.0280528 226:0.0946182 227:0.0410857 228:0.00639483 229:0.108353 230:0.196833 231:0.106468 232:0.758037 233:0.0440993 234:0.0421858 235:0.0466585 236:0.0714286 237:0.139596 238:0.143003 239:0 240:0.149188 241:0.146573 242:0.0714286 243:0.107618 244:0.171165 245:0 246:0.0743792 247:0.068478 248:0.0614221 249:0.169355 250:0.156757 251:0.0314267 252:0.185771 253:0.252411 254:0.0350613 255:0.0218691 256:0.0313084 257:0.163381 258:0.133012 259:0.144624 260:0.150414 261:0.147393 262:0.172936 263:0.168739 264:0.0351949 265:0.0030523 266:0 267:0 268:0.175 269:0.475 270:0.375 271:0.875 272:0.775 273:0.575 274:0.59865 275:0.9445 276:0.6905 277:0.627 278:0.294436 279:0.5 280:0.5 281:1 282:0.65 283:0.40625 284:0.416667 285:0 286:0 287:0.243058 288:0.896055 289:1.21203 290:0.291457 291:0.334283 292:0.785263 293:0.261655 294:0.530612 295:0.59949 296:0.645408 297:0.103175 298:0.15873 299:0.0401786 300:0.0267857 301:0.297959 302:1 303:0.0539683 304:1 305:0.95941 306:0.00470525 307:0.0358844 308:0 309:0.870449 310:0 311:0.124846 312:0.00470525 313:0.945295 314:0.00470525 315:0.0358844 316:0.0141157 317:0 318:0.0169726 319:0.07537 320:0.0374269 321:0.936508 322:0.00396825 323:0.0119048 324:0.0107219 325:0.0714286 326:0.0924744 327:0.149198 328:0 329:0.171921 330:0.215318 331:0.0714286 332:0.0688115 333:0.159419 334:0.142857 335:0 336:0 337:0.101562 338:0.153704 339:0.0834929 340:0.0174851 341:0.328164 342:0.172734 343:0.142857 344:0.0226183 345:0.0964293 346:0.124107 347:0.246916 348:0.118133 349:0.0366098 350:0.116526 351:0.0958044 352:0.142894 353:0.0230004 354:0.000457627 355:0 356:0 
0 0 0 1.359894543069408e-11 0 0 1:0.075 2:0.375 3:0.525 4:0.875 5:0.725 6:0.725 7:0.608125 8:0.946516 9:0.695351 10:0.611629 11:0.105432 12:0.5 13:0.5 14:0.5 15:0.725 16:0.458333 17:0.458333 18:0.0706157 19:0 20:0.306001 21:0.837981 22:0.982794 23:0.54042 24:1 25:0.294232 26:0.280062 27:0.558868 28:0.593537 29:0.622101 30:0.166748 31:0.263889 32:0.0425974 33:0.0362319 34:0.423652 35:1 36:0.171976 37:1 38:0.944407 39:0.00793281 40:0.043694 41:0.00396641 42:0.848954 43:0.00396641 44:0.135637 45:0.0114428 46:0.893099 47:0.0138071 48:0.0718106 49:0.0212835 50:0.00254694 51:0.0515609 52:0.124802 53:0.072285 54:0.824442 55:0.0215238 56:0.0212498 57:0.0363986 58:0.0714286 59:0.159779 60:0.145345 61:0 62:0.145484 63:0.103092 64:0.0714286 65:0.137958 66:0.165484 67:0 68:0.0835878 69:0.0592694 70:0.0713216 71:0.207514 72:0.156719 73:0.0432979 74:0.18418 75:0.19411 76:0.053799 77:0.0119998 78:0.0481225 79:0.202556 80:0.100888 81:0.170028 82:0.121626 83:0.136676 84:0.154306 85:0.189048 86:0.0443128 87:0.00467068 88:0 89:0 90:0.075 91:0.375 92:0.55 93:0.825 94:0.725 95:0.75 96:0.585829 97:0.940415 98:0.705527 99:0.617444 100:0.229266 101:0.5 102:0.5 103:0.5 104:0.7375 105:0.458333 106:0.454545 107:0.13463 108:0 109:0.053852 110:0.837981 111:1.02225 112:0.502843 113:0.464236 114:0.659687 115:0.322565 116:0.603987 117:0.605159 118:0.577381 119:0.198716 120:0.29127 121:0.0178571 122:0.0178571 123:0.418612 124:1 125:0.1 126:1 127:0.934051 128:0.00470525 129:0.0518331 130:0.00941049 131:0.875743 132:0.00941049 133:0.110141 134:0.00470525 135:0.857604 136:0.0186423 137:0.0946182 138:0.0291356 139:0.000127219 140:0.0412095 141:0.0866726 142:0.0796972 143:0.920635 144:0 145:0.00793651 146:0.015873 147:0.0714286 148:0.199551 149:0.192098 150:0 151:0.0387609 152:0.038984 153:0.0714286 154:0.166516 155:0.221233 156:0 157:0.0551085 158:0.0877487 159:0.153818 160:0.181942 161:0.0853679 162:0.0814922 163:0.2631 164:0.0914235 165:0.11312 166:0.0188996 167:0.0986489 168:0.244215 169:0.0446148 170:0.207958 171:0.103068 172:0.01919 173:0.150286 174:0.227153 175:0.0596642 176:0.00623755 177:0 178:0 179:0.075 180:0.4 181:0.55 182:0.875 183:0.75 184:0.75 185:0.629521 186:0.946516 187:0.695351 188:0.611629 189:0.170972 190:0.5 191:0.5 192:0 193:0.725 194:0.426471 195:0.409091 196:0.0858847 197:0 198:0.505765 199:0.866302 200:0.996491 201:0.502843 202:0.654948 203:0.458052 204:0.273161 205:0.511961 206:0.606105 207:0.670916 208:0.239636 209:0.445767 210:0.0778245 211:0.0863095 212:0.594499 213:1 214:0.38473 215:1 216:0.957974 217:0.0141157 218:0.0279101 219:0 220:0.752161 221:0 222:0.230101 223:0.0177382 224:0.836243 225:0.0280528 226:0.0946182 227:0.0410857 228:0.00639483 229:0.108353 230:0.196833 231:0.106468 232:0.758037 233:0.0440993 234:0.0421858 235:0.0466585 236:0.0714286 237:0.139596 238:0.143003 239:0 240:0.149188 241:0.146573 242:0.0714286 243:0.107618 244:0.171165 245:0 246:0.0743792 247:0.068478 248:0.0614221 249:0.169355 250:0.156757 251:0.0314267 252:0.185771 253:0.252411 254:0.0350613 255:0.0218691 256:0.0313084 257:0.163381 258:0.133012 259:0.144624 260:0.150414 261:0.147393 262:0.172936 263:0.168739 264:0.0351949 265:0.0030523 266:0 267:0 268:0.175 269:0.475 270:0.375 271:0.875 272:0.775 273:0.575 274:0.59865 275:0.9445 276:0.6905 277:0.627 278:0.362146 279:0.5 280:0.5 281:1 282:0.625 283:0.40625 284:0.416667 285:0 286:0 287:0.18397 288:0.896055 289:1.21203 290:0.291457 291:0.271783 292:0.965844 293:0.261862 294:0.55 295:0.615625 296:0.615625 297:0.0912698 298:0.134921 299:0.03125 300:0.00892857 301:0.217347 302:1 303:8.57006e-34 304:1 305:0.963397 306:0.00470525 307:0.0318973 308:0 309:0.90359 310:0 311:0.0917047 312:0.00470525 313:0.945295 314:0.00470525 315:0.0358844 316:0.0141157 317:0 318:0.00645087 319:0.0551955 320:0.0283818 321:0.968254 322:0.00396825 323:0.0119048 324:0 325:0.0714286 326:0.0911672 327:0.151299 328:0 329:0.16941 330:0.216271 331:0.0714286 332:0.0688115 333:0.160184 334:0.142857 335:0 336:0 337:0.0892857 338:0.155777 339:0.0933789 340:0.00595238 341:0.324482 342:0.188266 343:0.142857 344:0.00863095 345:0.0866071 346:0.121934 347:0.250896 348:0.11592 349:0.0386002 350:0.128905 351:0.105651 352:0.143371 353:0.0230307 354:0.000384407 355:0 356:0 
0 8.919110495969442e-12 0 0 0 0 1:0.075 2:0.375 3:0.525 4:0.875 5:0.725 6:0.725 7:0.608125 8:0.946516 9:0.695351 10:0.611629 11:0.104815 12:0.5 13:0.5 14:0.5 15:0.725 16:0.458333 17:0.458333 18:0.0702026 19:0 20:0.304211 21:0.837981 22:0.982794 23:0.54042 24:1 25:0.292511 26:0.27902 27:0.55847 28:0.591216 29:0.624654 30:0.160078 31:0.253333 32:0.0408225 33:0.0347222 34:0.405232 35:1 36:0.163787 37:1 38:0.944853 39:0.00763822 40:0.0436895 41:0.00381911 42:0.854563 43:0.00381911 44:0.1306 45:0.0110179 46:0.897069 47:0.0132944 48:0.0691439 49:0.0204932 50:0.00244871 51:0.0495723 52:0.119988 53:0.0699509 54:0.831465 55:0.0206628 56:0.0203998 57:0.0349427 58:0.0714286 59:0.159027 60:0.143732 61:0 62:0.148162 63:0.104778 64:0.0714286 65:0.137384 66:0.16406 67:0 68:0.0839865 69:0.0588706 70:0.0687744 71:0.205388 72:0.161557 73:0.0417516 74:0.179987 75:0.199685 76:0.0518777 77:0.0115712 78:0.0464038 79:0.200254 80:0.100768 81:0.167311 82:0.123616 83:0.141501 84:0.156697 85:0.187929 86:0.0437986 87:0.00457672 88:0 89:0 90:0.075 91:0.375 92:0.55 93:0.875 94:0.725 95:0.75 96:0.616345 97:0.946516 98:0.695351 99:0.611629 100:0.214077 101:0.5 102:0.5 103:0.5 104:0.725 105:0.458333 106:0.454545 107:0.131434 108:0 109:0.0836401 110:0.837981 111:1.02225 112:0.502843 113:0.523074 114:0.585481 115:0.317737 116:0.578836 117:0.626736 118:0.578125 119:0.207415 120:0.319286 121:0.047619 122:0.015873 123:0.420292 124:1 125:0.0833333 126:1 127:0.93958 128:0.00431079 129:0.0474878 130:0.00862159 131:0.875201 132:0.00862159 133:0.111866 134:0.00431079 135:0.843313 136:0.0213903 137:0.108604 138:0.0266931 139:0.00445208 140:0.0414363 141:0.0991656 142:0.0792242 143:0.892857 144:0.00357143 145:0.0107143 146:0.0142857 147:0.0714286 148:0.192912 149:0.188151 150:0 151:0.0542 152:0.0442952 153:0.0714286 154:0.161427 155:0.216157 156:0 157:0.0559401 158:0.0869171 159:0.149255 160:0.184566 161:0.08957 162:0.0752236 163:0.262498 164:0.0960303 165:0.102143 166:0.0259353 167:0.0917529 168:0.239057 169:0.0561134 170:0.202549 171:0.108272 172:0.0215113 173:0.152666 174:0.22227 175:0.0574499 176:0.00589754 177:0 178:0 179:0.075 180:0.4 181:0.475 182:0.875 183:0.75 184:0.775 185:0.639815 186:0.933224 187:0.689536 188:0.662459 189:0.170929 190:0.853553 191:0.853553 192:0.5 193:0.725 194:0.426471 195:0.416667 196:0.0740505 197:0 198:0.52761 199:0.866302 200:0.956133 201:0.54042 202:0.675215 203:0.45356 204:0.260373 205:0.497484 206:0.607955 207:0.684077 208:0.215672 209:0.386905 210:0.0771139 211:0.0767196 212:0.579573 213:1 214:0.333175 215:1 216:0.953534 217:0.0172432 218:0.0292233 219:0 220:0.765632 221:0 222:0.218117 223:0.0162511 224:0.845003 225:0.0300119 226:0.0830332 227:0.0419522 228:0.00303898 229:0.0812175 230:0.192112 231:0.091065 232:0.782233 233:0.0396893 234:0.0236815 235:0.0562784 236:0.0714286 237:0.132922 238:0.134805 239:0 240:0.168417 241:0.160618 242:0.0714286 243:0.0991139 244:0.161267 245:0 246:0.0927776 247:0.0500795 248:0.0475269 249:0.203848 250:0.140958 251:0.0178769 252:0.208529 253:0.238404 254:0.0208924 255:0.0222576 256:0.0208214 257:0.188519 258:0.160565 259:0.158879 260:0.126142 261:0.150769 262:0.151155 263:0.160899 264:0.0320131 265:0.00253135 266:0 267:0 268:0.175 269:0.475 270:0.4 271:0.875 272:0.775 273:0.55 274:0.594888 275:0.95091 276:0.693247 277:0.596623 278:0.4235 279:0.5 280:0.5 281:0.5 282:0.625 283:0.40625 284:0.35 285:0 286:0 287:0 288:0.896055 289:1.26791 290:0.244979 291:0.229105 292:1.11848 293:0.264936 294:0.573529 295:0.584559 296:0.606618 297:0.0753968 298:0.103175 299:0.03125 300:0.00892857 301:0.188776 302:1 303:4.28503e-34 304:1 305:0.95941 306:0.00470525 307:0.0358844 308:0 309:0.927513 310:0 311:0.0677817 312:0.00470525 313:0.958692 314:0.00470525 315:0.0318973 316:0.00470525 317:0 318:0.00516069 319:0.0262887 320:0.0159704 321:0.97619 322:0 323:0.00793651 324:0 325:0.0714286 326:0.0912009 327:0.152058 328:0 329:0.166304 330:0.218353 331:0.0714286 332:0.0694074 333:0.15982 334:0.142857 335:0 336:0 337:0.13334 338:0.129133 339:0.0770903 340:0.0183224 341:0.349225 342:0.150032 343:0.142857 344:0.0290741 345:0.117379 346:0.138134 347:0.237193 348:0.101825 349:0.023491 350:0.11576 351:0.0942877 352:0.144177 353:0.0232212 354:0.000351188 355:0 356:0 
0 0 0 0 4.779067097191722e-11 2.562821660628745e-11 1:0.075 2:0.375 3:0.525 4:0.875 5:0.725 6:0.725 7:0.608125 8:0.946516 9:0.695351 10:0.611629 11:0.107862 12:0.5 13:0.5 14:0.5 15:0.725 16:0.430556 17:0.458333 18:0.0722433 19:0 20:0.331115 21:0.837981 22:0.982794 23:0.54042 24:1 25:0.301014 26:0.272297 27:0.547942 28:0.597222 29:0.629853 30:0.137178 31:0.199918 32:0.0349907 33:0.0297619 34:0.333293 35:1 36:0.133771 37:1 38:0.954803 39:0.00665037 40:0.0352215 41:0.00332519 42:0.878106 43:0.00166259 44:0.112301 45:0.00793035 46:0.91179 47:0.011575 48:0.0587927 49:0.0178428 50:0.00212144 51:0.0429666 52:0.102575 53:0.0541384 54:0.857174 55:0.0178128 56:0.017586 57:0.030123 58:0.0714286 59:0.152615 60:0.136234 61:0 62:0.162976 63:0.114792 64:0.0714286 65:0.135061 66:0.155464 67:0 68:0.0864258 69:0.0564314 70:0.0553413 71:0.197114 72:0.184286 73:0.0330679 74:0.15942 75:0.227912 76:0.0409287 77:0.00938549 78:0.0375302 79:0.187874 80:0.103277 81:0.154564 82:0.133645 83:0.166085 84:0.16671 85:0.18087 86:0.0405012 87:0.00393285 88:0 89:0 90:0.075 91:0.375 92:0.55 93:0.875 94:0.725 95:0.75 96:0.616345 97:0.946516 98:0.695351 99:0.611629 100:0.173599 101:0.5 102:0.5 103:0.5 104:0.725 105:0.430556 106:0.454545 107:0.116272 108:0 109:0.30037 110:0.837981 111:1.02225 112:0.502843 113:0.645037 114:0.474779 115:0.30655 116:0.554749 117:0.610294 118:0.614103 119:0.222288 120:0.365368 121:0.0571429 122:0.0428571 123:0.509156 124:1 125:0.153628 126:1 127:0.943039 128:0.0119321 129:0.037074 130:0.00795472 131:0.835367 132:0.00397736 133:0.149639 134:0.0110168 135:0.83859 136:0.0237131 137:0.106944 138:0.0307526 139:0.00253843 140:0.0628464 141:0.137582 142:0.103303 143:0.827922 144:0.00763298 145:0.0280813 146:0.0194805 147:0.0714286 148:0.184369 149:0.171474 150:0 151:0.0812421 152:0.0628173 153:0.0714286 154:0.156766 155:0.200475 156:0 157:0.0625962 158:0.0802609 159:0.123365 160:0.203989 161:0.10315 162:0.0631225 163:0.246366 164:0.117149 165:0.0855297 166:0.0187449 167:0.0784567 168:0.22264 169:0.0900144 170:0.193553 171:0.117115 172:0.0393379 173:0.154609 174:0.210015 175:0.0518497 176:0.00515536 177:0 178:0 179:0.125 180:0.45 181:0.425 182:0.875 183:0.75 184:0.675 185:0.602067 186:0.943484 187:0.677394 188:0.647828 189:0.186546 190:0.853553 191:0.5 192:0.853553 193:0.6875 194:0.411765 195:0.425 196:0 197:0 198:0.47432 199:0.866302 200:1.03907 201:0.463648 202:0.566601 203:0.518443 204:0.255182 205:0.517339 206:0.584936 207:0.664408 208:0.155775 209:0.272511 210:0.0444025 211:0.047619 212:0.443104 213:1 214:0.171066 215:1 216:0.957735 217:0.0119321 218:0.0303333 219:0 220:0.805478 221:0 222:0.175551 223:0.0189715 224:0.909345 225:0.0119321 226:0.0606665 227:0.0180562 228:0.00278422 229:0.0566519 230:0.141348 231:0.0586708 232:0.862975 233:0.0245281 234:0.024085 235:0.0322493 236:0.0714286 237:0.120594 238:0.126978 239:0 240:0.191331 241:0.176327 242:0.0714286 243:0.0903104 244:0.151603 245:0 246:0.139144 247:0.00371357 248:0.037598 249:0.217711 250:0.142813 251:0.0257936 252:0.172536 253:0.260692 254:0.0130644 255:0.031533 256:0.0134113 257:0.206974 258:0.159477 259:0.171872 260:0.0967282 261:0.171655 262:0.135286 263:0.150226 264:0.026984 265:0.00144878 266:0 267:0 268:0.175 269:0.475 270:0.4 271:0.875 272:0.775 273:0.55 274:0.594888 275:0.95091 276:0.693247 277:0.596623 278:0.724947 279:0.5 280:0.5 281:0.5 282:0.625 283:0.40625 284:0.45 285:0 286:0 287:0 288:0.896055 289:1.26791 290:0.244979 291:0.133839 292:1.91462 293:0.270217 294:0.65 295:0.55 296:0.56875 297:0.0519481 298:0.025974 299:0 300:0 301:0.047619 302:1 303:0 304:0 305:0.966296 306:0 307:0.0337036 308:0 309:0.9758 310:0 311:0.0202222 312:0.00397736 313:0.986519 314:0 315:0.0134814 316:0 317:0 318:0.000508595 319:0.00547943 320:0.00299451 321:1 322:0 323:0 324:0 325:0.0714286 326:0.0894135 327:0.155328 328:0 329:0.153947 330:0.219977 331:0.0714286 332:0.0733056 333:0.165173 334:0.142857 335:0 336:0 337:0.130342 338:0.1114 339:0.0891855 340:0 341:0.371804 342:0.154412 343:0.142857 344:0.00906405 345:0.119023 346:0.144726 347:0.23022 348:0.103543 349:0.0176988 350:0.131614 351:0.101255 352:0.148063 353:0.0243787 354:0.00036289 355:0 356:0 
0 2.680269640448686e-11 3.063713306338243e-11 2.233951576502122e-11 0 0 1:0.075 2:0.375 3:0.525 4:0.875 5:0.725 6:0.725 7:0.608125 8:0.946516 9:0.695351 10:0.611629 11:0.107862 12:0.5 13:0.5 14:0.5 15:0.725 16:0.430556 17:0.458333 18:0.0722433 19:0 20:0.331115 21:0.837981 22:0.982794 23:0.54042 24:1 25:0.301014 26:0.271483 27:0.547942 28:0.597222 29:0.629853 30:0.132605 31:0.193254 32:0.0337841 33:0.0287356 34:0.32139 35:1 36:0.128626 37:1 38:0.956219 39:0.00644208 40:0.0341183 41:0.00322104 42:0.881924 43:0.00161052 44:0.108784 45:0.00768197 46:0.914552 47:0.0112125 48:0.0569513 49:0.0172839 50:0.00205284 51:0.0415774 52:0.0992588 53:0.052388 54:0.861935 55:0.017219 56:0.0169998 57:0.0291189 58:0.0714286 59:0.151887 60:0.135448 61:0 62:0.164522 63:0.115868 64:0.0714286 65:0.134858 66:0.15456 67:0 68:0.0866781 69:0.056179 70:0.0536643 71:0.19557 72:0.187393 73:0.0320658 74:0.156636 75:0.231814 76:0.0396884 77:0.00910109 78:0.036393 79:0.186366 80:0.103102 81:0.152728 82:0.13497 83:0.169288 84:0.168363 85:0.18005 86:0.040104 87:0.00385133 88:0 89:0 90:0.075 91:0.375 92:0.55 93:0.875 94:0.725 95:0.7 96:0.609588 97:0.951466 98:0.697516 99:0.58465 100:0.163138 101:0.5 102:0.5 103:0.5 104:0.725 105:0.430556 106:0.477273 107:0.110477 108:0 109:0.322224 110:0.837981 111:1.02225 112:0.502843 113:0.678876 114:0.451114 115:0.30219 116:0.557262 117:0.601389 118:0.617487 119:0.215441 120:0.358135 121:0.0558972 122:0.047619 123:0.528241 124:1 125:0.198512 126:1 127:0.944 128:0.0110754 129:0.0375406 130:0.00738362 131:0.830981 132:0.00369181 133:0.15141 134:0.0139176 135:0.850179 136:0.0220107 137:0.099266 138:0.0285447 139:0.00339604 140:0.0664568 141:0.134807 142:0.0945868 143:0.798301 144:0.0182201 145:0.0261418 146:0.0362008 147:0.0714286 148:0.181194 149:0.166163 150:0 151:0.0916386 152:0.0682225 153:0.0714286 154:0.15444 155:0.195485 156:0 157:0.0645299 158:0.0783273 159:0.115141 160:0.205982 161:0.112772 162:0.0589143 163:0.23757 164:0.126764 165:0.0798277 166:0.0174953 167:0.0732263 168:0.217042 169:0.0949421 170:0.188688 171:0.120313 172:0.0507633 173:0.157702 174:0.205812 175:0.0499446 176:0.00490111 177:0 178:0 179:0.125 180:0.45 181:0.425 182:0.875 183:0.8 184:0.675 185:0.615598 186:0.933736 187:0.70241 188:0.644579 189:0.184629 190:0.853553 191:0.5 192:0.853553 193:0.6875 194:0.397059 195:0.425 196:0 197:0 198:0.448449 199:0.866302 200:1.03907 201:0.463648 202:0.585351 203:0.501836 204:0.255164 205:0.522869 206:0.587963 207:0.655232 208:0.142793 209:0.249802 210:0.0403659 211:0.04329 212:0.420222 213:1 214:0.149683 215:1 216:0.954512 217:0.0110754 218:0.0344123 219:0 220:0.816315 221:0 222:0.166076 223:0.0176094 224:0.915854 225:0.0110754 226:0.056311 227:0.0167599 228:0.00256886 229:0.05227 230:0.134754 231:0.0553192 232:0.874394 233:0.0224841 234:0.0280303 235:0.0295619 236:0.0714286 237:0.118943 238:0.128516 239:0 240:0.19087 241:0.177212 242:0.0714286 243:0.0886769 244:0.152925 245:0 246:0.139391 247:0.003466 248:0.0350914 249:0.214194 250:0.146557 251:0.024074 252:0.167879 253:0.269348 254:0.0121935 255:0.0294308 256:0.0125172 257:0.206349 258:0.156618 259:0.169227 260:0.0978862 261:0.177721 262:0.138058 263:0.150099 264:0.0268543 265:0.00139973 266:0 267:0 268:0.175 269:0.475 270:0.4 271:0.875 272:0.775 273:0.55 274:0.594888 275:0.95091 276:0.693247 277:0.596623 278:0.724947 279:0.5 280:0.5 281:0.5 282:0.625 283:0.40625 284:0.45 285:0 286:0 287:0 288:0.896055 289:1.26791 290:0.244979 291:0.133839 292:1.91462 293:0.270254 294:0.65 295:0.55 296:0.56875 297:0.047619 298:0.0238095 299:0 300:0 301:0.0428571 302:1 303:0 304:0 305:0.968716 306:0 307:0.0312839 308:0 309:0.977538 310:0 311:0.0187703 312:0.00369181 313:0.987486 314:0 315:0.0125135 316:0 317:0 318:0.000469256 319:0.00505561 320:0.00276289 321:1 322:0 323:0 324:0 325:0.0714286 326:0.089605 327:0.155113 328:0 329:0.152969 330:0.220219 331:0.0714286 332:0.0737926 333:0.165443 334:0.142857 335:0 336:0 337:0.1307 338:0.110548 339:0.0895749 340:0 341:0.37292 342:0.1534 343:0.142857 344:0.00898223 345:0.119196 346:0.144882 347:0.230285 348:0.104024 349:0.0175538 350:0.131361 351:0.10086 352:0.148032 353:0.0243595 354:0.000364438 355:0 356:0 
7.007128603265579e-12 0 0 4.620365851509265e-12 0 4.328513417508157e-12 1:0.108696 2:0.456522 3:0.586957 4:0.76087 5:0.717391 6:0.717391 7:0.516781 8:0.956435 9:0.682574 10:0.591287 11:0.0926632 12:0.5 13:0.5 14:0 15:0.684783 16:0.421053 17:0.431818 18:0.0620323 19:0.0056393 20:0.16354 21:0.88035 22:1.046 23:0.446106 24:0.963733 25:0.298883 26:0.302065 27:0.578878 28:0.594293 29:0.582344 30:0.195926 31:0.33254 32:0.0506588 33:0.0429505 34:0.545945 35:0.75 36:0.202849 37:1 38:0.926905 39:0.03295 40:0.0349841 41:0.00516059 42:0.833547 43:0.0103212 44:0.146405 45:0.00972738 46:0.794488 47:0.0426774 48:0.119952 49:0.0428825 50:0.00363331 51:0.0868597 52:0.137941 53:0.107037 54:0.839638 55:0.0274259 56:0.0213882 57:0.0479788 58:0.0714286 59:0.187905 60:0.201684 61:0 62:0.0806642 63:0.0843623 64:0.0714286 65:0.115575 66:0.186952 67:0 68:0.039274 69:0.103583 70:0.11495 71:0.160568 72:0.108433 73:0.0596416 74:0.262997 75:0.150554 76:0.079839 77:0.0274859 78:0.0599645 79:0.234212 80:0.0831903 81:0.152495 82:0.141933 83:0.0688408 84:0.15204 85:0.183822 86:0.0395941 87:0.0033492 88:0 89:0 90:0.108696 91:0.456522 92:0.586957 93:0.804348 94:0.76087 95:0.673913 96:0.552845 97:0.955104 98:0.699108 99:0.556888 100:0.258062 101:0.5 102:0.5 103:0 104:0.673913 105:0.407895 106:0.454545 107:0.234891 108:0 109:0 110:0.88035 111:1.046 112:0.446106 113:0.3702 114:0.778075 115:0.32146 116:0.648707 117:0.551724 118:0.497845 119:0.219388 120:0.377551 121:0.0595238 122:0.0714286 123:0.788095 124:0.75 125:0.238095 126:1 127:0.92816 128:0.0230369 129:0.0488028 130:0 131:0.870711 132:0.00575922 133:0.12353 134:0 135:0.826238 136:0.0345553 137:0.110411 138:0.0287961 139:0.000643588 140:0.0379607 141:0.0935086 142:0.108596 143:0.877551 144:0.0306122 145:0.0204082 146:0.0306122 147:0.0714286 148:0.203395 149:0.219343 150:0 151:0.0437751 152:0.0452175 153:0.0714286 154:0.123562 155:0.221851 156:0 157:0.0343515 158:0.108506 159:0.142812 160:0.142363 161:0.0873532 162:0.0759896 163:0.278913 164:0.129712 165:0.0956607 166:0.0314211 167:0.0819196 168:0.245754 169:0.0454745 170:0.166545 171:0.14893 172:0.0321306 173:0.152165 174:0.209975 175:0.0495357 176:0.00458695 177:0 178:0 179:0.0652174 180:0.434783 181:0.565217 182:0.76087 183:0.73913 184:0.695652 185:0.574009 186:0.951466 187:0.697516 188:0.58465 189:0.285401 190:0.5 191:0.5 192:0.5 193:0.717391 194:0.430556 195:0.475 196:0.177167 197:0 198:0 199:0.90675 200:1.0637 201:0.410127 202:0.337437 203:0.82141 204:0.34036 205:0.566822 206:0.629322 207:0.55163 208:0.141689 209:0.216327 210:0.0178571 211:0.0119048 212:0.183249 213:0.75 214:0 215:0 216:0.93573 217:0.03323 218:0.0195211 219:0.0115184 220:0.893119 221:0.0230369 222:0.0780845 223:0.00575922 224:0.805947 225:0.0274707 226:0.123159 227:0.043423 228:0.00227795 229:0.0554669 230:0.0917583 231:0.030677 232:0.989796 233:0 234:0 235:0 236:0.0714286 237:0.198264 238:0.222445 239:0 240:0.0298537 241:0.0540436 242:0.0714286 243:0.13332 244:0.219216 245:0 246:0.00996908 247:0.132888 248:0.154212 249:0.123298 250:0.0935954 251:0.0772088 252:0.268113 253:0.140716 254:0.109553 255:0.0310537 256:0.0843903 257:0.207986 258:0.0429464 259:0.153301 260:0.165767 261:0.0384859 262:0.166516 263:0.211156 264:0.0492449 265:0.00441173 266:0 267:0 268:0.0714286 269:0.404762 270:0.52381 271:0.833333 272:0.738095 273:0.714286 274:0.62189 275:0.946516 276:0.695351 277:0.611629 278:0.196976 279:1 280:0.5 281:0.5 282:0.738095 283:0.426471 284:0.4 285:0.208889 286:0 287:0.461755 288:0.890275 289:1.03907 290:0.444419 291:0.541413 292:0.527719 293:0.289982 294:0.528591 295:0.597222 296:0.665854 297:0.233073 298:0.409524 299:0.0793829 300:0.0460317 301:0.757305 302:0.75 303:0.365863 304:1 305:0.927122 306:0.032428 307:0.0274791 308:0.0129712 309:0.763157 310:0.00648561 311:0.212393 312:0.0179643 313:0.75705 314:0.0568779 315:0.123686 316:0.0623865 317:0.00258611 318:0.120192 319:0.155012 320:0.136333 321:0.821429 322:0 323:0.0115756 324:0.0453726 325:0.0714286 326:0.137476 327:0.168663 328:0 329:0.123662 330:0.131469 331:0.0714286 332:0.11822 333:0.177653 334:0 335:0.0580764 336:0.0847808 337:0.0853635 338:0.186261 339:0.0982965 340:0.082889 341:0.236232 342:0.1681 343:0.078534 344:0.0372369 345:0.0451877 346:0.204341 347:0.129794 348:0.159407 349:0.0923689 350:0.0926464 351:0.160485 352:0.17077 353:0.0347364 354:0.00253188 355:0 356:0 
0 1.13154637221514e-11 0 0 2.453862152399301e-11 1.226154357351315e-11 1:0.0652174 2:0.456522 3:0.5 4:0.76087 5:0.717391 6:0.717391 7:0.547119 8:0.949325 9:0.668497 10:0.640414 11:0.0998817 12:0.5 13:0 14:0.5 15:0.717391 16:0.421053 17:0.442308 18:0.0953686 19:0 20:0.314155 21:0.88035 22:0.970746 23:0.514451 24:0.968781 25:0.308545 26:0.283501 27:0.550372 28:0.580311 29:0.630842 30:0.186243 31:0.305833 32:0.0503057 33:0.0572264 34:0.468858 35:1 36:0.211704 37:1 38:0.928326 39:0.0252549 40:0.0417288 41:0.00468992 42:0.828761 43:0.00937984 44:0.148329 45:0.0135301 46:0.841473 47:0.0317501 48:0.0924951 49:0.0342815 50:0.0035751 51:0.0957492 52:0.15019 53:0.0854038 54:0.812044 55:0.0280009 56:0.0254138 57:0.0502396 58:0.0714286 59:0.171709 60:0.175897 61:0 62:0.115983 63:0.113915 64:0.0714286 65:0.113466 66:0.166173 67:0 68:0.079521 69:0.0633362 70:0.0976678 71:0.191857 72:0.105642 73:0.0892612 74:0.221038 75:0.151677 76:0.0919596 77:0.0248002 78:0.0673994 79:0.230373 80:0.0965708 81:0.169511 82:0.0951559 83:0.114828 84:0.109402 85:0.17358 86:0.0371969 87:0.00363021 88:0 89:0 90:0.0652174 91:0.456522 92:0.543478 93:0.804348 94:0.76087 95:0.673913 96:0.585854 97:0.956304 98:0.68789 99:0.580524 100:0.441239 101:0.5 102:0 103:0.5 104:0.706522 105:0.407895 106:0.477273 107:0.0473739 108:0 109:0 110:0.88035 111:1.046 112:0.446106 113:0.229442 114:1.25541 115:0.340188 116:0.64527 117:0.550676 118:0.503378 119:0.117347 120:0.193878 121:0.0238095 122:0.047619 123:0.450952 124:0.75 125:0.174603 126:0.695913 127:0.953441 128:0.0172777 129:0.0292817 130:0 131:0.925917 132:0.00575922 133:0.068324 134:0 135:0.891597 136:0.0115184 137:0.079607 138:0.0172777 139:0 140:0.00405992 141:0.0380811 142:0.0535999 143:0.938776 144:0.0204082 145:0 146:0.0306122 147:0.0714286 148:0.220354 149:0.207667 150:0 151:0.0225114 152:0.0274653 153:0.0714286 154:0.138971 155:0.240174 156:0 157:0.0363684 158:0.106489 159:0.156804 160:0.141188 161:0.0821519 162:0.0942726 163:0.269913 164:0.112813 165:0.116244 166:0.0232326 167:0.100711 168:0.243317 169:0.0215714 170:0.187471 171:0.139116 172:0.0238837 173:0.144454 174:0.228515 175:0.0564245 176:0.00555425 177:0 178:0 179:0.0652174 180:0.434783 181:0.543478 182:0.76087 183:0.73913 184:0.717391 185:0.574081 186:0.946516 187:0.695351 188:0.611629 189:0.241302 190:0.5 191:0.5 192:0.5 193:0.73913 194:0.430556 195:0.409091 196:0.282831 197:0 198:0.161618 199:0.90675 200:1.02225 201:0.446106 202:0.403528 203:0.700344 204:0.303528 205:0.533482 206:0.666496 207:0.607143 208:0.21455 209:0.384694 210:0.0840095 211:0.0502646 212:0.500711 213:0.5 214:0.290023 215:1 216:0.925091 217:0.0389892 218:0.0244014 219:0.0115184 220:0.872955 221:0.0172777 222:0.104008 223:0.00575922 224:0.771352 225:0.03323 226:0.147561 227:0.0478569 228:0.00577059 229:0.0936461 230:0.166401 231:0.100498 232:0.854319 233:0.0283339 234:0.0311803 235:0.0371548 236:0.0714286 237:0.178175 238:0.215479 239:0 240:0.0711632 241:0.0954775 242:0.0714286 243:0.116411 244:0.180437 245:0 246:0.0410151 247:0.101842 248:0.113074 249:0.183076 250:0.0695594 251:0.065643 252:0.297579 253:0.128212 254:0.0868189 255:0.0300544 256:0.0541507 257:0.25457 258:0.112002 259:0.165475 260:0.11306 261:0.0452414 262:0.138628 263:0.177504 264:0.0366971 265:0.00278444 266:0 267:0 268:0.166667 269:0.428571 270:0.428571 271:0.833333 272:0.714286 273:0.666667 274:0.567855 275:0.936648 276:0.687135 277:0.655946 278:0.222557 279:0.5 280:0.5 281:0.5 282:0.666667 283:0.40625 284:0.425 285:0 286:0 287:0.694137 288:0.91972 289:1.0122 290:0.444419 291:0.428761 292:0.652489 293:0.258211 294:0.515498 295:0.513636 296:0.73316 297:0.200226 298:0.295238 299:0.0514824 300:0.0833333 301:0.425626 302:1 303:0.137085 304:1 305:0.939679 306:0.0115184 307:0.0488028 308:0 309:0.761045 310:0 311:0.211484 312:0.0274707 313:0.92155 314:0.0447484 315:0.0146409 316:0.0190608 317:0.00254751 318:0.118697 319:0.146102 320:0.0296232 321:0.91616 322:0.0237309 323:0.0177999 324:0.0159324 325:0.0714286 326:0.101208 327:0.0992451 328:0 329:0.207524 330:0.204607 331:0.0714286 332:0.106715 333:0.137844 334:0 335:0.142857 336:0 337:0.0482225 338:0.243888 339:0.113449 340:0.0528556 341:0.199686 342:0.199041 343:0.0387124 344:0.0431672 345:0.0138863 346:0.187166 347:0.207671 348:0.202009 349:0.0490964 350:0.146961 351:0.111331 352:0.138325 353:0.0233574 354:0.001261 355:0 356:0 
0 0 0 0 3.430145463371727e-11 0 1:0.0652174 2:0.434783 3:0.5 4:0.804348 5:0.73913 6:0.717391 7:0.595975 8:0.946134 9:0.683702 10:0.631216 11:0.106883 12:0.5 13:0.5 14:0.5 15:0.706522 16:0.430556 17:0.442308 18:0.117808 19:0 20:0.319765 21:0.90675 22:0.945311 23:0.514451 24:0.968781 25:0.302935 26:0.27998 27:0.545616 28:0.59471 29:0.621118 30:0.175674 31:0.281066 32:0.0477904 33:0.0543651 34:0.452703 35:1 36:0.199251 37:1 38:0.935595 39:0.0219108 40:0.0380084 41:0.00448537 42:0.830528 43:0.00897075 44:0.147561 45:0.01294 46:0.848638 47:0.0326081 48:0.0859677 49:0.0327863 50:0.00341207 51:0.0911848 52:0.132447 53:0.064085 54:0.81079 55:0.0232662 56:0.0242037 57:0.0478472 58:0.0714286 59:0.156716 60:0.189021 61:0 62:0.115161 63:0.131225 64:0.0714286 65:0.106556 66:0.158464 67:0 68:0.0816041 69:0.0612531 70:0.0782251 71:0.178565 72:0.115187 73:0.0799757 74:0.202818 75:0.202372 76:0.0785938 77:0.0210047 78:0.0561931 79:0.218057 80:0.0962027 81:0.153947 82:0.113224 83:0.139398 84:0.123379 85:0.165934 86:0.0347006 87:0.00338106 88:0 89:0 90:0.0652174 91:0.434783 92:0.543478 93:0.76087 94:0.73913 95:0.673913 96:0.567787 97:0.951466 98:0.697516 99:0.58465 100:0.252824 101:0.5 102:0.5 103:0.5 104:0.717391 105:0.430556 106:0.477273 107:0.128409 108:0 109:0 110:0.90675 111:1.02225 112:0.446106 113:0.380915 114:0.741921 115:0.336851 116:0.5847 117:0.624052 118:0.539352 119:0.155228 120:0.251786 121:0.0255102 122:0.0306122 123:0.228105 124:0.75 125:0.0357143 126:0.5 127:0.937815 128:0.0298831 129:0.0219437 130:0.0103583 131:0.890718 132:0.0207166 133:0.0833862 134:0.00517916 135:0.807937 136:0.0247039 137:0.12831 138:0.0390495 139:0.00202282 140:0.0492546 141:0.0853998 142:0.0649842 143:0.973214 144:0 145:0 146:0.00892857 147:0.0714286 148:0.198505 149:0.222919 150:0 151:0.0295897 152:0.0531089 153:0.0714286 154:0.132934 155:0.220086 156:0 157:0.0360689 158:0.106788 159:0.153754 160:0.140859 161:0.0654109 162:0.0832498 163:0.295113 164:0.118756 165:0.112588 166:0.0300563 167:0.0876657 168:0.246741 169:0.0473094 170:0.185034 171:0.126894 172:0.0274314 173:0.136279 174:0.211635 175:0.0494164 176:0.00444388 177:0 178:0 179:0.0681818 180:0.431818 181:0.522727 182:0.795455 183:0.75 184:0.75 185:0.58876 186:0.940386 187:0.692669 188:0.63762 189:0.156551 190:0.5 191:0.5 192:0.5 193:0.75 194:0.430556 195:0.395833 196:0.206828 197:0 198:0.482599 199:0.885067 200:0.982794 201:0.499347 202:0.659309 203:0.448127 204:0.276262 205:0.520812 206:0.598781 207:0.672576 208:0.251322 209:0.461012 210:0.0844199 211:0.0702948 212:0.619029 213:0.75 214:0.381045 215:1 216:0.91429 217:0.0402414 218:0.03511 219:0.0103583 220:0.741083 221:0.0155375 222:0.213497 223:0.0298831 224:0.756135 225:0.0597661 226:0.123921 227:0.0601777 228:0.00838004 229:0.159602 230:0.177249 231:0.112347 232:0.755256 233:0.019963 234:0.0303201 235:0.0586008 236:0.0714286 237:0.148342 238:0.185475 239:0 240:0.119538 241:0.127568 242:0.0714286 243:0.111324 244:0.164895 245:0 246:0.0649825 247:0.0778746 248:0.075049 249:0.199614 250:0.0982613 251:0.042346 252:0.277269 253:0.164603 254:0.0592323 255:0.0195918 256:0.0362646 257:0.243299 258:0.132248 259:0.175654 260:0.0985683 261:0.101875 262:0.133266 263:0.162821 264:0.0325814 265:0.00263585 266:0 267:0 268:0.166667 269:0.452381 270:0.380952 271:0.880952 272:0.738095 273:0.619048 274:0.625924 275:0.943484 276:0.677394 277:0.647828 278:0.272566 279:0.853553 280:0.5 281:0.853553 282:0.654762 283:0.4 284:0.40625 285:0 286:0 287:0.435163 288:0.950547 289:1.08084 290:0.363979 291:0.36932 292:0.709154 293:0.262727 294:0.511364 295:0.561364 296:0.670455 297:0.163168 298:0.221726 299:0.0419201 300:0.0646259 301:0.538889 302:1 303:0.101732 304:1 305:0.946545 306:0.00517916 307:0.0482762 308:0 309:0.828118 310:0 311:0.156344 312:0.0155375 313:0.928636 314:0.0310749 315:0.03511 316:0.00517916 317:0 318:0.0216431 319:0.0843325 320:0.0429699 321:0.901786 322:0.0103454 323:0.012577 324:0.0217205 325:0.0714286 326:0.0770504 327:0.121279 328:0 329:0.1571 330:0.24635 331:0.0714286 332:0.0881999 333:0.167163 334:0 335:0.142857 336:0 337:0.0379585 338:0.215586 339:0.0849884 340:0.0204492 341:0.281882 342:0.216278 343:0.0231606 344:0.0264328 345:0.00634209 346:0.19769 347:0.252732 348:0.196523 349:0.0425626 350:0.128081 351:0.126475 352:0.134804 353:0.0208976 354:0.000524247 355:0 356:0 
0 0 0 0 7.235333305269027e-12 0 1:0.0681818 2:0.409091 3:0.522727 4:0.840909 5:0.772727 6:0.75 7:0.624574 8:0.937193 9:0.705738 10:0.628586 11:0.107811 12:0.5 13:0.5 14:0.5 15:0.738636 16:0.411765 17:0.410714 18:0.12754 19:0.0110904 20:0.426981 21:0.912908 22:0.881872 23:0.566729 24:1 25:0.293896 26:0.26437 27:0.524849 28:0.62 29:0.650341 30:0.168838 31:0.248861 32:0.0499801 33:0.0528991 34:0.513264 35:1 36:0.20635 37:1 38:0.93854 39:0.0144393 40:0.036707 41:0.0103138 42:0.835304 43:0.0134899 44:0.145493 45:0.00571357 46:0.85597 47:0.0320547 48:0.0788071 49:0.0331681 50:0.00423665 51:0.0896947 52:0.128742 53:0.0556766 54:0.823515 55:0.0152558 56:0.0327152 57:0.0462942 58:0.0714286 59:0.113411 60:0.168427 61:0 62:0.112241 63:0.179801 64:0.0714286 65:0.102389 66:0.180874 67:0 68:0.0848918 69:0.0579654 70:0.0507661 71:0.165109 72:0.116135 73:0.0518084 74:0.204286 75:0.269039 76:0.0427097 77:0.013828 78:0.0441937 79:0.168441 80:0.134039 81:0.153707 82:0.13054 83:0.164199 84:0.148342 85:0.156958 86:0.0324536 87:0.0032978 88:0 89:0 90:0.0681818 91:0.409091 92:0.568182 93:0.795455 94:0.772727 95:0.659091 96:0.594412 97:0.944444 98:0.722222 99:0.555556 100:0.176308 101:0.5 102:0.5 103:0.5 104:0.75 105:0.411765 106:0.458333 107:0.244872 108:0.0195898 109:0.264462 110:0.912908 111:0.956133 112:0.499347 113:0.580081 114:0.499539 115:0.29292 116:0.535061 117:0.676829 118:0.609481 119:0.296549 120:0.41455 121:0.0877189 122:0.117063 123:0.676111 124:1 125:0.204388 126:1 127:0.930461 128:0.018821 129:0.0318973 130:0.018821 131:0.823851 132:0.0260658 133:0.145378 134:0.00470525 135:0.742822 136:0.0542973 137:0.143878 138:0.0590026 139:0.00192323 140:0.123713 141:0.170292 142:0.0768818 143:0.792228 144:0.0153874 145:0.0527726 146:0.0167855 147:0.0714286 148:0.147364 149:0.170339 150:0 151:0.0890963 152:0.135098 153:0.0714286 154:0.120452 155:0.194794 156:0 157:0.0442377 158:0.0986194 159:0.0988124 160:0.173184 161:0.0793275 162:0.0578941 163:0.324573 164:0.123352 165:0.0702143 166:0.015925 167:0.0688738 168:0.189595 169:0.161733 170:0.185538 171:0.127502 172:0.0568146 173:0.123804 174:0.175401 175:0.0374765 176:0.00331369 177:0 178:0 179:0.166667 180:0.428571 181:0.47619 182:0.928571 183:0.761905 184:0.666667 185:0.617809 186:0.946516 187:0.695351 188:0.611629 189:0.198227 190:1 191:0.5 192:0.5 193:0.666667 194:0.390625 195:0.416667 196:0.0331919 197:0 198:0.575326 199:0.91972 200:0.927295 201:0.519146 202:0.537997 203:0.542134 204:0.24974 205:0.528032 206:0.581667 207:0.672349 208:0.154372 209:0.25582 210:0.0497265 211:0.0641234 212:0.596674 213:1 214:0.179365 215:1 216:0.920654 217:0.0141157 218:0.0558202 219:0.00941049 220:0.770012 221:0.0166553 222:0.2003 223:0.0130329 224:0.90401 225:0.0318539 226:0.0438588 227:0.0202778 228:0.00828739 229:0.0985002 230:0.154951 231:0.0761557 232:0.891674 233:0.00911937 234:0.00563085 235:0.0419882 236:0.0714286 237:0.0861138 238:0.071927 239:0 240:0.185552 241:0.241644 242:0.0714286 243:0.101725 244:0.170181 245:0 246:0.120248 247:0.0226093 248:0.0314967 249:0.229402 250:0.105199 251:0.0411816 252:0.259026 253:0.190838 254:0.00339269 255:0.0444795 256:0.0221502 257:0.165776 258:0.242079 259:0.208539 260:0.0609164 261:0.140206 262:0.112461 263:0.138781 264:0.0238924 265:0.00149602 266:0 267:0 268:0.175 269:0.45 270:0.375 271:0.875 272:0.75 273:0.575 274:0.612527 275:0.9445 276:0.6905 277:0.627 278:0.400573 279:0.5 280:0.5 281:0.5 282:0.65 283:0.4 284:0.333333 285:0 286:0 287:0.152619 288:0.927295 289:1.19029 290:0.291457 291:0.245711 292:1.04289 293:0.281672 294:0.521429 295:0.589286 296:0.660714 297:0.0595238 298:0.119048 299:0.0178571 300:2.67814e-34 301:0.267007 302:0.804087 303:0.047619 304:1 305:0.961961 306:0.00941049 307:0.023923 308:0.00470525 309:0.915552 310:0.00470525 311:0.0797432 312:0 313:0.945295 314:0.00941049 315:0.0358844 316:0.00941049 317:0 318:0.00129017 319:0.0165936 320:0.0334333 321:0.960317 322:0.00654381 323:0.0093292 324:0.00793651 325:0.0714286 326:0.100823 327:0.178765 328:0 329:0.15027 330:0.156155 331:0.0714286 332:0.0968888 333:0.17424 334:0.142857 335:0 336:0 337:0.143452 338:0.114028 339:0.0799975 340:0.0113095 341:0.387655 342:0.120701 343:0.142857 344:0.0218002 345:0.132962 346:0.21174 347:0.18663 348:0.125595 349:0.00163542 350:0.0843151 351:0.0924663 352:0.152277 353:0.025667 354:0.000604348 355:0 356:0 
3.511938104413791e-12 0 0 0 0 0 1:0.0555556 2:0.5 3:0.5 4:0.796296 5:0.648148 6:0.611111 7:0.568501 8:0.985071 9:0.597014 10:0.572761 11:0.105824 12:0.788675 13:0.211325 14:0.211325 15:0.759259 16:0.394737 17:0.416667 18:0.307992 19:0 20:0.266927 21:0.957589 22:0.902507 23:0.507099 24:0.901899 25:0.313125 26:0.235831 27:0.554167 28:0.612008 29:0.613333 30:0.288761 31:0.493137 32:0.1108 33:0.136409 34:0.622809 35:1 36:0.446427 37:1 38:0.90727 39:0.0190163 40:0.0444565 41:0.0292576 42:0.790045 43:0.0135831 44:0.173173 45:0.0231992 46:0.754676 47:0.0614942 48:0.126043 49:0.0577868 50:0.00930668 51:0.0986752 52:0.167081 53:0.153841 54:0.686934 55:0.0526057 56:0.0632821 57:0.0824566 58:0.0660724 59:0.0778514 60:0.109108 61:0.0197718 62:0.168723 63:0.219842 64:0.0570129 65:0.134569 66:0.147051 67:0 68:0.0912662 69:0.0515909 70:0.0292624 71:0.222184 72:0.128677 73:0.0379263 74:0.319256 75:0.119838 76:0.0278246 77:0.00814326 78:0.0291995 79:0.165655 80:0.22803 81:0.239244 82:0.0521893 83:0.176751 84:0.0729642 85:0.113059 86:0.0169432 87:0.00102868 88:0 89:0 90:0.0555556 91:0.5 92:0.574074 93:0.87037 94:0.648148 95:0.611111 96:0.643201 97:0.991444 98:0.589353 99:0.522338 100:0.203852 101:0.788675 102:0.211325 103:0.211325 104:0.740741 105:0.394737 106:0.431818 107:0.373405 108:0 109:0.182149 110:0.957589 111:1.046 112:0.386876 113:0.508335 114:0.519124 115:0.297102 116:0.555 117:0.644016 118:0.564317 119:0.333575 120:0.568651 121:0.268844 122:0.265079 123:0.744434 124:0.5 125:0.699078 126:1 127:0.883215 128:0.032428 129:0.0274791 130:0.0568779 131:0.751239 132:0.0259424 133:0.191883 134:0.0309355 135:0.602059 136:0.107897 137:0.190998 138:0.0990459 139:0.0186705 140:0.144022 141:0.19757 142:0.165644 143:0.671331 144:0.0323375 145:0.0434579 146:0.0630407 147:0.0714286 148:0.12156 149:0.191031 150:0.00610775 151:0.0919917 152:0.100257 153:0.0653208 154:0.160605 155:0.191698 156:0 157:0.0447458 158:0.0981113 159:0.0527788 160:0.196272 161:0.137941 162:0.0405316 163:0.293472 164:0.136148 165:0.0342474 166:0.00991875 167:0.0462133 168:0.183788 169:0.118314 170:0.222923 171:0.157388 172:0.0863243 173:0.140883 174:0.151385 175:0.0242521 176:0.0011589 177:0 178:0 179:0.159091 180:0.5 181:0.454545 182:0.931818 183:0.681818 184:0.545455 185:0.58791 186:0.983548 187:0.613776 188:0.556888 189:0.203524 190:1 191:0.5 192:0.5 193:0.670455 194:0.411765 195:0.409091 196:0.289452 197:0 198:0.439967 199:0.912908 200:0.996491 201:0.463648 202:0.49074 203:0.578904 204:0.256711 205:0.550718 206:0.575368 207:0.685662 208:0.369502 209:0.691667 210:0.0785714 211:0.157143 212:0.714497 213:0.804087 214:0.526871 215:0.63386 216:0.914416 217:0.032428 218:0.0401851 219:0.0129712 220:0.728594 221:0 222:0.228992 223:0.0424142 224:0.76089 225:0.0748422 226:0.0879331 227:0.0763348 228:0.00212498 229:0.0948147 230:0.193576 231:0.169341 232:0.836426 233:0.030533 234:0.0401779 235:0.0452445 236:0.0714286 237:0.0753928 238:0.111121 239:0 240:0.144246 241:0.198875 242:0.0714286 243:0.143312 244:0.184195 245:0 246:0.114511 247:0.0283457 248:0.0299462 249:0.246658 250:0.0892552 251:0.0552182 252:0.382757 253:0.0533086 254:0.013152 255:0.0217967 256:0.0482285 257:0.197257 258:0.244191 259:0.303989 260:0.040777 261:0.0921213 262:0.0384881 263:0.136211 264:0.02207 265:0.000885259 266:0 267:0 268:0.194444 269:0.444444 270:0.472222 271:0.916667 272:0.722222 273:0.472222 274:0.535311 275:0.966673 276:0.67949 277:0.5 278:0.354288 279:0.5 280:1 281:0.5 282:0.652778 283:0.426471 284:0.3125 285:0 286:0 287:0 288:0.813962 289:1.13095 290:0.418224 291:0.273012 292:1.09377 293:0.25569 294:0.542857 295:0.546429 296:0.682143 297:0.160714 298:0.202381 299:0.00714286 300:0.0142857 301:0.330357 302:1 303:0.0952381 304:1 305:0.931081 306:0.00648561 307:0.0494623 308:0.0129712 309:0.89261 310:0.00648561 311:0.0879331 312:0.0129712 313:0.932071 314:0.00648561 315:0.0549582 316:0.00648561 317:0 318:0.00311851 319:0.03518 320:0.0709786 321:0.952381 322:0 323:0.0119048 324:5.28678e-18 325:0.0714286 326:0.0681864 327:0.0993189 328:0 329:0.145835 330:0.250713 331:0.0714286 332:0.12506 333:0.16803 334:0.0501629 335:0.0926943 336:0 337:0.0900496 338:0.207352 339:0.0601582 340:0.159542 341:0.326214 342:0.0138276 343:0.0916857 344:0.0724116 345:0.135976 346:0.145873 347:0.252354 348:0.227314 349:0 350:0.0698993 351:0.00448718 352:0.161958 353:0.0298579 354:0.00127054 355:0 356:0 
