svm_type c_svc
kernel_type polynomial
degree 3
gamma 100
coef0 0
nr_class 2
total_sv 11
rho -0.556573
label 5 3
probA -3.51694
probB -0.711694
nr_sv 7 4
SV
2.22192382980203e-12 1:0.195652 2:0.543478 3:0.782609 4:0.891304 5:0.717391 6:0.73913 7:0.46003 8:0.984182 9:0.621046 10:0.469739 11:0.0333088 12:0.5 13:0.276393 14:0.0527864 15:0.652174 16:0.447368 17:0.5125 18:0.00403189 19:-0.0262073 20:0.391093 21:0.855053 22:0.811034 23:0.690446 24:1 25:0.124988 26:0.247274 27:0.704055 28:0.504187 29:0.504745 30:0.197127 31:0.385896 32:0.0432173 33:0.0754936 34:0.510946 35:1 36:0.226075 37:1 38:0.898109 39:0.00351172 40:0.0972089 41:0.00117057 42:0.598482 43:0.0769696 44:0.322208 45:0.00234115 46:0.960905 47:0.0197234 48:0.00793542 49:0.0114363 50:0.0205709 51:0.224637 52:0.351355 53:0.146644 54:0.811537 55:0.0628469 56:0.070528 57:0.0336849 58:0.0778175 59:0.0962018 60:0.105029 61:0.00692659 62:0.227161 63:0.16069 64:0.0776356 65:0.118955 66:0.129583 67:0.0796978 68:0.0614584 69:0.0211723 70:0.216501 71:0.165413 72:0.0566723 73:0.141372 74:0.169688 75:0.0880251 76:0.124787 77:0.175609 78:0.13798 79:0.107836 80:0.146585 81:0.142333 82:0.0476622 83:0.0647096 84:0.0524975 85:0.168853 86:0.0430995 87:0.00648823 88:0 89:0 90:0.195652 91:0.521739 92:0.782609 93:0.847826 94:0.608696 95:0.173913 96:0.582397 97:0.863803 98:0.548507 99:0.16045 100:0.0803977 101:0.5 102:0.276393 103:0.0527864 104:0.663043 105:0.472222 106:0.675 107:0 108:0 109:0 110:0.855053 111:0.837981 112:0.664046 113:1 114:0.237892 115:0.257023 116:0.918416 117:0.45202 118:0.273016 119:0.23718 120:0.466835 121:0.0601885 122:0.108631 123:0.581475 124:0.5 125:0.306008 126:1 127:0.876335 128:0.00814984 129:0.112799 130:0.00271661 131:0.529283 132:0.105904 133:0.364813 134:0 135:0.955056 136:0.0246654 137:0.00460404 138:0.0156745 139:0.0335968 140:0.289709 141:0.307418 142:0.12961 143:0.753328 144:0.0971347 145:0.100787 146:0.0252837 147:0.0782113 148:0.096509 149:0.112116 150:0.00534556 151:0.229932 152:0.149722 153:0.0792681 154:0.120158 155:0.128738 156:0.0807818 157:0.0593381 158:0.0223627 159:0.230914 160:0.15396 161:0.0563144 162:0.148744 163:0.142138 164:0.105447 165:0.14236 166:0.178635 167:0.14435 168:0.0940313 169:0.129523 170:0.129884 171:0.0522837 172:0.068879 173:0.0600533 174:0.17568 175:0.0465364 176:0.00715063 177:0 178:0 179:0.195652 180:0.478261 181:0.478261 182:0.847826 183:0.73913 184:0.565217 185:0.558688 186:0.960721 187:0.684289 188:0.56143 189:0.121382 190:0.5 191:0.5 192:0 193:0.641304 194:0.40625 195:0.5 196:0 197:0 198:0.126759 199:0.962994 200:1.10715 201:0.334737 202:0.728873 203:0.350452 204:0.246345 205:0.653226 206:0.496976 207:0.591734 208:0.176471 209:0.344538 210:0.03125 211:0.0625 212:0.496825 213:1 214:0.0936682 215:1 216:0.909807 217:0.00271661 218:0.0874768 219:0 220:0.775918 221:0.0325994 222:0.188766 223:0.00271661 224:0.969059 225:0.0108665 226:0.00920808 227:0.0108665 228:0.00206406 229:0.0358663 230:0.198052 231:0.14798 232:0.92437 233:0.0187066 234:0.0233102 235:0.00840336 236:0.0714286 237:0.0834867 238:0.11044 239:0 240:0.230102 241:0.192372 242:0.0714286 243:0.0978141 244:0.142928 245:0.0209701 246:0.10268 247:0.0192066 248:0.187616 249:0.177785 250:0.0336365 251:0.216331 252:0.216043 253:0.025732 254:0.140771 255:0.187549 256:0.0928073 257:0.111453 258:0.198513 259:0.189091 260:0.0148024 261:0.0353117 262:0.0297018 263:0.115694 264:0.0155645 265:0.000547814 266:0 267:0 268:0.159091 269:0.386364 270:0.136364 271:0.886364 272:0.75 273:0.772727 274:0.708137 275:0.85218 276:0.67609 277:0.808158 278:0.105263 279:0.5 280:0.5 281:1 282:0.636364 283:0.375 284:0.323529 285:0.00463396 286:0.101947 287:0.848015 288:0.912908 289:0.815692 290:0.628796 291:1 292:0.254868 293:0.263382 294:0.503565 295:0.561224 296:0.713909 297:0.203621 298:0.402521 299:0.0416273 300:0.0669643 301:0.553429 302:0.647584 303:0.266653 304:1 305:0.912523 306:0 307:0.0874768 308:0 309:0.571949 310:0.0700068 311:0.355328 312:0.00271661 313:0.956516 314:0.0211077 315:0.0115101 316:0.0108665 317:0.0156587 318:0.241123 319:0.459175 320:0.152201 321:0.825176 322:0.0436291 323:0.0648539 324:0.0495345 325:0.0794353 326:0.106913 327:0.168024 328:0.00196151 329:0.171874 330:0.150961 331:0.0752698 332:0.0942223 333:0.151338 334:0.0433154 335:0.071891 336:0.041254 337:0.116888 338:0.167779 339:0.0843419 340:0.120572 341:0.228529 342:0.125429 343:0.102507 344:0.0905881 345:0.0873536 346:0.15865 347:0.149246 348:0.161083 349:0.0894577 350:0.0836739 351:0.077441 352:0.168585 353:0.0407572 354:0.00574319 355:0 356:0 
1.031621453354941e-11 1:0.159091 2:0.590909 3:0.772727 4:0.840909 5:0.772727 6:0.681818 7:0.436478 8:0.979157 9:0.627775 10:0.436112 11:0.0317967 12:0.5 13:0.5 14:0.5 15:0.647727 16:0.452381 17:0.526316 18:0.00406283 19:0.0751624 20:0.335184 21:0.80865 22:0.835357 23:0.712358 24:1 25:0.125948 26:0.264811 27:0.724945 28:0.506707 29:0.476249 30:0.227914 31:0.445585 32:0.0517217 33:0.104965 34:0.521226 35:1 36:0.230445 37:1 38:0.876247 39:0.00411961 40:0.113454 41:0.00617942 42:0.671426 43:0.0944408 44:0.234133 45:0 46:0.956559 47:0.00903212 48:0.0165818 49:0.0178272 50:0.00658172 51:0.149539 52:0.326212 53:0.152815 54:0.783313 55:0.0649167 56:0.0636151 57:0.0348206 58:0.072578 59:0.136062 60:0.148798 61:0.00274841 62:0.167564 63:0.134843 64:0.0725997 65:0.127495 66:0.137312 67:0.0728853 68:0.0546111 69:0.0192802 70:0.207222 71:0.151879 72:0.0689282 73:0.113848 74:0.136118 75:0.175228 76:0.15407 77:0.112375 78:0.131035 79:0.104456 80:0.110783 81:0.117699 82:0.102684 83:0.0770753 84:0.0898214 85:0.206199 86:0.0627189 87:0.0106681 88:0 89:0 90:0.166667 91:0.547619 92:0.690476 93:0.928571 94:0.642857 95:0.214286 96:0.59206 97:0.921637 98:0.552705 99:0.236477 100:0.0946025 101:0.5 102:0.5 103:0.5 104:0.642857 105:0.473684 106:0.666667 107:0 108:0 109:0 110:0.835357 111:0.902507 112:0.620249 113:1 114:0.274229 115:0.277791 116:0.91879 117:0.437102 118:0.265962 119:0.223733 120:0.432957 121:0.0635768 122:0.130952 123:0.310814 124:0.5 125:0.224497 126:1 127:0.882281 128:0.00245701 129:0.110348 130:0.00491401 131:0.670923 132:0.110195 133:0.218882 134:0 135:0.963319 136:0.0117196 137:0.00832813 138:0.0166336 139:0.0107065 140:0.212819 141:0.239473 142:0.0567148 143:0.787249 144:0.0531574 145:0.0473655 146:0.0158215 147:0.0785918 148:0.0933324 149:0.176904 150:0.00213647 151:0.130419 152:0.150272 153:0.0689408 154:0.115668 155:0.183736 156:0.0567612 157:0.0522588 158:0.0373468 159:0.124723 160:0.11818 161:0.0903796 162:0.0852744 163:0.148317 164:0.28676 165:0.0942201 166:0.0798899 167:0.0925491 168:0.110909 169:0.103118 170:0.105849 171:0.142467 172:0.10907 173:0.161927 174:0.202451 175:0.0571143 176:0.00846801 177:0 178:0 179:0.159091 180:0.545455 181:0.636364 182:0.886364 183:0.681818 184:0.363636 185:0.558206 186:0.961112 187:0.586459 188:0.327083 189:0.0950089 190:0.5 191:0.276393 192:0.0527864 193:0.636364 194:0.460526 195:0.681818 196:0 197:0 198:0 199:0.858439 200:1.046 201:0.463648 202:1 203:0.284763 204:0.266772 205:0.853906 206:0.442187 207:0.373758 208:0.209316 209:0.411905 210:0.0297619 211:0.0595238 212:0.586741 213:1 214:0.226614 215:1 216:0.869414 217:0.00245701 218:0.120758 219:0.00737102 220:0.714813 221:0.0977148 222:0.187472 223:0 224:0.962731 225:0.00245701 226:0.0249844 227:0.00982802 228:0.00435359 229:0.0760816 230:0.26213 231:0.182107 232:0.845304 233:0.0338708 234:0.0567545 235:0.0384946 236:0.0901593 237:0.12773 238:0.153784 239:0.00614342 240:0.158776 241:0.121839 242:0.0871677 243:0.115291 244:0.139109 245:0.0794465 246:0.0906026 247:0.0131038 248:0.213932 249:0.152115 250:0.032375 251:0.191469 252:0.147965 253:0.0789917 254:0.202614 255:0.131446 256:0.163184 257:0.134262 258:0.102485 259:0.138383 260:0.0361749 261:0.0443827 262:0.0470677 263:0.159675 264:0.0329264 265:0.00297224 266:0 267:0 268:0.159091 269:0.363636 270:0.227273 271:0.840909 272:0.818182 273:0.772727 274:0.662056 275:0.846318 276:0.730879 277:0.777054 278:0.10108 279:0.5 280:0.5 281:0 282:0.670455 283:0.342105 284:0.3 285:0 286:0.266045 287:0.765462 288:0.858439 289:0.902507 290:0.598419 291:1 292:0.261377 293:0.261706 294:0.503292 295:0.602459 296:0.684459 297:0.244907 298:0.485965 299:0.0536171 300:0.107407 301:0.629346 302:1 303:0.245496 304:1 305:0.879824 306:0.00491401 307:0.110348 308:0.00491401 309:0.656542 310:0.085625 311:0.257833 312:0 313:0.954991 314:0.00982802 315:0.0166563 316:0.0185252 317:0.00471408 318:0.121046 319:0.399333 320:0.175379 321:0.786192 322:0.0782913 323:0.0703102 324:0.0343917 325:0.079325 326:0.101725 327:0.145968 328:0.00404916 329:0.166899 330:0.163911 331:0.0800535 332:0.106404 333:0.151665 334:0.0675337 335:0.0655779 336:0.030849 337:0.179026 338:0.137954 339:0.0563176 340:0.150063 341:0.158586 342:0.154093 343:0.148372 344:0.121137 345:0.13016 346:0.0979231 347:0.131283 348:0.131638 349:0.0791576 350:0.0848391 351:0.0754903 352:0.172412 353:0.0436682 354:0.00636443 355:0 356:0 
6.778093731195939e-12 1:0.204545 2:0.568182 3:0.727273 4:0.886364 5:0.795455 6:0.772727 7:0.462581 8:0.973396 9:0.657799 10:0.53156 11:0.0330497 12:0.5 13:0.341886 14:0.0256584 15:0.625 16:0.4375 17:0.485294 18:0.00417216 19:0.00625824 20:0.388011 21:0.832981 22:0.866302 23:0.657889 24:1 25:0.123079 26:0.258166 27:0.697083 28:0.518657 29:0.501585 30:0.261488 31:0.516957 32:0.059079 33:0.119167 34:0.631328 35:1 36:0.268888 37:1 38:0.865202 39:0.00479137 40:0.122819 41:0.00718705 42:0.62447 43:0.103851 44:0.271678 45:0 46:0.950856 47:0.0105049 48:0.0203007 49:0.0183385 50:0.00593904 51:0.144236 52:0.381763 53:0.205363 54:0.755106 55:0.0741919 56:0.0821142 57:0.0469713 58:0.0759028 59:0.126364 60:0.146042 61:0.00327956 62:0.169171 63:0.141948 64:0.0763788 65:0.119649 66:0.141263 67:0.0705261 68:0.0653539 69:0.0191668 70:0.193232 71:0.165753 72:0.0558274 73:0.131998 74:0.16658 75:0.131563 76:0.159921 77:0.111449 78:0.131285 79:0.117249 80:0.133015 81:0.140069 82:0.0699723 83:0.0702848 84:0.0667557 85:0.181946 86:0.0484854 87:0.00733941 88:0 89:0 90:0.214286 91:0.571429 92:0.738095 93:0.928571 94:0.666667 95:0.166667 96:0.574533 97:0.888335 98:0.551778 99:0.189332 100:0.0839532 101:0.5 102:0.341886 103:0.0256584 104:0.630952 105:0.475 106:0.676471 107:0 108:0 109:0 110:0.809784 111:0.866302 112:0.680521 113:1 114:0.252122 115:0.259043 116:0.917568 117:0.431757 118:0.283816 119:0.303343 120:0.595833 121:0.0741559 122:0.150794 123:0.662861 124:0.5 125:0.31531 126:1 127:0.839834 128:0.00573628 129:0.145825 130:0.00860441 131:0.558966 132:0.140107 133:0.300928 134:0 135:0.95232 136:0.0136806 137:0.0145825 138:0.0194169 139:0.00916028 140:0.201685 141:0.378658 142:0.199365 143:0.742638 144:0.0618861 145:0.0829694 146:0.037113 147:0.0747086 148:0.115663 149:0.14295 150:0 151:0.160621 152:0.138682 153:0.0769564 154:0.131964 155:0.158455 156:0.0737542 157:0.0703312 158:0.00834807 159:0.199399 160:0.177436 161:0.0316129 162:0.141883 163:0.193679 164:0.103557 165:0.160997 166:0.113444 167:0.146136 168:0.127488 169:0.141047 170:0.162348 171:0.0428584 172:0.0494384 173:0.0562444 174:0.194633 175:0.0522528 176:0.00743341 177:0 178:0 179:0.159091 180:0.477273 181:0.5 182:0.886364 183:0.795455 184:0.636364 185:0.63085 186:0.951466 187:0.697516 188:0.58465 189:0.131746 190:0.5 191:0.5 192:0 193:0.636364 194:0.390625 195:0.464286 196:0 197:0 198:0.111523 199:0.942 200:1.15839 201:0.308053 202:0.764214 203:0.334569 204:0.278941 205:0.669421 206:0.521694 207:0.553719 208:0.15625 209:0.303571 210:0.0214286 211:0.0428571 212:0.559864 213:1 214:0.138889 215:0.5 216:0.906331 217:0.00286814 218:0.0850647 219:0.00573628 220:0.762028 221:0.0573628 222:0.180609 223:0 224:0.956057 225:0.00573628 226:0.0267346 227:0.0114726 228:0.000904281 229:0.045031 230:0.196858 231:0.186233 232:0.917411 233:0.0223214 234:0.0208727 235:0.0393952 236:0.0714286 237:0.0921171 238:0.208706 239:0.00242714 240:0.119812 241:0.157753 242:0.0772227 243:0.0787662 244:0.191768 245:0.0277243 246:0.0908893 247:0.0326831 248:0.134473 249:0.136311 250:0.0277394 251:0.308909 252:0.182483 253:0.058788 254:0.197358 255:0.131366 256:0.139461 257:0.139706 258:0.116163 259:0.151712 260:0.0266969 261:0.0388097 262:0.0587271 263:0.145632 264:0.0245731 265:0.000896971 266:0 267:0 268:0.175 269:0.375 270:0.2 271:0.925 272:0.825 273:0.8 274:0.662589 275:0.853553 276:0.712132 277:0.782843 278:0.100209 279:0.5 280:0.5 281:1 282:0.6625 283:0.3625 284:0.3 285:0 286:0.245643 287:0.79834 288:0.785398 289:0.927295 290:0.643501 291:1 292:0.259815 293:0.261031 294:0.497129 295:0.596841 296:0.694401 297:0.306452 298:0.608333 299:0.0667215 300:0.133651 301:0.702302 302:0.406785 303:0.339156 304:1 305:0.872305 306:0.00286814 307:0.119091 308:0.00573628 309:0.593092 310:0.0913483 311:0.315559 312:0 313:0.955188 314:0.00860441 315:0.0145825 316:0.021625 317:0.00524806 318:0.138007 319:0.469621 320:0.21063 321:0.725802 322:0.0969808 323:0.106576 324:0.0393914 325:0.0639574 326:0.125805 327:0.154753 328:0 329:0.150413 330:0.147297 331:0.0682151 332:0.126234 333:0.163327 334:0.0294999 335:0.0650714 336:0.0411798 337:0.115596 338:0.175132 339:0.108545 340:0.0810585 341:0.161657 342:0.222261 343:0.0907479 344:0.0625957 345:0.0755661 346:0.114732 347:0.129733 348:0.155205 349:0.138503 350:0.110393 351:0.122524 352:0.198848 353:0.0548369 354:0.00837444 355:0 356:0 
3.474151328076675e-12 1:0.22 2:0.5 3:0.8 4:0.94 5:0.78 6:0.88 7:0.506421 8:0.963524 9:0.680259 10:0.551503 11:0.0367109 12:0.5 13:0.5 14:0.5 15:0.64 16:0.460526 17:0.454545 18:-0.00378141 19:0.0491584 20:0.387595 21:0.849141 22:0.858439 23:0.64987 24:1 25:0.124787 26:0.279513 27:0.691431 28:0.532683 29:0.456046 30:0.262559 31:0.478791 32:0.129545 33:0.190153 34:0.259526 35:1 36:0.300545 37:1 38:0.825702 39:0.0327191 40:0.135582 41:0.00599664 42:0.574691 43:0.150428 44:0.266243 45:0.00863849 46:0.911571 47:0.0640535 48:0.00895465 49:0.0154209 50:0.0379197 51:0.302567 52:0.204544 53:0.050485 54:0.661186 55:0.0801353 56:0.0844374 57:0.0543756 58:0.087678 59:0.134068 60:0.124307 61:0.00296071 62:0.125597 63:0.131419 64:0.0608189 65:0.131094 66:0.202057 67:0.0194928 68:0.0679332 69:0.0638611 70:0.116883 71:0.132379 72:0.141983 73:0.0628145 74:0.127503 75:0.26715 76:0.0891414 77:0.0352194 78:0.0803254 79:0.118999 80:0.0734509 81:0.128437 82:0.135127 83:0.15855 84:0.18075 85:0.19884 86:0.0586836 87:0.009453 88:0 89:0 90:0.195652 91:0.434783 92:0.521739 93:0.978261 94:0.695652 95:0.434783 96:0.654782 97:0.971728 98:0.657243 99:0.447586 100:0.2547 101:0.5 102:0.5 103:0.5 104:0.652174 105:0.46875 106:0.5 107:0 108:0 109:0 110:0.962994 111:1.10715 112:0.334737 113:0.407102 114:0.627446 115:0.267407 116:0.824961 117:0.572581 118:0.294355 119:0.089889 120:0.160476 121:0.0175587 122:0.0246599 123:0.133883 124:1 125:0.00185529 126:1 127:0.973333 128:0.00303756 129:0.0205919 130:0.00303756 131:0.845559 132:0.0121503 133:0.13014 134:0.0121503 135:0.9633 136:0.0198649 137:0.00772197 138:0.00911269 139:0.00155881 140:0.0591829 141:0.122333 142:0.0345883 143:0.972665 144:0.00669963 145:0.00428876 146:0.00206045 147:0.0767314 148:0.0869649 149:0.104181 150:0.00125981 151:0.185476 152:0.148334 153:0.0714286 154:0.120487 155:0.205138 156:0.0142705 157:0.112462 158:0.0226198 159:0.0666487 160:0.258763 161:0.0714241 162:0.0643648 163:0.176411 164:0.213036 165:0.0508577 166:0.0391367 167:0.0547615 168:0.163938 169:0.197713 170:0.192995 171:0.0637097 172:0.0942536 173:0.142634 174:0.137269 175:0.0195138 176:0.000803725 177:0 178:0 179:0.22 180:0.5 181:0.8 182:0.94 183:0.58 184:0.16 185:0.630301 186:0.872423 187:0.54138 188:0.168958 189:0.0878617 190:0.5 191:0.146447 192:0.146447 193:0.64 194:0.526316 195:0.659091 196:0 197:0 198:0 199:0.849141 200:0.858439 201:0.64987 202:1 203:0.239959 204:0.279887 205:0.830291 206:0.461538 207:0.262495 208:0.358694 209:0.672517 210:0.184807 211:0.22743 212:0.392013 213:0.422021 214:0.485388 215:1 216:0.796272 217:0.0322826 218:0.164988 219:0.00645653 220:0.448686 221:0.172072 222:0.366328 223:0.0129131 224:0.898954 225:0.0712264 226:0.0136779 227:0.0161413 228:0.0512759 229:0.426165 230:0.253194 231:0.0656406 232:0.56026 233:0.114318 234:0.085569 235:0.0748084 236:0.0947617 237:0.153655 238:0.132912 239:0.00386916 240:0.121452 241:0.0986344 242:0.0704112 243:0.14309 244:0.181214 245:0.0317961 246:0.0920518 247:0.0450372 248:0.173684 249:0.156636 250:0.0888639 251:0.0918111 252:0.151393 253:0.168728 254:0.135574 255:0.0517743 256:0.117831 257:0.148185 258:0.0885379 259:0.15601 260:0.0930608 261:0.0902821 262:0.118746 263:0.203304 264:0.0608434 265:0.0100454 266:0 267:0 268:0.1 269:0.38 270:0.34 271:0.94 272:0.78 273:0.9 274:0.718657 275:0.886772 276:0.684177 277:0.757848 278:0.0920878 279:0.5 280:0.146447 281:0.146447 282:0.67 283:0.394737 284:0.309524 285:0.0508815 286:0.179781 287:0.593617 288:0.872137 289:0.835357 290:0.64987 291:1 292:0.220486 293:0.28649 294:0.55541 295:0.570639 296:0.642596 297:0.380521 298:0.684696 299:0.175122 300:0.300369 301:0.313349 302:1 303:0.44866 304:1 305:0.72246 306:0.0638223 307:0.205519 308:0.00819895 309:0.445 310:0.232332 311:0.31447 312:0.00819895 313:0.868775 314:0.0960011 315:0.0136779 316:0.0215464 317:0.0450655 318:0.344146 319:0.23464 320:0.0703265 321:0.561617 322:0.0940955 323:0.128242 324:0.0628665 325:0.107388 326:0.179047 327:0.118432 328:0.00696638 329:0.115818 330:0.0733277 331:0.0737891 332:0.151648 333:0.173583 334:0.0413495 335:0.1055 336:0.0418615 337:0.227939 338:0.148942 339:0.0697251 340:0.110532 341:0.131484 342:0.122667 343:0.168002 344:0.0673147 345:0.153524 346:0.155668 347:0.0755257 348:0.148818 349:0.0805008 350:0.0523985 351:0.0982486 352:0.207456 353:0.0610167 354:0.0100211 355:0 356:0 
1.917953604438047e-12 1:0.104167 2:0.416667 3:0.479167 4:0.9375 5:0.625 6:0.229167 7:0.587198 8:0.965746 9:0.616437 10:0.360276 11:0.0600767 12:0.5 13:0.77735 14:0.916025 15:0.666667 16:0.460526 17:0.55 18:-0.00279805 19:-0.053163 20:-0.212652 21:0.876058 22:0.811034 23:0.669639 24:1 25:0.176277 26:0.264795 27:0.51808 28:0.569225 29:0.638652 30:0.312633 31:0.511452 32:0.155327 33:0.24589 34:0.474752 35:0.926442 36:0.517153 37:1 38:0.754198 39:0.0443141 40:0.183517 41:0.0179704 42:0.459849 43:0.20004 44:0.340111 45:0 46:0.881893 47:0.0790225 48:0.0119615 49:0.0271233 50:0.0239595 51:0.283303 52:0.255408 53:0.0591253 54:0.601217 55:0.0769209 56:0.0686723 57:0.073796 58:0.0743132 59:0.131673 60:0.201192 61:0.00457555 62:0.117891 63:0.124463 64:0.0596683 65:0.11324 66:0.172983 67:0.0188118 68:0.0562794 69:0.0690953 70:0.0808719 71:0.151019 72:0.119415 73:0.0396199 74:0.211293 75:0.253594 76:0.0633596 77:0.0290981 78:0.0481155 79:0.173703 80:0.1079 81:0.141314 82:0.170319 83:0.113179 84:0.153012 85:0.197179 86:0.0548768 87:0.00865754 88:0 89:0 90:0.104167 91:0.395833 92:0.4375 93:0.9375 94:0.770833 95:0.645833 96:0.72003 97:0.944554 98:0.700049 99:0.611139 100:0.261466 101:0.5 102:0.77735 103:0.916025 104:0.666667 105:0.390625 106:0.354167 107:0 108:0.104612 109:0.84852 110:0.982794 111:0.927295 112:0.463648 113:0.448084 114:0.604425 115:0.285827 116:0.509091 117:0.627273 118:0.702082 119:0.349789 120:0.655556 121:0.296099 122:0.440476 123:0.43148 124:0.235511 125:1 126:0 127:0.763762 128:0.0208667 129:0.194504 130:0.0208667 131:0.40708 132:0.242455 133:0.350465 134:0 135:0.900468 136:0.0706326 137:0 138:0.0288991 139:0.0228354 140:0.255353 141:0.20361 142:0.0497947 143:0.761905 144:0.0420483 145:0.0548775 146:0.0221219 147:0.0779747 148:0.111504 149:0.21636 150:0 151:0.156025 152:0.0950378 153:0.0714286 154:0.104353 155:0.167316 156:0 157:0.0644724 158:0.0847077 159:0.0389833 160:0.23959 161:0.0904302 162:0.0755622 163:0.302441 164:0.103813 165:0.0462951 166:0.0296744 167:0.0400628 168:0.242481 169:0.161171 170:0.204545 171:0.116443 172:0.0673966 173:0.0919325 174:0.158325 175:0.0263606 176:0.00160007 177:0 178:0 179:0.104167 180:0.4375 181:0.458333 182:0.895833 183:0.729167 184:0.666667 185:0.690254 186:0.95549 187:0.667812 188:0.619866 189:0.27152 190:0.704124 191:0.704124 192:0.908248 193:0.677083 194:0.390625 195:0.25 196:0 197:0 198:0.820157 199:0.982794 200:1.05841 201:0.358771 202:0.400076 203:0.6379 204:0.286695 205:0.507075 206:0.610849 207:0.706695 208:0.429682 209:0.776667 210:0.139055 211:0.273526 212:0.416224 213:0.304087 214:1 215:0 216:0.838555 217:0.0521669 218:0.0884109 219:0.0208667 220:0.485326 221:0.15733 222:0.357344 223:0 224:0.844262 225:0.0995316 226:0.00884109 227:0.0473648 228:0.00353468 229:0.240098 230:0.144666 231:0.0996337 232:0.809524 233:0.0396906 234:0.121235 235:0.0295506 236:0.0714286 237:0.104173 238:0.216107 239:0 240:0.16391 241:0.10283 242:0.0714286 243:0.10422 244:0.165903 245:0 246:0.0644752 247:0.0783819 248:0.0387045 249:0.229533 250:0.101388 251:0.0821591 252:0.265734 253:0.139625 254:0.0562369 255:0.0273852 256:0.0356164 257:0.206196 258:0.168345 259:0.185603 260:0.126728 261:0.0785639 262:0.115326 263:0.149608 264:0.0232756 265:0.0011001 266:0 267:0 268:0.145833 269:0.541667 270:0.770833 271:0.9375 272:0.625 273:0.229167 274:0.631982 275:0.911105 276:0.543274 277:0.218717 278:0.0984016 279:0.5 280:0.5 281:1 282:0.65625 283:0.473684 284:0.6375 285:0 286:0 287:0 288:0.876058 289:0.811034 290:0.669639 291:1 292:0.26827 293:0.280209 294:0.552647 295:0.41717 296:0.483769 297:0.158427 298:0.102134 299:0 300:0 301:0.524534 302:0.926442 303:1 304:0 305:0.775546 306:0.0565283 307:0.159379 308:0.0085472 309:0.649701 310:0.112014 311:0.238285 312:0 313:0.912313 314:0.0676599 315:0.0176822 316:0.00234485 317:0 318:0.00815681 319:0.0532633 320:0.0113071 321:1 322:0 323:0 324:0 325:0.0807198 326:0.140307 327:0.190688 328:0.0091511 329:0.101253 330:0.133899 331:0.0628896 332:0.108465 333:0.172628 334:0.0376235 335:0.0564213 336:0.0695838 337:0.156294 338:0.0307393 339:0.152225 340:0.0705324 341:0.0648097 342:0.361771 343:0.126719 344:0.0504644 345:0.0899733 346:0.0721507 347:0.039449 348:0.0526553 349:0.214526 350:0.15069 351:0.203372 352:0.240353 353:0.0854958 354:0.0159394 355:0 356:0 
7.813459603116453e-12 1:0.1 2:0.26 3:0.22 4:0.9 5:0.78 6:0.94 7:0.748248 8:0.834637 9:0.717514 10:0.801174 11:0.0604313 12:0.5 13:1 14:0.5 15:0.7 16:0.416667 17:0.304348 18:0.0303339 19:0.173914 20:0.448941 21:0.827041 22:0.830821 23:0.69866 24:1 25:0.139536 26:0.27474 27:0.513867 28:0.614103 29:0.644999 30:0.443283 31:0.407445 32:0.270386 33:0.268553 34:0.385345 35:1 36:0.417396 37:1 38:0.730093 39:0.0461242 40:0.200557 41:0.0232255 42:0.52331 43:0.197852 44:0.278838 45:0 46:0.909215 47:0.0511246 48:0.0178838 49:0.0217762 50:0.0358553 51:0.231202 52:0.162669 53:0.0720217 54:0.556094 55:0.083638 56:0.0937348 57:0.0752243 58:0.0739782 59:0.152772 60:0.15982 61:0.00251678 62:0.107228 63:0.126388 64:0.0286737 65:0.165051 66:0.183572 67:0.0160321 68:0.0654128 69:0.0247323 70:0.145564 71:0.157148 72:0.117289 73:0.0554659 74:0.17309 75:0.245266 76:0.103056 77:0.0449058 78:0.0772954 79:0.152491 80:0.0936551 81:0.140876 82:0.128489 83:0.103094 84:0.156137 85:0.20712 86:0.064021 87:0.0107814 88:0 89:0 90:0.1 91:0.3 92:0.4 93:0.94 94:0.82 95:0.68 96:0.746679 97:0.909022 98:0.753204 99:0.636341 100:0.181839 101:0.5 102:1 103:0.5 104:0.69 105:0.407895 106:0.375 107:0 108:0.474592 109:0.715429 110:0.920926 111:0.93577 112:0.510488 113:0.70587 114:0.410841 115:0.277362 116:0.501307 117:0.679697 118:0.653761 119:0.309882 120:0.512809 121:0.214125 122:0.191234 123:0.578677 124:0.852416 125:0.300083 126:1 127:0.669987 128:0.0420977 129:0.266204 130:0.0217115 131:0.523879 132:0.293572 133:0.182549 134:0 135:0.919767 136:0.0438808 137:0.0146409 138:0.0217115 139:0.0412499 140:0.285283 141:0.235597 142:0.104411 143:0.691723 144:0.0861321 145:0.0677341 146:0.0403221 147:0.0965683 148:0.192121 149:0.139135 150:0.00538993 151:0.114414 152:0.0860916 153:0.0599749 154:0.154009 155:0.152296 156:0.0204818 157:0.0673731 158:0.0736999 159:0.171621 160:0.235959 161:0.0521632 162:0.11057 163:0.186634 164:0.0814987 165:0.162593 166:0.057847 167:0.0899097 168:0.177229 169:0.108052 170:0.193401 171:0.0878203 172:0.0346665 173:0.0884819 174:0.165311 175:0.0314426 176:0.00305754 177:0 178:0 179:0.1 180:0.36 181:0.3 182:0.94 183:0.68 184:0.5 185:0.654301 186:0.956091 187:0.673749 188:0.608593 189:0.0821306 190:0.633631 191:0.767261 192:0.900892 193:0.67 194:0.416667 195:0.426471 196:0.00356753 197:0.0713505 198:0.206917 199:0.946773 200:0.813962 201:0.597177 202:1 203:0.214052 204:0.274002 205:0.512249 206:0.577668 207:0.639538 208:0.572512 209:0.623359 210:0.46576 211:0.450736 212:0.286875 213:0.986169 214:0.613375 215:1 216:0.637758 217:0.077507 218:0.262249 219:0.0224865 220:0.288836 221:0.278908 222:0.432256 223:0 224:0.871249 225:0.102432 226:0 227:0.0263194 228:0.048453 229:0.330334 230:0.181461 231:0.0668353 232:0.446139 233:0.0559902 234:0.0903366 235:0.0721662 236:0.0897415 237:0.148625 238:0.1541 239:0 240:0.148115 241:0.0854263 242:0.0625202 243:0.144913 244:0.166558 245:0.00581128 246:0.0982407 247:0.0478547 248:0.0956863 249:0.266316 250:0.0815117 251:0.0623103 252:0.23479 253:0.10748 254:0.0842877 255:0.0350076 256:0.0508231 257:0.229347 258:0.141063 259:0.216832 260:0.0784107 261:0.0583295 262:0.105899 263:0.163928 264:0.0328443 265:0.00351219 266:0 267:0 268:0.18 269:0.48 270:0.56 271:0.9 272:0.72 273:0.76 274:0.579866 275:0.958682 276:0.652894 277:0.627412 278:0.0817099 279:0.853553 280:0.5 281:0.853553 282:0.66 283:0.444444 284:0.410714 285:0.00832865 286:0.00416432 287:0.43309 288:0.946773 289:0.909753 290:0.510488 291:1 292:0.237366 293:0.258345 294:0.542609 295:0.525511 296:0.528952 297:0.430965 298:0.105963 299:0.0682904 300:0.0611472 301:0.314415 302:1 303:0.0259851 304:0.25 305:0.780248 306:0.0654241 307:0.118998 308:0.0353303 309:0.706797 310:0.0940815 311:0.199121 312:0 313:0.922858 314:0.0320413 315:0.0292817 316:0.0158185 317:0 318:0.0129094 319:0.0502568 320:0.0165093 321:0.943146 322:0.0109354 323:0.00510204 324:0 325:0.0760949 326:0.0895042 327:0.179163 328:0 329:0.136508 330:0.134075 331:0.0513847 332:0.13062 333:0.20265 334:0.0132891 335:0.0546924 336:0.0572436 337:0.0447083 338:0.165992 339:0.15658 340:0.0311151 341:0.195502 342:0.280877 343:0.0352575 344:0.0211056 345:0.0325898 346:0.158194 347:0.128651 348:0.131019 349:0.13446 350:0.14133 351:0.217394 352:0.138476 353:0.0230488 354:0.00164804 355:0 356:0 
9.413385028977656e-12 1:0.1 2:0.26 3:0.22 4:0.9 5:0.78 6:0.94 7:0.748248 8:0.834637 9:0.717514 10:0.801174 11:0.0597069 12:0.5 13:1 14:0.5 15:0.7 16:0.416667 17:0.304348 18:0.0319682 19:0.169831 20:0.447555 21:0.827041 22:0.830821 23:0.69866 24:1 25:0.137863 26:0.270272 27:0.516911 28:0.609836 29:0.645593 30:0.343734 31:0.318914 32:0.211207 33:0.2041 34:0.300913 35:1 36:0.30356 37:1 38:0.786518 39:0.0362152 40:0.159031 41:0.0182359 42:0.619478 43:0.155347 44:0.225175 45:0 46:0.927159 47:0.0401413 48:0.0156019 49:0.0170979 50:0.0278663 51:0.179687 52:0.126424 53:0.0559744 54:0.650292 55:0.0643369 56:0.0775982 57:0.0578649 58:0.0698619 59:0.139365 60:0.158992 61:0.00199607 62:0.102879 63:0.147238 64:0.0227412 65:0.162601 66:0.194327 67:0.0127151 68:0.053793 69:0.0285138 70:0.115447 71:0.141633 72:0.143373 73:0.0439902 74:0.156252 75:0.304283 76:0.0817339 77:0.035615 78:0.0613033 79:0.132232 80:0.0909946 81:0.123632 82:0.151058 83:0.134041 84:0.18939 85:0.202008 86:0.0609581 87:0.0100083 88:0 89:0 90:0.1 91:0.26 92:0.32 93:0.94 94:0.82 95:0.84 96:0.761483 97:0.869847 98:0.746564 99:0.728953 100:0.131014 101:0.5 102:1 103:0.5 104:0.69 105:0.404762 106:0.319444 107:0.00461476 108:0.392254 109:0.775279 110:0.872137 111:0.86217 112:0.624023 113:1 114:0.295344 115:0.274264 116:0.503499 117:0.659605 118:0.669761 119:0.331093 120:0.565419 121:0.282097 122:0.258852 123:0.456272 124:0.852416 125:0.474906 126:1 127:0.686574 128:0.035821 129:0.261354 130:0.0162511 131:0.452927 132:0.277045 133:0.270028 134:0 135:0.917057 136:0.0514227 137:0.0109587 138:0.0205619 139:0.0608949 140:0.372087 141:0.242305 142:0.0800598 143:0.544923 144:0.09443 145:0.1061 146:0.0852846 147:0.0878143 148:0.20401 149:0.128189 150:0.00445277 151:0.11996 152:0.0862977 153:0.047067 154:0.176902 155:0.145306 156:0.0253244 157:0.0843262 158:0.0318148 159:0.205597 160:0.202239 161:0.089877 162:0.0762725 163:0.145714 164:0.138835 165:0.154829 166:0.0607322 167:0.100008 168:0.168687 169:0.0900985 170:0.165194 171:0.09402 172:0.0600508 173:0.10638 174:0.187659 175:0.0484911 176:0.00709724 177:0 178:0 179:0.14 180:0.44 181:0.3 182:0.86 183:0.72 184:0.78 185:0.663607 186:0.89582 187:0.65393 188:0.76388 189:0.0655436 190:0.5 191:0.621268 192:0.985071 193:0.68 194:0.430556 195:0.3 196:0.0317086 197:0.0461216 198:0.345912 199:0.946773 200:0.876058 201:0.54042 202:1 203:0.167191 204:0.268235 205:0.511606 206:0.56697 207:0.645805 208:0.581907 209:0.376138 210:0.289193 211:0.341042 212:0.357182 213:1 214:0.404909 215:1 216:0.754493 217:0.053281 218:0.165781 219:0.0264449 220:0.498989 221:0.139666 222:0.361345 223:0 224:0.900469 225:0.0611387 226:0.0146116 227:0.0237805 228:0.0124909 229:0.110852 230:0.117776 231:0.0797534 232:0.616193 233:0.0736811 234:0.0729089 235:0.051476 236:0.075018 237:0.105436 238:0.180008 239:0 240:0.141538 241:0.118379 242:0.0542971 243:0.131718 244:0.193605 245:0.00250941 246:0.0828454 247:0.0432553 248:0.0787734 249:0.198108 250:0.10872 251:0.077964 252:0.218335 253:0.18949 254:0.071497 255:0.0382247 256:0.048168 257:0.186671 258:0.138703 259:0.17622 260:0.093276 261:0.094896 262:0.152345 263:0.150234 264:0.0281763 265:0.00272536 266:0 267:0 268:0.152174 269:0.434783 270:0.434783 271:0.891304 272:0.695652 273:0.608696 274:0.644474 275:0.960301 276:0.662459 277:0.608306 278:0.640555 279:0.5 280:0.5 281:0.5 282:0.663043 283:0.4375 284:0.25 285:0 286:0 287:0 288:0.962994 289:1.21203 290:0.255182 291:0.156676 292:1.56096 293:0.286569 294:0.578704 295:0.555556 296:0.634259 297:0.0857143 298:0.0571429 299:0.031746 300:4.76114e-34 301:0.0892857 302:1 303:7.14171e-34 304:1 305:0.978083 306:0 307:0.0219174 308:0 309:0.937243 310:0.00431079 311:0.0584465 312:0 313:0.977425 314:0 315:0.0182645 316:0.00431079 317:0 318:0 319:0 320:0.0125211 321:0.971429 322:0 323:0.0142857 324:0 325:0.0714286 326:0.108922 327:0.204963 328:0 329:0.158128 330:0.112131 331:0.0714286 332:0.100336 333:0.172662 334:0.0714286 335:0.0714286 336:0 337:0.193338 338:0.139301 339:0.0186456 340:0.224245 341:0.189008 342:0.0926057 343:0.225394 344:0.0949098 345:0.168707 346:0.151324 347:0.158187 348:0.0859593 349:0 350:0.00963829 351:0.105881 352:0.146653 353:0.0217507 354:0.000477513 355:0 356:0 
-7.780395811138228e-12 1:0.275862 2:0.258621 3:0.448276 4:0.793103 5:0.431034 6:0.448276 7:0.437688 8:0.974342 9:0.658114 10:0.5 11:0.0345336 12:0.5 13:0.5 14:0.5 15:0.6375 16:0.474138 17:0.5 18:0.0043682 19:0.152887 20:-0.0131046 21:0.967047 22:1.19029 23:0.269167 24:1 25:0.124494 26:0.230616 27:0.561657 28:0.522402 29:0.66735 30:0.167558 31:0.304218 32:0.0646538 33:0.0840846 34:0.556538 35:1 36:0.244208 37:1 38:0.7136 39:0.0142245 40:0.246871 41:0.0253049 42:0.909557 43:0.0308306 44:0.0333386 45:0.026274 46:0.94258 47:0.00297071 48:0.0427948 49:0.011655 50:0.007522 51:0.121098 52:0.249525 53:0.158261 54:0.776147 55:0.0573966 56:0.0589315 57:0.0470241 58:0.0813022 59:0.202221 60:0.10021 61:0.0220288 62:0.158409 63:0.114756 64:0.0748193 65:0.178117 66:0.0681365 67:0.137766 68:0.0396145 69:0 70:0.213116 71:0.318277 72:0.00765289 73:0.138258 74:0.120854 75:0.0244617 76:0.260202 77:0.0825569 78:0.14684 79:0.12437 80:0.198669 81:0.156019 82:0 83:0.0146783 84:0.0166646 85:0.0971414 86:0.0129998 87:0.000221529 88:0 89:0 90:0.259259 91:0.240741 92:0.444444 93:0.703704 94:0.87037 95:0.592593 96:0.620812 97:0.783158 98:0.90114 99:0.594386 100:0.10747 101:0.5 102:0.5 103:0.5 104:0.675 105:0.361111 106:0.333333 107:0.0152155 108:0.791207 109:0.0355029 110:0.933248 111:1.27934 112:0.218669 113:0.912811 114:0.268807 115:0.234849 116:0.537791 117:0.73867 118:0.509019 119:0.166708 120:0.327976 121:0.0394737 122:0.056391 123:0.561275 124:0.695913 125:0.218571 126:1 127:0.692342 128:0.0117248 129:0.273433 130:0.0224995 131:0.914454 132:0.0304845 133:0.0298063 134:0.0252549 135:0.950163 136:0.00234496 137:0.0357676 138:0.0117248 139:0.0084031 140:0.157821 141:0.284198 142:0.169815 143:0.840356 144:0.0444404 145:0.0446894 146:0.0448113 147:0.075007 148:0.173939 149:0.107867 150:0.0247738 151:0.169618 152:0.142001 153:0.06485 154:0.158001 155:0.0839432 156:0.13992 157:0.0251727 158:0 159:0.151774 160:0.340708 161:0.00823607 162:0.164828 163:0.130255 164:0.0391071 165:0.271117 166:0.0861026 167:0.0993019 168:0.0822691 169:0.236661 170:0.179418 171:0 172:0.0185431 173:0.0265874 174:0.105552 175:0.0146581 176:0.000210508 177:0 178:0 179:0.28 180:0.42 181:0.4 182:0.8 183:0.5 184:0.44 185:0.399724 186:0.992764 187:0.57581 188:0.537905 189:0.0518503 190:0.5 191:1 192:0.5 193:0.6125 194:0.5 195:0.53125 196:0.0117923 197:-0.121854 198:-0.00393076 199:0.896055 200:1.19029 201:0.309703 202:1 203:0.20833 204:0.231926 205:0.57196 206:0.451662 207:0.704377 208:0.238882 209:0.400782 210:0.104709 211:0.137902 212:0.657243 213:1 214:0.259078 215:1 216:0.623845 217:0.0243048 218:0.31772 219:0.0341294 220:0.885103 221:0.0565946 222:0.0312583 223:0.0270444 224:0.925068 225:0.00234496 226:0.0496772 227:0.02291 228:0.0117955 229:0.148376 230:0.294771 231:0.165326 232:0.744621 233:0.0625047 234:0.0506375 235:0.039447 236:0.0758776 237:0.126024 238:0.158216 239:0.0148735 240:0.153964 241:0.191916 242:0.0627993 243:0.114932 244:0.101397 245:0.100098 246:0.0444576 247:0 248:0.201151 249:0.188987 250:0.0151304 251:0.237929 252:0.162837 253:0.0494101 254:0.333774 255:0.114297 256:0.0888277 257:0.0316204 258:0.211377 259:0.157087 260:0 261:0.0298694 262:0.0331466 263:0.111232 264:0.0160022 265:0.000360723 266:0 267:0 268:0.24 269:0.58 270:0.46 271:0.84 272:0.5 273:0.5 274:0.468025 275:0.994535 276:0.434062 277:0.532969 278:0.0896131 279:0.5 280:0.0527864 281:0.276393 282:0.6125 283:0.54 284:0.55 285:0 286:0 287:0.0295446 288:0.896055 289:1.32582 290:0.197396 291:0.846179 292:0.295446 293:0.24763 294:0.560714 295:0.325 296:0.84375 297:0.126447 298:0.249405 299:0.0482724 300:0.075188 301:0.472405 302:1 303:0.259028 304:1 305:0.758984 306:0.00649523 307:0.209266 308:0.0252549 309:0.921121 310:0.0247153 311:0.0317934 312:0.0223703 313:0.951594 314:0.00234496 315:0.0437159 316:0.00234496 317:0.0036117 318:0.0733432 319:0.194251 320:0.144767 321:0.810749 322:0.0483867 323:0.0656551 324:0.0453083 325:0.0880286 326:0.212481 327:0.111496 328:0.00791054 329:0.146256 330:0.0819389 331:0.0917648 332:0.179001 333:0.0811231 334:0.0977827 335:0.0876021 336:0 337:0.111763 338:0.350074 339:0.0719005 340:0.0833319 341:0.158122 342:0.0394231 343:0.166237 344:0.0257303 345:0.112231 346:0.203158 347:0.165449 348:0.216394 349:0.045359 350:0.0418777 351:0.0235631 352:0.119071 353:0.0176774 354:0.000245476 355:0 356:0 
-1.05767831656292e-11 1:0.293103 2:0.258621 3:0.534483 4:0.810345 5:0.465517 6:0.672414 7:0.417784 8:0.950631 9:0.680253 10:0.620168 11:0.037231 12:0.5 13:0.5 14:0 15:0.65 16:0.482759 17:0.318182 18:-0.00671098 19:0.183433 20:0.0268439 21:0.859337 22:1.15629 23:0.362544 24:1 25:0.145405 26:0.236199 27:0.555949 28:0.532507 29:0.665674 30:0.233726 31:0.390881 32:0.114867 33:0.112246 34:0.578861 35:1 36:0.331448 37:1 38:0.678604 39:0.0149007 40:0.264893 41:0.0416019 42:0.877769 43:0.0146787 44:0.0401348 45:0.067418 46:0.924099 47:0.00819401 48:0.0565399 49:0.011167 50:0.00553926 51:0.130244 52:0.292612 53:0.180255 54:0.714248 55:0.0634248 56:0.0904867 57:0.0654089 58:0.0554499 59:0.160184 60:0.150202 61:0.0142691 62:0.154458 63:0.121533 64:0.0444966 65:0.188764 66:0.110643 67:0.0010276 68:0.0943705 69:0.0171527 70:0.0265287 71:0.399611 72:0.0789907 73:0.11852 74:0.241635 75:0.0221638 76:0.0495342 77:0.053731 78:0.0394704 79:0.302784 80:0.216371 81:0.226058 82:0.0133094 83:0.0238023 84:0.0749392 85:0.119717 86:0.0196751 87:0.000474327 88:0 89:0 90:0.275862 91:0.258621 92:0.568966 93:0.793103 94:0.87931 95:0.603448 96:0.605934 97:0.819801 98:0.883761 99:0.52132 100:0.10928 101:0.5 102:0.5 103:0 104:0.65625 105:0.37931 106:0.361111 107:0 108:0.773513 109:0 110:0.879459 111:1.21203 112:0.30092 113:0.925023 114:0.288902 115:0.23938 116:0.556329 117:0.743959 118:0.487069 119:0.240019 120:0.433613 121:0.120789 122:0.142857 123:0.608531 124:0.825099 125:0.4899 126:1 127:0.621843 128:0.0102413 129:0.303967 130:0.0639484 131:0.88479 132:0.0129579 133:0.0362125 134:0.0660398 135:0.919869 136:0.00543323 137:0.0644566 138:0.0102413 139:0.00719232 140:0.188949 141:0.372942 142:0.155808 143:0.653826 144:0.0778304 145:0.106467 146:0.0851586 147:0.0628151 148:0.169582 149:0.140483 150:0.0224159 151:0.169777 152:0.10341 153:0.0473942 154:0.185439 155:0.0986844 156:0 157:0.0862446 158:0.0421852 159:0.00662023 160:0.373827 161:0.145 162:0.0615729 163:0.23344 164:0.0511102 165:0.00431974 166:0.0338885 167:0.0274574 168:0.292095 169:0.204946 170:0.191537 171:0.0724034 172:0.0585669 173:0.114785 174:0.119087 175:0.0193745 176:0.000375824 177:0 178:0 179:0.159091 180:0.295455 181:0.5 182:0.886364 183:0.659091 184:0.636364 185:0.560029 186:0.941054 187:0.720527 188:0.582698 189:0.107764 190:0.5 191:1 192:0.5 193:0.681818 194:0.454545 195:0.416667 196:-0.00594121 197:0.0891182 198:0 199:0.785398 200:1.18248 201:0.388319 202:0.95634 203:0.314884 204:0.274626 205:0.570688 206:0.537579 207:0.630191 208:0.187719 209:0.266839 210:0.128654 211:0.087482 212:0.356141 213:1 214:0.154304 215:1 216:0.73035 217:0.0237144 218:0.222737 219:0.0231992 220:0.899018 221:0.0231992 222:0.0339104 223:0.0438728 224:0.936194 225:0.00271661 226:0.0460404 227:0.0150493 228:0.00280239 229:0.074033 230:0.157549 231:0.120563 232:0.840336 233:0.0169929 234:0.0441168 235:0.0316366 236:0.0709015 237:0.113895 238:0.209568 239:0.00191064 240:0.112887 241:0.112257 242:0.0604001 243:0.149682 244:0.168499 245:0 246:0.0644722 247:0.0631401 248:0.0173186 249:0.304513 250:0.0617881 251:0.141198 252:0.301693 253:0.0458775 254:0.0218768 255:0.061251 256:0.0695798 257:0.318028 258:0.159316 259:0.187764 260:0.0463877 261:0.0182225 262:0.117574 263:0.183662 264:0.0390319 265:0.00131856 266:0 267:0 268:0.192308 269:0.596154 270:0.461538 271:0.846154 272:0.442308 273:0.692308 274:0.489697 275:0.960301 276:0.391694 277:0.662459 278:0.0938064 279:0.5 280:0.5 281:0.5 282:0.63 283:0.538462 284:0.363636 285:0.0203196 286:0 287:0.142237 288:0.805003 289:1.15629 290:0.400241 291:0.946414 292:0.314954 293:0.24384 294:0.554328 295:0.309097 296:0.858868 297:0.265497 298:0.457435 299:0.126781 300:0.120288 301:0.743318 302:0.86614 303:0.360621 304:1 305:0.677485 306:0.0179156 307:0.274717 308:0.0298827 309:0.861814 310:0.0183911 311:0.0385145 312:0.0812802 313:0.929077 314:0.0108665 315:0.0552485 316:0.00480805 317:0.00588649 318:0.118723 319:0.287313 320:0.246427 321:0.728432 322:0.0692101 323:0.0895789 324:0.0549902 325:0.0782937 326:0.163217 327:0.138155 328:0.0197653 329:0.154837 330:0.106582 331:0.0679122 332:0.180733 333:0.0905049 334:0 335:0.128899 336:0.0325661 337:0.0305717 338:0.36676 339:0.10716 340:0.117492 341:0.19451 342:0.0220413 343:0.0672395 344:0.0502261 345:0.0268633 346:0.303901 347:0.204552 348:0.193007 349:0.0068696 350:0.0326297 351:0.114712 352:0.142065 353:0.0256766 354:0.000706739 355:0 356:0 
-1.327525519135142e-11 1:0.25 2:0.267857 3:0.5 4:0.857143 5:0.446429 6:0.678571 7:0.470711 8:0.961657 9:0.635781 10:0.635781 11:0.0411651 12:0.5 13:1 14:0.5 15:0.65 16:0.473214 17:0.295455 18:0 19:0.154269 20:0.0626018 21:0.841942 22:1.15629 23:0.374334 24:1 25:0.14309 26:0.241469 27:0.55302 28:0.513418 29:0.687361 30:0.213187 31:0.357421 32:0.107863 33:0.103703 34:0.546591 35:1 36:0.28432 37:1 38:0.694497 39:0.0142518 40:0.251461 41:0.0397903 42:0.880852 43:0.0140395 44:0.0383871 45:0.0667214 46:0.925336 47:0.0089568 48:0.0550265 49:0.0106807 50:0.00517911 51:0.117419 52:0.267353 53:0.160513 54:0.74834 55:0.0579976 56:0.0818201 57:0.0533 58:0.0664561 59:0.166357 60:0.136915 61:0.0232434 62:0.151587 63:0.107973 64:0.0596775 65:0.188774 66:0.0990174 67:0.00202567 68:0.115672 69:0.0292649 70:0.0253322 71:0.379149 72:0.102697 73:0.112546 74:0.2157 75:0.0176138 76:0.0474264 77:0.0514446 78:0.0377908 79:0.304164 80:0.20816 81:0.210755 82:0.0164152 83:0.0296296 84:0.0942145 85:0.129405 86:0.0226839 87:0.000634451 88:0 89:0 90:0.232143 91:0.267857 92:0.535714 93:0.767857 94:0.803571 95:0.607143 96:0.561301 97:0.851992 98:0.851992 99:0.546932 100:0.103546 101:0.5 102:1 103:0.5 104:0.677083 105:0.383929 106:0.333333 107:0.00971932 108:0.743528 109:0.00485966 110:0.86217 111:1.21203 112:0.310998 113:0.918641 114:0.296439 115:0.247832 116:0.545282 117:0.743278 118:0.495115 119:0.209699 120:0.371284 121:0.115785 122:0.130252 123:0.494006 124:0.859157 125:0.378378 126:1 127:0.659887 128:0.0112622 129:0.273272 130:0.0555789 131:0.896383 132:0.0123077 133:0.0322088 134:0.0591002 135:0.923496 136:0.00516059 137:0.0590357 138:0.0123077 139:0.00671755 140:0.161464 141:0.312358 142:0.113881 143:0.712741 144:0.0681695 145:0.0869693 146:0.0556963 147:0.0529146 148:0.154401 149:0.183289 150:0.0144454 151:0.145928 152:0.129124 153:0.0386593 154:0.158889 155:0.122349 156:0 157:0.0657617 158:0.0359611 159:0.00666968 160:0.347381 161:0.109346 162:0.0933107 163:0.289203 164:0.0523666 165:0.0123421 166:0.0484351 167:0.0366943 168:0.315559 169:0.196511 170:0.181598 171:0.0610247 172:0.0429478 173:0.104888 174:0.128304 175:0.0221094 176:0.000478114 177:0 178:0 179:0.208333 180:0.520833 181:0.5 182:0.916667 183:0.520833 184:0.666667 185:0.507116 186:0.986709 187:0.5 188:0.61452 189:0.0993176 190:0.5 191:0.5 192:0.5 193:0.663043 194:0.5 195:0.388889 196:0.00568691 197:-0.0170607 198:0.062556 199:0.806672 200:1.19781 201:0.358771 202:0.915846 203:0.318467 204:0.261871 205:0.566437 206:0.388393 207:0.768467 208:0.213377 209:0.312637 210:0.14164 211:0.0921399 212:0.420817 213:1 214:0.194814 215:1 216:0.732358 217:0.0251047 218:0.227056 219:0.0154818 220:0.895203 221:0.0174683 222:0.0343953 223:0.0529335 224:0.934035 225:0.00516059 226:0.0459167 227:0.014888 228:0.00362443 229:0.0902278 230:0.180216 231:0.11021 232:0.80754 233:0.027716 234:0.0535828 235:0.0371309 236:0.0685559 237:0.113047 238:0.189579 239:0.00195374 240:0.122046 241:0.118541 242:0.0592004 243:0.161946 244:0.165132 245:0 246:0.0675722 247:0.056582 248:0.0157967 249:0.309283 250:0.0804202 251:0.120388 252:0.306608 253:0.0433495 254:0.017676 255:0.0520433 256:0.0616996 257:0.314607 258:0.178202 259:0.192271 260:0.0335853 261:0.0187845 262:0.13113 263:0.160423 264:0.0315283 265:0.000970855 266:0 267:0 268:0.192308 269:0.557692 270:0.442308 271:0.884615 272:0.480769 273:0.673077 274:0.50972 275:0.971728 276:0.447586 277:0.657243 278:0.102471 279:0.5 280:0.146447 281:0.146447 282:0.64 283:0.538462 284:0.35 285:0.0214837 286:0 287:0.204095 288:0.805003 289:1.19029 290:0.367174 291:0.895133 292:0.327626 293:0.238533 294:0.545968 295:0.319355 296:0.869227 297:0.227188 298:0.391787 299:0.0852553 300:0.087535 301:0.680938 302:0.852416 303:0.281007 304:1 305:0.721698 306:0.0103212 307:0.237017 308:0.0309636 309:0.869949 310:0.00714708 311:0.0431414 312:0.0797623 313:0.929462 314:0.0154818 315:0.0524762 316:0.0025803 317:0.00476677 318:0.0851652 319:0.217424 320:0.201786 321:0.793123 322:0.0470214 323:0.0764559 324:0.0518504 325:0.0882301 326:0.176461 327:0.103616 328:0.0232194 329:0.171799 330:0.0816231 331:0.0773401 332:0.204436 333:0.0732756 334:0.00204784 335:0.162936 336:0.0198918 337:0.0795536 338:0.345966 339:0.134233 340:0.124031 341:0.107478 342:0.0238622 343:0.112191 344:0.0612987 345:0.0313744 346:0.253382 347:0.180991 348:0.183181 349:0.0043665 350:0.037714 351:0.1355 352:0.13425 353:0.0221647 354:0.000649662 355:0 356:0 
-1.030274749103735e-11 1:0.25 2:0.267857 3:0.5 4:0.857143 5:0.446429 6:0.678571 7:0.470711 8:0.961657 9:0.635781 10:0.635781 11:0.0412032 12:0.5 13:1 14:0.5 15:0.65 16:0.473214 17:0.295455 18:-0.00223785 19:0.136509 20:0.076087 21:0.841942 22:1.15629 23:0.374334 24:1 25:0.143223 26:0.242478 27:0.55165 28:0.507254 29:0.693867 30:0.212458 31:0.343434 32:0.108797 33:0.0980359 34:0.523261 35:1 36:0.265623 37:1 38:0.711791 39:0.0136571 40:0.236422 41:0.0381299 42:0.882351 43:0.0134536 44:0.041331 45:0.0628643 46:0.928452 47:0.00858304 48:0.0527303 49:0.010235 50:0.00484965 51:0.109932 52:0.243857 53:0.14994 54:0.760058 55:0.052501 56:0.0789085 57:0.0509826 58:0.0687325 59:0.169499 60:0.131327 61:0.0257405 62:0.152145 63:0.103356 64:0.0626617 65:0.191807 66:0.0947317 67:0.00142213 68:0.117822 69:0.0351131 70:0.0239509 71:0.368883 72:0.1213 73:0.107952 74:0.206661 75:0.0168949 76:0.0454906 77:0.0493448 78:0.0352549 79:0.29899 80:0.203451 81:0.204865 82:0.0222213 83:0.0361345 84:0.104247 85:0.130352 86:0.0230807 87:0.000673884 88:0 89:0 90:0.222222 91:0.240741 92:0.537037 93:0.777778 94:0.759259 95:0.611111 96:0.553749 97:0.863803 98:0.83955 99:0.548507 100:0.0993483 101:0.5 102:1 103:0.5 104:0.677083 105:0.388889 106:0.333333 107:-0.0048191 108:0.674674 109:0.0048191 110:0.844154 111:1.21203 112:0.321751 113:0.960684 114:0.289146 115:0.251431 116:0.54425 117:0.722107 118:0.510296 119:0.208061 120:0.347984 121:0.107798 122:0.12037 123:0.460592 124:0.859157 125:0.351652 126:1 127:0.67747 128:0.0131811 129:0.253968 130:0.0553803 131:0.899252 132:0.0141766 133:0.0327519 134:0.0538193 135:0.92053 136:0.00491401 137:0.0603789 138:0.0141766 139:0.00612441 140:0.143364 141:0.278315 142:0.111187 143:0.729739 144:0.0567193 145:0.0824212 146:0.0549588 147:0.0477768 148:0.149542 149:0.197717 150:0.0108443 151:0.141323 152:0.13802 153:0.0341106 154:0.151827 155:0.12884 156:0 157:0.055646 158:0.0327821 159:0.00677513 160:0.339545 161:0.101141 162:0.106545 163:0.302828 164:0.0547372 165:0.0157082 166:0.0534593 167:0.0417429 168:0.322916 169:0.19189 170:0.174727 171:0.0549979 172:0.0415427 173:0.103017 174:0.135874 175:0.0242972 176:0.000574409 177:0 178:0 179:0.2 180:0.54 181:0.48 182:0.88 183:0.46 184:0.68 185:0.494396 186:0.976656 187:0.443923 188:0.640193 189:0.0927298 190:0.5 191:1 192:0.5 193:0.65625 194:0.54 195:0.375 196:0 197:-0.0520003 198:0.0832005 199:0.805803 200:1.17601 201:0.380506 202:0.961533 203:0.306802 204:0.25453 205:0.556059 206:0.337253 207:0.818545 208:0.241347 209:0.369566 210:0.1384 211:0.0969416 212:0.481099 213:1 214:0.226025 215:1 216:0.721718 217:0.0220136 218:0.241527 219:0.014742 220:0.882245 221:0.0190906 222:0.038998 223:0.0596668 224:0.934355 225:0.00982802 226:0.0416407 227:0.0141766 228:0.0045395 229:0.103452 230:0.234267 231:0.142148 232:0.800188 233:0.0387586 234:0.0603686 235:0.0412743 236:0.0758927 237:0.123048 238:0.18074 239:0.0135182 240:0.129652 241:0.131819 242:0.0628922 243:0.147525 244:0.134913 245:0 246:0.113647 247:0.0341353 248:0.0357562 249:0.298265 250:0.0690413 251:0.164495 252:0.262522 253:0.0221379 254:0.0738057 255:0.0701264 256:0.0511778 257:0.295988 258:0.191766 259:0.193659 260:0.00611074 261:0.0160303 262:0.101336 263:0.153592 264:0.0298218 265:0.000882113 266:0 267:0 268:0.18 269:0.52 270:0.4 271:0.9 272:0.52 273:0.68 274:0.535446 275:0.966002 276:0.5 277:0.681223 278:0.122799 279:0.5 280:0.0527864 281:0.723607 282:0.64 283:0.520833 284:0.375 285:0.0127166 286:0 287:0.273406 288:0.805803 289:1.17601 290:0.380506 291:0.786375 292:0.375139 293:0.239707 294:0.540414 295:0.335526 296:0.866541 297:0.194086 298:0.314762 299:0.0490196 300:0.0651261 301:0.61946 302:1 303:0.225469 304:1 305:0.777638 306:0.00516059 307:0.188818 308:0.0283833 309:0.87095 310:0.0025803 311:0.0518874 312:0.074582 313:0.940394 314:0.0154818 315:0.0415436 316:0.0025803 317:0.00249023 318:0.0394124 319:0.150675 320:0.178682 321:0.832805 322:0.0439022 323:0.0650565 324:0.0383948 325:0.0877417 326:0.172795 327:0.0974525 328:0.0095288 329:0.195661 330:0.0772631 331:0.0617859 332:0.22915 333:0.0686218 334:0 335:0.134579 336:0.0234085 337:0.0539439 338:0.393563 339:0.155773 340:0.0806653 341:0.116188 342:0.0418801 343:0.0780087 344:0.0379246 345:0.0157938 346:0.26954 347:0.18989 348:0.182802 349:0.0151016 350:0.0501571 351:0.160782 352:0.136684 353:0.0213791 354:0.000656107 355:0 356:0 
