svm_type c_svc
kernel_type polynomial
degree 3
gamma 100
coef0 0
nr_class 7
total_sv 339
rho -1.29222 -0.244744 -0.7386 -0.313942 -0.0622743 -0.271517 0.463508 -0.704535 -0.392348 0.502899 0.177497 -3.0585 -3.03244 -0.0606589 -0.25688 0.711381 1.42151 0.917307 1.03205 0.956263 -0.0552928
label 7 6 4 1 2 5 3
probA -4.52417 -4.23306 -4.18804 -3.87055 -2.43046 -4.70527 -4.7421 -4.13172 -3.77457 -4.34364 -4.51747 -3.91206 -3.4316 -4.57569 -4.77963 -3.73557 -3.85744 -4.29917 -3.58284 -3.86216 -4.57127
probB -0.341843 -0.573134 -0.415331 -0.894592 -0.152623 -0.15754 0.144559 -0.137749 -0.632551 -0.0805613 0.0561314 -0.113053 -0.168139 0.0465481 0.0415646 -0.323336 0.105496 0.283644 0.61127 0.766851 -0.194233
nr_sv 68 64 73 28 13 48 45
SV
0 0 0 0 1.411104508880916e-11 0 1:0.106061 2:0.5 3:0.5 4:0.80303 5:0.621212 6:0.621212 7:0.578727 8:0.98553 9:0.58444 10:0.58444 11:0.095752 12:0.5 13:0.5 14:0.5 15:0.734848 16:0.394737 17:0.433333 18:0.282986 19:0 20:0.242559 21:1.04839 22:0.902507 23:0.426627 24:0.936978 25:0.270858 26:0.269861 27:0.564126 28:0.623438 29:0.569699 30:0.319603 31:0.508804 32:0.227665 33:0.316717 34:0.728824 35:1 36:0.475082 37:1 38:0.899741 39:0.0252906 40:0.0346286 41:0.0403399 42:0.715969 43:0.0356815 44:0.22247 45:0.0258792 46:0.711397 47:0.104806 48:0.123774 49:0.0600235 50:0.0101227 51:0.124288 52:0.214626 53:0.146515 54:0.580409 55:0.0856998 56:0.062874 57:0.0508781 58:0.0631944 59:0.0769727 60:0.153792 61:0.0233423 62:0.138258 63:0.17036 64:0.0563205 65:0.148523 66:0.169238 67:0 68:0.0855925 69:0.0572647 70:0.0632655 71:0.188436 72:0.120051 73:0.0718654 74:0.277405 75:0.13612 76:0.0626235 77:0.0143989 78:0.055596 79:0.174808 80:0.153633 81:0.224108 82:0.0503187 83:0.172002 84:0.0925118 85:0.122036 86:0.0178893 87:0.00124133 88:0 89:0 90:0.106061 91:0.5 92:0.530303 93:0.863636 94:0.621212 95:0.560606 96:0.629715 97:0.993336 98:0.578934 99:0.519733 100:0.295271 101:0.5 102:0.5 103:0.5 104:0.719697 105:0.394737 106:0.480769 107:0.244721 108:0 109:0 110:1.04839 111:0.970746 112:0.375271 113:0.325045 114:0.757471 115:0.35595 116:0.5992 117:0.635246 118:0.446721 119:0.322746 120:0.521349 121:0.177748 122:0.230055 123:0.658813 124:0.75 125:0.227872 126:0.5 127:0.908139 128:0.0229574 129:0.0329749 130:0.0359286 131:0.794585 132:0.0389137 133:0.15353 134:0.0129712 135:0.721899 136:0.0818433 137:0.158837 138:0.0374211 139:0.00490591 140:0.0765619 141:0.187418 142:0.121293 143:0.77316 144:0.067336 145:0.0501545 146:0.0260164 147:0.0714286 148:0.135577 149:0.28427 150:0.00403055 151:0.0159301 152:0.00794726 153:0.067398 154:0.193404 155:0.220015 156:0 157:0.0651858 158:0.0776713 159:0.135617 160:0.165166 161:0.0601073 162:0.128032 163:0.282928 164:0.0852935 165:0.138479 166:0.0176221 167:0.106495 168:0.250687 169:0.00896583 170:0.259265 171:0.102705 172:0.00219884 173:0.113581 174:0.185071 175:0.0296225 176:0.00191014 177:0 178:0 179:0.0517241 180:0.517241 181:0.534483 182:0.844828 183:0.62069 184:0.637931 185:0.640348 186:0.991704 187:0.564135 188:0.564135 189:0.141341 190:0.947214 191:0.5 192:0.276393 193:0.75 194:0.402778 195:0.403846 196:0.344468 197:0 198:0.350511 199:1.0153 200:0.945311 201:0.421419 202:0.713245 203:0.362597 204:0.296826 205:0.528146 206:0.627747 207:0.606874 208:0.478124 209:0.807404 210:0.440784 211:0.591317 212:0.950585 213:0.852416 214:0.866373 215:1 216:0.835058 217:0.0603785 218:0.0277136 219:0.0768503 220:0.572823 221:0.0542502 222:0.324115 223:0.0488125 224:0.509267 225:0.196319 226:0.170571 227:0.123843 228:0.0218778 229:0.193766 230:0.229909 231:0.161195 232:0.45007 233:0.0558669 234:0.0855429 235:0.0742354 236:0.0691444 237:0.101562 238:0.180272 239:0.0126656 240:0.099123 241:0.12569 242:0.0610472 243:0.149276 244:0.201219 245:0 246:0.0510137 247:0.0918435 248:0.0667942 249:0.186523 250:0.11239 251:0.117176 252:0.253343 253:0.120917 254:0.0750152 255:0.0221699 256:0.0855649 257:0.163115 258:0.111364 259:0.216618 260:0.105261 261:0.121386 262:0.0995056 263:0.144228 264:0.0234034 265:0.00157547 266:0 267:0 268:0.159091 269:0.5 270:0.431818 271:0.931818 272:0.681818 273:0.522727 274:0.607598 275:0.983548 276:0.613776 277:0.556888 278:0.304806 279:0.947214 280:0.5 281:0.723607 282:0.647727 283:0.411765 284:0.3125 285:0 286:0 287:0.277437 288:0.912908 289:1.13095 290:0.348771 291:0.327675 292:0.814971 293:0.257304 294:0.579787 295:0.569149 296:0.636728 297:0.190089 298:0.284921 299:0.0104611 300:0.0238095 301:0.430303 302:1 303:3.21377e-33 304:1 305:0.95955 306:0.00648561 307:0.0274791 308:0.00648561 309:0.785754 310:0.0244499 311:0.183311 312:0.00648561 313:0.878206 314:0.0453993 315:0.0439665 316:0.032428 317:0 318:0.00554642 319:0.0902794 320:0.107277 321:0.952381 322:0 323:0.000843832 324:0.0110609 325:0.0714286 326:0.0638414 327:0.117262 328:0.01009 329:0.151291 330:0.218036 331:0.0613386 332:0.119684 333:0.187029 334:0.0422264 335:0.100631 336:0 337:0.0777424 338:0.187497 339:0.0644057 340:0.12487 341:0.374642 342:0.0279865 343:0.0777873 344:0.0576009 345:0.11156 346:0.165566 347:0.253399 348:0.241512 349:0 350:0.0760646 351:0.0165096 352:0.131848 353:0.0209214 354:0.000665634 355:0 356:0 
0 0 0 0 1.983765055574986e-11 0 1:0.0806452 2:0.5 3:0.5 4:0.822581 5:0.629032 6:0.629032 7:0.602194 8:0.98553 9:0.58444 10:0.58444 11:0.0991238 12:0.5 13:0.5 14:0.5 15:0.75 16:0.394737 17:0.433333 18:0.272026 19:0 20:0.255286 21:1.02094 22:0.902507 23:0.450661 24:0.9635 25:0.272026 26:0.240968 27:0.560922 28:0.622533 29:0.571722 30:0.262734 31:0.40034 32:0.187959 33:0.25919 34:0.514649 35:1 36:0.33331 37:1 38:0.913815 39:0.0218307 40:0.0318782 41:0.0324762 42:0.752839 43:0.0308 44:0.194022 45:0.0223387 46:0.770751 47:0.0904674 48:0.0869695 49:0.0518118 50:0.00710787 51:0.0926317 52:0.158251 53:0.10517 54:0.680373 55:0.0497536 56:0.0415768 57:0.0376069 58:0.0614823 59:0.0771715 60:0.107974 61:0.0262893 62:0.159624 63:0.2226 64:0.0550856 65:0.132758 66:0.157015 67:0 68:0.0783138 69:0.0645433 70:0.0397662 71:0.174287 72:0.165592 73:0.0528372 74:0.245686 75:0.178975 76:0.0406777 77:0.00976106 78:0.0404888 79:0.134019 80:0.178003 81:0.193189 82:0.0641273 83:0.23244 84:0.107295 85:0.105668 86:0.0150918 87:0.00101405 88:0 89:0 90:0.0806452 91:0.5 92:0.548387 93:0.854839 94:0.629032 95:0.612903 96:0.637612 97:0.991539 98:0.581923 99:0.540962 100:0.138493 101:0.5 102:0.5 103:0.5 104:0.741935 105:0.394737 106:0.458333 107:0.289317 108:0 109:0.204224 110:1.02094 111:1.00748 112:0.369334 113:0.710796 114:0.351718 115:0.311738 116:0.545556 117:0.657828 118:0.537632 119:0.448437 120:0.77111 121:0.418344 122:0.551927 123:1 124:0.852416 125:0.878856 126:1 127:0.83889 128:0.0478569 129:0.0392505 130:0.0740022 131:0.597865 132:0.0539334 133:0.299097 134:0.0491047 135:0.545118 136:0.181873 137:0.174555 138:0.0984537 139:0.0154671 140:0.153756 141:0.246761 142:0.173339 143:0.433714 144:0.0427899 145:0.0970928 146:0.0439928 147:0.0714286 148:0.115008 149:0.207834 150:0.00808211 151:0.080909 152:0.086657 153:0.0633465 154:0.171832 155:0.194903 156:0 157:0.0449107 158:0.0979464 159:0.0843828 160:0.191744 161:0.108459 162:0.0763515 163:0.280708 164:0.115498 165:0.0651197 166:0.0140761 167:0.0813096 168:0.191269 169:0.0872137 170:0.236259 171:0.131108 172:0.0818556 173:0.11179 174:0.150392 175:0.0229843 176:0.00134392 177:0 178:0 179:0.104167 180:0.5 181:0.479167 182:0.895833 183:0.666667 184:0.645833 185:0.608609 186:0.979212 187:0.600887 188:0.600887 189:0.17464 190:0.853553 191:0.5 192:0.853553 193:0.697917 194:0.382353 195:0.392857 196:0.211426 197:0 198:0.581422 199:0.954499 200:0.881872 201:0.528074 202:0.591223 203:0.484518 204:0.247246 205:0.545507 206:0.605072 207:0.665243 208:0.304822 209:0.439584 210:0.176858 211:0.268841 212:0.598945 213:1 214:0.219086 215:1 216:0.90405 217:0.0230369 218:0.02949 219:0.043423 220:0.675792 221:0.0251373 222:0.260159 223:0.0389116 224:0.780403 225:0.0949192 226:0.052369 227:0.0723084 228:0.00454121 229:0.0963713 230:0.167044 231:0.119296 232:0.795297 233:0.0399812 234:0.0517138 235:0.0218577 236:0.0714286 237:0.0735864 238:0.126506 239:0.0187063 240:0.148136 241:0.204995 242:0.0527223 243:0.123739 244:0.180182 245:0 246:0.0791036 247:0.0637536 248:0.0108443 249:0.185044 250:0.167041 251:0.0292404 252:0.277295 253:0.187677 254:0.00449739 255:0.00769287 256:0.0260977 257:0.171056 258:0.173795 259:0.205955 260:0.08583 261:0.204876 262:0.1202 263:0.125339 264:0.0201277 265:0.00113545 266:0 267:0 268:0.184211 269:0.5 270:0.473684 271:0.973684 272:0.710526 273:0.473684 274:0.592716 275:0.983117 276:0.628831 277:0.5 278:1.10887 279:0.5 280:0.5 281:0.5 282:0.618421 283:0.411765 284:0.333333 285:0 286:0 287:0 288:0.840897 289:1.2315 290:0.305879 291:0.0921053 292:3 293:0.274737 294:0.75 295:0.480769 296:0.519231 297:0.0714286 298:0.0204082 299:0 300:0 301:4.28503e-34 302:1 303:0 304:0 305:0.975599 306:0 307:0.0244014 308:0 309:0.965838 310:0 311:0.034162 312:0 313:0.99512 314:0 315:0.00488028 316:0 317:0 318:0 319:0 320:0.0055549 321:1 322:0 323:0 324:0 325:0.0714286 326:0.0805048 327:0.152588 328:0 329:0.139623 330:0.178744 331:0.0714286 332:0.1127 333:0.192984 334:0.0714286 335:0.0714286 336:0 337:0.0893989 338:0.242722 339:0.0429728 340:0.196315 341:0.275938 342:0.00979545 343:0.168459 344:0.0701376 345:0.118547 346:0.142857 347:0.212528 348:0.23992 349:0 350:0.0462032 351:0.00134818 352:0.168231 353:0.0316548 354:0.000949028 355:0 356:0 
0 1.218483479039878e-12 0 3.032008339541663e-13 0 0 1:0.140625 2:0.484375 3:0.515625 4:0.828125 5:0.640625 6:0.578125 7:0.576415 8:0.985662 9:0.610378 10:0.544151 11:0.104258 12:0.146447 13:0.5 14:0.853553 15:0.6875 16:0.402778 17:0.428571 18:0.138093 19:0.00460309 20:0.050634 21:1.05841 22:0.909753 23:0.41241 24:0.848615 25:0.294598 26:0.332032 27:0.549699 28:0.633943 29:0.558567 30:0.261145 31:0.46868 32:0.166982 33:0.165306 34:0.778004 35:1 36:0.305377 37:1 38:0.910323 39:0.0206424 40:0.0459167 41:0.0231182 42:0.773679 43:0.00714708 44:0.189867 45:0.0293069 46:0.751909 47:0.0926721 48:0.126929 49:0.0284904 50:0.00191146 51:0.0764018 52:0.173826 53:0.183476 54:0.695965 55:0.0772712 56:0.0672017 57:0.041001 58:0.0703656 59:0.122399 60:0.27025 61:0.00365683 62:0.0364114 63:0.0477499 64:0.0688347 65:0.168491 66:0.211842 67:0 68:0.0981893 69:0.0446678 70:0.0826809 71:0.171819 72:0.0880653 73:0.0680866 74:0.296387 75:0.150104 76:0.0631656 77:0.0124412 78:0.0734443 79:0.266266 80:0.0446045 81:0.246974 82:0.130016 83:0.0305944 84:0.132494 85:0.167248 86:0.0263441 87:0.00181458 88:0 89:0 90:0.140625 91:0.484375 92:0.515625 93:0.796875 94:0.546875 95:0.703125 96:0.558147 97:0.978759 98:0.545596 99:0.636788 100:0.321517 101:0.146447 102:0.5 103:0.853553 104:0.695312 105:0.444444 106:0.357143 107:0.0732996 108:0 109:0.234559 110:1.05841 111:0.909753 112:0.41241 113:0.266458 114:0.938235 115:0.349499 116:0.471311 117:0.616803 118:0.672131 119:0.219388 120:0.377551 121:0.0654762 122:0.130952 123:0.75381 124:0.75 125:0.205908 126:1 127:0.933919 128:0.0115184 129:0.0488028 130:0.00575922 131:0.846953 132:0 133:0.141528 134:0.0115184 135:0.835042 136:0.0460738 137:0.107366 138:0.0115184 139:0.00015931 140:0.0337325 141:0.133293 142:0.149795 143:0.872449 144:0.0576433 145:0.047709 146:0.00689265 147:0.0714286 148:0.132523 149:0.294525 150:0 151:0.0128696 152:0.0112661 153:0.0714286 154:0.187157 155:0.218803 156:0 157:0.108987 158:0.0338701 159:0.0952992 160:0.165861 161:0.0968827 162:0.0541091 163:0.274754 164:0.170237 165:0.0664734 166:0.00229778 167:0.0781851 168:0.292278 169:0.00262964 170:0.245808 171:0.139081 172:0.0151783 173:0.158069 174:0.188646 175:0.0307789 176:0.00216642 177:0 178:0 179:0.078125 180:0.515625 181:0.53125 182:0.796875 183:0.578125 184:0.65625 185:0.60158 186:0.990808 187:0.542679 188:0.585358 189:0.475381 190:0.5 191:0.5 192:0.5 193:0.742188 194:0.416667 195:0.384615 196:0.0608662 197:0 198:0 199:1.05841 200:0.945311 201:0.385883 202:0.192533 203:1.27819 204:0.355661 205:0.642442 206:0.619186 207:0.5 208:0.168367 209:0.255102 210:0.0654762 211:0.0833333 212:0.55 213:1 214:0.103175 215:0.833333 216:0.933919 217:0 218:0.0488028 219:0.0172777 220:0.88248 221:0.0115184 222:0.0829648 223:0.0230369 224:0.898 225:0.0230369 226:0.0732043 227:0.00575922 228:0 229:0.00400104 230:0.0439981 231:0.060109 232:0.918367 233:0.0102041 234:0 235:0.0102041 236:0.0714286 237:0.13291 238:0.291422 239:0 240:0.0175657 241:0.016202 242:0.0714286 243:0.188271 244:0.210772 245:0 246:0.113761 247:0.0290963 248:0.0934943 249:0.153124 250:0.108367 251:0.0542298 252:0.25375 253:0.194178 254:0.0764063 255:0 256:0.0714286 257:0.270396 258:0.00287434 259:0.231 260:0.151032 261:0.022418 262:0.174445 263:0.189574 264:0.0309629 265:0.00216169 266:0 267:0 268:0.0535714 269:0.517857 270:0.553571 271:0.875 272:0.660714 273:0.589286 274:0.647079 275:0.992155 276:0.585592 277:0.521398 278:0.183062 279:0.5 280:0 281:0.5 282:0.741071 283:0.388889 284:0.446429 285:0.28987 286:0 287:0.0626746 288:0.999459 289:0.909753 290:0.463648 291:0.569836 292:0.47006 293:0.32919 294:0.585509 295:0.652146 296:0.487503 297:0.378674 298:0.739373 299:0.410596 300:0.304898 301:1 302:0.717953 303:0.785129 304:1 305:0.872973 306:0.0389137 307:0.0494623 308:0.0386511 309:0.649434 310:0.0114787 311:0.284881 312:0.0542065 313:0.642094 314:0.168076 315:0.137675 316:0.0521541 317:0.00503972 318:0.143211 319:0.226777 320:0.234007 321:0.576133 322:0.0420571 323:0.062316 324:0.06574 325:0.0714286 326:0.118004 327:0.259449 328:0 329:0.0406867 330:0.0554581 331:0.0714286 332:0.148959 333:0.234586 334:0 335:0.0831837 336:0.0596735 337:0.0716628 338:0.179451 339:0.0700255 340:0.0898649 341:0.336687 342:0.109451 343:0.0650456 344:0.0205615 345:0.0733326 346:0.25539 347:0.0606103 348:0.275205 349:0.119321 350:0.0262241 351:0.10431 352:0.179711 353:0.0324193 354:0.00244953 355:0 356:0 
0 0 0 0 2.335313075439405e-12 0 1:0.140625 2:0.484375 3:0.515625 4:0.828125 5:0.640625 6:0.546875 7:0.574727 8:0.987088 9:0.610702 10:0.52214 11:0.100772 12:0.211325 13:0.788675 14:0.788675 15:0.6875 16:0.402778 17:0.446429 18:0.160642 19:0.00892456 20:0.0803211 21:1.05841 22:0.909753 23:0.41241 24:0.875393 25:0.285586 26:0.326916 27:0.552666 28:0.633834 29:0.557852 30:0.268982 31:0.483034 32:0.185568 33:0.178912 34:0.749985 35:1 36:0.339256 37:1 38:0.907349 39:0.0232227 40:0.0437301 41:0.0256985 42:0.768268 43:0.00714708 44:0.195278 45:0.0293069 46:0.747476 47:0.0952524 48:0.127611 49:0.0296606 50:0.00398657 51:0.0710458 52:0.174868 53:0.18044 54:0.676123 55:0.0694396 56:0.0687859 57:0.0545934 58:0.0701531 59:0.118711 60:0.259552 61:0.00496844 62:0.0441396 63:0.0616278 64:0.0677356 65:0.166721 66:0.206391 67:0 68:0.0956778 69:0.0471793 70:0.0754908 71:0.176732 72:0.0915619 73:0.0644785 74:0.296573 75:0.152307 76:0.0576085 77:0.0114915 78:0.0686874 79:0.255234 80:0.0601758 81:0.24551 82:0.131095 83:0.0391785 84:0.131019 85:0.163159 86:0.0252628 87:0.00168988 88:0 89:0 90:0.140625 91:0.484375 92:0.5 93:0.796875 94:0.546875 95:0.6875 96:0.563093 97:0.978759 98:0.545596 99:0.636788 100:0.363199 101:0.211325 102:0.788675 103:0.788675 104:0.695312 105:0.444444 106:0.346154 107:0.0496814 108:0 109:0.182165 110:1.05841 111:0.945311 112:0.385883 113:0.235878 114:1.04331 115:0.356888 116:0.479167 117:0.613426 118:0.668981 119:0.193878 120:0.326531 121:0.0654762 122:0.130952 123:0.584286 124:1 125:0.0833333 126:0.304087 127:0.94368 128:0.0115184 129:0.0390423 130:0.00575922 131:0.862473 132:0 133:0.131768 134:0.00575922 135:0.855442 136:0.0403145 137:0.0927254 138:0.0115184 139:0 140:0.0213169 141:0.119738 142:0.123583 143:0.913265 144:0.0375049 145:0.0372351 146:0.00179061 147:0.0714286 148:0.131404 149:0.297167 150:0 151:0.0114613 152:0.00940259 153:0.0714286 154:0.193326 155:0.214381 156:0 157:0.113996 158:0.0288614 159:0.0995787 160:0.160643 161:0.0997101 162:0.0668136 163:0.262915 164:0.167482 165:0.0849298 166:0 167:0.0810373 168:0.284783 169:0.000718585 170:0.236842 171:0.130287 172:0.0142542 173:0.167148 174:0.192288 175:0.0312468 176:0.00216233 177:0 178:0 179:0.078125 180:0.515625 181:0.53125 182:0.796875 183:0.609375 184:0.65625 185:0.604313 186:0.988588 187:0.563729 188:0.584972 189:0.333613 190:0.5 191:0.5 192:0.5 193:0.742188 194:0.402778 195:0.384615 196:0.155912 197:0 198:0 199:1.05841 200:0.945311 201:0.385883 202:0.275595 203:0.892953 204:0.352043 205:0.589978 206:0.647727 207:0.479956 208:0.228606 209:0.378912 210:0.0986149 211:0.152116 212:0.746984 213:1 214:0.251323 215:0.891827 216:0.901122 217:0.0115184 218:0.0585634 219:0.0287961 220:0.839034 221:0.0115184 222:0.117543 223:0.0319046 224:0.844583 225:0.0522907 226:0.0929337 227:0.0101931 228:0.00114106 229:0.0205518 230:0.0881289 231:0.127836 232:0.857143 233:0.0119947 234:0.00841347 235:0.0496468 236:0.0714286 237:0.133898 238:0.290434 239:0 240:0.0183437 241:0.0176886 242:0.0714286 243:0.184619 244:0.212159 245:0 246:0.1095 247:0.033357 248:0.094131 249:0.15393 250:0.102067 251:0.0798434 252:0.248458 253:0.178713 254:0.0947232 255:0 256:0.0796043 257:0.261543 258:0.00433974 259:0.232672 260:0.141568 261:0.0231117 262:0.162438 263:0.184916 264:0.0302542 265:0.00217867 266:0 267:0 268:0.0535714 269:0.482143 270:0.553571 271:0.875 272:0.660714 273:0.553571 274:0.651803 275:0.988588 276:0.606215 277:0.5 278:0.175 279:0.853553 280:0.853553 281:0.5 282:0.741071 283:0.402778 284:0.464286 285:0.297401 286:0 287:0.126395 288:0.999459 289:0.909753 290:0.463648 291:0.60044 292:0.446102 293:0.312521 294:0.545328 295:0.666552 296:0.505877 297:0.396231 298:0.794339 299:0.434022 300:0.268617 301:1 302:1 303:0.818102 304:0.988969 305:0.881985 306:0.0453993 307:0.0274791 308:0.0451367 309:0.654301 310:0.0114787 311:0.292985 312:0.0412353 313:0.595998 314:0.187533 315:0.161373 316:0.0550955 317:0.0106463 318:0.155646 319:0.236547 320:0.19826 321:0.585091 322:0.031011 323:0.0660379 324:0.0817926 325:0.0714286 326:0.108068 327:0.240159 328:0.00392566 329:0.0583903 330:0.0814879 331:0.0675029 332:0.140184 333:0.228854 334:0 335:0.0773235 336:0.0655337 337:0.0578272 338:0.194145 339:0.0682077 340:0.0903606 341:0.34855 342:0.0980525 343:0.059838 344:0.0209281 345:0.0644856 346:0.235509 347:0.0930514 348:0.286301 349:0.111887 350:0.0443079 351:0.0836928 352:0.164178 353:0.0281027 354:0.00189482 355:0 356:0 
1.431293517703248e-11 0 3.045081416340646e-11 3.160634500491034e-11 0 1.186460402384944e-11 1:0.152174 2:0.434783 3:0.565217 4:0.847826 5:0.695652 6:0.695652 7:0.549459 8:0.961112 9:0.672917 10:0.586459 11:0.0878521 12:0.5 13:0.5 14:0.5 15:0.652174 16:0.416667 17:0.4375 18:0.0607645 19:0 20:0.202548 21:0.90675 22:0.982794 23:0.480887 24:1 25:0.268377 26:0.294814 27:0.55598 28:0.62358 29:0.588068 30:0.158153 31:0.245156 32:0.0356169 33:0.0558673 34:0.428607 35:1 36:0.136418 37:1 38:0.958522 39:0.00498778 40:0.0281772 41:0.00831296 42:0.880663 43:0.00332519 44:0.109361 45:0.00665037 46:0.838133 47:0.0315893 48:0.106104 49:0.0241737 50:0.00430556 51:0.0498224 52:0.128271 53:0.0895962 54:0.8519 55:0.0201344 56:0.0223997 57:0.0328116 58:0.0714286 59:0.156538 60:0.184802 61:0 62:0.119166 63:0.0807371 64:0.0714286 65:0.133766 66:0.182134 67:0 68:0.0571782 69:0.085679 70:0.101065 71:0.179523 72:0.142161 73:0.00628465 74:0.246266 75:0.181843 76:0.0447358 77:0.0211694 78:0.0405229 79:0.210902 80:0.0884823 81:0.176311 82:0.153617 83:0.0906913 84:0.173569 85:0.174589 86:0.0371964 87:0.00331975 88:0 89:0 90:0.152174 91:0.456522 92:0.565217 93:0.847826 94:0.717391 95:0.73913 96:0.565832 97:0.955842 98:0.670941 99:0.613961 100:0.286232 101:0.5 102:0.5 103:0.5 104:0.652174 105:0.411765 106:0.416667 107:0.260953 108:0 109:0 110:0.934288 111:0.956133 112:0.480887 113:0.333227 114:0.848097 115:0.317463 116:0.596491 117:0.653509 118:0.508772 119:0.12013 120:0.136364 121:0 122:0 123:0.274603 124:1 125:0.0204082 126:1 127:0.988675 128:0.00397736 129:0.00337036 130:0.00397736 131:0.925852 132:0 133:0.074148 134:0 135:0.861544 136:0.0119321 137:0.114592 138:0.0119321 139:0.000806497 140:0.0164245 141:0.122144 142:0.0763694 143:0.961039 144:0 145:0 146:0.00649351 147:0.0714286 148:0.151758 149:0.253321 150:0 151:0.05214 152:0.0518425 153:0.0714286 154:0.120841 155:0.22724 156:0 157:0.0522776 158:0.0905796 159:0.13888 160:0.115688 161:0.0781592 162:0.0184923 163:0.342677 164:0.163247 165:0.0582571 166:0.0355232 167:0.0615271 168:0.247094 169:0.0501672 170:0.20427 171:0.163557 172:0.032659 173:0.146946 174:0.194306 175:0.044952 176:0.00442615 177:0 178:0 179:0.108696 180:0.434783 181:0.586957 182:0.847826 183:0.695652 184:0.673913 185:0.58119 186:0.96862 187:0.665395 188:0.555132 189:0.234761 190:0 191:0.5 192:0.5 193:0.684783 194:0.416667 195:0.409091 196:0.116485 197:0 198:0 199:0.90675 200:1.02225 201:0.446106 202:0.419908 203:0.673025 204:0.333801 205:0.540441 206:0.650735 207:0.547794 208:0.150053 209:0.227273 210:0.0428571 211:0.0428571 212:0.401746 213:1 214:0.0529375 215:1 216:0.953757 217:0.00795472 218:0.0303333 219:0.00795472 220:0.917897 221:0.00795472 222:0.074148 223:0 224:0.825303 225:0.0278415 226:0.119014 227:0.0278415 228:0.00163815 229:0.0412499 230:0.0679829 231:0.0583085 232:0.900433 233:0.0110342 234:0.0171043 235:0.00103043 236:0.0714286 237:0.18564 238:0.221935 239:0 240:0.0428786 241:0.0353149 242:0.0714286 243:0.155317 244:0.216057 245:0 246:0.0523982 247:0.0904589 248:0.160495 249:0.15332 250:0.0935359 251:0.0587958 252:0.267207 253:0.123789 254:0.105938 255:0.0231537 256:0.0880396 257:0.226489 258:0.0349065 259:0.205856 260:0.13958 261:0.0268687 262:0.149168 263:0.208686 264:0.0494285 265:0.00470695 266:0 267:0 268:0.113636 269:0.454545 270:0.545455 271:0.886364 272:0.727273 273:0.681818 274:0.61123 275:0.965099 276:0.664153 277:0.582076 278:0.173008 279:0.5 280:0.5 281:0.5 282:0.715909 283:0.411765 284:0.431818 285:0.189332 286:0 287:0.38813 288:0.912908 289:0.996491 290:0.463648 291:0.600197 292:0.473329 293:0.27051 294:0.543708 295:0.60989 296:0.656593 297:0.218194 298:0.399567 299:0.0640131 300:0.127857 301:0.609471 302:1 303:0.251729 304:1 305:0.936905 306:0 307:0.0471851 308:0.0159094 309:0.830321 310:0 311:0.153769 312:0.0159094 313:0.816144 314:0.0397736 315:0.102162 316:0.0419204 317:0.00846381 318:0.0817263 319:0.148309 320:0.107753 321:0.819512 322:0.0301998 323:0.0377018 324:0.0496199 325:0.0714286 326:0.115805 327:0.135014 328:0 329:0.154824 330:0.145563 331:0.0714286 332:0.114043 333:0.191893 334:0 335:0.0716831 336:0.0711741 337:0.0585132 338:0.1775 339:0.140832 340:0.0185589 341:0.187593 342:0.274146 343:0.033771 344:0.0209587 345:0.0190588 346:0.154814 347:0.145255 348:0.149358 349:0.129328 350:0.147494 351:0.199964 352:0.149778 353:0.0276534 354:0.0018389 355:0 356:0 
0 1.163724900144768e-11 0 0 0 0 1:0.108696 2:0.434783 3:0.521739 4:0.847826 5:0.695652 6:0.73913 7:0.577625 8:0.954344 9:0.660357 10:0.633631 11:0.0960724 12:0.5 13:0.5 14:0.5 15:0.684783 16:0.416667 17:0.410714 18:0.0462176 19:0 20:0.277305 21:0.90675 22:0.909753 23:0.546789 24:1 25:0.282441 26:0.300049 27:0.571039 28:0.597727 29:0.60303 30:0.189895 31:0.238801 32:0.0744534 33:0.0540293 34:0.366289 35:1 36:0.154153 37:1 38:0.958938 39:0.00888769 40:0.028619 41:0.00355507 42:0.842806 43:0.00355507 44:0.139419 45:0.0142203 46:0.857441 47:0.0289909 48:0.0752807 49:0.0382877 50:0.00483651 51:0.069061 52:0.106872 53:0.0917924 54:0.851852 55:0.0174733 56:0.0278729 57:0.023163 58:0.0714286 59:0.161264 60:0.202666 61:0 62:0.108151 63:0.0681538 64:0.0714286 65:0.141278 66:0.17563 67:0 68:0.0766769 69:0.0661802 70:0.105714 71:0.185337 72:0.128659 73:0.023893 74:0.225499 75:0.18804 76:0.0538508 77:0.0177096 78:0.0571332 79:0.233292 80:0.0665393 81:0.185543 82:0.145918 83:0.0881296 84:0.151884 85:0.189853 86:0.0438313 87:0.00467779 88:0 89:0 90:0.108696 91:0.434783 92:0.543478 93:0.847826 94:0.695652 95:0.717391 96:0.577633 97:0.960301 98:0.662459 99:0.608306 100:0.338013 101:0.5 102:0.5 103:0.5 104:0.684783 105:0.416667 106:0.423077 107:0.237958 108:0 109:0 110:0.90675 111:0.945311 112:0.514451 113:0.296911 114:0.98844 115:0.333452 116:0.622449 117:0.579082 118:0.553571 119:0.142857 120:0.128571 121:0.015873 122:2.38057e-34 123:0.36131 124:0.75 125:0.0595238 126:1 127:0.970119 128:0.00431079 129:0.0255704 130:0 131:0.908019 132:0.00431079 133:0.0876698 134:0 135:0.902275 136:0.0129324 137:0.063239 138:0.021554 139:0.000933833 140:0.0219602 141:0.0650371 142:0.0633766 143:0.95 144:0.0142857 145:0 146:0.0142857 147:0.0714286 148:0.186373 149:0.237193 150:0 151:0.0349349 152:0.0216604 153:0.0714286 154:0.157674 155:0.219308 156:0 157:0.0573797 158:0.0854774 159:0.157041 160:0.140097 161:0.111125 162:0.0397283 163:0.241681 164:0.16747 165:0.0836286 166:0.0239417 167:0.088966 168:0.238819 169:0.0153551 170:0.189862 171:0.172018 172:0.0196034 173:0.167806 174:0.223748 175:0.057089 176:0.00650422 177:0 178:0 179:0.0652174 180:0.434783 181:0.586957 182:0.847826 183:0.695652 184:0.76087 185:0.606553 186:0.96414 187:0.654713 188:0.603142 189:0.306418 190:0.5 191:0.5 192:0.5 193:0.717391 194:0.444444 195:0.423077 196:0.110616 197:0 198:0.0316046 199:0.90675 200:0.945311 201:0.514451 202:0.343923 203:0.853326 204:0.333319 205:0.549978 206:0.69213 207:0.543981 208:0.172201 209:0.21381 210:0.0515873 211:0.0238095 212:0.223906 213:1 214:0.0396825 215:1 216:0.977425 217:0.00431079 218:0.0182645 219:0 220:0.911672 221:0.00431079 222:0.0840169 223:0 224:0.860474 225:0.00431079 226:0.0974105 227:0.0378051 228:0.00336411 229:0.0721512 230:0.0592483 231:0.0420629 232:0.935714 233:0.00482485 234:0.0166037 235:0.00714286 236:0.0714286 237:0.183817 238:0.236213 239:0 240:0.0400434 241:0.0325565 242:0.0714286 243:0.157385 244:0.207127 245:0 246:0.0550443 247:0.0878129 248:0.148006 249:0.139915 250:0.114483 251:0.0198642 252:0.255172 253:0.179702 254:0.0678312 255:0.0171524 256:0.0814238 257:0.240736 258:0.0320515 259:0.180176 260:0.175761 261:0.0240316 262:0.180836 263:0.218302 264:0.0540657 265:0.00571416 266:0 267:0 268:0.113636 269:0.431818 270:0.5 271:0.886364 272:0.704545 273:0.727273 274:0.620515 275:0.954344 276:0.660357 277:0.633631 278:0.179672 279:0.5 280:0.5 281:0.5 282:0.693182 283:0.40625 284:0.403846 285:0.134454 286:0 287:0.460985 288:0.942 289:0.88848 290:0.533708 291:0.591619 292:0.489797 293:0.266875 294:0.541824 295:0.576807 296:0.674699 297:0.245551 298:0.35381 299:0.147627 300:0.132275 301:0.480866 302:1 303:0.305149 304:1 305:0.94557 306:0.0129324 307:0.0328762 308:0.00862159 309:0.762559 310:0 311:0.202955 312:0.0344864 313:0.829966 314:0.0530642 315:0.0586024 316:0.058367 317:0.00806203 318:0.0917008 319:0.13334 320:0.113956 321:0.785714 322:0.024496 323:0.0361598 324:0.0273199 325:0.0714286 326:0.10627 327:0.173122 328:0 329:0.169311 330:0.134859 331:0.0714286 332:0.113771 333:0.15981 334:0 335:0.0870671 336:0.05579 337:0.0457285 338:0.172979 339:0.153668 340:0.0157226 341:0.151368 342:0.317677 343:0.0259057 344:0.0201136 345:0.0144132 346:0.163329 347:0.123521 348:0.139982 349:0.156995 350:0.164362 351:0.191379 352:0.149388 353:0.0276799 354:0.00191857 355:0 356:0 
0 0 0 0 2.420487758726636e-11 0 1:0.108696 2:0.434783 3:0.521739 4:0.891304 5:0.695652 6:0.73913 7:0.605819 8:0.958682 9:0.652894 10:0.627412 11:0.100798 12:0 13:0.5 14:0.5 15:0.695652 16:0.416667 17:0.410714 18:0.0616459 19:0.00513716 20:0.30823 21:0.90675 22:0.909753 23:0.546789 24:1 25:0.282544 26:0.2852 27:0.564948 28:0.596557 29:0.613772 30:0.157992 31:0.205952 32:0.0578365 33:0.0453149 34:0.316431 35:1 36:0.134279 37:1 38:0.957284 39:0.00757792 40:0.0321071 41:0.00303117 42:0.871108 43:0.00303117 44:0.113736 45:0.0121247 46:0.886027 47:0.0216874 48:0.0641867 49:0.0280985 50:0.00379219 51:0.0532388 52:0.0781695 53:0.0578869 54:0.881696 55:0.0102789 56:0.0257499 57:0.024008 58:0.0714286 59:0.146966 60:0.181389 61:0 62:0.136708 63:0.0874581 64:0.0714286 65:0.139556 66:0.165067 67:0 68:0.0766591 69:0.066198 70:0.077212 71:0.166525 72:0.172671 73:0.0158252 74:0.178269 75:0.24664 76:0.0376237 77:0.0103548 78:0.0442568 79:0.197935 80:0.0726349 81:0.153206 82:0.15911 83:0.144864 84:0.180015 85:0.176115 86:0.0383991 87:0.00380807 88:0 89:0 90:0.108696 91:0.434783 92:0.543478 93:0.847826 94:0.695652 95:0.717391 96:0.577633 97:0.960301 98:0.662459 99:0.608306 100:0.289862 101:0 102:0.5 103:0.5 104:0.706522 105:0.416667 106:0.423077 107:0.0156969 108:0 109:0.0156969 110:0.90675 111:0.945311 112:0.514451 113:0.346232 114:0.847634 115:0.343201 116:0.588362 117:0.603448 118:0.556034 119:0.155406 120:0.132937 121:0.012987 122:1.94774e-34 123:0.209048 124:1 125:0.0357143 126:1 127:0.964461 128:0.00738362 129:0.0281555 130:0 131:0.911278 132:0.00738362 133:0.0813381 134:0 135:0.913893 136:0.00738362 137:0.0676479 138:0.0110754 139:0.000699768 140:0.0102117 141:0.0393885 142:0.0473703 143:0.97619 144:0 145:0 146:0.0119048 147:0.0714286 148:0.19219 149:0.235002 150:0 151:0.0184145 152:0.0157989 153:0.0714286 154:0.166514 155:0.229223 156:0 157:0.0553462 158:0.087511 159:0.156273 160:0.135105 161:0.112834 162:0.0344312 163:0.243486 164:0.175013 165:0.0773988 166:0.0149731 167:0.0981264 168:0.237149 169:0.00841226 170:0.192449 171:0.18345 172:0.0123922 173:0.17565 174:0.232447 175:0.0605221 176:0.00695609 177:0 178:0 179:0.0652174 180:0.434783 181:0.565217 182:0.847826 183:0.652174 184:0.73913 185:0.589873 186:0.971082 187:0.630856 188:0.604685 189:0.150112 190:0.5 191:0.5 192:0.5 193:0.717391 194:0.430556 195:0.428571 196:0.180717 197:0 198:0.400719 199:0.90675 200:0.909753 201:0.546789 202:0.691691 203:0.432148 204:0.282504 205:0.532489 206:0.606796 207:0.63835 208:0.213079 209:0.364103 210:0.137506 211:0.117063 212:0.476847 213:1 214:0.304467 215:1 216:0.953063 217:0.013778 218:0.0262695 219:0.00688902 220:0.792761 221:0.00344451 222:0.179682 223:0.0241116 224:0.814036 225:0.0424006 226:0.0865917 227:0.0569713 228:0.00896512 229:0.118927 230:0.158877 231:0.108326 232:0.774725 233:0.0222457 234:0.0554513 235:0.0316242 236:0.0714286 237:0.151108 238:0.186586 239:0 240:0.143002 241:0.091459 242:0.0714286 243:0.13406 244:0.150928 245:0 246:0.0799718 247:0.0628853 248:0.0803253 249:0.201075 250:0.149109 251:0.0101817 252:0.203374 253:0.213077 254:0.0359571 255:0.0136623 256:0.0394314 257:0.214703 258:0.100823 259:0.166983 260:0.154501 261:0.116884 262:0.157056 263:0.171223 264:0.0361139 265:0.00335995 266:0 267:0 268:0.166667 269:0.452381 270:0.428571 271:0.928571 272:0.738095 273:0.619048 274:0.649552 275:0.955842 276:0.670941 277:0.613961 278:0.271295 279:0.5 280:0.5 281:1 282:0.619048 283:0.4 284:0.4375 285:0 286:0 287:0.340086 288:0.950547 289:1.08084 290:0.363979 291:0.385056 292:0.680173 293:0.269475 294:0.58373 295:0.532895 296:0.633772 297:0.0998476 298:0.134799 299:0.0238095 300:3.57086e-34 301:0.247304 302:1 303:0.0661376 304:1 305:0.958611 306:0.00344451 307:0.0379448 308:0 309:0.887695 310:0 311:0.101972 312:0.0103335 313:0.951204 314:0.0190817 315:0.0262695 316:0.00344451 317:0 318:0.0120837 319:0.0316246 320:0.0358014 321:0.956044 322:0 323:0.00549451 324:0.0164835 325:0.0714286 326:0.0833736 327:0.161936 328:0 329:0.152174 330:0.207581 331:0.0714286 332:0.0846241 333:0.167454 334:0.0275544 335:0.115303 336:0 337:0.0259968 338:0.227071 339:0.0804827 340:0.00329258 341:0.228102 342:0.292198 343:0.0193778 344:0.0190748 345:0.0200879 346:0.205017 347:0.192765 348:0.176056 349:0.0795747 350:0.151548 351:0.1365 352:0.141151 353:0.0222856 354:0.000331709 355:0 356:0 
0 0 1.307997857728971e-12 0 0 0 1:0.0925926 2:0.444444 3:0.574074 4:0.759259 5:0.666667 6:0.722222 7:0.5547 8:0.96414 9:0.654713 10:0.603142 11:0.0975296 12:0.5 13:0.5 14:0.5 15:0.666667 16:0.416667 17:0.384615 18:0.0905346 19:0 20:0.251485 21:0.982794 22:0.945311 23:0.448723 24:0.920458 25:0.291723 26:0.305849 27:0.55675 28:0.630147 29:0.600735 30:0.147108 31:0.278388 32:0.0942857 33:0.0457143 34:0.465289 35:1 36:0.118022 37:1 38:0.962149 39:0.00736473 40:0.0249631 41:0.00552355 42:0.871933 43:0.00184118 44:0.118861 45:0.00736473 46:0.823713 47:0.022342 48:0.125758 49:0.0281878 50:0.00605307 51:0.0885763 52:0.128381 53:0.0974844 54:0.846154 55:0.0114711 56:0.0302198 57:0.02106 58:0.0714286 59:0.187127 60:0.196913 61:0.0121103 62:0.0895045 63:0.0788066 64:0.0593183 65:0.129321 66:0.175472 67:0 68:0.0449776 69:0.0978796 70:0.117209 71:0.163252 72:0.130565 73:0.0370053 74:0.253234 75:0.155877 76:0.0661295 77:0.0175235 78:0.0682969 79:0.222242 80:0.076163 81:0.158921 82:0.166375 83:0.091907 84:0.132442 85:0.16429 86:0.0308889 87:0.0024771 88:0 89:0 90:0.0925926 91:0.444444 92:0.592593 93:0.796296 94:0.703704 95:0.666667 96:0.588103 97:0.9669 98:0.672016 99:0.549147 100:0.330925 101:0.5 102:0.5 103:0.5 104:0.657407 105:0.402778 106:0.416667 107:0.357809 108:0 109:0 110:0.982794 111:0.982794 112:0.418224 113:0.284654 114:0.927051 115:0.33126 116:0.644397 117:0.575431 118:0.538793 119:0.160714 120:0.292857 121:0.0714286 122:0.047619 123:0.522619 124:0.647584 125:0.0575397 126:1 127:0.961497 128:0.00862159 129:0.0255704 130:0.00431079 131:0.930595 132:0 133:0.0694052 134:0 135:0.870175 136:0.00431079 137:0.116893 138:0.00862159 139:0 140:0.0197174 141:0.0715771 142:0.0792402 143:0.914286 144:0.00839628 145:0.027318 146:0 147:0.0714286 148:0.20006 149:0.228511 150:0.0152481 151:0.0446548 152:0.0404534 153:0.0561805 154:0.138025 155:0.205439 156:0 157:0.0342532 158:0.108604 159:0.13793 160:0.148285 161:0.113078 162:0.0144115 163:0.303022 164:0.140416 165:0.0603499 166:0.0181558 167:0.0718144 168:0.252473 169:0.0416634 170:0.176686 171:0.187178 172:0.0407205 173:0.15096 174:0.187308 175:0.0379873 176:0.00319007 177:0 178:0 179:0.0555556 180:0.462963 181:0.574074 182:0.759259 183:0.685185 184:0.685185 185:0.597037 186:0.971477 187:0.648888 188:0.574444 189:0.351564 190:0.5 191:0.5 192:0.5 193:0.712963 194:0.411765 195:0.431818 196:0 197:0 198:0 199:1.00887 200:0.996491 201:0.386876 202:0.265341 203:0.959631 204:0.352637 205:0.551471 206:0.666667 207:0.571078 208:0.0857143 209:0.171429 210:0.015873 211:7.04904e-18 212:0.224405 213:1 214:0.0714286 215:1 216:0.970777 217:0 218:0.0292233 219:0 220:0.937243 221:0.00431079 222:0.0584465 223:0 224:0.868917 225:0.0129324 226:0.100908 227:0.0172432 228:0 229:0.0334678 230:0.0767738 231:0.061043 232:0.957143 233:3.83307e-10 234:0 235:0.0214286 236:0.0714286 237:0.180416 238:0.248155 239:0.00407886 240:0.0199363 241:0.0393266 242:0.0673497 243:0.14555 244:0.223758 245:0 246:0.0297101 247:0.113147 248:0.148242 249:0.12124 250:0.0778882 251:0.0808951 252:0.280774 253:0.148104 254:0.0934571 255:0.01648 256:0.107944 257:0.223017 258:0.0277445 259:0.184307 260:0.183526 261:0.0262757 262:0.137248 263:0.196965 264:0.0398855 265:0.00326149 266:0 267:0 268:0.0576923 269:0.461538 270:0.557692 271:0.788462 272:0.692308 273:0.711538 274:0.610252 275:0.967464 276:0.64762 277:0.598414 278:0.158356 279:0.5 280:0.5 281:0.5 282:0.740385 283:0.411765 284:0.375 285:0.241558 286:0 287:0.420778 288:0.991722 289:0.956133 290:0.432408 291:0.616989 292:0.42857 293:0.280713 294:0.512476 295:0.64951 296:0.645833 297:0.214623 298:0.416667 299:0.190476 300:0.0793651 301:0.648842 302:1 303:0.276 304:1 305:0.957186 306:0.00862159 307:0.0255704 308:0.00862159 309:0.776865 310:0.00431079 311:0.201581 312:0.0172432 313:0.738998 314:0.0479988 315:0.155628 316:0.057375 317:0.0149151 318:0.185526 319:0.19109 320:0.12594 321:0.75 322:0.0214286 323:0.0428571 324:0.027438 325:0.0714286 326:0.142002 327:0.188725 328:0.00418223 329:0.116226 330:0.139247 331:0.0672463 332:0.102762 333:0.168182 334:0 335:0.0593034 336:0.0835538 337:0.070771 338:0.174427 339:0.121682 340:0.0220215 341:0.265941 342:0.202301 343:0.0373199 344:0.012833 345:0.041588 346:0.21476 347:0.13199 348:0.156052 349:0.145205 350:0.120702 351:0.139551 352:0.139184 353:0.0236633 354:0.00165452 355:0 356:0 
0 0 4.621900216982065e-12 0 0 0 1:0.0555556 2:0.444444 3:0.537037 4:0.759259 5:0.666667 6:0.685185 7:0.581352 8:0.967464 9:0.64762 10:0.598414 11:0.104444 12:0.5 13:0.5 14:0.5 15:0.694444 16:0.416667 17:0.423077 18:0.133624 19:0 20:0.298084 21:0.982794 22:0.945311 23:0.448723 24:0.900816 25:0.298084 26:0.283292 27:0.55777 28:0.621257 29:0.611527 30:0.113208 31:0.207937 32:0.0640394 33:0.0344828 34:0.390393 35:1 36:0.139824 37:1 38:0.961677 39:0.00483156 40:0.0286594 41:0.00483156 42:0.882518 43:0.00161052 44:0.109429 45:0.00644208 46:0.865396 47:0.0179324 48:0.0936259 49:0.0230459 50:0.0062237 51:0.0812031 52:0.111195 53:0.0704556 54:0.852381 55:0.0110145 56:0.0216874 57:0.0331183 58:0.0714286 59:0.161613 60:0.166367 61:0.0128022 62:0.141445 63:0.115346 64:0.0586264 65:0.121993 66:0.150379 67:0 68:0.0735302 69:0.069327 70:0.0885841 71:0.171845 72:0.158308 73:0.0628692 74:0.197187 75:0.178351 76:0.0641707 77:0.0151202 78:0.0710999 79:0.207251 80:0.0960009 81:0.140124 82:0.125467 83:0.166946 84:0.113821 85:0.145993 86:0.0263761 87:0.00224839 88:0 89:0 90:0.0555556 91:0.444444 92:0.574074 93:0.759259 94:0.703704 95:0.685185 96:0.597411 97:0.964105 98:0.670986 99:0.57328 100:0.329398 101:0.5 102:0.5 103:0.5 104:0.694444 105:0.402778 106:0.431818 107:-0.0160921 108:0 109:0 110:0.982794 111:1.02225 112:0.386876 113:0.287695 114:0.90116 115:0.348163 116:0.613839 117:0.633929 118:0.546875 119:0.10119 120:0.190476 121:0.012987 122:0.025974 123:0.285238 124:1 125:0.0595238 126:1 127:0.967589 128:0.00369181 129:0.0250271 130:0.00369181 131:0.93374 132:0.00369181 133:0.0625677 134:0 135:0.885587 136:0.0110754 137:0.0885707 138:0.0147672 139:0 140:0.0065697 141:0.06495 142:0.0558086 143:0.958333 144:0.00104452 145:0.00595238 146:0.0168126 147:0.0714286 148:0.209463 149:0.219108 150:0.00720819 151:0.0262083 152:0.0298719 153:0.0642204 154:0.151108 155:0.221383 156:0 157:0.0308053 158:0.112052 159:0.153231 160:0.145605 161:0.0965196 162:0.0667778 163:0.273 164:0.12201 165:0.0881583 166:0.0158073 167:0.108441 168:0.229938 169:0.026326 170:0.18229 171:0.181904 172:0.0289534 173:0.138182 174:0.198642 175:0.040505 176:0.00330765 177:0 178:0 179:0.0555556 180:0.462963 181:0.555556 182:0.759259 183:0.685185 184:0.703704 185:0.596173 186:0.967464 187:0.64762 188:0.598414 189:0.152418 190:0.5 191:0.5 192:0.5 193:0.731481 194:0.411765 195:0.375 196:0.232499 197:0 198:0.397499 199:1.00887 200:0.956133 201:0.418224 202:0.617285 203:0.419999 204:0.286676 205:0.50722 206:0.661215 207:0.636682 208:0.178852 209:0.347222 210:0.155844 211:0.0649351 212:0.598598 213:1 214:0.215928 215:1 216:0.963334 217:0.00738362 218:0.0218987 219:0.00738362 220:0.805777 221:0.00369181 222:0.175764 223:0.0147672 224:0.763962 225:0.0411067 226:0.145795 227:0.0491365 228:0.0126078 229:0.166835 230:0.190447 231:0.120071 232:0.767857 233:0.0178571 234:0.0416667 235:0.022865 236:0.0714286 237:0.14885 238:0.198629 239:0.0100249 240:0.110304 241:0.136739 242:0.0614036 243:0.100532 244:0.162089 245:0 246:0.0575163 247:0.0853409 248:0.0817175 249:0.17156 250:0.112091 251:0.0339245 252:0.271785 253:0.186065 254:0.048327 255:0.0156492 256:0.0499316 257:0.220005 258:0.128674 259:0.154396 260:0.145719 261:0.118455 262:0.118844 263:0.140391 264:0.0238118 265:0.00170975 266:0 267:0 268:0.159091 269:0.431818 270:0.454545 271:0.886364 272:0.704545 273:0.636364 274:0.612497 275:0.955842 276:0.670941 277:0.613961 278:0.23903 279:1 280:0.5 281:0.5 282:0.659091 283:0.4375 284:0.388889 285:0 286:0 287:0.544799 288:0.942 289:1.05841 290:0.388319 291:0.417168 292:0.640139 293:0.261454 294:0.527778 295:0.553571 296:0.680556 297:0.0834704 298:0.143651 299:0.00974026 300:0.0194805 301:0.311455 302:1 303:0.122024 304:1 305:0.963897 306:0.00369181 307:0.0250271 308:0.00738362 309:0.849524 310:0 311:0.1394 312:0.0110754 313:0.940881 314:0.0176094 315:0.0312839 316:0.0102258 317:0.00307607 318:0.0674482 319:0.0698235 320:0.0269487 321:0.934524 322:9.58268e-10 323:0.00595238 324:0.0345426 325:0.0714286 326:0.0860925 327:0.130911 328:0 329:0.180353 330:0.176022 331:0.0714286 332:0.108577 333:0.175187 334:0 335:0.141183 336:0.00167442 337:0.0118056 338:0.217138 339:0.14268 340:0.0234578 341:0.201327 342:0.260734 343:0.0121873 344:0.0148794 345:0.00624194 346:0.211502 347:0.173749 348:0.175624 349:0.056326 350:0.181669 351:0.167822 352:0.132576 353:0.0207428 354:0.000744638 355:0 356:0 
0 0 0 3.435201842543978e-12 0 0 1:0.0652174 2:0.413043 3:0.478261 4:0.847826 5:0.717391 6:0.73913 7:0.613687 8:0.945021 9:0.673064 10:0.64834 11:0.0950654 12:0.5 13:0.5 14:0.5 15:0.717391 16:0.434211 17:0.428571 18:0.112816 19:0 20:0.282041 21:0.88035 22:0.93577 23:0.546789 24:1 25:0.263238 26:0.275144 27:0.54735 28:0.598689 29:0.622768 30:0.28985 31:0.277206 32:0.11262 33:0.0575397 34:0.417933 35:1 36:0.217096 37:1 38:0.91648 39:0.0114573 40:0.0566346 41:0.0154282 42:0.842929 43:0.00954778 44:0.12079 45:0.0267338 46:0.845359 47:0.0372815 48:0.0959879 49:0.021372 50:0.00540521 51:0.0665797 52:0.0928061 53:0.0546842 54:0.765732 55:0.0253314 56:0.0605842 57:0.0413789 58:0.0714286 59:0.1568 60:0.179381 61:0 62:0.132388 63:0.0977575 64:0.0714286 65:0.118021 66:0.172796 67:0 68:0.0942763 69:0.0485808 70:0.0738994 71:0.196129 72:0.134427 73:0.0321213 74:0.213252 75:0.207315 76:0.0467231 77:0.0113651 78:0.0448275 79:0.23016 80:0.0922074 81:0.181529 82:0.125402 83:0.130808 84:0.136979 85:0.169782 86:0.0354346 87:0.00328004 88:0 89:0 90:0.0652174 91:0.413043 92:0.521739 93:0.804348 94:0.717391 95:0.695652 96:0.585115 97:0.95177 98:0.686023 99:0.606299 100:0.259428 101:0.5 102:0.5 103:0.5 104:0.728261 105:0.434211 106:0.458333 107:0.220615 108:0 109:0.0275769 110:0.88035 111:1.00748 112:0.480887 113:0.394155 114:0.744576 115:0.327641 116:0.563326 117:0.631048 118:0.564516 119:0.0970738 120:0.162857 121:0 122:0 123:0.435783 124:1 125:0.188492 126:1 127:0.96515 128:0.00862159 129:0.0219174 130:0.00431079 131:0.917181 132:0.00431079 133:0.0741977 134:0.00431079 135:0.828566 136:0.0205619 137:0.1328 138:0.0180715 139:0.00120555 140:0.0587478 141:0.0949393 142:0.0497393 143:0.907143 144:0.00839628 145:0.0201751 146:0.0285714 147:0.0714286 148:0.200522 149:0.209605 150:0 151:0.0339644 152:0.0391826 153:0.0714286 154:0.142701 155:0.231168 156:0 157:0.0561988 158:0.0866583 159:0.144637 160:0.154662 161:0.0876534 162:0.00569425 163:0.330987 164:0.133508 165:0.0742695 166:0.0162766 167:0.0590937 168:0.259275 169:0.0364157 170:0.229907 171:0.146522 172:0.0241044 173:0.154136 174:0.212261 175:0.0493459 176:0.00460848 177:0 178:0 179:0.0681818 180:0.431818 181:0.522727 182:0.840909 183:0.659091 184:0.75 185:0.581076 186:0.961657 187:0.635781 188:0.635781 189:0.128354 190:1 191:0.5 192:0.5 193:0.738636 194:0.430556 195:0.410714 196:0.132453 197:0 198:0.34159 199:0.885067 200:0.909753 201:0.566729 202:0.815038 203:0.376446 204:0.262514 205:0.511585 206:0.598123 207:0.653846 208:0.446053 209:0.435873 210:0.133654 211:0.121693 212:0.53363 213:1 214:0.393615 215:1 216:0.908404 217:0.0172432 218:0.0438349 219:0.0305182 220:0.755953 221:0.00431079 222:0.192317 223:0.0474187 224:0.733895 225:0.0798517 226:0.150939 227:0.0353147 228:0.0116186 229:0.11641 230:0.14918 231:0.105516 232:0.696474 233:0.0299322 234:0.0633276 235:0.0455572 236:0.0714286 237:0.1525 238:0.147908 239:0 240:0.175697 241:0.10197 242:0.0714286 243:0.132113 244:0.146955 245:0 246:0.0884118 247:0.0544454 248:0.0661391 249:0.242473 250:0.148946 251:0.0166663 252:0.211802 253:0.171116 254:0.0296665 255:0.019619 256:0.0316968 257:0.217388 258:0.136949 259:0.1894 260:0.123876 261:0.11701 262:0.134395 263:0.156978 264:0.0306548 265:0.0024449 266:0 267:0 268:0.175 269:0.425 270:0.375 271:0.925 272:0.775 273:0.575 274:0.64736 275:0.940415 276:0.705527 277:0.617444 278:0.200837 279:0.5 280:1 281:0.5 282:0.6375 283:0.421875 284:0.333333 285:0 286:0.0353807 287:0.129729 288:0.896055 289:1.21203 290:0.291457 291:0.529949 292:0.49533 293:0.282057 294:0.559978 295:0.576664 296:0.626984 297:0.489447 298:0.313404 299:0.223214 300:0.0714286 301:0.265306 302:1 303:0.0873016 304:1 305:0.862305 306:0.00941049 307:0.099679 308:0.0286054 309:0.842439 310:0.018821 311:0.101098 312:0.037642 313:0.894716 314:0.0488832 315:0.0516958 316:0.00470525 317:0 318:0.00248197 319:0.0167161 320:0.0222202 321:0.845238 322:0.0119048 323:0.0634921 324:0.0186584 325:0.0714286 326:0.101514 327:0.196527 328:0 329:0.146174 330:0.130627 331:0.0714286 332:0.0962482 333:0.186053 334:0.142857 335:0 336:0 337:0.155506 338:0.153853 339:0.0453662 340:0.0290179 341:0.356148 342:0.117252 343:0.158631 344:0.0361977 345:0.132552 346:0.211389 347:0.187091 348:0.116527 349:0 350:0.0555037 351:0.102108 352:0.160949 353:0.0279447 354:0.000463481 355:0 356:0 
0 0 0 5.906066035285758e-12 0 0 1:0.0652174 2:0.413043 3:0.478261 4:0.847826 5:0.717391 6:0.73913 7:0.613687 8:0.945021 9:0.673064 10:0.64834 11:0.0955144 12:0.5 13:0.5 14:1 15:0.717391 16:0.434211 17:0.428571 18:0.113349 19:-0.00472288 20:0.283373 21:0.88035 22:0.93577 23:0.546789 24:1 25:0.264481 26:0.269944 27:0.543143 28:0.596286 29:0.629491 30:0.281449 31:0.272039 32:0.108116 33:0.0552381 34:0.385638 35:1 36:0.197488 37:1 38:0.91635 39:0.0110471 40:0.0577271 41:0.0148758 42:0.848553 43:0.00920592 44:0.116465 45:0.0257766 46:0.855576 47:0.0359466 48:0.0878704 49:0.0206068 50:0.00520449 51:0.0636316 52:0.0881441 53:0.0590051 54:0.77749 55:0.0243571 56:0.058254 57:0.0370402 58:0.0714286 59:0.151705 60:0.177344 61:0 62:0.142142 63:0.103521 64:0.0714286 65:0.115924 66:0.166508 67:0 68:0.0949622 69:0.0478949 70:0.0660861 71:0.193417 72:0.146957 73:0.0278956 74:0.20036 75:0.222428 76:0.0410328 77:0.0104326 78:0.039845 79:0.222188 80:0.0949069 81:0.171738 82:0.131232 83:0.144313 84:0.144312 85:0.164523 86:0.0335013 87:0.00298894 88:0 89:0 90:0.0652174 91:0.413043 92:0.521739 93:0.804348 94:0.717391 95:0.695652 96:0.585115 97:0.95177 98:0.686023 99:0.606299 100:0.255058 101:0.5 102:0.5 103:1 104:0.728261 105:0.434211 106:0.458333 107:0.257567 108:0 109:0.0948932 110:0.88035 111:1.00748 112:0.480887 113:0.400908 114:0.732034 115:0.32017 116:0.545181 117:0.647177 118:0.576613 119:0.107788 120:0.184286 121:0 122:0 123:0.407926 124:1 125:0.152778 126:1 127:0.96515 128:0.00862159 129:0.0219174 130:0.00431079 131:0.913528 132:0.00431079 133:0.0778506 134:0.00431079 135:0.819287 136:0.0291835 137:0.129147 138:0.0223823 139:0.00339939 140:0.078862 141:0.104269 142:0.048271 143:0.907143 144:0.00839628 145:0.0201751 146:0.0214286 147:0.0714286 148:0.195416 149:0.203979 150:0 151:0.0455076 152:0.0507844 153:0.0714286 154:0.138389 155:0.223067 156:0 157:0.0561988 158:0.0866583 159:0.138078 160:0.160261 161:0.0889779 162:0.00284712 163:0.331994 164:0.134985 165:0.0653283 166:0.0180132 167:0.0547159 168:0.253783 169:0.0525184 170:0.225737 171:0.151607 172:0.0275334 173:0.150764 174:0.204195 175:0.0462322 176:0.00413027 177:0 178:0 179:0.0681818 180:0.454545 181:0.522727 182:0.886364 183:0.727273 184:0.75 185:0.630331 186:0.958682 187:0.652894 188:0.627412 189:0.136949 190:1 191:0.5 192:0.5 193:0.704545 194:0.411765 195:0.410714 196:0.104694 197:0 198:0.369917 199:0.912908 200:0.881872 201:0.566729 202:0.814064 203:0.369917 204:0.259654 205:0.521406 206:0.602717 207:0.651699 208:0.490373 209:0.425873 210:0.209051 211:0.12963 212:0.561487 213:1 214:0.353932 215:1 216:0.893134 217:0.021554 218:0.0547936 219:0.0305182 220:0.744337 221:0.00862159 222:0.199623 223:0.0474187 224:0.755812 225:0.0798517 226:0.129021 227:0.0353147 228:0.00942474 229:0.100079 230:0.126788 231:0.0982055 232:0.702799 233:0.0223538 234:0.0577497 235:0.0328722 236:0.0714286 237:0.128975 238:0.166286 239:0 240:0.164541 241:0.12176 242:0.0714286 243:0.110503 244:0.165079 245:0 246:0.0898536 247:0.0530035 248:0.0517599 249:0.214296 250:0.135246 251:0.0143848 252:0.210603 253:0.230852 254:0.0207821 255:0.019619 256:0.0228124 257:0.2058 258:0.141133 259:0.172866 260:0.131563 261:0.136047 262:0.149377 263:0.150105 264:0.0281863 265:0.00209461 266:0 267:0 268:0.125 269:0.475 270:0.375 271:0.925 272:0.775 273:0.575 274:0.667148 275:0.955842 276:0.670941 277:0.613961 278:0.271226 279:0.853553 280:0.146447 281:0.5 282:0.65 283:0.4375 284:0.416667 285:0 286:0 287:0.030909 288:0.896055 289:1.21203 290:0.291457 291:0.404413 292:0.64909 293:0.283446 294:0.599589 295:0.535022 296:0.643182 297:0.308802 298:0.261905 299:0.166667 300:0.031746 301:0.1875 302:1 303:0.037037 304:1 305:0.884462 306:0.00862159 307:0.0949756 308:0.0119403 309:0.891798 310:0.0129324 311:0.0694052 312:0.0258648 313:0.9409 314:0.0238807 315:0.0309089 316:0.00431079 317:0 318:0 319:0.00599529 320:0.0193706 321:0.882143 322:0.0107143 323:0.0285714 324:0.00250685 325:0.0714286 326:0.102599 327:0.200235 328:0 329:0.145281 330:0.123985 331:0.0714286 332:0.100001 333:0.185043 334:0.142857 335:0 336:0 337:0.143201 338:0.161837 339:0.0564006 340:0.0161401 341:0.349919 342:0.129645 343:0.157418 344:0.014011 345:0.130769 346:0.215739 347:0.194598 348:0.109799 349:0 350:0.064617 351:0.113049 352:0.161913 353:0.0282029 354:0.000470859 355:0 356:0 
0 0 1.487907245478978e-12 0 0 0 1:0.0652174 2:0.434783 3:0.543478 4:0.804348 5:0.73913 6:0.717391 7:0.57305 8:0.95177 9:0.686023 10:0.606299 11:0.0986929 12:0.5 13:0.5 14:0.5 15:0.706522 16:0.430556 17:0.433333 18:0.125891 19:-0.0104909 20:0.304237 21:0.90675 22:0.876058 23:0.577902 24:1 25:0.293746 26:0.265495 27:0.568005 28:0.583991 29:0.621894 30:0.126351 31:0.209138 32:0.0432335 33:0.0472239 34:0.33762 35:1 36:0.112397 37:1 38:0.963811 39:0.00365878 40:0.0291026 41:0.00342756 42:0.886378 43:0 44:0.104375 45:0.00924646 46:0.914919 47:0.0121421 48:0.0509132 49:0.0220255 50:0.00344764 51:0.0333003 52:0.0838681 53:0.0470626 54:0.87644 55:0.023586 56:0.0233942 57:0.022465 58:0.0714286 59:0.139884 60:0.183721 61:0 62:0.143395 63:0.123574 64:0.0714286 65:0.113389 66:0.153181 67:0 68:0.0847754 69:0.0580817 70:0.0520118 71:0.17933 72:0.163974 73:0.0145158 74:0.20344 75:0.243871 76:0.0206791 77:0.00739979 78:0.0345761 79:0.217961 80:0.100152 81:0.157571 82:0.14379 83:0.174622 84:0.143248 85:0.160152 86:0.0328467 87:0.0031085 88:0 89:0 90:0.0652174 91:0.434783 92:0.608696 93:0.76087 94:0.73913 95:0.695652 96:0.556713 97:0.955104 98:0.699108 99:0.556888 100:0.16789 101:0.5 102:0.5 103:0.5 104:0.717391 105:0.430556 106:0.458333 107:0.181467 108:0 109:0.133713 110:0.90675 111:0.982794 112:0.480887 113:0.569033 114:0.506198 115:0.318131 116:0.604188 117:0.596658 118:0.570783 119:0.141464 120:0.226508 121:0.034008 122:0.0278956 123:0.394423 124:1 125:0.0787513 126:1 127:0.971762 128:0.00841366 129:0.0180179 130:0.00180682 131:0.873452 132:0 133:0.117435 134:0.00911269 135:0.862341 136:0.0127339 137:0.088765 138:0.0361605 139:0.00307253 140:0.0355237 141:0.097339 142:0.0531412 143:0.914286 144:0.00413541 145:0.0157478 146:0.018212 147:0.0714286 148:0.183665 149:0.216834 150:0 151:0.0546828 152:0.0643727 153:0.0714286 154:0.144525 155:0.193063 156:0 157:0.0437862 158:0.0990709 159:0.100924 160:0.162137 161:0.116508 162:0.0111727 163:0.286793 164:0.179608 165:0.0420097 166:0.00907074 167:0.0579935 168:0.225088 169:0.0773759 170:0.173612 171:0.200009 172:0.0512698 173:0.163572 174:0.19876 175:0.0449313 176:0.00385677 177:0 178:0 179:0.119048 180:0.404762 181:0.452381 182:0.880952 183:0.738095 184:0.690476 185:0.605867 186:0.940386 187:0.692669 188:0.63762 189:0.141983 190:0.5 191:0.5 192:1 193:0.714286 194:0.426471 195:0.442308 196:0.0781589 197:0 198:0.453321 199:0.890275 200:0.91795 201:0.554307 202:0.761575 203:0.39861 204:0.257521 205:0.530405 206:0.574989 207:0.665541 208:0.236868 209:0.422698 210:0.0899189 211:0.0986395 212:0.571149 213:1 214:0.258439 215:1 216:0.941753 217:0.00841366 218:0.0437578 219:0.00607513 220:0.808216 221:0 222:0.170521 223:0.0212629 224:0.877797 225:0.0279218 226:0.0713786 227:0.0229024 228:0.00703785 229:0.0560511 230:0.141893 231:0.0838375 232:0.771409 233:0.0540435 234:0.0467197 235:0.0372018 236:0.0714286 237:0.109764 238:0.126026 239:0 240:0.190466 241:0.150797 242:0.0714286 243:0.122091 244:0.157998 245:0 246:0.0967575 247:0.0460997 248:0.0450716 249:0.225796 250:0.146164 251:0.0310674 252:0.192049 253:0.216995 254:0.0190215 255:0.028268 256:0.0268459 257:0.192861 258:0.158215 259:0.166615 260:0.0901865 261:0.160129 262:0.157858 263:0.153389 264:0.0294062 265:0.00221199 266:0 267:0 268:0.175 269:0.475 270:0.375 271:0.875 272:0.775 273:0.525 274:0.590141 275:0.95091 276:0.693247 277:0.596623 278:0.663024 279:0.5 280:0.5 281:0.5 282:0.65 283:0.40625 284:0.458333 285:0 286:0 287:0 288:0.896055 289:1.21203 290:0.291457 291:0.146339 292:1.79378 293:0.276862 294:0.573864 295:0.590909 296:0.568182 297:0.0238095 298:0.00952381 299:0 300:0 301:0.0549451 302:1 303:0 304:0 305:0.979408 306:0 307:0.0205919 308:0 309:0.979408 310:0 311:0.0205919 312:0 313:0.981518 314:0.00303756 315:0.0154439 316:0 317:0 318:0 319:0 320:0.000765483 321:1 322:0 323:0 324:0 325:0.0714286 326:0.101315 327:0.186184 328:0 329:0.150907 330:0.144595 331:0.0714286 332:0.0959773 333:0.178164 334:0.142857 335:0 336:0 337:0.142857 338:0.140417 339:0.0717896 340:0 341:0.403234 342:0.0988453 343:0.142857 344:0.00714286 345:0.135714 346:0.202557 347:0.218383 348:0.137808 349:0 350:0.0812023 351:0.0743346 352:0.154952 353:0.0265879 354:0.000598175 355:0 356:0 
0 0 0 0 2.304493967952227e-11 0 1:0.0681818 2:0.431818 3:0.522727 4:0.795455 5:0.75 6:0.704545 7:0.565439 8:0.946516 9:0.695351 10:0.611629 11:0.0940633 12:0.5 13:0.5 14:0.5 15:0.727273 16:0.430556 17:0.428571 18:0.115502 19:0 20:0.320256 21:0.885067 22:0.909753 23:0.566729 24:1 25:0.283505 26:0.282084 27:0.563524 28:0.596273 29:0.608836 30:0.124913 31:0.194494 32:0.0412504 33:0.0298608 34:0.356575 35:1 36:0.149868 37:1 38:0.954484 39:0.00606234 40:0.0333914 41:0.00606234 42:0.871326 43:0.00606234 44:0.1127 45:0.00991153 46:0.89535 47:0.0205206 48:0.0622383 49:0.0218914 50:0.00416646 51:0.0519077 52:0.10053 53:0.0538834 54:0.866164 55:0.0202398 56:0.0181814 57:0.0350142 58:0.0714286 59:0.14634 60:0.170528 61:0 62:0.127369 63:0.114101 64:0.0714286 65:0.124363 66:0.174441 67:0 68:0.0886948 69:0.0541624 70:0.0799847 71:0.180497 72:0.1246 73:0.063601 74:0.210864 75:0.197596 76:0.0521691 77:0.0116854 78:0.0785691 79:0.219327 80:0.0812372 81:0.182657 82:0.114649 83:0.154649 84:0.105058 85:0.180069 86:0.0410109 87:0.00454009 88:0 89:0 90:0.0681818 91:0.431818 92:0.590909 93:0.840909 94:0.75 95:0.681818 96:0.606744 97:0.959627 98:0.689258 99:0.554074 100:0.309235 101:0.5 102:0.5 103:0.5 104:0.715909 105:0.430556 106:0.454545 107:0 108:0 109:0 110:0.885067 111:1.02225 112:0.463648 113:0.33979 114:0.852798 115:0.344797 116:0.651786 117:0.59375 118:0.495536 119:0.125644 120:0.168651 121:0.00974026 122:0.0194805 123:0.255952 124:1 125:0.0357143 126:1 127:0.961333 128:0 129:0.0312839 130:0.00738362 131:0.925793 132:0.0147672 133:0.0594394 134:0 135:0.911278 136:0.00369181 137:0.0813381 138:0.00369181 139:0 140:0.00353209 141:0.04117 142:0.0263265 143:0.970238 144:0 145:0.00595238 146:0.0119048 147:0.0714286 148:0.199716 149:0.228174 150:0 151:0.00959255 152:0.0191172 153:0.0714286 154:0.163708 155:0.236834 156:0 157:0.0389496 158:0.103908 159:0.140571 160:0.149572 161:0.0900363 162:0.0689469 163:0.286472 164:0.121545 165:0.0570562 166:0.00818829 167:0.126946 168:0.257994 169:0.0163922 170:0.204954 171:0.181993 172:0.0139558 173:0.132521 174:0.234558 175:0.0586345 176:0.00522361 177:0 178:0 179:0.0681818 180:0.431818 181:0.522727 182:0.795455 183:0.704545 184:0.75 185:0.561905 186:0.949325 187:0.668497 188:0.640414 189:0.131328 190:0.5 191:0.5 192:0.5 193:0.75 194:0.444444 195:0.375 196:0.184402 197:0 198:0.508951 199:0.885067 200:0.909753 201:0.566729 202:0.770302 203:0.398309 204:0.277258 205:0.510114 206:0.613532 207:0.664198 208:0.227809 209:0.374359 210:0.0946589 211:0.0771405 212:0.559058 213:0.5 214:0.299463 215:1 216:0.937944 217:0.013778 218:0.0379448 219:0.0103335 220:0.785026 221:0.00344451 222:0.189004 223:0.0225262 224:0.819193 225:0.0397488 226:0.0947495 227:0.0463086 228:0.00829218 229:0.119897 230:0.208581 231:0.0874187 232:0.747482 233:0.04816 234:0.0363522 235:0.0660322 236:0.0714286 237:0.149329 238:0.171631 239:0 240:0.129272 241:0.106571 242:0.0714286 243:0.126993 244:0.173346 245:0 246:0.0894298 247:0.0534273 248:0.0855788 249:0.220037 250:0.0942083 251:0.0623784 252:0.261461 253:0.13348 254:0.0501683 255:0.0181614 256:0.0767908 257:0.244746 258:0.118887 259:0.211247 260:0.096685 261:0.0982832 262:0.0850321 263:0.173114 264:0.0368997 265:0.00352341 266:0 267:0 268:0.214286 269:0.428571 270:0.404762 271:0.833333 272:0.761905 273:0.595238 274:0.548426 275:0.924918 276:0.728802 277:0.630744 278:0.210606 279:0.5 280:0.5 281:1 282:0.654762 283:0.421875 284:0.388889 285:0 286:0 287:0.495638 288:0.91972 289:1.05841 290:0.404892 291:0.432343 292:0.633315 293:0.24419 294:0.505105 295:0.576271 296:0.672861 297:0.0784779 298:0.144872 299:0.0188825 300:0.0120851 301:0.284745 302:1 303:0.0608466 304:1 305:0.955166 306:0.00688902 307:0.0379448 308:0 309:0.865269 310:0 311:0.121746 312:0.0129854 313:0.956053 314:0.00954085 315:0.017513 316:0.0168934 317:0.0020274 318:0.0329959 319:0.0379867 320:0.0338677 321:0.934066 322:0.0117333 323:0.0146577 324:0.00108153 325:0.0714286 326:0.0761585 327:0.0876573 328:0 329:0.196968 330:0.254677 331:0.0714286 332:0.081014 333:0.160668 334:0 335:0.142857 336:0 337:0.0152574 338:0.224544 339:0.124491 340:0.0105532 341:0.212634 342:0.269663 343:0.00287215 344:0.0132467 345:0.00862502 346:0.170756 347:0.237109 348:0.196845 349:0.054182 350:0.210476 351:0.105888 352:0.124703 353:0.0183195 354:0.000471321 355:0 356:0 
0 0 0 5.049057388551629e-12 0 0 1:0.0681818 2:0.431818 3:0.522727 4:0.795455 5:0.75 6:0.704545 7:0.565439 8:0.946516 9:0.695351 10:0.611629 11:0.0930858 12:0.5 13:0.5 14:0.5 15:0.727273 16:0.430556 17:0.428571 18:0.114302 19:0 20:0.311733 21:0.885067 22:0.909753 23:0.566729 24:1 25:0.280559 26:0.279437 27:0.565812 28:0.596626 29:0.605967 30:0.117565 31:0.183053 32:0.0387504 33:0.0280511 34:0.334289 35:1 36:0.139877 37:1 38:0.955805 39:0.00572487 40:0.0327454 41:0.00572487 42:0.877276 43:0.00572487 44:0.107639 45:0.00935979 46:0.901175 47:0.0193783 48:0.0587738 49:0.0206728 50:0.00392789 51:0.0489355 52:0.0947734 53:0.0509316 54:0.874037 55:0.0190492 56:0.0171119 57:0.0329546 58:0.0714286 59:0.143465 60:0.168454 61:0 62:0.131919 63:0.119354 64:0.0714286 65:0.121513 66:0.172437 67:0 68:0.0889644 69:0.0538928 70:0.0756612 71:0.1768 72:0.131558 73:0.0601631 74:0.202515 75:0.210446 76:0.0493491 77:0.0110537 78:0.0743221 79:0.212991 80:0.081023 81:0.177607 82:0.118166 83:0.166125 84:0.109363 85:0.177416 86:0.0400515 87:0.00440756 88:0 89:0 90:0.0681818 91:0.431818 92:0.590909 93:0.840909 94:0.75 95:0.681818 96:0.606744 97:0.959627 98:0.689258 99:0.554074 100:0.265587 101:0.5 102:0.5 103:0.5 104:0.715909 105:0.430556 106:0.454545 107:0.0430839 108:0 109:0 110:0.885067 111:1.02225 112:0.463648 113:0.395634 114:0.732427 115:0.342533 116:0.638462 117:0.6 118:0.507692 119:0.138551 120:0.179487 121:0.00892857 122:0.0178571 123:0.287879 124:1 125:0.0582011 126:1 127:0.961004 128:0 129:0.0321071 130:0.00688902 131:0.922008 132:0.013778 133:0.0642143 134:0 135:0.895738 136:0.00344451 137:0.0904837 138:0.0103335 139:0.00105704 140:0.0148729 141:0.0536696 142:0.0331339 143:0.967033 144:0.000964174 145:0.0100248 146:0.010989 147:0.0714286 148:0.197383 149:0.228475 150:0 151:0.0113497 152:0.0238113 153:0.0714286 154:0.161592 155:0.234533 156:0 157:0.0391834 158:0.103674 159:0.140511 160:0.148465 161:0.090544 162:0.0675908 163:0.287794 164:0.122238 165:0.0570066 166:0.0109927 167:0.123362 168:0.25673 169:0.0200402 170:0.201266 171:0.180079 172:0.0151448 173:0.135379 174:0.231302 175:0.0575966 176:0.00512447 177:0 178:0 179:0.0681818 180:0.431818 181:0.522727 182:0.795455 183:0.704545 184:0.75 185:0.561905 186:0.949325 187:0.668497 188:0.640414 189:0.130366 190:0.5 191:0.5 192:0.5 193:0.75 194:0.444444 195:0.375 196:0.183052 197:0 198:0.519868 199:0.885067 200:0.909753 201:0.566729 202:0.775983 203:0.395393 204:0.269933 205:0.505477 206:0.614773 207:0.667251 208:0.222314 209:0.385348 210:0.100611 211:0.0652357 212:0.559058 213:0.5 214:0.323398 215:1 216:0.935025 217:0.013778 218:0.0408636 219:0.0103335 220:0.785026 221:0.00344451 222:0.189004 223:0.0225262 224:0.819193 225:0.0397488 226:0.0947495 227:0.0463086 228:0.00984995 229:0.118215 230:0.205472 231:0.0907903 232:0.755723 233:0.0415792 234:0.0403413 235:0.0686238 236:0.0714286 237:0.142685 238:0.163607 239:0 240:0.145211 241:0.118996 242:0.0714286 243:0.122615 244:0.164028 245:0 246:0.0912603 247:0.0515969 248:0.0755456 249:0.214361 250:0.111399 251:0.0531512 252:0.24597 253:0.156717 254:0.0430625 255:0.0181614 256:0.0644354 257:0.23067 258:0.12446 259:0.201179 260:0.103169 261:0.120878 262:0.0939842 263:0.165414 264:0.0343947 265:0.00328016 266:0 267:0 268:0.175 269:0.425 270:0.375 271:0.825 272:0.775 273:0.525 274:0.572743 275:0.93142 276:0.732303 277:0.599558 278:0.353203 279:0.5 280:0.853553 281:0.853553 282:0.6375 283:0.421875 284:0.375 285:0 286:0.0234429 287:0.210986 288:0.896055 289:1.21203 290:0.291457 291:0.266605 292:0.984601 293:0.255826 294:0.521875 295:0.6 296:0.621875 297:0.032967 298:0.0659341 299:0.0119048 300:1.78543e-34 301:0.180736 302:1 303:0.0132275 304:1 305:0.964974 306:0 307:0.035026 308:0 309:0.920666 310:0 311:0.0758896 312:0.00344451 313:0.983829 314:0.00344451 315:0.00583766 316:0.00688902 317:0.00036635 318:0.00568152 319:0.0142204 320:0.0189131 321:0.978022 322:0.00453033 323:0.000964174 324:0 325:0.0714286 326:0.0929865 327:0.148498 328:0 329:0.185736 330:0.2075 331:0.0714286 332:0.0731524 333:0.14927 334:0.142857 335:0 336:0 337:0.152344 338:0.119337 339:0.0636466 340:0.00837054 341:0.393219 342:0.120226 343:0.142857 344:0.0348909 345:0.125823 346:0.15252 347:0.242874 348:0.119784 349:0.0143527 350:0.102618 351:0.0642793 352:0.135283 353:0.020607 354:0.00032147 355:0 356:0 
0 1.412144021939068e-12 0 0 0 0 1:0.0681818 2:0.431818 3:0.522727 4:0.795455 5:0.75 6:0.704545 7:0.565439 8:0.946516 9:0.695351 10:0.611629 11:0.0957801 12:0.5 13:0.5 14:0.5 15:0.727273 16:0.430556 17:0.428571 18:0.128302 19:0 20:0.336793 21:0.885067 22:0.909753 23:0.566729 24:1 25:0.28868 26:0.275467 27:0.555237 28:0.601266 29:0.614858 30:0.108084 31:0.165578 32:0.0376107 33:0.027226 34:0.316944 35:1 36:0.135364 37:1 38:0.958182 39:0.00556985 40:0.0306788 41:0.00556985 42:0.884352 43:0.00417738 44:0.102365 45:0.00910634 46:0.906211 47:0.0188536 48:0.0548223 49:0.020113 50:0.00381857 51:0.0475735 52:0.0898142 53:0.0458949 54:0.877636 55:0.0185049 56:0.016623 57:0.032013 58:0.0714286 59:0.139328 60:0.164962 61:0 62:0.139262 63:0.126375 64:0.0714286 65:0.118646 66:0.16857 67:0 68:0.0895148 69:0.0533423 70:0.0696223 71:0.17315 72:0.140595 73:0.0562203 74:0.191613 75:0.225941 76:0.0450586 77:0.0102347 78:0.0694436 79:0.205147 80:0.0817703 81:0.171059 82:0.121963 83:0.18122 84:0.114105 85:0.173415 86:0.0385099 87:0.0041735 88:0 89:0 90:0.0681818 91:0.431818 92:0.590909 93:0.840909 94:0.75 95:0.681818 96:0.606744 97:0.959627 98:0.689258 99:0.554074 100:0.228091 101:0.5 102:0.5 103:0.5 104:0.715909 105:0.430556 106:0.454545 107:0.135671 108:0 109:0.0616687 110:0.885067 111:1.02225 112:0.463648 113:0.460673 114:0.629021 115:0.335632 116:0.592014 117:0.623264 118:0.555556 119:0.147362 120:0.182483 121:0.0418032 122:0.029304 123:0.31861 124:1 125:0.0985714 126:1 127:0.953767 128:0.00322826 129:0.0300914 130:0.0129131 131:0.918697 132:0.00968479 133:0.0683896 134:0.00322826 135:0.875424 136:0.00894187 137:0.0970078 138:0.0186267 139:0.000740787 140:0.0271081 141:0.0739022 142:0.0330798 143:0.915816 144:0.0111851 145:0.00956645 146:0.0226158 147:0.0714286 148:0.192734 149:0.223645 150:0 151:0.0258628 152:0.0313421 153:0.0714286 154:0.155442 155:0.228117 156:0 157:0.0374503 158:0.105407 159:0.129052 160:0.164848 161:0.0906002 162:0.0601231 163:0.291618 164:0.120901 165:0.0478779 166:0.0131342 167:0.110547 168:0.255467 169:0.0410118 170:0.200081 171:0.177416 172:0.0184273 173:0.136038 174:0.22223 175:0.0533708 176:0.00449303 177:0 178:0 179:0.0681818 180:0.431818 181:0.522727 182:0.795455 183:0.75 184:0.75 185:0.573311 186:0.940386 187:0.692669 188:0.63762 189:0.12847 190:0.5 191:0.5 192:0.5 193:0.75 194:0.430556 195:0.375 196:0.169729 197:0 198:0.4809 199:0.885067 200:0.909753 201:0.566729 202:0.803418 203:0.381891 204:0.260434 205:0.505284 206:0.619518 207:0.656996 208:0.186026 209:0.317007 210:0.0901247 211:0.0547231 212:0.560089 213:0.666667 214:0.309153 215:1 216:0.933633 217:0.0129131 218:0.0437694 219:0.00968479 220:0.793051 221:0.00322826 222:0.182609 223:0.021112 224:0.824088 225:0.0404816 226:0.0888011 227:0.0466296 228:0.00854572 229:0.10569 230:0.194607 231:0.0897 232:0.773172 233:0.0308704 234:0.0339902 235:0.0596244 236:0.0714286 237:0.132145 238:0.155067 239:0 240:0.162431 241:0.137546 242:0.0714286 243:0.114745 244:0.15521 245:0 246:0.0923557 247:0.0505015 248:0.0610326 249:0.202825 250:0.133336 251:0.0419663 252:0.21967 253:0.198312 254:0.0338417 255:0.0170931 256:0.0490164 257:0.209788 258:0.124952 259:0.184337 260:0.113266 261:0.158117 262:0.109589 263:0.155807 264:0.0311996 265:0.00289508 266:0 267:0 268:0.184211 269:0.473684 270:0.368421 271:0.868421 272:0.789474 273:0.526316 274:0.572467 275:0.944331 276:0.705076 277:0.602538 278:0.445612 279:0.5 280:0.5 281:1 282:0.644737 283:0.40625 284:0.375 285:0 286:0.0609228 287:0 288:0.870903 289:1.21203 290:0.305879 291:0.215976 292:1.24892 293:0.263884 294:0.532258 295:0.612903 296:0.58871 297:0.0204082 298:0.0408163 299:0 300:0 301:0.118056 302:1 303:0.0047619 304:0.195913 305:0.972644 306:0 307:0.0273559 308:0 309:0.948024 310:0 311:0.0519761 312:0 313:0.988072 314:0.00322826 315:0.00547117 316:0.00322826 317:0 318:0.00186541 319:0.0129534 320:0.0156243 321:0.994898 322:0.00420674 323:0.000895304 324:0 325:0.0714286 326:0.0923386 327:0.145597 328:0 329:0.164787 330:0.189227 331:0.0714286 332:0.0833722 333:0.181822 334:0.142857 335:0 336:0 337:0.142857 338:0.121095 339:0.0676302 340:0 341:0.401227 342:0.124334 343:0.142857 344:0.0102757 345:0.132581 346:0.152069 347:0.236954 348:0.135357 349:0.0119762 350:0.100017 351:0.0779123 352:0.150153 353:0.0246929 354:0.000379962 355:0 356:0 
0 0 2.561598651607931e-11 6.986912201392283e-12 0 0 1:0.0681818 2:0.431818 3:0.522727 4:0.795455 5:0.75 6:0.704545 7:0.565439 8:0.946516 9:0.695351 10:0.611629 11:0.0952708 12:0.5 13:0.5 14:0.5 15:0.727273 16:0.430556 17:0.428571 18:0.12762 19:0 20:0.329685 21:0.885067 22:0.909753 23:0.566729 24:1 25:0.287145 26:0.2742 27:0.558034 28:0.600629 29:0.612563 30:0.105082 31:0.160979 32:0.0365361 33:0.0264482 34:0.307623 35:1 36:0.131134 37:1 38:0.959284 39:0.005423 40:0.0298699 41:0.005423 42:0.886252 43:0.00406725 44:0.100815 45:0.00886624 46:0.908684 47:0.0183565 48:0.0533769 49:0.0195827 50:0.00371516 51:0.0462852 52:0.0888164 53:0.0451521 54:0.881035 55:0.0179909 56:0.0161613 57:0.0311238 58:0.0714286 59:0.138143 60:0.164121 61:0 62:0.141234 63:0.128673 64:0.0714286 65:0.117578 66:0.167394 67:0 68:0.0896217 69:0.0532354 70:0.0678372 71:0.171865 72:0.143669 73:0.0547788 74:0.188578 75:0.230415 76:0.0439032 77:0.00997224 78:0.067663 79:0.202505 80:0.0822721 81:0.169454 82:0.123444 83:0.185386 84:0.1154 85:0.172143 86:0.0380102 87:0.00409019 88:0 89:0 90:0.0681818 91:0.431818 92:0.590909 93:0.840909 94:0.75 95:0.681818 96:0.606744 97:0.959627 98:0.689258 99:0.554074 100:0.228091 101:0.5 102:0.5 103:0.5 104:0.715909 105:0.430556 106:0.454545 107:0.135671 108:0 109:0.0616687 110:0.885067 111:1.02225 112:0.463648 113:0.460673 114:0.629021 115:0.335632 116:0.592014 117:0.623264 118:0.555556 119:0.147362 120:0.182483 121:0.0418032 122:0.029304 123:0.31861 124:1 125:0.0985714 126:1 127:0.953767 128:0.00322826 129:0.0300914 130:0.0129131 131:0.918697 132:0.00968479 133:0.0683896 134:0.00322826 135:0.875424 136:0.00894187 137:0.0970078 138:0.0186267 139:0.000740787 140:0.0271081 141:0.0739022 142:0.0330798 143:0.915816 144:0.0111851 145:0.00956645 146:0.0226158 147:0.0714286 148:0.192734 149:0.223645 150:0 151:0.0258628 152:0.0313421 153:0.0714286 154:0.155442 155:0.228117 156:0 157:0.0374503 158:0.105407 159:0.129052 160:0.164848 161:0.0906002 162:0.0601231 163:0.291618 164:0.120901 165:0.0478779 166:0.0131342 167:0.110547 168:0.255467 169:0.0410118 170:0.200081 171:0.177416 172:0.0184273 173:0.136038 174:0.22223 175:0.0533708 176:0.00449303 177:0 178:0 179:0.0714286 180:0.428571 181:0.5 182:0.833333 183:0.761905 184:0.690476 185:0.586245 186:0.946516 187:0.695351 188:0.611629 189:0.130395 190:1 191:0.5 192:0.5 193:0.738095 194:0.430556 195:0.384615 196:0.152837 197:0 198:0.487622 199:0.86217 200:0.945311 201:0.554307 202:0.817866 203:0.378453 204:0.262254 205:0.510022 206:0.6125 207:0.660433 208:0.177821 209:0.3 210:0.0901247 211:0.0547231 212:0.565645 213:0.666667 214:0.298496 215:1 216:0.930897 217:0.0129131 218:0.046505 219:0.00968479 220:0.790315 221:0.00322826 222:0.185345 223:0.021112 224:0.840501 225:0.0404816 226:0.0723876 227:0.0466296 228:0.00844936 229:0.0967878 230:0.177149 231:0.0851456 232:0.778274 233:0.0246552 234:0.0285897 235:0.055934 236:0.0714286 237:0.116341 238:0.124305 239:0 240:0.169739 241:0.152067 242:0.0714286 243:0.121429 244:0.173261 245:0 246:0.102243 247:0.0406145 248:0.0580572 249:0.203458 250:0.136801 251:0.0572134 252:0.191211 253:0.210403 254:0.0350091 255:0.0234689 256:0.0550047 257:0.181149 258:0.127453 259:0.186341 260:0.0926632 261:0.171857 262:0.127055 263:0.162365 264:0.0334258 265:0.00311934 266:0 267:0 268:0.184211 269:0.447368 270:0.421053 271:0.868421 272:0.763158 273:0.526316 274:0.579666 275:0.949614 276:0.707514 277:0.569171 278:0.559726 279:0.5 280:0.5 281:0.5 282:0.644737 283:0.4 284:0.416667 285:0 286:0.0774341 287:0 288:0.902507 289:1.19029 290:0.305879 291:0.169924 292:1.54868 293:0.271033 294:0.5625 295:0.635417 296:0.53125 297:0.0102041 298:0.0204082 299:0 300:0 301:0.0793651 302:1 303:0 304:0 305:0.97538 306:0 307:0.0246203 308:0 309:0.964437 310:0 311:0.0355626 312:0 313:0.988072 314:0.00322826 315:0.00547117 316:0.00322826 317:0 318:0 319:0.00222197 320:0.00908237 321:1 322:0 323:0 324:0 325:0.0714286 326:0.0951458 327:0.144214 328:0 329:0.16705 330:0.188511 331:0.0714286 332:0.0808759 333:0.181346 334:0.142857 335:0 336:0 337:0.142857 338:0.120795 339:0.0699702 340:0 341:0.401543 342:0.121978 343:0.142857 344:0.0093985 345:0.133459 346:0.154456 347:0.233982 348:0.135943 349:0.0107144 350:0.102422 351:0.076769 352:0.150623 353:0.024839 354:0.000376768 355:0 356:0 
0 0 0 0 8.607771617981584e-12 1.377603579548419e-11 1:0.166667 2:0.428571 3:0.52381 4:0.880952 5:0.714286 6:0.714286 7:0.552024 8:0.950631 9:0.680253 10:0.620168 11:0.0818179 12:0.5 13:0.5 14:0 15:0.678571 16:0.444444 17:0.458333 18:0.00983192 19:0 20:0.23105 21:0.86217 22:0.982794 23:0.519146 24:1 25:0.250714 26:0.279381 27:0.57179 28:0.595506 29:0.600134 30:0.202454 31:0.316578 32:0.0651548 33:0.0485348 34:0.487576 35:1 36:0.186467 37:1 38:0.940592 39:0.0106652 40:0.0451878 41:0.00355507 42:0.841752 43:0.00355507 44:0.142659 45:0.0120337 46:0.879271 47:0.0141528 48:0.083945 49:0.0226314 50:0.00227335 51:0.0491031 52:0.12222 53:0.0807548 54:0.801621 55:0.0213835 56:0.0272195 57:0.0376453 58:0.0714286 59:0.133515 60:0.12077 61:0 62:0.160178 63:0.118782 64:0.0714286 65:0.14254 66:0.181358 67:0 68:0.0821525 69:0.0607046 70:0.0855015 71:0.207703 72:0.136606 73:0.0497051 74:0.202954 75:0.174673 76:0.0552785 77:0.0249001 78:0.054353 79:0.181376 80:0.126235 81:0.184026 82:0.0876481 83:0.132531 84:0.153653 85:0.176791 86:0.0395855 87:0.00404283 88:0 89:0 90:0.166667 91:0.428571 92:0.547619 93:0.833333 94:0.714286 95:0.690476 96:0.521545 97:0.95091 98:0.693247 99:0.596623 100:0.218741 101:0.5 102:0.5 103:0 104:0.690476 105:0.444444 106:0.477273 107:0.0845421 108:0 109:0 110:0.86217 111:1.02225 112:0.482513 113:0.422444 114:0.704517 115:0.319065 116:0.642308 117:0.576923 118:0.519231 119:0.238095 120:0.325 121:0.0793651 122:0.047619 123:0.505952 124:1 125:0.169312 126:1 127:0.92431 128:0.00862159 129:0.0584465 130:0.00862159 131:0.89874 132:0.00862159 133:0.0840169 134:0.00862159 135:0.887781 136:0.00431079 137:0.0949756 138:0.0129324 139:0 140:0.00960031 141:0.0357876 142:0.0807035 143:0.864286 144:0.00607828 145:0.0224931 146:0.0142857 147:0.0714286 148:0.177586 149:0.190733 150:0 151:0.0466075 152:0.0362378 153:0.0714286 154:0.167153 155:0.238825 156:0 157:0.053044 158:0.0898131 159:0.157924 160:0.167668 161:0.0837919 162:0.0939302 163:0.257108 164:0.096721 165:0.118586 166:0.0284945 167:0.104474 168:0.213911 169:0.049566 170:0.210887 171:0.0956152 172:0.0161793 173:0.162288 174:0.214796 175:0.0541946 176:0.00549232 177:0 178:0 179:0.075 180:0.4 181:0.55 182:0.875 183:0.75 184:0.75 185:0.629521 186:0.946516 187:0.695351 188:0.611629 189:0.17262 190:0.5 191:0.5 192:0.5 193:0.725 194:0.426471 195:0.409091 196:0.134886 197:0 198:0.414291 199:0.866302 200:0.996491 201:0.502843 202:0.648698 203:0.462465 204:0.295538 205:0.528278 206:0.614706 207:0.634692 208:0.215672 209:0.386905 210:0.0731456 211:0.0687831 212:0.65284 213:1 214:0.314153 215:1 216:0.953534 217:0.0129324 218:0.0292233 219:0.00431079 220:0.798508 221:0 222:0.185241 223:0.0162511 224:0.836018 225:0.0257011 226:0.104951 227:0.0333306 228:0.00451008 229:0.0888387 230:0.188315 231:0.118467 232:0.750818 233:0.0246761 234:0.0326104 235:0.0509209 236:0.0714286 237:0.153489 238:0.169887 239:0 240:0.105511 241:0.104366 242:0.0714286 243:0.122824 244:0.201067 245:0 246:0.0685058 247:0.0743513 248:0.0907272 249:0.175322 250:0.110543 251:0.0575628 252:0.239428 253:0.183561 254:0.062006 255:0.0201868 256:0.0576195 257:0.197285 258:0.116111 259:0.176424 260:0.130289 261:0.0793437 262:0.160735 263:0.191972 264:0.044414 265:0.00429836 266:0 267:0 268:0.175 269:0.475 270:0.4 271:0.875 272:0.775 273:0.6 274:0.593105 275:0.9445 276:0.6905 277:0.627 278:0.267371 279:0.5 280:0.5 281:0.5 282:0.65 283:0.40625 284:0.428571 285:0 286:0 287:0.322583 288:0.896055 289:1.15839 290:0.336675 291:0.368122 292:0.730057 293:0.260257 294:0.537037 295:0.585648 296:0.648148 297:0.110714 298:0.15 299:0.0357143 300:0.0238095 301:0.303571 302:1 303:0.0608466 304:1 305:0.95916 306:0.00431079 307:0.0365291 308:0 309:0.862387 310:0 311:0.128991 312:0.00862159 313:0.949881 314:0.00431079 315:0.0328762 316:0.0129324 317:0.00107392 318:0.0256032 319:0.0767054 320:0.0317978 321:0.942857 322:0.00357143 323:0.0107143 324:0.00964971 325:0.0714286 326:0.0930478 327:0.148102 328:0 329:0.17054 330:0.216042 331:0.0714286 332:0.069237 333:0.160174 334:0.089218 335:0.0536392 336:0 337:0.0833255 338:0.162454 339:0.101568 340:0.0257191 341:0.242813 342:0.241263 343:0.0971587 344:0.0365149 345:0.0629936 346:0.137902 347:0.190592 348:0.130123 349:0.0673626 350:0.158466 351:0.118888 352:0.143297 353:0.0232825 354:0.00055352 355:0 356:0 
0 5.337168492160031e-12 7.488383436820503e-12 1.188224762799079e-11 4.497531728103072e-11 0 1:0.166667 2:0.428571 3:0.52381 4:0.880952 5:0.714286 6:0.714286 7:0.552024 8:0.950631 9:0.680253 10:0.620168 11:0.0814176 12:0.5 13:0.5 14:0 15:0.678571 16:0.444444 17:0.458333 18:0.00978382 19:0 20:0.22992 21:0.86217 22:0.982794 23:0.519146 24:1 25:0.249487 26:0.278413 27:0.572786 28:0.594972 29:0.599574 30:0.195223 31:0.305272 32:0.0627417 33:0.0467372 34:0.474317 35:1 36:0.178697 37:1 38:0.942577 39:0.0103089 40:0.043678 41:0.00343629 42:0.84704 43:0.00343629 44:0.137892 45:0.0116316 46:0.881849 47:0.0136799 48:0.0825961 49:0.0218752 50:0.00219477 51:0.0474057 52:0.117193 53:0.0766601 54:0.808706 55:0.0206198 56:0.0262474 57:0.0363008 58:0.0714286 59:0.132082 60:0.119621 61:0 62:0.16296 63:0.120437 64:0.0714286 65:0.142091 66:0.179953 67:0 68:0.082559 69:0.0602981 70:0.0827434 71:0.205658 72:0.141277 73:0.0481017 74:0.198611 75:0.180751 76:0.0534953 77:0.0240969 78:0.0525997 79:0.179176 80:0.126136 81:0.181286 82:0.0891563 83:0.137747 84:0.156307 85:0.175859 86:0.0392142 87:0.00398718 88:0 89:0 90:0.166667 91:0.428571 92:0.547619 93:0.833333 94:0.714286 95:0.690476 96:0.521545 97:0.95091 98:0.693247 99:0.596623 100:0.191726 101:0.5 102:0.5 103:0 104:0.690476 105:0.444444 106:0.477273 107:0.0494007 108:0 109:0 110:0.86217 111:1.02225 112:0.482513 113:0.481968 114:0.617508 115:0.318136 116:0.636667 117:0.586667 118:0.516667 119:0.239177 120:0.327922 121:0.0714286 122:0.0428571 123:0.497354 124:1 125:0.165533 126:1 127:0.930165 128:0.00795472 129:0.0539258 130:0.00795472 131:0.88635 132:0.00795472 133:0.0977405 134:0.00795472 135:0.88298 136:0.00397736 137:0.101111 138:0.0119321 139:0 140:0.0196431 141:0.0390077 142:0.0842268 143:0.87013 144:0.00552571 145:0.0204483 146:0.0194805 147:0.0714286 148:0.177396 149:0.187906 150:0 151:0.0497391 152:0.0401482 153:0.0714286 154:0.164773 155:0.237181 156:0 157:0.0552959 158:0.0875612 159:0.156987 160:0.171217 161:0.0812905 162:0.0925955 163:0.256586 164:0.0984668 165:0.113854 166:0.0324626 167:0.104015 168:0.217425 169:0.0545613 170:0.205389 171:0.0930375 172:0.0185532 173:0.160702 174:0.212905 175:0.053441 176:0.00542331 177:0 178:0 179:0.075 180:0.4 181:0.55 182:0.875 183:0.75 184:0.75 185:0.629521 186:0.946516 187:0.695351 188:0.611629 189:0.160513 190:0.5 191:0.5 192:0.5 193:0.725 194:0.426471 195:0.409091 196:0.125425 197:0 198:0.43003 199:0.866302 200:0.996491 201:0.502843 202:0.697626 203:0.43003 204:0.292125 205:0.520692 206:0.622283 207:0.640748 208:0.205806 209:0.371212 210:0.065831 211:0.0619048 212:0.6348 213:1 214:0.288866 215:1 216:0.957128 217:0.0119321 218:0.0269629 219:0.00397736 220:0.793871 221:0 222:0.191135 223:0.0149941 224:0.837376 225:0.0237131 226:0.100203 227:0.0387073 228:0.00532264 229:0.0903742 230:0.196083 231:0.114339 232:0.763028 233:0.026382 234:0.0284592 235:0.0474784 236:0.0714286 237:0.15134 238:0.165449 239:0 240:0.113089 241:0.112214 242:0.0714286 243:0.120384 244:0.194666 245:0 246:0.0693639 247:0.0734932 248:0.0842467 249:0.167617 250:0.128052 251:0.0534512 252:0.223426 253:0.20035 254:0.057577 255:0.0187449 256:0.0535038 257:0.188447 258:0.113083 259:0.168761 260:0.137534 261:0.0982368 262:0.164112 263:0.188596 264:0.0432382 265:0.00423725 266:0 267:0 268:0.175 269:0.475 270:0.4 271:0.875 272:0.775 273:0.6 274:0.593105 275:0.9445 276:0.6905 277:0.627 278:0.262907 279:0.5 280:0.5 281:0.5 282:0.65 283:0.40625 284:0.428571 285:0 286:0 287:0.317198 288:0.896055 289:1.15839 290:0.336675 291:0.374372 292:0.717869 293:0.260913 294:0.540909 295:0.584091 296:0.645455 297:0.100649 298:0.136364 299:0.0321429 300:0.0214286 301:0.285714 302:1 303:0.0521542 304:1 305:0.962319 306:0.00397736 307:0.0337036 308:0 309:0.873031 310:0 311:0.119014 312:0.00795472 313:0.950387 314:0.00397736 315:0.0337036 316:0.0119321 317:0.000983892 318:0.0234568 319:0.0678069 320:0.0232554 321:0.948052 322:0.00324675 323:0.00974026 324:0.00877246 325:0.0714286 326:0.0924188 327:0.148963 328:0 329:0.168755 330:0.215928 331:0.0714286 332:0.0696017 333:0.161477 334:0.0889778 335:0.0538793 336:0 337:0.0805577 338:0.161116 339:0.104066 340:0.023882 341:0.242937 342:0.244584 343:0.0963989 344:0.0339067 345:0.0615253 346:0.138993 347:0.187884 348:0.130891 349:0.0671129 350:0.162331 351:0.120957 352:0.14382 353:0.0234261 354:0.000546955 355:0 356:0 
0 0 0 0 2.750513371193272e-11 0 1:0.125 2:0.425 3:0.525 4:0.875 5:0.725 6:0.725 7:0.564911 8:0.950631 9:0.680253 10:0.620168 11:0.0836327 12:0.146447 13:0.5 14:0.146447 15:0.6875 16:0.444444 17:0.416667 18:0.015075 19:0 20:0.256275 21:0.837981 22:0.982794 23:0.54042 24:1 25:0.25125 26:0.282346 27:0.566975 28:0.591954 29:0.611056 30:0.181102 31:0.270115 32:0.0477458 33:0.039966 34:0.435674 35:1 36:0.161073 37:1 38:0.941616 39:0.00997556 40:0.0450835 41:0.00332519 42:0.857621 43:0.00332519 44:0.127798 45:0.0112555 46:0.891558 47:0.011575 48:0.075699 49:0.021168 50:0.00212144 51:0.0440831 52:0.108249 53:0.0656738 54:0.827617 55:0.0178128 56:0.0225121 57:0.0350491 58:0.0714286 59:0.158451 60:0.152461 61:0 62:0.140794 63:0.0973304 64:0.0714286 65:0.137543 66:0.170562 67:0 68:0.0834073 69:0.0594498 70:0.0753088 71:0.202031 72:0.15299 73:0.045485 74:0.186564 75:0.194764 76:0.0559369 77:0.0151888 78:0.049301 79:0.207151 80:0.0921209 81:0.17095 82:0.120142 83:0.132499 84:0.15671 85:0.191261 86:0.0454084 87:0.0048713 88:0 89:0 90:0.125 91:0.425 92:0.55 93:0.825 94:0.725 95:0.7 96:0.534048 97:0.95091 98:0.693247 99:0.596623 100:0.183969 101:0.146447 102:0.5 103:0.146447 104:0.7 105:0.444444 106:0.431818 107:0.023701 108:0 109:0 110:0.837981 111:1.02225 112:0.502843 113:0.527405 114:0.580673 115:0.325328 116:0.620192 117:0.586538 118:0.544872 119:0.235931 120:0.321429 121:0.0464286 122:0.0357143 123:0.520635 124:1 125:0.134921 126:1 127:0.926794 128:0.00795472 129:0.0572962 130:0.00795472 131:0.88972 132:0.00795472 133:0.0943701 134:0.00795472 135:0.868891 136:0.00397736 137:0.111222 138:0.0159094 139:0 140:0.023464 141:0.06031 142:0.0802952 143:0.883117 144:0 145:0.012987 146:0.0194805 147:0.0714286 148:0.19592 149:0.209926 150:0 151:0.0295327 152:0.0240176 153:0.0714286 154:0.164361 155:0.233385 156:0 157:0.0552959 158:0.0875612 159:0.160067 160:0.17459 161:0.0804846 162:0.0920003 163:0.256188 164:0.0938127 165:0.121119 166:0.0257731 167:0.104985 168:0.247944 169:0.0248762 170:0.206814 171:0.103503 172:0.0112535 173:0.153732 174:0.23244 175:0.0624334 176:0.00676239 177:0 178:0 179:0.075 180:0.4 181:0.525 182:0.875 183:0.75 184:0.775 185:0.629411 186:0.940386 187:0.692669 188:0.63762 189:0.155219 190:0.5 191:0.5 192:0 193:0.725 194:0.426471 195:0.395833 196:0.111079 197:0 198:0.478492 199:0.866302 200:0.956133 201:0.54042 202:0.731465 203:0.418681 204:0.273332 205:0.50545 206:0.621134 207:0.659266 208:0.225286 209:0.410173 210:0.0729739 211:0.0761905 212:0.61734 213:1 214:0.367778 215:1 216:0.957128 217:0.0119321 218:0.0269629 219:0.00397736 220:0.773649 221:0 222:0.211357 223:0.0149941 224:0.836769 225:0.0237131 226:0.0968329 227:0.0426846 228:0.00532264 229:0.0968512 230:0.199932 231:0.12219 232:0.733848 233:0.0404674 234:0.0333762 235:0.0576557 236:0.0714286 237:0.141717 238:0.147738 239:0 240:0.14566 241:0.14041 242:0.0714286 243:0.108231 244:0.173386 245:0 246:0.0883585 247:0.0544987 248:0.0648404 249:0.207108 250:0.119163 251:0.0404065 252:0.232636 253:0.192989 254:0.0425308 255:0.0214526 256:0.0397423 257:0.198341 258:0.148509 259:0.177559 260:0.115914 261:0.119744 262:0.136208 263:0.17381 264:0.0375263 265:0.00350546 266:0 267:0 268:0.175 269:0.475 270:0.375 271:0.875 272:0.775 273:0.575 274:0.59865 275:0.9445 276:0.6905 277:0.627 278:0.346222 279:0.5 280:0.5 281:1 282:0.625 283:0.40625 284:0.416667 285:0 286:0 287:0.175881 288:0.896055 289:1.21203 290:0.291457 291:0.284283 292:0.923376 293:0.263164 294:0.547619 295:0.610119 296:0.622024 297:0.0876623 298:0.11039 299:0.025 300:0.00714286 301:0.169048 302:1 303:6.12147e-34 304:1 305:0.962319 306:0.00397736 307:0.0337036 308:0 309:0.918504 310:0 311:0.0775183 312:0.00397736 313:0.953757 314:0.00397736 315:0.0303333 316:0.0119321 317:0 318:0.00536928 319:0.0459411 320:0.0190905 321:0.974026 322:0.00324675 323:0.00974026 324:0 325:0.0714286 326:0.0907525 327:0.151989 328:0 329:0.166002 330:0.217321 331:0.0714286 332:0.0696017 333:0.161477 334:0.142857 335:0 336:0 337:0.0867347 338:0.152065 339:0.0969864 340:0.00510204 341:0.328257 342:0.187998 343:0.142857 344:0.00739796 345:0.0844388 346:0.124253 347:0.247431 348:0.117975 349:0.036498 350:0.132007 351:0.107142 352:0.144189 353:0.0232722 354:0.000385483 355:0 356:0 
0 0 0 8.005427012418382e-12 0 0 1:0.125 2:0.425 3:0.525 4:0.875 5:0.725 6:0.725 7:0.564911 8:0.950631 9:0.680253 10:0.620168 11:0.0832146 12:0.146447 13:0.5 14:0.146447 15:0.6875 16:0.444444 17:0.416667 18:0.0149996 19:-0.00499988 20:0.254994 21:0.837981 22:0.982794 23:0.54042 24:1 25:0.249994 26:0.279631 27:0.566592 28:0.59 29:0.613279 30:0.168588 31:0.244792 32:0.0431252 33:0.0360983 34:0.392107 35:1 36:0.143815 37:1 38:0.945494 39:0.00909351 40:0.0423814 41:0.00303117 42:0.87021 43:0.00303117 44:0.116498 45:0.0102603 46:0.901147 47:0.0105515 48:0.0690056 49:0.0192963 50:0.00192816 51:0.0400668 52:0.0984316 53:0.059646 54:0.843778 55:0.0161428 56:0.0204016 57:0.0317632 58:0.0714286 59:0.156182 60:0.148557 61:0 62:0.147624 63:0.101869 64:0.0714286 65:0.1362 66:0.16671 67:0 68:0.0843799 69:0.0584773 70:0.0688537 71:0.197294 72:0.164613 73:0.0415862 74:0.176339 75:0.208457 76:0.0511423 77:0.0138869 78:0.0450752 79:0.201234 80:0.0925822 81:0.164352 82:0.125046 83:0.144437 84:0.162244 85:0.188418 86:0.0440908 87:0.00462503 88:0 89:0 90:0.125 91:0.425 92:0.55 93:0.825 94:0.725 95:0.75 96:0.541748 97:0.9445 98:0.6905 99:0.627 100:0.155384 101:0.146447 102:0.5 103:0.146447 104:0.7 105:0.444444 106:0.409091 107:0.0493346 108:0 109:0.0197338 110:0.837981 111:1.02225 112:0.502843 113:0.63343 114:0.483479 115:0.321387 116:0.608536 117:0.600852 118:0.565341 119:0.241299 120:0.343452 121:0.0454545 122:0.038961 123:0.537314 124:1 125:0.135913 126:1 127:0.928358 128:0.0110754 129:0.0531826 130:0.00738362 131:0.867531 132:0.00738362 133:0.117702 134:0.00738362 135:0.846478 136:0.014627 137:0.108651 138:0.0302439 139:9.76985e-05 140:0.0379507 141:0.0730059 142:0.0844839 143:0.875 144:0 145:0.0178571 146:0.0238095 147:0.0714286 148:0.193594 149:0.201928 150:0 151:0.0401029 152:0.0332216 153:0.0714286 154:0.162063 155:0.226233 156:0 157:0.0560041 158:0.086853 159:0.154474 160:0.180035 161:0.0819796 162:0.0814061 163:0.259364 164:0.0998841 165:0.111566 166:0.0253122 167:0.0957458 168:0.249161 169:0.0378027 170:0.206166 171:0.102761 172:0.016357 173:0.155129 174:0.226646 175:0.0596873 176:0.00630868 177:0 178:0 179:0.075 180:0.4 181:0.525 182:0.875 183:0.75 184:0.775 185:0.629411 186:0.940386 187:0.692669 188:0.63762 189:0.142073 190:0.5 191:0.5 192:0 193:0.725 194:0.426471 195:0.395833 196:0.101672 197:0 198:0.469253 199:0.866302 200:0.956133 201:0.54042 202:0.799142 203:0.383223 204:0.270929 205:0.510782 206:0.617991 207:0.651391 208:0.215352 209:0.385531 210:0.0697402 211:0.0694444 212:0.558992 213:1 214:0.326614 215:1 216:0.956508 217:0.013778 218:0.0262695 219:0.00344451 220:0.789379 221:0 222:0.197636 223:0.0129854 224:0.843518 225:0.0239808 226:0.0955354 227:0.0369661 228:0.00455837 229:0.0847837 230:0.188025 231:0.102438 232:0.752817 233:0.0342417 234:0.0282414 235:0.0562084 236:0.0714286 237:0.138346 238:0.145986 239:0 240:0.150912 241:0.14514 242:0.0714286 243:0.104988 244:0.171771 245:0 246:0.0887747 247:0.0540825 248:0.0567354 249:0.195769 250:0.133081 251:0.0353557 252:0.205808 253:0.230393 254:0.0372145 255:0.018771 256:0.0347745 257:0.191509 258:0.140027 259:0.164979 260:0.123032 261:0.141899 262:0.147795 263:0.172584 264:0.037141 265:0.00346368 266:0 267:0 268:0.175 269:0.475 270:0.4 271:0.875 272:0.775 273:0.55 274:0.594888 275:0.95091 276:0.693247 277:0.596623 278:0.401589 279:0.5 280:0.5 281:0.5 282:0.625 283:0.40625 284:0.35 285:0 286:0 287:0 288:0.896055 289:1.26791 290:0.244979 291:0.241605 292:1.06061 293:0.266886 294:0.569444 295:0.579861 296:0.614583 297:0.0741758 298:0.0714286 299:0.0208333 300:0.00595238 301:0.12013 302:1 303:2.38057e-34 304:1 305:0.964448 306:0.00344451 307:0.0321071 308:0 309:0.946935 310:0 311:0.0496201 312:0.00344451 313:0.96976 314:0.00344451 315:0.0233506 316:0.00344451 317:0 318:0.00367865 319:0.0187391 320:0.00799967 321:0.983516 322:0 323:0.00549451 324:0 325:0.0714286 326:0.0909695 327:0.152574 328:0 329:0.161116 330:0.219669 331:0.0714286 332:0.0706414 333:0.162173 334:0.142857 335:0 336:0 337:0.132367 338:0.12268 339:0.081574 340:0.0137418 341:0.359448 342:0.147332 343:0.142857 344:0.0237648 345:0.118436 346:0.140367 347:0.235693 348:0.104058 349:0.0214989 350:0.118775 351:0.0945508 352:0.145343 353:0.0235682 354:0.000359158 355:0 356:0 
2.096369031539204e-11 4.307386458633699e-11 8.915963736301892e-12 0 7.77881438467745e-12 2.085857086633415e-11 1:0.125 2:0.425 3:0.525 4:0.875 5:0.725 6:0.725 7:0.564911 8:0.950631 9:0.680253 10:0.620168 11:0.0828006 12:0.146447 13:0.5 14:0.146447 15:0.6875 16:0.444444 17:0.416667 18:0.014925 19:-0.004975 20:0.253725 21:0.837981 22:0.982794 23:0.54042 24:1 25:0.24875 26:0.278758 27:0.566214 28:0.590909 29:0.612635 30:0.163479 31:0.237374 32:0.0417776 33:0.0349702 34:0.379458 35:1 36:0.138856 37:1 38:0.945807 39:0.00883316 40:0.0424156 41:0.00294439 42:0.873926 43:0.00294439 44:0.113163 45:0.00996656 46:0.903977 47:0.0102494 48:0.06703 49:0.0187438 50:0.00187133 51:0.0388859 52:0.0955304 53:0.057888 54:0.848512 55:0.0156537 56:0.0197834 57:0.0308007 58:0.0714286 59:0.155416 60:0.147494 61:0 62:0.149286 63:0.103214 64:0.0714286 65:0.136163 66:0.165569 67:0 68:0.084668 69:0.0581891 70:0.0669411 71:0.195874 72:0.168006 73:0.0404311 74:0.173317 75:0.212573 76:0.0497217 77:0.0135011 78:0.0438231 79:0.19948 80:0.0927189 81:0.162397 82:0.1265 83:0.147975 84:0.163884 85:0.187498 86:0.0436493 87:0.00454097 88:0 89:0 90:0.125 91:0.425 92:0.55 93:0.875 94:0.725 95:0.75 96:0.572548 97:0.950631 98:0.680253 99:0.620168 100:0.150261 101:0.146447 102:0.5 103:0.146447 104:0.6875 105:0.444444 106:0.409091 107:0.0361131 108:0 109:0.0451414 110:0.837981 111:1.02225 112:0.502843 113:0.692269 114:0.442386 115:0.3176 116:0.589445 117:0.617268 118:0.56701 119:0.244715 120:0.360989 121:0.0654762 122:0.0357143 123:0.527744 124:1 125:0.120811 126:1 127:0.933157 128:0.0103335 129:0.0496201 130:0.00688902 131:0.867648 132:0.00688902 133:0.118574 134:0.00688902 135:0.835804 136:0.0170917 137:0.118886 138:0.028218 139:0.00349317 140:0.0393242 141:0.0855839 142:0.0810187 143:0.857143 144:0.00274725 145:0.0192308 146:0.021978 147:0.0714286 148:0.188573 149:0.198107 150:0 151:0.0525633 152:0.0378971 153:0.0714286 154:0.158207 155:0.221796 156:0 157:0.0566239 158:0.0862333 159:0.150726 160:0.182287 161:0.0856056 162:0.0763183 163:0.259108 164:0.103098 165:0.102745 166:0.0306279 167:0.0903242 168:0.244661 169:0.047571 170:0.201883 171:0.107008 172:0.0184201 173:0.15676 174:0.222701 175:0.0578689 176:0.00601767 177:0 178:0 179:0.075 180:0.4 181:0.525 182:0.875 183:0.75 184:0.725 185:0.620769 186:0.946516 187:0.695351 188:0.611629 189:0.143292 190:0.5 191:0.5 192:0 193:0.725 194:0.426471 195:0.416667 196:0.0719802 197:0 198:0.487866 199:0.866302 200:0.956133 201:0.54042 202:0.781465 203:0.391892 204:0.264677 205:0.521701 206:0.604762 207:0.656655 208:0.201616 209:0.369048 210:0.0727164 211:0.0634921 212:0.502993 213:1 214:0.312504 215:1 216:0.962871 217:0.013778 218:0.0233506 219:0 220:0.780623 221:0 222:0.206392 223:0.0129854 224:0.858638 225:0.0239808 226:0.0838601 227:0.0335216 228:0.00455837 229:0.0846343 230:0.182429 231:0.0863345 232:0.772048 233:0.0342417 234:0.0364831 235:0.0562084 236:0.0714286 237:0.133905 238:0.139603 239:0 240:0.162695 241:0.15537 242:0.0714286 243:0.100439 244:0.16513 245:0 246:0.0905642 247:0.052293 248:0.0476755 249:0.191807 250:0.146118 251:0.0265584 252:0.190449 253:0.254535 254:0.0282859 255:0.018771 256:0.025846 257:0.183085 258:0.143876 259:0.155294 260:0.129917 261:0.159479 262:0.155445 263:0.165997 264:0.0342766 265:0.00294586 266:0 267:0 268:0.175 269:0.475 270:0.4 271:0.875 272:0.775 273:0.55 274:0.594888 275:0.95091 276:0.693247 277:0.596623 278:0.44794 279:0.5 280:0.5 281:0.5 282:0.625 283:0.40625 284:0.35 285:0 286:0 287:0 288:0.896055 289:1.26791 290:0.244979 291:0.216605 292:1.18303 293:0.268038 294:0.585938 295:0.589844 296:0.589844 297:0.0686813 298:0.0604396 299:0.0119048 300:1.78543e-34 301:0.0844156 302:1 303:0 304:0 305:0.964448 306:0.00344451 307:0.0321071 308:0 309:0.955692 310:0 311:0.0408636 312:0.00344451 313:0.972679 314:0.00344451 315:0.0204318 316:0.00344451 317:0 318:0.00275899 319:0.0126256 320:0.00560998 321:0.994505 322:0 323:0.00549451 324:0 325:0.0714286 326:0.0904919 327:0.153646 328:0 329:0.158003 330:0.220197 331:0.0714286 332:0.0718718 333:0.162933 334:0.142857 335:0 336:0 337:0.131897 338:0.116936 339:0.085638 340:0.0066308 341:0.364326 342:0.151715 343:0.142857 344:0.016611 345:0.118212 346:0.142017 347:0.233874 348:0.102771 349:0.0201377 350:0.125341 351:0.0981782 352:0.146304 353:0.0238517 354:0.000359879 355:0 356:0 
0 7.39813026119382e-12 0 0 0 1.15131485995952e-11 1:0.125 2:0.425 3:0.475 4:0.875 5:0.725 6:0.725 7:0.574015 8:0.943484 9:0.677394 10:0.647828 11:0.088 12:0.211325 13:0.211325 14:0.788675 15:0.6875 16:0.444444 17:0.4375 18:0.046832 19:-0.00520355 20:0.286195 21:0.837981 22:0.982794 23:0.54042 24:1 25:0.260178 26:0.276075 27:0.55523 28:0.593006 29:0.622463 30:0.143965 31:0.209384 32:0.0361826 33:0.0295815 34:0.341484 35:1 36:0.127349 37:1 38:0.949959 39:0.00715609 40:0.0400222 41:0.00286244 42:0.883499 43:0.00286244 44:0.103949 45:0.00968916 46:0.910506 47:0.00996418 48:0.0627387 49:0.0167909 50:0.00181775 51:0.0375046 52:0.0894996 53:0.052883 54:0.865573 55:0.0151932 56:0.0171007 57:0.0298948 58:0.0714286 59:0.153641 60:0.142956 61:0 62:0.155371 63:0.108043 64:0.0714286 65:0.135557 66:0.161575 67:0 68:0.0853447 69:0.0575124 70:0.0606746 71:0.192887 72:0.178102 73:0.0372881 74:0.164532 75:0.223658 76:0.0456024 77:0.0114705 78:0.0404502 79:0.193118 80:0.0948147 81:0.157269 82:0.130964 83:0.158666 84:0.167646 85:0.184886 86:0.0424123 87:0.00430364 88:0 89:0 90:0.125 91:0.425 92:0.5 93:0.875 94:0.725 95:0.75 96:0.581774 97:0.943484 98:0.677394 99:0.647828 100:0.151084 101:0.211325 102:0.211325 103:0.788675 104:0.6875 105:0.444444 106:0.431818 107:0.0714703 108:0 109:0.134007 110:0.837981 111:1.02225 112:0.502843 113:0.699591 114:0.437756 115:0.314402 116:0.568699 117:0.613636 118:0.590909 119:0.236473 120:0.366484 121:0.0625 122:0.0416667 123:0.519653 124:1 125:0.111993 126:1 127:0.936602 128:0.00688902 129:0.0496201 130:0.00688902 131:0.86181 132:0.00688902 133:0.124412 134:0.00688902 135:0.839249 136:0.0170917 137:0.118886 138:0.0247735 139:0.00217394 140:0.0457476 141:0.0870974 142:0.0929007 143:0.854396 144:0.00549451 145:0.0137363 146:0.021978 147:0.0714286 148:0.187301 149:0.190806 150:0 151:0.0612885 152:0.0447772 153:0.0714286 154:0.156738 155:0.216232 156:0 157:0.0582729 158:0.0845842 159:0.140171 160:0.191428 161:0.0885096 162:0.0721362 163:0.256568 164:0.108329 165:0.0965905 166:0.0258365 167:0.0873598 168:0.23819 169:0.0624752 170:0.200318 171:0.111355 172:0.022589 173:0.155286 174:0.219238 175:0.0563452 176:0.00583175 177:0 178:0 179:0.075 180:0.4 181:0.475 182:0.875 183:0.75 184:0.725 185:0.629411 186:0.940386 187:0.692669 188:0.63762 189:0.153365 190:0.853553 191:0.853553 192:0.5 193:0.725 194:0.426471 195:0.4375 196:0.0675399 197:0 198:0.481222 199:0.866302 200:0.956133 201:0.54042 202:0.740303 203:0.413682 204:0.258849 205:0.5207 206:0.602041 207:0.666569 208:0.176891 209:0.319597 210:0.0697402 211:0.0575397 212:0.502676 213:1 214:0.252099 215:1 216:0.957034 217:0.013778 218:0.0291883 219:0 220:0.794691 221:0 222:0.188879 223:0.0164299 224:0.867394 225:0.0239808 226:0.0751036 227:0.0335216 228:0.00238443 229:0.0655639 230:0.162916 231:0.0867423 232:0.79952 233:0.0332775 234:0.0209638 235:0.0507139 236:0.0714286 237:0.127302 238:0.136257 239:0 240:0.172435 241:0.164867 242:0.0714286 243:0.0966255 244:0.159656 245:0 246:0.0925733 247:0.0502838 248:0.0386156 249:0.187478 250:0.158578 251:0.014525 252:0.17972 253:0.278227 254:0.016975 255:0.0180843 256:0.0169174 257:0.178673 258:0.146913 259:0.145757 260:0.136274 261:0.176764 262:0.163642 263:0.16037 264:0.031688 265:0.00240074 266:0 267:0 268:0.175 269:0.475 270:0.4 271:0.875 272:0.775 273:0.55 274:0.594888 275:0.95091 276:0.693247 277:0.596623 278:0.724947 279:0.5 280:0.5 281:0.5 282:0.625 283:0.40625 284:0.45 285:0 286:0 287:0 288:0.896055 289:1.26791 290:0.244979 291:0.133839 292:1.91462 293:0.270285 294:0.65 295:0.55 296:0.56875 297:0.043956 298:0.021978 299:0 300:0 301:0.038961 302:1 303:0 304:0 305:0.970812 306:0 307:0.0291883 308:0 309:0.979043 310:0 311:0.017513 312:0.00344451 313:0.988325 314:0 315:0.0116753 316:0 317:0 318:0.000435566 319:0.00469264 320:0.00256453 321:1 322:0 323:0 324:0 325:0.0714286 326:0.0897726 327:0.154925 328:0 329:0.152114 330:0.220432 331:0.0714286 332:0.0742188 333:0.16568 334:0.142857 335:0 336:0 337:0.131013 338:0.109804 339:0.0899155 340:0 341:0.373896 342:0.152514 343:0.142857 344:0.00891063 345:0.119346 346:0.145018 347:0.230341 348:0.104445 349:0.0174268 350:0.13114 351:0.100515 352:0.148004 353:0.0243425 354:0.000365773 355:0 356:0 
