svm_type c_svc
kernel_type polynomial
degree 3
gamma 100
coef0 0
nr_class 5
total_sv 175
rho -1.09974 -0.836312 -0.249635 0.0740974 0.605472 0.336838 0.824601 0.0582832 0.898801 0.436977
label 4 1 2 5 3
probA -4.47129 -4.43554 -4.13857 -4.49913 -4.3631 -4.00596 -4.28583 -3.97497 -4.18553 -4.35552
probB -0.169764 -0.23544 -0.234207 0.068184 -0.0571373 -0.208884 0.107527 -0.194397 0.0925961 0.285951
nr_sv 53 33 35 15 39
SV
0 6.239197344738671e-13 2.110099815523692e-12 0 1:0.145833 2:0.5 3:0.4375 4:0.9375 5:0.708333 6:0.604167 7:0.717443 8:0.973817 9:0.624689 10:0.599751 11:0.141784 12:0 13:0.5 14:0.5 15:0.65625 16:0.480769 17:0.333333 18:0 19:0.155574 20:0 21:1.07437 22:1.13839 23:0.244979 24:0.73652 25:0.304076 26:0.309009 27:0.548969 28:0.546392 29:0.596882 30:0.218585 31:0.36355 32:0.0803875 33:0.112173 34:0.436874 35:1 36:0.0709975 37:0.804087 38:0.764468 39:0.0422612 40:0.152266 41:0.041005 42:0.900242 43:0.0497531 44:0.0371588 45:0.0128459 46:0.854404 47:0.0275561 48:0.0904837 49:0.0275561 50:0.00379172 51:0.0594589 52:0.120603 53:0.0876855 54:0.865169 55:0.0368733 56:0.0523071 57:0.0126837 58:0.0714286 59:0.275908 60:0.0687649 61:0 62:0.0983413 63:0.0904958 64:0.0714286 65:0.215631 66:0.108001 67:0.00892857 68:0.116071 69:0.0178571 70:0.127599 71:0.363591 72:0.0987271 73:0.0286507 74:0.168531 75:0.0700438 76:0.0714286 77:0.0277152 78:0.0660348 79:0.234669 80:0.127919 81:0.280361 82:0.111918 83:0.0305787 84:0.0493759 85:0.142949 86:0.0105243 87:0.000208509 88:0 89:0 90:0.145833 91:0.5 92:0.4375 93:0.9375 94:0.541667 95:0.520833 96:0.684566 97:0.996573 98:0.526135 99:0.552271 100:0.320843 101:0 102:0.5 103:0.5 104:0.65625 105:0.557692 106:0.416667 107:0 108:0 109:0 110:1.07437 111:1.13839 112:0.244979 113:0.310561 114:0.721142 115:0.307152 116:0.508929 117:0.407738 118:0.678034 119:0.281543 120:0.582143 121:0.0574858 122:0.11489 123:0.647222 124:1 125:1 126:0 127:0.75443 128:0.0587186 129:0.136806 130:0.0500451 131:0.89116 132:0.0673922 133:0.03477 134:0.00667749 135:0.811691 136:0.0433676 137:0.110247 138:0.0346941 139:0 140:0.0203877 141:0.133116 142:0.11088 143:0.913407 144:0.015164 145:0.0569923 146:0.0144363 147:0.0714286 148:0.290658 149:0.053738 150:0 151:0.0978154 152:0.0895528 153:0.0714286 154:0.215166 155:0.110213 156:0 157:0.107143 158:0.0357143 159:0.118781 160:0.370138 161:0.108932 162:0.0240757 163:0.157501 164:0.0777145 165:0.0714286 166:0.0094597 167:0.0619689 168:0.189898 169:0.125873 170:0.308005 171:0.155498 172:0.0352275 173:0.0426402 174:0.142336 175:0.00883376 176:0.00016037 177:0 178:0 179:0.104167 180:0.5625 181:0.458333 182:0.9375 183:0.604167 184:0.541667 185:0.760096 186:0.996904 187:0.524845 188:0.54969 189:0.994169 190:1 191:0.5 192:0.5 193:0.6875 194:0.525 195:0.3 196:0 197:0 198:0 199:1.17601 200:1.10715 201:0.205395 202:0.10543 203:1.92663 204:0.332647 205:0.527778 206:0.395833 207:0.777778 208:0.0446429 209:0.0535714 210:0 211:0 212:0.196429 213:0.666667 214:1 215:0 216:0.915181 217:0.0173471 218:0.0587986 219:0.00867353 220:0.970601 221:0 222:0.0293993 223:0 224:0.955901 225:0 226:0.044099 227:0 228:0 229:0 230:0.00819589 231:0.00629686 232:1 233:0 234:0 235:0 236:0.0714286 237:0.28271 238:0.0744324 239:0 240:0.0580599 241:0.122156 242:0.0714286 243:0.146062 244:0.173722 245:0 246:0.0882856 247:0.0545715 248:0.0668881 249:0.152816 250:0.246891 251:0.0547726 252:0.165538 253:0.170238 254:0.0599748 255:0.0189194 256:0.0525092 257:0.121277 258:0.0741663 259:0.222231 260:0.24732 261:0.085045 262:0.118557 263:0.14445 264:0.00745901 265:0.000116175 266:0 267:0 268:0.145833 269:0.5 270:0.4375 271:0.9375 272:0.708333 273:0.604167 274:0.717443 275:0.973817 276:0.624689 277:0.599751 278:0.277048 279:0.5 280:0.5 281:0 282:0.65625 283:0.442308 284:0.25 285:0 286:0.621804 287:0 288:1.07437 289:1.13839 290:0.244979 291:0.376927 292:0.594169 293:0.306963 294:0.575 295:0.705556 296:0.49267 297:0.330642 298:0.510108 299:0.20454 300:0.262373 301:0.761536 302:1 303:1 304:0 305:0.697905 306:0.047698 307:0.209863 308:0.0445348 309:0.879692 310:0.0578898 311:0.0367491 312:0.0256695 313:0.836388 314:0.0260206 315:0.102898 316:0.0346941 317:0.0107157 318:0.104818 319:0.135005 320:0.0948113 321:0.821429 322:0.0278067 323:0.061479 324:1.58603e-17 325:0.0714286 326:0.237949 327:0.103439 328:0 329:0.101093 330:0.0984406 331:0.0714286 332:0.194221 333:0.122001 334:0.0204082 335:0.122449 336:0 337:0.138905 338:0.333493 339:0.0705348 340:0.0345639 341:0.207187 342:0.0724582 343:0.0714286 344:0.0475828 345:0.0748661 346:0.280161 347:0.137695 348:0.24429 349:0.0646002 350:0.0186038 351:0.0607717 352:0.142908 353:0.0124442 354:0.000255374 355:0 356:0 
0 0 1.90325907467473e-12 0 1:0.18 2:0.46 3:0.46 4:0.98 5:0.7 6:0.54 7:0.699595 8:0.976731 9:0.643019 10:0.547673 11:0.131303 12:0 13:0.5 14:0.5 15:0.64 16:0.433333 17:0.357143 18:0.0250384 19:0.212827 20:0.00625961 21:1.03038 22:1.13417 23:0.273009 24:0.798772 25:0.294202 26:0.294731 27:0.603448 28:0.584493 29:0.549958 30:0.172289 31:0.287117 32:0.139222 33:0.132206 34:0.522029 35:1 36:0.170058 37:1 38:0.818913 39:0.0312391 40:0.114791 41:0.0350564 42:0.869208 43:0.0310894 44:0.071805 45:0.0278973 46:0.871571 47:0.0204826 48:0.0753468 49:0.0325994 50:0 51:0.0391541 52:0.123476 53:0.099587 54:0.833098 55:0.0381121 56:0.0374242 57:0.0168777 58:0.0714286 59:0.250845 60:0.073531 61:0 62:0.131186 63:0.0621234 64:0.0714286 65:0.242387 66:0.0970698 67:0.00430947 68:0.0962583 69:0.0422893 70:0.120474 71:0.316736 72:0.18237 73:0.0709125 74:0.115244 75:0.0514067 76:0.0972246 77:0.0201847 78:0.0781364 79:0.163091 80:0.11977 81:0.237704 82:0.129216 83:0.0634306 84:0.0912429 85:0.140978 86:0.0139991 87:0.000328962 88:0 89:0 90:0.145833 91:0.5625 92:0.4375 93:0.9375 94:0.604167 95:0.520833 96:0.716969 97:0.996573 98:0.526135 99:0.552271 100:0.398036 101:0 102:0.5 103:0.5 104:0.65625 105:0.525 106:0.333333 107:0 108:0 109:0 110:1.17601 111:1.03038 112:0.244979 113:0.250332 114:0.832228 115:0.325874 116:0.55 117:0.440625 118:0.679405 119:0.122562 120:0.22381 121:0 122:0 123:0.430556 124:1 125:0.0714286 126:0.5 127:0.859192 128:0.0259424 129:0.0824372 130:0.032428 131:0.932074 132:0.0309355 133:0.0369908 134:0 135:0.878649 136:0.0129712 137:0.0824372 138:0.0259424 139:0 140:0.0163153 141:0.0733163 142:0.0606108 143:0.988095 144:0 145:0 146:0.0119048 147:0.0714286 148:0.231572 149:0.121297 150:0 151:0.0510971 152:0.132898 153:0.0656171 154:0.123731 155:0.202359 156:0 157:0.112698 158:0.0277778 159:0.0821786 160:0.231128 161:0.0924659 162:0.0606786 163:0.309343 164:0.0837306 165:0.0714286 166:0.0147151 167:0.0567135 168:0.212476 169:0.113866 170:0.325327 171:0.139296 172:0.0397981 173:0.0263794 174:0.142734 175:0.00769711 176:0.000127263 177:0 178:0 179:0.145833 180:0.5625 181:0.458333 182:0.895833 183:0.6875 184:0.583333 185:0.69848 186:0.986664 187:0.581111 188:0.581111 189:0.366107 190:0.5 191:0.5 192:0.5 193:0.666667 194:0.475 195:0.25 196:0 197:0.435529 198:0 199:1.17601 200:1.10715 201:0.205395 202:0.26309 203:0.772075 204:0.326585 205:0.592105 206:0.672995 207:0.492668 208:0.19355 209:0.271032 210:0.0955285 211:0.139048 212:0.391919 213:1 214:0.0357143 215:0.166667 216:0.829991 217:0.0179643 218:0.116116 219:0.0359286 220:0.931599 221:0.0344361 222:0.0274791 223:0.00648561 224:0.915583 225:0 226:0.0714456 227:0.0129712 228:0 229:0.0291376 230:0.0742974 231:0.0580974 232:0.916667 233:0.00975394 234:0.0319127 235:0.00595238 236:0.0714286 237:0.218758 238:0.13246 239:0 240:0.0600893 241:0.138407 242:0.0714286 243:0.111487 244:0.195942 245:0 246:0.10685 247:0.0360068 248:0.072124 249:0.123298 250:0.181396 251:0.0718499 252:0.195884 253:0.212591 254:0.0654847 255:0.030543 256:0.0523702 257:0.128334 258:0.0926165 259:0.208723 260:0.229022 261:0.0736249 262:0.119281 263:0.140507 264:0.00843994 265:0.000155979 266:0 267:0 268:0.14 269:0.46 270:0.42 271:0.98 272:0.7 273:0.54 274:0.735256 275:0.97629 276:0.636083 277:0.568041 278:0.259997 279:0.5 280:0.5 281:1 282:0.65 283:0.433333 284:0.392857 285:0 286:0.518923 287:0 288:1.03038 289:1.13417 290:0.273009 291:0.423955 292:0.554304 293:0.295407 294:0.656863 295:0.643161 296:0.477823 297:0.172042 298:0.318656 299:0.287072 300:0.222779 301:0.693699 302:1 303:0.141801 304:0.929288 305:0.806862 306:0.0356661 307:0.125664 308:0.0318083 309:0.785135 310:0.0368013 311:0.117948 312:0.060116 313:0.8697 314:0.0359286 315:0.0424866 316:0.0518849 317:0 318:0.00882614 319:0.11514 320:0.129767 321:0.809524 322:0.0439011 323:0.018817 324:0.00871053 325:0.0714286 326:0.150359 327:0.159294 328:0 329:0.138941 330:0.0843907 331:0.0714286 332:0.144685 333:0.179473 334:0.0095766 335:0.0983752 336:0.0349054 337:0.124598 338:0.214865 339:0.0862109 340:0.157583 341:0.200472 342:0.0734137 343:0.157377 344:0.0448549 345:0.0863348 346:0.147867 347:0.13485 348:0.229709 349:0.0692306 350:0.0495449 351:0.0802309 352:0.145876 353:0.0184549 354:0.000487376 355:0 356:0 
0 0 2.133808853675978e-12 0 1:0.173077 2:0.442308 3:0.461538 4:0.980769 5:0.711538 6:0.5 7:0.707467 8:0.973858 9:0.657953 10:0.522565 11:0.152314 12:0.5 13:0.5 14:0.5 15:0.644231 16:0.421875 17:0.392857 18:0 19:0.35744 20:0 21:1.01914 22:1.15839 23:0.262995 24:0.699419 25:0.336818 26:0.288187 27:0.667793 28:0.61302 29:0.479065 30:0.171726 31:0.26812 32:0.0983772 33:0.121632 34:0.526974 35:1 36:0.270493 37:1 38:0.867977 39:0.0185611 40:0.0940406 41:0.0194212 42:0.865574 43:0.0194212 44:0.0936915 45:0.0213128 46:0.922254 47:0.017199 48:0.0458047 49:0.014742 50:0.000661328 51:0.0339345 52:0.0974357 53:0.0640379 54:0.781885 55:0.0393594 56:0.0228854 57:0.0431887 58:0.0986968 59:0.2051 60:0.0748892 61:0.00496276 62:0.171357 63:0.04347 64:0.0714286 65:0.238273 66:0.0918227 67:0.0412963 68:0.0935956 69:0.0392952 70:0.151092 71:0.322243 72:0.140506 73:0.104142 74:0.0824162 75:0.0254141 76:0.119891 77:0.0338439 78:0.144085 79:0.175508 80:0.128212 81:0.199384 82:0.0812633 83:0.057098 84:0.0607146 85:0.136677 86:0.0146537 87:0.00038591 88:0 89:0 90:0.14 91:0.56 92:0.44 93:0.9 94:0.6 95:0.48 96:0.690655 97:0.998621 98:0.526243 99:0.526243 100:0.619957 101:0.5 102:0.5 103:0.5 104:0.67 105:0.525 106:0.375 107:0 108:0 109:0 110:1.19029 111:1.03038 112:0.235545 113:0.15366 114:1.33411 115:0.3222 116:0.633621 117:0.547414 118:0.573276 119:0.106039 120:0.156463 121:0 122:0 123:0.157143 124:1 125:0 126:0 127:0.960079 128:0.00575922 129:0.034162 130:0 131:0.940558 132:0 133:0.0536831 134:0.00575922 135:0.945438 136:0 137:0.0488028 138:0.00575922 139:0 140:0 141:0.0037152 142:0.0159505 143:1 144:0 145:0 146:0 147:0.0714286 148:0.278188 149:0.0843967 150:0 151:0.0460968 152:0.115686 153:0.0714286 154:0.15013 155:0.182646 156:0.0714286 157:0.0714286 158:0 159:0.0799501 160:0.315275 161:0.0663926 162:0.062907 163:0.253637 164:0.0789808 165:0.0714286 166:0 167:0.142857 168:0.284393 169:0.115699 170:0.247273 171:0.0748217 172:0.0383569 173:0.0251704 174:0.136341 175:0.00728057 176:0.000119307 177:0 178:0 179:0.18 180:0.46 181:0.46 182:0.94 183:0.7 184:0.58 185:0.672022 186:0.971477 187:0.648888 188:0.574444 189:0.204754 190:0.5 191:0.5 192:0 193:0.65 194:0.433333 195:0.321429 196:0 197:0.538574 198:0 199:1.03038 200:1.13417 201:0.273009 202:0.49204 203:0.477603 204:0.289055 205:0.638258 206:0.655987 207:0.4932 208:0.260439 209:0.407842 210:0.173315 211:0.238837 212:0.79069 213:1 214:0.527359 215:0.852416 216:0.744221 217:0.0435072 218:0.166748 219:0.0455234 220:0.827314 221:0.0397642 222:0.0829648 223:0.0499572 224:0.870082 225:0.0287961 226:0.0780845 227:0.0230369 228:0.0018546 229:0.0609681 230:0.169198 231:0.0816108 232:0.684426 233:0.0676601 234:0.0543297 235:0.0698204 236:0.0714286 237:0.264617 238:0.0713453 239:0 240:0.133063 241:0.060422 242:0.0714286 243:0.2419 244:0.0857957 245:0.0438145 246:0.0779725 247:0.0210702 248:0.142412 249:0.353898 250:0.142611 251:0.00855092 252:0.146447 253:0.0632239 254:0.0636142 255:0.0117574 256:0.119689 257:0.247135 258:0.132323 259:0.202166 260:0.0960045 261:0.0525099 262:0.074801 263:0.136326 264:0.0127341 265:0.000269702 266:0 267:0 268:0.173077 269:0.442308 270:0.442308 271:0.980769 272:0.711538 273:0.519231 274:0.714374 275:0.972417 276:0.657472 277:0.544992 278:0.331818 279:0.5 280:0.5 281:1 282:0.644231 283:0.421875 284:0.333333 285:0 286:0.447875 287:0 288:1.01914 289:1.21203 290:0.226799 291:0.322033 292:0.716601 293:0.289816 294:0.736979 295:0.610316 296:0.410988 297:0.168143 298:0.280489 299:0.121816 300:0.126058 301:0.534033 302:0.5 303:0.213564 304:0.695913 305:0.864147 306:0.0183699 307:0.0970971 308:0.0203861 309:0.829361 310:0.0101931 311:0.122007 312:0.0384388 313:0.935284 314:0.0230369 315:0.0244014 316:0.0172777 317:0 318:0.0373105 319:0.0826856 320:0.088674 321:0.874539 322:0.013216 323:0 324:0.0348561 325:0.0714286 326:0.139748 327:0.164756 328:0 329:0.157893 330:0.0751819 331:0.0714286 332:0.139108 333:0.180455 334:0 335:0.107143 336:0.0357143 337:0.125114 338:0.248077 339:0.041877 340:0.182029 341:0.208153 342:0.0518936 343:0.148381 344:0.0494216 345:0.109341 346:0.162194 347:0.166498 348:0.227794 349:0.063153 350:0.0141975 351:0.0590216 352:0.140321 353:0.0179194 354:0.00042446 355:0 356:0 
0 0 0 1.343505531965572e-12 1:0.214286 2:0.452381 3:0.404762 4:0.928571 5:0.785714 6:0.5 7:0.623547 8:0.94982 9:0.709916 10:0.559976 11:0.121193 12:0.5 13:0.5 14:0.5 15:0.607143 16:0.416667 17:0.428571 18:0.0363435 19:0.414316 20:-0.0218061 21:0.950547 22:1.13417 23:0.321751 24:0.818906 25:0.312554 26:0.251507 27:0.628409 28:0.652533 29:0.514362 30:0.138561 31:0.227495 32:0.0569695 33:0.0845702 34:0.380056 35:1 36:0.198376 37:1 38:0.876527 39:0.0109524 40:0.0939558 41:0.0185648 42:0.897187 43:0.0160274 44:0.0490173 45:0.0377683 46:0.932981 47:0.0123765 48:0.0402029 49:0.0144393 50:0.000941205 51:0.0263543 52:0.0805796 53:0.0865059 54:0.821787 55:0.0471262 56:0.0205968 57:0.0231369 58:0.0714286 59:0.203251 60:0.0509644 61:0 62:0.212635 63:0.119044 64:0.0714286 65:0.200467 66:0.0707813 67:0.0580147 68:0.0848425 69:0 70:0.138502 71:0.321622 72:0.151257 73:0.0737324 74:0.131783 75:0.040246 76:0.108835 77:0.0588304 78:0.102105 79:0.17425 80:0.176857 81:0.190379 82:0.0474063 83:0.0883682 84:0.0529688 85:0.120371 86:0.0140127 87:0.000407183 88:0 89:0 90:0.214286 91:0.595238 92:0.380952 93:0.880952 94:0.642857 95:0.47619 96:0.600179 97:0.993742 98:0.535267 99:0.570535 100:0.63252 101:0.5 102:0.5 103:0.5 104:0.619048 105:0.527778 106:0.416667 107:0 108:0 109:0 110:1.1659 111:0.982794 112:0.2783 113:0.133418 114:1.60612 115:0.280015 116:0.654762 117:0.511905 118:0.565476 119:0.0357143 120:0.0714286 121:0.00892857 122:0.0178571 123:0.0816327 124:1 125:0 126:0 127:0.97209 128:0 129:0.0279101 130:0 131:0.95941 132:0.00470525 133:0.0358844 134:0 135:0.980064 136:0 137:0.0199358 138:0 139:0 140:0 141:0.00868066 142:0.0118954 143:0.992063 144:0.00793651 145:0 146:0 147:0.0714286 148:0.171362 149:0.116046 150:0 151:0.0853697 152:0.207528 153:0.0714286 154:0.0891986 155:0.187639 156:0.125 157:0.0178571 158:0 159:0.0608306 160:0.289124 161:0.00886484 162:0.0820265 163:0.367327 164:0.0489698 165:0.101869 166:0.0494683 167:0.116519 168:0.248954 169:0.17927 170:0.248334 171:0.0193422 172:0.0260036 173:0.0102388 174:0.109825 175:0.00623222 176:0.000116698 177:0 178:0 179:0.214286 180:0.5 181:0.404762 182:0.833333 183:0.738095 184:0.547619 185:0.555016 186:0.956211 187:0.675466 188:0.605279 189:0.175592 190:0.5 191:0.5 192:0.5 193:0.630952 194:0.442308 195:0.392857 196:0.0369724 197:0.542262 198:0 199:1.01649 200:1.07685 201:0.321751 202:0.482986 203:0.505289 204:0.247961 205:0.581967 206:0.691043 207:0.505407 208:0.196855 209:0.346984 210:0.0652429 211:0.0991355 212:0.557837 213:0.75 214:0.198295 215:1 216:0.812211 217:0.0155725 218:0.134574 219:0.037642 220:0.890967 221:0.0365591 222:0.0427851 223:0.0296883 224:0.901114 225:0.018821 226:0.0518331 227:0.0282315 228:0.000911209 229:0.0287647 230:0.111065 231:0.130616 232:0.803327 233:0.0664946 234:0.0508129 235:0.015873 236:0.0714286 237:0.211765 238:0.0536561 239:0 240:0.173475 241:0.141324 242:0.0714286 243:0.189913 244:0.0870095 245:0.0621853 246:0.0806718 247:0 248:0.130597 249:0.305538 250:0.141148 251:0.0122601 252:0.154386 253:0.113214 254:0.0818109 255:0.0215304 256:0.100968 257:0.194581 258:0.178211 259:0.168775 260:0.0606926 261:0.120274 262:0.073157 263:0.106755 264:0.00875257 265:0.000177361 266:0 267:0 268:0.184211 269:0.421053 270:0.394737 271:0.973684 272:0.789474 273:0.5 274:0.677308 275:0.94982 276:0.709916 277:0.559976 278:0.191769 279:0.5 280:0.5 281:0.5 282:0.618421 283:0.410714 284:0.357143 285:0.0230031 286:0.494567 287:0 288:0.93577 289:1.10715 290:0.35299 291:0.572005 292:0.460062 293:0.26698 294:0.668651 295:0.671089 296:0.489362 297:0.211153 298:0.339577 299:0.125764 300:0.182752 301:0.500697 302:1 303:0.340031 304:1 305:0.820904 306:0.0202778 307:0.130587 308:0.0282315 309:0.836133 310:0.0177382 311:0.0599776 312:0.0861512 313:0.904384 314:0.0235262 315:0.0438588 316:0.0282315 317:0.00226837 318:0.0539745 319:0.111802 320:0.0918428 321:0.760996 322:0.0494421 323:0.0421193 324:0.0283949 325:0.0714286 326:0.133508 327:0.122696 328:0 329:0.186037 330:0.159665 331:0.0714286 332:0.117914 333:0.137323 334:0.0409268 335:0.10193 336:0 337:0.133461 338:0.20496 339:0.0976457 340:0.159059 341:0.223523 342:0.038494 343:0.152631 344:0.0733092 345:0.109375 346:0.144329 347:0.192458 348:0.181977 349:0.0302399 350:0.0649238 351:0.0507575 352:0.146657 353:0.0227992 354:0.000806323 355:0 356:0 
5.871067522042821e-12 0 0 0 1:0.214286 2:0.452381 3:0.404762 4:0.928571 5:0.785714 6:0.5 7:0.623547 8:0.94982 9:0.709916 10:0.559976 11:0.120319 12:0.5 13:0.5 14:0.5 15:0.607143 16:0.416667 17:0.428571 18:0.0360812 19:0.411326 20:-0.0216487 21:0.950547 22:1.13417 23:0.321751 24:0.824859 25:0.310298 26:0.252329 27:0.629505 28:0.651159 29:0.514233 30:0.132788 31:0.218016 32:0.0544926 33:0.0808932 34:0.369274 35:1 36:0.1956 37:1 38:0.881289 39:0.01053 40:0.0903322 41:0.0178488 42:0.901152 43:0.0154092 44:0.0471268 45:0.0363117 46:0.933885 47:0.0118992 48:0.0403329 49:0.0138824 50:0.000903449 51:0.0252971 52:0.0750952 53:0.0820795 54:0.826236 55:0.0451626 56:0.0197386 57:0.0251491 58:0.0714286 59:0.198271 60:0.0530231 61:0 62:0.210052 63:0.124997 64:0.0714286 65:0.195335 66:0.0754646 67:0.0574621 68:0.0853951 69:0 70:0.137931 71:0.313779 72:0.146556 73:0.0812666 74:0.138256 75:0.0393531 76:0.110681 77:0.0635503 78:0.102019 79:0.171103 80:0.177551 81:0.191895 82:0.0456505 83:0.086256 84:0.0512945 85:0.121238 86:0.0144406 87:0.000421891 88:0 89:0 90:0.214286 91:0.595238 92:0.380952 93:0.880952 94:0.642857 95:0.47619 96:0.600179 97:0.993742 98:0.535267 99:0.570535 100:0.63252 101:0.5 102:0.5 103:0.5 104:0.619048 105:0.527778 106:0.416667 107:0 108:0 109:0 110:1.1659 111:0.982794 112:0.2783 113:0.133418 114:1.60612 115:0.280015 116:0.654762 117:0.511905 118:0.565476 119:0.0357143 120:0.0714286 121:0.00892857 122:0.0178571 123:0.0816327 124:1 125:0 126:0 127:0.97209 128:0 129:0.0279101 130:0 131:0.95941 132:0.00470525 133:0.0358844 134:0 135:0.980064 136:0 137:0.0199358 138:0 139:0 140:0 141:0.00868066 142:0.0118954 143:0.992063 144:0.00793651 145:0 146:0 147:0.0714286 148:0.171362 149:0.116046 150:0 151:0.0853697 152:0.207528 153:0.0714286 154:0.0891986 155:0.187639 156:0.125 157:0.0178571 158:0 159:0.0608306 160:0.289124 161:0.00886484 162:0.0820265 163:0.367327 164:0.0489698 165:0.101869 166:0.0494683 167:0.116519 168:0.248954 169:0.17927 170:0.248334 171:0.0193422 172:0.0260036 173:0.0102388 174:0.109825 175:0.00623222 176:0.000116698 177:0 178:0 179:0.214286 180:0.5 181:0.404762 182:0.833333 183:0.738095 184:0.547619 185:0.555016 186:0.956211 187:0.675466 188:0.605279 189:0.175592 190:0.5 191:0.5 192:0.5 193:0.630952 194:0.442308 195:0.392857 196:0.0369724 197:0.542262 198:0 199:1.01649 200:1.07685 201:0.321751 202:0.482986 203:0.505289 204:0.247961 205:0.581967 206:0.691043 207:0.505407 208:0.196855 209:0.346984 210:0.0652429 211:0.0991355 212:0.557837 213:0.75 214:0.198295 215:1 216:0.812211 217:0.0155725 218:0.134574 219:0.037642 220:0.890967 221:0.0365591 222:0.0427851 223:0.0296883 224:0.901114 225:0.018821 226:0.0518331 227:0.0282315 228:0.000911209 229:0.0287647 230:0.111065 231:0.130616 232:0.803327 233:0.0664946 234:0.0508129 235:0.015873 236:0.0714286 237:0.211765 238:0.0536561 239:0 240:0.173475 241:0.141324 242:0.0714286 243:0.189913 244:0.0870095 245:0.0621853 246:0.0806718 247:0 248:0.130597 249:0.305538 250:0.141148 251:0.0122601 252:0.154386 253:0.113214 254:0.0818109 255:0.0215304 256:0.100968 257:0.194581 258:0.178211 259:0.168775 260:0.0606926 261:0.120274 262:0.073157 263:0.106755 264:0.00875257 265:0.000177361 266:0 267:0 268:0.184211 269:0.421053 270:0.394737 271:0.973684 272:0.789474 273:0.5 274:0.677308 275:0.94982 276:0.709916 277:0.559976 278:0.219103 279:0.5 280:1 281:0.5 282:0.618421 283:0.410714 284:0.428571 285:0 286:0.512495 287:0 288:0.93577 289:1.10715 290:0.35299 291:0.500647 292:0.525636 293:0.268839 294:0.694196 295:0.672386 296:0.460333 297:0.160497 298:0.240106 299:0.0824946 300:0.115575 301:0.430632 302:1 303:0.261179 304:1 305:0.842994 306:0.0202778 307:0.122613 308:0.0141157 309:0.864759 310:0 311:0.0490897 312:0.0861512 313:0.923205 314:0.018821 315:0.0438588 316:0.0141157 317:0.00226837 318:0.0402682 319:0.0753466 320:0.0701546 321:0.824488 322:0.036623 323:0.0303403 324:0.0450565 325:0.0714286 326:0.113911 327:0.134583 328:0 329:0.178362 330:0.176825 331:0.0714286 332:0.0992734 333:0.154189 334:0.0407122 335:0.102145 336:0 337:0.131897 338:0.177694 339:0.0797885 340:0.181936 341:0.247333 342:0.038494 343:0.164818 344:0.0816505 345:0.110528 346:0.135804 347:0.193366 348:0.187829 349:0.0211907 350:0.0599599 351:0.0448548 352:0.148456 353:0.0235538 354:0.000792592 355:0 356:0 
0 2.684898678914258e-12 0 0 1:0.214286 2:0.452381 3:0.404762 4:0.928571 5:0.785714 6:0.452381 7:0.620174 8:0.952267 9:0.711058 10:0.530151 11:0.11881 12:0.5 13:0.5 14:0.5 15:0.607143 16:0.416667 17:0.464286 18:0.0358227 19:0.408379 20:-0.0286582 21:0.950547 22:1.13417 23:0.321751 24:0.830811 25:0.308075 26:0.253068 27:0.632813 28:0.649809 29:0.511874 30:0.127477 31:0.209295 32:0.052222 33:0.0775227 34:0.35943 35:1 36:0.186286 37:1 38:0.885697 39:0.010139 40:0.0869777 41:0.017186 42:0.903205 43:0.014837 44:0.0469949 45:0.0349632 46:0.936341 47:0.0114573 48:0.0388352 49:0.0133669 50:0.000868605 51:0.0243215 52:0.0721989 53:0.0789139 54:0.833187 55:0.0433561 56:0.018949 57:0.0241431 58:0.0714286 59:0.193648 60:0.0549347 61:0 62:0.207653 63:0.130864 64:0.0714286 65:0.19057 66:0.0794736 67:0.056949 68:0.0859082 69:0 70:0.137401 71:0.306497 72:0.142192 73:0.0915122 74:0.141017 75:0.038524 76:0.112395 77:0.067933 78:0.105098 79:0.168181 80:0.178474 81:0.189864 82:0.0440201 83:0.0842946 84:0.0497397 85:0.12199 86:0.0148216 87:0.00043548 88:0 89:0 90:0.214286 91:0.595238 92:0.380952 93:0.880952 94:0.642857 95:0.47619 96:0.600179 97:0.993742 98:0.535267 99:0.570535 100:0.445433 101:0.5 102:0.5 103:0.5 104:0.619048 105:0.527778 106:0.416667 107:0 108:0 109:0 110:1.1659 111:0.982794 112:0.2783 113:0.189455 114:1.13106 115:0.279223 116:0.6 117:0.5875 118:0.545833 119:0.0571429 120:0.1 121:0.00793651 122:0.015873 123:0.0982143 124:1 125:0 126:0 127:0.948201 128:0 129:0.0474878 130:0.00431079 131:0.962813 132:0.00431079 133:0.0328762 134:0 135:0.970777 136:0 137:0.0292233 138:0 139:0 140:0 141:0.0102356 142:0.0147414 143:0.992857 144:0.00714286 145:0 146:0 147:0.0714286 148:0.16328 149:0.123463 150:0 151:0.0834207 152:0.209577 153:0.068793 154:0.0872018 155:0.192836 156:0.124542 157:0.0164835 158:0 159:0.0626621 160:0.271764 161:0.00818293 162:0.0820265 163:0.389136 164:0.0452029 165:0.103243 166:0.0494683 167:0.116519 168:0.250212 169:0.181964 170:0.247285 171:0.0178543 172:0.0240033 173:0.00945118 174:0.109423 175:0.00613513 176:0.000112998 177:0 178:0 179:0.225 180:0.425 181:0.4 182:0.925 183:0.725 184:0.55 185:0.611264 186:0.95091 187:0.693247 188:0.596623 189:0.155863 190:0.5 191:0.5 192:0.5 193:0.625 194:0.428571 195:0.392857 196:0.03012 197:0.56224 198:0 199:0.96007 200:1.10715 201:0.336675 202:0.62251 203:0.41164 204:0.252664 205:0.653716 206:0.684508 207:0.479119 208:0.210776 209:0.378 210:0.115449 211:0.159108 212:0.602292 213:0.75 214:0.321021 215:1 216:0.786456 217:0.0228886 218:0.156169 219:0.0344864 220:0.849213 221:0.0334943 222:0.0512966 223:0.0659966 224:0.905093 225:0.0172432 226:0.0474878 227:0.0301756 228:0.00159999 229:0.0538579 230:0.132929 231:0.145092 232:0.726642 233:0.0611439 234:0.0400754 235:0.0283692 236:0.0889165 237:0.184095 238:0.0371454 239:0.00294915 240:0.243983 241:0.074255 242:0.0714286 243:0.23766 244:0.0595677 245:0.0540311 246:0.101974 247:0.00634463 248:0.146719 249:0.356751 250:0.166298 251:0.0226421 252:0.109708 253:0.0355329 254:0.0870727 255:0.0301796 256:0.107438 257:0.184284 258:0.189393 259:0.193671 260:0.0457185 261:0.0893497 262:0.0728935 263:0.123057 264:0.0135806 265:0.000361503 266:0 267:0 268:0.184211 269:0.421053 270:0.421053 271:0.973684 272:0.789474 273:0.473684 274:0.680987 275:0.952267 276:0.711058 277:0.530151 278:0.260266 279:0.5 280:1 281:0.5 282:0.644737 283:0.410714 284:0.458333 285:0 286:0.43945 287:0 288:0.93577 289:1.1659 290:0.305879 291:0.419184 292:0.612091 293:0.27369 294:0.723958 295:0.658384 296:0.453721 297:0.133437 298:0.186772 299:0.0401786 300:0.0446429 301:0.380405 302:1 303:0.166374 304:1 305:0.880645 306:0.0166553 307:0.0932888 308:0.00941049 309:0.870182 310:0 311:0.0530769 312:0.0767407 313:0.935884 314:0.0141157 315:0.0358844 316:0.0141157 317:0.00226837 318:0.0251232 319:0.0510984 320:0.0606693 321:0.891948 322:0.0326547 323:0.0311289 324:0.0204584 325:0.0714286 326:0.0961934 327:0.14647 328:0 329:0.169101 330:0.191989 331:0.0714286 332:0.0877029 333:0.165687 334:0 335:0.142857 336:0 337:0.0994898 338:0.152607 339:0.0975308 340:0.17432 341:0.281373 342:0.051823 343:0.134242 344:0.0744048 345:0.0651629 346:0.165808 347:0.175061 348:0.234805 349:0.01917 350:0.0829642 351:0.0483821 352:0.150061 353:0.0240305 354:0.000710741 355:0 356:0 
0 6.022253729029146e-12 0 1.144071965523745e-12 1:0.214286 2:0.452381 3:0.404762 4:0.928571 5:0.785714 6:0.452381 7:0.620174 8:0.952267 9:0.711058 10:0.530151 11:0.122316 12:0.5 13:0.5 14:0.5 15:0.607143 16:0.416667 17:0.464286 18:0.0368796 19:0.427803 20:-0.0368796 21:0.950547 22:1.13417 23:0.321751 24:0.807002 25:0.317165 26:0.254608 27:0.640046 28:0.657672 29:0.498424 30:0.121762 31:0.197867 32:0.0492458 33:0.0715703 34:0.347007 35:1 36:0.193088 37:1 38:0.890552 39:0.010139 40:0.0821233 41:0.017186 42:0.906441 43:0.014837 44:0.0437586 45:0.0349632 46:0.934722 47:0.0114573 48:0.0404533 49:0.0133669 50:0.000868605 51:0.0243215 52:0.0760636 53:0.0813298 54:0.833187 55:0.040499 56:0.018949 57:0.0270003 58:0.0714286 59:0.177741 60:0.0625452 61:0 62:0.201228 63:0.14812 64:0.0714286 65:0.175462 66:0.0920476 67:0.056949 68:0.0859082 69:0 70:0.135988 71:0.280361 72:0.130573 73:0.114559 74:0.157137 75:0.038524 76:0.119127 77:0.079603 78:0.108258 79:0.157172 80:0.181565 81:0.187856 82:0.0392843 83:0.0804126 84:0.0467227 85:0.123941 86:0.015821 87:0.000473105 88:0 89:0 90:0.214286 91:0.595238 92:0.380952 93:0.880952 94:0.690476 95:0.47619 96:0.604642 97:0.990098 98:0.570014 99:0.570014 100:0.437362 101:0.5 102:0.5 103:0.5 104:0.619048 105:0.5 106:0.416667 107:0 108:0 109:0 110:1.1659 111:0.982794 112:0.2783 113:0.194386 114:1.10237 115:0.277455 116:0.629167 117:0.616667 118:0.495833 119:0.0571429 120:0.1 121:0 122:0 123:0.191964 124:1 125:0.0238095 126:0.5 127:0.947544 128:0.00431079 129:0.0438349 130:0.00431079 131:0.962813 132:0.00431079 133:0.0328762 134:0 135:0.962813 136:0.00431079 137:0.0328762 138:0 139:0 140:0.00063991 141:0.0177531 142:0.0245353 143:0.992857 144:0 145:0 146:0.00714286 147:0.0714286 148:0.1498 149:0.134593 150:0 151:0.0811908 152:0.213592 153:0.0661575 154:0.0822681 155:0.20097 156:0.117216 157:0.021978 158:0 159:0.0644936 160:0.238038 161:0.00680931 162:0.0820265 163:0.425609 164:0.0438293 165:0.0977486 166:0.0494683 167:0.116519 168:0.254533 169:0.187454 170:0.245715 171:0.0162885 172:0.0228219 173:0.00945118 174:0.108248 175:0.00610106 176:0.000111328 177:0 178:0 179:0.184211 180:0.421053 181:0.394737 182:0.973684 183:0.736842 184:0.5 185:0.661282 186:0.960721 187:0.684289 188:0.56143 189:0.151908 190:0.5 191:0.5 192:0.5 193:0.618421 194:0.428571 195:0.428571 196:0.00933166 197:0.5599 198:0 199:0.93577 200:1.10715 201:0.35299 202:0.705014 203:0.373266 204:0.263158 205:0.629688 206:0.703483 207:0.48381 208:0.21512 209:0.40181 210:0.123386 211:0.174981 212:0.590801 213:1 214:0.389545 215:0.94578 216:0.778492 217:0.0228886 218:0.159822 219:0.0387971 220:0.829632 221:0.0291835 222:0.0622553 223:0.078929 224:0.892819 225:0.0258648 226:0.0511407 227:0.0301756 228:0.00206081 229:0.060959 230:0.15256 231:0.169538 232:0.723071 233:0.0647153 234:0.0336423 235:0.0205166 236:0.0772111 237:0.193822 238:0.0811226 239:0.00095273 240:0.20596 241:0.0954441 242:0.0714286 243:0.191944 244:0.0821144 245:0.0477677 246:0.0994719 247:0.00211488 248:0.138513 249:0.322008 250:0.131965 251:0.083471 252:0.139155 253:0.0355329 254:0.11886 255:0.0422234 256:0.108923 257:0.186791 258:0.177042 259:0.187181 260:0.0430447 261:0.0749304 262:0.0610056 263:0.141888 264:0.0195705 265:0.000649093 266:0 267:0 268:0.184211 269:0.473684 270:0.447368 271:0.973684 272:0.789474 273:0.5 274:0.670948 275:0.963352 276:0.685341 277:0.53089 278:0.423536 279:0.5 280:0.5 281:1 282:0.644737 283:0.392857 284:0.45 285:0 286:0 287:0 288:0.93577 289:1.22777 290:0.257324 291:0.25143 292:0.994313 293:0.281448 294:0.674242 295:0.617424 296:0.492424 297:0.0881601 298:0.0978836 299:0.0133929 300:0.0267857 301:0.245578 302:1 303:0.0714286 304:0.75 305:0.955423 306:0 307:0.0398716 308:0.00470525 309:0.922679 310:0 311:0.0490897 312:0.0282315 313:0.950718 314:0.00941049 315:0.0398716 316:0 317:0 318:0.00156402 319:0.014773 320:0.0266878 321:0.960317 322:0.00793651 323:0.00793651 324:0.015873 325:0.0714286 326:0.0858702 327:0.153622 328:0 329:0.157987 330:0.202571 331:0.0714286 332:0.0733117 333:0.183781 334:0 335:0.114 336:0.0288567 337:0.071859 338:0.113227 339:0.129597 340:0.177123 341:0.260433 342:0.104904 343:0.11319 344:0.0718561 345:0.0502844 346:0.165198 347:0.138051 348:0.205364 349:0.0333432 350:0.139546 351:0.0831677 352:0.154286 353:0.0252066 354:0.000575055 355:0 356:0 
0 0 0 2.926194456245897e-11 1:0.214286 2:0.452381 3:0.404762 4:0.928571 5:0.785714 6:0.452381 7:0.620174 8:0.952267 9:0.711058 10:0.530151 11:0.120538 12:0.5 13:0.5 14:0.5 15:0.607143 16:0.416667 17:0.464286 18:0.0290748 19:0.428853 20:-0.0290748 21:0.950547 22:1.13417 23:0.321751 24:0.818906 25:0.312554 26:0.255635 27:0.6375 28:0.663897 29:0.493908 30:0.127477 31:0.197867 32:0.0492458 33:0.0715703 34:0.356324 35:1 36:0.193088 37:1 38:0.890552 39:0.010139 40:0.0821233 41:0.017186 42:0.906441 43:0.014837 44:0.0437586 45:0.0349632 46:0.931486 47:0.0114573 48:0.0436895 49:0.0133669 50:0.000868605 51:0.0243215 52:0.0711117 53:0.0766919 54:0.833187 55:0.040499 56:0.018949 57:0.0270003 58:0.0714286 59:0.161876 60:0.0701558 61:0 62:0.192231 63:0.167752 64:0.0714286 65:0.159798 66:0.10533 67:0.0554099 68:0.0874473 69:0 70:0.134576 71:0.255922 72:0.115982 73:0.139187 74:0.17323 75:0.0382464 76:0.124404 77:0.0893785 78:0.114586 79:0.148035 80:0.18818 81:0.181981 82:0.0341686 83:0.0757198 84:0.0435475 85:0.125071 86:0.0165442 87:0.000489453 88:0 89:0 90:0.214286 91:0.571429 92:0.404762 93:0.833333 94:0.714286 95:0.595238 96:0.573423 97:0.966673 98:0.607694 99:0.643592 100:0.260451 101:0.5 102:0.5 103:0.5 104:0.630952 105:0.475 106:0.357143 107:0.0373986 108:0.280489 109:0 110:1.12638 111:0.96007 112:0.321751 113:0.318321 114:0.710573 115:0.266241 116:0.572222 117:0.663889 118:0.528916 119:0.107225 120:0.174762 121:0.00396825 122:0.00793651 123:0.327381 124:1 125:0.12381 126:1 127:0.904072 128:0.00431079 129:0.0657523 130:0.0258648 131:0.923654 132:0.0334943 133:0.0428513 134:0 135:0.9303 136:0.00862159 137:0.0438349 138:0.0172432 139:0.00229701 140:0.00722309 141:0.0478756 142:0.0569548 143:0.928571 144:0.00714286 145:0.0142857 146:0.0214286 147:0.0714286 148:0.177063 149:0.103555 150:0 151:0.113893 152:0.195431 153:0.0669545 154:0.114251 155:0.157424 156:0.0665518 157:0.0694062 158:0 159:0.0823273 160:0.221883 161:0.11195 162:0.0642085 163:0.221049 164:0.162624 165:0.0898698 166:0.0236907 167:0.0985287 168:0.197509 169:0.148773 170:0.179746 171:0.0716062 172:0.114198 173:0.0760776 174:0.10659 175:0.00680001 176:0.000133329 177:0 178:0 179:0.184211 180:0.421053 181:0.394737 182:0.973684 183:0.789474 184:0.5 185:0.677308 186:0.94982 187:0.709916 188:0.559976 189:0.166179 190:0.5 191:0.5 192:0.5 193:0.618421 194:0.410714 195:0.428571 196:0.0199335 197:0.508304 198:0 199:0.93577 200:1.10715 201:0.35299 202:0.66009 203:0.39867 204:0.265742 205:0.646959 206:0.676062 207:0.49939 208:0.232977 209:0.394667 210:0.127354 211:0.182918 212:0.598836 213:1 214:0.42723 215:1 216:0.805379 217:0.0185778 218:0.141557 219:0.0344864 220:0.825979 221:0.0291835 222:0.0659082 223:0.078929 224:0.900125 225:0.0258648 226:0.0438349 227:0.0301756 228:0.00206081 229:0.0547197 230:0.136933 231:0.150499 232:0.727754 233:0.0423015 234:0.025818 235:0.0317864 236:0.0714286 237:0.164798 238:0.102909 239:0 240:0.195487 241:0.127832 242:0.0714286 243:0.151839 244:0.114278 245:0.0413063 246:0.101551 247:0 248:0.135627 249:0.26364 250:0.112286 251:0.125706 252:0.184351 253:0.0355329 254:0.135981 255:0.058866 256:0.108923 257:0.165639 258:0.1838 259:0.187871 260:0.0359579 261:0.0688145 262:0.054148 263:0.145148 264:0.021606 265:0.000741024 266:0 267:0 268:0.184211 269:0.473684 270:0.5 271:0.973684 272:0.789474 273:0.5 274:0.669667 275:0.964238 276:0.685695 277:0.5 278:0.635687 279:0.5 280:0.5 281:0.5 282:0.618421 283:0.392857 284:0.4 285:0 286:0 287:0 288:0.93577 289:1.22777 290:0.257324 291:0.167199 292:1.49523 293:0.285073 294:0.640625 295:0.572917 296:0.520833 297:0.0753968 298:0.0396825 299:0 300:0 301:0.112245 302:1 303:0.0285714 304:0.5 305:0.980064 306:0 307:0.0199358 308:0 309:0.960128 310:0 311:0.0398716 312:0 313:0.95941 314:0.00470525 315:0.0358844 316:0 317:0 318:0.00248197 319:0.00738466 320:0.00870855 321:0.992063 322:0 323:0 324:0.00793651 325:0.0714286 326:0.0867814 327:0.151988 328:0 329:0.151123 330:0.20985 331:0.0714286 332:0.0685699 333:0.18883 334:0 335:0.114 336:0.0288567 337:0.0639461 338:0.107744 339:0.131033 340:0.199871 341:0.279656 342:0.0748933 343:0.116922 344:0.0814731 345:0.0475272 346:0.16686 347:0.135227 348:0.225797 349:0.0288567 350:0.133095 351:0.0642424 352:0.156491 353:0.0259144 354:0.000556037 355:0 356:0 
2.505838236825697e-11 0 2.66215535937965e-13 0 1:0.184211 2:0.526316 3:0.315789 4:0.921053 5:0.789474 6:0.421053 7:0.585206 8:0.966667 9:0.666667 10:0.566667 11:0.109966 12:0.5 13:0.146447 14:0.146447 15:0.631579 16:0.410714 17:0.5 18:0.0146621 19:0.20527 20:-0.0366553 21:0.93577 22:0.950547 23:0.484478 24:0.897408 25:0.315235 26:0.257333 27:0.668919 28:0.570946 29:0.51715 30:0.125614 31:0.185119 32:0.0512783 33:0.0272904 34:0.285607 35:1 36:0.0637519 37:1 38:0.875394 39:0.00937984 40:0.112882 41:0.00234496 42:0.854585 43:0.0211046 44:0.0860646 45:0.0382454 46:0.95668 47:0.0140698 48:0.0198709 49:0.00937984 50:0.00119344 51:0.0282049 52:0.0656449 53:0.0423295 54:0.938241 55:0.00818727 56:0.00643986 57:0.0149887 58:0.0714286 59:0.263466 60:0.0391719 61:0 62:0.170004 63:0.0923947 64:0.0714286 65:0.19034 66:0.101767 67:0.123933 68:0.0189243 69:0 70:0.225878 71:0.307672 72:0.0906644 73:0.036484 74:0.141967 75:0.0544779 76:0.126883 77:0.112459 78:0.145415 79:0.235996 80:0.114437 81:0.117303 82:0.0120175 83:0.0440498 84:0.09144 85:0.13967 86:0.0190288 87:0.00101603 88:0 89:0 90:0.184211 91:0.578947 92:0.315789 93:0.921053 94:0.631579 95:0.578947 96:0.605757 97:0.969809 98:0.533558 99:0.667789 100:0.293429 101:0.5 102:0.146447 103:0.146447 104:0.631579 105:0.479167 106:0.425 107:0 108:0 109:0 110:1.00748 111:0.876058 112:0.484478 113:0.334065 114:0.807439 115:0.269721 116:0.701705 117:0.409091 118:0.548295 119:0.0969388 120:0.193878 121:0.0119048 122:0.0238095 123:0.371429 124:1 125:0.0952381 126:0.5 127:0.905517 128:0.0115184 129:0.0829648 130:0 131:0.845917 132:0.0287961 133:0.113769 134:0.0115184 135:0.961443 136:0.0115184 137:0.00976057 138:0.0172777 139:0.00121338 140:0.0206795 141:0.0312634 142:0.0290806 143:0.969388 144:0.0102041 145:0 146:0.0204082 147:0.0714286 148:0.236487 149:0.0688362 150:0 151:0.133418 152:0.122759 153:0.0714286 154:0.155741 155:0.139902 156:0.12943 157:0.0134276 158:0 159:0.17673 160:0.271471 161:0.0836127 162:0.0567953 163:0.162355 164:0.106178 165:0.128662 166:0.10479 167:0.139941 168:0.241326 169:0.0973682 170:0.0955317 171:0.0152896 172:0.0498769 173:0.127214 174:0.138993 175:0.0172588 176:0.000800147 177:0 178:0 179:0.184211 180:0.605263 181:0.342105 182:0.921053 183:0.710526 184:0.605263 185:0.676941 186:0.966667 187:0.566667 188:0.666667 189:0.681818 190:0.5 191:0.5 192:0.5 193:0.631579 194:0.444444 195:0.321429 196:0 197:0 198:0 199:1.12842 200:0.909753 201:0.35299 202:0.144737 203:1.59091 204:0.293077 205:0.642857 206:0.547619 207:0.559524 208:0.0408163 209:6.12147e-34 210:0 211:0 212:0.0571429 213:1 214:0 215:0 216:0.970718 217:0 218:0.0292817 219:0 220:0.946317 221:0 222:0.0536831 223:0 224:0.980479 225:0 226:0.0195211 227:0 228:0 229:0.00235682 230:0.00665219 231:0.00370612 232:1 233:0 234:0 235:0 236:0.0714286 237:0.10307 238:0.203444 239:0 240:0.038348 241:0.226271 242:0.0714286 243:0.0360942 244:0.249915 245:0.142857 246:0 247:0 248:0.0714286 249:0.0620557 250:0.0431441 251:0.214286 252:0.204574 253:0.261655 254:0.142857 255:0.144877 256:0.140837 257:0.188072 258:0.045499 259:0.0447695 260:0.0469325 261:0.0727178 262:0.173438 263:0.132834 264:0.0147703 265:0.000611911 266:0 267:0 268:0.184211 269:0.473684 270:0.342105 271:0.921053 272:0.789474 273:0.447368 274:0.608199 275:0.955661 276:0.695283 277:0.565094 278:0.208647 279:0.5 280:0.5 281:0.5 282:0.631579 283:0.392857 284:0.444444 285:0 286:0.54327 287:0 288:0.93577 289:0.999459 290:0.442374 291:0.484396 292:0.570434 293:0.259196 294:0.668981 295:0.6875 296:0.482012 297:0.221141 298:0.335034 299:0.150477 300:0.0626102 301:0.542471 302:1 303:0.197153 304:1 305:0.803091 306:0.0115184 307:0.179631 308:0.00575922 309:0.831107 310:0.0230369 311:0.0634437 312:0.0824122 313:0.946802 314:0.0230369 315:0.0244014 316:0.00575922 317:0.00193687 318:0.0523396 319:0.123063 320:0.0841247 321:0.864363 322:0.0131881 323:0.0183996 324:0.0122126 325:0.0714286 326:0.209728 327:0.0753634 328:0 329:0.162138 330:0.12452 331:0.0714286 332:0.149476 333:0.135917 334:0.12055 335:0.0223073 336:0 337:0.225566 338:0.199468 339:0.097172 340:0.0279545 341:0.216569 342:0.0904136 343:0.119692 344:0.113986 345:0.140927 346:0.188832 347:0.118683 348:0.117901 349:0.0399852 350:0.0692751 351:0.0907176 352:0.139709 353:0.0202831 354:0.00103155 355:0 356:0 
0 0 1.214390056837467e-11 0 1:0.184211 2:0.447368 3:0.263158 4:0.921053 5:0.815789 6:0.368421 7:0.602473 8:0.943607 9:0.721803 10:0.563372 11:0.11117 12:0.5 13:0.5 14:1 15:0.631579 16:0.416667 17:0.55 18:0 19:0.295896 20:-0.0281806 21:0.902507 22:0.982794 23:0.484478 24:0.933828 25:0.309986 26:0.254664 27:0.704832 28:0.606092 29:0.481333 30:0.121039 31:0.182359 32:0.0679366 33:0.0365961 34:0.319063 35:1 36:0.104397 37:1 38:0.890106 39:0.00429793 40:0.103447 41:0.00214896 42:0.85853 43:0.0128938 44:0.0892291 45:0.0393467 46:0.959463 47:0.0107448 48:0.025494 49:0.00429793 50:0.00114443 51:0.0286506 52:0.0755684 53:0.0665993 54:0.89337 55:0.00684581 56:0.0114823 57:0.0168729 58:0.0714286 59:0.238343 60:0.05239 61:0 62:0.178047 63:0.101594 64:0.0714286 65:0.187086 66:0.0996828 67:0.12318 68:0.0196774 69:0 70:0.248188 71:0.282646 72:0.076271 73:0.0712978 74:0.144698 75:0.0340416 76:0.139384 77:0.129492 78:0.161885 79:0.218112 80:0.123743 81:0.116883 82:0.00494022 83:0.0344829 84:0.0710784 85:0.143875 86:0.0217463 87:0.00133865 88:0 89:0 90:0.184211 91:0.578947 92:0.263158 93:0.921053 94:0.684211 95:0.578947 96:0.648596 97:0.955661 98:0.565094 99:0.695283 100:0.430837 101:0.5 102:0.5 103:1 104:0.631579 105:0.5 106:0.45 107:0 108:0 109:0 110:1.08632 111:0.785398 112:0.484478 113:0.234585 114:1.09376 115:0.276439 116:0.666667 117:0.5 118:0.545455 119:0.0625 120:0.0892857 121:0.0102041 122:0.0204082 123:0.119048 124:1 125:0 126:0 127:0.956113 128:0 129:0.0438874 130:0 131:0.906256 132:0.0103583 133:0.0833862 134:0 135:0.972087 136:0.00517916 137:0.017555 138:0.00517916 139:0.00107748 140:0.0125518 141:0.0352978 142:0.0135921 143:0.991071 144:0 145:0 146:0 147:0.0714286 148:0.158474 149:0.143425 150:0 151:0.0925518 152:0.17539 153:0.0714286 154:0.0878182 155:0.199483 156:0.1235 157:0.019357 158:0 159:0.107015 160:0.18139 161:0.0415279 162:0.147008 163:0.269173 164:0.111028 165:0.1235 166:0.102581 167:0.142689 168:0.266521 169:0.106825 170:0.105458 171:0 172:0.0426616 173:0.109764 174:0.135217 175:0.0156983 176:0.000699629 177:0 178:0 179:0.184211 180:0.526316 181:0.342105 182:0.921053 183:0.789474 184:0.552632 185:0.635954 186:0.954699 187:0.662392 188:0.629914 189:0.329048 190:0.5 191:0.5 192:0.5 193:0.657895 194:0.395833 195:0.388889 196:0 197:0.21374 198:0 199:1.00748 200:0.927295 201:0.442374 202:0.307802 203:0.854959 204:0.266607 205:0.602564 206:0.657051 207:0.537882 208:0.0811637 209:0.0910714 210:0.0102041 211:0.0204082 212:0.166667 213:1 214:0.0357143 215:0.5 216:0.902939 217:0.00517916 218:0.0918821 219:0 220:0.913465 221:0.0155375 222:0.0526649 223:0.0183329 224:0.95892 225:0.0103583 226:0.0307212 227:0 228:0 229:0.0119494 230:0.0382331 231:0.0246249 232:0.982143 233:0 234:0 235:0.00892857 236:0.0714286 237:0.224422 238:0.0708026 239:0 240:0.139513 241:0.135095 242:0.0714286 243:0.15011 244:0.137201 245:0.118974 246:0.0238835 247:0 248:0.176111 249:0.225855 250:0.110087 251:0.0578003 252:0.160516 253:0.126775 254:0.11845 255:0.0965344 256:0.143309 257:0.208483 258:0.110217 259:0.0904825 260:0.041211 261:0.0678758 262:0.123436 263:0.132545 264:0.0156859 265:0.000695482 266:0 267:0 268:0.184211 269:0.447368 270:0.289474 271:0.921053 272:0.815789 273:0.394737 274:0.610994 275:0.943607 276:0.721803 277:0.563372 278:0.17176 279:0.5 280:1 281:0.5 282:0.631579 283:0.416667 284:0.5 285:0 286:0.489818 287:0 288:0.902507 289:1.03038 290:0.442374 291:0.604413 292:0.468049 293:0.257161 294:0.723592 295:0.663732 296:0.445826 297:0.225715 298:0.394345 299:0.183402 300:0.068972 301:0.657316 302:1 303:0.286209 304:1 305:0.805369 306:0.0103583 307:0.179094 308:0.00517916 309:0.779916 310:0.0207166 311:0.109719 312:0.0896492 313:0.947772 314:0.0207166 315:0.0263325 316:0.00517916 317:0.00186141 318:0.047834 319:0.149145 320:0.144471 321:0.774541 322:0.0135535 323:0.0244053 324:0.0267857 325:0.0714286 326:0.147163 327:0.114691 328:0 329:0.156929 330:0.160496 331:0.0714286 332:0.115606 333:0.162258 334:0.12197 335:0.0208876 336:0 337:0.245715 338:0.12766 339:0.0545876 340:0.0805645 341:0.300581 342:0.0480348 343:0.145018 344:0.132181 345:0.163154 346:0.156734 347:0.157641 348:0.136906 349:0.0243358 350:0.0399502 351:0.0440808 352:0.144641 353:0.0230511 354:0.00115212 355:0 356:0 
1.464374689451087e-13 0 3.773765349896002e-12 2.117189993895394e-11 1:0.175 2:0.45 3:0.425 4:0.875 5:0.5 6:0.475 7:0.547308 8:0.997468 9:0.535533 10:0.535533 11:0.098802 12:0.5 13:0.5 14:0 15:0.65 16:0.483333 17:0.375 18:0 19:0 20:0.0772371 21:0.927295 22:1.19029 23:0.291457 24:0.890116 25:0.287884 26:0.254771 27:0.587648 28:0.497808 29:0.602905 30:0.135332 31:0.222726 32:0.118568 33:0.0569883 34:0.386199 35:1 36:0.101724 37:1 38:0.887342 39:0.0165016 40:0.0893198 41:0.00683651 42:0.883617 43:0.0158771 44:0.0698039 45:0.0307018 46:0.939912 47:0.0112134 48:0.0342076 49:0.0146666 50:0 51:0.00903227 52:0.0399128 53:0.055817 54:0.875891 55:0.0157324 56:0.0270206 57:0.0201319 58:0.0714286 59:0.276541 60:0.0230142 61:0 62:0.198614 63:0.0495621 64:0.0714286 65:0.278063 66:0.0313474 67:0.0238095 68:0.119048 69:0 70:0.14375 71:0.482544 72:0.125156 73:0.0110119 74:0.072629 75:0.0220518 76:0.0716521 77:0.0310243 78:0.075895 79:0.240957 80:0.162707 81:0.275411 82:0.0548421 83:0.0667628 84:0.0207487 85:0.120982 86:0.0101902 87:0.00025817 88:0 89:0 90:0.131579 91:0.447368 92:0.421053 93:0.921053 94:0.5 95:0.473684 96:0.604112 97:0.997792 98:0.533186 99:0.533186 100:0.148662 101:0.5 102:0.5 103:0 104:0.644737 105:0.483333 106:0.375 107:0 108:0 109:0.108537 110:0.902507 111:1.19029 112:0.305879 113:0.66676 114:0.394682 115:0.265441 116:0.588345 117:0.437962 118:0.617232 119:0.240663 120:0.437335 121:0.314358 122:0.156021 123:0.853914 124:1 125:0.360898 126:1 127:0.815232 128:0.0329289 129:0.136051 130:0.0157879 131:0.808211 132:0.0366657 133:0.0997594 134:0.0553639 135:0.905914 136:0.0207166 137:0.0394987 138:0.0338703 139:0 140:0.0204962 141:0.0637592 142:0.106492 143:0.727784 144:0.0285056 145:0.0480066 146:0.0439175 147:0.0714286 148:0.266491 149:0.0610634 150:0 151:0.177056 152:0.0640571 153:0.0714286 154:0.234124 155:0.0543517 156:0.025974 157:0.116883 158:0 159:0.144805 160:0.444934 161:0.0882177 162:0.024026 163:0.131781 164:0.0233791 165:0.0844156 166:0.0282409 167:0.0821487 168:0.264231 169:0.180341 170:0.248057 171:0.0464139 172:0.0453119 173:0.0208397 174:0.138835 175:0.0161641 176:0.000455335 177:0 178:0 179:0.175 180:0.575 181:0.375 182:0.925 183:0.625 184:0.525 185:0.685565 186:0.989246 187:0.532616 188:0.597849 189:0.504031 190:0.5 191:0.853553 192:0.853553 193:0.6375 194:0.53125 195:0.375 196:0 197:0 198:0 199:1.19029 200:0.927295 201:0.291457 202:0.190089 203:1.1179 204:0.291387 205:0.586207 206:0.50431 207:0.663793 208:0.0803571 209:0.125 210:0.0102041 211:0.0204082 212:0.0833333 213:0.75 214:0.0357143 215:0.5 216:0.959711 217:0.00517916 218:0.03511 219:0 220:0.951724 221:0 222:0.0482762 223:0 224:0.956113 225:0 226:0.0438874 227:0 228:0 229:0 230:0 231:0.00344537 232:0.982143 233:0 234:0 235:0.00892857 236:0.0714286 237:0.182653 238:0.124712 239:0 240:0.0592854 241:0.189496 242:0.0714286 243:0.0970354 244:0.203962 245:0.012987 246:0.12987 247:0 248:0.055389 249:0.21372 250:0.0622219 251:0.0874681 252:0.33495 253:0.103394 254:0.0694805 255:0.0256066 256:0.060757 257:0.235132 258:0.137342 259:0.307716 260:0.0740712 261:0.0753602 262:0.0145339 263:0.118544 264:0.00648485 265:0.000127978 266:0 267:0 268:0.175 269:0.625 270:0.425 271:0.875 272:0.625 273:0.475 274:0.627694 275:0.998729 276:0.5 277:0.535624 278:0.437643 279:0.853553 280:0.146447 281:0.5 282:0.65 283:0.5 284:0.375 285:0 286:0 287:0 288:1.19029 289:0.927295 290:0.291457 291:0.200444 292:1.06015 293:0.287549 294:0.625 295:0.625 296:0.512931 297:0.0877976 298:0.129464 299:0.0244064 300:0.00680272 301:0.238095 302:0.5 303:1.07126e-33 304:1 305:0.942156 306:0.00517916 307:0.0526649 308:0 309:0.936186 310:0 311:0.0482762 312:0.0155375 313:0.968488 314:0.00517916 315:0.0263325 316:0 317:0 318:0 319:0.0118429 320:0.0282489 321:0.964286 322:0.00386334 323:0.00506523 324:0 325:0.0714286 326:0.1797 327:0.118999 328:0 329:0.0691757 330:0.196491 331:0.0714286 332:0.109957 333:0.182821 334:0.025974 335:0.116883 336:0 337:0.0608229 338:0.232332 339:0.0662741 340:0.0820342 341:0.319585 342:0.096095 343:0.0595787 344:0.0355085 345:0.073744 346:0.247264 347:0.137544 348:0.285972 349:0.0624205 350:0.0785541 351:0.0194138 352:0.114776 353:0.00634748 354:0.000131125 355:0 356:0 
6.146431017641912e-11 2.986988842276366e-11 0 0 1:0.175 2:0.575 3:0.375 4:0.875 5:0.625 6:0.525 7:0.619942 8:0.987713 9:0.534837 10:0.60451 11:0.136755 12:0.5 13:0.5 14:0.5 15:0.65 16:0.525 17:0.375 18:0 19:-0.0285845 20:0 21:1.10715 22:1.03038 23:0.291457 24:0.65595 25:0.343014 26:0.276793 27:0.594444 28:0.555305 29:0.550251 30:0.128461 31:0.1975 32:0.0462895 33:0.045447 34:0.31821 35:1 36:0.0602543 37:1 38:0.918205 39:0.0153354 40:0.0617693 41:0.00468992 42:0.907351 43:0.0166011 44:0.069013 45:0.00703488 46:0.932835 47:0.0117248 48:0.0437159 49:0.0117248 50:0 51:0.00122412 52:0.0260364 53:0.0398674 54:0.917584 55:0.0109877 56:0.0107143 57:0.0149124 58:0.0714286 59:0.175271 60:0.125264 61:0 62:0.100101 63:0.170754 64:0.0555192 65:0.144784 66:0.156878 67:0.0226708 68:0.105669 69:0 70:0.0720187 71:0.271669 72:0.0765358 73:0.0730123 74:0.29036 75:0.0880644 76:0.0664793 77:0.0286078 78:0.0726147 79:0.243276 80:0.149052 81:0.2759 82:0.0643996 83:0.076676 84:0.0229953 85:0.114936 86:0.00682997 87:0.00014418 88:0 89:0 90:0.175 91:0.575 92:0.375 93:0.925 94:0.625 95:0.525 96:0.662143 97:0.989246 98:0.532616 99:0.597849 100:0.289752 101:0.5 102:0.5 103:0.5 104:0.6375 105:0.525 106:0.375 107:0 108:0 109:0 110:1.10715 111:1.03038 112:0.291457 113:0.330664 114:0.680448 115:0.27749 116:0.607143 117:0.496486 118:0.518395 119:0.190159 120:0.283673 121:0.0883474 122:0.076455 123:0.450794 124:1 125:0.0753247 126:1 127:0.909115 128:0.0203861 129:0.0589799 130:0.0115184 131:0.873576 132:0.0350131 133:0.0914113 134:0 135:0.916642 136:0.0172777 137:0.0488028 138:0.0172777 139:0 140:0 141:0.0128803 142:0.0599243 143:0.901176 144:0.0273951 145:0.0204082 146:0 147:0.0714286 148:0.161199 149:0.143324 150:0 151:0.0937742 152:0.170477 153:0.0596961 154:0.125759 155:0.174342 156:0.00714286 157:0.121519 158:0 159:0.0667109 160:0.249803 161:0.0572301 162:0.0761463 163:0.322953 164:0.0984945 165:0.0707143 166:0.0243729 167:0.0549128 168:0.249478 169:0.147926 170:0.297726 171:0.0639807 172:0.0680574 173:0.022832 174:0.116395 175:0.00714814 176:0.000150634 177:0 178:0 179:0.225 180:0.625 181:0.425 182:0.925 183:0.625 184:0.525 185:0.632456 186:0.994975 187:0.5 188:0.570711 189:0.883883 190:0 191:0.5 192:0.5 193:0.625 194:0.5 195:0.333333 196:0 197:0 198:0 199:1.19029 200:0.927295 201:0.291457 202:0.1 203:2.125 204:0.291196 205:0.533333 206:0.466667 207:0.75 208:0.0204082 209:0.0408163 210:0 211:0 212:0.114286 213:0.5 214:0 215:0 216:0.970718 217:0 218:0.0292817 219:0 220:0.975599 221:0 222:0.0244014 223:0 224:0.980479 225:0 226:0.0195211 227:0 228:0 229:0 230:0 231:0.0154887 232:1 233:0 234:0 235:0 236:0.0714286 237:0.197526 238:0.107282 239:0 240:0.0621593 241:0.187967 242:0.0714286 243:0.109649 244:0.192558 245:0.0285714 246:0.114286 247:0 248:0.0585916 249:0.2213 250:0.0826771 251:0.0842656 252:0.285797 253:0.124512 254:0.0678571 255:0.02723 256:0.0763414 257:0.21564 258:0.12263 259:0.285655 260:0.0890293 261:0.0928199 262:0.022798 263:0.118565 264:0.00648775 265:0.000126944 266:0 267:0 268:0.225 269:0.575 270:0.425 271:0.875 272:0.625 273:0.525 274:0.589915 275:0.992764 276:0.537905 277:0.57581 278:0.306439 279:0.5 280:0.5 281:0.5 282:0.6375 283:0.53125 284:0.333333 285:0 286:0.139387 287:0 288:1.19029 289:0.927295 290:0.291457 291:0.269036 292:0.789857 293:0.28321 294:0.578947 295:0.674342 296:0.519737 297:0.156463 298:0.239796 299:0.058236 300:0.0674603 301:0.551905 302:1 303:0.198413 304:1 305:0.919279 306:0.0172777 307:0.0634437 308:0 309:0.908639 310:0.00575922 311:0.068324 312:0.0172777 313:0.92816 314:0.0115184 315:0.0488028 316:0.0115184 317:0 318:0.00426061 319:0.0336431 320:0.0491382 321:0.893961 322:0.00399823 323:0.0102041 324:0.0324029 325:0.0714286 326:0.139816 327:0.156526 328:0 329:0.066371 330:0.213207 331:0.0714286 332:0.0994859 333:0.181737 334:0.0428571 335:0.1 336:0 337:0.0614786 338:0.192911 339:0.051552 340:0.0813786 341:0.362428 342:0.107394 343:0.0614739 344:0.0336133 345:0.0906271 346:0.245838 347:0.159502 348:0.251089 349:0.0582811 350:0.0777717 351:0.0218037 352:0.112199 353:0.00652125 354:0.000136806 355:0 356:0 
0 0 4.236174686688325e-12 0 1:0.175 2:0.575 3:0.375 4:0.825 5:0.725 6:0.575 7:0.601615 8:0.966673 9:0.607694 10:0.643592 11:0.115157 12:0.5 13:0.5 14:0.5 15:0.6625 16:0.475 17:0.333333 18:0 19:0.0248035 20:-0.00826782 21:1.10715 22:1.03038 23:0.291457 24:0.755942 25:0.297642 26:0.276283 27:0.58125 28:0.575226 29:0.55119 30:0.135132 31:0.21576 32:0.0475465 33:0.0503175 34:0.334795 35:1 36:0.0755708 37:1 38:0.89981 39:0.0146666 40:0.0741322 41:0.0113917 42:0.903969 43:0.0210568 44:0.066003 45:0.00897075 46:0.925235 47:0.0112134 48:0.0456101 49:0.0179415 50:0 51:0.00449545 52:0.0267294 53:0.0534831 54:0.907903 55:0.0144627 56:0.0160205 57:0.0179931 58:0.0714286 59:0.168176 60:0.132112 61:0 62:0.0946064 63:0.180733 64:0.0569968 65:0.135379 66:0.160566 67:0.025 68:0.104242 69:0 70:0.071835 71:0.255642 72:0.0710202 73:0.0728079 74:0.298826 75:0.100627 76:0.0666855 77:0.0284016 78:0.0745557 79:0.243759 80:0.152271 81:0.263695 82:0.0628122 83:0.0796373 84:0.0281827 85:0.115221 86:0.00726335 87:0.00015683 88:0 89:0 90:0.175 91:0.575 92:0.375 93:0.925 94:0.625 95:0.525 96:0.662143 97:0.989246 98:0.532616 99:0.597849 100:0.274204 101:0.5 102:0.5 103:0.5 104:0.6375 105:0.525 106:0.375 107:0 108:0 109:0 110:1.10715 111:1.03038 112:0.291457 113:0.349414 114:0.643935 115:0.277986 116:0.605556 117:0.485609 118:0.539391 119:0.175318 120:0.266071 121:0.0757263 122:0.0655329 123:0.375661 124:1 125:0.0564935 126:1 127:0.909492 128:0.0183329 129:0.061817 130:0.0103583 131:0.886309 132:0.0314866 133:0.0822044 134:0 135:0.920649 136:0.0155375 137:0.0482762 138:0.0155375 139:0 140:0 141:0.0164584 142:0.0421666 143:0.913529 144:0.0239707 145:0.0178571 146:0 147:0.0714286 148:0.168003 149:0.138558 150:0 151:0.0931842 152:0.16795 153:0.0589851 154:0.131176 155:0.170715 156:0.00649351 157:0.121308 158:0 159:0.066169 160:0.257655 161:0.0624898 162:0.0766881 163:0.312586 164:0.0966104 165:0.0707792 166:0.0243079 167:0.0542635 168:0.246342 169:0.146095 170:0.300219 171:0.0653802 172:0.070545 173:0.022068 174:0.116607 175:0.00711072 176:0.000150201 177:0 178:0 179:0.225 180:0.625 181:0.425 182:0.925 183:0.625 184:0.525 185:0.632456 186:0.994975 187:0.5 188:0.570711 189:0.883883 190:0 191:0.5 192:0.5 193:0.625 194:0.5 195:0.333333 196:0 197:0 198:0 199:1.19029 200:0.927295 201:0.291457 202:0.1 203:2.125 204:0.291097 205:0.533333 206:0.466667 207:0.75 208:0.0178571 209:0.0357143 210:0 211:0 212:0.0952381 213:0.5 214:0 215:0 216:0.973668 217:0 218:0.0263325 219:0 220:0.978056 221:0 222:0.0219437 223:0 224:0.982445 225:0 226:0.017555 227:0 228:0 229:0 230:0 231:0.013754 232:1 233:0 234:0 235:0 236:0.0714286 237:0.199893 238:0.104108 239:0 240:0.0631044 241:0.18793 242:0.0714286 243:0.111357 244:0.19075 245:0.0324675 246:0.11039 247:0 248:0.0598091 249:0.224028 250:0.0846965 251:0.083048 252:0.280795 253:0.124766 254:0.0675325 255:0.0275547 256:0.0802375 257:0.215454 258:0.12176 259:0.280639 260:0.089081 261:0.0939197 262:0.0238212 263:0.1185 264:0.00648776 265:0.000126988 266:0 267:0 268:0.225 269:0.55 270:0.425 271:0.825 272:0.7 273:0.575 274:0.559773 275:0.971405 276:0.617851 277:0.617851 278:0.215565 279:0.5 280:0.5 281:0.5 282:0.65 283:0.472222 284:0.291667 285:0 286:0.3726 287:0 288:1.14794 289:0.982794 290:0.291457 291:0.369028 292:0.592773 293:0.277651 294:0.554688 295:0.691045 296:0.528049 297:0.170474 298:0.28244 299:0.0601207 300:0.0782313 301:0.565476 302:1 303:0.228968 304:1 305:0.876688 306:0.0155375 307:0.0918253 308:0.0159491 309:0.9007 310:0.017141 311:0.0614424 312:0.0207166 313:0.911081 314:0.0103583 315:0.0526649 316:0.0258958 317:0 318:0.0108988 319:0.0428384 320:0.0763546 321:0.871502 322:0.0139938 323:0.0241966 324:0.0383034 325:0.0714286 326:0.171026 327:0.121175 328:0 329:0.104576 330:0.188505 331:0.0714286 332:0.137843 333:0.134019 334:0.0454545 335:0.0974026 336:0 337:0.0808124 338:0.27224 339:0.0714148 340:0.0620447 341:0.268081 342:0.10255 343:0.0623788 344:0.0327083 345:0.0932245 346:0.24666 347:0.165575 348:0.226717 349:0.0553741 350:0.0841331 351:0.03323 352:0.113052 353:0.00745374 354:0.000163551 355:0 356:0 
1.662820223987526e-11 1.540484430783983e-11 0 0 1:0.175 2:0.525 3:0.375 4:0.825 5:0.725 6:0.575 7:0.588686 8:0.958475 9:0.641069 10:0.641069 11:0.108407 12:0.5 13:0.5 14:0.5 15:0.6625 16:0.458333 17:0.333333 18:0 19:0.0994042 20:-0.00764647 21:1.03038 22:1.10715 23:0.291457 24:0.81737 25:0.290566 26:0.265358 27:0.575231 28:0.588172 29:0.547398 30:0.135549 31:0.217532 32:0.0569166 33:0.0566893 34:0.366777 35:1 36:0.0964733 37:1 38:0.888205 39:0.0162026 40:0.0825282 41:0.0130646 42:0.907983 43:0.0201768 44:0.0632447 45:0.00859585 46:0.924717 47:0.0107448 48:0.047346 49:0.0171917 50:0.000445098 51:0.0146423 52:0.0322067 53:0.0528277 54:0.888743 55:0.0251702 56:0.0168517 57:0.0243506 58:0.0714286 59:0.244268 60:0.0595672 61:0 62:0.144382 63:0.117641 64:0.0714286 65:0.207306 66:0.0839785 67:0.0285714 68:0.114286 69:0 70:0.10286 71:0.387776 72:0.106536 73:0.0399972 74:0.150393 75:0.0695806 76:0.0668753 77:0.0282119 78:0.0763414 79:0.243081 80:0.155398 81:0.255859 82:0.0619434 83:0.082232 84:0.0300576 85:0.11568 86:0.00779505 87:0.000172785 88:0 89:0 90:0.175 91:0.575 92:0.375 93:0.925 94:0.625 95:0.525 96:0.662143 97:0.989246 98:0.532616 99:0.597849 100:0.274204 101:0.5 102:0.5 103:0.5 104:0.6375 105:0.525 106:0.375 107:0 108:0 109:0 110:1.10715 111:1.03038 112:0.291457 113:0.349414 114:0.643935 115:0.277986 116:0.605556 117:0.485609 118:0.539391 119:0.175318 120:0.266071 121:0.0757263 122:0.0655329 123:0.375661 124:1 125:0.0564935 126:1 127:0.909492 128:0.0183329 129:0.061817 130:0.0103583 131:0.886309 132:0.0314866 133:0.0822044 134:0 135:0.920649 136:0.0155375 137:0.0482762 138:0.0155375 139:0 140:0 141:0.0164584 142:0.0421666 143:0.913529 144:0.0239707 145:0.0178571 146:0 147:0.0714286 148:0.168003 149:0.138558 150:0 151:0.0931842 152:0.16795 153:0.0589851 154:0.131176 155:0.170715 156:0.00649351 157:0.121308 158:0 159:0.066169 160:0.257655 161:0.0624898 162:0.0766881 163:0.312586 164:0.0966104 165:0.0707792 166:0.0243079 167:0.0542635 168:0.246342 169:0.146095 170:0.300219 171:0.0653802 172:0.070545 173:0.022068 174:0.116607 175:0.00711072 176:0.000150201 177:0 178:0 179:0.175 180:0.625 181:0.425 182:0.925 183:0.625 184:0.525 185:0.676757 186:0.995614 187:0.5 188:0.566082 189:0.840708 190:0.5 191:0.5 192:0.5 193:0.6375 194:0.5 195:0.333333 196:0 197:0 198:0 199:1.19029 200:0.927295 201:0.291457 202:0.1125 203:1.88889 204:0.290882 205:0.617647 206:0.455882 207:0.676471 208:0.0178571 209:0.0357143 210:0 211:0 212:0.0952381 213:0.5 214:5.35628e-34 215:1 216:0.969279 217:0 218:0.0307212 219:0 220:0.973668 221:0 222:0.0263325 223:0 224:0.982445 225:0 226:0.017555 227:0 228:0 229:0 230:0.00302397 231:0.0147437 232:0.991071 233:0 234:0 235:0 236:0.0714286 237:0.203921 238:0.101191 239:0 240:0.0633285 241:0.186806 242:0.0714286 243:0.115656 244:0.186241 245:0.025974 246:0.116883 247:0 248:0.0573741 249:0.236065 250:0.0857446 251:0.0854831 252:0.270387 253:0.12209 254:0.0675325 255:0.0275547 256:0.073744 257:0.216005 258:0.121032 259:0.288609 260:0.087918 261:0.0942565 262:0.0233488 263:0.117929 264:0.00642215 265:0.000125747 266:0 267:0 268:0.225 269:0.5 270:0.425 271:0.825 272:0.7 273:0.575 274:0.550828 275:0.961538 276:0.653846 277:0.615385 278:0.188753 279:0.5 280:1 281:0.5 282:0.65 283:0.454545 284:0.291667 285:0 286:0.464624 287:0 288:1.06795 289:1.07145 290:0.291457 291:0.430456 292:0.537221 293:0.26615 294:0.546875 295:0.699467 296:0.524042 297:0.188512 298:0.314286 299:0.0950235 300:0.104535 301:0.727881 302:1 303:0.341922 304:1 305:0.838628 306:0.0207166 307:0.119527 308:0.0211283 309:0.9007 310:0.017141 311:0.0614424 312:0.0207166 313:0.902303 314:0.0103583 315:0.0614424 316:0.0258958 317:0.00114301 318:0.0373895 319:0.0647657 320:0.086955 321:0.807299 322:0.0452473 323:0.0284849 324:0.0580357 325:0.0714286 326:0.219818 327:0.0732407 328:0 329:0.164823 330:0.119061 331:0.0714286 332:0.210428 333:0.069772 334:0.0454545 335:0.0974026 336:0 337:0.104239 338:0.383538 339:0.099027 340:0.0386186 341:0.150611 342:0.0811099 343:0.0630282 344:0.032059 345:0.0932245 346:0.24786 347:0.176246 348:0.211928 349:0.0509644 350:0.0877319 351:0.0369575 352:0.113553 353:0.00850625 354:0.00019409 355:0 356:0 
2.365482282834704e-11 0 0 0 1:0.138889 2:0.5 3:0.416667 4:0.916667 5:0.611111 6:0.583333 7:0.628558 8:0.9842 9:0.569171 10:0.603757 11:0.112759 12:0.5 13:0.5 14:0 15:0.666667 16:0.461538 17:0.375 18:0.00779973 19:0.0857971 20:0.0233992 21:0.945311 22:1.13839 23:0.321751 24:0.890344 25:0.28859 26:0.274145 27:0.614376 28:0.508398 29:0.5973 30:0.0728671 31:0.111748 32:0.0167744 33:0.0185185 34:0.332149 35:1 36:0.0972856 37:1 38:0.880939 39:0.00306059 40:0.101941 41:0.0140597 42:0.926348 43:0.0255749 44:0.0418093 45:0.00626741 46:0.94474 47:0.00793853 48:0.036108 49:0.0112134 50:0 51:0.00206643 52:0.0223016 53:0.0540822 54:0.920988 55:0.0201733 56:0.00441661 57:0.0170068 58:0.0714286 59:0.296834 60:0.025945 61:0 62:0.161838 63:0.0553956 64:0.0714286 65:0.287895 66:0.0292352 67:0.00892857 68:0.133929 69:0 70:0.142857 71:0.553414 72:0.0554302 73:0.00297619 74:0.0663421 75:0.0361234 76:0.0744048 77:0.0211529 78:0.0592042 79:0.30668 80:0.163873 81:0.281425 82:0.0171755 83:0.0321743 84:0.0439104 85:0.137333 86:0.012103 87:0.000304087 88:0 89:0 90:0.138889 91:0.5 92:0.416667 93:0.972222 94:0.5 95:0.472222 96:0.653622 97:0.998893 98:0.5 99:0.53326 100:0.204177 101:0.5 102:0.5 103:0 104:0.652778 105:0.5 106:0.458333 107:0 108:0 109:0 110:0.945311 111:1.13839 112:0.321751 113:0.51131 114:0.502522 115:0.279709 116:0.667109 117:0.403408 118:0.619149 119:0.091233 120:0.180839 121:0.0377228 122:0.0325019 123:0.756349 124:1 125:0.356321 126:1 127:0.83222 128:0 129:0.151546 130:0.0162344 131:0.895004 132:0.0378576 133:0.0526649 134:0.0144737 135:0.950156 136:0.0131537 137:0.0263325 138:0.0103583 139:0 140:0.00552678 141:0.0479497 142:0.0724408 143:0.842724 144:0.0474684 145:0.0115936 146:0.0446429 147:0.0714286 148:0.290792 149:0.0371886 150:0 151:0.143576 152:0.0600523 153:0.0714286 154:0.288532 155:0.0370022 156:0 157:0.142857 158:0 159:0.142857 160:0.502159 161:0.0834812 162:0.00649351 163:0.0708151 164:0.0513369 165:0.0779221 166:0.020066 167:0.0513625 168:0.296299 169:0.151825 170:0.263984 171:0.0272074 172:0.0441358 173:0.0671987 174:0.14367 175:0.0140671 176:0.000391739 177:0 178:0 179:0.194444 180:0.611111 181:0.388889 182:0.916667 183:0.611111 184:0.555556 185:0.643392 186:0.987196 187:0.5 188:0.61243 189:0.702193 190:0.5 191:0.5 192:0.5 193:0.652778 194:0.5 195:0.35 196:0 197:0 198:0 199:1.10715 200:1.0637 201:0.270947 202:0.131944 203:1.68421 204:0.305393 205:0.527778 206:0.486111 207:0.736111 208:0.0267857 209:0.0178571 210:0 211:0 212:0.119048 213:1 214:0 215:0 216:0.960501 217:0 218:0.0394987 219:0 220:0.978056 221:0 222:0.0219437 223:0 224:0.982445 225:0 226:0.017555 227:0 228:0 229:0 230:0 231:0.00145102 232:1 233:0 234:0 235:0 236:0.0714286 237:0.203337 238:0.120908 239:0 240:0.0714682 241:0.157756 242:0.0714286 243:0.178599 244:0.125075 245:0.0130282 246:0.129829 247:0 248:0.0714286 249:0.23954 250:0.114466 251:0.0714286 252:0.217938 253:0.142342 254:0.0714286 255:0.0220726 256:0.0636524 257:0.253689 258:0.117112 259:0.228569 260:0.0698859 261:0.0959679 262:0.077622 263:0.135938 264:0.00971674 265:0.000210095 266:0 267:0 268:0.194444 269:0.583333 270:0.388889 271:0.916667 272:0.694444 273:0.611111 274:0.648795 275:0.972805 276:0.572739 277:0.645479 278:0.308377 279:0.5 280:0.5 281:0.5 282:0.652778 283:0.45 284:0.3 285:0 286:0.403761 287:0 288:1.0637 289:1.10715 290:0.270947 291:0.309589 292:0.740228 293:0.290095 294:0.55 295:0.66496 296:0.545833 297:0.0732574 298:0.0946429 299:0.0102041 300:0.0204082 301:0.176407 302:1 303:0.0392857 304:0.5 305:0.905992 306:0.00706798 307:0.0707058 308:0.0162344 309:0.952464 310:0.0212039 311:0.0263325 312:0 313:0.939785 314:0.00517916 315:0.0394987 316:0.0155375 317:0 318:0 319:0.00135783 320:0.0285732 321:0.985585 322:0.00548659 323:0 324:0 325:0.0714286 326:0.204285 327:0.108439 328:0 329:0.101773 330:0.135152 331:0.0714286 332:0.210075 333:0.0974184 334:0.00868545 335:0.134172 336:0 337:0.0851438 338:0.273707 339:0.140996 340:0.0577134 341:0.15223 342:0.147353 343:0.0714286 344:0.0220726 345:0.0588869 346:0.223361 347:0.133241 348:0.204791 349:0.0836919 350:0.106794 351:0.0957338 352:0.131155 353:0.0105003 354:0.000235948 355:0 356:0 
0 6.072448599431402e-12 0 0 1:0.138889 2:0.5 3:0.361111 4:0.972222 5:0.722222 6:0.583333 7:0.69701 8:0.967837 9:0.624757 10:0.624757 11:0.128369 12:1 13:0.5 14:0.5 15:0.652778 16:0.423077 17:0.333333 18:0.0160148 19:0.136126 20:0 21:0.945311 22:1.13839 23:0.321751 24:0.867252 25:0.296274 26:0.273487 27:0.618056 28:0.55246 29:0.557764 30:0.0824442 31:0.122068 32:0.021302 33:0.0361111 34:0.295265 35:1 36:0.0629719 37:1 38:0.878936 39:0.00784775 40:0.0965216 41:0.016695 42:0.937107 43:0.0233322 44:0.036108 45:0.00345316 46:0.93489 47:0.00448537 48:0.049411 49:0.0112134 50:0 51:0.00985798 52:0.0323904 53:0.0347023 54:0.935571 55:0.0157946 56:0.00781797 57:0.0102041 58:0.0714286 59:0.293108 60:0.0261434 61:0 62:0.161105 63:0.0606202 64:0.0714286 65:0.283186 66:0.03298 67:0.00892857 68:0.133929 69:0 70:0.142857 71:0.546317 72:0.0509755 73:0 74:0.0854437 75:0.0315494 76:0.0714286 77:0.0220726 78:0.0582845 79:0.310434 80:0.17119 81:0.281983 82:0.0129933 83:0.0306702 84:0.0409436 85:0.138083 86:0.0125916 87:0.000314792 88:0 89:0 90:0.138889 91:0.555556 92:0.361111 93:0.972222 94:0.555556 95:0.472222 96:0.689994 97:0.995614 98:0.5 99:0.566082 100:0.294925 101:1 102:0.5 103:0.5 104:0.652778 105:0.5 106:0.416667 107:0 108:0 109:0 110:1.02225 111:1.07145 112:0.321751 113:0.356323 114:0.682121 115:0.290347 116:0.669643 117:0.427352 118:0.576699 119:0.0723944 120:0.142262 121:0.0153061 122:0.0306122 123:0.617063 124:1 125:0.228345 126:1 127:0.882104 128:0 129:0.10873 130:0.00916643 131:0.923434 132:0.0326785 133:0.0438874 134:0 135:0.953741 136:0.00517916 137:0.0307212 138:0.0103583 139:0 140:0 141:0.0111255 142:0.0637576 143:0.889932 144:0.0359742 145:0.0205222 146:0.0267857 147:0.0714286 148:0.259458 149:0.0692624 150:0 151:0.105415 152:0.105375 153:0.0714286 154:0.24198 155:0.0756524 156:0 157:0.142857 158:0 159:0.0940261 160:0.440048 161:0.0536117 162:0.0488311 163:0.15786 164:0.0627666 165:0.0714286 166:0.0220726 167:0.0493559 168:0.310706 169:0.145821 170:0.280954 171:0.0232159 172:0.0416124 173:0.054834 174:0.139116 175:0.0116414 176:0.00031064 177:0 178:0 179:0.194444 180:0.611111 181:0.388889 182:0.916667 183:0.611111 184:0.555556 185:0.643392 186:0.987196 187:0.5 188:0.61243 189:0.784804 190:0.5 191:0.5 192:0.5 193:0.652778 194:0.5 195:0.35 196:0 197:0 198:0 199:1.10715 200:1.0637 201:0.270947 202:0.118056 203:1.88235 204:0.303929 205:0.53125 206:0.515625 207:0.703125 208:0.0267857 209:0.0178571 210:0 211:0 212:0.0714286 213:1 214:0 215:0 216:0.969279 217:0 218:0.0307212 219:0 220:0.978056 221:0 222:0.0219437 223:0 224:0.982445 225:0 226:0.017555 227:0 228:0 229:0 230:0 231:0.00907942 232:1 233:0 234:0 235:0 236:0.0714286 237:0.203572 238:0.118468 239:0 240:0.0746484 241:0.157098 242:0.0714286 243:0.183211 244:0.120145 245:0.0130282 246:0.129829 247:0 248:0.0714286 249:0.241735 250:0.118464 251:0.0714286 252:0.208655 253:0.145431 254:0.0714286 255:0.0220726 256:0.0636524 257:0.24921 258:0.118194 259:0.224807 260:0.0717317 261:0.0994671 262:0.0794373 263:0.134859 264:0.00958332 265:0.000208863 266:0 267:0 268:0.194444 269:0.5 270:0.388889 271:0.972222 272:0.722222 273:0.611111 274:0.663441 275:0.963586 276:0.632453 277:0.632453 278:0.226811 279:0.5 280:0.5 281:0.5 282:0.638889 283:0.423077 284:0.3 285:0 286:0.630879 287:0 288:0.945311 289:1.20362 290:0.270947 291:0.462318 292:0.540754 293:0.272594 294:0.56875 295:0.681815 296:0.530685 297:0.117236 298:0.160308 299:0.0455567 300:0.0725624 301:0.246513 302:1 303:0.0392857 304:0.5 305:0.847094 306:0.0181232 307:0.105395 308:0.0293881 309:0.944489 310:0.0212039 311:0.0263325 312:0.00797455 313:0.909063 314:0.00517916 315:0.0702199 316:0.0155375 317:0 318:0.0227458 319:0.0410422 320:0.01832 321:0.958799 322:0.00548659 323:0 324:0 325:0.0714286 326:0.265704 327:0.0403562 328:0 329:0.169789 330:0.0728239 331:0.0714286 332:0.259841 333:0.0486287 334:0.00434273 335:0.138514 336:0 337:0.142857 338:0.354982 339:0.195227 340:0 341:0.0757657 342:0.0883111 343:0.0714286 344:0.0220726 345:0.0541214 346:0.223069 347:0.142725 348:0.198774 349:0.0755432 350:0.111268 351:0.100999 352:0.137589 353:0.0137469 354:0.000313994 355:0 356:0 
0 0 0 3.21735720283505e-12 1:0.184211 2:0.447368 3:0.394737 4:0.973684 5:0.763158 6:0.447368 7:0.654832 8:0.963352 9:0.685341 10:0.53089 11:0.113721 12:0.5 13:0.5 14:0.5 15:0.618421 16:0.4 17:0.45 18:0.0281029 19:0.39344 20:-0.0210771 21:0.902507 22:1.24905 23:0.257324 24:0.93641 25:0.274003 26:0.267612 27:0.642857 28:0.61331 29:0.536475 30:0.103011 31:0.135299 32:0.0527244 33:0.0727986 34:0.313165 35:1 36:0.0941481 37:1 38:0.889028 39:0.00668204 40:0.0915452 41:0.012745 42:0.923732 43:0.00781789 44:0.0469258 45:0.0215238 46:0.942652 47:0.00381911 48:0.0420714 49:0.0114573 50:0.000290935 51:0.0162747 52:0.05572 53:0.0436176 54:0.886454 55:0.0162644 56:0.0104454 57:0.013008 58:0.0714286 59:0.250672 60:0.0648303 61:0 62:0.207916 63:0.0614286 64:0.0714286 65:0.215051 66:0.0572457 67:0.00511821 68:0.137739 69:0 70:0.141601 71:0.333164 72:0.192611 73:0.0769397 74:0.0818045 75:0.0310231 76:0.112406 77:0.0365917 78:0.071848 79:0.220953 80:0.138842 81:0.201537 82:0.0517666 83:0.0947422 84:0.0713139 85:0.141115 86:0.0183185 87:0.000453918 88:0 89:0 90:0.194444 91:0.611111 92:0.388889 93:0.916667 94:0.611111 95:0.555556 96:0.643392 97:0.987196 98:0.5 99:0.61243 100:0.460057 101:0.5 102:0.5 103:0.5 104:0.652778 105:0.5 106:0.35 107:0 108:0 109:0 110:1.10715 111:1.0637 112:0.270947 113:0.201389 114:1.10345 115:0.304942 116:0.589286 117:0.508929 118:0.651786 119:0.0357143 120:0.0428571 121:0 122:0 123:0.214286 124:1 125:0.0119048 126:1 127:0.959818 128:0 129:0.040182 130:0 131:0.967124 132:0 133:0.0328762 134:0 135:0.970777 136:0 137:0.0292233 138:0 139:0 140:0 141:0.008474 142:0.0134807 143:0.971429 144:0 145:0 146:0 147:0.0714286 148:0.196444 149:0.126696 150:0 151:0.0711861 152:0.162313 153:0.0714286 154:0.170965 155:0.129539 156:0.0110238 157:0.131833 158:0 159:0.0714286 160:0.228923 161:0.114577 162:0.0714286 163:0.22001 164:0.150776 165:0.0714286 166:0.0220726 167:0.061453 168:0.255035 169:0.115847 170:0.222024 171:0.0679323 172:0.0974205 173:0.0867865 174:0.135716 175:0.0097245 176:0.000214067 177:0 178:0 179:0.194444 180:0.5 181:0.388889 182:0.972222 183:0.722222 184:0.611111 185:0.663441 186:0.963586 187:0.632453 188:0.632453 189:0.217031 190:0.5 191:0.5 192:0.5 193:0.638889 194:0.423077 195:0.3 196:0.0574929 197:0.589303 198:0 199:0.945311 200:1.20362 201:0.270947 202:0.483151 203:0.517436 204:0.273086 205:0.575581 206:0.663316 207:0.540172 208:0.0937888 209:0.128247 210:0.035433 211:0.0564374 212:0.184885 213:1 214:0.0261905 215:0.5 216:0.869078 217:0.0150846 218:0.091377 219:0.0244608 220:0.953796 221:0.0176488 222:0.0219174 223:0.0066375 224:0.917004 225:0.00431079 226:0.0657523 227:0.0129324 228:0 229:0.0185831 230:0.0335312 231:0.0168307 232:0.967039 233:0.00438927 234:0 235:0 236:0.0714286 237:0.275181 238:0.0341476 239:0 240:0.171011 241:0.0678214 242:0.0714286 243:0.266253 244:0.0427287 245:0.0110238 246:0.131833 247:0 248:0.142857 249:0.36334 250:0.205375 251:0 252:0.0676097 253:0.0779602 254:0.0714286 255:0.0220726 256:0.061453 257:0.225098 258:0.138874 259:0.194898 260:0.0767462 261:0.110631 262:0.0987985 263:0.137118 264:0.01327 265:0.000304269 266:0 267:0 268:0.184211 269:0.447368 270:0.394737 271:0.973684 272:0.763158 273:0.447368 274:0.654832 275:0.963352 276:0.685341 277:0.53089 278:0.161994 279:0 280:0.5 281:0.5 282:0.618421 283:0.4 284:0.45 285:0 286:0.560448 287:0 288:0.902507 289:1.24905 290:0.257324 291:0.657369 292:0.390312 293:0.274177 294:0.678571 295:0.639247 296:0.505235 297:0.202808 298:0.288528 299:0.149245 300:0.200539 301:0.572775 302:1 303:0.254014 304:1 305:0.799046 306:0.0164649 307:0.15779 308:0.026699 309:0.859919 310:0.0192637 311:0.0677817 312:0.0530358 313:0.910525 314:0.00941049 315:0.0518331 316:0.0282315 317:0.000759779 318:0.0411378 319:0.128638 320:0.10137 321:0.751705 322:0.033625 323:0.029015 324:0.0246991 325:0.0714286 326:0.151592 327:0.151271 328:0 329:0.181587 330:0.110935 331:0.0714286 332:0.131732 333:0.130026 334:0 335:0.142857 336:0 337:0.139926 338:0.199995 339:0.110229 340:0.179526 341:0.171629 342:0.0558388 343:0.167042 344:0.0529664 345:0.0902817 346:0.174967 347:0.158461 348:0.184199 349:0.0304534 350:0.0793536 351:0.0622749 352:0.152473 353:0.0243601 354:0.000601497 355:0 356:0 
3.316260215852702e-11 6.355411488254653e-12 0 0 1:0.184211 2:0.447368 3:0.394737 4:0.973684 5:0.763158 6:0.447368 7:0.654832 8:0.963352 9:0.685341 10:0.53089 11:0.117009 12:0.5 13:0.5 14:0.5 15:0.618421 16:0.4 17:0.45 18:0.0289155 19:0.404816 20:-0.0216866 21:0.902507 22:1.24905 23:0.257324 24:0.910094 25:0.281926 26:0.269648 27:0.64604 28:0.607897 29:0.540394 30:0.0972965 31:0.12387 32:0.0527244 33:0.0727986 34:0.294531 35:1 36:0.0930143 37:1 38:0.889028 39:0.00668204 40:0.0915452 41:0.012745 42:0.925351 43:0.00781789 44:0.0453077 45:0.0215238 46:0.947507 47:0.00381911 48:0.037217 49:0.0114573 50:0.000290935 51:0.0162439 52:0.0502888 53:0.0414592 54:0.892169 55:0.0162644 56:0.0104454 57:0.013008 58:0.0714286 59:0.243153 60:0.0718417 61:0 62:0.20522 63:0.0656022 64:0.0714286 65:0.208067 66:0.063259 67:0.00511821 68:0.137739 69:0 70:0.141165 71:0.324501 72:0.183217 73:0.0924688 74:0.0850475 75:0.0307432 76:0.1185 77:0.0394833 78:0.0770546 79:0.216514 80:0.139503 81:0.20044 82:0.0498163 83:0.0917644 84:0.0669243 85:0.143388 86:0.0193687 87:0.000474392 88:0 89:0 90:0.194444 91:0.611111 92:0.388889 93:0.916667 94:0.611111 95:0.555556 96:0.643392 97:0.987196 98:0.5 99:0.61243 100:0.533667 101:0.5 102:0.5 103:0.5 104:0.652778 105:0.5 106:0.35 107:0 108:0 109:0 110:1.10715 111:1.0637 112:0.270947 113:0.173611 114:1.28 115:0.304885 116:0.59375 117:0.46875 118:0.6875 119:0.0214286 120:0.0142857 121:0 122:0 123:0.142857 124:1 125:7.14171e-34 126:1 127:0.959818 128:0 129:0.040182 130:0 131:0.970777 132:0 133:0.0292233 134:0 135:0.981735 136:0 137:0.0182645 138:0 139:0 140:0 141:0.000390799 142:0.00849197 143:0.985714 144:0 145:0 146:0 147:0.0714286 148:0.199348 149:0.124229 150:0 151:0.071877 152:0.159756 153:0.0714286 154:0.175716 155:0.126217 156:0.0110238 157:0.131833 158:0 159:0.0714286 160:0.234228 161:0.115487 162:0.0714286 163:0.216817 164:0.147753 165:0.0714286 166:0.0220726 167:0.061453 168:0.253022 169:0.116768 170:0.226142 171:0.0699458 172:0.0976842 173:0.0814841 174:0.135655 175:0.00969385 176:0.000211193 177:0 178:0 179:0.194444 180:0.472222 181:0.388889 182:0.972222 183:0.75 184:0.611111 185:0.659441 186:0.954699 187:0.662392 188:0.629914 189:0.182328 190:0.5 191:0.5 192:0.5 193:0.638889 194:0.410714 195:0.3 196:0 197:0.65139 198:0 199:0.909753 200:1.22777 201:0.270947 202:0.586353 203:0.438208 204:0.269792 205:0.6025 206:0.692952 207:0.521597 208:0.122585 209:0.164437 210:0.0819331 211:0.109473 212:0.270413 213:1 214:0.0761544 215:0.593215 216:0.833499 217:0.0150846 218:0.122645 219:0.0287716 220:0.929087 221:0.0176488 222:0.0219174 223:0.0313465 224:0.916347 225:0.00862159 226:0.0620994 227:0.0129324 228:0.00314682 229:0.0380351 230:0.05804 231:0.0285466 232:0.903887 233:0.0144267 234:0.00975133 235:0.01794 236:0.0714286 237:0.254269 238:0.0454877 239:0 240:0.198695 241:0.0657967 242:0.0714286 243:0.247833 244:0.0450615 245:0.00734923 246:0.135508 247:0 248:0.142857 249:0.336639 250:0.217298 251:0.00967243 252:0.0840059 253:0.0666704 254:0.0794933 255:0.0220726 256:0.0574206 257:0.222858 258:0.142795 259:0.195051 260:0.0652493 261:0.112526 262:0.102534 263:0.14417 264:0.0169674 265:0.00042826 266:0 267:0 268:0.131579 269:0.447368 270:0.394737 271:0.973684 272:0.763158 273:0.447368 274:0.69249 275:0.967365 276:0.675262 277:0.52921 278:0.180333 279:1 280:0.5 281:0.5 282:0.631579 283:0.4 284:0.45 285:0 286:0.58997 287:0 288:0.902507 289:1.24905 290:0.257324 291:0.624474 292:0.410872 293:0.276339 294:0.689655 295:0.642631 296:0.497066 297:0.181341 298:0.244084 299:0.118311 300:0.154904 301:0.495436 302:1 303:0.178649 304:1 305:0.799046 306:0.0164649 307:0.15779 308:0.026699 309:0.867893 310:0.0192637 311:0.0598074 312:0.0530358 313:0.922486 314:0.00941049 315:0.0398716 316:0.0282315 317:0 318:0.0292948 319:0.0755976 320:0.0926704 321:0.797199 322:0.0243524 323:0.0380206 324:0.0270908 325:0.0714286 326:0.134047 327:0.167631 328:0 329:0.174233 330:0.120963 331:0.0714286 332:0.11593 333:0.144339 334:0 335:0.142857 336:0 337:0.138909 338:0.170744 339:0.0979968 340:0.21576 341:0.178696 342:0.0550365 343:0.181262 344:0.0597136 345:0.10243 346:0.16461 347:0.156994 348:0.1761 349:0.0259025 350:0.0745571 351:0.0584304 352:0.154542 353:0.0252697 354:0.000608326 355:0 356:0 
0 2.899554845733914e-11 0 0 1:0.184211 2:0.447368 3:0.368421 4:0.973684 5:0.763158 6:0.473684 7:0.652721 8:0.960721 9:0.684289 10:0.56143 11:0.109733 12:0.5 13:0.5 14:1 15:0.618421 16:0.4 17:0.416667 18:0.00674085 19:0.350524 20:-0.0134817 21:0.902507 22:1.19029 23:0.305879 24:0.975983 25:0.269634 26:0.253164 27:0.640351 28:0.623454 29:0.52806 30:0.137425 31:0.195163 32:0.0954396 33:0.0773163 34:0.402223 35:1 36:0.139761 37:1 38:0.879568 39:0.00966511 40:0.0993748 41:0.0113917 42:0.887492 43:0.009149 44:0.0741165 45:0.0292424 46:0.930063 47:0.00897075 48:0.0475106 49:0.0134561 50:0.00190855 51:0.0285169 52:0.0625345 53:0.0487188 54:0.845853 55:0.0166354 56:0.0116067 57:0.0306672 58:0.0714286 59:0.260057 60:0.0465788 61:0 62:0.243534 63:0.0381911 64:0.0714286 65:0.227507 66:0.0412746 67:0 68:0.142857 69:0 70:0.146019 71:0.386609 72:0.196245 73:0.0206475 74:0.0914499 75:0.0161725 76:0.0885021 77:0.0217266 78:0.056438 79:0.23235 80:0.162416 81:0.230091 82:0.0556865 83:0.0898946 84:0.0628942 85:0.130074 86:0.0148291 87:0.000449187 88:0 89:0 90:0.184211 91:0.605263 92:0.368421 93:0.868421 94:0.605263 95:0.578947 96:0.622117 97:0.97789 98:0.5 99:0.647043 100:0.343815 101:0.5 102:0.5 103:1 104:0.644737 105:0.5 106:0.333333 107:0 108:0 109:0 110:1.12842 111:0.982794 112:0.305879 113:0.260266 114:0.859444 115:0.279693 116:0.523649 117:0.557432 118:0.672297 119:0.121502 120:0.14881 121:0.0510204 122:0.0612245 123:0.430556 124:1 125:0.10119 126:1 127:0.946545 128:0 129:0.0482762 130:0.00517916 131:0.924601 132:0 133:0.0702199 134:0.00517916 135:0.944964 136:0.0103583 137:0.0394987 138:0.00517916 139:0 140:8.95568e-05 141:0.00791044 142:0.0100753 143:0.910714 144:0.00892857 145:0 146:0.0178571 147:0.0714286 148:0.1834 149:0.125866 150:0 151:0.103108 152:0.165425 153:0.0714286 154:0.159732 155:0.119611 156:0 157:0.142857 158:0 159:0.0714286 160:0.248248 161:0.118092 162:0.0714286 163:0.207438 164:0.140508 165:0.0714286 166:0.0175324 167:0.0538962 168:0.218585 169:0.130764 170:0.251338 171:0.0878605 172:0.112279 173:0.0563163 174:0.116409 175:0.0074395 176:0.000163558 177:0 178:0 179:0.184211 180:0.605263 181:0.421053 182:0.868421 183:0.605263 184:0.526316 185:0.601602 186:0.994186 187:0.5 188:0.576029 189:0.4629 190:0.5 191:0.5 192:0.5 193:0.644737 194:0.5 195:0.416667 196:0 197:0 198:0 199:1.12842 200:0.982794 201:0.305879 202:0.186936 203:1.19658 204:0.276736 205:0.657407 206:0.611111 207:0.49537 208:0.0357143 209:0.0357143 210:0 211:0 212:0.238095 213:1 214:0.0357143 215:0.5 216:0.956113 217:0 218:0.0438874 219:0 220:0.950933 221:0 222:0.0438874 223:0.00517916 224:0.969279 225:0 226:0.0307212 227:0 228:0 229:0.00277542 230:0.00819627 231:0.0127509 232:0.991071 233:0 234:0 235:0.00892857 236:0.0714286 237:0.185522 238:0.124333 239:0 240:0.107124 241:0.164972 242:0.0714286 243:0.15627 244:0.118921 245:0 246:0.142857 247:0 248:0.0714286 249:0.215305 250:0.144673 251:0.0714286 252:0.198173 253:0.156134 254:0.0714286 255:0.0093985 256:0.0620301 257:0.228325 258:0.12354 259:0.206443 260:0.0781202 261:0.132451 262:0.0882632 263:0.113277 264:0.00720914 265:0.000147289 266:0 267:0 268:0.184211 269:0.447368 270:0.421053 271:0.973684 272:0.763158 273:0.473684 274:0.649016 275:0.963352 276:0.685341 277:0.53089 278:0.165524 279:0.5 280:0.5 281:0 282:0.618421 283:0.4 284:0.458333 285:0 286:0.582888 287:0 288:0.902507 289:1.19029 290:0.305879 291:0.643348 292:0.409045 293:0.257264 294:0.686538 295:0.672289 296:0.462674 297:0.203524 298:0.327778 299:0.221664 300:0.159679 301:0.569343 302:1 303:0.332081 304:1 305:0.788503 306:0.0223201 307:0.168049 308:0.0211283 309:0.837522 310:0.0211283 311:0.0789974 312:0.0623519 313:0.911081 314:0.0103583 315:0.0526649 316:0.0258958 317:0.00468739 318:0.0688377 319:0.125806 320:0.12778 321:0.747149 322:0.0347392 323:0.0304676 324:0.0269301 325:0.0714286 326:0.203231 327:0.101627 328:0 329:0.217703 330:0.0743359 331:0.0714286 332:0.171741 333:0.0885059 334:0 335:0.142857 336:0 337:0.149756 338:0.324784 339:0.117796 340:0.0450491 341:0.191999 342:0.0277577 343:0.10868 344:0.0281622 345:0.0579631 346:0.24771 347:0.200033 348:0.214418 349:0.0189605 350:0.0604042 351:0.0636689 352:0.139109 353:0.0196169 354:0.000607571 355:0 356:0 
0 5.363778495115693e-11 0 0 1:0.184211 2:0.447368 3:0.421053 4:0.973684 5:0.763158 6:0.473684 7:0.649016 8:0.963352 9:0.685341 10:0.53089 11:0.110712 12:0.5 13:0.5 14:0.5 15:0.618421 16:0.4 17:0.375 18:0 19:0.417228 20:-0.0205194 21:0.902507 22:1.19029 23:0.305879 24:0.961862 25:0.273592 26:0.267166 27:0.67146 28:0.63229 29:0.490697 30:0.106532 31:0.150926 32:0.0690158 33:0.0517036 34:0.307981 35:1 36:0.129466 37:1 38:0.903889 39:0.00854683 40:0.0794742 41:0.00809044 42:0.892107 43:0.00809044 44:0.0739437 45:0.025859 46:0.944104 47:0.00396641 48:0.0420135 49:0.00991601 50:0.00167887 51:0.025683 52:0.0520636 53:0.0551034 54:0.883319 55:0.0126484 56:0.0123566 57:0.0261999 58:0.0714286 59:0.210719 60:0.087068 61:0 62:0.226561 63:0.0692353 64:0.0714286 65:0.181035 66:0.0825239 67:0 68:0.142857 69:0 70:0.151835 71:0.309149 72:0.151937 73:0.131234 74:0.101242 75:0.0117468 76:0.119326 77:0.0622169 78:0.101526 79:0.207458 80:0.158417 81:0.190877 82:0.0412462 83:0.0674858 84:0.0514472 85:0.145716 86:0.0216785 87:0.000706761 88:0 89:0 90:0.184211 91:0.605263 92:0.421053 93:0.868421 94:0.605263 95:0.526316 96:0.601602 97:0.994186 98:0.5 99:0.576029 100:0.333711 101:0.5 102:0.5 103:0.5 104:0.644737 105:0.5 106:0.333333 107:0 108:0 109:0 110:1.12842 111:0.982794 112:0.305879 113:0.259304 114:0.862633 115:0.277862 116:0.598684 117:0.611842 118:0.549342 119:0.0555556 120:0.047619 121:0 122:0 123:0.22449 124:1 125:4.28503e-34 126:1 127:0.948167 128:0 129:0.0518331 130:0 131:0.939475 132:0 133:0.0558202 134:0.00470525 135:0.956141 136:0 137:0.0438588 138:0 139:0 140:0.0019775 141:0.00978749 142:0.0128457 143:0.992063 144:0 145:0 146:0 147:0.0714286 148:0.190551 149:0.120177 150:0 151:0.108855 152:0.160886 153:0.0714286 154:0.161359 155:0.115314 156:0 157:0.142857 158:0 159:0.0714286 160:0.235449 161:0.14094 162:0.0714286 163:0.191192 164:0.146704 165:0.0714286 166:0.0118839 167:0.0595447 168:0.222512 169:0.126468 170:0.222326 171:0.0831008 172:0.126021 173:0.0767144 174:0.114339 175:0.00722567 176:0.000148675 177:0 178:0 179:0.184211 180:0.473684 181:0.421053 182:0.973684 183:0.789474 184:0.473684 185:0.664696 186:0.963352 187:0.685341 188:0.53089 189:0.163849 190:0.5 191:0.5 192:0.5 193:0.618421 194:0.392857 195:0.458333 196:0 197:0.576988 198:0 199:0.93577 200:1.1659 201:0.305879 202:0.649927 203:0.394781 204:0.259205 205:0.698864 206:0.673467 207:0.448088 208:0.141228 209:0.275485 210:0.185028 211:0.121862 212:0.495945 213:1 214:0.263726 215:1 216:0.803868 217:0.0202778 218:0.156659 219:0.019195 220:0.85239 221:0.019195 222:0.0717689 223:0.0566465 224:0.919217 225:0.00941049 226:0.0478459 227:0.0235262 228:0.00237119 229:0.0485515 230:0.120637 231:0.123796 232:0.78318 233:0.0303168 234:0.0223538 235:0.0371654 236:0.0714286 237:0.220125 238:0.0858695 239:0 240:0.214722 241:0.0736672 242:0.0714286 243:0.188826 244:0.0739333 245:0 246:0.142857 247:0 248:0.144558 249:0.320322 250:0.153799 251:0.0459184 252:0.160445 253:0.0321008 254:0.110276 255:0.0218985 256:0.058302 257:0.234569 258:0.187654 259:0.204056 260:0.0308343 261:0.0782446 262:0.0741651 263:0.13389 264:0.017426 265:0.000538487 266:0 267:0 268:0.184211 269:0.447368 270:0.394737 271:0.973684 272:0.763158 273:0.5 274:0.658571 275:0.960721 276:0.684289 277:0.56143 278:0.3788 279:0.5 280:0.5 281:0.5 282:0.618421 283:0.4 284:0.5 285:0 286:0 287:0 288:0.902507 289:1.24905 290:0.257324 291:0.282728 292:0.907511 293:0.279638 294:0.778125 295:0.584375 296:0.41875 297:0.123874 298:0.153439 299:0.0133929 300:0.0267857 301:0.184014 302:1 303:0.0285714 304:1 305:0.967385 306:0.00470525 307:0.0279101 308:0 309:0.8815 310:0 311:0.099679 312:0.018821 313:0.967385 314:0 315:0.0279101 316:0.00470525 317:0 318:0.00723289 319:0.0319947 320:0.0485992 321:0.972222 322:0.00396825 323:0 324:0.00793651 325:0.0714286 326:0.104217 327:0.182501 328:0 329:0.175958 330:0.136513 331:0.0714286 332:0.0848037 333:0.17315 334:0 335:0.142857 336:0 337:0.139461 338:0.167744 339:0.0497029 340:0.243743 341:0.235395 342:0.0210965 343:0.151084 344:0.0953821 345:0.127869 346:0.202364 347:0.155872 348:0.190536 349:0.0012414 350:0.0504228 351:0.0252284 352:0.15742 353:0.0261392 354:0.000443849 355:0 356:0 
8.552462040562969e-12 3.77921654673221e-12 0 0 1:0.184211 2:0.447368 3:0.394737 4:0.921053 5:0.763158 6:0.447368 7:0.605747 8:0.958585 9:0.696537 10:0.532756 11:0.104982 12:0.5 13:0.5 14:0 15:0.657895 16:0.4 17:0.392857 18:0 19:0.28886 20:-0.0206329 21:0.902507 22:1.13417 23:0.35299 24:0.956573 25:0.281983 26:0.257839 27:0.707143 28:0.597892 29:0.485169 30:0.147363 31:0.170229 32:0.0615005 33:0.0521049 34:0.215081 35:1 36:0.0641633 37:1 38:0.879595 39:0.0120568 40:0.100149 41:0.00819968 42:0.880529 43:0.0233101 44:0.0621799 45:0.0339813 46:0.957716 47:0.00793281 48:0.0184859 49:0.0158656 50:0 51:0.0245896 52:0.0921112 53:0.0432352 54:0.883313 55:0.0122039 56:0.0157589 57:0.00579994 58:0.0714286 59:0.245052 60:0.0457208 61:0 62:0.225998 63:0.0533294 64:0.0714286 65:0.238787 66:0.0482552 67:0.0814245 68:0.0614326 69:0 70:0.217958 71:0.347456 72:0.14247 73:0.0429004 74:0.083425 75:0.0229337 76:0.135128 77:0.0993525 78:0.107837 79:0.175619 80:0.133588 81:0.199948 82:0.050714 83:0.0403996 84:0.0574141 85:0.136578 86:0.0174209 87:0.000666256 88:0 89:0 90:0.184211 91:0.552632 92:0.394737 93:0.921053 94:0.552632 95:0.552632 96:0.621341 97:0.988901 98:0.5 99:0.604765 100:0.324933 101:0.5 102:0.5 103:0 104:0.657895 105:0.5 106:0.321429 107:0 108:0 109:0.0226943 110:1.046 111:1.00407 112:0.35299 113:0.289894 114:0.839689 115:0.272258 116:0.674242 117:0.446285 118:0.568866 119:0.144224 120:0.092304 121:0.0357143 122:0.0178571 123:0.0941043 124:1 125:4.28503e-34 126:1 127:0.932176 128:0.00362243 129:0.0614024 130:0.00279881 131:0.901273 132:0.0194542 133:0.0717689 134:0.00750405 135:0.971769 136:0.00941049 137:0 138:0.018821 139:0 140:0 141:0.00619313 142:0.00100111 143:0.968254 144:0 145:0.015873 146:3.52452e-18 147:0.0714286 148:0.255683 149:0.0613296 150:0 151:0.13941 152:0.0859086 153:0.0714286 154:0.265135 155:0.0496762 156:0.0814245 157:0.0614326 158:0 159:0.127131 160:0.413369 161:0.102752 162:0.0617844 163:0.105233 164:0.0468732 165:0.112141 166:0.0566837 167:0.104087 168:0.206054 169:0.143596 170:0.222126 171:0.0649816 172:0.0360629 173:0.0542684 174:0.123542 175:0.00924683 176:0.000256539 177:0 178:0 179:0.184211 180:0.631579 181:0.368421 182:0.868421 183:0.631579 184:0.578947 185:0.633484 186:0.97789 187:0.5 188:0.647043 189:0.934136 190:0.5 191:0.5 192:0.5 193:0.644737 194:0.5 195:0.416667 196:0 197:0 198:0 199:1.17227 200:0.927295 201:0.305879 202:0.0957926 203:2.26641 204:0.288893 205:0.604167 206:0.635417 207:0.520833 208:0.015873 209:2.38057e-34 210:0 211:0 212:0 213:0 214:0 215:0 216:0.975359 217:0 218:0.0199358 219:0.00470525 220:0.974641 221:0.00941049 222:0.0159486 223:0 224:0.982615 225:0 226:0.00797432 227:0.00941049 228:0 229:0 230:0 231:0 232:1 233:0 234:0 235:0 236:0.0714286 237:0.123931 238:0.182903 239:0 240:0.0614921 241:0.193479 242:0.0714286 243:0.112197 244:0.183141 245:0 246:0.142857 247:0 248:0.0475698 249:0.13231 250:0.13261 251:0.0952873 252:0.293266 253:0.1561 254:0.0714286 255:0.00704887 256:0.0643797 257:0.190843 258:0.18181 259:0.195013 260:0.113462 261:0.059056 262:0.11696 263:0.120751 264:0.00829146 265:0.000225044 266:0 267:0 268:0.184211 269:0.447368 270:0.342105 271:0.921053 272:0.763158 273:0.447368 274:0.609634 275:0.955661 276:0.695283 277:0.565094 278:0.150118 279:0.5 280:0.5 281:0.5 282:0.631579 283:0.4 284:0.5 285:0 286:0.576537 287:0 288:0.902507 289:1.13417 290:0.35299 291:0.673257 292:0.400645 293:0.262228 294:0.722222 295:0.667378 296:0.446808 297:0.248744 298:0.36164 299:0.1411 300:0.131944 301:0.543768 302:1 303:0.231226 304:1 305:0.782156 306:0.024983 307:0.176205 308:0.0166553 309:0.815275 310:0.0358503 311:0.075756 312:0.0731183 313:0.92791 314:0.00941049 315:0.0438588 316:0.018821 317:0 318:0.0617392 319:0.211668 320:0.0926294 321:0.740095 322:0.0289027 323:0.0197764 324:0.0139043 325:0.0714286 326:0.174122 327:0.0949012 328:0 329:0.203769 330:0.110402 331:0.0714286 332:0.166083 333:0.107865 334:0.0814245 335:0.0614326 336:0 337:0.25445 338:0.185801 339:0.0975541 340:0.0931069 341:0.180709 342:0.0455223 343:0.163863 344:0.153772 345:0.112673 346:0.136398 347:0.121255 348:0.174099 349:0.0341294 350:0.0441583 351:0.0596533 352:0.143706 353:0.0223868 354:0.000981617 355:0 356:0 
1.325517052015645e-11 2.781325800369793e-11 0 0 1:0.184211 2:0.447368 3:0.368421 4:0.921053 5:0.763158 6:0.473684 7:0.602559 8:0.955661 9:0.695283 10:0.565094 11:0.108322 12:0.5 13:0.5 14:0.5 15:0.631579 16:0.4 17:0.5 18:0 19:0.366661 20:-0.0211535 21:0.902507 22:1.08084 23:0.398522 24:0.933029 25:0.296149 26:0.25963 27:0.71789 28:0.608268 29:0.478625 30:0.133179 31:0.157584 32:0.0489098 33:0.0405983 34:0.215303 35:1 36:0.0595899 37:1 38:0.898122 39:0.00943803 40:0.0861478 41:0.00629202 42:0.889967 43:0.0170985 44:0.0617567 45:0.0311775 46:0.966198 47:0.00355507 48:0.0195814 49:0.0106652 50:0 51:0.0224069 52:0.0861599 53:0.0397457 54:0.897207 55:0.0138877 56:0.0126851 57:0.0051555 58:0.0714286 59:0.225389 60:0.0610843 61:0 62:0.216123 63:0.0703776 64:0.0714286 65:0.215816 66:0.0683527 67:0 68:0.142857 69:0 70:0.156588 71:0.346492 72:0.149812 73:0.051928 74:0.130793 75:0.0215296 76:0.103435 77:0.0540441 78:0.0511272 79:0.192683 80:0.19115 81:0.242154 82:0.0585346 83:0.0399721 84:0.0668989 85:0.142072 86:0.0203647 87:0.000830948 88:0 89:0 90:0.184211 91:0.605263 92:0.368421 93:0.921053 94:0.605263 95:0.578947 96:0.665969 97:0.980762 98:0.5 99:0.637361 100:0.518691 101:0.5 102:0.5 103:0.5 104:0.631579 105:0.5 106:0.416667 107:0 108:0 109:0 110:1.12842 111:0.982794 112:0.305879 113:0.184678 114:1.21121 115:0.284563 116:0.69 117:0.44 118:0.595 119:0.114286 120:0.0571429 121:0.015873 122:2.38057e-34 123:0.0535714 124:1 125:3.57086e-34 126:1 127:0.963471 128:0 129:0.0365291 130:0 131:0.932274 132:0.00862159 133:0.0547936 134:0.00431079 135:0.991378 136:0 137:0 138:0.00862159 139:0 140:0 141:0.00269398 142:0.00384196 143:0.985714 144:0 145:0.00714286 146:0 147:0.0714286 148:0.179085 149:0.131364 150:0 151:0.098074 152:0.150363 153:0.0714286 154:0.1811 155:0.117157 156:0 157:0.142857 158:0 159:0.0714286 160:0.208986 161:0.144408 162:0.0769231 163:0.24097 164:0.114428 165:0.0714286 166:0.0153171 167:0.0616059 168:0.196716 169:0.184108 170:0.21089 171:0.109668 172:0.0476759 173:0.10259 174:0.121405 175:0.00836294 176:0.000218164 177:0 178:0 179:0.184211 180:0.5 181:0.342105 182:0.868421 183:0.710526 184:0.552632 185:0.589195 186:0.958475 187:0.641069 188:0.641069 189:0.20738 190:0.5 191:0.5 192:0.5 193:0.644737 194:0.423077 195:0.428571 196:0 197:0.658236 198:0 199:0.970746 200:1.07685 201:0.35299 202:0.449767 203:0.570471 204:0.262339 205:0.622093 206:0.704679 207:0.474888 208:0.112383 209:0.173095 210:0.0817711 211:0.0934744 212:0.219572 213:0.75 214:0.021189 215:1 216:0.860181 217:0.014267 218:0.110293 219:0.0152591 220:0.917704 221:0.0328449 222:0.0255704 223:0.0238807 224:0.944912 225:0.00862159 226:0.0292233 227:0.0172432 228:0 229:0.0301866 230:0.107656 231:0.0469224 232:0.918152 233:0.00327703 234:0.01901 235:0.00241859 236:0.0714286 237:0.257742 238:0.0406324 239:0 240:0.180364 241:0.0774802 242:0.0714286 243:0.245426 244:0.055498 245:0.0814245 246:0.0614326 247:0 248:0.194893 249:0.352967 250:0.138387 251:0.0227195 252:0.0850256 253:0.0631502 254:0.112562 255:0.081474 256:0.10715 257:0.19225 258:0.128806 259:0.177857 260:0.0605811 261:0.0588314 262:0.0804885 263:0.127726 264:0.0136277 265:0.000476329 266:0 267:0 268:0.184211 269:0.447368 270:0.368421 271:0.921053 272:0.763158 273:0.473684 274:0.602559 275:0.955661 276:0.695283 277:0.565094 278:0.188536 279:0.5 280:0.5 281:0.5 282:0.631579 283:0.4 284:0.4375 285:0 286:0.490907 287:0 288:0.902507 289:1.08084 290:0.398522 291:0.536065 292:0.515452 293:0.259531 294:0.780242 295:0.640303 296:0.425039 297:0.162905 298:0.239048 299:0.0436508 300:0.0238095 301:0.330038 302:1 303:0.0547619 304:1 305:0.854675 306:0.0129324 307:0.129073 308:0.00331875 309:0.847679 310:0.00431079 311:0.0767111 312:0.0712994 313:0.966466 314:0 315:0.0292233 316:0.00431079 317:0 318:0.0274592 319:0.104161 320:0.0784905 321:0.910468 322:0.0209159 323:0.0142273 324:0.00438927 325:0.0714286 326:0.115957 327:0.140964 328:0 329:0.175489 330:0.157581 331:0.0714286 332:0.109414 333:0.157737 334:0 335:0.142857 336:0 337:0.19489 338:0.144168 339:0.0513858 340:0.118989 341:0.298026 342:0.0496836 343:0.14529 344:0.108663 345:0.0599369 346:0.154504 347:0.185123 348:0.245825 349:0.0241442 350:0.0320421 351:0.0444726 352:0.146529 353:0.0241057 354:0.00102459 355:0 356:0 
0 3.127799654859619e-11 0 0 1:0.184211 2:0.447368 3:0.368421 4:0.973684 5:0.763158 6:0.473684 7:0.638508 8:0.960721 9:0.684289 10:0.56143 11:0.113844 12:0.5 13:0.5 14:0.5 15:0.618421 16:0.4 17:0.5 18:0 19:0.405617 20:-0.0209802 21:0.902507 22:1.08084 23:0.398522 24:0.940737 25:0.293723 26:0.264875 27:0.716216 28:0.619831 29:0.474506 30:0.111386 31:0.128034 32:0.0423885 33:0.0351852 34:0.210236 35:1 36:0.0613438 37:1 38:0.913144 39:0.00829155 40:0.0730364 41:0.0055277 42:0.905133 43:0.0118983 44:0.0555781 45:0.0273902 46:0.966335 47:0.00312322 48:0.0211726 49:0.00936967 50:0 51:0.0197516 52:0.0763498 53:0.0358676 54:0.905862 55:0.0120958 56:0.0110484 57:0.00909857 58:0.0714286 59:0.201787 60:0.0797734 61:0 62:0.205559 63:0.0860062 64:0.0714286 65:0.193708 66:0.0903097 67:0 68:0.142857 69:0 70:0.157231 71:0.314498 72:0.12393 73:0.0868136 74:0.155674 75:0.0189967 76:0.128515 77:0.0628449 78:0.0527274 79:0.174924 80:0.190293 81:0.2529 82:0.047645 83:0.033731 84:0.0564203 85:0.148564 86:0.0233302 87:0.000973253 88:0 89:0 90:0.184211 91:0.605263 92:0.394737 93:0.921053 94:0.605263 95:0.605263 96:0.673767 97:0.980762 98:0.5 99:0.637361 100:0.654608 101:0.5 102:0.5 103:0.5 104:0.631579 105:0.5 106:0.4 107:0 108:0 109:0 110:1.12842 111:1.0637 112:0.257324 113:0.146333 114:1.48364 115:0.287357 116:0.6875 117:0.4875 118:0.58125 119:0.0833333 120:0.0238095 121:0.012987 122:1.94774e-34 123:0.0285714 124:1 125:0 126:0 127:0.984358 128:0 129:0.0156419 130:0 131:0.949382 132:0 133:0.0469258 134:0.00369181 135:0.992616 136:0 137:0 138:0.00738362 139:0 140:0 141:0 142:0.00537562 143:0.994048 144:0 145:0.00595238 146:0 147:0.0714286 148:0.190792 149:0.120112 150:0 151:0.100993 152:0.147238 153:0.0714286 154:0.180975 155:0.117033 156:0 157:0.142857 158:0 159:0.0611765 160:0.134041 161:0.276024 162:0.0651043 163:0.174913 164:0.145883 165:0.0714286 166:0.0127749 167:0.0490933 168:0.121384 169:0.144289 170:0.142382 171:0.195567 172:0.0735506 173:0.189531 174:0.12094 175:0.00815146 176:0.000209205 177:0 178:0 179:0.184211 180:0.473684 181:0.342105 182:0.921053 183:0.736842 184:0.5 185:0.616067 186:0.961566 187:0.664845 188:0.598907 189:0.154607 190:0.5 191:0.5 192:0.5 193:0.631579 194:0.410714 195:0.464286 196:0 197:0.57089 198:0 199:0.93577 200:1.10715 201:0.35299 202:0.645345 203:0.407779 204:0.266046 205:0.713768 206:0.665597 207:0.448118 208:0.186558 209:0.27123 210:0.102618 211:0.0959596 212:0.378733 213:1 214:0.137988 215:1 216:0.839025 217:0.0159103 218:0.131997 219:0.013068 220:0.862446 221:0.0281287 222:0.0594394 223:0.0499861 224:0.946565 225:0.00738362 226:0.0312839 227:0.0147672 228:0 229:0.0462255 230:0.163468 231:0.0576935 232:0.807611 233:0.0138175 234:0.0130278 235:0.0115999 236:0.0714286 237:0.20755 238:0.0721144 239:0 240:0.197773 241:0.095793 242:0.0714286 243:0.198849 244:0.0850638 245:0.0814245 246:0.0614326 247:0 248:0.228058 249:0.261723 250:0.11392 251:0.0575369 252:0.150355 253:0.0455507 254:0.141636 255:0.121112 256:0.105031 257:0.163359 258:0.129254 259:0.185593 260:0.0432987 261:0.0467164 262:0.064 263:0.139324 264:0.0197044 265:0.000807792 266:0 267:0 268:0.138889 269:0.444444 270:0.388889 271:0.972222 272:0.777778 273:0.5 274:0.66569 275:0.960721 276:0.684289 277:0.56143 278:0.368782 279:0.5 280:0.5 281:0.5 282:0.625 283:0.4 284:0.428571 285:0 286:0 287:0 288:0.876058 289:1.13417 290:0.370891 291:0.306543 292:0.906164 293:0.277514 294:0.833333 295:0.586538 296:0.419872 297:0.0416667 298:0.0714286 299:0 300:0 301:0.202381 302:0.75 303:0.0376984 304:1 305:0.949382 306:0.00369181 307:0.0469258 308:0 309:0.910463 310:0 311:0.056311 312:0.0332263 313:0.98123 314:0 315:0.0187703 316:0 317:0 318:0.00217829 319:0.0277786 320:0.0285684 321:0.97828 322:0.00386334 323:0 324:0.0119048 325:0.0714286 326:0.0948886 327:0.172352 328:0 329:0.167717 330:0.173156 331:0.0714286 332:0.0786122 333:0.170417 334:0 335:0.142857 336:0 337:0.172699 338:0.140494 339:0.0114538 340:0.19045 341:0.300641 342:0.0414055 343:0.201593 344:0.102078 345:0.0587021 346:0.130247 347:0.211484 348:0.239625 349:0.00842481 350:0.0202525 351:0.0275938 352:0.170741 353:0.0310519 354:0.000852498 355:0 356:0 
