svm_type c_svc
kernel_type polynomial
degree 3
gamma 100
coef0 0
nr_class 7
total_sv 294
rho -1.42791 -0.165226 -0.520384 -0.451447 -0.153205 -0.249063 0.400426 -0.660931 -0.639675 0.503834 0.163322 -1.46625 -1.77178 -0.0212353 -0.06025 0.527144 1.13852 0.897586 0.944072 0.942976 -0.0649001
label 7 6 4 1 2 5 3
probA -4.4546 -4.75773 -4.24597 -3.78714 -1.79901 -4.76841 -4.63462 -3.99953 -3.22623 -4.33124 -4.39981 -3.93669 -3.19786 -4.47429 -4.6897 -3.26201 -3.86913 -4.25766 -3.13246 -3.57225 -4.65182
probB -0.280245 -0.255086 -0.547512 -0.996971 -0.178514 -0.14954 0.33786 -0.202393 -1.01816 0.12695 0.178754 -0.400622 -1.17936 0.476726 -0.114682 -0.20593 0.280898 0.450613 1.11808 1.32777 0.0475044
nr_sv 69 44 65 23 6 51 36
SV
0 0 0 0 2.026746490764248e-11 0 1:0.106061 2:0.5 3:0.5 4:0.80303 5:0.621212 6:0.621212 7:0.578727 8:0.98553 9:0.58444 10:0.58444 11:0.0934845 12:0.5 13:0.5 14:0.5 15:0.734848 16:0.394737 17:0.433333 18:0.276284 19:-0.00394692 20:0.232868 21:1.04839 22:0.902507 23:0.426627 24:0.959706 25:0.264443 26:0.249293 27:0.567832 28:0.61747 29:0.571697 30:0.254862 31:0.376072 32:0.165575 33:0.230339 34:0.520588 35:1 36:0.325056 37:1 38:0.918628 39:0.0192035 40:0.0315377 41:0.0306306 42:0.779088 43:0.0270934 44:0.174168 45:0.0196504 46:0.78086 47:0.0795802 48:0.0939827 49:0.0455766 50:0.00758447 51:0.0931235 52:0.159229 53:0.104016 54:0.689868 55:0.0633434 56:0.0464721 57:0.0376055 58:0.060658 59:0.0620848 60:0.124723 61:0.0277833 62:0.167395 63:0.207408 64:0.0544159 65:0.137394 66:0.158138 67:0 68:0.0816403 69:0.0612169 70:0.0486657 71:0.175864 72:0.15149 73:0.0552811 74:0.259486 75:0.166356 76:0.0481719 77:0.0110761 78:0.0427661 79:0.143688 80:0.176251 81:0.20062 82:0.0492942 83:0.223611 84:0.104522 85:0.107885 86:0.0149587 87:0.000976375 88:0 89:0 90:0.106061 91:0.5 92:0.530303 93:0.863636 94:0.621212 95:0.530303 96:0.629224 97:0.99372 98:0.578995 99:0.5 100:0.159052 101:0.5 102:0.5 103:0.5 104:0.719697 105:0.394737 106:0.5 107:0.326672 108:0 109:0.150772 110:1.04839 111:0.970746 112:0.375271 113:0.602958 114:0.40834 115:0.326753 116:0.56658 117:0.644457 118:0.522832 119:0.358674 120:0.603302 121:0.288765 122:0.381867 123:0.870332 124:0.75 125:0.519948 126:1 127:0.885565 128:0.024983 129:0.0279101 130:0.0615422 131:0.721535 132:0.0440632 133:0.207284 134:0.027117 135:0.638378 136:0.127229 137:0.175581 138:0.0588121 139:0.00486596 140:0.122068 141:0.239047 142:0.165609 143:0.577885 144:0.0646848 145:0.0857478 146:0.0456804 147:0.0708079 148:0.120814 149:0.232502 150:0.00871327 151:0.059314 152:0.0606128 153:0.063336 154:0.179344 155:0.204556 156:0 157:0.0591295 158:0.0837277 159:0.106829 160:0.197284 161:0.0680479 162:0.111381 163:0.285576 164:0.088025 165:0.0997445 166:0.0243196 167:0.0925459 168:0.213259 169:0.0744706 170:0.258749 171:0.105162 172:0.0359113 173:0.0958384 174:0.158811 175:0.023357 176:0.00132751 177:0 178:0 179:0.02 180:0.5 181:0.44 182:0.86 183:0.66 184:0.64 185:0.658965 186:0.978262 187:0.591098 188:0.613872 189:0.13847 190:0.947214 191:0.5 192:0.723607 193:0.73 194:0.382353 195:0.375 196:0.290129 197:0 198:0.523493 199:0.97362 200:0.881872 201:0.510488 202:0.792752 203:0.3532 204:0.267016 205:0.536409 206:0.621053 207:0.648966 208:0.332258 209:0.507158 210:0.22045 211:0.313529 212:0.660821 213:1 214:0.368717 215:1 216:0.900967 217:0.0271487 218:0.0280803 219:0.043804 220:0.661064 221:0.0335699 222:0.269953 223:0.035413 224:0.70588 225:0.12215 226:0.0951572 227:0.0768136 228:0.0134132 229:0.125308 230:0.197059 231:0.119786 232:0.70509 233:0.0797884 234:0.0612252 235:0.0360403 236:0.0714286 237:0.0920861 238:0.156434 239:0.0169536 240:0.13245 241:0.173155 242:0.054475 243:0.128417 244:0.174601 245:0 246:0.0822711 247:0.060586 248:0.0455915 249:0.180341 250:0.139201 251:0.0725217 252:0.26309 253:0.156398 254:0.0388512 255:0.0116602 256:0.0668533 257:0.191723 258:0.14766 259:0.193396 260:0.0796769 261:0.17465 262:0.09553 263:0.138323 264:0.0248472 265:0.00201922 266:0 267:0 268:0.184211 269:0.5 270:0.473684 271:0.973684 272:0.710526 273:0.473684 274:0.592716 275:0.983117 276:0.628831 277:0.5 278:0.705644 279:0.5 280:0.5 281:0.5 282:0.618421 283:0.411765 284:0.333333 285:0 286:0 287:0 288:0.840897 289:1.2315 290:0.305879 291:0.144737 292:1.90909 293:0.27487 294:0.666667 295:0.511905 296:0.571429 297:0.0714286 298:0.015873 299:0 300:0 301:0.0306122 302:1 303:0 304:0 305:0.980064 306:0 307:0.0199358 308:0 309:0.94418 310:0 311:0.0558202 312:0 313:0.992026 314:0 315:0.00797432 316:0 317:0 318:0 319:0 320:0.00243397 321:1 322:0 323:0 324:0 325:0.0714286 326:0.080883 327:0.152209 328:0 329:0.139395 330:0.178168 331:0.0714286 332:0.112434 333:0.194052 334:0.0714286 335:0.0714286 336:0 337:0.0901477 338:0.238699 339:0.04181 340:0.195567 341:0.279827 342:0.0110921 343:0.167962 344:0.0706347 345:0.118547 346:0.142857 347:0.211246 348:0.2402 349:0 350:0.0463078 351:0.00224696 352:0.168143 353:0.031651 354:0.00095252 355:0 356:0 
0 1.74070542098809e-11 0 0 0 0 1:0.171875 2:0.515625 3:0.515625 4:0.828125 5:0.640625 6:0.546875 7:0.544639 8:0.990633 9:0.593454 10:0.523363 11:0.086706 12:0.146447 13:0.146447 14:0.5 15:0.664062 16:0.416667 17:0.446429 18:0.105339 19:0 20:0.0769786 21:1.05841 22:0.909753 23:0.41241 24:0.964148 25:0.259296 26:0.325589 27:0.545552 28:0.6336 29:0.56619 30:0.262781 31:0.476873 32:0.169794 33:0.167598 34:0.756336 35:1 36:0.338433 37:1 38:0.907135 39:0.0234496 40:0.0437159 41:0.0256996 42:0.773149 43:0.00649523 44:0.191377 45:0.0289789 46:0.740345 47:0.0935998 48:0.137295 49:0.0287607 50:0.00399755 51:0.0914658 52:0.196657 53:0.176135 54:0.672797 55:0.0761547 56:0.0732483 57:0.0509198 58:0.070264 59:0.120529 60:0.260295 61:0.0045364 62:0.04332 63:0.0593767 64:0.0680568 65:0.163674 66:0.209948 67:0 68:0.0964779 69:0.0463793 70:0.0790888 71:0.177357 72:0.0867665 73:0.069425 74:0.298082 75:0.146424 76:0.0627731 77:0.0124886 78:0.071551 79:0.256429 80:0.0581448 81:0.249619 82:0.126968 83:0.038442 84:0.123585 85:0.16193 86:0.0251107 87:0.00168979 88:0 89:0 90:0.171875 91:0.515625 92:0.515625 93:0.796875 94:0.546875 95:0.703125 96:0.532007 97:0.978365 98:0.523918 99:0.643509 100:0.26907 101:0.146447 102:0.146447 103:0.5 104:0.671875 105:0.458333 106:0.357143 107:0.167328 108:0 109:0.231684 110:1.05841 111:0.909753 112:0.41241 113:0.303484 114:0.823767 115:0.342915 116:0.480865 117:0.615809 118:0.661765 119:0.242808 120:0.426531 121:0.077381 122:0.154762 123:0.845238 124:1 125:0.273369 126:1 127:0.927281 128:0.0172777 129:0.0439226 130:0.0115184 131:0.837193 132:0 133:0.151289 134:0.0115184 135:0.792001 136:0.051833 137:0.140214 138:0.0159523 139:0.00103459 140:0.0782257 141:0.166468 142:0.160782 143:0.821429 144:0.0543318 145:0.0612245 146:0.00689265 147:0.0714286 148:0.134569 149:0.28983 150:0 151:0.0162077 152:0.0149576 153:0.0714286 154:0.178661 155:0.222917 156:0 157:0.107618 158:0.0352396 159:0.100235 160:0.172151 161:0.0843268 162:0.0621815 163:0.284787 164:0.153462 165:0.073517 166:0.00459156 167:0.0819938 168:0.291848 169:0.00796089 170:0.256324 171:0.128555 172:0.0171047 173:0.138105 174:0.182523 175:0.0295923 176:0.00207653 177:0 178:0 179:0.078125 180:0.515625 181:0.515625 182:0.796875 183:0.578125 184:0.671875 185:0.611551 186:0.986834 187:0.542333 188:0.605833 189:0.513012 190:0.5 191:0.5 192:0.5 193:0.742188 194:0.416667 195:0.354167 196:0 197:0 198:0 199:1.05841 200:0.982794 201:0.358771 202:0.179866 203:1.34649 204:0.360743 205:0.625 206:0.60061 207:0.551829 208:0.137755 209:0.214286 210:0.0238095 211:0.0238095 212:0.27381 213:1 214:0.031746 215:0.695913 216:0.933919 217:0 218:0.0488028 219:0.0172777 220:0.90288 221:0.00575922 222:0.068324 223:0.0230369 224:0.904638 225:0.0115184 226:0.0780845 227:0.00575922 228:0 229:0.00161562 230:0.0488044 231:0.0410241 232:0.969388 233:5.47582e-10 234:0.0102041 235:4.53152e-18 236:0.0714286 237:0.132519 238:0.289693 239:0 240:0.0178913 241:0.0164725 242:0.0714286 243:0.190983 244:0.209583 245:0 246:0.121982 247:0.0208751 248:0.0921489 249:0.169624 250:0.087685 251:0.0609778 252:0.294462 253:0.152246 254:0.0814522 255:0 256:0.0714286 257:0.307741 258:0.00419647 259:0.251438 260:0.10636 261:0.023304 262:0.15408 263:0.191944 264:0.0313036 265:0.00215087 266:0 267:0 268:0.0535714 269:0.517857 270:0.553571 271:0.875 272:0.660714 273:0.553571 274:0.646486 275:0.992606 276:0.585671 277:0.5 278:0.16129 279:0.5 280:0 281:0.5 282:0.741071 283:0.388889 284:0.464286 285:0.276355 286:0 287:0.103633 288:0.999459 289:0.909753 290:0.463648 291:0.646166 292:0.414533 293:0.318984 294:0.573502 295:0.652976 296:0.506661 297:0.380443 298:0.742087 299:0.394824 300:0.29263 301:1 302:1 303:0.804095 304:1 305:0.870801 306:0.0403145 307:0.0488028 308:0.0400814 309:0.656221 310:0.0101931 311:0.279692 312:0.0538946 313:0.641246 314:0.16653 315:0.143299 316:0.0489248 317:0.00951748 318:0.150243 319:0.25126 320:0.220386 321:0.544849 322:0.036049 323:0.0679614 324:0.0964026 325:0.0714286 326:0.111442 327:0.244819 328:0.00353309 329:0.0536601 330:0.0743041 331:0.0678955 332:0.14683 333:0.226087 334:0 335:0.0807638 336:0.0620934 337:0.0609947 338:0.190431 339:0.0740072 340:0.0848265 341:0.335287 342:0.111597 343:0.058541 344:0.0188353 345:0.0651799 346:0.237854 347:0.0837463 348:0.279503 349:0.120115 350:0.0414669 351:0.0947587 352:0.170961 353:0.0298723 354:0.00212917 355:0 356:0 
0 0 0 7.569493538381485e-12 0 1.312795061775903e-11 1:0.195652 2:0.478261 3:0.565217 4:0.847826 5:0.695652 6:0.695652 7:0.509686 8:0.966027 9:0.655342 10:0.593205 11:0.0742351 12:0.5 13:0 14:0.5 15:0.619565 16:0.430556 17:0.479167 18:0.0738039 19:0 20:0.161446 21:0.90675 22:0.982794 23:0.480887 24:1 25:0.244475 26:0.295101 27:0.578007 28:0.614583 29:0.567324 30:0.170996 31:0.276667 32:0.0359368 33:0.0561576 34:0.421293 35:1 36:0.122955 37:1 38:0.958456 39:0.00483156 40:0.0286594 41:0.0080526 42:0.864422 43:0.00446093 44:0.124675 45:0.00644208 46:0.832421 47:0.0322104 48:0.10551 49:0.0298586 50:0.0044774 51:0.0532528 52:0.134682 53:0.0878301 54:0.848504 55:0.0178315 56:0.0260625 57:0.0289401 58:0.0714286 59:0.15621 60:0.194456 61:0 62:0.11589 63:0.0751801 64:0.0714286 65:0.132302 66:0.183104 67:0 68:0.0565498 69:0.0863074 70:0.0980026 71:0.192756 72:0.12961 73:0.00609421 74:0.262938 75:0.167742 76:0.0433802 77:0.0205279 78:0.0392949 79:0.220377 80:0.0999245 81:0.182573 82:0.152438 83:0.0737152 84:0.16777 85:0.174512 86:0.0369862 87:0.00319239 88:0 89:0 90:0.204545 91:0.5 92:0.568182 93:0.886364 94:0.727273 95:0.75 96:0.538587 97:0.959855 98:0.653285 99:0.622628 100:0.203344 101:0.5 102:0 103:0.5 104:0.625 105:0.426471 106:0.458333 107:0.286759 108:0 109:0 110:0.912908 111:0.956133 112:0.499347 113:0.455719 114:0.635858 115:0.308012 116:0.640411 117:0.619863 118:0.485291 119:0.154762 120:0.22619 121:0.00841018 122:0.0155844 123:0.284762 124:1 125:0.0357143 126:1 127:0.976974 128:0.00369181 129:0.0156419 130:0.00369181 131:0.891635 132:0.00284221 133:0.105523 134:0 135:0.853588 136:0.0110754 137:0.109494 138:0.0258427 139:0.00148823 140:0.0257104 141:0.114945 142:0.0678751 143:0.928571 144:0.0108294 145:0.00702779 146:0.00595238 147:0.0714286 148:0.136972 149:0.242581 150:0 151:0.0600034 152:0.0560682 153:0.0714286 154:0.123655 155:0.237862 156:0 157:0.0545808 158:0.0882764 159:0.110574 160:0.144305 161:0.0776191 162:0.0172595 163:0.335273 164:0.172112 165:0.0440291 166:0.0282647 167:0.0536498 168:0.234807 169:0.0813742 170:0.210294 171:0.161759 172:0.0264016 173:0.159421 174:0.193616 175:0.0448884 176:0.00428152 177:0 178:0 179:0.108696 180:0.434783 181:0.565217 182:0.847826 183:0.695652 184:0.73913 185:0.58483 186:0.960301 187:0.662459 188:0.608306 189:0.273838 190:0.5 191:0.5 192:0.5 193:0.684783 194:0.416667 195:0.416667 196:-0.0296583 197:0 198:0 199:0.90675 200:0.982794 201:0.480887 202:0.366493 203:0.785946 204:0.335072 205:0.523305 206:0.658898 207:0.529661 208:0.101834 209:0.136905 210:0.00649351 211:0.012987 212:0.306429 213:1 214:0.0413961 215:1 216:0.970154 217:0.0110754 218:0.0187703 219:0 220:0.930049 221:0.00738362 222:0.0625677 223:0 224:0.854051 225:0.0332263 226:0.0979559 227:0.0147672 228:0.00337542 229:0.0232686 230:0.0499167 231:0.0540297 232:0.940476 233:0.00396825 234:0.00396825 235:0.0108652 236:0.0714286 237:0.183985 238:0.238761 239:0 240:0.0305199 241:0.0198424 242:0.0714286 243:0.154892 244:0.229142 245:0 246:0.0485834 247:0.0942738 248:0.144808 249:0.158858 250:0.105871 251:0.00804435 252:0.30563 253:0.133931 254:0.0695328 255:0.015174 256:0.0684825 257:0.259756 258:0.0175606 259:0.222805 260:0.162489 261:0.0250843 262:0.159115 263:0.215829 264:0.0530323 265:0.00543236 266:0 267:0 268:0.0652174 269:0.434783 270:0.543478 271:0.847826 272:0.695652 273:0.673913 274:0.615508 275:0.968521 276:0.656174 277:0.578087 278:0.159076 279:0.5 280:0.5 281:0.5 282:0.717391 283:0.416667 284:0.431818 285:0.231873 286:0 287:0.364372 288:0.90675 289:1.02225 290:0.446106 291:0.656281 292:0.430622 293:0.282163 294:0.52648 295:0.606796 296:0.645631 297:0.225108 298:0.417857 299:0.0863323 300:0.132468 301:0.677714 302:1 303:0.310589 304:1 305:0.93718 306:0.00738362 307:0.040669 308:0.0147672 309:0.81635 310:0.00738362 311:0.1615 312:0.0147672 313:0.791551 314:0.0553771 315:0.110469 316:0.0426025 317:0.0092229 318:0.0969804 319:0.181998 320:0.128188 321:0.752211 322:0.032705 323:0.0532206 324:0.059501 325:0.0714286 326:0.146973 327:0.153613 328:0 329:0.156954 330:0.108397 331:0.0714286 332:0.130139 333:0.161066 334:0 335:0.0665821 336:0.076275 337:0.0900008 338:0.198918 339:0.143783 340:0.027438 341:0.207153 342:0.18985 343:0.055419 344:0.0218874 345:0.0383391 346:0.187146 347:0.125559 348:0.158535 349:0.127542 350:0.112624 351:0.172948 352:0.158385 353:0.0307863 354:0.00230411 355:0 356:0 
0 0 0 0 0 2.218388849101249e-12 1:0.195652 2:0.434783 3:0.565217 4:0.847826 5:0.695652 6:0.695652 7:0.520396 8:0.956435 9:0.682574 10:0.591287 11:0.0801945 12:0 13:0.5 14:0.5 15:0.641304 16:0.444444 17:0.4375 18:0.0732072 19:-0.00488048 20:0.165936 21:0.90675 22:0.982794 23:0.480887 24:1 25:0.258666 26:0.294698 27:0.562718 28:0.621585 29:0.581967 30:0.162405 31:0.256032 32:0.0343888 33:0.0539409 34:0.425204 35:1 36:0.128973 37:1 38:0.959821 39:0.00483156 40:0.0272947 41:0.0080526 42:0.878942 43:0.00322104 44:0.111395 45:0.00644208 46:0.837498 47:0.0305999 48:0.106875 49:0.0250271 50:0.0044774 51:0.0511528 52:0.127604 53:0.0879524 54:0.855646 55:0.0142435 56:0.0233013 57:0.0317179 58:0.0714286 59:0.155716 60:0.190406 61:0 62:0.117993 63:0.0776792 64:0.0714286 65:0.13271 66:0.182639 67:0 68:0.0569032 69:0.0859539 70:0.0980026 71:0.189195 72:0.134957 73:0.00609421 74:0.256759 75:0.172135 76:0.0433802 77:0.0205279 78:0.0392949 79:0.216758 80:0.0961477 81:0.181149 82:0.152281 83:0.0807389 84:0.169723 85:0.174216 86:0.0369647 87:0.00322621 88:0 89:0 90:0.195652 91:0.456522 92:0.565217 93:0.847826 94:0.717391 95:0.73913 96:0.536602 97:0.950631 98:0.680253 99:0.620168 100:0.235315 101:0 102:0.5 103:0.5 104:0.641304 105:0.441176 106:0.416667 107:0.282774 108:0 109:0 110:0.934288 111:0.956133 112:0.480887 113:0.384391 114:0.735212 115:0.307853 116:0.596591 117:0.647727 118:0.511364 119:0.133929 120:0.172619 121:0 122:0 123:0.268571 124:1 125:0.0178571 126:1 127:0.983231 128:0.00369181 129:0.00938516 130:0.00369181 131:0.92179 132:0 133:0.0782097 134:0 135:0.855279 136:0.0110754 137:0.118879 138:0.0147672 139:0.00148823 140:0.0221903 141:0.120406 142:0.0838641 143:0.958333 144:0 145:0 146:0.00595238 147:0.0714286 148:0.143517 149:0.248089 150:0 151:0.06684 152:0.065058 153:0.0714286 154:0.114092 155:0.219546 156:0 157:0.0536713 158:0.0891858 159:0.120097 160:0.134745 161:0.0777569 162:0.0172595 163:0.341318 164:0.165966 165:0.0496114 166:0.033155 167:0.0526634 168:0.241341 169:0.0771556 170:0.200871 171:0.162712 172:0.0361409 173:0.14635 174:0.184593 175:0.0411545 176:0.0038283 177:0 178:0 179:0.108696 180:0.434783 181:0.565217 182:0.847826 183:0.695652 184:0.695652 185:0.578796 186:0.965099 187:0.664153 188:0.582076 189:0.234029 190:0.5 191:0.5 192:1 193:0.684783 194:0.416667 195:0.4375 196:0.0128055 197:0 198:0 199:0.90675 200:0.982794 201:0.480887 202:0.42441 203:0.678691 204:0.333014 205:0.540441 206:0.661765 207:0.536765 208:0.125644 209:0.184524 210:0.0324675 211:0.025974 212:0.348 213:1 214:0.0533009 215:1 216:0.963334 217:0.0110754 218:0.0218987 219:0.00369181 220:0.914407 221:0.00738362 222:0.0782097 223:0 224:0.83359 225:0.0332263 226:0.107341 227:0.0258427 228:0.00141374 229:0.0220862 230:0.0707988 231:0.075254 232:0.910714 233:0.00501278 234:0.0148285 235:0.0108652 236:0.0714286 237:0.184472 238:0.230758 239:0 240:0.0361639 241:0.0268506 242:0.0714286 243:0.15498 244:0.223918 245:0 246:0.0481447 247:0.0947124 248:0.144158 249:0.160692 250:0.104578 251:0.0053629 252:0.307955 253:0.134398 254:0.0685849 255:0.0159252 256:0.0653513 257:0.25591 258:0.0261965 259:0.220865 260:0.157956 261:0.0270857 262:0.162125 263:0.212581 264:0.0512774 265:0.0050836 266:0 267:0 268:0.0652174 269:0.434783 270:0.543478 271:0.847826 272:0.695652 273:0.673913 274:0.615508 275:0.968521 276:0.656174 277:0.578087 278:0.159624 279:1 280:0.5 281:0.5 282:0.717391 283:0.416667 284:0.431818 285:0.216052 286:0 287:0.365626 288:0.90675 289:1.02225 290:0.446106 291:0.65403 292:0.432104 293:0.27365 294:0.527693 295:0.606796 296:0.643204 297:0.233393 298:0.425794 299:0.0906613 300:0.142208 301:0.682714 302:0.75 303:0.337128 304:1 305:0.93718 306:0.00738362 307:0.040669 308:0.0147672 309:0.819478 310:0.00738362 311:0.158371 312:0.0147672 313:0.792114 314:0.0516853 315:0.113598 316:0.0426025 317:0.0082255 318:0.0901284 319:0.183626 320:0.136064 321:0.748243 322:0.0294624 323:0.0524949 324:0.0704137 325:0.0714286 326:0.13995 327:0.14166 328:0 329:0.174835 330:0.121448 331:0.0714286 332:0.126407 333:0.152843 334:0 335:0.0680949 336:0.0747622 337:0.0789137 338:0.200482 339:0.15665 340:0.0229772 341:0.191373 342:0.206747 343:0.0475866 344:0.0218874 345:0.0306536 346:0.174411 347:0.135474 348:0.150185 349:0.129523 350:0.132374 351:0.177906 352:0.150582 353:0.0282001 354:0.00201182 355:0 356:0 
8.406060778502121e-12 0 0 0 0 0 1:0.195652 2:0.434783 3:0.565217 4:0.847826 5:0.695652 6:0.695652 7:0.520396 8:0.956435 9:0.682574 10:0.591287 11:0.0788152 12:0 13:0.5 14:0.5 15:0.641304 16:0.416667 17:0.4375 18:0.0527619 19:-0.00479654 20:0.196658 21:0.90675 22:0.982794 23:0.480887 24:1 25:0.254217 26:0.28933 27:0.560708 28:0.618984 29:0.586898 30:0.145476 31:0.228427 32:0.0311648 33:0.0488839 34:0.414777 35:1 36:0.130902 37:1 38:0.960777 39:0.00441658 40:0.0274454 41:0.00736097 42:0.885597 43:0.00294439 44:0.10557 45:0.00588877 46:0.854175 47:0.0279717 48:0.0964479 49:0.0214053 50:0.00379796 51:0.0439486 52:0.114412 53:0.0755467 54:0.859999 55:0.0210535 56:0.0189631 57:0.0317205 58:0.0714286 59:0.149425 60:0.176031 61:0 62:0.132603 63:0.0909374 64:0.0714286 65:0.132027 66:0.17612 67:0 68:0.0584376 69:0.0844195 70:0.0898357 71:0.177925 72:0.154807 73:0.00558636 74:0.229298 75:0.199691 76:0.0397652 77:0.0188172 78:0.0360203 79:0.199452 80:0.0920872 81:0.168018 82:0.154019 83:0.111779 84:0.180043 85:0.169526 86:0.0354563 87:0.00313188 88:0 89:0 90:0.195652 91:0.456522 92:0.565217 93:0.847826 94:0.76087 95:0.73913 96:0.549049 97:0.940415 98:0.705527 99:0.617444 100:0.249282 101:0 102:0.5 103:0.5 104:0.641304 105:0.397059 106:0.416667 107:0.234214 108:0 109:0 110:0.934288 111:0.956133 112:0.480887 113:0.37127 114:0.761194 115:0.316989 116:0.605469 117:0.640625 118:0.511719 119:0.112637 120:0.137363 121:0 122:0 123:0.28961 124:1 125:0.015873 126:1 127:0.981436 128:0.00344451 129:0.0116753 130:0.00344451 131:0.927029 132:0 133:0.0729708 134:0 135:0.877174 136:0.0103335 137:0.102159 138:0.0103335 139:0.000690692 140:0.0140661 141:0.108871 142:0.0749694 143:0.956044 144:0 145:0 146:0.00549451 147:0.0714286 148:0.152221 149:0.250286 150:0 151:0.0527448 152:0.0527245 153:0.0714286 154:0.119774 155:0.229393 156:0 157:0.052333 158:0.0905241 159:0.130449 160:0.12673 161:0.0767922 162:0.0161808 163:0.344675 164:0.162316 165:0.0554393 166:0.0310828 167:0.0583005 168:0.249037 169:0.0568656 170:0.208006 171:0.161524 172:0.0321257 173:0.147619 174:0.193827 175:0.0444894 176:0.0042723 177:0 178:0 179:0.108696 180:0.434783 181:0.586957 182:0.847826 183:0.695652 184:0.673913 185:0.58119 186:0.96862 187:0.665395 188:0.555132 189:0.195204 190:0 191:0.5 192:0.5 193:0.684783 194:0.416667 195:0.409091 196:0.139905 197:0 198:0.0645717 199:0.90675 200:1.02225 201:0.446106 202:0.505 203:0.559622 204:0.324284 205:0.545732 206:0.640244 207:0.564024 208:0.168177 209:0.274725 210:0.0535714 211:0.0714286 212:0.46645 213:1 214:0.151403 215:1 216:0.957034 217:0.00688902 218:0.0291883 219:0.00688902 220:0.899708 221:0.00688902 222:0.0934026 223:0 224:0.826173 225:0.0344451 226:0.111826 227:0.0275561 228:0.00245344 229:0.0426475 230:0.0829914 231:0.0729584 232:0.844322 233:0.0193615 234:0.018067 235:0.02022 236:0.0714286 237:0.18365 238:0.210165 239:0 240:0.0594547 241:0.0474812 242:0.0714286 243:0.149857 244:0.206535 245:0 246:0.0563311 247:0.086526 248:0.146375 249:0.167681 250:0.0964947 251:0.0494604 252:0.270427 253:0.126705 254:0.0943858 255:0.0219262 256:0.0766546 257:0.23139 258:0.0571653 259:0.201131 260:0.133618 261:0.0324265 262:0.151302 263:0.198951 264:0.0453288 265:0.00404474 266:0 267:0 268:0.113636 269:0.454545 270:0.545455 271:0.886364 272:0.727273 273:0.681818 274:0.61123 275:0.965099 276:0.664153 277:0.582076 278:0.178787 279:1 280:0.5 281:0.5 282:0.693182 283:0.411765 284:0.431818 285:0.185873 286:0 287:0.450008 288:0.912908 289:0.996491 290:0.463648 291:0.580798 292:0.489139 293:0.25994 294:0.554522 295:0.589888 296:0.668539 297:0.168142 298:0.305128 299:0.0473919 300:0.0946429 301:0.492078 302:1 303:0.191027 304:1 305:0.945358 306:0 307:0.0408636 308:0.013778 309:0.844297 310:0 311:0.141925 312:0.013778 313:0.859724 314:0.0344451 315:0.0729708 316:0.0328597 317:0.00672324 318:0.0629944 319:0.109439 320:0.0697563 321:0.866223 322:0.0258404 323:0.0273228 324:0.0394046 325:0.0714286 326:0.105366 327:0.117612 328:0 329:0.1739 330:0.165425 331:0.0714286 332:0.111229 333:0.183611 334:0 335:0.074304 336:0.0685531 337:0.0422705 338:0.17077 339:0.164904 340:0.0102967 341:0.149887 342:0.319013 343:0.0220712 344:0.01692 345:0.0107398 346:0.135342 347:0.142941 348:0.131845 349:0.133067 350:0.191513 351:0.215563 352:0.140365 353:0.024382 354:0.00142298 355:0 356:0 
0 0 0 0 7.65405575046245e-12 0 1:0.152174 2:0.434783 3:0.565217 4:0.847826 5:0.695652 6:0.73913 7:0.541861 8:0.955842 9:0.670941 10:0.613961 11:0.0839815 12:0.146447 13:0.5 14:0.146447 15:0.652174 16:0.416667 17:0.428571 18:0.0574235 19:0 20:0.234479 21:0.90675 22:0.909753 23:0.546789 24:1 25:0.263191 26:0.300158 27:0.561637 28:0.610253 29:0.587781 30:0.187883 31:0.239573 32:0.0691353 33:0.0501701 34:0.332543 35:1 36:0.135154 37:1 38:0.964411 39:0.00831296 40:0.0239506 41:0.00332519 42:0.843362 43:0.00332519 44:0.141674 45:0.0116381 46:0.850147 47:0.0304414 48:0.0802747 49:0.039137 50:0.00451331 51:0.0667681 52:0.10614 53:0.0838465 54:0.869458 55:0.0162683 56:0.0259506 57:0.0215655 58:0.0714286 59:0.162377 60:0.208176 61:0 62:0.104479 63:0.0657631 64:0.0714286 65:0.139733 66:0.176616 67:0 68:0.0761916 69:0.0666655 70:0.108051 71:0.194538 72:0.118227 73:0.0234179 74:0.242249 75:0.17066 76:0.0523949 77:0.0210154 78:0.0564314 79:0.245131 80:0.0723021 81:0.192712 82:0.139871 83:0.0747046 84:0.145438 85:0.18963 86:0.0435003 87:0.00453941 88:0 89:0 90:0.152174 91:0.434783 92:0.586957 93:0.847826 94:0.695652 95:0.76087 96:0.548972 97:0.955842 98:0.670941 99:0.613961 100:0.248222 101:0.146447 102:0.5 103:0.146447 104:0.652174 105:0.416667 106:0.423077 107:0.268731 108:0 109:0 110:0.90675 111:0.945311 112:0.514451 113:0.384253 114:0.763762 115:0.319326 116:0.593254 117:0.632937 118:0.505952 119:0.159091 120:0.162338 121:0.0142857 122:2.14251e-34 123:0.356085 124:1 125:0.0306122 126:1 127:0.979171 128:0.00397736 129:0.0168518 130:0 131:0.884801 132:0.00397736 133:0.111222 134:0 135:0.866354 136:0.0238642 137:0.0819401 138:0.0278415 139:0.000855548 140:0.0257608 141:0.0833689 142:0.0815572 143:0.961039 144:0.012987 145:0 146:0.00649351 147:0.0714286 148:0.176698 149:0.238123 150:0 151:0.0558591 152:0.034187 153:0.0714286 154:0.145871 155:0.206406 156:0 157:0.0601659 158:0.0826913 159:0.143324 160:0.15866 161:0.108641 162:0.0348411 163:0.25183 164:0.159846 165:0.0715219 166:0.0320334 167:0.0731498 168:0.247969 169:0.0392848 170:0.188636 171:0.162124 172:0.0261493 173:0.159132 174:0.208479 175:0.0505508 176:0.00536298 177:0 178:0 179:0.0652174 180:0.434783 181:0.586957 182:0.804348 183:0.695652 184:0.76087 185:0.577633 186:0.960301 187:0.662459 188:0.608306 189:0.292932 190:0.5 191:0.5 192:0.5 193:0.728261 194:0.416667 195:0.384615 196:0.0317263 197:0 198:0.0317263 199:0.90675 200:0.945311 201:0.514451 202:0.342604 203:0.85661 204:0.339534 205:0.568282 206:0.654018 207:0.542411 208:0.158463 209:0.18658 210:0.0321429 211:0.0214286 212:0.194497 213:1 214:0.0204082 215:1 216:0.9758 217:0.00397736 218:0.0202222 219:0 220:0.911764 221:0.00397736 222:0.0842591 223:0 224:0.88762 225:0.00397736 226:0.0854543 227:0.0229489 228:0.00251482 229:0.0375655 230:0.0317892 231:0.0290278 232:0.967532 233:0 234:0.00649351 235:0.00649351 236:0.0714286 237:0.188846 238:0.235485 239:0 240:0.0289537 241:0.0243978 242:0.0714286 243:0.1631 244:0.216361 245:0 246:0.0545876 247:0.0882696 248:0.151641 249:0.135329 250:0.115159 251:0.0225442 252:0.250971 253:0.181498 254:0.0707677 255:0.0132454 256:0.0898573 257:0.239967 258:0.0183651 259:0.185507 260:0.182311 261:0.0192128 262:0.180767 263:0.22604 264:0.057497 265:0.00633041 266:0 267:0 268:0.0681818 269:0.454545 270:0.568182 271:0.886364 272:0.727273 273:0.75 274:0.62292 275:0.96414 276:0.654713 277:0.603142 278:0.158241 279:0.853553 280:0.5 281:0.146447 282:0.727273 283:0.411765 284:0.392857 285:0.187695 286:0 287:0.440676 288:0.912908 289:0.881872 290:0.566729 291:0.696245 292:0.432515 293:0.274113 294:0.532539 295:0.599747 296:0.660354 297:0.251119 298:0.402165 299:0.154293 300:0.133333 301:0.447046 302:1 303:0.349878 304:1 305:0.94978 306:0.0119321 307:0.0303333 308:0.00795472 309:0.76805 310:0 311:0.204108 312:0.0278415 313:0.795987 314:0.0449824 315:0.0932464 316:0.0657845 317:0.00951785 318:0.11552 319:0.16282 320:0.112546 321:0.772727 322:0.0255159 323:0.0533209 324:0.0336088 325:0.0714286 326:0.115717 327:0.192204 328:0 329:0.139819 330:0.114084 331:0.0714286 332:0.119157 333:0.176161 334:0 335:0.0832463 336:0.0596108 337:0.0577144 338:0.171042 339:0.130501 340:0.00643514 341:0.193997 342:0.297453 343:0.0253549 344:0.0121482 345:0.0244686 346:0.189175 347:0.110526 348:0.155532 349:0.158426 350:0.138638 351:0.185732 352:0.165469 353:0.0338206 354:0.00289794 355:0 356:0 
0 1.074133102149994e-11 0 0 7.358015304460136e-12 0 1:0.152174 2:0.434783 3:0.565217 4:0.847826 5:0.695652 6:0.73913 7:0.541861 8:0.955842 9:0.670941 10:0.613961 11:0.0827929 12:0.146447 13:0.5 14:0.146447 15:0.673913 16:0.416667 17:0.392857 18:0.0283054 19:0 20:0.240596 21:0.90675 22:0.909753 23:0.546789 24:1 25:0.259466 26:0.296079 27:0.570974 28:0.604282 29:0.589779 30:0.178066 31:0.219508 32:0.0645263 33:0.0468254 34:0.346062 35:1 36:0.141898 37:1 38:0.959956 39:0.00780805 40:0.0291123 41:0.00312322 42:0.849991 43:0.00312322 44:0.134393 45:0.0124929 46:0.86478 47:0.0285925 48:0.0714291 49:0.0351983 50:0.00423059 51:0.0621049 52:0.0970283 53:0.0796399 54:0.866359 55:0.0152187 56:0.0265805 57:0.0247825 58:0.0714286 59:0.15756 60:0.200227 61:0 62:0.115549 63:0.0735661 64:0.0714286 65:0.138513 66:0.171728 67:0 68:0.0768869 69:0.0659702 70:0.100377 71:0.184476 72:0.133187 73:0.0220403 74:0.220221 75:0.196842 76:0.0493129 77:0.0190353 78:0.0526402 79:0.22944 80:0.0695247 81:0.181652 82:0.146455 83:0.0978061 84:0.154133 85:0.185644 86:0.0422386 87:0.0044314 88:0 89:0 90:0.152174 91:0.434783 92:0.586957 93:0.847826 94:0.695652 95:0.717391 96:0.542697 97:0.961112 98:0.672917 99:0.586459 100:0.263371 101:0.146447 102:0.5 103:0.146447 104:0.673913 105:0.416667 106:0.403846 107:0.227707 108:0 109:0 110:0.90675 111:0.945311 112:0.514451 113:0.358012 114:0.819744 115:0.327296 116:0.608051 117:0.599576 118:0.53178 119:0.151786 120:0.136905 121:0.012987 122:1.94774e-34 123:0.31619 124:1 125:0.0446429 126:1 127:0.974409 128:0.00369181 129:0.0218987 130:0 131:0.899328 132:0.00369181 133:0.09698 134:0 135:0.895846 136:0.018459 137:0.0635436 138:0.0221508 139:0.000789373 140:0.0225808 141:0.0694029 142:0.0687533 143:0.958333 144:0.0119048 145:0 146:0.0119048 147:0.0714286 148:0.182253 149:0.237326 150:0 151:0.0445568 152:0.0274283 153:0.0714286 154:0.152309 155:0.213269 156:0 157:0.0582437 158:0.0846134 159:0.151598 160:0.147554 161:0.110272 162:0.036344 163:0.24794 164:0.163436 165:0.0762776 166:0.0283515 167:0.081992 168:0.244639 169:0.0258512 170:0.188922 171:0.167313 172:0.020827 173:0.165827 174:0.216985 175:0.0539726 176:0.0058917 177:0 178:0 179:0.0652174 180:0.434783 181:0.586957 182:0.847826 183:0.695652 184:0.76087 185:0.606553 186:0.96414 187:0.654713 188:0.603142 189:0.240507 190:0.5 191:0.5 192:0.5 193:0.717391 194:0.416667 195:0.423077 196:0.136435 197:0 198:0.111629 199:0.90675 200:0.945311 201:0.514451 202:0.438175 203:0.669774 204:0.329631 205:0.559909 206:0.641544 207:0.571691 208:0.184524 209:0.211905 210:0.0681818 211:0.0454545 212:0.249125 213:1 214:0.0715703 215:1 216:0.962771 217:0.0110754 218:0.0187703 219:0.00738362 220:0.884561 221:0.00369181 222:0.09698 223:0.0147672 224:0.858921 225:0.0147672 226:0.0865518 227:0.0397603 228:0.0028437 229:0.0555578 230:0.0739457 231:0.0654934 232:0.904762 233:0.00402071 234:0.0138364 235:0.00940389 236:0.0714286 237:0.185097 238:0.22924 239:0 240:0.0474504 241:0.0371295 242:0.0714286 243:0.157461 244:0.200765 245:0 246:0.0551354 247:0.0877217 248:0.142838 249:0.143936 250:0.119584 251:0.0191284 252:0.242714 253:0.188943 254:0.0645167 255:0.0165794 256:0.0789201 257:0.235129 258:0.0360969 259:0.173469 260:0.179992 261:0.0306941 262:0.184602 263:0.214355 264:0.0524162 265:0.00550858 266:0 267:0 268:0.113636 269:0.431818 270:0.5 271:0.886364 272:0.704545 273:0.727273 274:0.620515 275:0.954344 276:0.660357 277:0.633631 278:0.169882 279:0.5 280:0.5 281:0.5 282:0.693182 283:0.40625 284:0.403846 285:0.127128 286:0 287:0.435869 288:0.942 289:0.88848 290:0.533708 291:0.625709 292:0.463111 293:0.264267 294:0.547431 295:0.580056 296:0.662921 297:0.204626 298:0.294841 299:0.120786 300:0.108225 301:0.445407 302:1 303:0.264576 304:1 305:0.944 306:0.0110754 307:0.0375406 308:0.00738362 309:0.790396 310:0 311:0.180069 312:0.0295345 313:0.851253 314:0.0454447 315:0.0533161 316:0.0499861 317:0.00681486 318:0.0775151 319:0.111903 320:0.0880008 321:0.809524 322:0.0204134 323:0.0360856 324:0.0346714 325:0.0714286 326:0.102529 327:0.169772 328:0 329:0.170913 330:0.140455 331:0.0714286 332:0.112485 333:0.160989 334:0 335:0.0864125 336:0.0564446 337:0.0396314 338:0.166233 339:0.162585 340:0.0136262 341:0.136456 342:0.338612 343:0.0224516 344:0.0174318 345:0.0124914 346:0.155612 347:0.117451 348:0.131842 349:0.16056 350:0.181395 351:0.200765 352:0.147333 353:0.0268442 354:0.00174879 355:0 356:0 
0 0 6.293548919859881e-12 0 0 0 1:0.108696 2:0.434783 3:0.521739 4:0.891304 5:0.695652 6:0.73913 7:0.605819 8:0.958682 9:0.652894 10:0.627412 11:0.0938171 12:0.5 13:0.5 14:0.5 15:0.673913 16:0.416667 17:0.410714 18:0.0286882 19:0 20:0.262975 21:0.90675 22:0.909753 23:0.546789 24:1 25:0.262975 26:0.294795 27:0.568974 28:0.602654 29:0.596369 30:0.173457 31:0.219508 32:0.0645263 33:0.0468254 34:0.348032 35:1 36:0.141898 37:1 38:0.959956 39:0.00780805 40:0.0291123 41:0.00312322 42:0.852638 43:0.00312322 44:0.131746 45:0.0124929 46:0.867903 47:0.0270309 48:0.0714291 49:0.0336367 50:0.00423059 51:0.0616241 52:0.0929337 53:0.0752636 54:0.866359 55:0.0152187 56:0.0265805 57:0.0247825 58:0.0714286 59:0.156049 60:0.196917 61:0 62:0.118751 63:0.0756338 64:0.0714286 65:0.139049 66:0.170743 67:0 68:0.0768869 69:0.0659702 70:0.0973794 71:0.18042 72:0.13995 73:0.0220403 74:0.211453 75:0.2059 76:0.0485318 77:0.01765 78:0.0521537 79:0.223889 80:0.0685051 81:0.175734 82:0.148093 83:0.106406 84:0.159038 85:0.184573 86:0.0418833 87:0.00439873 88:0 89:0 90:0.108696 91:0.434783 92:0.543478 93:0.847826 94:0.695652 95:0.717391 96:0.577633 97:0.960301 98:0.662459 99:0.608306 100:0.297622 101:0.5 102:0.5 103:0.5 104:0.684783 105:0.416667 106:0.423077 107:0.209523 108:0 109:0 110:0.90675 111:0.945311 112:0.514451 113:0.337205 114:0.870325 115:0.331877 116:0.587054 117:0.604911 118:0.555804 119:0.145833 120:0.125 121:0.012987 122:1.94774e-34 123:0.307619 124:1 125:0.0446429 126:1 127:0.974409 128:0.00369181 129:0.0218987 130:0 131:0.908713 132:0.00369181 133:0.0875948 134:0 135:0.90323 136:0.0147672 137:0.0635436 138:0.018459 139:0.000789373 140:0.0213933 141:0.0598096 142:0.0649359 143:0.958333 144:0.0119048 145:0 146:0.0119048 147:0.0714286 148:0.185483 149:0.236423 150:0 151:0.0377797 152:0.0235904 153:0.0714286 154:0.156637 155:0.217229 156:0 157:0.0571595 158:0.0856976 159:0.155518 160:0.141824 161:0.111585 162:0.0382569 163:0.24259 164:0.167369 165:0.0794283 166:0.0253276 167:0.0882687 168:0.239915 169:0.0184647 170:0.188123 171:0.17246 172:0.0190306 173:0.168982 174:0.221775 175:0.0560909 176:0.00627923 177:0 178:0 179:0.0652174 180:0.434783 181:0.586957 182:0.847826 183:0.695652 184:0.76087 185:0.606553 186:0.96414 187:0.654713 188:0.603142 189:0.219503 190:0.5 191:0.5 192:0.5 193:0.717391 194:0.444444 195:0.423077 196:0.15848 197:0 198:0.19244 199:0.90675 200:0.945311 201:0.514451 202:0.480103 203:0.611281 204:0.322461 205:0.546164 206:0.637153 207:0.600694 208:0.199942 209:0.264286 210:0.0768398 211:0.0649351 212:0.29316 213:1 214:0.0973639 215:1 216:0.959642 217:0.0110754 218:0.0218987 219:0.00738362 220:0.872661 221:0.00369181 222:0.105189 223:0.018459 224:0.842724 225:0.0213013 226:0.0896802 227:0.0462943 228:0.00428711 229:0.0712812 230:0.0952696 231:0.0699566 232:0.886905 233:0.00402071 234:0.021668 235:0.0194294 236:0.0714286 237:0.183647 238:0.222355 239:0 240:0.0601298 241:0.0459745 242:0.0714286 243:0.15306 244:0.191977 245:0 246:0.0562196 247:0.0866375 248:0.12622 249:0.160102 250:0.12408 251:0.0172156 252:0.232493 253:0.197032 254:0.0575666 255:0.014026 256:0.0705035 257:0.232425 258:0.0515862 259:0.167833 260:0.181669 261:0.0389703 262:0.185421 263:0.206635 264:0.0489714 265:0.0049299 266:0 267:0 268:0.113636 269:0.431818 270:0.477273 271:0.931818 272:0.704545 273:0.704545 274:0.65994 275:0.958682 276:0.652894 277:0.627412 278:0.188558 279:0.853553 280:0.5 281:0.853553 282:0.681818 283:0.40625 284:0.4375 285:0.144147 286:0 287:0.432441 288:0.942 289:0.927295 290:0.499347 291:0.591252 292:0.48049 293:0.261463 294:0.566442 295:0.554412 296:0.658824 297:0.188525 298:0.275794 299:0.094812 300:0.0822511 301:0.408515 302:1 303:0.214906 304:1 305:0.944 306:0.0110754 307:0.0375406 308:0.00738362 309:0.796653 310:0 311:0.173812 312:0.0295345 313:0.870022 314:0.0454447 315:0.0447733 316:0.0397603 317:0.00681486 318:0.0725133 319:0.0928382 320:0.0653508 321:0.839286 322:0.0204134 323:0.0400538 324:0.0423223 325:0.0714286 326:0.0977669 327:0.162408 328:0 329:0.181282 330:0.149256 331:0.0714286 332:0.110136 333:0.156294 334:0 335:0.106402 336:0.0364554 337:0.0319626 338:0.203808 339:0.142987 340:0.0104458 341:0.158036 342:0.309903 343:0.0168451 344:0.0158799 345:0.00880731 346:0.175162 347:0.150926 348:0.161608 349:0.133924 350:0.165383 351:0.171465 352:0.141716 353:0.0245277 354:0.00132883 355:0 356:0 
0 0 0 3.916940143752737e-12 0 0 1:0.108696 2:0.434783 3:0.521739 4:0.891304 5:0.695652 6:0.73913 7:0.605819 8:0.958682 9:0.652894 10:0.627412 11:0.0931112 12:0.5 13:0.5 14:0.5 15:0.673913 16:0.416667 17:0.410714 18:0.0521992 19:0.00474538 20:0.260996 21:0.90675 22:0.909753 23:0.546789 24:1 25:0.260996 26:0.287263 27:0.57719 28:0.594613 29:0.598066 30:0.152613 31:0.196463 32:0.056935 33:0.0413165 34:0.321864 35:1 36:0.128197 37:1 38:0.960754 39:0.00696231 40:0.0294988 41:0.00278492 42:0.870959 43:0.00278492 44:0.115116 45:0.0111397 46:0.882424 47:0.0227105 48:0.0648721 49:0.0299933 50:0.00375959 51:0.0541249 52:0.0815193 53:0.0655952 54:0.879592 55:0.0134794 56:0.0235427 57:0.023991 58:0.0714286 59:0.148642 60:0.186457 61:0 62:0.133018 63:0.084144 64:0.0714286 65:0.138207 66:0.166675 67:0 68:0.0770527 69:0.0658044 70:0.0834588 71:0.169497 72:0.163628 73:0.0188629 74:0.186197 75:0.235499 76:0.0425138 77:0.0139813 78:0.0451052 79:0.205432 80:0.0703734 81:0.159046 82:0.153946 83:0.134758 84:0.174844 85:0.177583 86:0.0391491 87:0.00397652 88:0 89:0 90:0.108696 91:0.434783 92:0.543478 93:0.847826 94:0.695652 95:0.717391 96:0.577633 97:0.960301 98:0.662459 99:0.608306 100:0.274127 101:0.5 102:0.5 103:0.5 104:0.684783 105:0.416667 106:0.423077 107:0.148448 108:0 109:0 110:0.90675 111:0.945311 112:0.514451 113:0.366107 114:0.80162 115:0.337143 116:0.616803 117:0.594262 118:0.520492 119:0.132653 120:0.112245 121:0.010989 122:1.64809e-34 123:0.25873 124:1 125:0.05 126:1 127:0.971659 128:0.00645653 129:0.0218847 130:0 131:0.911476 132:0.00645653 133:0.0820676 134:0 135:0.912645 136:0.0129131 137:0.0583007 138:0.0161413 139:0.000683619 140:0.0159617 141:0.047537 142:0.0483471 143:0.954082 144:0.0102041 145:0 146:0.0153061 147:0.0714286 148:0.188508 149:0.236236 150:0 151:0.0301837 152:0.0203602 153:0.0714286 154:0.160715 155:0.22114 156:0 157:0.0563531 158:0.086504 159:0.156334 160:0.138951 161:0.110696 162:0.0371317 163:0.246591 164:0.16744 165:0.080758 166:0.0209384 167:0.0915529 168:0.241569 169:0.0129939 170:0.190768 171:0.173441 172:0.0170503 173:0.170929 174:0.226887 175:0.0582169 176:0.00660962 177:0 178:0 179:0.0652174 180:0.434783 181:0.586957 182:0.804348 183:0.652174 184:0.76087 185:0.56824 186:0.96791 187:0.63762 188:0.610096 189:0.149076 190:0.5 191:0.5 192:0.5 193:0.728261 194:0.430556 195:0.423077 196:0.188746 197:0 198:0.377492 199:0.90675 200:0.945311 201:0.514451 202:0.662266 203:0.443143 204:0.297332 205:0.53032 206:0.612245 207:0.635204 208:0.210614 209:0.322789 210:0.11594 211:0.108059 212:0.411605 213:1 214:0.247829 215:1 216:0.95601 217:0.0129131 218:0.0246203 219:0.00645653 220:0.822185 221:0.00322826 222:0.151988 223:0.0225978 224:0.826204 225:0.0365104 226:0.083891 227:0.0533946 228:0.00836459 229:0.101997 230:0.122998 231:0.089158 232:0.811224 233:0.0190868 234:0.0479585 235:0.0254437 236:0.0714286 237:0.159625 238:0.195772 239:0 240:0.12045 241:0.077991 242:0.0714286 243:0.14016 244:0.163145 245:0 246:0.0649797 247:0.0778774 248:0.0932483 249:0.157093 250:0.170009 251:0.0118146 252:0.1752 253:0.249778 254:0.0423907 255:0.0123759 256:0.0491882 257:0.188625 258:0.0687324 259:0.143075 260:0.190332 261:0.117464 262:0.187817 263:0.182104 264:0.039901 265:0.00381642 266:0 267:0 268:0.159091 269:0.454545 270:0.454545 271:0.931818 272:0.727273 273:0.636364 274:0.656997 275:0.960301 276:0.662459 277:0.608306 278:0.243744 279:1 280:0.5 281:0.5 282:0.647727 283:0.4 284:0.388889 285:0 286:0 287:0.356386 288:0.972377 289:1.03038 290:0.388319 291:0.430458 292:0.607176 293:0.261269 294:0.577994 295:0.551136 296:0.63447 297:0.108574 298:0.155442 299:0.0289435 300:0.00915751 301:0.258686 302:1 303:0.0733894 304:1 305:0.961209 306:0.00322826 307:0.0355626 308:0 309:0.875596 310:0 311:0.114719 312:0.00968479 313:0.932655 314:0.0243403 315:0.0300914 316:0.0129131 317:0.00166323 318:0.0228662 319:0.0399495 320:0.0256194 321:0.943878 322:0.00283778 323:0.0073663 324:0.0153061 325:0.0714286 326:0.0696565 327:0.160346 328:0 329:0.156065 330:0.206506 331:0.0714286 332:0.0897801 333:0.174789 334:0 335:0.142857 336:0 337:0.0194283 338:0.21667 339:0.0936788 340:0.00341163 341:0.197869 342:0.326085 343:0.0040652 344:0.0154543 345:0.00187268 346:0.201988 347:0.182609 348:0.186457 349:0.0890548 350:0.164433 351:0.154066 352:0.130131 353:0.0195359 354:0.00037594 355:0 356:0 
0 0 0 1.026454003971992e-12 0 0 1:0.12963 2:0.444444 3:0.574074 4:0.759259 5:0.666667 6:0.722222 7:0.528253 8:0.960301 9:0.662459 10:0.608306 11:0.0852082 12:0 13:0.5 14:0.5 15:0.657407 16:0.416667 17:0.423077 18:0.106129 19:0 20:0.189186 21:0.982794 22:0.945311 23:0.448723 24:1 25:0.267628 26:0.302861 27:0.556879 28:0.638514 29:0.580405 30:0.146668 31:0.279146 32:0.0905612 33:0.0484694 34:0.446447 35:1 36:0.108621 37:1 38:0.96582 39:0.00665037 40:0.0225417 41:0.00498778 42:0.871675 43:0.00166259 44:0.120012 45:0.00665037 46:0.820721 47:0.0251626 48:0.122013 49:0.032104 50:0.00594986 51:0.0914153 52:0.139054 53:0.0901537 54:0.849754 55:0.013979 56:0.0291244 57:0.0205451 58:0.0714286 59:0.184908 60:0.2018 61:0.0126644 62:0.0924182 63:0.0798279 64:0.0587642 65:0.127414 66:0.170775 67:0 68:0.0458018 69:0.0970553 70:0.11646 71:0.165671 72:0.129388 73:0.0344327 74:0.256654 75:0.154537 76:0.0629692 77:0.0209299 78:0.0643781 79:0.227569 80:0.0801202 81:0.156637 82:0.165814 83:0.0897047 84:0.131878 85:0.161394 86:0.0300425 87:0.00236034 88:0 89:0 90:0.134615 91:0.442308 92:0.596154 93:0.826923 94:0.711538 95:0.673077 96:0.57406 97:0.963524 98:0.680259 99:0.551503 100:0.289926 101:0 102:0.5 103:0.5 104:0.653846 105:0.402778 106:0.458333 107:0.313571 108:0 109:0 110:0.965252 111:0.982794 112:0.432408 113:0.321974 114:0.836188 115:0.322421 116:0.625 117:0.625 118:0.47541 119:0.152597 120:0.279221 121:0.075 122:0.05 123:0.449365 124:0.804087 125:0.0340136 126:1 127:0.974586 128:0.00795472 129:0.0134814 130:0.00397736 131:0.912371 132:0 133:0.0876294 134:0 135:0.859723 136:0.0159094 137:0.104481 138:0.0198868 139:0.0012634 140:0.0408056 141:0.0995618 142:0.0641617 143:0.909091 144:0.0150943 145:0.012987 146:0.00438623 147:0.0714286 148:0.187278 149:0.237466 150:0 151:0.0512606 152:0.0403101 153:0.0714286 154:0.139532 155:0.201297 156:0 157:0.0381863 158:0.104671 159:0.121834 160:0.159227 161:0.12015 162:0.00861895 163:0.29842 164:0.148892 165:0.0488067 166:0.0194702 167:0.0590397 168:0.257405 169:0.0452237 170:0.176266 171:0.187645 172:0.0343631 173:0.17178 174:0.184431 175:0.0379786 176:0.00317249 177:0 178:0 179:0.0555556 180:0.444444 181:0.574074 182:0.759259 183:0.703704 184:0.685185 185:0.597411 186:0.964105 187:0.670986 188:0.57328 189:0.358221 190:0.5 191:0.5 192:0.5 193:0.712963 194:0.402778 195:0.431818 196:-0.0175002 197:0 198:0 199:0.982794 200:1.02225 201:0.386876 202:0.264547 203:0.980012 204:0.3492 205:0.605392 206:0.642157 207:0.551471 208:0.0811688 209:0.162338 210:0.00714286 211:0.0142857 212:0.253439 213:1 214:0.0544218 215:1 216:0.968453 217:0.00397736 218:0.0235925 219:0.00397736 220:0.935356 221:0.00397736 222:0.0606665 223:0 224:0.883478 225:0.0119321 226:0.0886808 227:0.0159094 228:0 229:0.00620042 230:0.06018 231:0.054085 232:0.967532 233:0 234:0.00113948 235:0.018341 236:0.0714286 237:0.210349 238:0.218222 239:0.00643588 240:0.0246052 241:0.0290324 242:0.0649927 243:0.152849 244:0.222085 245:0 246:0.0304581 247:0.112399 248:0.15321 249:0.146714 250:0.0951411 251:0.0690377 252:0.272792 253:0.120247 254:0.0893533 255:0.0151424 256:0.109414 257:0.22796 258:0.0256169 259:0.185833 260:0.182687 261:0.0273056 262:0.136688 263:0.19964 264:0.0407316 265:0.00331184 266:0 267:0 268:0.0576923 269:0.461538 270:0.557692 271:0.788462 272:0.692308 273:0.711538 274:0.610252 275:0.967464 276:0.64762 277:0.598414 278:0.155926 279:0.5 280:0.5 281:0.5 282:0.740385 283:0.411765 284:0.375 285:0.237851 286:0 287:0.414321 288:0.991722 289:0.956133 290:0.432408 291:0.626604 292:0.421994 293:0.287435 294:0.507429 295:0.65625 296:0.643029 297:0.195112 298:0.378788 299:0.171429 300:0.0714286 301:0.636537 302:1 303:0.236571 304:1 305:0.960498 306:0.00795472 307:0.0235925 308:0.00795472 309:0.794124 310:0.00397736 311:0.185989 312:0.0159094 313:0.752445 314:0.0442862 315:0.150331 316:0.0529371 317:0.0136647 318:0.178916 319:0.190831 320:0.129659 321:0.753247 322:0.0194805 323:0.0454545 324:0.0249436 325:0.0714286 326:0.145205 327:0.192511 328:0.0038835 329:0.108178 330:0.129669 331:0.0675451 332:0.105975 333:0.175605 334:0 335:0.058346 336:0.0845111 337:0.0766352 338:0.172608 339:0.116252 340:0.0283981 341:0.270124 342:0.193126 343:0.0430602 344:0.0119164 345:0.0488215 346:0.217588 347:0.123172 348:0.162587 349:0.143973 350:0.112839 351:0.136043 352:0.14556 353:0.025497 354:0.00186159 355:0 356:0 
0 0 1.897000284437434e-11 0 0 0 1:0.0925926 2:0.444444 3:0.555556 4:0.759259 5:0.666667 6:0.703704 7:0.548672 8:0.96414 9:0.654713 10:0.603142 11:0.0897463 12:0.5 13:0.5 14:0.5 15:0.666667 16:0.416667 17:0.428571 18:0.0879379 19:0 20:0.240672 21:0.982794 22:0.909753 23:0.478352 24:1 25:0.27307 26:0.297098 27:0.559261 28:0.627016 29:0.594758 30:0.14051 31:0.266831 32:0.0905612 33:0.0484694 34:0.457762 35:1 36:0.13256 37:1 38:0.963002 39:0.00665037 40:0.0253594 41:0.00498778 42:0.867449 43:0.00166259 44:0.124238 45:0.00665037 46:0.833007 47:0.0218374 48:0.116377 49:0.0287788 50:0.00643165 51:0.0932876 52:0.13548 53:0.0892516 54:0.830049 55:0.0175519 56:0.0310559 57:0.0244081 58:0.0714286 59:0.180997 60:0.192583 61:0.0128479 62:0.101945 63:0.0871511 64:0.0585806 65:0.126441 66:0.168025 67:0 68:0.0633931 69:0.079464 70:0.110949 71:0.188875 72:0.114264 73:0.0385354 74:0.272991 75:0.131528 76:0.063349 77:0.0182154 78:0.064994 79:0.248706 80:0.0941107 81:0.181987 82:0.131903 83:0.0964233 84:0.100312 85:0.159623 86:0.029914 87:0.00247898 88:0 89:0 90:0.0925926 91:0.444444 92:0.592593 93:0.796296 94:0.703704 95:0.666667 96:0.588103 97:0.9669 98:0.672016 99:0.549147 100:0.296051 101:0.5 102:0.5 103:0.5 104:0.657407 105:0.402778 106:0.458333 107:0.363753 108:0 109:0 110:0.982794 111:0.982794 112:0.418224 113:0.318185 114:0.829357 115:0.327902 116:0.644531 117:0.583984 118:0.519531 119:0.168831 120:0.311688 121:0.0821429 122:0.0642857 123:0.486772 124:0.804087 125:0.0595238 126:1 127:0.964475 128:0.00795472 129:0.0235925 130:0.00397736 131:0.922482 132:0 133:0.0775183 134:0 135:0.861544 136:0.00795472 137:0.114592 138:0.0159094 139:0 140:0.0303669 141:0.0877637 142:0.0755694 143:0.88961 144:0.0173732 145:0.0280813 146:0 147:0.0714286 148:0.197967 149:0.229815 150:0.0154461 151:0.049438 152:0.0434686 153:0.0559824 154:0.136282 155:0.200173 156:0 157:0.0347503 158:0.108107 159:0.136847 160:0.148841 161:0.11469 162:0.0133821 163:0.302705 164:0.140677 165:0.0588502 166:0.0207138 167:0.0686689 168:0.25278 169:0.0460371 170:0.173541 171:0.187036 172:0.0425412 173:0.149832 174:0.184042 175:0.0369948 176:0.0030734 177:0 178:0 179:0.0555556 180:0.462963 181:0.574074 182:0.796296 183:0.685185 184:0.685185 185:0.625055 186:0.974045 187:0.642214 188:0.571107 189:0.290803 190:0.5 191:0.5 192:0.5 193:0.703704 194:0.411765 195:0.431818 196:0.151639 197:0 198:0 199:1.00887 200:0.996491 201:0.386876 202:0.335836 203:0.758197 204:0.347917 205:0.559796 206:0.668033 207:0.57582 208:0.0941558 209:0.185714 210:0.0214286 211:0.0142857 212:0.280828 213:1 214:0.0714286 215:1 216:0.969667 217:0 218:0.0303333 219:0 220:0.928615 221:0.00397736 222:0.0674072 223:0 224:0.842148 225:0.0142979 226:0.116628 227:0.0269262 228:0.00251535 229:0.0654958 230:0.0750047 231:0.0657223 232:0.948052 233:3.48461e-10 234:0 235:0.0194805 236:0.0714286 237:0.178744 238:0.245419 239:0.00378751 240:0.0254171 241:0.0465774 242:0.0676411 243:0.141608 244:0.219378 245:0 246:0.0297133 247:0.113144 248:0.1469 249:0.122432 250:0.0801108 251:0.0717213 252:0.285101 253:0.150878 254:0.0901516 255:0.0179585 256:0.100233 257:0.219715 258:0.0387082 259:0.179733 260:0.18156 261:0.0303191 262:0.141622 263:0.1914 264:0.0380677 265:0.0030555 266:0 267:0 268:0.0625 269:0.458333 270:0.541667 271:0.854167 272:0.708333 273:0.708333 274:0.631997 275:0.967464 276:0.64762 277:0.598414 278:0.158656 279:0.5 280:0.5 281:0.5 282:0.739583 283:0.411765 284:0.384615 285:0.218595 286:0 287:0.46061 288:0.954499 289:0.91795 290:0.496423 291:0.667141 292:0.421575 293:0.276098 294:0.518246 295:0.632212 296:0.652644 297:0.178878 298:0.34632 299:0.157143 300:0.0714286 301:0.605685 302:1 303:0.29826 304:1 305:0.953757 306:0.00795472 307:0.0303333 308:0.00795472 309:0.780643 310:0.00397736 311:0.19947 312:0.0159094 313:0.785651 314:0.0323541 315:0.129058 316:0.0529371 317:0.0144197 318:0.171022 319:0.198595 320:0.106119 321:0.753247 322:0.0191597 323:0.0429136 324:0.0330207 325:0.0714286 326:0.121606 327:0.147991 328:0 329:0.128475 330:0.15668 331:0.0714286 332:0.112823 333:0.189568 334:0 335:0.0770393 336:0.0658178 337:0.0636983 338:0.177005 339:0.127065 340:0.0387705 341:0.235251 342:0.215352 343:0.0413018 344:0.0175067 345:0.0419967 346:0.189526 347:0.132725 348:0.168301 349:0.105269 350:0.147076 351:0.156298 352:0.149455 353:0.0273146 354:0.00206096 355:0 356:0 
0 0 0 1.612261954137679e-11 0 0 1:0.0925926 2:0.444444 3:0.555556 4:0.759259 5:0.666667 6:0.703704 7:0.548672 8:0.96414 9:0.654713 10:0.603142 11:0.0885172 12:0.5 13:0.5 14:0.5 15:0.666667 16:0.416667 17:0.428571 18:0.0912985 19:0 20:0.241941 21:0.982794 22:0.909753 23:0.478352 24:1 25:0.269331 26:0.295006 27:0.559643 28:0.626323 29:0.594577 30:0.138208 31:0.262698 32:0.0874384 33:0.046798 34:0.454168 35:1 36:0.135704 37:1 38:0.962796 39:0.00644208 40:0.0259299 41:0.00483156 42:0.870236 43:0.00161052 44:0.121712 45:0.00644208 46:0.836872 47:0.0211535 48:0.114097 49:0.0278775 50:0.0062237 51:0.0914823 52:0.134508 53:0.0870505 54:0.828571 55:0.0169668 56:0.0300207 57:0.0259755 58:0.0714286 59:0.178427 60:0.189965 61:0.0130937 62:0.106773 63:0.0908735 64:0.0583349 65:0.125801 66:0.165303 67:0 68:0.0638497 69:0.0790074 70:0.107587 71:0.186099 72:0.121021 73:0.0373677 74:0.266074 75:0.138995 76:0.0614294 77:0.0176634 78:0.0630245 79:0.244227 80:0.0941279 81:0.177802 82:0.132914 83:0.106056 84:0.102756 85:0.15792 86:0.0295735 87:0.00248408 88:0 89:0 90:0.0925926 91:0.444444 92:0.592593 93:0.796296 94:0.703704 95:0.666667 96:0.588103 97:0.9669 98:0.672016 99:0.549147 100:0.28768 101:0.5 102:0.5 103:0.5 104:0.657407 105:0.402778 106:0.458333 107:0.353467 108:0 109:0 110:0.982794 111:0.982794 112:0.418224 113:0.327444 114:0.805905 115:0.329964 116:0.643939 117:0.577652 118:0.526515 119:0.154762 120:0.285714 121:0.0746753 122:0.0584416 123:0.47381 124:0.804087 125:0.0639881 126:1 127:0.963897 128:0.00738362 129:0.0250271 130:0.00369181 131:0.928047 132:0 133:0.0719529 134:0 135:0.868356 136:0.00738362 137:0.109494 138:0.0147672 139:0 140:0.0282968 141:0.0862215 142:0.0743234 143:0.89881 144:0.0159255 145:0.0267857 146:0.00490786 147:0.0714286 148:0.199716 149:0.228118 150:0.0144164 151:0.0466849 152:0.0413234 153:0.0570122 154:0.138973 155:0.202327 156:0 157:0.0335777 158:0.109279 159:0.138069 160:0.148747 161:0.113743 162:0.0148657 163:0.302174 164:0.139545 165:0.0596888 166:0.0193329 167:0.0719306 168:0.250042 169:0.0433765 170:0.176297 171:0.189025 172:0.0403432 173:0.149965 174:0.185937 175:0.0374299 176:0.00311122 177:0 178:0 179:0.0555556 180:0.462963 181:0.574074 182:0.796296 183:0.685185 184:0.685185 185:0.625055 186:0.974045 187:0.642214 188:0.571107 189:0.259252 190:0.5 191:0.5 192:0.5 193:0.703704 194:0.411765 195:0.431818 196:0.172056 197:0 198:0 199:1.00887 200:0.996491 201:0.386876 202:0.376708 203:0.675934 204:0.342774 205:0.552864 206:0.677536 207:0.574275 208:0.0947004 209:0.184524 210:0.0324675 211:0.012987 212:0.286362 213:1 214:0.0625 215:1 216:0.971845 217:0 218:0.0281555 219:0 220:0.927484 221:0.00369181 222:0.0688245 223:0 224:0.827327 225:0.0169632 226:0.127025 227:0.0286849 228:0.00446591 229:0.0830997 230:0.0829648 231:0.0623129 232:0.928571 233:3.19423e-10 234:0.00595238 235:0.0178571 236:0.0714286 237:0.177987 238:0.241764 239:0.00589168 240:0.0316788 241:0.0533967 242:0.0655369 243:0.13727 244:0.215046 245:0 246:0.0300638 247:0.112793 248:0.14529 249:0.123912 250:0.082037 251:0.0669399 252:0.285221 253:0.153744 254:0.0864469 255:0.0194041 256:0.0937434 257:0.217092 258:0.0478751 259:0.175958 260:0.181798 261:0.0345221 262:0.14316 263:0.18632 264:0.0365152 265:0.00288687 266:0 267:0 268:0.0625 269:0.458333 270:0.541667 271:0.854167 272:0.708333 273:0.708333 274:0.631997 275:0.967464 276:0.64762 277:0.598414 278:0.155025 279:0.5 280:0.5 281:0.5 282:0.739583 283:0.411765 284:0.384615 285:0.213592 286:0 287:0.457697 288:0.954499 289:0.91795 290:0.496423 291:0.682766 292:0.411928 293:0.273503 294:0.520071 295:0.630841 296:0.650701 297:0.169924 298:0.329365 299:0.142857 300:0.0649351 301:0.580831 302:1 303:0.287763 304:1 305:0.953949 306:0.00738362 307:0.0312839 308:0.00738362 309:0.793263 310:0.00369181 311:0.188278 312:0.0147672 313:0.797912 314:0.0300313 315:0.12292 316:0.0491365 317:0.0133043 318:0.16069 319:0.191483 320:0.10241 321:0.755952 322:0.0175631 323:0.0393375 324:0.0362213 325:0.0714286 326:0.117608 327:0.144585 328:0 329:0.131436 330:0.163999 331:0.0714286 332:0.112566 333:0.186949 334:0 335:0.0776772 336:0.06518 337:0.0594518 338:0.171185 339:0.134767 340:0.0361858 341:0.224327 342:0.231226 343:0.0385483 344:0.0163395 345:0.0391969 346:0.1836 347:0.130533 348:0.161566 349:0.105845 350:0.16161 351:0.162762 352:0.147464 353:0.0268227 354:0.0020294 355:0 356:0 
0 0 0 1.313160244951587e-12 0 0 1:0.0652174 2:0.413043 3:0.478261 4:0.847826 5:0.717391 6:0.73913 7:0.613687 8:0.945021 9:0.673064 10:0.64834 11:0.0910367 12:0.5 13:0.5 14:0.5 15:0.717391 16:0.434211 17:0.428571 18:0.094531 19:0 20:0.27459 21:0.88035 22:0.93577 23:0.546789 24:1 25:0.252083 26:0.278478 27:0.548474 28:0.599321 29:0.620763 30:0.275376 31:0.265363 32:0.100107 33:0.0511464 34:0.394435 35:1 36:0.195911 37:1 38:0.919028 39:0.0103089 40:0.0567814 41:0.0138817 42:0.854306 43:0.00859072 44:0.11305 45:0.024054 46:0.85623 47:0.0352626 48:0.0892781 49:0.0192297 50:0.00484467 51:0.0601179 52:0.0847224 53:0.0557271 54:0.783179 55:0.0226173 56:0.054093 57:0.0394965 58:0.0714286 59:0.159011 60:0.181285 61:0 62:0.127022 63:0.0944678 64:0.0714286 65:0.11937 66:0.175988 67:0 68:0.0939281 69:0.048929 70:0.0765985 71:0.194142 72:0.13127 73:0.0348466 74:0.216337 75:0.203948 76:0.0500449 77:0.0117075 78:0.0465371 79:0.233853 80:0.0871242 81:0.183384 82:0.122557 83:0.127667 84:0.137125 85:0.173362 86:0.0369469 87:0.00354947 88:0 89:0 90:0.0652174 91:0.413043 92:0.521739 93:0.804348 94:0.717391 95:0.695652 96:0.585115 97:0.95177 98:0.686023 99:0.606299 100:0.264588 101:0.5 102:0.5 103:0.5 104:0.728261 105:0.434211 106:0.458333 107:0.140627 108:0 109:0.0562507 110:0.88035 111:1.00748 112:0.480887 113:0.386469 114:0.759384 115:0.334724 116:0.564364 117:0.631148 118:0.569672 119:0.112306 120:0.158442 121:0 122:0 123:0.384921 124:1 125:0.141156 126:1 127:0.958342 128:0.00397736 129:0.0337036 130:0.00397736 131:0.920216 132:0.00397736 133:0.071829 134:0.00397736 135:0.862049 136:0.0189715 137:0.102306 138:0.0166737 139:0.00280285 140:0.0298096 141:0.0555474 142:0.0430091 143:0.922078 144:0.00113948 145:0.0118475 146:0.025974 147:0.0714286 148:0.205945 149:0.214824 150:0 151:0.0213574 152:0.0291536 153:0.0714286 154:0.146128 155:0.239735 156:0 157:0.0561988 158:0.0866583 159:0.146163 160:0.152142 161:0.0855728 162:0.010575 163:0.333511 164:0.129179 165:0.0828274 166:0.0127619 167:0.0602195 168:0.267405 169:0.0257112 170:0.235868 171:0.138231 172:0.0216853 173:0.155291 174:0.221123 175:0.0529959 176:0.00515215 177:0 178:0 179:0.0681818 180:0.409091 181:0.522727 182:0.840909 183:0.727273 184:0.75 185:0.590511 186:0.946134 187:0.683702 188:0.631216 189:0.13228 190:0.5 191:1 192:0.5 193:0.738636 194:0.434211 195:0.410714 196:0.152743 197:0 198:0.333258 199:0.858439 200:0.93577 201:0.566729 202:0.818367 203:0.381858 204:0.271901 205:0.517427 206:0.623379 207:0.619048 208:0.35854 209:0.352958 210:0.0917175 211:0.0809524 212:0.48286 213:1 214:0.276005 215:1 216:0.9256 217:0.0159094 218:0.0303333 219:0.0281577 220:0.781571 221:0.00397736 222:0.170701 223:0.043751 224:0.738233 225:0.0736753 226:0.159486 227:0.0286058 228:0.0117491 229:0.138442 230:0.170931 231:0.104078 232:0.724067 233:0.0202806 234:0.048819 235:0.0380023 236:0.0714286 237:0.154841 238:0.171826 239:0 240:0.127451 241:0.0959922 242:0.0714286 243:0.122563 244:0.18447 245:0 246:0.0939513 247:0.0489059 248:0.0816315 249:0.225136 250:0.102999 251:0.0294838 252:0.253582 253:0.16431 254:0.0437891 255:0.0182177 256:0.0456744 257:0.236581 258:0.12218 259:0.210606 260:0.11198 261:0.0916233 262:0.119348 263:0.172167 264:0.0359912 265:0.00308766 266:0 267:0 268:0.175 269:0.475 270:0.4 271:0.925 272:0.775 273:0.6 274:0.626824 275:0.950631 276:0.680253 277:0.620168 278:0.164212 279:0 280:0.5 281:0.5 282:0.6375 283:0.40625 284:0.357143 285:0 286:0.00986657 287:0.197331 288:0.896055 289:1.15839 290:0.336675 291:0.633452 292:0.424262 293:0.28003 294:0.555382 295:0.559398 296:0.645 297:0.455666 298:0.321356 299:0.198088 300:0.0690476 301:0.319316 302:1 303:0.0929705 304:1 305:0.869517 306:0.00795472 307:0.0943701 308:0.0281577 309:0.828134 310:0.0159094 311:0.112205 312:0.043751 313:0.903655 314:0.0452985 315:0.0470691 316:0.00397736 317:0 318:0.00206583 319:0.0135471 320:0.0226813 321:0.847403 322:0.0227273 323:0.0524083 324:0.0277927 325:0.0714286 326:0.100832 327:0.196775 328:0 329:0.145635 330:0.133028 331:0.0714286 332:0.0948464 333:0.186027 334:0.140663 335:0.00219402 336:0 337:0.139209 338:0.150881 339:0.0543637 340:0.032458 341:0.313999 342:0.166233 343:0.152468 344:0.0415307 345:0.114439 346:0.192616 347:0.17303 348:0.106705 349:0.0196527 350:0.0764619 351:0.123097 352:0.161044 353:0.0282849 354:0.000609733 355:0 356:0 
0 1.155291878929905e-12 0 0 0 0 1:0.0652174 2:0.413043 3:0.478261 4:0.847826 5:0.717391 6:0.73913 7:0.613687 8:0.945021 9:0.673064 10:0.64834 11:0.0898237 12:0.5 13:0.5 14:0.5 15:0.717391 16:0.434211 17:0.428571 18:0.0932714 19:-0.0044415 20:0.275373 21:0.88035 22:0.93577 23:0.546789 24:1 25:0.248724 26:0.277172 27:0.547666 28:0.594888 29:0.625694 30:0.26588 31:0.256212 32:0.0965318 33:0.0493197 34:0.385117 35:1 36:0.188075 37:1 38:0.918828 39:0.00997556 40:0.0577632 41:0.0134329 42:0.857607 43:0.00831296 44:0.110803 45:0.0232763 46:0.860878 47:0.0341225 48:0.0863915 49:0.018608 50:0.0046828 51:0.0581092 52:0.0817744 53:0.0569287 54:0.788193 55:0.0218374 56:0.0522277 57:0.0381345 58:0.0714286 59:0.157565 60:0.180814 61:0 62:0.130164 63:0.0955028 64:0.0714286 65:0.119348 66:0.17375 67:0 68:0.0941635 69:0.0486936 70:0.0742048 71:0.192836 72:0.136088 73:0.0337577 74:0.211722 75:0.208534 76:0.048481 77:0.0113416 78:0.0450828 79:0.231509 80:0.0871093 81:0.180116 82:0.124358 83:0.131931 84:0.140072 85:0.172071 86:0.0364869 87:0.0034927 88:0 89:0 90:0.0652174 91:0.413043 92:0.521739 93:0.804348 94:0.717391 95:0.695652 96:0.585115 97:0.95177 98:0.686023 99:0.606299 100:0.264588 101:0.5 102:0.5 103:0.5 104:0.728261 105:0.434211 106:0.458333 107:0.140627 108:0 109:0.0562507 110:0.88035 111:1.00748 112:0.480887 113:0.386469 114:0.759384 115:0.334724 116:0.564364 117:0.631148 118:0.569672 119:0.112306 120:0.158442 121:0 122:0 123:0.384921 124:1 125:0.141156 126:1 127:0.958342 128:0.00397736 129:0.0337036 130:0.00397736 131:0.920216 132:0.00397736 133:0.071829 134:0.00397736 135:0.862049 136:0.0189715 137:0.102306 138:0.0166737 139:0.00280285 140:0.0298096 141:0.0555474 142:0.0430091 143:0.922078 144:0.00113948 145:0.0118475 146:0.025974 147:0.0714286 148:0.205945 149:0.214824 150:0 151:0.0213574 152:0.0291536 153:0.0714286 154:0.146128 155:0.239735 156:0 157:0.0561988 158:0.0866583 159:0.146163 160:0.152142 161:0.0855728 162:0.010575 163:0.333511 164:0.129179 165:0.0828274 166:0.0127619 167:0.0602195 168:0.267405 169:0.0257112 170:0.235868 171:0.138231 172:0.0216853 173:0.155291 174:0.221123 175:0.0529959 176:0.00515215 177:0 178:0 179:0.0681818 180:0.386364 181:0.522727 182:0.840909 183:0.659091 184:0.75 185:0.590428 186:0.954344 187:0.660357 188:0.633631 189:0.123194 190:0.5 191:1 192:0.5 193:0.738636 194:0.444444 195:0.410714 196:0.144869 197:0 198:0.335833 199:0.885067 200:0.909753 201:0.566729 202:0.862846 203:0.355588 204:0.268843 205:0.510757 206:0.604507 207:0.646205 208:0.415243 209:0.415729 210:0.120289 211:0.109524 212:0.548209 213:1 214:0.376345 215:1 216:0.908748 217:0.0159094 218:0.0471851 219:0.0281577 220:0.770853 221:0.00397736 222:0.177442 223:0.0477283 224:0.734255 225:0.0736753 226:0.159486 227:0.0325832 228:0.0110958 229:0.121793 230:0.157396 231:0.114878 232:0.6916 233:0.0272111 234:0.0613689 235:0.0506043 236:0.0714286 237:0.157788 238:0.151774 239:0 240:0.163605 241:0.0952841 242:0.0714286 243:0.134874 244:0.153818 245:0 246:0.0881196 247:0.0547375 248:0.0733248 249:0.240479 250:0.141324 251:0.0199266 252:0.217416 253:0.164672 254:0.0356683 255:0.0182177 256:0.0375536 257:0.223158 258:0.127884 259:0.196234 260:0.121324 261:0.109462 262:0.130499 263:0.163906 264:0.0331206 265:0.00277816 266:0 267:0 268:0.175 269:0.425 270:0.375 271:0.925 272:0.775 273:0.575 274:0.64736 275:0.940415 276:0.705527 277:0.617444 278:0.19179 279:0.5 280:1 281:0.5 282:0.6375 283:0.421875 284:0.333333 285:0 286:0.0225246 287:0.123885 288:0.896055 289:1.21203 290:0.291457 291:0.554949 292:0.473016 293:0.282675 294:0.56386 295:0.564624 296:0.634328 297:0.40695 298:0.269408 299:0.178571 300:0.0571429 301:0.222222 302:1 303:0.0623583 304:1 305:0.876865 306:0.00795472 307:0.0909998 308:0.0241803 309:0.860072 310:0.0159094 311:0.0921993 312:0.0318189 313:0.911003 314:0.0413212 315:0.0436987 316:0.00397736 317:0 318:0.00206583 319:0.0144699 320:0.0239262 321:0.866883 322:0.00974026 323:0.0519481 324:0.015266 325:0.0714286 326:0.101863 327:0.196912 328:0 329:0.146851 330:0.127865 331:0.0714286 332:0.0981679 333:0.185483 334:0.142857 335:0 336:0 337:0.153699 338:0.152549 339:0.052372 340:0.0248724 341:0.353265 342:0.120385 343:0.156378 344:0.032047 345:0.133004 346:0.212827 347:0.187081 348:0.113688 349:0 350:0.0600015 351:0.104974 352:0.16122 353:0.0280522 354:0.000491821 355:0 356:0 
0 0 0 3.399204656442983e-12 0 0 1:0.0652174 2:0.434783 3:0.5 4:0.804348 5:0.73913 6:0.717391 7:0.580288 8:0.946134 9:0.683702 10:0.631216 11:0.092278 12:0.5 13:0.5 14:0.5 15:0.706522 16:0.430556 17:0.45 18:0.106553 19:-0.00968668 20:0.295444 21:0.90675 22:0.876058 23:0.577902 24:1 25:0.271227 26:0.272282 27:0.572152 28:0.581094 29:0.617188 30:0.139003 31:0.209273 32:0.042065 33:0.0459476 34:0.342131 35:1 36:0.113293 37:1 38:0.963626 39:0.00356715 40:0.029465 41:0.00334172 42:0.878311 43:0 44:0.112674 45:0.00901488 46:0.910109 47:0.0144137 48:0.0540033 49:0.0214738 50:0.00335908 51:0.033103 52:0.0850666 53:0.0499603 54:0.877812 55:0.0229654 56:0.0227785 57:0.0237536 58:0.0714286 59:0.1461 60:0.187377 61:0 62:0.132158 63:0.115838 64:0.0714286 65:0.116317 66:0.159353 67:0 68:0.0844 69:0.0584571 70:0.0617066 71:0.181439 72:0.150983 73:0.0194766 74:0.21844 75:0.225098 76:0.0275275 77:0.00816403 78:0.041618 79:0.2279 80:0.0964046 81:0.166633 82:0.138304 83:0.157707 84:0.135741 85:0.166839 86:0.0354438 87:0.00352625 88:0 89:0 90:0.0652174 91:0.434783 92:0.565217 93:0.76087 94:0.695652 95:0.695652 96:0.549459 97:0.961112 98:0.672917 99:0.586459 100:0.182868 101:0.5 102:0.5 103:0.5 104:0.717391 105:0.444444 106:0.479167 107:0.147565 108:0 109:0.0527017 110:0.90675 111:0.982794 112:0.480887 113:0.515617 114:0.558638 115:0.33394 116:0.625301 117:0.576968 118:0.558333 119:0.134321 120:0.145556 121:0.0212529 122:0.0227935 123:0.317931 124:1 125:0.0439085 126:1 127:0.974336 128:0.00841366 129:0.0154439 130:0.00180682 131:0.882904 132:0 133:0.114058 134:0.00303756 135:0.877785 136:0.0157715 137:0.0733211 138:0.0331229 139:0.00117156 140:0.0221191 141:0.0648091 142:0.0387669 143:0.947619 144:0.00186417 145:0.0082394 146:0.0137059 147:0.0714286 148:0.192533 149:0.225879 150:0 151:0.030812 152:0.0441819 153:0.0714286 154:0.151318 155:0.212419 156:0 157:0.0430033 158:0.0998539 159:0.12771 160:0.138399 161:0.111597 162:0.0111727 163:0.298377 164:0.169888 165:0.0539144 166:0.0120598 167:0.0693625 168:0.234422 169:0.0439675 170:0.186237 171:0.196595 172:0.0390664 173:0.164375 174:0.2148 175:0.051531 176:0.00488391 177:0 178:0 179:0.0652174 180:0.434783 181:0.543478 182:0.804348 183:0.73913 184:0.717391 185:0.58854 186:0.95177 187:0.686023 188:0.606299 189:0.126288 190:0.5 191:0.5 192:0.5 193:0.728261 194:0.430556 195:0.384615 196:0.161091 197:0 198:0.436289 199:0.90675 200:0.945311 201:0.514451 202:0.809695 203:0.362455 204:0.260477 205:0.538833 206:0.58903 207:0.65186 208:0.27357 209:0.477778 210:0.111172 211:0.121433 212:0.646341 213:1 214:0.273801 215:1 216:0.945095 217:0.00841366 218:0.0386098 219:0.00788195 220:0.787624 221:0 222:0.191113 223:0.0212629 224:0.84224 225:0.0248842 226:0.091339 227:0.0415366 228:0.00820941 229:0.0745518 230:0.179444 231:0.106531 232:0.738076 233:0.0478195 234:0.0537793 235:0.041128 236:0.0714286 237:0.13834 238:0.171 239:0 240:0.16126 241:0.141124 242:0.0714286 243:0.112733 244:0.132685 245:0 246:0.0818879 247:0.0609693 248:0.0605303 249:0.190596 250:0.151612 251:0.0325278 252:0.193091 253:0.228785 254:0.0302649 255:0.0205025 256:0.0397392 257:0.196576 258:0.125891 259:0.14189 260:0.145661 261:0.164578 262:0.134898 263:0.146539 264:0.0277592 265:0.00231615 266:0 267:0 268:0.175 269:0.475 270:0.375 271:0.875 272:0.775 273:0.525 274:0.590141 275:0.95091 276:0.693247 277:0.596623 278:0.404126 279:0.5 280:0.5 281:0.5 282:0.65 283:0.40625 284:0.375 285:0 286:0 287:0.0780961 288:0.896055 289:1.21203 290:0.291457 291:0.240089 292:1.09335 293:0.27475 294:0.543919 295:0.601351 296:0.594595 297:0.0571429 298:0.0761905 299:0.0102041 300:0.0204082 301:0.115385 302:1 303:0.0324675 304:0.75 305:0.966538 306:0 307:0.0334619 308:0 309:0.958816 310:0 311:0.0411838 312:0 313:0.976371 314:0.00303756 315:0.0205919 316:0 317:0 318:0.000804189 319:0.00534586 320:0.0067297 321:0.97619 322:0 323:0 324:0.00952381 325:0.0714286 326:0.100603 327:0.181617 328:0 329:0.155443 330:0.149796 331:0.0714286 332:0.0955986 333:0.174086 334:0.142857 335:0 336:0 337:0.151042 338:0.140492 339:0.0647338 340:0.00372024 341:0.403159 342:0.0939964 343:0.142857 344:0.0199652 345:0.134797 346:0.199494 347:0.220642 348:0.136457 349:0 350:0.073943 351:0.071846 352:0.153385 353:0.026034 354:0.000558165 355:0 356:0 
0 0 0 5.469432869740243e-12 0 0 1:0.0652174 2:0.434783 3:0.5 4:0.804348 5:0.73913 6:0.717391 7:0.580288 8:0.946134 9:0.683702 10:0.631216 11:0.092278 12:0.5 13:0.5 14:0.5 15:0.706522 16:0.430556 17:0.45 18:0.106553 19:-0.00968668 20:0.295444 21:0.90675 22:0.876058 23:0.577902 24:1 25:0.271227 26:0.270392 27:0.572152 28:0.581094 29:0.617188 30:0.132053 31:0.19881 32:0.0399078 33:0.0435913 34:0.324124 35:1 36:0.106999 37:1 38:0.965361 39:0.003397 40:0.0280596 41:0.00318232 42:0.884116 43:0 44:0.1073 45:0.00858487 46:0.914397 47:0.0137262 48:0.0514273 49:0.0204495 50:0.00319494 51:0.0314854 52:0.0809097 53:0.0475189 54:0.883921 55:0.0218171 56:0.0216396 57:0.0225659 58:0.0714286 59:0.144228 60:0.1867 61:0 62:0.135205 63:0.117959 64:0.0714286 65:0.114954 66:0.158097 67:0 68:0.084385 69:0.0584721 70:0.0588365 71:0.179049 72:0.155956 73:0.0185707 74:0.211969 75:0.232762 76:0.0262472 77:0.00778431 78:0.0396822 79:0.223836 80:0.0960883 81:0.162601 82:0.140549 83:0.164073 84:0.139139 85:0.164974 86:0.0347458 87:0.00342117 88:0 89:0 90:0.0652174 91:0.434783 92:0.565217 93:0.76087 94:0.695652 95:0.73913 96:0.555812 97:0.955842 98:0.670941 99:0.613961 100:0.170882 101:0.5 102:0.5 103:0.5 104:0.717391 105:0.444444 106:0.458333 107:0.146054 108:0 109:0.0681583 110:0.90675 111:0.982794 112:0.480887 113:0.558163 114:0.516056 115:0.329557 116:0.611556 117:0.58869 118:0.565549 119:0.143783 120:0.172173 121:0.0317408 122:0.0260359 123:0.339209 124:1 125:0.0402494 126:1 127:0.975767 128:0.00794437 129:0.0145825 130:0.00170604 131:0.879714 132:0 133:0.117418 134:0.00286814 135:0.871574 136:0.01776 137:0.0765227 138:0.0341436 139:0.00117696 140:0.0303491 141:0.0756355 142:0.0409702 143:0.941964 144:0.000783391 145:0.00868871 146:0.0128493 147:0.0714286 148:0.189942 149:0.224646 150:0 151:0.0374596 152:0.049664 153:0.0714286 154:0.149077 155:0.206354 156:0 157:0.042909 158:0.0999481 159:0.118169 160:0.146635 161:0.113218 162:0.0105847 163:0.295681 164:0.172855 165:0.0510768 166:0.0101823 167:0.0646305 168:0.233603 169:0.0533213 170:0.182587 171:0.196476 172:0.0424531 173:0.16567 174:0.21035 175:0.0497848 176:0.00463111 177:0 178:0 179:0.0652174 180:0.434783 181:0.521739 182:0.804348 183:0.73913 184:0.695652 185:0.580917 186:0.95177 187:0.686023 188:0.606299 189:0.122654 190:0.853553 191:0.5 192:0.146447 193:0.728261 194:0.430556 195:0.428571 196:0.143418 197:0 198:0.397658 199:0.90675 200:0.909753 201:0.546789 202:0.833685 203:0.358544 204:0.250116 205:0.53459 206:0.594181 207:0.647 208:0.25424 209:0.452381 210:0.10376 211:0.113337 212:0.605197 213:1 214:0.256937 215:1 216:0.943296 217:0.00794437 218:0.0413171 219:0.00744232 220:0.79947 221:0 222:0.180453 223:0.020077 224:0.843311 225:0.0263644 226:0.0911052 227:0.0392198 228:0.00772447 229:0.0703995 230:0.169029 231:0.095805 232:0.749982 233:0.0547236 234:0.0539181 235:0.0385575 236:0.0714286 237:0.133774 238:0.168404 239:0 240:0.173053 241:0.147252 242:0.0714286 243:0.106284 244:0.128376 245:0 246:0.0964628 247:0.0463944 248:0.0500439 249:0.225129 250:0.1328 251:0.0256609 252:0.213319 253:0.21019 254:0.0238251 255:0.0186416 256:0.0300623 257:0.224473 258:0.150427 259:0.16334 260:0.114322 261:0.158685 262:0.116223 263:0.139665 264:0.025422 265:0.00200253 266:0 267:0 268:0.175 269:0.475 270:0.375 271:0.875 272:0.775 273:0.525 274:0.590141 275:0.95091 276:0.693247 277:0.596623 278:0.510425 279:0.5 280:0.5 281:0.5 282:0.65 283:0.40625 284:0.458333 285:0 286:0 287:0 288:0.896055 289:1.21203 290:0.291457 291:0.190089 292:1.38093 293:0.276111 294:0.556034 295:0.594828 296:0.586207 297:0.0401786 298:0.0446429 299:0 300:0 301:0.0612245 302:1 303:0.0238095 304:0.5 305:0.973265 306:0 307:0.0267346 308:0 309:0.970835 310:0 311:0.029165 312:0 313:0.982549 314:0.00286814 315:0.0145825 316:0 317:0 318:0.000756684 319:0.00346273 320:0 321:0.991071 322:0 323:0 324:0.00892857 325:0.0714286 326:0.101189 327:0.184071 328:0 329:0.152604 330:0.146389 331:0.0714286 332:0.0959856 333:0.176904 334:0.142857 335:0 336:0 337:0.146617 338:0.140125 339:0.0687307 340:0 341:0.404988 342:0.0966828 343:0.142857 344:0.0109023 345:0.135714 346:0.201105 347:0.221333 348:0.136979 349:0 350:0.077648 351:0.0734621 352:0.154421 353:0.0263856 354:0.000579779 355:0 356:0 
0 0 0 0 2.420209458996273e-11 0 1:0.113636 2:0.431818 3:0.522727 4:0.795455 5:0.75 6:0.704545 7:0.537443 8:0.940415 9:0.705527 10:0.617444 11:0.0800572 12:0.5 13:0.5 14:0.5 15:0.693182 16:0.430556 17:0.428571 18:0.0282067 19:0 20:0.305573 21:0.885067 22:0.909753 23:0.566729 24:1 25:0.253861 26:0.283155 27:0.561002 28:0.605769 29:0.605893 30:0.126907 31:0.200661 32:0.0365361 33:0.0264482 34:0.363925 35:1 36:0.131134 37:1 38:0.955838 39:0.005423 40:0.0333164 41:0.005423 42:0.874557 43:0.005423 44:0.111154 45:0.00886624 46:0.891979 47:0.0183565 48:0.0660142 49:0.0236499 50:0.00371516 51:0.0472873 52:0.0997191 53:0.0536664 54:0.879051 55:0.0179909 56:0.0161613 57:0.0311238 58:0.0714286 59:0.147391 60:0.175222 61:0 62:0.122837 63:0.112556 64:0.0714286 65:0.123102 66:0.176035 67:0 68:0.0880902 69:0.0547669 70:0.0834168 71:0.178151 72:0.120278 73:0.0648898 74:0.216302 75:0.194105 76:0.0554667 77:0.0140515 78:0.0777409 79:0.222812 80:0.0789652 81:0.183423 82:0.113184 83:0.149695 84:0.104663 85:0.180822 86:0.0415442 87:0.0046762 88:0 89:0 90:0.113636 91:0.431818 92:0.568182 93:0.840909 94:0.75 95:0.613636 96:0.566947 97:0.95733 98:0.700082 99:0.528583 100:0.248783 101:0.5 102:0.5 103:0.5 104:0.681818 105:0.430556 106:0.479167 107:0.0995538 108:0 109:0 110:0.885067 111:0.982794 112:0.499347 113:0.39951 114:0.739543 115:0.336243 116:0.647727 117:0.596591 118:0.513258 119:0.135204 120:0.188776 121:0.00549451 122:0.010989 123:0.305357 124:1 125:0.0142857 126:1 127:0.969416 128:0 129:0.0273559 130:0.00322826 131:0.91919 132:0.00968479 133:0.0711252 134:0 135:0.905019 136:0.00322826 137:0.0820676 138:0.00968479 139:0 140:0.00769808 141:0.0610689 142:0.0542778 143:0.979592 144:2.73791e-10 145:0 146:0.00510204 147:0.0714286 148:0.197004 149:0.230421 150:0 151:0.0148606 152:0.023295 153:0.0714286 154:0.159085 155:0.232476 156:0 157:0.0503457 158:0.0925114 159:0.144825 160:0.168153 161:0.0671128 162:0.0792097 163:0.312737 164:0.0851059 165:0.0756566 166:0.0142362 167:0.134326 168:0.279428 169:0.0219577 170:0.221835 171:0.1431 172:0.0163002 173:0.09316 174:0.230797 175:0.0579515 176:0.00538807 177:0 178:0 179:0.0681818 180:0.431818 181:0.522727 182:0.795455 183:0.704545 184:0.75 185:0.561905 186:0.949325 187:0.668497 188:0.640414 189:0.129418 190:0.5 191:0.5 192:0.5 193:0.75 194:0.444444 195:0.375 196:0.18899 197:0 198:0.494283 199:0.885067 200:0.909753 201:0.566729 202:0.781665 203:0.392519 204:0.281386 205:0.516688 206:0.611486 207:0.658987 208:0.211536 209:0.347619 210:0.0873774 211:0.0712066 212:0.53628 213:0.75 214:0.293326 215:1 216:0.94184 217:0.0129131 218:0.0355626 219:0.00968479 220:0.795786 221:0.00322826 222:0.179874 223:0.021112 224:0.827809 225:0.0372533 226:0.0915367 227:0.0434013 228:0.00773672 229:0.111865 230:0.196579 231:0.0837811 232:0.760417 233:0.0456153 234:0.0379623 235:0.0613156 236:0.0714286 237:0.153182 238:0.174108 239:0 240:0.122045 241:0.100795 242:0.0714286 243:0.129568 244:0.177446 245:0 246:0.0887271 247:0.05413 248:0.0899877 249:0.218961 250:0.090025 251:0.0668891 252:0.263797 253:0.127483 254:0.0539049 255:0.0170931 256:0.0832694 257:0.249311 258:0.112453 259:0.213684 260:0.0947597 261:0.0929451 262:0.0825794 263:0.177718 264:0.0385528 265:0.00373932 266:0 267:0 268:0.214286 269:0.428571 270:0.404762 271:0.833333 272:0.761905 273:0.595238 274:0.548426 275:0.924918 276:0.728802 277:0.630744 278:0.207745 279:0.5 280:0.5 281:1 282:0.654762 283:0.421875 284:0.388889 285:0 286:0 287:0.488907 288:0.91972 289:1.05841 290:0.404892 291:0.438296 292:0.624714 293:0.244363 294:0.50502 295:0.579167 296:0.66998 297:0.0728723 298:0.134524 299:0.01743 300:0.0111555 301:0.261016 302:1 303:0.0547619 304:1 305:0.955245 306:0.00645653 307:0.0382982 308:0 309:0.873727 310:0 311:0.114103 312:0.0121701 313:0.958812 314:0.00894187 315:0.0164135 316:0.0158328 317:0.00189159 318:0.0307856 319:0.0354422 320:0.031599 321:0.938776 322:0.0108952 323:0.0136107 324:0.00100428 325:0.0714286 326:0.0762239 327:0.0888276 328:0 329:0.196066 330:0.254685 331:0.0714286 332:0.0805881 333:0.160752 334:0 335:0.142857 336:0 337:0.0143599 338:0.223295 339:0.126327 340:0.0099324 341:0.210795 342:0.272434 343:0.0027032 344:0.0124675 345:0.00811767 346:0.17124 347:0.234308 348:0.19665 349:0.0553182 350:0.212741 351:0.106454 352:0.124929 353:0.0183648 354:0.00046134 355:0 356:0 
0 0 0 0 1.076913268212573e-11 0 1:0.113636 2:0.431818 3:0.522727 4:0.795455 5:0.75 6:0.704545 7:0.537443 8:0.940415 9:0.705527 10:0.617444 11:0.0815915 12:0 13:0.5 14:0.5 15:0.693182 16:0.430556 17:0.428571 18:0.0574946 19:0 20:0.311429 21:0.885067 22:0.909753 23:0.566729 24:1 25:0.258726 26:0.280087 27:0.565182 28:0.599719 29:0.608273 30:0.119616 31:0.187516 32:0.0355212 33:0.0257135 34:0.337609 35:1 36:0.12716 37:1 38:0.956972 39:0.00528369 40:0.0324606 41:0.00528369 42:0.877779 43:0.00528369 44:0.108299 45:0.00863849 46:0.899232 47:0.0178849 48:0.0598411 49:0.0230424 50:0.00361721 51:0.046076 52:0.0938005 53:0.0530948 54:0.88232 55:0.0175047 56:0.0157245 57:0.0302826 58:0.0714286 59:0.144214 60:0.171209 61:0 62:0.129201 63:0.118603 64:0.0714286 65:0.120852 66:0.173063 67:0 68:0.0885839 69:0.0542733 70:0.0775817 71:0.175146 72:0.129488 73:0.0605799 74:0.205828 75:0.208519 76:0.0511449 77:0.0124295 78:0.0735133 79:0.214996 80:0.0797232 81:0.177996 82:0.117326 83:0.163727 84:0.109143 85:0.177857 86:0.0403781 87:0.00449351 88:0 89:0 90:0.113636 91:0.431818 92:0.590909 93:0.840909 94:0.75 95:0.681818 96:0.576728 97:0.955104 98:0.699108 99:0.556888 100:0.204699 101:0 102:0.5 103:0.5 104:0.681818 105:0.430556 106:0.454545 107:0.0349348 108:0 109:0 110:0.885067 111:1.02225 112:0.463648 113:0.487922 114:0.593892 115:0.339506 116:0.623438 117:0.60625 118:0.53125 119:0.148649 120:0.203175 121:0.00765306 122:0.0153061 123:0.32967 124:1 125:0.047619 126:1 127:0.960463 128:0 129:0.0334619 130:0.00607513 131:0.91063 132:0.0121503 133:0.0772197 134:0 135:0.886073 136:0.00303756 137:0.0926636 138:0.0182254 139:0.00092432 140:0.0164267 141:0.0703536 142:0.0461556 143:0.966667 144:0.000835618 145:0.00868819 146:0.00952381 147:0.0714286 148:0.195854 149:0.229944 150:0 151:0.0140266 152:0.0278674 153:0.0714286 154:0.158144 155:0.231307 156:0 157:0.0384023 158:0.104455 159:0.141183 160:0.144612 161:0.092768 162:0.0672828 163:0.285714 164:0.125584 165:0.0598093 166:0.0148159 167:0.118605 168:0.253866 169:0.0233435 170:0.194084 171:0.179684 172:0.0180607 173:0.137732 174:0.227989 175:0.0566862 176:0.00516112 177:0 178:0 179:0.0681818 180:0.431818 181:0.522727 182:0.795455 183:0.75 184:0.75 185:0.573311 186:0.940386 187:0.692669 188:0.63762 189:0.126527 190:0.5 191:0.5 192:0.5 193:0.75 194:0.430556 195:0.375 196:0.174127 197:0 198:0.494522 199:0.885067 200:0.909753 201:0.566729 202:0.815756 203:0.376115 204:0.272362 205:0.509422 206:0.61859 207:0.657244 208:0.206958 209:0.343492 210:0.0913402 211:0.0661204 212:0.57195 213:0.647584 214:0.314382 215:1 216:0.929831 217:0.0121503 218:0.0489058 219:0.00911269 220:0.805276 221:0.00303756 222:0.171822 223:0.0198649 224:0.840554 225:0.0350527 226:0.0835554 227:0.0408375 228:0.00861318 229:0.104176 230:0.185633 231:0.0829902 232:0.752579 233:0.0384162 234:0.0340251 235:0.0651732 236:0.0714286 237:0.142536 238:0.164493 239:0 240:0.141292 241:0.119801 242:0.0714286 243:0.122505 244:0.166515 245:0 246:0.0913565 247:0.0515006 248:0.07607 249:0.206867 250:0.114407 251:0.0554475 252:0.238161 253:0.166189 254:0.044594 255:0.0161434 256:0.0682585 257:0.228346 258:0.114715 259:0.197156 260:0.104575 261:0.129942 262:0.0962697 263:0.168586 264:0.0358682 265:0.00357022 266:0 267:0 268:0.175 269:0.425 270:0.375 271:0.825 272:0.775 273:0.525 274:0.572743 275:0.93142 276:0.732303 277:0.599558 278:0.292637 279:0.5 280:1 281:0.5 282:0.6625 283:0.421875 284:0.375 285:0 286:0.019423 287:0.310768 288:0.896055 289:1.21203 290:0.291457 291:0.321783 292:0.815767 293:0.256685 294:0.518229 295:0.583333 296:0.638021 297:0.0428571 298:0.0761905 299:0.0102041 300:1.53037e-34 301:0.196886 302:1 303:0.0194805 304:1 305:0.963964 306:0 307:0.0360359 308:0 309:0.913668 310:0 311:0.0772197 312:0.00911269 313:0.980591 314:0.00303756 315:0.010296 316:0.00607513 317:0.00168253 318:0.0138445 319:0.0147618 320:0.0194349 321:0.97619 322:0.00392629 323:0.000835617 324:0 325:0.0714286 326:0.0933333 327:0.147946 328:0 329:0.185303 330:0.208237 331:0.0714286 332:0.0733861 333:0.148938 334:0.142857 335:0 336:0 337:0.159474 338:0.114293 339:0.060543 340:0.0190972 341:0.390916 342:0.11282 343:0.142857 344:0.0483995 345:0.130172 346:0.154619 347:0.234384 348:0.118537 349:0.0127579 350:0.0974808 351:0.0607927 352:0.1359 353:0.0208684 354:0.000366122 355:0 356:0 
0 0 0 0 3.574306284975765e-11 0 1:0.166667 2:0.428571 3:0.52381 4:0.880952 5:0.714286 6:0.714286 7:0.552024 8:0.950631 9:0.680253 10:0.620168 11:0.075542 12:0.5 13:0.5 14:0.5 15:0.678571 16:0.444444 17:0.458333 18:0.00907776 19:0 20:0.190633 21:0.86217 22:0.982794 23:0.519146 24:1 25:0.231483 26:0.279391 27:0.584133 28:0.595052 29:0.582416 30:0.202859 31:0.320608 32:0.0605009 33:0.045068 34:0.486873 35:1 36:0.188692 37:1 38:0.936882 39:0.0116381 40:0.0464923 41:0.00498778 42:0.83739 43:0.00498778 44:0.144705 45:0.0129181 46:0.877863 47:0.0165628 48:0.0827433 49:0.0228305 50:0.00212144 51:0.0529283 52:0.120306 53:0.0857982 54:0.802987 55:0.020341 56:0.0322992 57:0.0394904 58:0.0714286 59:0.133351 60:0.123672 61:0 62:0.159162 63:0.115762 64:0.0714286 65:0.142247 66:0.18295 67:0 68:0.0820056 69:0.0608516 70:0.0837515 71:0.213533 72:0.132441 73:0.0477122 74:0.209249 75:0.170456 76:0.0528742 77:0.02583 78:0.0516448 79:0.186281 80:0.128865 81:0.187898 82:0.0875181 83:0.125522 84:0.153567 85:0.176772 86:0.0394039 87:0.00394909 88:0 89:0 90:0.166667 91:0.428571 92:0.547619 93:0.833333 94:0.714286 95:0.690476 96:0.521545 97:0.95091 98:0.693247 99:0.596623 100:0.191558 101:0.5 102:0.5 103:0.5 104:0.690476 105:0.444444 106:0.477273 107:0.111054 108:0 109:0 110:0.86217 111:1.02225 112:0.482513 113:0.482391 114:0.616967 115:0.313703 116:0.674658 117:0.563356 118:0.493151 119:0.254329 120:0.363636 121:0.0714286 122:0.0428571 123:0.524233 124:1 125:0.196145 126:1 127:0.919447 128:0.0119321 129:0.0606665 130:0.00795472 131:0.875025 132:0.0119321 133:0.101111 134:0.0119321 135:0.891877 136:0.0119321 137:0.0842591 138:0.0119321 139:0 140:0.0201102 141:0.0419442 142:0.0783107 143:0.857143 144:0.00666519 145:0.0387894 146:0.0246959 147:0.0714286 148:0.169313 149:0.192268 150:0 151:0.059892 152:0.0368916 153:0.0714286 154:0.163353 155:0.235426 156:0 157:0.0556437 158:0.0872134 159:0.141682 160:0.183193 161:0.0887784 162:0.0765861 163:0.25961 164:0.107294 165:0.0993284 166:0.0292318 167:0.0888419 168:0.219686 169:0.0657506 170:0.210182 171:0.0999998 172:0.0172871 173:0.169693 174:0.210765 175:0.0521388 176:0.00509126 177:0 178:0 179:0.075 180:0.4 181:0.55 182:0.875 183:0.75 184:0.75 185:0.629521 186:0.946516 187:0.695351 188:0.611629 189:0.165578 190:0.5 191:0.5 192:0.5 193:0.725 194:0.426471 195:0.409091 196:0.120141 197:0 198:0.369666 199:0.866302 200:0.996491 201:0.502843 202:0.676287 203:0.443599 204:0.299204 205:0.541052 206:0.61236 207:0.618807 208:0.218793 209:0.358225 210:0.065831 211:0.0619048 212:0.612049 213:1 214:0.276077 215:1 216:0.953757 217:0.0119321 218:0.0303333 219:0.00397736 220:0.803375 221:0.00397736 222:0.177654 223:0.0149941 224:0.845331 225:0.0237131 226:0.100203 227:0.0307526 228:0.00413199 229:0.0813912 230:0.172528 231:0.11166 232:0.760484 233:0.0224328 234:0.0296458 235:0.0462917 236:0.0714286 237:0.155838 238:0.175052 239:0 240:0.0979742 241:0.0969112 242:0.0714286 243:0.125328 244:0.20604 245:0 246:0.0673367 247:0.0755205 248:0.0946975 249:0.172382 250:0.107639 251:0.0612749 252:0.24372 253:0.177429 254:0.0668946 255:0.0187449 256:0.0617607 257:0.201656 258:0.107817 259:0.179541 260:0.128916 261:0.0736763 262:0.160993 263:0.196039 264:0.0460318 265:0.00449528 266:0 267:0 268:0.175 269:0.45 270:0.45 271:0.875 272:0.75 273:0.65 274:0.567519 275:0.9445 276:0.6905 277:0.627 278:0.206553 279:0.5 280:0.5 281:0.5 282:0.65 283:0.411765 284:0.388889 285:0 286:0 287:0.432833 288:0.866302 289:1.0839 290:0.422854 291:0.476512 292:0.603343 293:0.25194 294:0.534803 295:0.568359 296:0.665215 297:0.113389 298:0.161688 299:0.036487 300:0.0309524 301:0.324339 302:1 303:0.126984 304:1 305:0.947624 306:0.0119321 307:0.0404443 308:0 309:0.835811 310:0 311:0.145218 312:0.0189715 313:0.940285 314:0.00795472 315:0.0337036 316:0.0180562 317:0.0016419 318:0.0348141 319:0.098648 320:0.0387232 321:0.909091 322:0.00438623 323:0.0187781 324:0.0310627 325:0.0714286 326:0.11468 327:0.127157 328:0 329:0.198442 330:0.183279 331:0.0714286 332:0.0872569 333:0.146328 334:0 335:0.142857 336:0 337:0.0149507 338:0.234743 339:0.159397 340:0.00848734 341:0.166603 342:0.272962 343:0.00197244 344:0.0152759 345:0.00515427 346:0.208256 347:0.167275 348:0.171026 349:0.0979451 350:0.194388 351:0.138707 352:0.145303 353:0.0243448 354:0.00080124 355:0 356:0 
0 0 0 0 1.5136334702829e-11 0 1:0.166667 2:0.428571 3:0.52381 4:0.880952 5:0.714286 6:0.714286 7:0.552024 8:0.950631 9:0.680253 10:0.620168 11:0.0752007 12:0.5 13:0.5 14:0.5 15:0.678571 16:0.444444 17:0.458333 18:0.00903675 19:0 20:0.189772 21:0.86217 22:0.982794 23:0.519146 24:1 25:0.230437 26:0.278508 27:0.584993 28:0.59456 29:0.581989 30:0.196097 31:0.309921 32:0.0584146 33:0.043514 34:0.474587 35:1 36:0.181435 37:1 38:0.938859 39:0.0112736 40:0.0450362 41:0.00483156 42:0.842482 43:0.00483156 44:0.140172 45:0.0125135 46:0.880324 47:0.016044 48:0.0815165 49:0.0221155 50:0.00205284 51:0.051217 52:0.115543 53:0.0825576 54:0.809554 55:0.0196629 56:0.0312226 57:0.038174 58:0.0714286 59:0.13201 60:0.122504 61:0 62:0.161806 63:0.117408 64:0.0714286 65:0.141834 66:0.181582 67:0 68:0.0823919 69:0.0604653 70:0.0812135 71:0.211436 72:0.136955 73:0.0462663 74:0.204978 75:0.176294 76:0.0512719 77:0.0250472 78:0.0500798 79:0.184066 80:0.128693 81:0.185206 82:0.0889389 83:0.130634 84:0.156062 85:0.175908 86:0.0390703 87:0.00390333 88:0 89:0 90:0.166667 91:0.428571 92:0.547619 93:0.833333 94:0.714286 95:0.690476 96:0.521545 97:0.95091 98:0.693247 99:0.596623 100:0.176672 101:0.5 102:0.5 103:0.5 104:0.690476 105:0.444444 106:0.477273 107:0.0910435 108:0 109:0 110:0.86217 111:1.02225 112:0.482513 113:0.523036 114:0.569022 115:0.313854 116:0.65981 117:0.579114 118:0.490506 119:0.233135 120:0.333333 121:0.0649351 122:0.038961 123:0.500381 124:1 125:0.180556 126:1 127:0.91841 128:0.0110754 129:0.0594394 130:0.0110754 131:0.880869 132:0.0110754 133:0.09698 134:0.0110754 135:0.883434 136:0.0110754 137:0.0907232 138:0.0147672 139:0 140:0.0195455 141:0.0445196 142:0.0767386 143:0.857143 144:0.00610976 145:0.0355569 146:0.0226379 147:0.0714286 148:0.17136 149:0.187595 150:0 151:0.0595821 152:0.0408004 153:0.0714286 154:0.163246 155:0.234559 156:0 157:0.0547607 158:0.0880964 159:0.144021 160:0.180167 161:0.0879972 162:0.0835244 163:0.256318 164:0.105116 165:0.104794 166:0.0298085 167:0.0919436 168:0.214344 169:0.065067 170:0.209183 171:0.0996047 172:0.0180303 173:0.167225 174:0.209917 175:0.0518767 176:0.00509985 177:0 178:0 179:0.075 180:0.4 181:0.55 182:0.875 183:0.75 184:0.75 185:0.629521 186:0.946516 187:0.695351 188:0.611629 189:0.154407 190:0.5 191:0.5 192:0.5 193:0.725 194:0.426471 195:0.409091 196:0.112036 197:0 198:0.387816 199:0.866302 200:0.996491 201:0.502843 202:0.725215 203:0.413671 204:0.295838 205:0.53285 206:0.619792 207:0.625769 208:0.209489 209:0.34623 210:0.0598464 211:0.0562771 212:0.599891 213:1 214:0.25871 215:1 216:0.957077 217:0.0110754 218:0.0281555 219:0.00369181 220:0.798721 221:0.00369181 222:0.183669 223:0.0139176 224:0.845923 225:0.0220107 226:0.0961376 227:0.0359283 228:0.00491095 229:0.0833839 230:0.180916 231:0.108114 232:0.770871 233:0.0241835 234:0.0260876 235:0.0435218 236:0.0714286 237:0.153677 238:0.170565 239:0 240:0.10555 241:0.104733 242:0.0714286 243:0.122883 244:0.199734 245:0 246:0.0682155 247:0.0746416 248:0.0883844 249:0.165388 250:0.124175 251:0.0571899 252:0.228499 253:0.193507 254:0.0624349 255:0.0174953 256:0.0576433 257:0.193116 258:0.105544 259:0.172181 260:0.135769 261:0.0916876 262:0.164128 263:0.192685 264:0.0448699 265:0.00444632 266:0 267:0 268:0.175 269:0.45 270:0.45 271:0.875 272:0.75 273:0.65 274:0.567519 275:0.9445 276:0.6905 277:0.627 278:0.203879 279:0.5 280:0.5 281:0.5 282:0.65 283:0.411765 284:0.388889 285:0 286:0 287:0.427229 288:0.866302 289:1.0839 290:0.422854 291:0.482762 292:0.595532 293:0.252355 294:0.538114 295:0.567308 296:0.662674 297:0.103939 298:0.148214 299:0.03317 300:0.0281385 301:0.30619 302:1 303:0.111111 304:1 305:0.951384 306:0.0110754 307:0.0375406 308:0 309:0.847599 310:0 311:0.134792 312:0.0176094 313:0.941444 314:0.00738362 315:0.0344123 316:0.0167599 317:0.00151491 318:0.0321213 319:0.0871858 320:0.0335675 321:0.916667 322:0.00402071 323:0.0172133 324:0.0284741 325:0.0714286 326:0.113423 327:0.128683 328:0 329:0.197652 330:0.182225 331:0.0714286 332:0.0877294 333:0.147429 334:0 335:0.142857 336:0 337:0.0139539 338:0.23128 339:0.162213 340:0.00792152 341:0.164081 342:0.277694 343:0.00184094 344:0.0142575 345:0.00481065 346:0.208274 347:0.164091 348:0.169844 349:0.0980764 350:0.197542 351:0.141263 352:0.145679 353:0.024426 354:0.000784081 355:0 356:0 
0 0 0 0 1.379874461880536e-11 0 1:0.166667 2:0.428571 3:0.52381 4:0.880952 5:0.714286 6:0.714286 7:0.552024 8:0.950631 9:0.680253 10:0.620168 11:0.0776827 12:0.5 13:0.5 14:0.5 15:0.678571 16:0.444444 17:0.458333 18:0.009335 19:-0.0046675 20:0.200702 21:0.86217 22:0.982794 23:0.519146 24:1 25:0.238042 26:0.275116 27:0.577945 28:0.59242 29:0.594807 30:0.179713 31:0.269841 32:0.0529383 33:0.0394345 34:0.416094 35:1 36:0.155687 37:1 38:0.945582 39:0.0103054 40:0.041168 41:0.00294439 42:0.863946 43:0.00294439 44:0.123143 45:0.00996656 46:0.894795 47:0.0131938 48:0.0732675 49:0.0187438 50:0.00187133 51:0.04383 52:0.101717 53:0.0661661 54:0.833361 55:0.0174956 56:0.024435 57:0.0347037 58:0.0714286 59:0.128282 60:0.116393 61:0 62:0.171399 63:0.125085 64:0.0714286 65:0.140419 66:0.175566 67:0 68:0.0838373 69:0.0590198 70:0.0744457 71:0.200382 72:0.155498 73:0.0424108 74:0.186548 75:0.197857 76:0.0469993 77:0.02296 78:0.0459065 79:0.173964 80:0.125569 81:0.173582 82:0.0938322 83:0.153053 84:0.164135 85:0.172548 86:0.0377784 87:0.00373136 88:0 89:0 90:0.166667 91:0.428571 92:0.547619 93:0.833333 94:0.714286 95:0.690476 96:0.521545 97:0.95091 98:0.693247 99:0.596623 100:0.157402 101:0.5 102:0.5 103:0.5 104:0.690476 105:0.444444 106:0.477273 107:0.0304175 108:0 109:0 110:0.86217 111:1.02225 112:0.482513 113:0.587068 114:0.506958 115:0.313969 116:0.635989 117:0.592033 118:0.516484 119:0.240842 120:0.354396 121:0.0684524 122:0.0416667 123:0.529221 124:1 125:0.159171 126:1 127:0.933157 128:0.0103335 129:0.0496201 130:0.00688902 131:0.881144 132:0.00688902 133:0.105078 134:0.00688902 135:0.864973 136:0.0103335 137:0.110916 138:0.013778 139:0 140:0.0296228 141:0.0624127 142:0.0875928 143:0.862637 144:0.0046756 145:0.0227969 146:0.026391 147:0.0714286 148:0.174009 149:0.182044 150:0 151:0.0597721 152:0.0454555 153:0.0714286 154:0.16242 155:0.233442 156:0 157:0.0566239 158:0.0862333 159:0.155142 160:0.177591 161:0.0836092 162:0.0844721 163:0.256591 164:0.0997382 165:0.104328 166:0.0396965 167:0.0951118 168:0.217438 169:0.0633604 170:0.206083 171:0.0928653 172:0.0208193 173:0.160297 174:0.207534 175:0.0510166 176:0.00505055 177:0 178:0 179:0.075 180:0.4 181:0.525 182:0.875 183:0.75 184:0.775 185:0.629411 186:0.940386 187:0.692669 188:0.63762 189:0.142073 190:0.5 191:0.5 192:0.5 193:0.725 194:0.426471 195:0.395833 196:0.101672 197:0 198:0.453611 199:0.866302 200:0.956133 201:0.54042 202:0.799142 203:0.383223 204:0.277002 205:0.510782 206:0.622664 207:0.646718 208:0.209858 209:0.374542 210:0.0697402 211:0.0694444 212:0.594057 213:1 214:0.296631 215:1 216:0.956508 217:0.013778 218:0.0262695 219:0.00344451 220:0.789379 221:0 222:0.197636 223:0.0129854 224:0.843518 225:0.0239808 226:0.0955354 227:0.0369661 228:0.00455837 229:0.0895218 230:0.199726 231:0.101484 232:0.752817 233:0.0369889 234:0.0309886 235:0.0487856 236:0.0714286 237:0.142671 238:0.153151 239:0 240:0.138366 241:0.134476 242:0.0714286 243:0.109735 244:0.178743 245:0 246:0.0869851 247:0.055872 248:0.0657952 249:0.19995 250:0.119967 251:0.044153 252:0.223467 253:0.203811 254:0.046143 255:0.018771 256:0.0437031 257:0.201129 258:0.134546 259:0.176228 260:0.115883 261:0.123874 262:0.139724 263:0.178571 264:0.0396408 265:0.00387431 266:0 267:0 268:0.175 269:0.475 270:0.375 271:0.875 272:0.775 273:0.575 274:0.59865 275:0.9445 276:0.6905 277:0.627 278:0.338774 279:0.5 280:0.5 281:1 282:0.625 283:0.40625 284:0.416667 285:0 286:0 287:0.172097 288:0.896055 289:1.21203 290:0.291457 291:0.290533 292:0.903512 293:0.264075 294:0.546512 295:0.601744 296:0.630814 297:0.0851648 298:0.0934066 299:0.0208333 300:0.00595238 301:0.138312 302:1 303:4.76114e-34 304:1 305:0.964448 306:0.00344451 307:0.0321071 308:0 309:0.929422 310:0 311:0.0671331 312:0.00344451 313:0.959952 314:0.00344451 315:0.0262695 316:0.0103335 317:0 318:0.00459831 319:0.0393445 320:0.0197337 321:0.978022 322:0.00274725 323:0.00824176 324:0 325:0.0714286 326:0.0914471 327:0.151501 328:0 329:0.163446 330:0.218108 331:0.0714286 332:0.0701944 333:0.162446 334:0.142857 335:0 336:0 337:0.0848214 338:0.150955 339:0.0996921 340:0.00446429 341:0.329413 342:0.187796 343:0.142857 344:0.00647321 345:0.0828125 346:0.125993 347:0.244833 348:0.119516 349:0.0349214 350:0.134333 351:0.108261 352:0.144695 353:0.0234058 354:0.000384911 355:0 356:0 
0 0 2.069373255573627e-11 1.19599027197901e-11 0 1.395133113630094e-11 1:0.166667 2:0.428571 3:0.52381 4:0.880952 5:0.714286 6:0.714286 7:0.552024 8:0.950631 9:0.680253 10:0.620168 11:0.0776827 12:0.5 13:0.5 14:0.5 15:0.678571 16:0.444444 17:0.458333 18:0.009335 19:-0.0046675 20:0.200702 21:0.86217 22:0.982794 23:0.519146 24:1 25:0.238042 26:0.274311 27:0.577945 28:0.59242 29:0.594807 30:0.174427 31:0.261905 32:0.0513341 33:0.0382395 34:0.403091 35:1 36:0.150497 37:1 38:0.947097 39:0.0100185 40:0.0400222 41:0.00286244 42:0.867733 43:0.00286244 44:0.119716 45:0.00968916 46:0.897723 47:0.0128266 48:0.0712283 49:0.0182221 50:0.00181775 51:0.0425752 52:0.0988053 53:0.0633106 54:0.838262 55:0.016981 56:0.0237163 57:0.033683 58:0.0714286 59:0.127537 60:0.115233 61:0 62:0.173399 63:0.126518 64:0.0714286 65:0.140042 66:0.174414 67:0 68:0.0841324 69:0.0587248 70:0.0724337 71:0.198917 72:0.159047 73:0.0412646 74:0.183332 75:0.202149 76:0.045729 77:0.0223394 78:0.0446658 79:0.172321 80:0.125454 81:0.1715 82:0.0949287 83:0.157157 84:0.165905 85:0.17177 86:0.0374483 87:0.00367479 88:0 89:0 90:0.166667 91:0.428571 92:0.547619 93:0.833333 94:0.714286 95:0.690476 96:0.521545 97:0.95091 98:0.693247 99:0.596623 100:0.157402 101:0.5 102:0.5 103:0.5 104:0.690476 105:0.444444 106:0.477273 107:0.0304175 108:0 109:0 110:0.86217 111:1.02225 112:0.482513 113:0.587068 114:0.506958 115:0.313969 116:0.635989 117:0.592033 118:0.516484 119:0.240842 120:0.354396 121:0.0684524 122:0.0416667 123:0.529221 124:1 125:0.159171 126:1 127:0.933157 128:0.0103335 129:0.0496201 130:0.00688902 131:0.881144 132:0.00688902 133:0.105078 134:0.00688902 135:0.864973 136:0.0103335 137:0.110916 138:0.013778 139:0 140:0.0296228 141:0.0624127 142:0.0875928 143:0.862637 144:0.0046756 145:0.0227969 146:0.026391 147:0.0714286 148:0.174009 149:0.182044 150:0 151:0.0597721 152:0.0454555 153:0.0714286 154:0.16242 155:0.233442 156:0 157:0.0566239 158:0.0862333 159:0.155142 160:0.177591 161:0.0836092 162:0.0844721 163:0.256591 164:0.0997382 165:0.104328 166:0.0396965 167:0.0951118 168:0.217438 169:0.0633604 170:0.206083 171:0.0928653 172:0.0208193 173:0.160297 174:0.207534 175:0.0510166 176:0.00505055 177:0 178:0 179:0.075 180:0.4 181:0.525 182:0.875 183:0.75 184:0.775 185:0.629411 186:0.940386 187:0.692669 188:0.63762 189:0.142073 190:0.5 191:0.5 192:0.5 193:0.725 194:0.426471 195:0.395833 196:0.101672 197:0 198:0.453611 199:0.866302 200:0.956133 201:0.54042 202:0.799142 203:0.383223 204:0.277002 205:0.510782 206:0.622664 207:0.646718 208:0.209858 209:0.374542 210:0.0697402 211:0.0694444 212:0.594057 213:1 214:0.296631 215:1 216:0.956508 217:0.013778 218:0.0262695 219:0.00344451 220:0.789379 221:0 222:0.197636 223:0.0129854 224:0.843518 225:0.0239808 226:0.0955354 227:0.0369661 228:0.00455837 229:0.0895218 230:0.199726 231:0.101484 232:0.752817 233:0.0369889 234:0.0309886 235:0.0487856 236:0.0714286 237:0.142671 238:0.153151 239:0 240:0.138366 241:0.134476 242:0.0714286 243:0.109735 244:0.178743 245:0 246:0.0869851 247:0.055872 248:0.0657952 249:0.19995 250:0.119967 251:0.044153 252:0.223467 253:0.203811 254:0.046143 255:0.018771 256:0.0437031 257:0.201129 258:0.134546 259:0.176228 260:0.115883 261:0.123874 262:0.139724 263:0.178571 264:0.0396408 265:0.00387431 266:0 267:0 268:0.175 269:0.475 270:0.4 271:0.875 272:0.775 273:0.55 274:0.594888 275:0.95091 276:0.693247 277:0.596623 278:0.401589 279:0.5 280:0.5 281:0.5 282:0.625 283:0.40625 284:0.35 285:0 286:0 287:0 288:0.896055 289:1.26791 290:0.244979 291:0.241605 292:1.06061 293:0.266886 294:0.569444 295:0.579861 296:0.614583 297:0.0741758 298:0.0714286 299:0.0208333 300:0.00595238 301:0.12013 302:1 303:2.38057e-34 304:1 305:0.964448 306:0.00344451 307:0.0321071 308:0 309:0.946935 310:0 311:0.0496201 312:0.00344451 313:0.96976 314:0.00344451 315:0.0233506 316:0.00344451 317:0 318:0.00367865 319:0.0187391 320:0.00799967 321:0.983516 322:0 323:0.00549451 324:0 325:0.0714286 326:0.0909695 327:0.152574 328:0 329:0.161116 330:0.219669 331:0.0714286 332:0.0706414 333:0.162173 334:0.142857 335:0 336:0 337:0.132367 338:0.12268 339:0.081574 340:0.0137418 341:0.359448 342:0.147332 343:0.142857 344:0.0237648 345:0.118436 346:0.140367 347:0.235693 348:0.104058 349:0.0214989 350:0.118775 351:0.0945508 352:0.145343 353:0.0235682 354:0.000359158 355:0 356:0 
