svm_type c_svc
kernel_type polynomial
degree 3
gamma 100
coef0 0
nr_class 4
total_sv 145
rho -0.15966 -0.82643 -0.900588 -0.911654 -0.754196 0.736631
label 4 3 1 2
probA -4.98084 -4.75341 -4.49534 -4.46678 -4.16636 -2.84226
probB 0.104244 0.313232 -0.20834 0.01865 -0.528727 -0.34735
nr_sv 25 49 37 34
SV
7.761003513342273e-12 0 0 1:0.26 2:0.5 3:0.88 4:0.74 5:0.54 6:0.24 7:0.560153 8:0.799626 9:0.524969 10:0.100499 11:0.123836 12:0.5 13:0.5 14:0 15:0.72 16:0.442308 17:0.704545 18:0 19:0.0185522 20:0 21:0.849141 22:1.03709 23:0.479519 24:0.808529 25:0.371044 26:0.293801 27:0.809765 28:0.591165 29:0.300197 30:0.148918 31:0.293678 32:0.0150952 33:0.0322421 34:0.419139 35:1 36:0.203607 37:1 38:0.934451 39:0.00291459 40:0.0568049 41:0.00582917 42:0.702323 43:0.0197314 44:0.254629 45:0.0233167 46:0.92934 47:0.043048 48:0.0246978 49:0.00291459 50:0.0205602 51:0.185075 52:0.168268 53:0.0403228 54:0.855894 55:0.033005 56:0.0369011 57:0.0438537 58:0.125 59:0.18208 60:0.143503 61:0 62:0.073515 63:0.0208679 64:0.125 65:0.185073 66:0.144962 67:0.125408 68:0.105344 69:0.0192481 70:0.214896 71:0.139425 72:0.0651837 73:0.203919 74:0.0917076 75:0.0348689 76:0.275298 77:0.0303605 78:0.24204 79:0.141507 80:0.0470527 81:0.146172 82:0.0294227 83:0.0233099 84:0.0648374 85:0.187423 86:0.0432736 87:0.00521637 88:0 89:0 90:0.195652 91:0.5 92:0.826087 93:0.717391 94:0.5 95:0.26087 96:0.55341 97:0.83914 98:0.5 99:0.132598 100:0.14861 101:0.5 102:0.5 103:0 104:0.73913 105:0.461538 106:0.708333 107:0 108:0 109:0 110:0.90675 111:0.945311 112:0.514451 113:0.647005 114:0.453595 115:0.305888 116:0.844552 117:0.574728 118:0.265502 119:0.284647 120:0.581061 121:0.0422665 122:0.0902778 123:0.42964 124:0.333333 125:0.45336 126:1 127:0.90796 128:0.00698935 129:0.0710721 130:0.0139787 131:0.43043 132:0.0403276 133:0.480317 134:0.0489254 135:0.891912 136:0.0962424 137:0.0118454 138:0 139:0.0496758 140:0.440482 141:0.290235 142:0.0406603 143:0.722356 144:0.0736553 145:0.0765515 146:0.0474326 147:0.125 148:0.200788 149:0.129256 150:0 151:0.074406 152:0.0303294 153:0.125 154:0.163925 155:0.151296 156:0.108233 157:0.115834 158:0.0259333 159:0.129403 160:0.179362 161:0.120619 162:0.118617 163:0.144236 164:0.0577632 165:0.179917 166:0.0414042 167:0.132649 168:0.204304 169:0.0595057 170:0.180883 171:0.057158 172:0.0298199 173:0.114359 174:0.193827 175:0.0445711 176:0.00553294 177:0 178:0 179:0.204545 180:0.568182 181:0.681818 182:0.795455 183:0.522727 184:0.409091 185:0.524436 186:0.952876 187:0.465163 188:0.29098 189:0.27132 190:0.276393 191:0.5 192:0.0527864 193:0.715909 194:0.520833 195:0.681818 196:0 197:0 198:0 199:1.07145 200:0.828849 201:0.463648 202:0.300565 203:0.85067 204:0.34502 205:0.815104 206:0.5625 207:0.322917 208:0.119318 209:0.215909 210:0 211:0 212:0.522222 213:1 214:0.142857 215:0.5 216:0.952619 217:0 218:0.0473814 219:0 220:0.765035 221:0.0139787 222:0.220987 223:0 224:0.947285 225:0.0279574 226:0.017768 227:0.00698935 228:0.00470149 229:0.0608633 230:0.149442 231:0.0887728 232:0.954545 233:0 234:0 235:0.0454545 236:0.125 237:0.185625 238:0.162939 239:0 240:0.0428668 241:0.00864985 242:0.125 243:0.210135 244:0.139785 245:0.0534608 246:0.181555 247:0.0149842 248:0.0971848 249:0.285031 250:0.0472494 251:0.182235 252:0.109909 253:0.0283904 254:0.165026 255:0.0178909 256:0.144448 257:0.270642 258:0.0440332 259:0.264925 260:0.0335324 261:0.00827861 262:0.0512244 263:0.193839 264:0.028822 265:0.00157045 266:0 267:0 268:0.195652 269:0.565217 270:0.630435 271:0.804348 272:0.565217 273:0.543478 274:0.526316 275:0.994975 276:0.5 277:0.429289 278:0.660409 279:0.5 280:0.5 281:0 282:0.717391 283:0.458333 284:0.571429 285:0 286:0 287:0 288:1.08991 289:1.04272 290:0.295441 291:0.116382 292:1.96131 293:0.366586 294:0.6875 295:0.6875 296:0.39375 297:0.0340909 298:0.0681818 299:0 300:0 301:0.305556 302:0.5 303:0.0892857 304:0.5 305:0.958541 306:0 307:0.0414587 308:0 309:0.945629 310:0 311:0.0473814 312:0.00698935 313:0.970387 314:0 315:0.0296134 316:0 317:0 318:0.00267971 319:0.0078466 320:0.0041859 321:0.965909 322:0.00568182 323:0.00568182 324:0.0227273 325:0.125 326:0.141598 327:0.191991 328:0 329:0.0435063 330:0.0261027 331:0.125 332:0.187476 333:0.159325 334:0 335:0.168596 336:0.0814045 337:0.0865366 338:0.127865 339:0.157659 340:0.253377 341:0.070539 342:0.054023 343:0.214859 344:0.0135041 345:0.111242 346:0.156259 347:0.0280535 348:0.180314 349:0.103369 350:0.0203417 351:0.172057 352:0.191917 353:0.0235031 354:0.000646602 355:0 356:0 
0 1.074714061653264e-11 1.652056215237089e-11 1:0.26 2:0.5 3:0.88 4:0.74 5:0.54 6:0.24 7:0.560153 8:0.799626 9:0.524969 10:0.100499 11:0.12158 12:0.5 13:0.5 14:0 15:0.72 16:0.442308 17:0.704545 18:0 19:0.0242857 20:0 21:0.849141 22:1.03709 23:0.479519 24:0.823529 25:0.364286 26:0.294699 27:0.802932 28:0.589154 29:0.310119 30:0.116719 31:0.23018 32:0.0117407 33:0.0250772 34:0.323336 35:1 36:0.154248 37:1 38:0.944017 39:0.0023148 40:0.0490382 41:0.0046296 42:0.761619 43:0.0156709 44:0.204191 45:0.0185184 46:0.943881 47:0.0341893 48:0.0196153 49:0.0023148 50:0.0162174 51:0.145984 52:0.13588 53:0.0352522 54:0.887052 55:0.0258687 56:0.0289225 57:0.0343718 58:0.125 59:0.183784 60:0.151682 61:0 62:0.0647927 63:0.020325 64:0.125 65:0.181297 66:0.14812 67:0.140515 68:0.0940863 69:0.0153985 70:0.233669 71:0.122184 72:0.052147 73:0.232653 74:0.0814526 75:0.0278951 76:0.310144 77:0.0303102 78:0.27152 79:0.1233 80:0.041075 81:0.129595 82:0.0235382 83:0.0186479 84:0.0518699 85:0.188368 86:0.04198 87:0.0048737 88:0 89:0 90:0.229167 91:0.5 92:0.854167 93:0.729167 94:0.5 95:0.229167 96:0.567689 97:0.812348 98:0.5 99:0.109566 100:0.139917 101:0.5 102:0.5 103:0 104:0.729167 105:0.461538 106:0.7125 107:0 108:0 109:0 110:0.876058 111:0.994421 112:0.496423 113:0.71506 114:0.415175 115:0.299086 116:0.841273 117:0.572248 118:0.273406 119:0.246241 120:0.484444 121:0.0301904 122:0.0644841 123:0.466674 124:0.5 125:0.315017 126:1 127:0.920739 128:0.00533261 129:0.0632629 130:0.0106652 131:0.501362 132:0.0361011 133:0.425208 134:0.0373283 135:0.89783 136:0.078762 137:0.0180751 138:0.00533261 139:0.0386919 140:0.348292 141:0.316661 142:0.075883 143:0.779728 144:0.0596429 145:0.0671754 146:0.0347839 147:0.125 148:0.188439 149:0.12915 150:0 151:0.0902009 152:0.0263395 153:0.125 154:0.171001 155:0.144869 156:0.107564 157:0.115554 158:0.0268819 159:0.164674 160:0.166913 161:0.104383 162:0.134745 163:0.125562 164:0.0537233 165:0.202794 166:0.043541 167:0.160303 168:0.186537 169:0.0625808 170:0.162519 171:0.0452803 172:0.0331979 173:0.103246 174:0.189931 175:0.0454394 176:0.00581522 177:0 178:0 179:0.195652 180:0.565217 181:0.652174 182:0.804348 183:0.565217 184:0.478261 185:0.523695 186:0.980762 187:0.5 188:0.362639 189:0.299243 190:0.5 191:0.5 192:0 193:0.717391 194:0.5 195:0.65 196:0 197:0 198:0 199:1.08991 200:0.876058 201:0.410127 202:0.264439 203:0.924844 204:0.34717 205:0.76087 206:0.61413 207:0.36413 208:0.0791667 209:0.141667 210:0 211:0 212:0.490385 213:1 214:0.147727 215:0.5 216:0.950293 217:0 218:0.0497066 219:0 220:0.867328 221:0.00533261 222:0.122007 223:0.00533261 224:0.953185 225:0.00533261 226:0.0361503 227:0.00533261 228:0 229:0.0162489 230:0.0564186 231:0.0298286 232:0.941667 233:0.00416667 234:0.00416667 235:0.05 236:0.125 237:0.152854 238:0.171888 239:0 240:0.0526225 241:0.020736 242:0.125 243:0.202122 244:0.149777 245:0 246:0.235376 247:0.0146243 248:0.0700631 249:0.266713 250:0.0668809 251:0.199306 252:0.125534 253:0.021502 254:0.15871 255:0.0175039 256:0.0892733 257:0.259484 258:0.0487005 259:0.322718 260:0.0346862 261:0.0111788 262:0.0577451 263:0.185203 264:0.0246357 265:0.000966278 266:0 267:0 268:0.152174 269:0.565217 270:0.586957 271:0.804348 272:0.565217 273:0.543478 274:0.559481 275:0.998893 276:0.5 277:0.46674 278:1.04295 279:0.5 280:0.5 281:0.5 282:0.728261 283:0.5 284:0.607143 285:0 286:0 287:0 288:1.08991 289:1.04272 290:0.295441 291:0.0783381 292:2.91379 293:0.373543 294:0.576923 295:0.692308 296:0.509615 297:0.00833333 298:0.0166667 299:0 300:0 301:0.0576923 302:0.5 303:0 304:0 305:0.972887 306:0 307:0.0271127 308:0 309:0.981111 310:0 311:0.0135563 312:0.00533261 313:0.981925 314:0 315:0.0180751 316:0 317:0 318:0.00123181 319:0.0066422 320:0.00663515 321:1 322:0 323:0 324:0 325:0.125 326:0.137006 327:0.206042 328:0 329:0.0382484 330:0.0280197 331:0.125 332:0.157321 333:0.183363 334:0 335:0.180954 336:0.0690464 337:0.0929292 338:0.123616 339:0.114317 340:0.282071 341:0.0712693 342:0.0657978 343:0.240504 344:0.00949643 345:0.125 346:0.172329 347:0.020238 348:0.183221 349:0.0776714 350:0.0153106 351:0.15623 352:0.198498 353:0.0241282 354:0.000606194 355:0 356:0 
2.103739886148725e-11 0 0 1:0.347826 2:0.456522 3:0.847826 4:0.73913 5:0.586957 6:0.282609 7:0.457393 8:0.779616 9:0.593205 10:0.0961097 11:0.0966365 12:0.295876 13:0.704124 14:0.0917517 15:0.693182 16:0.416667 17:0.684783 18:0 19:0.162127 20:0.0780611 21:0.807617 22:0.972377 23:0.577902 24:0.905088 25:0.360282 26:0.262665 27:0.765476 28:0.622201 29:0.352398 30:0.246334 31:0.500652 32:0.111743 33:0.227694 34:0.559283 35:1 36:0.408279 37:1 38:0.875476 39:0.0072352 40:0.0919652 41:0.0253232 42:0.594616 43:0.0036176 44:0.281266 45:0.120501 46:0.885029 47:0.0879425 48:0.0214585 49:0.00557017 50:0.0138635 51:0.205438 52:0.285583 53:0.14251 54:0.667605 55:0.0934798 56:0.103627 57:0.083347 58:0.0936186 59:0.124201 60:0.161711 61:0.00741745 62:0.116571 63:0.0679505 64:0.105093 65:0.172684 66:0.150753 67:0.0436929 68:0.121905 69:0.0264602 70:0.111269 71:0.221884 72:0.0978167 73:0.207107 74:0.153135 75:0.0167295 76:0.220305 77:0.0453246 78:0.106935 79:0.139364 80:0.105574 81:0.239093 82:0.0213325 83:0.0444824 84:0.07759 85:0.173083 86:0.0362412 87:0.00353485 88:0 89:0 90:0.275 91:0.475 92:0.8 93:0.725 94:0.575 95:0.4 96:0.394582 97:0.868654 98:0.581923 99:0.172307 100:0.118871 101:0.295876 102:0.704124 103:0.0917517 104:0.7125 105:0.428571 106:0.657895 107:0 108:0.214243 109:0 110:0.811034 111:0.93577 112:0.610726 113:0.641795 114:0.51613 115:0.267146 116:0.793166 117:0.670455 118:0.293459 119:0.399663 120:0.811852 121:0.221357 122:0.454282 123:0.453677 124:0.304087 125:0.577486 126:1 127:0.808851 128:0.00827474 129:0.133226 130:0.0496485 131:0.413666 132:0 133:0.376903 134:0.209431 135:0.845289 136:0.134958 137:0.0070119 138:0.012741 139:0.0252552 140:0.364226 141:0.354745 142:0.0785591 143:0.536225 144:0.0709214 145:0.15701 146:0.130884 147:0.109523 148:0.134728 149:0.149447 150:0 151:0.135587 152:0.0462976 153:0.120452 154:0.179364 155:0.124601 156:0.0405752 157:0.153474 158:0.0365459 159:0.0496111 160:0.239856 161:0.164808 162:0.119412 163:0.175345 164:0.0203726 165:0.160573 166:0.0201195 167:0.0311672 168:0.195714 169:0.105238 170:0.266712 171:0.0315709 172:0.065628 173:0.123277 174:0.190072 175:0.0409434 176:0.0043193 177:0 178:0 179:0.261905 180:0.547619 181:0.738095 182:0.738095 183:0.547619 184:0.547619 185:0.372723 186:0.964238 187:0.5 188:0.314305 189:0.163667 190:0.341886 191:0.5 192:0.0256584 193:0.738095 194:0.461538 195:0.633333 196:0 197:0 198:0 199:0.950547 200:0.856706 201:0.554307 202:0.391704 203:0.74461 204:0.300226 205:0.717407 206:0.679245 207:0.283019 208:0.206539 209:0.418981 210:0.122507 211:0.25 212:0.634293 213:0.5 214:0.323589 215:0.804087 216:0.913331 217:0.00827474 218:0.070119 219:0.00827474 220:0.632402 221:0.00827474 222:0.284851 223:0.0744727 224:0.872675 225:0.120313 226:0.0070119 227:0 228:0.00655797 229:0.141293 230:0.288072 231:0.162755 232:0.71302 233:0.108502 234:0.104008 235:0.0466918 236:0.12267 237:0.106101 238:0.187678 239:0.00232986 240:0.0858855 241:0.038927 242:0.125 243:0.177349 244:0.15406 245:0 246:0.19952 247:0.0504802 248:0.0541495 249:0.183074 250:0.134872 251:0.14305 252:0.191837 253:0.0430166 254:0.160781 255:0.0206318 256:0.0154742 257:0.238366 258:0.0838983 259:0.250726 260:0.0217346 261:0.0397766 262:0.168612 263:0.18295 264:0.0285583 265:0.00180262 266:0 267:0 268:0.166667 269:0.619048 270:0.52381 271:0.785714 272:0.52381 273:0.571429 274:0.503999 275:0.992764 276:0.42419 277:0.537905 278:0.33365 279:0.5 280:0.5 281:0 282:0.72619 283:0.458333 284:0.675 285:0 286:0 287:0.278233 288:1.05165 289:0.876058 290:0.444419 291:0.235328 292:1.08764 293:0.321667 294:0.671429 295:0.5 296:0.525 297:0.126502 298:0.25463 299:0.0078125 300:0.015625 301:0.589881 302:1 303:0.25 304:0.75 305:0.941379 306:0.00827474 307:0.0420714 308:0.00827474 309:0.811376 310:0.00827474 311:0.14725 312:0.033099 313:0.92483 314:0.033099 315:0.0420714 316:0 317:0.00170487 318:0.0200336 319:0.095424 320:0.12708 321:0.898567 322:0.0229739 323:0.0229033 324:0.0416667 325:0.125 326:0.178595 327:0.14252 328:0 329:0.0829162 330:0.0201427 331:0.125 332:0.187692 333:0.138134 334:0 335:0.145976 336:0.104024 337:0.0873733 338:0.200842 339:0.16418 340:0.135827 341:0.129269 342:0.0325095 343:0.148474 344:0.0235267 345:0.0476392 346:0.224881 347:0.0696272 348:0.179941 349:0.072706 350:0.0334819 351:0.199722 352:0.169557 353:0.0223847 354:0.000857793 355:0 356:0 
1.168788312435347e-12 0 0 1:0.25 2:0.375 3:0.895833 4:0.625 5:0.625 6:0.270833 7:0.511731 8:0.743332 9:0.662221 10:0.0944464 11:0.106412 12:0.211325 13:0.788675 14:0.211325 15:0.77381 16:0.411765 17:0.65625 18:0 19:0.316477 20:0 21:0.851966 22:0.890275 23:0.616297 24:0.905149 25:0.356755 26:0.265157 27:0.798255 28:0.671007 29:0.316129 30:0.410434 31:0.831667 32:0.192809 33:0.333333 34:0.637362 35:0.397584 36:0.564364 37:1 38:0.80388 39:0 40:0.167324 41:0.0287961 42:0.526004 43:0 44:0.298999 45:0.174997 46:0.893015 47:0.0895553 48:0.0174296 49:0 50:0.00853065 51:0.218118 52:0.483777 53:0.178675 54:0.492182 55:0.142029 56:0.179966 57:0.0926267 58:0.0999764 59:0.207113 60:0.128565 61:0.0134192 62:0.0913528 63:0.0607421 64:0.120169 65:0.185222 66:0.0934406 67:0.0110825 68:0.13271 69:0.0934747 70:0.0655554 71:0.270034 72:0.146354 73:0.105161 74:0.14744 75:0.0281881 76:0.105924 77:0.0269443 78:0.0537524 79:0.245265 80:0.0863217 81:0.204888 82:0.088525 83:0.0445146 84:0.143865 85:0.172842 86:0.039972 87:0.00429649 88:0 89:0 90:0.175 91:0.4 92:0.7 93:0.775 94:0.45 95:0.5 96:0.450301 97:0.972866 98:0.539406 99:0.342378 100:0.181447 101:0.211325 102:0.788675 103:0.211325 104:0.75 105:0.483333 106:0.576923 107:0 108:0.357501 109:0 110:0.927295 111:0.856706 112:0.576375 113:0.437062 114:0.686402 115:0.29646 116:0.786382 117:0.688596 118:0.339014 119:0.494048 120:0.991071 121:0.254691 122:0.402778 123:0.66532 124:0.397584 125:0.783752 126:1 127:0.761825 128:0 129:0.197617 130:0.0405579 131:0.559733 132:0 133:0.229672 134:0.210596 135:0.896989 136:0.0686429 137:0.0343682 138:0 139:0.00203205 140:0.189507 141:0.380483 142:0.142218 143:0.511018 144:0.0707991 145:0.159382 146:0.0980871 147:0.127011 148:0.215039 149:0.100053 150:0.0113259 151:0.0802416 152:0.0346623 153:0.16945 154:0.212116 155:0.0501013 156:0.103797 157:0.143477 158:0.0630862 159:0.0462859 160:0.323233 161:0.135204 162:0.0601113 163:0.0987724 164:0.0260336 165:0.147639 166:0.00772814 167:0.0508249 168:0.226602 169:0.0814187 170:0.261037 171:0.0616341 172:0.0366666 173:0.126449 174:0.185885 175:0.0326023 176:0.0026083 177:0 178:0 179:0.131579 180:0.473684 181:0.736842 182:0.763158 183:0.526316 184:0.473684 185:0.492454 186:0.960179 187:0.538348 188:0.308259 189:0.205644 190:0.5 191:0.723607 192:0.0527864 193:0.763158 194:0.446429 195:0.645833 196:0 197:0.157722 198:0 199:0.93577 200:0.86217 201:0.563316 202:0.417124 203:0.709748 204:0.318492 205:0.868056 206:0.618056 207:0.304607 208:0.369096 209:0.75119 210:0.154848 211:0.236111 212:0.545667 213:0.397584 214:0.638845 215:1 216:0.840701 217:0 218:0.128881 219:0.0304184 220:0.553381 221:0 222:0.307 223:0.139619 224:0.940711 225:0.0506974 226:0.00859205 227:0 228:0.00703302 229:0.214081 230:0.414882 231:0.116155 232:0.720843 233:0.0238347 234:0.0998784 235:0.0929439 236:0.125 237:0.206933 238:0.141392 239:0.00433492 240:0.0654241 241:0.0218954 242:0.143725 243:0.204922 244:0.086373 245:0.0871717 246:0.151162 247:0.0346037 248:0.0461418 249:0.271814 250:0.161123 251:0.105964 252:0.120719 253:0.0213009 254:0.169046 255:0.0093642 256:0.0557848 257:0.251325 258:0.0562961 259:0.234099 260:0.0507055 261:0.027577 262:0.145802 263:0.206978 264:0.0396609 265:0.00349058 266:0 267:0 268:0.131579 269:0.5 270:0.736842 271:0.710526 272:0.552632 273:0.473684 274:0.449977 275:0.953632 276:0.541239 277:0.293803 278:0.186206 279:0.5 280:0.5 281:0 282:0.776316 283:0.480769 284:0.625 285:0 286:0 287:0 288:0.93577 289:0.822418 290:0.60005 291:0.428373 292:0.706467 293:0.305185 294:0.796296 295:0.671296 296:0.296296 297:0.372024 298:0.758929 299:0.201022 300:0.416667 301:0.792 302:0.304087 303:0.703704 304:0.5 305:0.871119 306:0 307:0.128881 308:0 309:0.549148 310:0 311:0.329178 312:0.121674 313:0.890013 314:0.101395 315:0.00859205 316:0 317:0.0122108 318:0.109133 319:0.414694 320:0.203388 321:0.586053 322:0.0851071 323:0.190757 324:0.0915081 325:0.125 326:0.205347 327:0.135297 328:0 329:0.0619408 330:0.0229925 331:0.125 332:0.170681 333:0.153742 334:0 335:0.206401 336:0.0435993 337:0.0282947 338:0.250272 339:0.159719 340:0.100647 341:0.173049 342:0.0380185 343:0.0876608 344:0.0107673 345:0.031412 346:0.300136 347:0.0545583 348:0.276947 349:0.0729225 350:0.0251353 351:0.140461 352:0.200291 353:0.037495 354:0.00295256 355:0 356:0 
1.911484254753262e-11 0 0 1:0.104167 2:0.6875 3:0.166667 4:0.979167 5:0.1875 6:0.875 7:0.801358 8:0.855168 9:0.297047 10:0.787517 11:0.170514 12:0.704124 13:0.295876 14:0.908248 15:0.59375 16:0.625 17:0.358696 18:0.190335 19:0 20:0.611379 21:0.806672 22:0.962994 23:0.588003 24:0.903013 25:0.363367 26:0.242491 27:0.544284 28:0.394301 29:0.804771 30:0.371397 31:0.752183 32:0.14908 33:0.252778 34:0.743311 35:0.5 36:0.457733 37:1 38:0.756339 39:0.0118017 40:0.161049 41:0.0708101 42:0.614574 43:0.00696248 44:0.197504 45:0.180959 46:0.844392 47:0.100471 48:0.0433359 49:0.0118017 50:0.00840648 51:0.185868 52:0.296453 53:0.247938 54:0.555879 55:0.15169 56:0.117703 57:0.0690992 58:0.132469 59:0.145247 60:0.0416396 61:0.0929978 62:0.175629 63:0.0610777 64:0.239573 65:0.100747 66:0.0106197 67:0.0596978 68:0.209204 69:0.181556 70:0.0712897 71:0.26552 72:0.0986634 73:0.0632853 74:0.0479045 75:0.00287892 76:0.090984 77:0.0563528 78:0.0517792 79:0.156938 80:0.181051 81:0.181635 82:0.068986 83:0.0971708 84:0.115104 85:0.156948 86:0.0323855 87:0.00297012 88:0 89:0 90:0.119048 91:0.666667 92:0.261905 93:0.880952 94:0.285714 95:0.880952 96:0.72669 97:0.861773 98:0.319114 99:0.79394 100:0.265323 101:0.704124 102:0.295876 103:0.908248 104:0.666667 105:0.571429 106:0.367647 107:0.14398 108:0 109:0.7199 110:0.890275 111:0.881872 112:0.588003 113:0.4961 114:0.623914 115:0.242712 116:0.544009 117:0.412698 118:0.805556 119:0.436999 120:0.890104 121:0.203014 122:0.359127 123:0.708803 124:0.333333 125:0.364111 126:0.679509 127:0.7776 128:0 129:0.131273 130:0.0911269 131:0.527338 132:0 133:0.272182 134:0.200479 135:0.826113 136:0.150722 137:0.0231659 138:0 139:0.0134596 140:0.195433 141:0.292517 142:0.256952 143:0.668733 144:0.137231 145:0.0761851 146:0.0515109 147:0.099073 148:0.13747 149:0.0428296 150:0.00698091 151:0.231412 152:0.0960211 153:0.186201 154:0.18068 155:0.0193318 156:0.0960607 157:0.140095 158:0.0541779 159:0.0453984 160:0.389403 161:0.116851 162:0.0701878 163:0.0865644 164:0.00126247 165:0.0956318 166:0.0465466 167:0.0692292 168:0.175734 169:0.210286 170:0.231875 171:0.00558698 172:0.0718995 173:0.0932112 174:0.141529 175:0.0215159 176:0.00173879 177:0 178:0 179:0.125 180:0.7 181:0.225 182:0.975 183:0.3 184:0.775 185:0.78105 186:0.890418 187:0.316274 188:0.752623 189:0.303128 190:0.788675 191:0.211325 192:0.788675 193:0.6625 194:0.545455 195:0.390625 196:0.0696157 197:0 198:0.668311 199:0.896055 200:0.968509 201:0.502843 202:0.448893 203:0.654388 204:0.26771 205:0.535088 206:0.399123 207:0.820175 208:0.324469 209:0.661458 210:0.0871967 211:0.181548 212:0.642531 213:0.5 214:0.578819 215:0.666667 216:0.764937 217:0 218:0.162161 219:0.0729015 220:0.59875 221:0 222:0.200771 223:0.200479 224:0.867482 225:0.10024 226:0.0231659 227:0.00911269 228:0.00826676 229:0.185881 230:0.251744 231:0.168934 232:0.679687 233:0.09584 234:0.136373 235:0.0724746 236:0.0831917 237:0.149511 238:0.0862883 239:0.0188427 240:0.16655 241:0.0961235 242:0.193545 243:0.188783 244:0.0171654 245:0.183393 246:0.0510834 247:0.0634988 248:0.0733336 249:0.31164 250:0.114013 251:0.0739015 252:0.10415 253:0.0249869 254:0.15456 255:0.0445248 256:0.138319 257:0.123727 258:0.171371 259:0.169576 260:0.0488611 261:0.0588766 262:0.0901843 263:0.160962 264:0.0271714 265:0.00198723 266:0 267:0 268:0.166667 269:0.642857 270:0.357143 271:0.97619 272:0.309524 273:0.738095 274:0.733589 275:0.923941 276:0.325436 277:0.699502 278:0.324082 279:0.5 280:0.146447 281:0.853553 282:0.630952 283:0.583333 284:0.4 285:0.113146 286:0 287:0.339438 288:0.950547 289:1.03038 290:0.404892 291:0.368255 292:0.727368 293:0.301316 294:0.54902 295:0.365196 296:0.795565 297:0.388705 298:0.777083 299:0.156566 300:0.22619 301:0.862902 302:0.5 303:0.435866 304:1 305:0.756197 306:0.0273381 307:0.180014 308:0.0364508 309:0.757299 310:0.0161283 311:0.108108 312:0.118465 313:0.875826 314:0.0364508 315:0.0694977 316:0.0182254 317:0 318:0.0884413 319:0.197654 320:0.222458 321:0.6875 322:0.0529281 323:0.0537051 324:0.0574294 325:0.120933 326:0.17312 327:0.0809469 328:0.0898724 329:0.100544 330:0.0196358 331:0.257657 332:0.148209 333:0.00908216 334:0.204553 335:0.106371 336:0.161407 337:0.0321943 338:0.264309 339:0.122882 340:0.00521327 341:0.0622036 342:0.0408672 343:0.114082 344:0.00735972 345:0.11764 346:0.144418 347:0.130613 348:0.178757 349:0.116501 350:0.07952 351:0.11111 352:0.173217 353:0.0279417 354:0.00159456 355:0 356:0 
2.485099797544342e-12 1.683966702817174e-12 0 1:0.104167 2:0.6875 3:0.1875 4:0.979167 5:0.1875 6:0.895833 7:0.842268 8:0.855168 9:0.297047 10:0.787517 11:0.181431 12:0.853553 13:0.5 14:0.853553 15:0.59375 16:0.625 17:0.3375 18:0.153425 19:0 20:0.576877 21:0.876058 22:0.896055 23:0.588003 24:0.848678 25:0.36822 26:0.254612 27:0.538068 28:0.392308 29:0.809221 30:0.343705 31:0.695833 32:0.131006 33:0.217361 34:0.792841 35:0.628297 36:0.519809 37:1 38:0.754807 39:0.0118017 40:0.174383 41:0.0590084 42:0.65119 43:0.00696248 44:0.168756 45:0.173091 46:0.859822 47:0.0777726 48:0.0466694 49:0.0157356 50:0.00608515 51:0.168963 52:0.278786 53:0.248896 54:0.559037 55:0.130482 56:0.134264 57:0.0946875 58:0.132314 59:0.1643 60:0.0489872 61:0.0950144 62:0.170739 63:0.0649269 64:0.220903 65:0.0984349 66:0.00438101 67:0.0780459 68:0.173639 69:0.187142 70:0.0941644 71:0.248234 72:0.0992134 73:0.0687977 74:0.0461953 75:0.0045673 76:0.111992 77:0.0707496 78:0.0645816 79:0.149586 80:0.168304 81:0.146987 82:0.0850174 83:0.0906915 84:0.112091 85:0.15565 86:0.0314769 87:0.00285181 88:0 89:0 90:0.125 91:0.65 92:0.25 93:0.925 94:0.3 95:0.85 96:0.751991 97:0.877543 98:0.334825 99:0.783158 100:0.27958 101:0.853553 102:0.5 103:0.853553 104:0.675 105:0.557692 106:0.366667 107:0.131942 108:0 109:0.686098 110:0.927295 111:0.856706 112:0.576375 113:0.473693 114:0.633321 115:0.259448 116:0.546531 117:0.400862 118:0.814655 119:0.357272 120:0.729167 121:0.158371 122:0.269841 123:0.660463 124:0.5 125:0.522192 126:0.852416 127:0.769878 128:0 129:0.138995 130:0.0911269 131:0.578488 132:0 133:0.221033 134:0.200479 135:0.843632 136:0.125481 137:0.0308879 138:0 139:0.0123625 140:0.210616 141:0.26293 142:0.188571 143:0.684838 144:0.0744289 145:0.131084 146:0.0596981 147:0.104465 148:0.156974 149:0.0506521 150:0.0077008 151:0.187765 152:0.098725 153:0.217286 154:0.158703 155:0.01773 156:0.186894 157:0.0730888 158:0.0713892 159:0.0700619 160:0.326736 161:0.101372 162:0.0884717 163:0.0734308 164:0.00855628 165:0.157584 166:0.0653261 167:0.125234 168:0.116514 169:0.17596 170:0.178412 171:0.0330018 172:0.0561928 173:0.0917751 174:0.153374 175:0.0246463 176:0.00202466 177:0 178:0 179:0.166667 180:0.690476 181:0.238095 182:0.97619 183:0.309524 184:0.714286 185:0.763061 186:0.899365 187:0.312064 188:0.73492 189:0.31069 190:0.5 191:0.5 192:1 193:0.630952 194:0.611111 195:0.40625 196:0.11678 197:0 198:0.656886 199:0.91972 200:1.05841 201:0.404892 202:0.407768 203:0.671484 204:0.27476 205:0.537037 206:0.391204 207:0.81713 208:0.328901 209:0.666667 210:0.0931491 211:0.119048 212:0.644877 213:0.5 214:0.512847 215:0.73228 216:0.766328 217:0 218:0.169883 219:0.0637888 220:0.620525 221:0 222:0.169883 223:0.209592 224:0.877985 225:0.0820142 226:0.0308879 227:0.00911269 228:0.00288521 229:0.189776 230:0.27466 231:0.177068 232:0.709247 233:0.124958 234:0.0845944 235:0.0343256 236:0.0771368 237:0.127397 238:0.116817 239:0.0332826 240:0.143273 241:0.109249 242:0.207864 243:0.165687 244:0.0192938 245:0.17818 246:0.0651578 247:0.0745995 248:0.0612805 249:0.259955 250:0.117524 251:0.0731178 252:0.131766 253:0.03842 254:0.146035 255:0.0369907 256:0.133175 257:0.113903 258:0.175678 259:0.16365 260:0.0629398 261:0.0712751 262:0.0963526 263:0.153484 264:0.0249709 265:0.00163358 266:0 267:0 268:0.195652 269:0.630435 270:0.391304 271:0.978261 272:0.326087 273:0.782609 274:0.750517 275:0.922391 276:0.335737 277:0.711195 278:0.365595 279:0.5 280:0.276393 281:0.947214 282:0.608696 283:0.638889 284:0.375 285:0.102949 286:0 287:0.326006 288:1.02401 289:0.999459 290:0.372988 291:0.316745 292:0.789278 293:0.300323 294:0.534574 295:0.380319 296:0.799442 297:0.295869 298:0.592188 299:0.131712 300:0.25 301:1 302:0.628297 303:0.676134 304:1 305:0.763919 306:0.0273381 307:0.172292 308:0.0364508 309:0.772743 310:0.0161283 311:0.0926636 312:0.118465 313:0.874435 314:0.0364508 315:0.0617758 316:0.0273381 317:0 318:0.0174377 319:0.201322 320:0.28052 321:0.65625 322:0.075559 323:0.0918839 324:0.113807 325:0.113155 326:0.172217 327:0.0672414 328:0.098918 329:0.114961 330:0.0272045 331:0.234895 332:0.157835 333:0.0135737 334:0.184362 335:0.0725452 336:0.183248 337:0.0676936 338:0.262218 339:0.124276 340:0.00472969 341:0.0547049 342:0.0462219 343:0.130152 344:0.0149335 345:0.111837 346:0.108441 347:0.128794 348:0.169902 349:0.119865 350:0.0923247 351:0.123751 352:0.154235 353:0.0216404 354:0.00104356 355:0 356:0 
1.35803060138139e-11 0 0 1:0.134615 2:0.711538 3:0.192308 4:0.980769 5:0.288462 6:0.846154 7:0.806926 8:0.867895 9:0.316052 10:0.784283 11:0.184266 12:0.5 13:0.146447 14:0.853553 15:0.557692 16:0.578125 17:0.345238 18:0.15407 19:0 20:0.548489 21:0.891383 22:0.91972 23:0.551655 24:0.780116 25:0.388256 26:0.245773 27:0.53876 28:0.395349 29:0.806202 30:0.310639 31:0.629356 32:0.126541 33:0.203373 34:0.80946 35:0.833333 36:0.57464 37:1 38:0.754344 39:0.0188456 40:0.170273 41:0.0565369 42:0.681299 43:0.0133417 44:0.147056 45:0.158303 46:0.858439 47:0.0753825 48:0.0511025 49:0.0150765 50:0.00572069 51:0.148462 52:0.252759 53:0.246818 54:0.522384 55:0.124586 56:0.148699 57:0.116263 58:0.139266 59:0.170474 60:0.0477063 61:0.103987 62:0.180326 63:0.0642362 64:0.191362 65:0.0971085 66:0.00553394 67:0.0748403 68:0.185823 69:0.160612 70:0.0974695 71:0.258653 72:0.102544 73:0.0603191 74:0.0537186 75:0.00602101 76:0.10416 77:0.0722821 78:0.0605139 79:0.167043 80:0.201524 81:0.136521 82:0.0885443 83:0.0807155 84:0.0886959 85:0.137235 86:0.0250161 87:0.0021132 88:0 89:0 90:0.175 91:0.7 92:0.25 93:0.975 94:0.3 95:0.85 96:0.764449 97:0.871391 98:0.314305 99:0.778543 100:0.29227 101:0.5 102:0.146447 103:0.853553 104:0.65 105:0.538462 106:0.366667 107:0.0678415 108:0 109:0.705552 110:0.927295 111:0.856706 112:0.576375 113:0.460632 114:0.651279 115:0.26137 116:0.537946 117:0.40625 118:0.816964 119:0.319123 120:0.653646 121:0.127976 122:0.258929 123:0.586991 124:0.5 125:0.580456 126:0.852416 127:0.769878 128:0 129:0.138995 130:0.0911269 131:0.570393 132:0 133:0.210902 134:0.218705 135:0.847866 136:0.127578 137:0.0154439 138:0.00911269 139:0.0147449 140:0.213275 141:0.255728 142:0.134503 143:0.671875 144:0.0677768 145:0.149312 146:0.0485363 147:0.0953704 148:0.13899 149:0.062606 150:0.00384149 151:0.192217 152:0.10091 153:0.213444 154:0.174385 155:0.018236 156:0.187359 157:0.0560754 158:0.070623 159:0.0640899 160:0.316559 161:0.129033 162:0.0734527 163:0.0827499 164:0.0200581 165:0.14954 166:0.0540508 167:0.124619 168:0.108194 169:0.171396 170:0.1701 171:0.0415496 172:0.06938 173:0.11117 174:0.156744 175:0.0259775 176:0.00204426 177:0 178:0 179:0.166667 180:0.690476 181:0.333333 182:0.97619 183:0.309524 184:0.714286 185:0.732113 186:0.916247 187:0.304119 188:0.695881 189:0.32105 190:0.5 191:0.146447 192:0.853553 193:0.630952 194:0.611111 195:0.40625 196:0.110053 197:0 198:0.534545 199:0.91972 200:1.05841 201:0.404892 202:0.378604 203:0.723208 204:0.285566 205:0.524038 206:0.372596 207:0.822115 208:0.371482 209:0.747396 210:0.0931491 211:0.119048 212:0.720772 213:0.5 214:0.296627 215:1 216:0.766328 217:0.0273381 218:0.169883 219:0.0364508 220:0.696976 221:0 222:0.138995 223:0.164028 224:0.880767 225:0.0455635 226:0.0463318 227:0.0273381 228:0 229:0.123904 230:0.239477 231:0.232265 232:0.737451 233:0.0586771 234:0.0721115 235:0.0301983 236:0.0675581 237:0.18104 238:0.122737 239:0.0609429 240:0.126757 241:0.0544265 242:0.209114 243:0.160104 244:0.0173194 245:0.167782 246:0.0814205 247:0.0898193 248:0.0659506 249:0.267754 250:0.134698 251:0.027587 252:0.115094 253:0.0498956 254:0.124258 255:0.0209847 256:0.108907 257:0.14209 258:0.16004 259:0.175712 260:0.102502 261:0.0716543 262:0.0938506 263:0.1643 264:0.0269241 265:0.00156821 266:0 267:0 268:0.18 269:0.64 270:0.42 271:0.98 272:0.44 273:0.74 274:0.731444 275:0.952216 276:0.386946 277:0.680886 278:0.409104 279:0.5 280:0.146447 281:0.853553 282:0.6 283:0.59375 284:0.366667 285:0.0740014 286:0 287:0.129502 288:1.03038 289:1.08084 290:0.309703 291:0.270265 292:0.888016 293:0.299312 294:0.537791 295:0.40407 296:0.784884 297:0.233965 298:0.470312 299:0.158498 300:0.232143 301:1 302:0.833333 303:0.832754 304:0.880851 305:0.771641 306:0.0364508 307:0.16457 308:0.0273381 309:0.819702 310:0.0322566 311:0.0751404 312:0.0729015 313:0.877217 314:0.0273381 315:0.0772197 316:0.0182254 317:0 318:0.022626 319:0.148189 320:0.250313 321:0.583609 322:0.0632913 323:0.137348 324:0.153252 325:0.124543 326:0.222487 327:0.0903235 328:0.0726057 329:0.112204 330:0.0124283 331:0.166454 332:0.1775 333:0.0214548 334:0.147588 335:0.0934484 336:0.121579 337:0.102412 338:0.292172 339:0.121813 340:0 341:0.0795783 342:0.0414082 343:0.125 344:0.030634 345:0.094366 346:0.193602 347:0.104716 348:0.171675 349:0.119038 350:0.0556389 351:0.10533 352:0.146586 353:0.0190118 354:0.000710874 355:0 356:0 
5.17340562588925e-11 4.179471113765153e-12 0 1:0.1 2:0.74 3:0.2 4:0.98 5:0.3 6:0.84 7:0.82994 8:0.874879 9:0.312561 10:0.772639 11:0.188129 12:0.788675 13:0.211325 14:0.788675 15:0.58 16:0.583333 17:0.35 18:0.147463 19:0 20:0.49368 21:0.896055 22:0.927295 23:0.54042 24:0.779858 25:0.384686 26:0.264613 27:0.535714 28:0.389881 29:0.806548 30:0.249208 31:0.503993 32:0.0965158 33:0.147645 34:0.777245 35:0.833333 36:0.521819 37:1 38:0.767969 39:0.0208667 40:0.165953 41:0.0452113 42:0.734968 43:0.0157883 44:0.117088 45:0.132156 46:0.877398 47:0.0556446 48:0.0530466 49:0.0139112 50:0.00294945 51:0.107711 52:0.215691 53:0.219568 54:0.590268 55:0.106821 56:0.114389 57:0.11806 58:0.131063 59:0.204039 60:0.0743964 61:0.0655995 62:0.152423 63:0.0615223 64:0.168661 65:0.130446 66:0.0118495 67:0.0651665 68:0.14643 69:0.144886 70:0.114257 71:0.245949 72:0.14204 73:0.0562082 74:0.0743266 75:0.0107379 76:0.104251 77:0.0552257 78:0.0772912 79:0.183992 80:0.158432 81:0.128964 82:0.120356 83:0.0671849 84:0.104304 85:0.155026 86:0.0302825 87:0.00278294 88:0 89:0 90:0.125 91:0.7 92:0.2 93:0.975 94:0.25 95:0.75 96:0.778571 97:0.8836 98:0.296918 99:0.748212 100:0.273173 101:0.788675 102:0.211325 103:0.788675 104:0.6625 105:0.568182 106:0.397059 107:0.098625 108:0 109:0.665718 110:0.866302 111:0.996491 112:0.502843 113:0.506971 114:0.59175 115:0.267153 116:0.535156 117:0.394531 118:0.824219 119:0.345475 120:0.703704 121:0.0762971 122:0.158854 123:0.670384 124:0.5 125:0.571389 126:0.666667 127:0.748967 128:0 129:0.168286 130:0.0827474 131:0.588523 132:0 133:0.196333 134:0.215143 135:0.863118 136:0.107572 137:0.0210357 138:0.00827474 139:0.00765346 140:0.208922 141:0.257933 142:0.204965 143:0.665164 144:0.118978 145:0.140822 146:0.0611461 147:0.0866757 148:0.156534 149:0.077761 150:0.033565 151:0.154146 152:0.0871816 153:0.218166 154:0.170236 155:0.015735 156:0.181871 157:0.082151 158:0.0719451 159:0.0684339 160:0.299775 161:0.112428 162:0.0698915 163:0.0966016 164:0.0169024 165:0.149 166:0.0426081 167:0.136092 168:0.123897 169:0.171012 170:0.177961 171:0.0508195 172:0.0587209 173:0.0898887 174:0.166945 175:0.0297752 176:0.00231801 177:0 178:0 179:0.204545 180:0.659091 181:0.363636 182:0.977273 183:0.295455 184:0.772727 185:0.732438 186:0.908013 187:0.307994 188:0.716007 189:0.303262 190:0.5 191:0.146447 192:0.853553 193:0.625 194:0.6 195:0.383333 196:0.101899 197:0 198:0.407597 199:0.972377 200:0.982794 201:0.426627 202:0.390314 203:0.684181 204:0.293312 205:0.539474 206:0.370614 207:0.79954 208:0.366349 209:0.732407 210:0.136996 211:0.197917 212:0.903537 213:0.5 214:0.486193 215:1 216:0.750568 217:0.0248242 218:0.191509 219:0.033099 220:0.756055 221:0.0146452 222:0.105179 223:0.124121 224:0.880233 225:0.033099 226:0.070119 227:0.0165495 228:0 229:0.0794852 230:0.211418 231:0.246776 232:0.680556 233:0.0633733 234:0.0636967 235:0.0743189 236:0.112544 237:0.166367 238:0.0683535 239:0.0831209 240:0.112327 241:0.0371644 242:0.245858 243:0.162493 244:0.0117718 245:0.176156 246:0.0898686 247:0.170138 248:0.0594195 249:0.264124 250:0.126401 251:0.0050618 252:0.0661006 253:0.0427299 254:0.11167 255:0.00820721 256:0.113982 257:0.12858 258:0.141428 259:0.173481 260:0.108066 261:0.0867378 262:0.127849 263:0.161413 264:0.0247993 265:0.00143967 266:0 267:0 268:0.14 269:0.64 270:0.46 271:0.98 272:0.44 273:0.74 274:0.750638 275:0.962685 276:0.389837 277:0.654228 278:0.51166 279:0.5 280:0 281:0.5 282:0.63 283:0.59375 284:0.383333 285:0.0676393 286:0 287:0.157825 288:1.03038 289:1.08084 290:0.309703 291:0.221764 292:1.08223 293:0.31714 294:0.53125 295:0.395833 296:0.793089 297:0.100067 298:0.204167 299:0.0641902 300:0.0677083 301:0.674939 302:0.833333 303:0.379996 304:0.782047 305:0.812639 306:0.0248242 307:0.154262 308:0.00827474 309:0.878974 310:0.0311947 311:0.0401833 312:0.0496485 313:0.919081 314:0.0165495 315:0.0560952 316:0.00827474 317:0 318:0.0131743 319:0.0862536 320:0.150948 321:0.831831 322:0.0178285 323:0.0261711 324:0.0959929 325:0.143029 326:0.227888 327:0.0763619 328:0.0686637 329:0.0801894 330:0.00788405 331:0.131948 332:0.244818 333:0.019218 334:0.15332 335:0.0848868 336:0.106454 337:0.0966796 338:0.280674 339:0.1768 340:0 341:0.0577995 342:0.043386 343:0.125 344:0.0173171 345:0.107683 346:0.185833 347:0.0761827 348:0.156942 349:0.134517 350:0.0579202 351:0.138604 352:0.162124 353:0.0222513 354:0.000766473 355:0 356:0 
6.961622737411267e-12 0 0 1:0.125 2:0.732143 3:0.196429 4:0.982143 5:0.375 6:0.732143 7:0.7523 8:0.899778 9:0.333426 10:0.749861 11:0.17895 12:0.853553 13:0.5 14:0.853553 15:0.535714 16:0.611111 17:0.352273 18:0.10731 19:0 20:0.536552 21:0.904827 22:0.885067 23:0.571337 24:0.748829 25:0.405395 26:0.243457 27:0.513672 28:0.37793 29:0.84215 30:0.344479 31:0.650794 32:0.111646 33:0.14169 34:0.799216 35:1 36:0.532991 37:1 38:0.724365 39:0.0314712 40:0.208758 41:0.035405 42:0.695062 43:0.00393389 44:0.153014 45:0.14799 46:0.856769 47:0.0680942 48:0.0524388 49:0.0226981 50:0.00930514 51:0.158335 52:0.308517 53:0.183604 54:0.575506 55:0.127918 56:0.0918877 57:0.0893851 58:0.0644005 59:0.230869 60:0.0892008 61:0.0970853 62:0.189267 63:0.0911469 64:0.0504357 65:0.167908 66:0.0196867 67:0.034415 68:0.112106 69:0.0622353 70:0.163892 71:0.285977 72:0.146191 73:0.0950412 74:0.078341 75:0.0218004 76:0.117301 77:0.106133 78:0.0692416 79:0.167552 80:0.206635 81:0.104443 82:0.102447 83:0.0643001 84:0.0619462 85:0.137252 86:0.026447 87:0.0025505 88:0 89:0 90:0.113636 91:0.659091 92:0.227273 93:0.977273 94:0.386364 95:0.818182 96:0.78564 97:0.899315 98:0.373901 99:0.773215 100:0.274088 101:0.853553 102:0.5 103:0.853553 104:0.602273 105:0.583333 106:0.338235 107:0.0806454 108:0 109:0.725809 110:0.912908 111:0.956133 112:0.499347 113:0.49318 114:0.587559 115:0.255689 116:0.527083 117:0.385417 118:0.816566 119:0.310824 120:0.628646 121:0.166839 122:0.180423 123:0.488415 124:0.5 125:0.742311 126:0.720901 127:0.738221 128:0.00911269 129:0.216215 130:0.0364508 131:0.51671 132:0.00911269 133:0.23862 134:0.235557 135:0.858333 136:0.112174 137:0.0133646 138:0.0161283 139:0.0248037 140:0.289257 141:0.269315 142:0.0778622 143:0.588847 144:0.103616 145:0.127 146:0.108737 147:0.0875376 148:0.198817 149:0.0729179 150:0.0379935 151:0.216284 152:0.098015 153:0.117395 154:0.162129 155:0.00891163 156:0.176954 157:0.0487466 158:0.0228494 159:0.0915035 160:0.339011 161:0.136374 162:0.0991167 163:0.0722745 164:0.0131695 165:0.157577 166:0.095451 167:0.129493 168:0.149253 169:0.196732 170:0.103029 171:0.0515002 172:0.0517436 173:0.0652202 174:0.146478 175:0.0240195 176:0.00182517 177:0 178:0 179:0.134615 180:0.673077 181:0.326923 182:0.980769 183:0.442308 184:0.711538 185:0.750757 186:0.941771 187:0.379517 188:0.700805 189:0.344451 190:0.5 191:0.146447 192:0.853553 193:0.557692 194:0.55 195:0.361111 196:0.0830009 197:0 198:0.511839 199:0.965252 200:1.0637 201:0.367174 202:0.34754 203:0.747008 204:0.261991 205:0.52736 206:0.37963 207:0.831967 208:0.427171 209:0.845313 210:0.127706 211:0.177778 212:0.723965 213:0.5 214:0.440675 215:1 216:0.72151 217:0.0364508 218:0.205589 219:0.0364508 220:0.677048 221:0.00911269 222:0.133682 223:0.180157 224:0.849199 225:0.0708044 226:0.0365305 227:0.0434664 228:0.00110316 229:0.114062 230:0.331926 231:0.197488 232:0.732236 233:0.0706131 234:0.0695466 235:0.0428706 236:0.049132 237:0.174009 238:0.151859 239:0.147326 240:0.15212 241:0.059053 242:0.0945476 243:0.152947 244:0.0190061 245:0.156476 246:0.106452 247:0.0406305 248:0.101588 249:0.280245 250:0.0875197 251:0.0357415 252:0.118683 253:0.0726647 254:0.138337 255:0.0607239 256:0.0918379 257:0.150247 258:0.256306 259:0.109149 260:0.0864165 261:0.0432677 262:0.0637159 263:0.134864 264:0.0197653 265:0.00105541 266:0 267:0 268:0.160714 269:0.607143 270:0.428571 271:0.982143 272:0.464286 273:0.642857 274:0.683955 275:0.9771 276:0.417026 277:0.624461 278:0.477075 279:0.5 280:0.276393 281:0.947214 282:0.580357 283:0.538462 284:0.411765 285:0 286:0 287:0.118754 288:1.02514 289:0.91795 290:0.43467 291:0.225556 292:1.14796 293:0.271281 294:0.479651 295:0.386628 296:0.876191 297:0.260417 298:0.429688 299:0.0516398 300:0.10119 301:1 302:0.75 303:0.487186 304:1 305:0.763919 306:0.0364508 307:0.172292 308:0.0273381 309:0.887036 310:0 311:0.0694977 312:0.0434664 313:0.88772 314:0.00911269 315:0.0849417 316:0.0182254 317:0 318:0.015633 319:0.182436 320:0.242401 321:0.740773 322:0.0628627 323:0.0869892 324:0.0612523 325:0.0886685 326:0.232456 327:0.0956917 328:0.133814 329:0.166548 330:0.00719432 331:0.0285662 332:0.220823 333:0.0262385 334:0.0763026 335:0.126191 336:0.0477634 337:0.152418 338:0.318446 339:0.149191 340:0 341:0.0489665 342:0.0807209 343:0.103254 344:0.0508258 345:0.0741742 346:0.167436 347:0.215608 348:0.127626 349:0.14584 350:0.043038 351:0.072199 352:0.139872 353:0.0193124 354:0.000923511 355:0 356:0 
2.020005612991084e-11 0 0 1:0.189655 2:0.758621 3:0.224138 4:0.982759 5:0.413793 6:0.706897 7:0.716728 8:0.900379 9:0.325922 10:0.743709 11:0.175972 12:0.5 13:0.146447 14:0.853553 15:0.525862 16:0.611111 17:0.333333 18:0.110278 19:0 20:0.508505 21:0.944053 22:0.86217 23:0.555494 24:0.70355 25:0.416606 26:0.244723 27:0.51123 28:0.379921 29:0.841713 30:0.314245 31:0.589015 32:0.0873589 33:0.122641 34:0.763522 35:1 36:0.498414 37:1 38:0.736485 39:0.030153 40:0.203209 41:0.030153 42:0.727888 43:0.00376912 44:0.132355 45:0.135988 46:0.86682 47:0.0548021 48:0.0566302 49:0.0217474 50:0.00889836 51:0.136985 52:0.301191 53:0.1732 54:0.611846 55:0.120289 56:0.0824024 57:0.08809 58:0.0385777 59:0.213739 60:0.0953335 61:0.100442 62:0.195782 63:0.101689 64:0.0205495 65:0.208865 66:0.0250231 67:0.0222642 68:0.0844167 69:0.0458088 70:0.1572 71:0.306392 72:0.167792 73:0.0916947 74:0.0937136 75:0.0307182 76:0.0986914 77:0.0955712 78:0.0758899 79:0.149514 80:0.224466 81:0.11478 82:0.0954019 83:0.0760351 84:0.0696509 85:0.130229 86:0.0237891 87:0.00223868 88:0 89:0 90:0.152174 91:0.673913 92:0.26087 93:0.978261 94:0.413043 95:0.782609 96:0.772742 97:0.908437 98:0.37102 99:0.75796 100:0.279272 101:0.5 102:0.146447 103:0.853553 104:0.576087 105:0.590909 106:0.3125 107:0.084048 108:0 109:0.672384 110:0.962994 111:0.968509 112:0.446106 113:0.45264 114:0.600343 115:0.260048 116:0.530529 117:0.381356 118:0.815193 119:0.317616 120:0.633854 121:0.16877 122:0.186376 123:0.481526 124:0.5 125:0.706322 126:0.75 127:0.737203 128:0.00911269 129:0.226346 130:0.0273381 131:0.565193 132:0.00911269 133:0.204169 134:0.221526 135:0.86813 136:0.0869327 137:0.0288085 138:0.0161283 139:0.021832 140:0.229281 141:0.282687 142:0.0610232 143:0.599815 144:0.112332 145:0.0927986 146:0.117429 147:0.0860675 148:0.172831 149:0.0919816 150:0.0835809 151:0.195955 152:0.100809 153:0.116807 154:0.139508 155:0.0124597 156:0.19185 157:0.0576347 158:0.0403205 159:0.0933677 160:0.299151 161:0.112026 162:0.106682 163:0.0747912 164:0.0241761 165:0.164885 166:0.107235 167:0.125223 168:0.135716 169:0.196024 170:0.0900422 171:0.0574286 172:0.0550817 173:0.0683636 174:0.137062 175:0.0210162 176:0.00145099 177:0 178:0 179:0.12963 180:0.666667 181:0.37037 182:0.981481 183:0.481481 184:0.703704 185:0.728349 186:0.956364 187:0.400791 188:0.678577 189:0.352002 190:0.788675 191:0.211325 192:0.788675 193:0.564815 194:0.520833 195:0.375 196:0.125719 197:0 198:0.363188 199:0.982794 200:0.982794 201:0.418224 202:0.331427 203:0.79622 204:0.260662 205:0.518772 206:0.383929 207:0.842432 208:0.444995 209:0.814063 210:0.0575921 211:0.110119 212:0.905278 213:1 214:0.373611 215:1 216:0.703284 217:0.0455635 218:0.205589 219:0.0455635 220:0.75489 221:0 222:0.110516 223:0.134593 224:0.826029 225:0.0546761 226:0.0849417 227:0.0343537 228:0.00110316 229:0.0765712 230:0.277841 231:0.22496 232:0.714646 233:0.0766363 234:0.0993425 235:0.0234375 236:0.0336522 237:0.222628 238:0.13133 239:0.11193 240:0.202931 241:0.0381543 242:0.0387399 243:0.199268 244:0.0213663 245:0.0783028 246:0.0715296 247:0.0368231 248:0.156181 249:0.334338 250:0.130533 251:0.00872911 252:0.0953264 253:0.0882378 254:0.110858 255:0.0509102 256:0.0806923 257:0.159743 258:0.244213 259:0.106427 260:0.117148 261:0.0550867 262:0.0749225 263:0.134633 264:0.0194169 265:0.00103676 266:0 267:0 268:0.189655 269:0.603448 270:0.5 271:0.982759 272:0.5 273:0.637931 274:0.653056 275:0.988588 276:0.436271 277:0.584972 278:0.543412 279:0.5 280:0 281:0.5 282:0.577586 283:0.519231 284:0.382353 285:0 286:0 287:0 288:1.04058 289:0.91795 290:0.421419 291:0.186697 292:1.36216 293:0.268955 294:0.471154 295:0.384615 296:0.88141 297:0.257813 298:0.421875 299:0.0357143 300:0.0714286 301:0.865972 302:0.5 303:0.432292 304:0.5 305:0.783163 306:0.0364508 307:0.162161 308:0.0182254 309:0.944555 310:0 311:0.0463318 312:0.00911269 313:0.898224 314:0 315:0.0926636 316:0.00911269 317:0 318:0.0232339 319:0.177843 320:0.187884 321:0.828125 322:0.03125 323:0.0730544 324:0.0519456 325:0.038378 326:0.235556 327:0.0890421 328:0.162368 329:0.165702 330:0.0132765 331:0.0213259 332:0.244989 333:0.0293624 334:0.0495818 335:0.118338 336:0.0516104 337:0.173341 338:0.316921 339:0.159725 340:0.0019601 341:0.0448264 342:0.0836965 343:0.101975 344:0.0486765 345:0.0763235 346:0.134787 347:0.225283 348:0.137521 349:0.134442 350:0.064452 351:0.07654 352:0.133624 353:0.0173982 354:0.00078843 355:0 356:0 
4.655766190999151e-11 1.935363278533135e-11 1.870150088493258e-11 1:0.209677 2:0.758065 3:0.241935 4:0.983871 5:0.403226 6:0.66129 7:0.715628 8:0.907777 9:0.313102 10:0.720879 11:0.180518 12:0.5 13:0.276393 14:0.947214 15:0.532258 16:0.602941 17:0.369048 18:0.0920135 19:0 20:0.460068 21:0.975386 22:0.890275 23:0.501604 24:0.657337 25:0.423262 26:0.24481 27:0.510971 28:0.397115 29:0.823077 30:0.254092 31:0.475 32:0.067761 33:0.0913519 34:0.68999 35:1 36:0.424814 37:1 38:0.774792 39:0.0258261 40:0.176784 41:0.0225978 42:0.775904 43:0.00645653 44:0.109365 45:0.108275 46:0.884181 47:0.0404816 48:0.0567107 49:0.0186267 50:0.00706285 51:0.101645 52:0.25504 53:0.147004 54:0.680258 55:0.091851 56:0.0610056 57:0.0844939 58:0.080278 59:0.195162 60:0.0882785 61:0.120754 62:0.169215 63:0.0902314 64:0.0488957 65:0.181248 66:0.0259369 67:0.0311636 68:0.127817 69:0.0735638 70:0.12269 71:0.272334 72:0.172758 73:0.0650285 74:0.0980929 75:0.0365532 76:0.0738013 77:0.0753795 78:0.0663439 79:0.166622 80:0.217597 81:0.118631 82:0.119145 83:0.0814155 84:0.0810641 85:0.119661 86:0.0200302 87:0.00178042 88:0 89:0 90:0.134615 91:0.692308 92:0.25 93:0.980769 94:0.423077 95:0.788462 96:0.806419 97:0.907407 98:0.37037 99:0.759259 100:0.278119 101:0.5 102:0.276393 103:0.947214 104:0.557692 105:0.568182 106:0.333333 107:0.103007 108:0 109:0.638643 110:0.965252 111:1.02225 112:0.400241 113:0.466735 114:0.566538 115:0.248957 116:0.525369 117:0.373239 118:0.826744 119:0.373394 120:0.729583 121:0.148061 122:0.175051 123:0.541011 124:0.5 125:0.624759 126:1 127:0.719045 128:0.0303117 129:0.220332 130:0.0303117 131:0.588323 132:0.00757792 133:0.186083 134:0.218016 135:0.860028 136:0.0874473 137:0.0239566 138:0.0285678 139:0.0174542 140:0.200113 141:0.328883 142:0.132725 143:0.640403 144:0.110295 145:0.0694549 146:0.0853758 147:0.0558675 148:0.192654 149:0.126479 150:0.133258 151:0.165482 152:0.0923406 153:0.0959446 154:0.1203 155:0.0176757 156:0.149623 157:0.0850727 158:0.0559447 159:0.0938929 160:0.277094 161:0.109782 162:0.0795058 163:0.106211 164:0.0428739 165:0.141597 166:0.0948698 167:0.0836277 168:0.1561 169:0.227837 170:0.0839104 171:0.0773039 172:0.0656283 173:0.0691273 174:0.122662 175:0.0178844 176:0.00116602 177:0 178:0 179:0.196429 180:0.660714 181:0.375 182:0.982143 183:0.446429 184:0.660714 185:0.669218 186:0.955183 187:0.375859 188:0.665521 189:0.331324 190:0.333333 191:0.166667 192:0.833333 193:0.553571 194:0.535714 195:0.388889 196:0.0685514 197:0 198:0.315337 199:0.999459 200:0.909753 201:0.463648 202:0.325616 203:0.822617 204:0.260705 205:0.49375 206:0.379167 207:0.863353 208:0.343496 209:0.617917 210:0.0471087 211:0.0925926 212:1 213:1 214:0.482363 215:1 216:0.727262 217:0.0530455 218:0.181803 219:0.0378896 220:0.814487 221:0 222:0.0963214 223:0.0891912 224:0.854742 225:0.0378896 226:0.0770571 227:0.0303117 228:0 229:0.0400279 230:0.248476 231:0.234294 232:0.661228 233:0.105329 234:0.0834435 235:0.0490018 236:0.0529412 237:0.248252 238:0.102411 239:0.102721 240:0.204052 241:0.0179128 242:0.0217065 243:0.226575 244:0.0234279 245:0.0546353 246:0.085927 247:0.0361665 248:0.180836 249:0.351155 250:0.148049 251:0.00678018 252:0.0658773 253:0.0705734 254:0.111279 255:0.0522444 256:0.0798393 257:0.159122 258:0.230542 259:0.123917 260:0.131835 261:0.0407329 262:0.0704887 263:0.135475 264:0.0193597 265:0.00110423 266:0 267:0 268:0.209677 269:0.564516 270:0.5 271:0.983871 272:0.5 273:0.596774 274:0.655449 275:0.994451 276:0.458796 277:0.561806 278:0.700275 279:0.211325 280:0.211325 281:0.788675 282:0.564516 283:0.545455 284:0.426471 285:0 286:0 287:0 288:1.06919 289:0.996491 290:0.340979 291:0.139745 292:1.7024 293:0.26867 294:0.496094 295:0.429688 296:0.800781 297:0.0875 298:0.175 299:0.00694444 300:0.0138889 301:0.416667 302:0.5 303:0.229167 304:0.5 305:0.869258 306:0.0151558 307:0.115586 308:0 309:0.953894 310:0.00757792 311:0.0385286 312:0 313:0.941051 314:0 315:0.0513714 316:0.00757792 317:0 318:0.0164905 319:0.0933394 320:0.0467612 321:0.9125 322:0.00625 323:0.01875 324:0.0625 325:0.0548453 326:0.264755 327:0.0821084 328:0.124824 329:0.166994 330:0.0122886 331:0.010447 332:0.250011 333:0.0337271 334:0.0187576 335:0.107992 336:0.0607462 337:0.200451 338:0.321277 339:0.162948 340:0.00109999 341:0.0396435 342:0.087084 343:0.103031 344:0.0533089 345:0.0716911 346:0.15139 347:0.190768 348:0.144511 349:0.149324 350:0.0612423 351:0.0747334 352:0.122813 353:0.0141402 354:0.000511568 355:0 356:0 
9.372328314975563e-12 0 0 1:0.326923 2:0.442308 3:0.807692 4:0.75 5:0.596154 6:0.230769 7:0.491749 8:0.789074 9:0.605118 10:0.105809 11:0.108726 12:0.295876 13:0.704124 14:0.0917517 15:0.721154 16:0.464286 17:0.69 18:0 19:0.205722 20:0 21:0.805003 22:1.06031 23:0.493941 24:0.841316 25:0.371442 26:0.278431 27:0.738468 28:0.655483 29:0.316397 30:0.38285 31:0.62375 32:0.0936803 33:0.192861 34:0.600648 35:0.602416 36:0.5735 37:1 38:0.851465 39:0.00411373 40:0.083662 41:0.0607592 42:0.522442 43:0 44:0.340532 45:0.137027 46:0.849814 47:0.132757 48:0.0174296 49:0 50:0.00886827 51:0.220106 52:0.379815 53:0.137764 54:0.560266 55:0.155909 56:0.159894 57:0.0857552 58:0.0934259 59:0.127317 60:0.172686 61:0.0136393 62:0.094886 63:0.0651216 64:0.1047 65:0.171347 66:0.156878 67:0.0421865 68:0.1268 69:0.0357366 70:0.0910112 71:0.209359 72:0.106552 73:0.226323 74:0.140949 75:0.0210822 76:0.20731 77:0.0371448 78:0.13547 79:0.170261 80:0.0912512 81:0.192297 82:0.0209741 83:0.0435281 84:0.101764 85:0.184497 86:0.0404733 87:0.00368526 88:0 89:0 90:0.204545 91:0.454545 92:0.704545 93:0.795455 94:0.590909 95:0.477273 96:0.455828 97:0.956211 98:0.605279 99:0.324534 100:0.177493 101:0.295876 102:0.704124 103:0.0917517 104:0.738636 105:0.480769 106:0.625 107:0 108:0.199321 109:0 110:0.885067 111:0.945311 112:0.533708 113:0.456093 114:0.660252 115:0.300329 116:0.743013 117:0.683217 118:0.297501 119:0.388364 120:0.809524 121:0.101913 122:0.204475 123:0.519023 124:0.333333 125:0.676852 126:0.391827 127:0.799381 128:0 129:0.111697 130:0.0889219 131:0.439863 132:0 133:0.341735 134:0.218402 135:0.819422 136:0.171986 137:0.00859205 138:0 139:0.0151423 140:0.269231 141:0.3838 142:0.113816 143:0.615981 144:0.106997 145:0.244838 146:0.032184 147:0.128544 148:0.188295 149:0.137767 150:0.003188 151:0.0603292 152:0.0429086 153:0.13218 154:0.172846 155:0.133943 156:0.0364108 157:0.197751 158:0.0294783 159:0.0324256 160:0.269673 161:0.118608 162:0.106132 163:0.182248 164:0.027274 165:0.148701 166:0.0104789 167:0.00921066 168:0.266876 169:0.0834163 170:0.306106 171:0.0301351 172:0.0260962 173:0.11898 174:0.195451 175:0.0331326 176:0.00261294 177:0 178:0 179:0.229167 180:0.5 181:0.666667 182:0.770833 183:0.583333 184:0.458333 185:0.451801 186:0.961935 187:0.571067 188:0.322333 189:0.199706 190:0.295876 191:0.704124 192:0.0917517 193:0.739583 194:0.5 195:0.65 196:0 197:0.127732 198:0 199:1.0122 200:0.856706 201:0.496423 202:0.366979 203:0.738008 204:0.313074 205:0.722124 206:0.695755 207:0.300921 208:0.327835 209:0.682143 210:0.132241 211:0.28125 212:0.548626 213:0.304087 214:0.678571 215:0.75 216:0.834511 217:0 218:0.0945125 219:0.0709763 220:0.521966 221:0 222:0.297857 223:0.180177 224:0.835391 225:0.147425 226:0.0171841 227:0 228:0.00949961 229:0.227895 230:0.365689 231:0.134005 232:0.621325 233:0.101293 234:0.115727 235:0.143798 236:0.118208 237:0.156422 238:0.172241 239:0 240:0.0619355 241:0.0449722 242:0.125 243:0.151242 244:0.16998 245:0.0111714 246:0.186924 247:0.0435601 248:0.0282815 249:0.237201 250:0.105781 251:0.145188 252:0.202393 253:0.0395 254:0.139925 255:0.0141491 256:0.0355265 257:0.270255 258:0.0712542 259:0.284322 260:0.0377892 261:0.0277868 262:0.118991 263:0.175302 264:0.0256777 265:0.00153509 266:0 267:0 268:0.145833 269:0.583333 270:0.645833 271:0.8125 272:0.541667 273:0.520833 274:0.577712 275:0.990511 276:0.469343 277:0.408029 278:0.328018 279:0.5 280:0.5 281:0 282:0.75 283:0.522727 284:0.575 285:0 286:0 287:0 288:1.14103 289:0.832981 290:0.394791 291:0.258965 292:0.905044 293:0.348615 294:0.751757 295:0.598214 296:0.366071 297:0.45697 298:0.457143 299:0.0416667 300:0.0833333 301:0.6675 302:0.602416 303:0.251389 304:0.5 305:0.938308 306:0.0101395 307:0.0515523 308:0 309:0.704194 310:0 311:0.285667 312:0.0101395 313:0.917268 314:0.048364 315:0.0343682 316:0 317:0 318:0.0519605 319:0.151239 320:0.148735 321:0.899741 322:0.0199018 323:0.0299193 324:0.0325807 325:0.125 326:0.159145 327:0.189672 328:0 329:0.0319996 330:0.0507542 331:0.125 332:0.141173 333:0.177256 334:0 335:0.155243 336:0.0947571 337:0.0378043 338:0.204175 339:0.0845619 340:0.181794 341:0.190057 342:0.0516077 343:0.145698 344:0.0210513 345:0.0581399 346:0.234913 347:0.0419645 348:0.260671 349:0.0949066 350:0.0198925 351:0.122764 352:0.175947 353:0.0204915 354:0.000733958 355:0 356:0 
0 4.458583780608439e-13 3.315163122100616e-12 1:0.288462 2:0.461538 3:0.807692 4:0.788462 5:0.653846 6:0.307692 7:0.523217 8:0.841162 9:0.631216 10:0.158838 11:0.129889 12:0.5 13:0.146447 14:0.853553 15:0.721154 16:0.455882 17:0.644737 18:0 19:0.18407 20:0 21:0.939717 22:0.840897 23:0.579074 24:0.705207 25:0.42268 26:0.301227 27:0.748468 28:0.642391 29:0.349109 30:0.328249 31:0.559167 32:0.160077 33:0.235746 34:0.524764 35:0.833333 36:0.362264 37:1 38:0.863196 39:0 40:0.0997805 41:0.0370236 42:0.607292 43:0.00411373 44:0.264065 45:0.124529 46:0.893643 47:0.0772142 48:0.0209155 49:0.00822746 50:0.00703725 51:0.203892 52:0.273887 53:0.119658 54:0.654316 55:0.0936764 56:0.113097 57:0.0325593 58:0.0960978 59:0.196662 60:0.10218 61:0.0186027 62:0.0884707 63:0.0358958 64:0.0335929 65:0.209811 66:0.218688 67:0.00942101 68:0.0749391 69:0.0559018 70:0.118635 71:0.234277 72:0.146851 73:0.168766 74:0.155617 75:0.0355917 76:0.11462 77:0.0176594 78:0.174675 79:0.21928 80:0.0526516 81:0.18516 82:0.0631438 83:0.0661029 84:0.106706 85:0.186224 86:0.0393515 87:0.00354024 88:0 89:0 90:0.195652 91:0.456522 92:0.695652 93:0.76087 94:0.630435 95:0.391304 96:0.493197 97:0.924918 98:0.630744 99:0.271198 100:0.173054 101:0.5 102:0.146447 103:0.853553 104:0.75 105:0.470588 106:0.604167 107:0 108:0.248884 109:0 110:0.934288 111:0.956133 112:0.480887 113:0.480406 114:0.58827 115:0.308695 116:0.712884 117:0.66129 118:0.37738 119:0.646187 120:1 121:0.362294 122:0.479167 123:0.449407 124:0.833333 125:0.416314 126:1 127:0.724499 128:0 129:0.194386 130:0.0811158 131:0.445169 132:0 133:0.29859 134:0.256241 135:0.851789 136:0.12948 137:0.00859205 138:0.0101395 139:0.0180918 140:0.346161 141:0.233185 142:0.0780419 143:0.602235 144:0.0839832 145:0.0813327 146:0.0408012 147:0.108873 148:0.247742 149:0.0672509 150:0.0182694 151:0.0734992 152:0.0196952 153:0.0781273 154:0.217137 155:0.169407 156:0.00772059 157:0.132363 158:0.0609322 159:0.0842743 160:0.260346 161:0.20189 162:0.0902821 163:0.138394 164:0.0237983 165:0.0831403 166:0.00587021 167:0.0944088 168:0.233871 169:0.0522205 170:0.247103 171:0.117515 172:0.0422482 173:0.123623 174:0.185551 175:0.0326443 176:0.00233091 177:0 178:0 179:0.229167 180:0.458333 181:0.75 182:0.8125 183:0.625 184:0.375 185:0.549602 186:0.908944 187:0.616841 188:0.237107 189:0.269417 190:0.295876 191:0.704124 192:0.0917517 193:0.729167 194:0.533333 195:0.634615 196:0 197:0 198:0 199:1.0122 200:0.856706 201:0.496423 202:0.330909 203:0.818454 204:0.328535 205:0.782669 206:0.641827 207:0.2913 208:0.325655 209:0.655952 210:0.144615 211:0.267361 212:0.802449 213:0.5 214:0.529852 215:0.804087 216:0.892253 217:0 218:0.0773284 219:0.0304184 220:0.570129 221:0.0101395 222:0.333143 223:0.0865885 224:0.875163 225:0.0889219 226:0.0257761 227:0.0101395 228:0.00222836 229:0.165312 230:0.310098 231:0.181239 232:0.705357 233:0.0604365 234:0.148621 235:0.0320138 236:0.12077 237:0.258503 238:0.0815211 239:0.00422957 240:0.0522933 241:0.0224956 242:0.0801974 243:0.15985 244:0.220139 245:0.0250808 246:0.137062 247:0.0445041 248:0.0870919 249:0.259828 250:0.115573 251:0.142553 252:0.155801 253:0.0325061 254:0.0867998 255:0.0157445 256:0.155667 257:0.271977 258:0.0438273 259:0.238625 260:0.0962166 261:0.0189758 262:0.0721667 263:0.190832 264:0.028192 265:0.00170767 266:0 267:0 268:0.18 269:0.52 270:0.68 271:0.82 272:0.6 273:0.48 274:0.556279 275:0.973879 276:0.559235 277:0.351913 278:0.762293 279:0.5 280:0.5 281:0 282:0.72 283:0.535714 284:0.525 285:0 286:0 287:0 288:1.06031 289:0.950547 290:0.380506 291:0.110731 292:2.21256 293:0.351888 294:0.7375 295:0.60625 296:0.36875 297:0.0535714 298:0.107143 299:0 300:0 301:0.258333 302:0.5 303:1.2498e-33 304:1 305:0.981268 306:0 307:0.00859205 308:0.0101395 309:0.852388 310:0 311:0.137473 312:0.0101395 313:0.962537 314:0.0202789 315:0.0171841 316:0 317:0 318:0.0142329 319:0.0773268 320:0.0528301 321:0.982143 322:0 323:0 324:0 325:0.125 326:0.287782 327:0.0717175 328:0 329:0.0366203 330:0.0197484 331:0.0872306 332:0.144682 333:0.227218 334:0 335:0.165493 336:0.0603991 337:0.0500812 338:0.297409 339:0.106242 340:0.147285 341:0.154973 342:0.0181177 343:0.0682616 344:0.00844827 345:0.117829 346:0.2482 347:0.0502171 348:0.322449 349:0.151273 350:0.00168467 351:0.0316377 352:0.189763 353:0.0213753 354:0.000600573 355:0 356:0 
0 1.252728684419678e-12 0 1:0.288462 2:0.461538 3:0.807692 4:0.788462 5:0.653846 6:0.346154 7:0.504878 8:0.853553 9:0.635982 10:0.173643 11:0.123651 12:0.5 13:0.146447 14:0.853553 15:0.721154 16:0.455882 17:0.631579 18:0 19:0.174869 20:0 21:0.939717 22:0.840897 23:0.579074 24:0.714823 25:0.416994 26:0.302548 27:0.74422 28:0.637821 29:0.358099 30:0.30409 31:0.519697 32:0.144831 33:0.213294 34:0.484787 35:0.833333 36:0.322012 37:1 38:0.871462 39:0 40:0.0946159 41:0.0339221 42:0.636995 43:0.00376912 44:0.245138 45:0.114098 46:0.902552 47:0.070746 48:0.0191634 49:0.00753825 50:0.00642197 51:0.186065 52:0.243046 53:0.105161 54:0.68006 55:0.0851603 56:0.102815 57:0.0295993 58:0.0959987 59:0.199381 60:0.105214 61:0.0171145 62:0.0845523 63:0.0361275 64:0.0309054 65:0.210299 66:0.220407 67:0.0121343 68:0.0718391 69:0.0514297 70:0.131524 71:0.231776 72:0.135103 73:0.181883 74:0.151566 75:0.0327444 76:0.130122 77:0.0190005 78:0.186708 79:0.216258 80:0.0500784 81:0.180756 82:0.0580923 83:0.0608147 84:0.0981699 85:0.187352 86:0.0393121 87:0.00349967 88:0 89:0 90:0.229167 91:0.458333 92:0.708333 93:0.770833 94:0.625 95:0.375 96:0.490726 97:0.911921 98:0.626745 99:0.24651 100:0.162999 101:0.5 102:0.146447 103:0.853553 104:0.739583 105:0.470588 106:0.615385 107:0 108:0.227252 109:0 110:0.954499 111:0.91795 112:0.496423 113:0.504213 114:0.5578 115:0.302414 116:0.722483 117:0.657143 118:0.366394 119:0.630518 120:1 121:0.354136 122:0.479167 123:0.44725 124:0.833333 125:0.421544 126:1 127:0.752397 128:0 129:0.174701 130:0.0729015 131:0.4473 132:0 133:0.322407 134:0.230293 135:0.849963 136:0.125481 137:0.0154439 138:0.00911269 139:0.0145751 140:0.333315 141:0.289336 142:0.0897746 143:0.581643 144:0.087449 145:0.0754316 146:0.0252844 147:0.105926 148:0.218234 149:0.0701788 150:0.0214607 151:0.0972059 152:0.0216072 153:0.0707378 154:0.219177 155:0.175473 156:0.01349 157:0.110454 158:0.0668731 159:0.101141 160:0.22052 161:0.217147 162:0.110607 163:0.128339 164:0.0314294 165:0.0995869 166:0.0113736 167:0.119074 168:0.19967 169:0.0491002 170:0.214062 171:0.101012 172:0.0711668 173:0.134954 174:0.17526 175:0.0306083 176:0.00225888 177:0 178:0 179:0.22 180:0.5 181:0.74 182:0.82 183:0.62 184:0.38 185:0.555992 186:0.922577 187:0.584515 188:0.246454 189:0.289539 190:0.5 191:0.5 192:0 193:0.73 194:0.516667 195:0.634615 196:0 197:0 198:0 199:1.03038 200:0.856706 201:0.479519 202:0.306492 203:0.864623 204:0.325147 205:0.753823 206:0.65625 207:0.299496 208:0.239583 209:0.484375 210:0.0803571 211:0.160714 212:0.780114 213:0.5 214:0.440341 215:0.804087 216:0.910886 217:0 218:0.0617758 219:0.0273381 220:0.636449 221:0.00911269 222:0.283634 223:0.0708044 224:0.87236 225:0.0799171 226:0.0386098 227:0.00911269 228:0.00197728 229:0.145144 230:0.261165 231:0.204863 232:0.747671 233:0.0588437 234:0.128944 235:0.0176663 236:0.112713 237:0.245711 238:0.0876871 239:0.0122866 240:0.0550735 241:0.0233834 242:0.07878 243:0.159499 244:0.224866 245:0.0189176 246:0.136259 247:0.0480243 248:0.072523 249:0.263273 250:0.109725 251:0.142098 252:0.174046 253:0.0351341 254:0.0838717 255:0.0164905 256:0.135713 257:0.259989 258:0.0525637 259:0.26535 260:0.0900063 261:0.0274132 262:0.0686025 263:0.181456 264:0.0243841 265:0.00128127 266:0 267:0 268:0.18 269:0.52 270:0.66 271:0.82 272:0.6 273:0.54 274:0.546101 275:0.987769 276:0.560971 277:0.408543 278:0.775608 279:0.146447 280:0.5 281:0.146447 282:0.72 283:0.535714 284:0.472222 285:0 286:0 287:0 288:1.06031 289:0.999459 290:0.345556 291:0.105731 292:2.2699 293:0.356696 294:0.671053 295:0.598684 296:0.440789 297:0.0625 298:0.125 299:0 300:0 301:0.152778 302:0.5 303:1.8747e-33 304:1 305:0.975443 306:0 307:0.0154439 308:0.00911269 309:0.88278 310:0 311:0.108108 312:0.00911269 313:0.966331 314:0.0182254 315:0.0154439 316:0 317:0 318:0.00878098 319:0.0347814 320:0.0320021 321:0.96875 322:0 323:0 324:0 325:0.125 326:0.289676 327:0.0714606 328:0 329:0.0349839 330:0.0197484 331:0.0872306 332:0.147527 333:0.224374 334:0 335:0.132341 336:0.0881081 337:0 338:0.304302 339:0.158683 340:0.121898 341:0.158012 342:0.0366553 343:0 344:0 345:0.121457 346:0.279469 347:0.0515933 348:0.268788 349:0.185846 350:0.00818273 351:0.0846643 352:0.1906 353:0.0210658 354:0.000555209 355:0 356:0 
0 0 4.873352953452602e-13 1:0.25 2:0.3125 3:0.770833 4:0.666667 5:0.729167 6:0.0625 7:0.570015 8:0.726108 9:0.726108 10:0.115617 11:0.126294 12:0.295876 13:0.704124 14:0.0917517 15:0.73913 16:0.35 17:0.677083 18:0.0228448 19:0.456897 20:0 21:0.806672 22:0.855053 23:0.694738 24:0.91195 25:0.382651 26:0.256671 27:0.751858 28:0.728493 29:0.336068 30:0.403044 31:0.773718 32:0.370243 33:0.598298 34:0.386531 35:0.304087 36:0.631139 37:0.931611 38:0.579879 39:0.030248 40:0.267008 41:0.122865 42:0.354763 43:0 44:0.234851 45:0.410386 46:0.807085 47:0.160325 48:0.00512635 49:0.0274636 50:0.0349145 51:0.468655 52:0.3285 53:0.0418041 54:0.376515 55:0.198234 56:0.205649 57:0.113552 58:0.12542 59:0.194773 60:0.0797878 61:0.0300443 62:0.144517 63:0.0478367 64:0.128075 65:0.17023 66:0.0793165 67:0.04129 68:0.152773 69:0.0853488 70:0.165567 71:0.27556 72:0.0734272 73:0.159037 74:0.0441178 75:0.00287911 76:0.174568 77:0.0563892 78:0.139704 79:0.188377 80:0.107621 81:0.175202 82:0.0376108 83:0.0542519 84:0.0662763 85:0.193487 86:0.051944 87:0.00593736 88:0 89:0 90:0.166667 91:0.452381 92:0.571429 93:0.690476 94:0.595238 95:0.428571 96:0.415279 97:0.966504 98:0.627228 99:0.372772 100:0.190891 101:0.295876 102:0.704124 103:0.0917517 104:0.75 105:0.403846 106:0.553571 107:0 108:0.453354 109:0 110:0.982794 111:0.822418 112:0.554307 113:0.367631 114:0.777177 115:0.280606 116:0.670913 117:0.75061 118:0.353956 119:0.42327 120:0.792708 121:0.537931 122:0.885985 123:0.490566 124:0.26772 125:1 126:0 127:0.590844 128:0.0306342 129:0.247718 130:0.130804 131:0.482892 132:0 133:0.168286 134:0.348822 135:0.798473 136:0.161438 137:0.0129795 138:0.0271092 139:0.013255 140:0.224936 141:0.292475 142:0.0513577 143:0.53125 144:0.0478097 145:0.0940286 146:0.0769116 147:0.156957 148:0.174467 149:0.061577 150:0.0104476 151:0.116142 152:0.089344 153:0.166732 154:0.158592 155:0.0657416 156:0.205659 157:0.0713169 158:0.0520021 159:0.0968335 160:0.303391 161:0.04322 162:0.124018 163:0.101495 164:0.00206411 165:0.200621 166:0.0502195 167:0.170707 168:0.16563 169:0.151011 170:0.165053 171:0.016888 172:0.0237884 173:0.0560823 174:0.157215 175:0.025989 176:0.00226638 177:0 178:0 179:0.125 180:0.425 181:0.625 182:0.675 183:0.625 184:0.375 185:0.467888 186:0.932121 187:0.657135 188:0.303581 189:0.200333 190:0.211325 191:0.788675 192:0.211325 193:0.7625 194:0.428571 195:0.604167 196:0 197:0.377751 198:0 199:0.96007 200:0.86217 201:0.54042 202:0.397087 203:0.724023 204:0.303114 205:0.793919 206:0.710843 207:0.330918 208:0.409199 209:0.795139 210:0.28548 211:0.50754 212:0.342869 213:0.25 214:1 215:0 216:0.656288 217:0.0306342 218:0.2247 219:0.0883775 220:0.431098 221:0 222:0.241022 223:0.32788 224:0.846224 225:0.110163 226:0.0129795 227:0.0306342 228:0.0181555 229:0.339584 230:0.224467 231:0.0331785 232:0.723463 233:0.0473703 234:0.0625 235:0.0416667 236:0.138746 237:0.209331 238:0.106025 239:0.0116578 240:0.087533 241:0.0525611 242:0.12299 243:0.178847 244:0.0923082 245:0.160557 246:0.0873411 247:0.0211197 248:0.112003 249:0.276339 250:0.088451 251:0.154831 252:0.0883602 253:0.0109986 254:0.232386 255:0.0355939 256:0.162342 257:0.186629 258:0.0836975 259:0.179845 260:0.0385702 261:0.0335652 262:0.0473706 263:0.184963 264:0.034807 265:0.00324528 266:0 267:0 268:0.166667 269:0.428571 270:0.714286 271:0.738095 272:0.666667 273:0.333333 274:0.540691 275:0.893073 276:0.66378 277:0.237951 278:0.247431 279:0.295876 280:0.704124 281:0.0917517 282:0.738095 283:0.421875 284:0.7 285:0 286:0.453872 287:0 288:0.91972 289:1.0122 290:0.444419 291:0.367211 292:0.761857 293:0.318349 294:0.794872 295:0.724359 296:0.331865 297:0.36248 298:0.704167 299:0.267436 300:0.386574 301:0.262609 302:0.174901 303:1 304:0 305:0.617874 306:0.0153171 307:0.25959 308:0.10722 309:0.384493 310:0 311:0.207779 312:0.407729 313:0.853879 314:0.134329 315:0 316:0.0117922 317:0.0243164 318:0.374202 319:0.220363 320:0.0721814 321:0.71875 322:0 323:0.197693 324:0.0523068 325:0.121039 326:0.253598 327:0.0916802 328:0.00400902 329:0.0614059 330:0.0178905 331:0.105734 332:0.194966 333:0.149677 334:0.0898906 335:0.12214 336:0.0203829 337:0.120562 338:0.233143 339:0.15002 340:0.172118 341:0.0821002 342:0.00964217 343:0.165228 344:0.0258522 345:0.187939 346:0.228106 347:0.0346052 348:0.18065 349:0.0743632 350:0.0219166 351:0.0813391 352:0.196052 353:0.0355306 354:0.00253785 355:0 356:0 
2.017298562198279e-11 6.719007822660399e-12 7.693480264755998e-12 1:0.288462 2:0.480769 3:0.807692 4:0.826923 5:0.557692 6:0.615385 7:0.440225 8:0.966667 9:0.566667 10:0.333333 11:0.0921894 12:0.276393 13:0.5 14:0.0527864 15:0.692308 16:0.5 17:0.514706 18:0.0184379 19:0.0307298 20:0.270422 21:0.991722 22:0.881872 23:0.493941 24:0.782252 25:0.35032 26:0.299479 27:0.669336 28:0.579545 29:0.483514 30:0.269683 31:0.511051 32:0.0988076 33:0.148674 34:0.522157 35:1 36:0.305687 37:1 38:0.902514 39:0.0036176 40:0.0613101 41:0.0325584 42:0.631235 43:0.00278508 44:0.302528 45:0.0634518 46:0.869717 47:0.09044 48:0.0306551 49:0.00918777 50:0.00608795 51:0.175137 52:0.288599 53:0.146379 54:0.734611 55:0.0595379 56:0.0747262 57:0.0650213 58:0.109984 59:0.200162 60:0.110123 61:0.0150156 62:0.0753132 63:0.0384503 64:0.102915 65:0.145184 66:0.202853 67:0.0203804 68:0.170973 69:0.0320709 70:0.0709019 71:0.263482 72:0.084535 73:0.174068 74:0.159823 75:0.0237668 76:0.0925394 77:0.0271098 78:0.151407 79:0.273205 80:0.0670351 81:0.249288 82:0.050579 83:0.0417858 84:0.047051 85:0.159142 86:0.0237591 87:0.00155781 88:0 89:0 90:0.270833 91:0.479167 92:0.833333 93:0.8125 94:0.604167 95:0.375 96:0.530857 97:0.875905 98:0.586747 99:0.181927 100:0.185032 101:0.276393 102:0.5 103:0.0527864 104:0.71875 105:0.482143 106:0.602941 107:0 108:0.0642041 109:0 110:0.954499 111:0.881872 112:0.528074 113:0.486729 114:0.588538 115:0.302431 116:0.754242 117:0.640845 118:0.307377 119:0.421041 120:0.827315 121:0.201408 122:0.330729 123:0.491472 124:0.397584 125:0.787921 126:1 127:0.852185 128:0.00827474 129:0.0981666 130:0.0413737 131:0.502501 132:0.00637048 133:0.379091 134:0.112038 135:0.845947 136:0.132396 137:0.0070119 138:0.0146452 139:0.00996955 140:0.297069 141:0.333895 142:0.0952134 143:0.595238 144:0.0647929 145:0.106602 146:0.119992 147:0.125 148:0.201754 149:0.0985178 150:0 151:0.0890258 152:0.0358647 153:0.102919 154:0.157748 155:0.189171 156:0.0126771 157:0.163391 158:0.0507414 159:0.0452206 160:0.255375 161:0.14595 162:0.133324 163:0.157196 164:0.0361244 165:0.055117 166:0.0226311 167:0.11447 168:0.259129 169:0.0561207 170:0.260376 171:0.107476 172:0.0544713 173:0.0702095 174:0.177248 175:0.0314099 176:0.0025465 177:0 178:0 179:0.18 180:0.54 181:0.68 182:0.82 183:0.58 184:0.52 185:0.552602 186:0.984182 187:0.530261 188:0.378954 189:0.432336 190:0.5 191:0.5 192:0 193:0.72 194:0.557692 195:0.45 196:0 197:0 198:0 199:1.09128 200:0.915101 201:0.380506 202:0.191087 203:1.25597 204:0.336932 205:0.628676 206:0.591912 207:0.481618 208:0.126502 209:0.199074 210:0.03125 211:4.68675e-34 212:0.357738 213:1 214:0 215:0 216:0.928618 217:0 218:0.0631071 219:0.00827474 220:0.837463 221:0 222:0.154262 223:0.00827474 224:0.928053 225:0.0579232 226:0.0140238 227:0 228:0 229:0.0159378 230:0.0921111 231:0.0627192 232:0.986111 233:0 234:0 235:0 236:0.125 237:0.230084 238:0.115643 239:0 240:0.0379319 241:0.0266931 242:0.125 243:0.121902 244:0.217745 245:0 246:0.173413 247:0.0765872 248:0.0203598 249:0.274238 250:0.07731 251:0.17009 252:0.17904 253:0.0289622 254:0.0652485 255:0 256:0.12288 257:0.239127 258:0.0448036 259:0.336843 260:0.165359 261:0.00674898 262:0.0189901 263:0.168041 264:0.0182736 265:0.000503353 266:0 267:0 268:0.134615 269:0.557692 270:0.557692 271:0.826923 272:0.557692 273:0.711538 274:0.593883 275:0.988094 276:0.5 277:0.608465 278:0.310276 279:0.5 280:0.5 281:0.5 282:0.711538 283:0.583333 284:0.291667 285:0.117789 286:0 287:0.723564 288:1.13839 289:0.785398 290:0.432408 291:0.285712 292:0.841353 293:0.33064 294:0.559828 295:0.495098 296:0.730392 297:0.240371 298:0.478704 299:0.0703125 300:0.078125 301:0.717262 302:0.5 303:0.189167 304:1 305:0.945865 306:0 307:0.0210357 308:0.033099 309:0.703086 310:0 311:0.263815 312:0.033099 313:0.872599 314:0.0579232 315:0.0631071 316:0.00637048 317:0.00474941 318:0.106819 319:0.268435 320:0.192293 321:0.80988 322:0.0581759 323:0.0579928 324:0.0183961 325:0.108063 326:0.198177 327:0.134732 328:0.0169367 329:0.051899 330:0.0317231 331:0.125 332:0.104835 333:0.228633 334:0 335:0.15802 336:0.0919804 337:0.00947624 338:0.189088 339:0.141469 340:0.123753 341:0.227996 342:0.0582183 343:0.0514865 344:0.00338734 345:0.077059 346:0.256447 347:0.0570135 348:0.266144 349:0.135283 350:0.0319884 351:0.121192 352:0.161086 353:0.0201706 354:0.000975017 355:0 356:0 
3.944979703675547e-12 2.917651593812144e-12 0 1:0.37931 2:0.448276 3:0.775862 4:0.758621 5:0.62069 6:0.224138 7:0.46729 8:0.774315 9:0.624689 10:0.100996 11:0.107134 12:0.349244 13:0.650756 14:0.047733 15:0.682692 16:0.375 17:0.655172 18:0.0160301 19:0.304571 20:0 21:0.83989 22:0.965252 23:0.555494 24:0.806675 25:0.390065 26:0.259009 27:0.724523 28:0.723532 29:0.303754 30:0.369284 31:0.730302 32:0.306814 33:0.494481 34:0.325722 35:0.304087 36:0.525309 37:1 38:0.736337 39:0.00533261 40:0.187355 41:0.070975 42:0.368323 43:0 44:0.362593 45:0.269084 46:0.795171 47:0.175688 48:0.00903756 49:0.0201033 50:0.0445158 51:0.478376 52:0.305759 53:0.0296177 54:0.452403 55:0.175295 56:0.157155 57:0.0795096 58:0.0510611 59:0.151741 60:0.154278 61:0.0101962 62:0.13714 63:0.0592931 64:0.0757417 65:0.211601 66:0.148948 67:0.00443115 68:0.0988875 69:0.031868 70:0.140684 71:0.267241 72:0.0992227 73:0.208767 74:0.132246 75:0.0166529 76:0.208144 77:0.0216808 78:0.1428 79:0.135452 80:0.12362 81:0.215605 82:0.0130196 83:0.0607283 84:0.0789497 85:0.161988 86:0.0357503 87:0.00334356 88:0 89:0 90:0.25 91:0.477273 92:0.636364 93:0.75 94:0.659091 95:0.454545 96:0.37278 97:0.944649 98:0.66169 99:0.33831 100:0.14184 101:0.349244 102:0.650756 103:0.047733 104:0.715909 105:0.375 106:0.578947 107:0 108:0.412816 109:0 110:0.858439 111:0.870903 112:0.628796 113:0.495488 114:0.653625 115:0.262565 116:0.681695 117:0.772371 118:0.322481 119:0.335531 120:0.605407 121:0.430998 122:0.624203 123:0.215825 124:0.224463 125:0.192571 126:1 127:0.593741 128:0.0130891 129:0.271316 130:0.121855 131:0.314297 132:0 133:0.291059 134:0.394644 135:0.785257 136:0.204666 137:0 138:0.0100769 139:0.0784287 140:0.450087 141:0.154215 142:0.0193974 143:0.524619 144:0.136198 145:0.103365 146:0.0272208 147:0.0851606 148:0.180793 149:0.105319 150:0.0136527 151:0.135218 152:0.0752649 153:0.123263 154:0.192142 155:0.0891857 156:0.0949614 157:0.102791 158:0.0277893 159:0.120124 160:0.296872 161:0.0853007 162:0.130279 163:0.128892 164:0.0129911 165:0.216727 166:0.0273931 167:0.100756 168:0.144828 169:0.148462 170:0.234017 171:0.00694734 172:0.0499441 173:0.0709247 174:0.178313 175:0.0344457 176:0.00348542 177:0 178:0 179:0.195652 180:0.5 181:0.652174 182:0.76087 183:0.586957 184:0.434783 185:0.455573 186:0.961935 187:0.571067 188:0.322333 189:0.189683 190:0.295876 191:0.704124 192:0.0917517 193:0.728261 194:0.423077 195:0.640625 196:0 197:0.0808813 198:0 199:0.962994 200:0.88848 201:0.514451 202:0.403167 203:0.700971 204:0.312391 205:0.735316 206:0.723958 207:0.290474 208:0.478171 209:0.964667 210:0.282697 211:0.540509 212:0.295829 213:0.204833 214:0.509487 215:0.93198 216:0.796357 217:0 218:0.177465 219:0.0261783 220:0.376873 221:0 222:0.405596 223:0.217531 224:0.802623 225:0.171199 226:0 227:0.0261783 228:0.0216902 229:0.372359 230:0.286418 231:0.0216613 232:0.631916 233:0.118084 234:0.0806457 235:0.0624082 236:0.125 237:0.192151 238:0.153747 239:0 240:0.0640008 241:0.0481607 242:0.125 243:0.16175 244:0.130191 245:0.0811829 246:0.150751 247:0.0180658 248:0.0633498 249:0.250139 250:0.106738 251:0.154085 252:0.152269 253:0.0234191 254:0.201991 255:0.0146046 256:0.06936 257:0.238933 258:0.0685455 259:0.260116 260:0.0267282 261:0.0333404 262:0.086381 263:0.190182 264:0.0323293 265:0.00264503 266:0 267:0 268:0.18 269:0.54 270:0.64 271:0.82 272:0.54 273:0.52 274:0.531522 275:0.991436 276:0.5 277:0.407856 278:0.313083 279:0.5 280:0.723607 281:0.0527864 282:0.74 283:0.5 284:0.645833 285:0 286:0 287:0 288:1.09128 289:0.825377 290:0.44752 291:0.259976 292:0.961628 293:0.340809 294:0.759375 295:0.665625 296:0.290625 297:0.294151 298:0.620833 299:0.197641 300:0.28125 301:0.4875 302:0.304087 303:0.558333 304:0.782047 305:0.894183 306:0 307:0.0665493 308:0.0392674 309:0.550163 310:0 311:0.332035 312:0.117802 313:0.833836 314:0.117802 315:0.0221831 316:0.0261783 317:0 318:0.193723 319:0.365689 320:0.0954505 321:0.775 322:2.34776e-09 323:0.067548 324:0.057452 325:0.116376 326:0.159401 327:0.197644 328:0 329:0.0342774 330:0.0185279 331:0.125 332:0.166505 333:0.182268 334:0 335:0.190858 336:0.0478737 337:0.0357395 338:0.223607 339:0.098195 340:0.173291 341:0.189748 342:0.0406885 343:0.1474 344:0.00396602 345:0.0582341 346:0.28435 347:0.0319045 348:0.2899 349:0.0429434 350:0.0155651 351:0.125736 352:0.183882 353:0.0234076 354:0.00108085 355:0 356:0 
7.493018647788655e-12 0 8.311830041227321e-13 1:0.26 2:0.32 3:0.78 4:0.58 5:0.84 6:0.18 7:0.526855 8:0.686908 9:0.803725 10:0.149548 11:0.113614 12:0.5 13:0.853553 14:0.146447 15:0.76 16:0.2875 17:0.65 18:0 19:0.477796 20:0 21:0.785398 22:0.896055 23:0.674741 24:0.941824 25:0.371619 26:0.251395 27:0.707856 28:0.750991 29:0.342419 30:0.461169 31:0.906614 32:0.395106 33:0.6759 34:0.362322 35:0.282047 36:0.691183 37:1 38:0.572274 39:0.011337 40:0.292536 41:0.123854 42:0.377516 43:0 44:0.235652 45:0.386831 46:0.786277 47:0.173566 48:0.0288206 49:0.011337 50:0.0433964 51:0.478578 52:0.313956 53:0.0464226 54:0.320888 55:0.143099 56:0.244251 57:0.12386 58:0.053112 59:0.186755 60:0.130061 61:0.0249989 62:0.145971 63:0.10741 64:0.111401 65:0.154808 66:0.0854827 67:0.00453751 68:0.104788 69:0.0767383 70:0.140904 71:0.255577 72:0.0949613 73:0.19452 74:0.115877 75:0.012097 76:0.1823 77:0.0572454 78:0.103345 79:0.161667 80:0.137319 81:0.17371 82:0.0263379 83:0.0799501 84:0.0781248 85:0.188982 86:0.0488305 87:0.00547698 88:0 89:0 90:0.195652 91:0.391304 92:0.586957 93:0.630435 94:0.652174 95:0.543478 96:0.368298 97:0.927179 98:0.756307 99:0.457282 100:0.140576 101:0.5 102:0.853553 103:0.146447 104:0.76087 105:0.34375 106:0.516667 107:0 108:0.63654 109:0 110:0.962994 111:0.817645 112:0.577902 113:0.452514 114:0.648551 115:0.266523 116:0.689508 117:0.781124 118:0.380679 119:0.357616 120:0.666296 121:0.397492 122:0.646081 123:0.370803 124:0.239382 125:0.368496 126:0.898624 127:0.433075 128:0 129:0.37256 130:0.194365 131:0.432711 132:0 133:0.081904 134:0.485385 135:0.796509 136:0.148033 137:0.0554578 138:0 139:0.0487635 140:0.420738 141:0.228962 142:0.0149843 143:0.551949 144:0.0847786 145:0.10015 146:0.131067 147:0.0762936 148:0.180294 149:0.0890299 150:0.030661 151:0.164376 152:0.0903074 153:0.174864 154:0.149694 155:0.0444806 156:0.115478 157:0.100953 158:0.0628966 159:0.114341 160:0.30918 161:0.0677417 162:0.13705 163:0.0847691 164:0.00758987 165:0.172167 166:0.0627505 167:0.133401 168:0.171033 169:0.165885 170:0.162078 171:0.00477227 172:0.0631828 173:0.0647305 174:0.152559 175:0.0272713 176:0.00257038 177:0 178:0 179:0.204545 180:0.454545 181:0.636364 182:0.659091 183:0.727273 184:0.454545 185:0.390262 186:0.905554 187:0.743332 188:0.337779 189:0.160014 190:0.5 191:0.853553 192:0.146447 193:0.75 194:0.333333 195:0.558824 196:0 197:0.467239 198:0 199:0.912908 200:0.847817 201:0.598419 202:0.437775 203:0.700858 204:0.269146 205:0.740054 206:0.756746 207:0.338416 208:0.440623 209:0.853889 210:0.333904 211:0.533234 212:0.300852 213:0.282047 214:1 215:0.443874 216:0.600351 217:0 218:0.311037 219:0.0886118 220:0.385861 221:0 222:0.222396 223:0.391743 224:0.835866 225:0.164134 226:0 227:0 228:0.0365629 229:0.395858 230:0.208109 231:0.0701819 232:0.52565 233:0.125256 234:0.174218 235:0.0721234 236:0.0919414 237:0.168954 238:0.128505 239:0 240:0.127985 241:0.0920257 242:0.121467 243:0.172606 244:0.0965168 245:0.120377 246:0.0923102 247:0.00426506 248:0.0956763 249:0.271267 250:0.086887 251:0.169212 252:0.146044 253:0.013961 254:0.209247 255:0.0415094 256:0.129226 257:0.165093 258:0.139546 259:0.211743 260:0.00911322 261:0.0435632 262:0.0509604 263:0.166155 264:0.0313135 265:0.00309471 266:0 267:0 268:0.204545 269:0.477273 270:0.636364 271:0.659091 272:0.75 273:0.363636 274:0.435953 275:0.881246 276:0.728748 277:0.271252 278:0.190871 279:0.5 280:0.723607 281:0.0527864 282:0.75 283:0.392857 284:0.633333 285:0 286:0.218307 287:0 288:0.972377 289:0.819867 290:0.566729 291:0.390401 292:0.742243 293:0.298431 294:0.748933 295:0.716146 296:0.308233 297:0.543318 298:1 299:0.422542 300:0.875 301:0.486133 302:0.282047 303:0.343056 304:0.282047 305:0.757089 306:0.0261783 307:0.177465 308:0.0392674 309:0.419086 310:0 311:0.33118 312:0.249734 313:0.808673 314:0.154057 315:0.0110916 316:0.0261783 317:0.0134175 318:0.242512 319:0.354571 320:0.127089 321:0.472711 322:0.0765351 323:0.252145 324:0.12361 325:0.108882 326:0.206038 327:0.145228 328:0 329:0.0626599 330:0.0575306 331:0.117738 332:0.130841 333:0.171083 334:0.069809 335:0.152387 336:0.00896837 337:0.0774911 338:0.242556 339:0.0715524 340:0.193466 341:0.160023 342:0.0237474 343:0.189946 344:0.0220079 345:0.115848 346:0.236102 347:0.0841683 348:0.246495 349:0.0193376 350:0.0317942 351:0.0543009 352:0.181465 353:0.0332489 354:0.00282467 355:0 356:0 
5.621432448834578e-12 0 0 1:0.28 2:0.42 3:0.86 4:0.68 5:0.58 6:0.26 7:0.505591 8:0.770765 9:0.608306 10:0.0938522 11:0.111921 12:0.5 13:0.853553 14:0.146447 15:0.75 16:0.4 17:0.67 18:0 19:0.230313 20:0 21:0.849141 22:0.972377 23:0.54042 24:0.824965 25:0.375774 26:0.27498 27:0.808185 28:0.642336 29:0.297236 30:0.23588 31:0.474363 32:0.0963471 33:0.165217 34:0.497755 35:0.5 36:0.321956 37:0.796115 38:0.882705 39:0.00347779 40:0.0825169 41:0.0313001 42:0.605403 43:0 44:0.289186 45:0.10541 46:0.907677 47:0.0741104 48:0.0147352 49:0.00347779 50:0.0146912 51:0.192385 52:0.351624 53:0.115184 54:0.745964 55:0.0873111 56:0.0797864 57:0.0582931 58:0.112647 59:0.187395 60:0.134424 61:0.00738385 62:0.0864918 63:0.0572398 64:0.103009 65:0.167858 66:0.143552 67:0.0743281 68:0.11252 69:0.036607 70:0.12683 71:0.207656 72:0.108219 73:0.169336 74:0.139111 75:0.0253938 76:0.212102 77:0.0435038 78:0.122603 79:0.178947 80:0.0709522 81:0.199663 82:0.0428571 83:0.0345263 84:0.0948454 85:0.172449 86:0.0393719 87:0.00433268 88:0 89:0 90:0.175 91:0.4 92:0.75 93:0.725 94:0.6 95:0.35 96:0.468948 97:0.88794 98:0.641069 99:0.217862 100:0.147724 101:0.5 102:0.853553 103:0.146447 104:0.7625 105:0.4 106:0.647059 107:0 108:0.281331 109:0 110:0.866302 111:0.847817 112:0.643501 113:0.599828 114:0.541822 115:0.297634 116:0.804618 117:0.66 118:0.306285 119:0.401473 120:0.804321 121:0.21893 122:0.355208 123:0.5483 124:0.397584 125:0.427065 126:0.796115 127:0.786552 128:0.00827474 129:0.14725 130:0.0579232 131:0.463563 132:0 133:0.335282 134:0.201156 135:0.875843 136:0.101859 137:0.0140238 138:0.00827474 139:0.027619 140:0.320873 141:0.331016 142:0.0966425 143:0.657405 144:0.128773 145:0.0803492 146:0.0570836 147:0.137146 148:0.220113 149:0.0921794 150:0.00762736 151:0.0712857 152:0.0152695 153:0.123422 154:0.207833 155:0.125124 156:0.0915838 157:0.14411 158:0.0333931 159:0.0921886 160:0.279454 161:0.132471 162:0.0885059 163:0.119539 164:0.0187556 165:0.176277 166:0.0126871 167:0.080637 168:0.220339 169:0.0528097 170:0.267749 171:0.0560243 172:0.0278711 173:0.105606 174:0.216427 175:0.0485028 176:0.00546897 177:0 178:0 179:0.175 180:0.45 181:0.775 182:0.725 183:0.55 184:0.425 185:0.459248 186:0.916954 187:0.57581 188:0.234666 189:0.179114 190:0.295876 191:0.704124 192:0.0917517 193:0.7625 194:0.5 195:0.671875 196:0 197:0 198:0 199:0.896055 200:0.88848 201:0.576375 202:0.460284 203:0.66535 204:0.309045 205:0.787481 206:0.639113 207:0.280242 208:0.238304 209:0.486111 210:0.0799951 211:0.1625 212:0.629762 213:0.304087 214:0.480556 215:0.73228 216:0.919081 217:0 218:0.0560952 219:0.0248242 220:0.570557 221:0 222:0.35497 223:0.0744727 224:0.887321 225:0.105667 226:0.0070119 227:0 228:0.0102923 229:0.145985 230:0.416429 231:0.14476 232:0.78322 233:0.0362297 234:0.0438279 235:0.095056 236:0.135882 237:0.229983 238:0.0993378 239:0.00621047 240:0.0577888 241:0.0230782 242:0.125 243:0.166909 244:0.15581 245:0.0551755 246:0.180638 247:0.0311689 248:0.0792805 249:0.259741 250:0.113876 251:0.0843764 252:0.161764 253:0.0339793 254:0.157891 255:0.0147178 256:0.0436707 257:0.261372 258:0.0604981 259:0.285908 260:0.0459694 261:0.0161954 262:0.113778 263:0.20875 264:0.0398574 265:0.00357919 266:0 267:0 268:0.125 269:0.55 270:0.65 271:0.775 272:0.55 273:0.55 274:0.500724 275:0.994186 276:0.5 277:0.423971 278:0.402762 279:0.5 280:0.5 281:0 282:0.7375 283:0.538462 284:0.636364 285:0 286:0 287:0 288:0.994421 289:0.868539 290:0.502843 291:0.204105 292:1.34734 293:0.328628 294:0.870833 295:0.6 296:0.304167 297:0.0833333 298:0.166667 299:0.0078125 300:0.015625 301:0.300595 302:0.5 303:0.05 304:0.304087 305:0.957929 306:0 307:0.0420714 308:0 309:0.820914 310:0 311:0.154262 312:0.0248242 313:0.977701 314:0.00827474 315:0.0140238 316:0 317:0 318:0.0249706 319:0.13791 320:0.0756467 321:0.965278 322:0.0208333 323:0.0138889 324:0 325:0.125 326:0.188515 327:0.158676 328:0 329:0.0456446 330:0.0216605 331:0.125 332:0.144677 333:0.190828 334:0 335:0.219287 336:0.0307128 337:0.05175 338:0.218999 339:0.0995699 340:0.143386 341:0.172313 342:0.0639819 343:0.159587 344:0.00897651 345:0.0283229 346:0.271028 347:0.0443858 348:0.285804 349:0.037563 350:0.0211138 351:0.143218 352:0.196405 353:0.0293869 354:0.00134785 355:0 356:0 
1.411493792711695e-12 0 0 1:0.28 2:0.42 3:0.86 4:0.68 5:0.58 6:0.26 7:0.505591 8:0.770765 9:0.608306 10:0.0938522 11:0.107994 12:0.5 13:0.853553 14:0.146447 15:0.75 16:0.4 17:0.67 18:0 19:0.210535 20:0 21:0.849141 22:0.972377 23:0.54042 24:0.854965 25:0.362588 26:0.276464 27:0.807492 28:0.632867 29:0.307492 30:0.214301 31:0.430916 32:0.0852301 33:0.146154 34:0.468024 35:0.5 36:0.279961 37:0.796115 38:0.88961 39:0.00311646 40:0.0792254 41:0.0280482 42:0.638478 43:0 44:0.267064 45:0.0944587 46:0.914628 47:0.0664106 48:0.0158451 49:0.00311646 50:0.0131101 51:0.17168 52:0.313781 53:0.102787 54:0.77419 55:0.0776099 56:0.0709212 57:0.0518161 58:0.109206 59:0.185856 60:0.142446 61:0.00664547 62:0.0851019 63:0.0597311 64:0.104323 65:0.162882 66:0.143809 67:0.0853244 68:0.102421 69:0.0329463 70:0.143283 71:0.193052 72:0.0973971 73:0.193545 74:0.129176 75:0.0228544 76:0.237499 77:0.0504334 78:0.141482 79:0.161053 80:0.0678226 81:0.186704 82:0.0385714 83:0.0310737 84:0.0853609 85:0.174637 86:0.0404022 87:0.00448142 88:0 89:0 90:0.175 91:0.4 92:0.8 93:0.725 94:0.6 95:0.35 96:0.470208 97:0.872507 98:0.635457 99:0.195222 100:0.140101 101:0.5 102:0.853553 103:0.146447 104:0.7625 105:0.4 106:0.644737 107:0 108:0.256199 109:0 110:0.811034 111:0.902507 112:0.643501 113:0.658667 114:0.512399 115:0.289839 116:0.812908 117:0.650602 118:0.30086 119:0.387678 120:0.778056 121:0.203051 122:0.334259 123:0.548096 124:0.397584 125:0.432276 126:0.796115 127:0.804527 128:0.00757792 129:0.13485 130:0.0530455 131:0.455362 132:0 133:0.360422 134:0.184216 135:0.87872 136:0.100859 137:0.0128429 138:0.00757792 139:0.0325965 140:0.318716 141:0.377781 142:0.0899763 143:0.641665 144:0.140896 145:0.101945 146:0.0592444 147:0.136212 148:0.221113 149:0.094704 150:0.00704064 151:0.0695656 152:0.0158882 153:0.123298 154:0.202106 155:0.130073 156:0.0733159 157:0.144595 158:0.0444477 159:0.0785124 160:0.274626 161:0.148385 162:0.0784614 163:0.134578 164:0.0230788 165:0.148773 166:0.0108201 167:0.0691152 168:0.236688 169:0.0516944 170:0.259441 171:0.0679641 172:0.0306327 173:0.124872 174:0.221518 175:0.0526069 176:0.0063317 177:0 178:0 179:0.125 180:0.45 181:0.725 182:0.725 183:0.55 184:0.425 185:0.472261 186:0.942326 187:0.573721 188:0.278837 189:0.18583 190:0.5 191:0.853553 192:0.146447 193:0.775 194:0.5 195:0.6875 196:0 197:0 198:0 199:0.896055 200:0.88848 201:0.576375 202:0.45622 203:0.671278 204:0.307389 205:0.80754 206:0.628968 207:0.28373 208:0.195723 209:0.4 210:0.0446715 211:0.0925926 212:0.620208 213:0.5 214:0.409722 215:0.73228 216:0.925895 217:0 218:0.0513714 219:0.0227338 220:0.608724 221:0 222:0.323075 223:0.0682013 224:0.9038 225:0.0833571 226:0.0128429 227:0 228:0.00513381 229:0.126056 230:0.421848 231:0.147844 232:0.8375 233:0.00930796 234:0.0426417 235:0.0855504 236:0.131697 237:0.230747 238:0.109086 239:0.00382183 240:0.0554616 241:0.0288021 242:0.125 243:0.156459 244:0.158926 245:0.045029 246:0.183519 247:0.0318315 248:0.0728879 249:0.261821 250:0.107015 251:0.0996437 252:0.161673 253:0.0365803 254:0.16321 255:0.013198 256:0.0386058 257:0.261737 258:0.065529 259:0.288828 260:0.0448423 261:0.016094 262:0.107956 263:0.20701 264:0.0387438 265:0.00333662 266:0 267:0 268:0.125 269:0.525 270:0.625 271:0.775 272:0.525 273:0.575 274:0.513785 275:0.998527 276:0.5 277:0.461652 278:0.437113 279:0.5 280:0.5 281:0 282:0.7375 283:0.541667 284:0.625 285:0 286:0 287:0 288:1.03038 289:0.876058 290:0.463648 291:0.186428 292:1.40805 293:0.342709 294:0.866071 295:0.553571 296:0.357143 297:0.075 298:0.15 299:0.00694444 300:0.0138889 301:0.210938 302:0.5 303:0.0277778 304:0.304087 305:0.961471 306:0 307:0.0385286 308:0 309:0.862837 310:0 311:0.122007 312:0.0151558 313:0.980736 314:0 315:0.0192643 316:0 317:0 318:0.0103066 319:0.0608733 320:0.0316696 321:0.975 322:0.0021935 323:0.0228065 324:5.55112e-18 325:0.125 326:0.242889 327:0.114401 328:0 329:0.0489596 330:0 331:0.125 332:0.193479 333:0.150271 334:0 335:0.226724 336:0.0232763 337:0.110132 338:0.233604 339:0.131537 340:0.135 341:0.116089 342:0.0236376 343:0.181613 344:0.0147244 345:0.0461261 346:0.265965 347:0.0391805 348:0.267568 349:0.0223154 350:0.0213871 351:0.14112 352:0.199461 353:0.0296019 354:0.00125308 355:0 356:0 
7.668647014116363e-12 0 5.275571386499232e-13 1:0.26087 2:0.413043 3:0.891304 4:0.695652 5:0.586957 6:0.282609 7:0.502015 8:0.783069 9:0.613228 10:0.103703 11:0.108081 12:0.5 13:0.853553 14:0.146447 15:0.75 16:0.433333 17:0.673913 18:0 19:0.183566 20:0 21:0.807617 22:0.972377 23:0.577902 24:0.888201 25:0.367132 26:0.283191 27:0.809983 28:0.624107 29:0.31392 30:0.176156 31:0.356065 32:0.0704139 33:0.11954 34:0.392436 35:1 36:0.210696 37:0.796115 38:0.910861 39:0 40:0.0693766 41:0.019762 42:0.686424 43:0 44:0.240824 45:0.0727521 46:0.930483 47:0.0551636 48:0.0143538 49:0 50:0.0113063 51:0.141907 52:0.27289 53:0.0901304 54:0.809271 55:0.0665837 56:0.0643009 57:0.0390112 58:0.104974 59:0.187373 60:0.155513 61:0.00338501 62:0.0800839 63:0.0634573 64:0.101863 65:0.154778 66:0.148573 67:0.0798839 68:0.0993318 69:0.0280587 70:0.142984 71:0.185182 72:0.0959451 73:0.206608 74:0.13535 75:0.0266565 76:0.243278 77:0.0525954 78:0.143581 79:0.162612 80:0.0666424 81:0.181543 82:0.0412974 83:0.0257892 84:0.0826618 85:0.200606 86:0.050172 87:0.00601745 88:0 89:0 90:0.214286 91:0.404762 92:0.833333 93:0.690476 94:0.595238 95:0.309524 96:0.480384 97:0.824785 98:0.629914 99:0.142737 100:0.135168 101:0.5 102:0.853553 103:0.146447 104:0.761905 105:0.433333 106:0.671053 107:0 108:0.184382 109:0 110:0.835357 111:0.902507 112:0.620249 113:0.67794 114:0.482906 115:0.291017 116:0.8154 117:0.644947 118:0.290679 119:0.345514 120:0.69919 121:0.179955 122:0.303788 123:0.529237 124:0.397584 125:0.39483 126:0.796115 127:0.863151 128:0 129:0.10442 130:0.032428 131:0.48242 132:0 133:0.382875 134:0.134705 135:0.882728 136:0.100785 137:0.0164874 138:0 139:0.0271132 140:0.304126 141:0.393623 142:0.0777206 143:0.653385 144:0.132661 145:0.120304 146:0.0519831 147:0.128039 148:0.212992 149:0.102072 150:0.00696506 151:0.0757162 152:0.0266573 153:0.108755 154:0.198821 155:0.139983 156:0.0639484 157:0.133565 158:0.0420993 159:0.0905282 160:0.227814 161:0.173783 162:0.0826914 163:0.149123 164:0.0364479 165:0.156964 166:0.016885 167:0.065416 168:0.21734 169:0.0513408 170:0.236545 171:0.0720389 172:0.0388489 173:0.144621 174:0.210048 175:0.0493661 176:0.00592628 177:0 178:0 179:0.166667 180:0.5 181:0.714286 182:0.738095 183:0.547619 184:0.428571 185:0.473884 186:0.945976 187:0.537165 188:0.277012 189:0.200739 190:0.5 191:0.5 192:0 193:0.738095 194:0.519231 195:0.678571 196:0 197:0 198:0 199:0.982794 200:0.822418 201:0.554307 202:0.398931 203:0.716199 204:0.309281 205:0.811441 206:0.622881 207:0.283898 208:0.13828 209:0.279514 210:0.0125929 211:0.0265152 212:0.527917 213:0.5 214:0.197917 215:0.5 216:0.954054 217:0 218:0.0329749 219:0.0129712 220:0.695573 221:0 222:0.265514 223:0.0389137 224:0.925142 225:0.0583705 226:0.0164874 227:0 228:0.00138715 229:0.0803661 230:0.321163 231:0.139256 232:0.890625 233:0.0296975 234:0.0439203 235:0.0357572 236:0.125 237:0.209117 238:0.134042 239:0 240:0.0572307 241:0.0392448 242:0.125 243:0.145473 244:0.164892 245:0.0518539 246:0.180614 247:0.0175325 248:0.0818485 249:0.251363 250:0.081126 251:0.143235 252:0.161187 253:0.0312407 254:0.197386 255:0.0191592 256:0.0599503 257:0.240693 258:0.0661493 259:0.289421 260:0.0293385 261:0.0121637 262:0.0857396 263:0.185254 264:0.0305611 265:0.00215497 266:0 267:0 268:0.125 269:0.525 270:0.6 271:0.775 272:0.525 273:0.6 274:0.52 275:1 276:0.5 277:0.5 278:0.532477 279:0.5 280:0.853553 281:0.146447 282:0.7375 283:0.541667 284:0.611111 285:0 286:0 287:0 288:1.03038 289:0.927295 290:0.422854 291:0.152589 292:1.67935 293:0.350758 294:0.804348 295:0.532609 296:0.429348 297:0.03125 298:0.0625 299:0 300:0 301:0.0875 302:1 303:0 304:0 305:0.961529 306:0 307:0.0384707 308:0 309:0.916573 310:0 311:0.0769414 312:0.00648561 313:0.989008 314:0 315:0.0109916 316:0 317:0 318:0.00378515 319:0.0192387 320:0.00951772 321:1 322:0 323:0 324:0 325:0.125 326:0.240521 327:0.120947 328:0 329:0.0447813 330:0 331:0.125 332:0.196849 333:0.146901 334:0 335:0.192878 336:0.0571222 337:0.117745 338:0.194732 339:0.159658 340:0.136725 341:0.113936 342:0.0272029 343:0.193918 344:0.0146348 345:0.0447416 346:0.24592 347:0.0360919 348:0.227332 349:0.03249 350:0.0225436 351:0.182327 352:0.202059 353:0.0299692 354:0.00117778 355:0 356:0 
2.490288237604165e-11 1.660673487736259e-12 0 1:0.145833 2:0.708333 3:0.229167 4:0.8125 5:0.416667 6:0.9375 7:0.65679 8:0.828244 9:0.356393 10:0.848759 11:0.140671 12:0.5 13:0.5 14:0.5 15:0.6875 16:0.55 17:0.385417 18:0.121208 19:0 20:0.756108 21:0.785398 22:1.0122 23:0.558599 24:0.902373 25:0.363625 26:0.274124 27:0.528295 28:0.467715 29:0.765389 30:0.293871 31:0.5875 32:0.119524 33:0.168403 34:0.788444 35:0.5 36:0.480458 37:1 38:0.900974 39:0.00669677 40:0.0822839 41:0.0100452 42:0.627938 43:0.0100452 44:0.309213 45:0.0528036 46:0.901036 47:0.052033 48:0.0368859 49:0.0100452 50:0.0115956 51:0.171099 52:0.321029 53:0.204166 54:0.605363 55:0.109917 56:0.118095 57:0.08076 58:0.0433311 59:0.130814 60:0.154649 61:0.0029899 62:0.122629 63:0.125745 64:0.103531 65:0.171392 66:0.144918 67:0.00476751 68:0.0755731 69:0.0618255 70:0.0521609 71:0.194021 72:0.193982 73:0.146162 74:0.18426 75:0.0872489 76:0.135591 77:0.0199322 78:0.0540749 79:0.135063 80:0.112096 81:0.202693 82:0.0667592 83:0.109475 84:0.164316 85:0.194946 86:0.0496389 87:0.00563619 88:0 89:0 90:0.159091 91:0.636364 92:0.431818 93:0.795455 94:0.5 95:0.795455 96:0.579509 97:0.926798 98:0.408543 99:0.743884 100:0.273518 101:0.5 102:0.5 103:0.5 104:0.727273 105:0.477273 106:0.464286 107:0.0667067 108:0 109:0.767127 110:1.00407 111:0.904827 112:0.463648 113:0.340704 114:0.783804 115:0.323539 116:0.538404 117:0.490741 118:0.738426 119:0.198241 120:0.395 121:0.0518372 122:0.106481 123:0.663494 124:0.5 125:0.1875 126:1 127:0.961471 128:0 129:0.0385286 130:0 131:0.705563 132:0.00757792 133:0.271703 134:0.0151558 135:0.91017 136:0.0437236 137:0.0385286 138:0.00757792 139:0.00481671 140:0.130344 141:0.288865 142:0.151531 143:0.85 144:0.00438699 145:0.0236925 146:0.0344205 147:0.125 148:0.110915 149:0.189663 150:0 151:0.0682697 152:0.0386781 153:0.125 154:0.202512 155:0.139961 156:0 157:0.166579 158:0.0834211 159:0.0483397 160:0.205107 161:0.129314 162:0.158524 163:0.166722 164:0.0419924 165:0.132337 166:0.0128943 167:0.0595255 168:0.251568 169:0.056407 170:0.231063 171:0.052815 172:0.0296389 173:0.173752 174:0.183039 175:0.0273385 176:0.00163533 177:0 178:0 179:0.0714286 180:0.642857 181:0.333333 182:0.738095 183:0.452381 184:0.904762 185:0.617379 186:0.870999 187:0.394 188:0.817999 189:0.188924 190:0.723607 191:0.5 192:0.947214 193:0.714286 194:0.538462 195:0.416667 196:0.0801035 197:0 198:0.811048 199:0.86217 200:0.945311 201:0.554307 202:0.594469 203:0.520673 204:0.288684 205:0.527381 206:0.472892 207:0.765949 208:0.388843 209:0.775 210:0.214564 211:0.240741 212:0.798388 213:0.416871 214:0.714969 215:1 216:0.879788 217:0.00757792 218:0.0899 219:0.0227338 220:0.485976 221:0.0151558 222:0.417255 223:0.0816132 224:0.879289 225:0.0874473 226:0.0256857 227:0.00757792 228:0.0179003 229:0.238293 230:0.371823 231:0.182012 232:0.521667 233:0.136648 234:0.14343 235:0.110755 236:0.105078 237:0.157855 238:0.194008 239:0 240:0.0737478 241:0.0529227 242:0.125 243:0.160665 244:0.130723 245:0.00407 246:0.150178 247:0.0763611 248:0.0201354 249:0.184709 250:0.184923 251:0.105671 252:0.202023 253:0.0719293 254:0.0937404 255:0.00651349 256:0.0276477 257:0.252851 258:0.0792273 259:0.211443 260:0.107969 261:0.0530871 262:0.167521 263:0.190452 264:0.0385484 265:0.00377792 266:0 267:0 268:0.125 269:0.7 270:0.425 271:0.775 272:0.4 273:0.775 274:0.556218 275:0.907846 276:0.311763 277:0.71961 278:0.232035 279:0.5 280:0.341886 281:0.974342 282:0.7125 283:0.533333 284:0.446429 285:0.0436774 286:0 287:0.713398 288:0.927295 289:0.819867 290:0.610726 291:0.429283 292:0.713398 293:0.282383 294:0.5182 295:0.427966 296:0.795742 297:0.329958 298:0.656944 299:0.0859375 300:0.171875 301:0.919881 302:0.5 303:0.433496 304:1 305:0.864248 306:0.00827474 307:0.119202 308:0.00827474 309:0.652405 310:0 311:0.266752 312:0.0808432 313:0.925471 314:0.0311947 315:0.0350595 316:0.00827474 317:0.00627033 318:0.107269 319:0.224471 320:0.209911 321:0.710905 322:0.114007 323:0.0754284 324:0.04137 325:0.0665043 326:0.201689 327:0.167494 328:0 329:0.0881956 330:0.0653122 331:0.122967 332:0.216065 333:0.0717731 334:0 335:0.138987 336:0.0530226 337:0.0059372 338:0.192258 339:0.304465 340:0.0413788 341:0.178706 342:0.0852451 343:0.040178 344:0.00384757 345:0.00400925 346:0.212171 347:0.0817051 348:0.21239 349:0.1776 350:0.070708 351:0.197391 352:0.176145 353:0.0294295 354:0.00223464 355:0 356:0 
4.065886838670465e-12 0 0 1:0.113636 2:0.727273 3:0.25 4:0.75 5:0.363636 6:0.931818 7:0.62116 8:0.817854 9:0.318369 10:0.840557 11:0.128907 12:0.5 13:0.5 14:1 15:0.704545 16:0.588235 17:0.375 18:0.0468271 19:0 20:0.667286 21:0.785398 22:0.912908 23:0.657889 24:0.97069 25:0.357056 26:0.270884 27:0.50938 28:0.47651 29:0.771468 30:0.248954 31:0.497685 32:0.0959069 33:0.126603 34:0.707869 35:0.5 36:0.444114 37:1 38:0.886231 39:0.00934938 40:0.0950705 41:0.00934938 42:0.688515 43:0.00623292 44:0.256105 45:0.0491462 46:0.903085 47:0.0453125 48:0.0422535 49:0.00934938 50:0.0107636 51:0.149355 52:0.257835 53:0.143064 54:0.662373 55:0.10015 56:0.1009 57:0.089479 58:0.0327087 59:0.195701 60:0.172811 61:0.00443519 62:0.0894601 63:0.0881248 64:0.0897787 65:0.209829 66:0.117151 67:0 68:0.039747 69:0.0859308 70:0.0290682 71:0.168965 72:0.305931 73:0.0826515 74:0.156155 75:0.131551 76:0.0747801 77:0.00855908 78:0.0302241 79:0.143023 80:0.0665922 81:0.153475 82:0.189711 83:0.0961798 84:0.237456 85:0.20501 86:0.053913 87:0.00675628 88:0 89:0 90:0.119048 91:0.642857 92:0.357143 93:0.785714 94:0.5 95:0.880952 96:0.602184 97:0.887694 98:0.416923 99:0.804617 100:0.197052 101:0.5 102:0.5 103:1 104:0.714286 105:0.519231 106:0.397059 107:0.0873094 108:0 109:0.829439 110:0.890275 111:0.91795 112:0.554307 113:0.545406 114:0.556598 115:0.297505 116:0.521679 117:0.488487 118:0.762484 119:0.300214 120:0.6025 121:0.14512 122:0.212963 123:0.693901 124:0.416871 125:0.558217 126:0.75 127:0.906631 128:0.00757792 129:0.0706357 130:0.0151558 131:0.521553 132:0.0151558 133:0.404412 134:0.0588795 135:0.884554 136:0.0874473 137:0.0128429 138:0.0151558 139:0.0158983 140:0.252903 141:0.394234 142:0.140775 143:0.647793 144:0.0861428 145:0.118064 146:0.0958372 147:0.0994496 148:0.125962 149:0.193962 150:0 151:0.0750524 152:0.0557328 153:0.125 154:0.154876 155:0.169965 156:0.00375385 157:0.147528 158:0.0728719 159:0.0256345 160:0.170648 161:0.166462 162:0.122808 163:0.206719 164:0.0835752 165:0.111071 166:0.00404574 167:0.0416055 168:0.235978 169:0.0633813 170:0.226355 171:0.0822247 172:0.0606542 173:0.174684 174:0.193038 175:0.038039 176:0.00353816 177:0 178:0 179:0.075 180:0.65 181:0.4 182:0.775 183:0.4 184:0.85 185:0.596066 186:0.902805 187:0.356141 188:0.758946 189:0.201897 190:0.704124 191:0.704124 192:0.908248 193:0.725 194:0.55 195:0.416667 196:0.0464715 197:0 198:0.731926 199:0.927295 200:0.785398 201:0.643501 202:0.537964 203:0.580894 204:0.284715 205:0.520122 206:0.446181 207:0.782275 208:0.381648 209:0.759167 210:0.161225 211:0.185185 212:0.903606 213:0.5 214:0.648676 215:1 216:0.848838 217:0.0151558 218:0.128429 219:0.00757792 220:0.597143 221:0.0151558 222:0.306087 223:0.0816132 224:0.909013 225:0.0513015 226:0.0321071 227:0.00757792 228:0.0125124 229:0.158531 230:0.255838 231:0.229899 232:0.604241 233:0.130601 234:0.105095 235:0.0725627 236:0.0664197 237:0.194574 238:0.178981 239:0 240:0.0815769 241:0.066836 242:0.119369 243:0.205285 244:0.0869579 245:0 246:0.112575 247:0.0744644 248:0.0037815 249:0.16566 250:0.309207 251:0.0454446 252:0.179552 253:0.109315 254:0.0402268 255:0.00338343 256:0.00513106 257:0.205151 258:0.0694961 259:0.182514 260:0.190022 261:0.0787405 262:0.225335 263:0.185165 264:0.0347371 265:0.00319223 266:0 267:0 268:0.166667 269:0.666667 270:0.571429 271:0.738095 272:0.380952 273:0.571429 274:0.495546 275:0.947214 276:0.276393 277:0.5 278:0.380687 279:0.5 280:0.5 281:0.5 282:0.738095 283:0.53125 284:0.416667 285:0 286:0 287:0 288:0.91972 289:1.21203 290:0.2783 291:0.209778 292:1.22011 293:0.298571 294:0.454545 295:0.477273 296:0.791667 297:0.0875 298:0.175 299:0 300:0 301:0.515625 302:0.5 303:0.125 304:0.5 305:0.882101 306:0.0151558 307:0.102743 308:0 309:0.947472 310:0 311:0.04495 312:0.00757792 313:0.935786 314:0 315:0.0642143 316:0 317:0 318:0.00618393 319:0.0372786 320:0.0255029 321:0.9625 322:0 323:0 324:0.0375 325:0.0683189 326:0.198523 327:0.160729 328:0.0104591 329:0.0828889 330:0.0669424 331:0.135152 332:0.229105 333:0.047883 334:0.168181 335:0.0391303 336:0.0127675 337:0.0337422 338:0.283412 339:0.188358 340:0.125 341:0.106062 342:0.0433477 343:0.173736 344:0.0281874 345:0.125 346:0.125311 347:0.0985588 348:0.192339 349:0.12325 350:0.0472654 351:0.0863526 352:0.158467 353:0.0196292 354:0.000670389 355:0 356:0 
