svm_type c_svc
kernel_type polynomial
degree 3
gamma 100
coef0 0
nr_class 4
total_sv 120
rho 0.396124 -0.656981 -0.782134 -0.975021 -0.587218 0.818316
label 4 3 1 2
probA -5.00186 -4.88207 -4.18477 -4.65211 -4.07826 -4.50304
probB 0.0731142 -0.0940074 -0.465736 0.0233229 -0.679141 -0.275261
nr_sv 26 36 36 22
SV
1.333242443873477e-11 0 0 1:0.307692 2:0.480769 3:0.903846 4:0.730769 5:0.557692 6:0.173077 7:0.56978 8:0.749485 9:0.545361 10:0.0690712 11:0.110342 12:0.5 13:0.5 14:0 15:0.71 16:0.392857 17:0.701923 18:0.00500524 19:0.0900943 20:0 21:0.805003 22:1.06031 23:0.493941 24:0.960532 25:0.32534 26:0.28794 27:0.799522 28:0.611111 29:0.306643 30:0.194224 31:0.38737 32:0.0416776 33:0.0670251 34:0.469561 35:1 36:0.273065 37:1 38:0.907525 39:0.0079694 40:0.0765358 41:0.0079694 42:0.669201 43:0.0179839 44:0.264998 45:0.0478164 46:0.913111 47:0.0519067 48:0.0270126 49:0.0079694 50:0.0207288 51:0.214148 52:0.204069 53:0.0600428 54:0.799275 55:0.0457271 56:0.0500739 57:0.0655199 58:0.118972 59:0.163003 60:0.143665 61:0.00171155 62:0.090356 63:0.0267979 64:0.128871 65:0.181193 66:0.14543 67:0.142064 68:0.0783944 69:0.0306906 70:0.211999 71:0.123123 72:0.0873971 73:0.196729 74:0.0910208 75:0.0385824 76:0.271245 77:0.0335962 78:0.246967 79:0.115692 80:0.0522381 81:0.127532 82:0.0305405 83:0.0406923 84:0.0814969 85:0.195678 86:0.0532627 87:0.00693099 88:0 89:0 90:0.204545 91:0.477273 92:0.818182 93:0.704545 94:0.568182 95:0.181818 96:0.555299 97:0.80698 98:0.555815 99:0.109298 100:0.134229 101:0.5 102:0.5 103:0 104:0.738636 105:0.392857 106:0.710526 107:0 108:0.0899031 109:0 110:0.858439 111:0.93577 112:0.566729 113:0.758392 114:0.412056 115:0.30252 116:0.816476 117:0.6175 118:0.283012 119:0.360553 120:0.737847 121:0.117455 122:0.188889 123:0.514176 124:0.36614 125:0.592295 126:1 127:0.845674 128:0.0194568 129:0.115412 130:0.0194568 131:0.438874 132:0.0309355 133:0.419935 134:0.110255 135:0.864261 136:0.100785 137:0.0219833 138:0.0129712 139:0.0392525 140:0.41032 141:0.32457 142:0.0835328 143:0.630974 144:0.078055 145:0.0899995 146:0.10631 147:0.125 148:0.204033 149:0.131585 150:0 151:0.0751138 152:0.0250912 153:0.134951 154:0.164521 155:0.139705 156:0.104955 157:0.111181 158:0.0412466 159:0.125471 160:0.177015 161:0.143955 162:0.126871 163:0.119277 164:0.0500268 165:0.190232 166:0.035087 167:0.133223 168:0.183735 169:0.0450479 170:0.176255 171:0.0699235 172:0.0357585 173:0.130738 174:0.210806 175:0.0549062 176:0.0076114 177:0 178:0 179:0.23913 180:0.543478 181:0.717391 182:0.76087 183:0.5 184:0.326087 185:0.494827 186:0.899114 187:0.46674 188:0.200664 189:0.17116 190:0.276393 191:0.5 192:0.0527864 193:0.717391 194:0.519231 195:0.716667 196:0 197:0 198:0 199:0.992894 200:0.856706 201:0.514451 202:0.477346 203:0.580657 204:0.315622 205:0.781403 206:0.572635 207:0.289543 208:0.19624 209:0.377564 210:0.00858875 211:0.0162037 212:0.564532 213:0.5 214:0.155724 215:1 216:0.937561 217:0.0060496 218:0.0563898 219:0 220:0.651574 221:0.040955 222:0.307471 223:0 224:0.902242 225:0.071203 226:0.0205054 227:0.0060496 228:0.0139779 229:0.18633 230:0.252354 231:0.0908803 232:0.899293 233:0.0362992 234:0.0259466 235:0.0288462 236:0.125 237:0.198432 238:0.141273 239:0 240:0.0612373 241:0.0137601 242:0.125 243:0.19162 244:0.143677 245:0.117499 246:0.123204 247:0.00929701 248:0.186043 249:0.200645 250:0.045051 251:0.170043 252:0.115834 253:0.0323846 254:0.223187 255:0.0334184 256:0.209559 257:0.203839 258:0.0466228 259:0.195062 260:0.0228465 261:0.0135949 262:0.051871 263:0.183395 264:0.0323187 265:0.00294986 266:0 267:0 268:0.195652 269:0.565217 270:0.608696 271:0.804348 272:0.565217 273:0.521739 274:0.520932 275:0.994975 276:0.5 277:0.429289 278:0.497713 279:0.5 280:0.5 281:0.5 282:0.717391 283:0.458333 284:0.625 285:0 286:0 287:0 288:1.08991 289:0.982794 290:0.334737 291:0.154425 292:1.51333 293:0.360269 294:0.703704 295:0.657407 296:0.402778 297:0.0480769 298:0.0961538 299:0 300:0 301:0.340909 302:1 303:0.0972222 304:0.5 305:0.953863 306:0 307:0.0461371 308:0 309:0.932434 310:0 311:0.0615162 312:0.0060496 313:0.969242 314:0 315:0.0307581 316:0 317:0 318:0 319:0 320:0 321:0.961538 322:0.00480769 323:0.00480769 324:0.0288462 325:0.125 326:0.148609 327:0.182636 328:0 329:0.0460631 330:0.0235961 331:0.125 332:0.197961 333:0.151134 334:0 335:0.230324 336:0.0196759 337:0.0709937 338:0.209914 339:0.10878 340:0.230841 341:0.101842 342:0.0276295 343:0.183888 344:0.0138307 345:0.102877 346:0.223172 347:0.0381625 348:0.283246 349:0.053335 350:0.0137751 351:0.0877134 352:0.189527 353:0.023928 354:0.000704509 355:0 356:0 
0 0 1.228609361131248e-11 1:0.3 2:0.48 3:0.9 4:0.74 5:0.56 6:0.18 7:0.557236 8:0.759561 9:0.547193 10:0.0752637 11:0.108307 12:0.5 13:0.853553 14:0.146447 15:0.71 16:0.392857 17:0.72 18:0 19:0.0920036 20:0 21:0.785398 22:1.06031 23:0.510488 24:0.978222 25:0.327124 26:0.289214 27:0.794953 28:0.610063 29:0.311643 30:0.152418 31:0.303419 32:0.0330292 33:0.0533626 34:0.364205 35:1 36:0.202814 37:1 38:0.924034 39:0.00440307 40:0.0671599 41:0.00440307 42:0.73365 43:0.0149041 44:0.21402 45:0.0374261 46:0.932058 47:0.0430175 48:0.0205211 49:0.00440307 50:0.0167808 51:0.163796 52:0.157109 53:0.0466959 54:0.843315 55:0.036269 56:0.0439395 57:0.0500003 58:0.118535 59:0.167921 60:0.158979 61:0.00106972 62:0.0748903 63:0.0241211 64:0.126408 65:0.174653 66:0.153424 67:0.163992 68:0.061406 69:0.0227904 70:0.236234 71:0.0993211 72:0.0695964 73:0.23837 74:0.073905 75:0.034385 76:0.319232 77:0.0358609 78:0.288 79:0.0933791 80:0.0372518 81:0.102054 82:0.0272443 83:0.030583 84:0.0663954 85:0.206477 86:0.0557908 87:0.00729689 88:0 89:0 90:0.270833 91:0.479167 92:0.854167 93:0.729167 94:0.520833 95:0.145833 96:0.57204 97:0.771295 98:0.524663 99:0.0807259 100:0.126064 101:0.5 102:0.853553 103:0.146447 104:0.71875 105:0.410714 106:0.738636 107:-0.00621829 108:0.0621829 109:0 110:0.828849 111:1.00407 112:0.528074 113:0.837584 114:0.373097 115:0.292637 116:0.821181 117:0.606 118:0.28041 119:0.316832 120:0.630208 121:0.0836739 122:0.135185 123:0.489328 124:0.36614 125:0.456123 126:1 127:0.881745 128:0.0100686 129:0.0981176 130:0.0100686 131:0.460726 132:0.0290472 133:0.429678 134:0.0805485 135:0.874499 136:0.0983686 137:0.0170639 138:0.0100686 139:0.0396525 140:0.387713 141:0.327184 142:0.081004 143:0.672768 144:0.0844994 145:0.103196 146:0.0750009 147:0.125 148:0.164161 149:0.127585 150:0 151:0.110189 152:0.0345619 153:0.128332 154:0.165419 155:0.144751 156:0.110176 157:0.101873 158:0.0386612 159:0.146041 160:0.160368 161:0.127722 162:0.13015 163:0.125408 164:0.0596006 165:0.188088 166:0.0450778 167:0.151501 168:0.163282 169:0.0703919 170:0.162482 171:0.0506425 172:0.0486274 173:0.119907 174:0.200066 175:0.0535965 176:0.00738803 177:0 178:0 179:0.23913 180:0.565217 181:0.695652 182:0.804348 183:0.565217 184:0.434783 185:0.500917 186:0.95398 187:0.5 188:0.290471 189:0.21591 190:0.276393 191:0.5 192:0.0527864 193:0.706522 194:0.5 195:0.666667 196:0 197:0 198:0 199:1.08991 200:0.785398 201:0.480887 202:0.360401 203:0.708752 204:0.336488 205:0.776639 206:0.598361 207:0.342213 208:0.105469 209:0.195313 210:0 211:0 212:0.478571 213:1 214:0.135417 215:0.5 216:0.948808 217:0 218:0.0511918 219:0 220:0.808661 221:0.0100686 222:0.176236 223:0.00503428 224:0.940701 225:0.0201371 226:0.0341279 227:0.00503428 228:0.00330846 229:0.0428298 230:0.105163 231:0.0586855 232:0.945313 233:0.00390625 234:0.00390625 235:0.046875 236:0.125 237:0.153091 238:0.16745 239:0 240:0.0568281 241:0.0214826 242:0.125 243:0.199391 244:0.151758 245:0 246:0.236837 247:0.0131633 248:0.0683941 249:0.295026 250:0.0407977 251:0.193211 252:0.12981 253:0.0227615 254:0.153958 255:0.0169046 256:0.0880881 257:0.274964 258:0.0561094 259:0.331948 260:0.0246918 261:0.0106296 262:0.0427064 263:0.184279 264:0.0261659 265:0.00138325 266:0 267:0 268:0.195652 269:0.565217 270:0.586957 271:0.804348 272:0.565217 273:0.543478 274:0.522354 275:0.998729 276:0.5 277:0.464376 278:0.805989 279:0 280:0.5 281:0.5 282:0.717391 283:0.458333 284:0.607143 285:0 286:0 287:0 288:1.08991 289:1.04272 290:0.295441 291:0.0946425 292:2.41182 293:0.372414 294:0.609375 295:0.703125 296:0.460938 297:0.0166667 298:0.0333333 299:0 300:0 301:0.0961538 302:0.5 303:0 304:0 305:0.968369 306:0 307:0.0316315 308:0 309:0.976592 310:0 311:0.0180751 312:0.00533261 313:0.977406 314:0 315:0.0225939 316:0 317:0 318:0.00123181 319:0.0066422 320:0 321:1 322:0 323:0 324:0 325:0.125 326:0.137055 327:0.203916 328:0 329:0.0393052 330:0.0280197 331:0.125 332:0.161807 333:0.179896 334:0 335:0.179881 336:0.0701189 337:0.0904393 338:0.12868 339:0.115184 340:0.279002 341:0.0739258 342:0.0627686 343:0.236975 344:0.0102393 345:0.122325 346:0.170807 347:0.0222675 348:0.188572 349:0.0788675 350:0.0163924 351:0.153555 352:0.197403 353:0.024058 354:0.000592781 355:0 356:0 
0 1.227031783563529e-11 0 1:0.3 2:0.48 3:0.9 4:0.74 5:0.56 6:0.18 7:0.557236 8:0.759561 9:0.547193 10:0.0752637 11:0.107756 12:0.5 13:0.853553 14:0.146447 15:0.71 16:0.392857 17:0.72 18:0 19:0.0915358 20:0 21:0.785398 22:1.06031 23:0.510488 24:0.983222 25:0.32546 26:0.289069 27:0.79311 28:0.609375 29:0.314383 30:0.148608 31:0.295833 32:0.0321823 33:0.0519943 34:0.354621 35:1 36:0.19718 37:1 38:0.925848 39:0.00429793 40:0.0655561 41:0.00429793 42:0.73819 43:0.0145482 44:0.21073 45:0.0365324 46:0.933681 47:0.0419902 48:0.020031 49:0.00429793 50:0.0163703 51:0.159788 52:0.155885 53:0.0459919 54:0.847232 55:0.0353623 56:0.042841 57:0.0487503 58:0.117807 59:0.168822 60:0.160074 61:0.00104484 62:0.0738386 63:0.0240268 64:0.126375 65:0.174065 66:0.153947 67:0.165574 68:0.059978 69:0.0222603 70:0.238239 71:0.0976728 72:0.0679778 73:0.242061 74:0.072651 75:0.0335854 76:0.323435 77:0.0360161 78:0.290954 79:0.0912075 80:0.0363855 81:0.100668 82:0.0266107 83:0.0298717 84:0.0648513 85:0.20629 86:0.0554686 87:0.00721819 88:0 89:0 90:0.270833 91:0.479167 92:0.854167 93:0.729167 94:0.520833 95:0.145833 96:0.57204 97:0.771295 98:0.524663 99:0.0807259 100:0.126064 101:0.5 102:0.853553 103:0.146447 104:0.71875 105:0.410714 106:0.738636 107:-0.00621829 108:0.0621829 109:0 110:0.828849 111:1.00407 112:0.528074 113:0.837584 114:0.373097 115:0.292637 116:0.821181 117:0.606 118:0.28041 119:0.316832 120:0.630208 121:0.0836739 122:0.135185 123:0.489328 124:0.36614 125:0.456123 126:1 127:0.881745 128:0.0100686 129:0.0981176 130:0.0100686 131:0.460726 132:0.0290472 133:0.429678 134:0.0805485 135:0.874499 136:0.0983686 137:0.0170639 138:0.0100686 139:0.0396525 140:0.387713 141:0.327184 142:0.081004 143:0.672768 144:0.0844994 145:0.103196 146:0.0750009 147:0.125 148:0.164161 149:0.127585 150:0 151:0.110189 152:0.0345619 153:0.128332 154:0.165419 155:0.144751 156:0.110176 157:0.101873 158:0.0386612 159:0.146041 160:0.160368 161:0.127722 162:0.13015 163:0.125408 164:0.0596006 165:0.188088 166:0.0450778 167:0.151501 168:0.163282 169:0.0703919 170:0.162482 171:0.0506425 172:0.0486274 173:0.119907 174:0.200066 175:0.0535965 176:0.00738803 177:0 178:0 179:0.23913 180:0.565217 181:0.695652 182:0.804348 183:0.565217 184:0.434783 185:0.500917 186:0.95398 187:0.5 188:0.290471 189:0.21591 190:0.276393 191:0.5 192:0.0527864 193:0.706522 194:0.5 195:0.666667 196:0 197:0 198:0 199:1.08991 200:0.785398 201:0.480887 202:0.360401 203:0.708752 204:0.336488 205:0.776639 206:0.598361 207:0.342213 208:0.105469 209:0.195313 210:0 211:0 212:0.478571 213:1 214:0.135417 215:0.5 216:0.948808 217:0 218:0.0511918 219:0 220:0.808661 221:0.0100686 222:0.176236 223:0.00503428 224:0.940701 225:0.0201371 226:0.0341279 227:0.00503428 228:0.00330846 229:0.0428298 230:0.105163 231:0.0586855 232:0.945313 233:0.00390625 234:0.00390625 235:0.046875 236:0.125 237:0.153091 238:0.16745 239:0 240:0.0568281 241:0.0214826 242:0.125 243:0.199391 244:0.151758 245:0 246:0.236837 247:0.0131633 248:0.0683941 249:0.295026 250:0.0407977 251:0.193211 252:0.12981 253:0.0227615 254:0.153958 255:0.0169046 256:0.0880881 257:0.274964 258:0.0561094 259:0.331948 260:0.0246918 261:0.0106296 262:0.0427064 263:0.184279 264:0.0261659 265:0.00138325 266:0 267:0 268:0.195652 269:0.565217 270:0.586957 271:0.804348 272:0.565217 273:0.543478 274:0.522354 275:0.998729 276:0.5 277:0.464376 278:0.762219 279:0 280:0.5 281:0.5 282:0.717391 283:0.458333 284:0.607143 285:0 286:0 287:0 288:1.08991 289:1.04272 290:0.295441 291:0.100077 292:2.28085 293:0.372574 294:0.602941 295:0.691176 296:0.477941 297:0.015625 298:0.03125 299:0 300:0 301:0.0892857 302:0.5 303:0 304:0 305:0.970138 306:0 307:0.0298619 308:0 309:0.973636 310:0 311:0.0213299 312:0.00503428 313:0.97867 314:0 315:0.0213299 316:0 317:0 318:0.00115882 319:0.00624859 320:0 321:1 322:0 323:0 324:0 325:0.125 326:0.136814 327:0.204284 328:0 329:0.0392563 330:0.0281572 331:0.125 332:0.161197 333:0.180291 334:0 335:0.180284 336:0.0697157 337:0.0905703 338:0.12548 339:0.118821 340:0.279164 341:0.0723011 342:0.0636636 343:0.237195 344:0.0101658 345:0.122466 346:0.171276 347:0.0221607 348:0.184066 349:0.0784156 350:0.0163355 351:0.15792 352:0.197618 353:0.0240797 354:0.00060608 355:0 356:0 
0 0 4.118899017118911e-12 1:0.28 2:0.44 3:0.94 4:0.56 5:0.6 6:0.14 7:0.576937 8:0.662309 9:0.592748 10:0.0362611 11:0.110524 12:0.295876 13:0.704124 14:0.0917517 15:0.739583 16:0.392857 17:0.72 18:0 19:0.128136 20:0 21:0.805803 22:1.04272 23:0.510488 24:0.975527 25:0.322902 26:0.259834 27:0.754189 28:0.635156 29:0.341227 30:0.199859 31:0.345023 32:0.0544773 33:0.111508 34:0.312386 35:1 36:0.277765 37:0.813571 38:0.914916 39:0 40:0.0684528 41:0.0166314 42:0.714407 43:0.00237592 44:0.220707 45:0.0625094 46:0.912589 47:0.0572108 48:0.0301998 49:0 50:0.0132182 51:0.18076 52:0.185305 53:0.0544383 54:0.797712 55:0.0592739 56:0.0650053 57:0.0558086 58:0.107024 59:0.172049 60:0.179926 61:0.0218608 62:0.107632 63:0.0836686 64:0.0950872 65:0.0997302 66:0.133022 67:0.11544 68:0.0819289 69:0.0237062 70:0.196604 71:0.121141 72:0.0683587 73:0.254953 74:0.108787 75:0.0290813 76:0.270679 77:0.137069 78:0.158159 79:0.149498 80:0.0618853 81:0.102759 82:0.0387561 83:0.026391 84:0.0548038 85:0.163643 86:0.0380558 87:0.00438713 88:0 89:0 90:0.270833 91:0.4375 92:0.895833 93:0.645833 94:0.5625 95:0.1875 96:0.549319 97:0.731149 98:0.57705 99:0.0633843 100:0.130265 101:0.295876 102:0.704124 103:0.0917517 104:0.71875 105:0.410714 106:0.715909 107:0 108:0.180664 109:0 110:0.828849 111:1.00407 112:0.528074 113:0.778378 114:0.401476 115:0.277488 116:0.804269 117:0.643319 118:0.286391 119:0.357674 120:0.71756 121:0.137054 122:0.280983 123:0.456968 124:0.304087 125:0.723572 126:0.813571 127:0.854645 128:0 129:0.105675 130:0.0396797 131:0.420363 132:0.00566852 133:0.430501 134:0.143468 135:0.8661 136:0.11949 137:0.0144103 138:0 139:0.0282627 140:0.418212 141:0.357934 142:0.0611375 143:0.551259 144:0.130429 145:0.144503 146:0.109551 147:0.117828 148:0.153303 149:0.146739 150:0.0123033 151:0.115856 152:0.0629487 153:0.106355 154:0.141257 155:0.14341 156:0.063881 157:0.127399 158:0.0410862 159:0.102681 160:0.181409 161:0.133552 162:0.141093 163:0.162431 164:0.0464675 165:0.136669 166:0.0594938 167:0.117222 168:0.212728 169:0.0857343 170:0.166597 171:0.0662523 172:0.0512052 173:0.104099 174:0.180331 175:0.0441057 176:0.00552379 177:0 178:0 179:0.214286 180:0.52381 181:0.785714 182:0.642857 183:0.52381 184:0.357143 185:0.463524 186:0.853553 187:0.5 188:0.146447 189:0.177447 190:0.5 191:0.723607 192:0.0527864 193:0.75 194:0.5 195:0.634615 196:0 197:0 198:0 199:1.01649 200:0.825377 201:0.519146 202:0.426952 203:0.641312 204:0.306194 205:0.731343 206:0.597015 207:0.397388 208:0.205357 209:0.339286 210:0.0240385 211:0.0480769 212:0.488264 213:1 214:0.0861111 215:0.5 216:0.942359 217:0 218:0.0576412 219:0 220:0.771644 221:0 222:0.211351 223:0.0170056 224:0.913151 225:0.0340111 226:0.0528377 227:0 228:0.00765795 229:0.0638335 230:0.167538 231:0.115849 232:0.928571 233:0.0190921 234:0.0344793 235:0.00892857 236:0.125 237:0.200477 238:0.141527 239:0 240:0.0913076 241:0.0134174 242:0.125 243:0.162581 244:0.14069 245:0.028721 246:0.193356 247:0.027923 248:0.133141 249:0.259197 250:0.0553819 251:0.149947 252:0.130185 253:0.0221473 254:0.102031 255:0.0442565 256:0.14544 257:0.291205 258:0.068581 259:0.242664 260:0.0635262 261:0.00953524 262:0.0327611 263:0.169656 264:0.0259424 265:0.00155906 266:0 267:0 268:0.184211 269:0.578947 270:0.631579 271:0.710526 272:0.578947 273:0.473684 274:0.448864 275:0.978913 276:0.5 277:0.356326 278:0.46579 279:1 280:0.5 281:0.5 282:0.736842 283:0.5 284:0.541667 285:0 286:0 287:0 288:1.00748 289:1.10715 290:0.305879 291:0.147462 292:1.65074 293:0.328358 294:0.5 295:0.630952 296:0.613095 297:0.0803571 298:0.0535714 299:0 300:0 301:0.0208333 302:1 303:0 304:0 305:0.956769 306:0 307:0.0432309 308:0 309:0.984725 310:0 311:0.00960686 312:0.00566852 313:0.951966 314:0 315:0.0480343 316:0 317:0 318:0 319:0 320:0.000907481 321:1 322:0 323:0 324:0 325:0.125 326:0.21248 327:0.126332 328:0 329:0.0721891 330:0.0164804 331:0.125 332:0.200703 333:0.121816 334:0 335:0.096763 336:0.153237 337:0.0363549 338:0.258182 339:0.185221 340:0.184233 341:0.0597318 342:0.0262773 343:0.0955882 344:0 345:0.125 346:0.134675 347:0.105354 348:0.148001 349:0.216576 350:0.00483922 351:0.169967 352:0.175152 353:0.0252263 354:0.000739844 355:0 356:0 
2.225782277948465e-12 0 0 1:0.387097 2:0.5 3:0.822581 4:0.612903 5:0.596774 6:0.145161 7:0.536446 8:0.656682 9:0.567149 10:0.0299554 11:0.106136 12:0.5 13:0.5 14:0 15:0.715909 16:0.367647 17:0.685484 18:0.00950261 19:0.166296 20:0 21:0.953605 22:0.912908 23:0.501604 24:0.848663 25:0.332591 26:0.238849 27:0.799961 28:0.654032 29:0.291566 30:0.349354 31:0.690417 32:0.181685 33:0.362281 34:0.387327 35:0.5 36:0.622194 37:1 38:0.847941 39:0.0123412 40:0.115035 41:0.0246824 42:0.423046 43:0.00411373 44:0.418085 45:0.154755 46:0.852816 47:0.117732 48:0.0139437 49:0.0155082 50:0.0342644 51:0.468872 52:0.339026 53:0.049429 54:0.495377 55:0.163355 56:0.153623 57:0.0940971 58:0.0696297 59:0.103437 60:0.117997 61:0.0187016 62:0.198974 63:0.117802 64:0.0930213 65:0.173584 66:0.106853 67:0.0254649 68:0.0992117 69:0.0539355 70:0.115531 71:0.201099 72:0.1657 73:0.159144 74:0.146995 75:0.0329185 76:0.151931 77:0.0591749 78:0.0988907 79:0.111133 80:0.160597 81:0.166331 82:0.0304719 83:0.110743 84:0.110728 85:0.118783 86:0.0207362 87:0.001833 88:0 89:0 90:0.147059 91:0.558824 92:0.647059 93:0.558824 94:0.617647 95:0.411765 96:0.29277 97:0.93082 98:0.561546 99:0.253817 100:0.115319 101:0.5 102:0.5 103:0 104:0.779412 105:0.383333 106:0.59375 107:0 108:0.184532 109:0 110:0.815692 111:0.817645 112:0.722979 113:0.518004 114:0.681348 115:0.24527 116:0.814978 117:0.668182 118:0.304545 119:0.328994 120:0.657143 121:0.165448 122:0.340278 123:0.498545 124:0.5 125:0.836538 126:0.63386 127:0.830561 128:0.0202789 129:0.128881 130:0.0202789 131:0.517319 132:0 133:0.300171 134:0.182511 135:0.873615 136:0.0889219 137:0.0171841 138:0.0202789 139:0.0102746 140:0.246573 141:0.416288 142:0.0561959 143:0.651786 144:0.0641902 145:0.0810713 146:0.10284 147:0.0834834 148:0.155849 149:0.154155 150:0.00405636 151:0.184455 152:0.0961351 153:0.128412 154:0.14952 155:0.0439336 156:0.101432 157:0.113088 158:0.00798675 159:0.0603972 160:0.306344 161:0.108045 162:0.134907 163:0.147947 164:0.0198533 165:0.191965 166:0.0297165 167:0.0622611 168:0.187709 169:0.188618 170:0.204225 171:0.0104178 172:0.0723458 173:0.0527417 174:0.187204 175:0.0386412 176:0.00417377 177:0 178:0 179:0.25 180:0.5 181:0.805556 182:0.694444 183:0.555556 184:0.305556 185:0.408949 186:0.831042 187:0.54138 188:0.127577 189:0.128902 190:0.276393 191:0.5 192:0.0527864 193:0.722222 194:0.416667 195:0.680556 196:0 197:0.117348 198:0 199:0.785398 200:0.876058 201:0.694738 202:0.650959 203:0.544069 204:0.256981 205:0.826927 206:0.65873 207:0.288774 208:0.413902 209:0.8 210:0.232508 211:0.442361 212:0.31421 213:0.265942 214:0.854107 215:0.679509 216:0.821969 217:0.0202789 218:0.137473 219:0.0202789 220:0.380511 221:0 222:0.4307 223:0.188789 224:0.861122 225:0.102201 226:0.00859205 227:0.028085 228:0.0359176 229:0.456562 230:0.263643 231:0.0216543 232:0.531849 233:0.134315 234:0.148369 235:0.0961812 236:0.115021 237:0.153587 238:0.133122 239:0 240:0.167222 241:0.050155 242:0.118432 243:0.15859 244:0.103872 245:0.0516114 246:0.156048 247:0.0273183 248:0.0716631 249:0.262153 250:0.148633 251:0.118504 252:0.147952 253:0.0161172 254:0.144663 255:0.0265117 256:0.0707557 257:0.220551 258:0.133955 259:0.215886 260:0.0341278 261:0.0622794 262:0.0912702 263:0.20454 264:0.0499976 265:0.00637948 266:0 267:0 268:0.325 269:0.525 270:0.775 271:0.725 272:0.525 273:0.325 274:0.425735 275:0.832182 276:0.5 277:0.126295 278:0.149359 279:0.341886 280:0.5 281:0.0256584 282:0.7 283:0.5 284:0.703125 285:0 286:0 287:0 288:0.896055 289:0.927295 290:0.54042 291:0.503885 292:0.595374 293:0.288011 294:0.757856 295:0.641667 296:0.278313 297:0.31969 298:0.646429 299:0.162124 300:0.329861 301:0.36453 302:0.265942 303:0.450361 304:0.63386 305:0.919577 306:0 307:0.0601443 308:0.0202789 309:0.458534 310:0.0101395 311:0.462684 312:0.0686429 313:0.846316 314:0.145092 315:0.00859205 316:0 317:0.027894 318:0.381781 319:0.280951 320:0.0581399 321:0.725094 322:0.0656606 323:0.108259 324:0.0315557 325:0.112579 326:0.169144 327:0.115224 328:0.0124208 329:0.126262 330:0.00908353 331:0.125 332:0.19039 333:0.139897 334:0.0405376 335:0.168535 336:0.040927 337:0.137178 338:0.232353 339:0.109819 340:0.132926 341:0.122032 342:0.0156928 343:0.174228 344:0.035106 345:0.0984131 346:0.183917 347:0.0948399 348:0.252397 349:0.0266097 350:0.0345708 351:0.0999185 352:0.183068 353:0.0362199 354:0.00348613 355:0 356:0 
6.894646987781608e-13 0 0 1:0.403226 2:0.483871 3:0.854839 4:0.66129 5:0.580645 6:0.145161 7:0.564814 8:0.669485 9:0.563557 10:0.033915 11:0.109355 12:0.5 13:0.723607 14:0.0527864 15:0.673913 16:0.390625 17:0.709677 18:0.0139006 19:0.166807 20:0 21:0.932477 22:0.962994 23:0.476467 24:0.870235 25:0.324347 26:0.249144 27:0.817408 28:0.63966 29:0.290542 30:0.332233 31:0.657197 32:0.157785 33:0.313889 34:0.423552 35:0.5 36:0.51143 37:1 38:0.863873 39:0.0113074 40:0.102205 41:0.0226147 42:0.453786 43:0.00376912 44:0.404423 45:0.138022 46:0.864854 47:0.101199 48:0.0159695 49:0.0179782 50:0.0323209 51:0.404114 52:0.358526 53:0.0722111 54:0.572502 55:0.142375 56:0.131593 57:0.0832955 58:0.0750636 59:0.089267 60:0.115128 61:0.0236035 62:0.203071 63:0.111999 64:0.0956105 65:0.162617 66:0.123641 67:0.0328697 68:0.101692 69:0.0579175 70:0.135096 71:0.182268 72:0.14523 73:0.183987 74:0.135643 75:0.0252972 76:0.170288 77:0.0682261 78:0.126031 79:0.0951094 80:0.154551 81:0.156416 82:0.019947 83:0.108239 84:0.101193 85:0.126814 86:0.0237462 87:0.00211035 88:0 89:0 90:0.194444 91:0.5 92:0.75 93:0.583333 94:0.611111 95:0.305556 96:0.366088 97:0.823575 98:0.59245 99:0.1302 100:0.115576 101:0.5 102:0.723607 103:0.0527864 104:0.736111 105:0.4 106:0.666667 107:0.0320551 108:0.19233 109:0 110:0.785398 111:0.876058 112:0.694738 113:0.649923 114:0.544936 115:0.243359 116:0.824964 117:0.658582 118:0.296215 119:0.362837 120:0.722917 121:0.192692 122:0.389881 123:0.400496 124:0.304087 125:0.664327 126:0.73228 127:0.804938 128:0.0273381 129:0.131273 130:0.0364508 131:0.427065 132:0 133:0.360522 134:0.212413 135:0.859782 136:0.105158 137:0.00772197 138:0.0273381 139:0.0227875 140:0.368366 141:0.377203 142:0.0344598 143:0.546099 144:0.147261 145:0.164819 146:0.0793211 147:0.106856 148:0.148186 149:0.133494 150:0.0080956 151:0.215178 152:0.0663567 153:0.120528 154:0.135419 155:0.065887 156:0.0629333 157:0.151147 158:0.0228542 159:0.0600527 160:0.287588 161:0.13899 162:0.11997 163:0.138922 164:0.0175428 165:0.152365 166:0.0366652 167:0.0531257 168:0.2133 169:0.174041 170:0.187606 171:0.0233007 172:0.0825628 173:0.0770341 174:0.18633 175:0.0417272 176:0.00501005 177:0 178:0 179:0.289474 180:0.473684 181:0.868421 182:0.710526 183:0.578947 184:0.289474 185:0.453743 186:0.790957 187:0.572739 188:0.0999339 189:0.130109 190:0.5 191:0.658114 192:0.0256584 193:0.710526 194:0.464286 195:0.697368 196:0 197:0.113569 198:0 199:0.785398 200:0.93577 201:0.635027 202:0.695151 203:0.492131 204:0.26838 205:0.813839 206:0.654514 207:0.280455 208:0.407388 209:0.7875 210:0.236021 211:0.4625 212:0.337027 213:0.265942 214:0.464154 215:1 216:0.841388 217:0.00911269 218:0.131273 219:0.0182254 220:0.368928 221:0.00911269 222:0.4614 223:0.160559 224:0.85696 225:0.119189 226:0.00772197 227:0.0161283 228:0.0320047 229:0.456379 230:0.29843 231:0.0160036 232:0.537831 233:0.125275 234:0.15954 235:0.0918349 236:0.116273 237:0.113208 238:0.147104 239:0.00872702 240:0.141764 241:0.0232765 242:0.11523 243:0.181348 244:0.153069 245:0.0486462 246:0.145999 247:0.0444458 248:0.0704143 249:0.219843 250:0.149424 251:0.139232 252:0.157668 253:0.0243272 254:0.155306 255:0.0247119 256:0.0794883 257:0.177584 258:0.0959198 259:0.242864 260:0.0395484 261:0.0600726 262:0.124505 263:0.206144 264:0.0508172 265:0.00639304 266:0 267:0 268:0.309524 269:0.571429 270:0.714286 271:0.785714 272:0.52381 273:0.380952 274:0.438248 275:0.908248 276:0.459175 277:0.214226 278:0.186153 279:0.341886 280:0.5 281:0.0256584 282:0.666667 283:0.479167 284:0.696429 285:0 286:0 287:0 288:0.982794 289:0.86217 290:0.519146 291:0.391622 292:0.714368 293:0.298337 294:0.835433 295:0.6 296:0.290909 297:0.231174 298:0.459375 299:0.0446429 300:0.0892857 301:0.549306 302:0.5 303:0.194602 304:0.63386 305:0.953668 306:0 307:0.0463318 308:0 309:0.596294 310:0 311:0.367255 312:0.0364508 313:0.90603 314:0.0616917 315:0.0231659 316:0.00911269 317:0.0324553 318:0.193951 319:0.304703 320:0.145558 321:0.921875 322:0.0182162 323:0.0130338 324:0.03125 325:0.106601 326:0.172489 327:0.115118 328:0.0183993 329:0.107402 330:0.0165167 331:0.125 332:0.170487 333:0.167987 334:0 335:0.207168 336:0.0428319 337:0.144226 338:0.230031 339:0.0718737 340:0.140908 341:0.141183 342:0.0217772 343:0.161129 344:0.0344 345:0.0872678 346:0.211048 347:0.092675 348:0.277463 349:0.0222679 350:0.0254325 351:0.088317 352:0.170436 353:0.0285473 354:0.00204015 355:0 356:0 
3.743611280412786e-11 0 0 1:0.12963 2:0.648148 3:0.166667 4:0.944444 5:0.203704 6:0.907407 7:0.791002 8:0.843081 9:0.312865 10:0.811891 11:0.15643 12:0.723607 13:0.5 14:0.947214 15:0.6 16:0.617647 17:0.351852 18:0.185399 19:0 20:0.653775 21:0.823841 22:0.97362 23:0.561922 24:0.948905 25:0.336645 26:0.233698 27:0.541689 28:0.404688 29:0.79936 30:0.3658 31:0.736979 32:0.149052 33:0.261473 34:0.695809 35:0.5 36:0.465169 37:1 38:0.772271 39:0.0104334 40:0.151218 41:0.066078 42:0.582298 43:0.00615524 44:0.238457 45:0.173089 46:0.843167 47:0.108088 48:0.0383114 49:0.0104334 50:0.0137931 51:0.226555 52:0.313824 53:0.216856 54:0.558058 55:0.152379 56:0.123986 57:0.083568 58:0.116469 59:0.14266 60:0.0533273 61:0.0813274 62:0.180637 63:0.0669744 64:0.235473 65:0.107012 66:0.0161194 67:0.0210134 68:0.194449 69:0.204851 70:0.0597285 71:0.277038 72:0.112247 73:0.0578554 74:0.0679733 75:0.00484453 76:0.0746413 77:0.0371244 78:0.0286727 79:0.171888 80:0.174898 81:0.194518 82:0.0679349 83:0.113749 84:0.136574 85:0.140343 86:0.0273502 87:0.00230681 88:0 89:0 90:0.113636 91:0.613636 92:0.272727 93:0.840909 94:0.295455 95:0.909091 96:0.693735 97:0.857414 98:0.343632 99:0.812737 100:0.224645 101:0.723607 102:0.5 103:0.947214 104:0.681818 105:0.553571 106:0.368421 107:0.200728 108:0 109:0.762766 110:0.858439 111:0.93577 112:0.566729 113:0.566122 114:0.552002 115:0.242767 116:0.54284 117:0.427365 118:0.793227 119:0.41098 120:0.825463 121:0.199607 122:0.363715 123:0.61339 124:0.333333 125:0.415897 126:0.5 127:0.806325 128:0 129:0.119202 130:0.0744727 131:0.476877 132:0 133:0.342983 134:0.18014 135:0.812812 136:0.166153 137:0.0210357 138:0 139:0.0217167 140:0.263962 141:0.34792 142:0.149892 143:0.655955 144:0.139735 145:0.0871382 146:0.0748263 147:0.106837 148:0.146707 149:0.060782 150:0.0119701 151:0.201324 152:0.0887834 153:0.186577 154:0.175114 155:0.0219047 156:0.0629632 157:0.17211 158:0.0730764 159:0.0385155 160:0.330626 161:0.149557 162:0.0682711 163:0.0919907 164:0.01289 165:0.0972974 166:0.0307782 167:0.0415662 168:0.188642 169:0.181471 170:0.227303 171:0.0256935 172:0.1015 173:0.105748 174:0.142266 175:0.0229908 176:0.00198964 177:0 178:0 179:0.175 180:0.7 181:0.225 182:0.975 183:0.25 184:0.825 185:0.763564 186:0.864769 187:0.294818 188:0.773576 189:0.269003 190:0.5 191:0.146447 192:0.853553 193:0.65 194:0.557692 195:0.375 196:0.0613274 197:0 198:0.699133 199:0.896055 200:0.88848 201:0.576375 202:0.50956 203:0.601009 204:0.260255 205:0.53373 206:0.400794 207:0.821429 208:0.313758 209:0.643519 210:0.121482 211:0.247396 212:0.599762 213:0.5 214:0.596865 215:0.852416 216:0.762991 217:0 218:0.154262 219:0.0827474 220:0.572312 221:0 222:0.212544 223:0.215143 224:0.861855 225:0.115846 226:0.0140238 227:0.00827474 228:0.0134756 229:0.226919 230:0.256256 231:0.165912 232:0.638889 233:0.08375 234:0.144875 235:0.0769308 236:0.0978395 237:0.144854 238:0.0557465 239:0.0214774 240:0.180379 241:0.0911994 242:0.227518 243:0.16427 244:0.0167163 245:0.185517 246:0.0755497 247:0.0852792 248:0.0752837 249:0.307076 250:0.111935 251:0.0762718 252:0.0716092 253:0.0114783 254:0.148887 255:0.0616024 256:0.131047 257:0.109297 258:0.16973 259:0.1722 260:0.0408073 261:0.0613259 262:0.105105 263:0.160815 264:0.0280287 265:0.00230468 266:0 267:0 268:0.166667 269:0.690476 270:0.333333 271:0.97619 272:0.309524 273:0.761905 274:0.746887 275:0.908013 276:0.307994 277:0.716007 278:0.304021 279:0.5 280:0.276393 281:0.947214 282:0.630952 283:0.555556 284:0.421875 285:0.102154 286:0 287:0.408618 288:0.91972 289:1.05841 290:0.404892 291:0.407879 292:0.6713 293:0.294851 294:0.542411 295:0.372768 296:0.798193 297:0.375608 298:0.753241 299:0.146498 300:0.21875 301:0.859273 302:0.5 303:0.390359 304:1 305:0.75758 306:0.0248242 307:0.184497 308:0.033099 309:0.740768 310:0.0146452 311:0.11219 312:0.132396 313:0.87897 314:0.033099 315:0.0631071 316:0.0248242 317:0 318:0.102045 319:0.216098 320:0.240017 321:0.655512 322:0.0606394 323:0.0670688 324:0.057058 325:0.110855 326:0.16911 327:0.0933553 328:0.0836711 329:0.104462 330:0.0325628 331:0.242887 332:0.15203 333:0.0110663 334:0.172977 335:0.111351 336:0.155437 337:0.0417323 338:0.25826 339:0.124591 340:0.0112609 341:0.0810718 342:0.0433187 343:0.108601 344:0.00850917 345:0.105724 346:0.149634 347:0.138191 348:0.179904 349:0.113534 350:0.0809488 351:0.114953 352:0.172662 353:0.028757 354:0.00180396 355:0 356:0 
2.338542141797925e-11 0 0 1:0.0961538 2:0.711538 3:0.173077 4:0.980769 5:0.25 6:0.865385 7:0.819654 8:0.864209 9:0.309978 10:0.785033 11:0.166349 12:0.853553 13:0.5 14:0.853553 15:0.567308 16:0.611111 17:0.340909 18:0.147513 19:0 20:0.526832 21:0.868539 22:0.885067 23:0.605545 24:0.912567 25:0.347709 26:0.251499 27:0.538314 28:0.391447 29:0.805921 30:0.275806 31:0.558482 32:0.113245 33:0.174897 34:0.761098 35:0.833333 36:0.521881 37:1 38:0.767027 39:0.0180729 40:0.166705 41:0.0481943 42:0.711122 43:0.0136744 44:0.133633 45:0.141571 46:0.871788 47:0.0625619 48:0.0536014 49:0.0120486 50:0.00460996 51:0.132508 52:0.237579 53:0.22579 54:0.576612 55:0.112826 56:0.12062 57:0.115275 58:0.139657 59:0.184237 60:0.0503944 61:0.0838225 62:0.179074 63:0.0613874 64:0.188686 65:0.105675 66:0.00706759 67:0.0333905 68:0.191367 69:0.17759 70:0.118473 71:0.244348 72:0.113074 73:0.0688817 74:0.0480444 75:0.00483103 76:0.102349 77:0.0728217 78:0.0511417 79:0.170071 80:0.177164 81:0.140813 82:0.103964 83:0.0791955 84:0.102481 85:0.154002 86:0.032422 87:0.00307481 88:0 89:0 90:0.125 91:0.675 92:0.2 93:0.975 94:0.225 95:0.85 96:0.78041 97:0.866121 98:0.306171 99:0.779975 100:0.237297 101:0.853553 102:0.5 103:0.853553 104:0.6625 105:0.589286 106:0.367647 107:0.112432 108:0 109:0.695036 110:0.866302 111:0.881872 112:0.610726 113:0.611479 114:0.521277 115:0.257282 116:0.53551 117:0.399671 118:0.819079 119:0.337485 120:0.689394 121:0.137212 122:0.243056 123:0.638169 124:0.5 125:0.554745 126:0.852416 127:0.763205 128:0 129:0.159912 130:0.0768828 131:0.573408 132:0 133:0.216911 134:0.20968 135:0.866088 136:0.103232 137:0.0236907 138:0.00698935 139:0.0113956 140:0.223031 141:0.290371 142:0.183521 143:0.628746 144:0.0968737 145:0.143056 146:0.0836329 147:0.0907899 148:0.169407 149:0.0469379 150:0.0199008 151:0.1864 152:0.0849246 153:0.212758 154:0.172782 155:0.0161002 156:0.154445 157:0.0880176 158:0.0782906 159:0.0980725 160:0.312746 161:0.11789 162:0.0875072 163:0.0574412 164:0.00558969 165:0.145188 166:0.0671232 167:0.130526 168:0.119756 169:0.164623 170:0.172672 171:0.0388781 172:0.0624338 173:0.0987997 174:0.168185 175:0.0317293 176:0.00291506 177:0 178:0 179:0.159091 180:0.704545 181:0.295455 182:0.977273 183:0.295455 184:0.75 185:0.775365 186:0.900495 187:0.299753 188:0.722497 189:0.259436 190:0.788675 191:0.211325 192:0.788675 193:0.613636 194:0.575 195:0.375 196:0.150082 197:0 198:0.48488 199:0.942 200:1.0122 201:0.426627 202:0.492156 203:0.554148 204:0.283975 205:0.547101 206:0.375 207:0.805417 208:0.360346 209:0.724242 210:0.143551 211:0.229167 212:0.832459 213:0.5 214:0.402836 215:1 216:0.743589 217:0.020968 218:0.179528 219:0.0559148 220:0.702499 221:0.0123702 222:0.124376 223:0.160755 224:0.856901 225:0.0629041 226:0.0592268 227:0.020968 228:0 229:0.119771 230:0.237076 231:0.260219 232:0.620326 233:0.0943038 234:0.0879578 235:0.0440036 236:0.12859 237:0.140257 238:0.0693552 239:0.0906148 240:0.115797 241:0.0552909 242:0.258494 243:0.133326 244:0.00827494 245:0.181743 246:0.131939 247:0.159418 248:0.0511643 249:0.245361 250:0.103867 251:0.0307419 252:0.0748819 253:0.0208831 254:0.123682 255:0.0307894 256:0.110329 257:0.12679 258:0.163467 259:0.169815 260:0.0920187 261:0.078202 262:0.104907 263:0.157486 264:0.0261309 265:0.00182673 266:0 267:0 268:0.18 269:0.62 270:0.42 271:0.98 272:0.42 273:0.74 274:0.724736 275:0.952216 276:0.386946 277:0.680886 278:0.377595 279:0.146447 280:0.5 281:0.853553 282:0.6 283:0.638889 284:0.4 285:0.0683017 286:0 287:0.119528 288:1.03038 289:1.03038 290:0.345556 291:0.292818 292:0.836696 293:0.309705 294:0.537234 295:0.396277 296:0.784574 297:0.136065 298:0.273864 299:0.0796987 300:0.1 301:0.803255 302:0.833333 303:0.526914 304:0.880851 305:0.795237 306:0.0279574 307:0.155837 308:0.020968 309:0.866569 310:0.0317298 311:0.0457866 312:0.0559148 313:0.900971 314:0.020968 315:0.0710721 316:0.00698935 317:0 318:0.0192732 319:0.117368 320:0.165434 321:0.730032 322:0.038091 323:0.0571566 324:0.117576 325:0.123308 326:0.244372 327:0.0786017 328:0.0593571 329:0.0957023 330:0.0120557 331:0.119981 332:0.246709 333:0.0199134 334:0.134331 335:0.0729938 336:0.096073 337:0.115669 338:0.30233 339:0.174351 340:0 341:0.0622099 342:0.0420424 343:0.125 344:0.0207579 345:0.104242 346:0.187051 347:0.0834749 348:0.163157 349:0.132694 350:0.0578496 351:0.125773 352:0.158013 353:0.0218976 354:0.000888903 355:0 356:0 
3.54707887393772e-11 0 0 1:0.0892857 2:0.714286 3:0.125 4:0.982143 5:0.321429 6:0.839286 7:0.770772 8:0.869248 9:0.337531 10:0.795398 11:0.163633 12:0.5 13:0.5 14:1 15:0.526786 16:0.618421 17:0.357143 18:0.116008 19:0 20:0.61871 21:0.785398 22:0.974597 23:0.596199 24:0.92358 25:0.362525 26:0.227608 27:0.516933 28:0.397204 29:0.824944 30:0.369776 31:0.705725 32:0.165711 33:0.218371 34:0.739038 35:1 36:0.587209 37:1 38:0.740396 39:0.0289408 40:0.198105 41:0.0325584 42:0.619517 43:0.0036176 44:0.221566 45:0.155299 46:0.838224 47:0.089895 48:0.0482226 49:0.0236582 50:0.0101219 51:0.200398 52:0.341418 53:0.173247 54:0.516499 55:0.133345 56:0.123707 57:0.101562 58:0.0706925 59:0.234218 60:0.0881504 61:0.110688 62:0.182757 63:0.0968623 64:0.0755206 65:0.12445 66:0.0166611 67:0.00881758 68:0.160155 69:0.0881232 70:0.0987198 71:0.297786 72:0.148933 73:0.0863002 74:0.0929467 75:0.0182183 76:0.0900659 77:0.0761099 78:0.0248731 79:0.202133 80:0.226218 81:0.119089 82:0.101902 83:0.0919278 84:0.0676804 85:0.145595 86:0.0313409 87:0.00307382 88:0 89:0 90:0.119048 91:0.666667 92:0.190476 93:0.97619 94:0.428571 95:0.952381 96:0.763815 97:0.865902 98:0.398361 99:0.825246 100:0.233632 101:0.5 102:0.5 103:1 104:0.619048 105:0.553571 106:0.35 107:0.104483 108:0 109:0.788375 110:0.809784 111:0.96007 112:0.588003 113:0.626666 114:0.522417 115:0.241114 116:0.531287 117:0.410211 118:0.800568 119:0.34618 120:0.693333 121:0.256972 122:0.338484 123:0.48342 124:0.333333 125:0.782937 126:0.906785 127:0.792866 128:0 129:0.182309 130:0.0248242 131:0.466288 132:0 133:0.350352 134:0.18336 135:0.845289 136:0.141328 137:0.0070119 138:0.00637048 139:0.0228291 140:0.318428 141:0.310996 142:0.0939223 143:0.546541 144:0.0897768 145:0.179253 146:0.103294 147:0.081483 148:0.198885 149:0.0572197 150:0.00358457 151:0.171651 152:0.121569 153:0.113204 154:0.217411 155:0.0349934 156:0.0497206 157:0.152388 158:0 159:0.0450479 160:0.347704 161:0.191109 162:0.0816725 163:0.122657 164:0.00970204 165:0.0721799 166:0.0536087 167:0.0521651 168:0.21581 169:0.173083 170:0.23602 171:0.0458457 172:0.0628936 173:0.0883951 174:0.155949 175:0.0286118 176:0.00266388 177:0 178:0 179:0.134615 180:0.653846 181:0.269231 182:0.980769 183:0.423077 184:0.769231 185:0.796516 186:0.919067 187:0.385709 188:0.74763 189:0.308128 190:0.5 191:0.5 192:1 193:0.557692 194:0.545455 195:0.338235 196:0.105649 197:0 198:0.610415 199:0.991722 200:0.996491 201:0.400241 202:0.409557 203:0.633893 204:0.252028 205:0.526606 206:0.373016 207:0.829365 208:0.392094 209:0.768981 210:0.16136 211:0.18912 212:0.602384 213:0.5 214:0.6136 215:1 216:0.721258 217:0.033099 218:0.212544 219:0.033099 220:0.617021 221:0.00827474 222:0.167836 223:0.206869 224:0.855432 225:0.0872136 226:0.0261595 227:0.0311947 228:0.0086466 229:0.172695 230:0.337724 231:0.146419 232:0.656004 233:0.113291 234:0.0613875 235:0.0733648 236:0.0605231 237:0.194964 238:0.119513 239:0.141624 240:0.169494 241:0.0743037 242:0.100531 243:0.124084 244:0.0149635 245:0.1618 246:0.0914451 247:0.0562246 248:0.0976884 249:0.276564 250:0.113057 251:0.069026 252:0.0891448 253:0.0450492 254:0.143168 255:0.0937965 256:0.0834039 257:0.152372 258:0.225245 259:0.0852994 260:0.0794603 261:0.0650466 262:0.0722084 263:0.122502 264:0.0172012 265:0.00101929 266:0 267:0 268:0.196429 269:0.642857 270:0.375 271:0.982143 272:0.428571 273:0.660714 274:0.676256 275:0.955183 276:0.375859 277:0.665521 278:0.350548 279:0.333333 280:0.166667 281:0.833333 282:0.553571 283:0.538462 284:0.388889 285:0.072529 286:0 287:0.290116 288:0.999459 289:0.945311 290:0.43467 291:0.307759 292:0.855842 293:0.261426 294:0.493304 295:0.383929 296:0.858057 297:0.353884 298:0.631019 299:0.0451848 300:0.0885417 301:1 302:1 303:0.453836 304:1 305:0.723218 306:0.0579232 307:0.177485 308:0.0413737 309:0.804441 310:0 311:0.0981666 312:0.0973926 313:0.841384 314:0.0413737 315:0.0841428 316:0.033099 317:0 318:0.0396095 319:0.249007 320:0.235658 321:0.679142 322:0.103143 323:0.0649372 324:0.0405576 325:0.0771283 326:0.217009 327:0.105725 328:0.145759 329:0.166571 330:0.0169348 331:0.0603339 332:0.189397 333:0.0211412 334:0.0972839 335:0.140307 336:0.0497601 337:0.142282 338:0.307816 339:0.119181 340:0.00683719 341:0.0624986 342:0.0740353 343:0.113433 344:0.0527186 345:0.0799554 346:0.15781 347:0.237705 348:0.123543 349:0.127848 350:0.0368771 351:0.0701095 352:0.133859 353:0.0187709 354:0.00100373 355:0 356:0 
3.598661597331214e-11 0 0 1:0.15 2:0.75 3:0.183333 4:0.983333 5:0.35 6:0.683333 7:0.746441 8:0.896476 9:0.309692 10:0.737886 11:0.166774 12:0.704124 13:0.295876 14:0.908248 15:0.525 16:0.6 17:0.375 18:0.105795 19:0 20:0.497237 21:0.938047 22:0.832981 23:0.588003 24:0.787687 25:0.380862 26:0.240325 27:0.520548 28:0.380993 29:0.830438 30:0.313673 31:0.598237 32:0.105719 33:0.133463 34:0.72843 35:1 36:0.504254 37:1 38:0.743715 39:0.0258261 40:0.201404 41:0.0290544 42:0.727384 43:0.00645653 44:0.135773 45:0.130387 46:0.865062 47:0.0623365 48:0.0539751 49:0.0186267 50:0.00757395 51:0.140615 52:0.293478 53:0.168808 54:0.604902 55:0.109656 56:0.0906011 57:0.0969038 58:0.0722692 59:0.225025 60:0.0762626 61:0.126779 62:0.183583 63:0.0849903 64:0.0590642 65:0.154836 66:0.0171907 67:0.0335268 68:0.136176 69:0.0802207 70:0.156612 71:0.264977 72:0.152704 73:0.0964924 74:0.0624803 75:0.0168124 76:0.111353 77:0.112703 78:0.0638782 79:0.159359 80:0.20405 81:0.0977523 82:0.105164 83:0.0795964 84:0.0661455 85:0.129114 86:0.0248225 87:0.00241137 88:0 89:0 90:0.145833 91:0.666667 92:0.208333 93:0.979167 94:0.375 95:0.791667 96:0.789804 97:0.89375 98:0.362188 99:0.775625 100:0.247309 101:0.704124 102:0.295876 103:0.908248 104:0.583333 105:0.557692 106:0.352941 107:0.097378 108:0 109:0.671908 110:0.954499 111:0.91795 112:0.496423 113:0.534858 114:0.525841 115:0.248628 116:0.532986 117:0.376736 118:0.820385 119:0.365803 120:0.741667 121:0.221091 122:0.229527 123:0.51263 124:0.5 125:0.741236 126:0.75 127:0.728936 128:0.00757792 129:0.233175 130:0.0303117 131:0.559581 132:0.00757792 133:0.215966 134:0.216874 135:0.854194 136:0.108437 137:0.0239566 138:0.0134119 139:0.017817 140:0.244409 141:0.312988 142:0.0908534 143:0.531534 144:0.110335 145:0.128516 146:0.127095 147:0.0976905 148:0.204946 149:0.0534278 150:0.0994818 151:0.190806 152:0.0920188 153:0.139643 154:0.112404 155:0.00958269 156:0.181191 157:0.0969383 158:0.0638495 159:0.109086 160:0.276531 161:0.10691 162:0.0997164 163:0.0547889 164:0.0109886 165:0.172284 166:0.119046 167:0.115841 168:0.129575 169:0.193425 170:0.0930735 171:0.052181 172:0.0597622 173:0.064812 174:0.12946 175:0.020416 176:0.00157259 177:0 178:0 179:0.12963 180:0.703704 181:0.333333 182:0.981481 183:0.444444 184:0.703704 185:0.752606 186:0.941655 187:0.365583 188:0.692024 189:0.312268 190:0.5 191:0.146447 192:0.853553 193:0.564815 194:0.520833 195:0.388889 196:0.119926 197:0 198:0.407748 199:0.982794 200:0.982794 201:0.418224 202:0.386041 203:0.683578 204:0.262313 205:0.513114 206:0.394231 207:0.835403 208:0.430445 209:0.774583 210:0.104449 211:0.146759 212:0.898182 213:1 214:0.462103 215:1 216:0.719994 217:0.0454675 218:0.196649 219:0.0378896 220:0.754174 221:0.00757792 222:0.111167 223:0.127081 224:0.830803 225:0.0513015 226:0.0817494 227:0.0361457 228:0.00332542 229:0.101547 230:0.271501 231:0.204589 232:0.654398 233:0.100882 234:0.0634701 235:0.0375 236:0.039745 237:0.217729 238:0.133532 239:0.113413 240:0.191806 241:0.0495961 242:0.0375876 243:0.193441 244:0.0231506 245:0.0797053 246:0.0732075 247:0.0399499 248:0.156123 249:0.316509 250:0.129283 251:0.0173267 252:0.106692 253:0.0812034 254:0.116533 255:0.0554558 256:0.0807177 257:0.158848 258:0.242294 259:0.104216 260:0.115683 261:0.054119 262:0.072133 263:0.134724 264:0.0200527 265:0.0012141 266:0 267:0 268:0.183333 269:0.6 270:0.5 271:0.983333 272:0.466667 273:0.6 274:0.665254 275:0.98949 276:0.418418 277:0.561186 278:0.492989 279:0.5 280:0 281:0.5 282:0.566667 283:0.538462 284:0.397059 285:0 286:0 287:0 288:1.05525 289:0.91795 290:0.408908 291:0.2072 292:1.20657 293:0.265457 294:0.497222 295:0.394444 296:0.838889 297:0.21875 298:0.3625 299:0.0277778 300:0.0555556 301:0.774479 302:0.5 303:0.371528 304:0.5 305:0.800418 306:0.0303117 307:0.154114 308:0.0151558 309:0.939894 310:0.00757792 311:0.04495 312:0.00757792 313:0.902522 314:0 315:0.0899 316:0.00757792 317:0 318:0.0210223 319:0.15457 320:0.152059 321:0.8375 322:0.025 323:0.0584435 324:0.0665565 325:0.0743775 326:0.230081 327:0.086393 328:0.16504 329:0.168218 330:0.00675498 331:0.0202618 332:0.225465 333:0.0234098 334:0.0664493 335:0.130487 336:0.0582785 337:0.157255 338:0.309617 339:0.162365 340:0.00165855 341:0.0379301 342:0.075959 343:0.100797 344:0.0544376 345:0.0705624 346:0.148484 347:0.222604 348:0.126859 349:0.141868 350:0.0644722 351:0.069916 352:0.127082 353:0.0159118 354:0.000710412 355:0 356:0 
3.161600181161381e-11 1.430988146396371e-11 1.314340263837711e-11 1:0.177419 2:0.741935 3:0.193548 4:0.983871 5:0.354839 6:0.677419 7:0.733998 8:0.896476 9:0.309692 10:0.737886 11:0.163318 12:0.704124 13:0.295876 14:0.908248 15:0.524194 16:0.6 17:0.375 18:0.103603 19:0 20:0.492114 21:0.953605 22:0.832981 23:0.572966 24:0.778406 25:0.378151 26:0.240608 27:0.516667 28:0.3925 29:0.823293 30:0.281224 31:0.536351 32:0.0943917 33:0.119163 34:0.675271 35:1 36:0.463743 37:1 38:0.766147 39:0.0233167 40:0.184305 41:0.0262313 42:0.751403 43:0.00582917 44:0.12505 45:0.117717 46:0.873234 47:0.0562795 48:0.0536701 49:0.0168168 50:0.00681339 51:0.126495 52:0.266713 53:0.150981 54:0.637153 55:0.0983123 56:0.0812286 57:0.0955 58:0.0932362 59:0.206166 60:0.0570421 61:0.13325 62:0.176992 63:0.086227 64:0.0761472 65:0.154827 66:0.0161125 67:0.0374931 68:0.157846 69:0.0961901 70:0.143536 71:0.249827 72:0.155803 73:0.0874462 74:0.0566228 75:0.0152362 76:0.0954931 77:0.107377 78:0.0659421 79:0.152947 80:0.199356 81:0.110232 82:0.112198 83:0.0799642 84:0.0764903 85:0.124821 86:0.0234282 87:0.00222613 88:0 89:0 90:0.14 91:0.66 92:0.2 93:0.98 94:0.34 95:0.8 96:0.808054 97:0.888622 98:0.351953 99:0.777587 100:0.24038 101:0.704124 102:0.295876 103:0.908248 104:0.57 105:0.576923 106:0.347222 107:0.124556 108:0 109:0.67616 110:0.946773 111:0.945311 112:0.479519 113:0.561997 114:0.498223 115:0.244732 116:0.533228 117:0.378165 118:0.818896 119:0.395048 120:0.784091 121:0.217732 122:0.244074 123:0.511648 124:0.5 125:0.690363 126:0.75 127:0.730088 128:0.0139787 129:0.220987 130:0.0349467 131:0.54913 132:0.00698935 133:0.222883 134:0.220998 135:0.837562 136:0.120983 137:0.0220959 138:0.0193596 139:0.0163166 140:0.24883 141:0.336145 142:0.120569 143:0.534752 144:0.116553 145:0.136166 146:0.111753 147:0.109842 148:0.200985 149:0.0551516 150:0.119439 151:0.183157 152:0.0810341 153:0.147791 154:0.0940184 155:0.00858321 156:0.187189 157:0.118669 158:0.0766009 159:0.118618 160:0.260435 161:0.0829233 162:0.105489 163:0.0394241 164:0.0106508 165:0.172029 166:0.126426 167:0.113829 168:0.137344 169:0.191963 170:0.0912117 171:0.0534481 172:0.053165 173:0.0605845 174:0.125776 175:0.0199004 176:0.0015189 177:0 178:0 179:0.160714 180:0.678571 181:0.357143 182:0.982143 183:0.428571 184:0.678571 185:0.708182 186:0.947976 187:0.363659 188:0.675295 189:0.295644 190:0.788675 191:0.211325 192:0.788675 193:0.5625 194:0.557692 195:0.381579 196:0.0806165 197:0 198:0.368533 199:0.974597 200:0.970746 201:0.43467 202:0.387638 203:0.690998 204:0.256794 205:0.502517 206:0.385714 207:0.852517 208:0.40886 209:0.739773 210:0.0590645 211:0.114583 212:1 213:1 214:0.409741 215:1 216:0.716984 217:0.0489254 218:0.199143 219:0.0349467 220:0.788313 221:0 222:0.108456 223:0.103232 224:0.841808 225:0.0419361 226:0.0829175 227:0.0333383 228:0.000824469 229:0.0594894 230:0.258471 231:0.257074 232:0.662061 233:0.101682 234:0.0885297 235:0.0388653 236:0.06611 237:0.20036 238:0.127936 239:0.124937 240:0.17314 241:0.0441755 242:0.0517147 243:0.182971 244:0.0286576 245:0.081576 246:0.116849 247:0.0485931 248:0.149988 249:0.282249 250:0.123198 251:0.0242937 252:0.0932651 253:0.0799874 254:0.114735 255:0.0544465 256:0.0867506 257:0.153978 258:0.234539 259:0.115192 260:0.124448 261:0.0476612 262:0.0682483 263:0.131631 264:0.0192057 265:0.00119799 266:0 267:0 268:0.209677 269:0.596774 270:0.5 271:0.983871 272:0.5 273:0.596774 274:0.658225 275:0.992366 276:0.438454 277:0.561546 278:0.630473 279:0.211325 280:0.211325 281:0.788675 282:0.564516 283:0.522727 284:0.426471 285:0 286:0 287:0 288:1.06919 289:0.996491 290:0.340979 291:0.155874 292:1.52625 293:0.268383 294:0.489583 295:0.4375 296:0.802083 297:0.102273 298:0.204545 299:0.00625 300:0.0125 301:0.479167 302:0.5 303:0.238095 304:0.5 305:0.867568 306:0.0139787 307:0.118454 308:0 309:0.951552 310:0.00698935 311:0.0414587 312:0 313:0.939707 314:0 315:0.0533041 316:0.00698935 317:0 318:0.0169895 319:0.0924123 320:0.0706529 321:0.909091 322:0.0113636 323:0.0190395 324:0.0605059 325:0.0509277 326:0.254842 327:0.0913801 328:0.121265 329:0.172308 330:0.0146476 331:0.0097008 332:0.245768 333:0.0391613 334:0.0174177 335:0.104506 336:0.0578526 337:0.201389 338:0.31851 339:0.155837 340:0.00204284 341:0.0495664 342:0.0928786 343:0.103031 344:0.0530086 345:0.0719914 346:0.150051 347:0.194853 348:0.14398 349:0.147587 350:0.0603567 351:0.0751424 352:0.122512 353:0.0142155 354:0.000536846 355:0 356:0 
0 1.113340701524314e-13 4.628640732377949e-12 1:0.314815 2:0.37037 3:0.87037 4:0.759259 5:0.666667 6:0.277778 7:0.541571 8:0.778543 9:0.685695 10:0.128609 11:0.109059 12:0.401942 13:0.794174 14:0.107768 15:0.722222 16:0.444444 17:0.673913 18:0.0101259 19:0.237958 20:0 21:0.865228 22:0.90675 23:0.588003 24:0.914416 25:0.34428 26:0.284407 27:0.714006 28:0.653493 29:0.362962 30:0.351631 31:0.508173 32:0.182014 33:0.254301 34:0.473633 35:0.939481 36:0.302846 37:1 38:0.835903 39:0.00669677 40:0.111429 41:0.0459713 42:0.612216 43:0.00334838 44:0.244863 45:0.139572 46:0.889318 47:0.0781977 48:0.0198616 49:0.012623 50:0.00567739 51:0.167297 52:0.25181 53:0.113394 54:0.649399 55:0.0992515 56:0.115586 57:0.0456474 58:0.0886244 59:0.191448 60:0.111102 61:0.0216116 62:0.0921281 63:0.0392671 64:0.0306361 65:0.208586 66:0.216597 67:0.0181004 68:0.0741664 69:0.042391 70:0.155714 71:0.228178 72:0.107915 73:0.211123 74:0.141923 75:0.0204881 76:0.178877 77:0.0205873 78:0.205962 79:0.181403 80:0.0674941 81:0.179508 82:0.0371241 83:0.0554374 84:0.0736077 85:0.183875 86:0.0423538 87:0.003914 88:0 89:0 90:0.26 91:0.36 92:0.78 93:0.74 94:0.64 95:0.3 96:0.521741 97:0.826841 98:0.690657 99:0.173159 100:0.128699 101:0.401942 102:0.794174 103:0.107768 104:0.74 105:0.458333 106:0.676471 107:0 108:0.301459 109:0 110:0.946773 111:0.813962 112:0.597177 113:0.713199 114:0.42064 115:0.28184 116:0.690172 117:0.677326 118:0.361777 119:0.714495 120:0.939184 121:0.42287 122:0.553136 123:0.469539 124:0.939481 125:0.374954 126:1 127:0.68115 128:0.0151558 129:0.207232 130:0.0964624 131:0.405444 132:0 133:0.316572 134:0.277985 135:0.827083 136:0.139084 137:0.0128429 138:0.0209899 139:0.0118946 140:0.276627 141:0.302232 142:0.0999176 143:0.492679 144:0.130735 145:0.123118 146:0.0692274 147:0.106801 148:0.22081 149:0.069918 150:0.0303135 151:0.0911048 152:0.0251789 153:0.0663164 154:0.225854 155:0.163704 156:0.0200818 157:0.12535 158:0.0559995 159:0.11877 160:0.275244 161:0.145809 162:0.125173 163:0.115636 164:0.0179359 165:0.124624 166:0.0146434 167:0.137117 168:0.210297 169:0.0693889 170:0.223342 171:0.0631321 172:0.0609372 173:0.0965171 174:0.168974 175:0.0331046 176:0.00282947 177:0 178:0 179:0.26 180:0.46 181:0.78 182:0.82 183:0.62 184:0.38 185:0.538732 186:0.896297 187:0.613228 188:0.216931 189:0.233395 190:0.295876 191:0.704124 192:0.0917517 193:0.72 194:0.533333 195:0.633333 196:0 197:0 198:0 199:1.03038 200:0.785398 201:0.54042 202:0.378404 203:0.726737 204:0.319151 205:0.769028 206:0.646825 207:0.294009 208:0.252958 209:0.509167 210:0.0964098 211:0.178241 212:0.761948 213:0.5 214:0.471702 215:0.804087 216:0.911895 217:0 218:0.0577928 219:0.0303117 220:0.619779 221:0.00757792 222:0.300352 223:0.0722914 224:0.878702 225:0.0816132 226:0.0321071 227:0.00757792 228:0.00161364 229:0.138103 230:0.306951 231:0.187347 232:0.687068 233:0.0911413 234:0.159897 235:0.0368932 236:0.111037 237:0.243188 238:0.0873179 239:0.0139628 240:0.0567351 241:0.0221289 242:0.0794975 243:0.162084 244:0.224048 245:0.007563 246:0.148075 247:0.0486986 248:0.0394154 249:0.293916 250:0.115087 251:0.10971 252:0.197887 253:0.0396479 254:0.0510004 255:0.00934486 256:0.0965077 257:0.292241 258:0.0607712 259:0.294308 260:0.085626 261:0.0298962 262:0.0803042 263:0.184171 264:0.0269547 265:0.00167624 266:0 267:0 268:0.18 269:0.52 270:0.66 271:0.82 272:0.6 273:0.54 274:0.546101 275:0.987769 276:0.560971 277:0.408543 278:0.679245 279:0.146447 280:0.5 281:0.146447 282:0.72 283:0.535714 284:0.472222 285:0 286:0 287:0 288:1.06031 289:0.999459 290:0.345556 291:0.120731 292:1.98789 293:0.357118 294:0.636364 295:0.607955 296:0.471591 297:0.0555556 298:0.111111 299:0 300:0 301:0.14881 302:0.5 303:1.49976e-33 304:1 305:0.977701 306:0 307:0.0140238 308:0.00827474 309:0.879535 310:0 311:0.11219 312:0.00827474 313:0.962415 314:0.0165495 315:0.0210357 316:0 317:0 318:0.00681016 319:0.0370429 320:0.0514505 321:0.972222 322:0 323:0 324:0 325:0.125 326:0.291891 327:0.0714427 328:0 329:0.032787 330:0.0197484 331:0.0872306 332:0.148159 333:0.223742 334:0 335:0.132668 336:0.0875699 337:0 338:0.301925 339:0.162024 340:0.116469 341:0.160497 342:0.0388462 343:0 344:0 345:0.115256 346:0.287806 347:0.0452241 348:0.26679 349:0.18385 350:0.00853096 351:0.0925429 352:0.191125 353:0.0211535 354:0.000576678 355:0 356:0 
1.1492256760585e-11 2.966812138515001e-12 9.18586738355331e-13 1:0.288462 2:0.442308 3:0.865385 4:0.826923 5:0.557692 6:0.557692 7:0.459867 8:0.926798 9:0.591457 10:0.256116 11:0.0864888 12:0.5 13:0.658114 14:0.0256584 15:0.692308 16:0.482143 17:0.55 18:0.0158199 19:0.0632798 20:0.232026 21:0.915101 22:0.96007 23:0.493941 24:0.911702 25:0.316399 26:0.290574 27:0.675869 28:0.595439 29:0.462644 30:0.281499 31:0.536 32:0.119783 33:0.174479 34:0.505249 35:1 36:0.336506 37:1 38:0.892233 39:0.00334838 40:0.0709344 41:0.0334838 42:0.604068 43:0.00257782 44:0.316075 45:0.077279 46:0.861368 47:0.099681 48:0.0304471 49:0.00850403 50:0.00884311 51:0.214358 52:0.289198 53:0.133044 54:0.683457 55:0.0672669 56:0.0910352 57:0.0674259 58:0.107995 59:0.192583 60:0.103871 61:0.01966 62:0.0847852 63:0.0416663 64:0.104492 65:0.149987 66:0.19496 67:0.0354343 68:0.166675 69:0.0252642 70:0.0927779 71:0.256287 72:0.0737142 73:0.191112 74:0.140218 75:0.0185173 76:0.120897 77:0.0289957 78:0.182578 79:0.255686 80:0.0699728 81:0.225885 82:0.0316112 83:0.0435226 84:0.0408515 85:0.164182 86:0.0285339 87:0.00226666 88:0 89:0 90:0.26 91:0.44 92:0.86 93:0.78 94:0.56 95:0.3 96:0.562506 97:0.836107 98:0.577563 99:0.138039 100:0.166769 101:0.5 102:0.658114 103:0.0256584 104:0.71 105:0.482143 106:0.631579 107:0 108:0.129351 109:0 110:0.920926 111:0.93577 112:0.510488 113:0.579816 114:0.500158 115:0.288193 116:0.76027 117:0.652108 118:0.30086 119:0.437415 120:0.859167 121:0.229143 122:0.395833 123:0.401596 124:0.397584 125:0.811799 126:1 127:0.83779 128:0.00757792 129:0.109164 130:0.0454675 131:0.433647 132:0.00583402 133:0.415936 134:0.144583 135:0.82566 136:0.149815 137:0.0111137 138:0.0134119 139:0.0167278 140:0.397179 141:0.33752 142:0.0547329 143:0.479751 144:0.0821854 145:0.135779 146:0.125247 147:0.121815 148:0.201023 149:0.0865962 150:0.00878179 151:0.0992683 152:0.0435211 153:0.110623 154:0.164037 155:0.164334 156:0.0352621 157:0.149234 158:0.0517649 159:0.0794573 160:0.241322 161:0.143089 162:0.140404 163:0.126971 164:0.0324965 165:0.0897388 166:0.0279863 167:0.148955 168:0.2404 169:0.0600219 170:0.212175 171:0.0788727 172:0.066573 173:0.0752776 174:0.166533 175:0.0320704 176:0.00300014 177:0 178:0 179:0.18 180:0.5 181:0.7 182:0.82 183:0.58 184:0.5 185:0.5581 186:0.973879 187:0.559235 188:0.351913 189:0.343185 190:0.5 191:0.723607 192:0.0527864 193:0.72 194:0.538462 195:0.477273 196:0 197:0 198:0 199:1.09128 200:0.868539 201:0.414507 202:0.24596 203:0.996096 204:0.332417 205:0.657738 206:0.607143 207:0.446429 208:0.179057 209:0.2875 210:0.0347222 211:0.0138889 212:0.42339 213:1 214:0.0208333 215:1 216:0.914208 217:0 218:0.0706357 219:0.0151558 220:0.794307 221:0 222:0.175382 223:0.0303117 224:0.918956 225:0.0682013 226:0.0128429 227:0 228:0 229:0.0224216 230:0.131448 231:0.0987467 232:0.95 233:0.00625 234:0.03125 235:5.55112e-18 236:0.125 237:0.232331 238:0.112294 239:0 240:0.0394766 241:0.0254362 242:0.125 243:0.12506 244:0.215402 245:0 246:0.187128 247:0.0628718 248:0.0186009 249:0.279907 250:0.0742882 251:0.16714 252:0.18304 253:0.0270235 254:0.0628802 255:0 256:0.120987 257:0.268941 258:0.0533065 259:0.329681 260:0.132655 261:0.00857433 262:0.0229756 263:0.167476 264:0.0187229 265:0.000569578 266:0 267:0 268:0.134615 269:0.557692 270:0.557692 271:0.826923 272:0.557692 273:0.711538 274:0.593883 275:0.988094 276:0.5 277:0.608465 278:0.310276 279:0.5 280:0.5 281:0.5 282:0.711538 283:0.583333 284:0.291667 285:0.117789 286:0 287:0.723564 288:1.13839 289:0.785398 290:0.432408 291:0.285712 292:0.841353 293:0.33064 294:0.559828 295:0.495098 296:0.730392 297:0.240371 298:0.478704 299:0.0703125 300:0.078125 301:0.717262 302:0.5 303:0.189167 304:1 305:0.945865 306:0 307:0.0210357 308:0.033099 309:0.703086 310:0 311:0.263815 312:0.033099 313:0.872599 314:0.0579232 315:0.0631071 316:0.00637048 317:0.00474941 318:0.106819 319:0.268435 320:0.192293 321:0.80988 322:0.0581759 323:0.0579928 324:0.0183961 325:0.108063 326:0.198177 327:0.134732 328:0.0169367 329:0.051899 330:0.0317231 331:0.125 332:0.104835 333:0.228633 334:0 335:0.15802 336:0.0919804 337:0.00947624 338:0.189088 339:0.141469 340:0.123753 341:0.227996 342:0.0582183 343:0.0514865 344:0.00338734 345:0.077059 346:0.256447 347:0.0570135 348:0.266144 349:0.135283 350:0.0319884 351:0.121192 352:0.161086 353:0.0201706 354:0.000975017 355:0 356:0 
1.192550479665976e-12 0 0 1:0.378788 2:0.409091 3:0.742424 4:0.712121 5:0.621212 6:0.19697 7:0.47614 8:0.747457 9:0.657472 10:0.0950709 11:0.101486 12:0.5 13:0.853553 14:0.146447 15:0.694444 16:0.355263 17:0.651515 18:0.0136982 19:0.333323 20:0 21:0.885067 22:0.957589 23:0.522403 24:0.829572 25:0.360719 26:0.24763 27:0.711685 28:0.729403 29:0.310298 30:0.3656 31:0.711149 32:0.319601 33:0.507925 34:0.325421 35:0.304087 36:0.647109 37:1 38:0.700604 39:0.00476757 40:0.199995 41:0.0946331 42:0.358275 43:0 44:0.346592 45:0.295133 46:0.782672 47:0.184399 48:0.0121199 49:0.020809 50:0.0495076 51:0.507102 52:0.294592 53:0.0229237 54:0.407738 55:0.168418 56:0.156102 57:0.123172 58:0.0473738 59:0.133619 60:0.149886 61:0.0254196 62:0.145597 63:0.0742361 64:0.0922325 65:0.195955 66:0.13568 67:0.00758057 68:0.10449 69:0.0521751 70:0.144482 71:0.251852 72:0.0798026 73:0.218568 74:0.126881 75:0.0141686 76:0.209488 77:0.0331684 78:0.141681 79:0.1136 80:0.143755 81:0.208439 82:0.00939494 83:0.0643163 84:0.076157 85:0.137258 86:0.0278685 87:0.00228349 88:0 89:0 90:0.23913 91:0.434783 92:0.586957 93:0.717391 94:0.652174 95:0.369565 96:0.373468 97:0.920596 98:0.69118 99:0.30882 100:0.123966 101:0.5 102:0.853553 103:0.146447 104:0.728261 105:0.359375 106:0.583333 107:0 108:0.445557 109:0 110:0.830821 111:0.91972 112:0.607802 113:0.573293 114:0.568796 115:0.249853 116:0.665071 117:0.769175 118:0.334959 119:0.322826 120:0.564506 121:0.47852 122:0.685544 123:0.286811 124:0.224463 125:1 126:0.875517 127:0.542881 128:0.011427 129:0.276008 130:0.169684 131:0.316383 132:0 133:0.25756 134:0.426057 135:0.762199 136:0.212524 137:0.0096831 138:0.0155944 139:0.0693035 140:0.480629 141:0.190302 142:0.0065284 143:0.381222 144:0.0752727 145:0.15357 146:0.187253 147:0.086714 148:0.139131 149:0.094339 150:0.0174324 151:0.16622 152:0.0972581 153:0.144866 154:0.181174 155:0.0728658 156:0.0948558 157:0.111797 158:0.040391 159:0.125628 160:0.297154 161:0.062083 162:0.150684 163:0.112179 164:0.00522808 165:0.203145 166:0.0439642 167:0.121951 168:0.113983 169:0.194434 170:0.212557 171:0.00410038 172:0.0419819 173:0.0638839 174:0.166593 175:0.0330901 176:0.00342581 177:0 178:0 179:0.23913 180:0.478261 181:0.673913 182:0.717391 183:0.608696 184:0.369565 185:0.405987 186:0.911089 187:0.612115 188:0.238398 189:0.147001 190:0.349244 191:0.650756 192:0.047733 193:0.728261 194:0.410714 195:0.644737 196:0 197:0.230735 198:0 199:0.88035 200:0.93577 201:0.546789 202:0.494638 203:0.615294 204:0.287856 205:0.727571 206:0.744218 207:0.29483 208:0.439713 209:0.860324 210:0.352976 211:0.650926 212:0.282112 213:0.204833 214:0.59686 215:0.697096 216:0.75532 217:0 218:0.213028 219:0.0316514 220:0.339652 221:0 222:0.406229 223:0.254119 224:0.805266 225:0.183307 226:0 227:0.011427 228:0.0351852 229:0.43603 230:0.255028 231:0.019211 232:0.492861 233:0.166015 234:0.183164 235:0.102982 236:0.115449 237:0.189539 238:0.134123 239:0 240:0.0963796 241:0.051297 242:0.125 243:0.177621 244:0.110592 245:0.0942286 246:0.138716 247:0.0130318 248:0.0912682 249:0.254915 250:0.107264 251:0.158441 252:0.126242 253:0.0158933 254:0.210009 255:0.0259288 256:0.0982258 257:0.202141 258:0.0887604 259:0.237368 260:0.0177488 261:0.0417573 262:0.0780611 263:0.186586 264:0.0351458 265:0.00335267 266:0 267:0 268:0.22 269:0.5 270:0.66 271:0.82 272:0.54 273:0.5 274:0.501296 275:0.982118 276:0.532141 277:0.371435 278:0.244519 279:0.295876 280:0.704124 281:0.0917517 282:0.73 283:0.480769 284:0.653846 285:0 286:0.141465 287:0 288:1.09128 289:0.785398 290:0.479519 291:0.318101 292:0.801633 293:0.335394 294:0.78125 295:0.671875 296:0.298412 297:0.33552 298:0.705556 299:0.191226 300:0.288889 301:0.458977 302:0.304087 303:0.544508 304:0.782047 305:0.847778 306:0 307:0.106514 308:0.0457081 309:0.51491 310:0 311:0.316314 312:0.168776 313:0.843509 314:0.11427 315:0.0193662 316:0.0228541 317:0.00201561 318:0.243337 319:0.359914 320:0.0839256 321:0.656801 322:0.0983327 323:0.113656 324:0.0478767 325:0.117335 326:0.164672 327:0.186891 328:0 329:0.0403795 330:0.0180962 331:0.125 332:0.172299 333:0.175328 334:0.0101301 335:0.180159 336:0.0498046 337:0.052689 338:0.205095 339:0.118929 340:0.185605 341:0.158805 342:0.0387835 343:0.184151 344:0.00576973 345:0.0603653 346:0.236883 347:0.03277 348:0.275564 349:0.0470946 350:0.0213575 351:0.136045 352:0.183435 353:0.0250217 354:0.00134354 355:0 356:0 
2.28762709356365e-12 1.794330324028115e-14 0 1:0.40625 2:0.421875 3:0.765625 4:0.75 5:0.609375 6:0.203125 7:0.481232 8:0.750778 9:0.636788 10:0.0896353 11:0.105156 12:0.333333 13:0.833333 14:0.166667 15:0.694444 16:0.361111 17:0.65625 18:0.00958941 19:0.311656 20:0 21:0.869942 22:0.982794 23:0.512389 24:0.814701 25:0.369192 26:0.252244 27:0.71441 28:0.727444 29:0.305633 30:0.359384 31:0.705931 32:0.289295 33:0.47564 34:0.355723 35:0.304087 36:0.552552 37:1 38:0.73087 39:0.00476757 40:0.187703 41:0.07666 42:0.376118 43:0 44:0.354063 45:0.269819 46:0.793218 47:0.180729 48:0.00807994 49:0.0179731 50:0.0438017 51:0.469724 52:0.305657 53:0.0479499 54:0.466562 55:0.177181 56:0.137941 57:0.0864575 58:0.0441705 59:0.11938 60:0.139923 61:0.0188806 62:0.164478 63:0.0684497 64:0.0866011 65:0.211746 66:0.146371 67:0.0039538 68:0.100501 69:0.0460796 70:0.143643 71:0.266463 72:0.0894977 73:0.213038 74:0.124707 75:0.0121171 76:0.199986 77:0.0334727 78:0.144361 79:0.100315 80:0.151856 81:0.219207 82:0.00637767 83:0.0626059 84:0.0818188 85:0.142754 86:0.0293725 87:0.00243812 88:0 89:0 90:0.25 91:0.431818 92:0.636364 93:0.75 94:0.659091 95:0.409091 96:0.380516 97:0.920596 98:0.69118 99:0.30882 100:0.127215 101:0.333333 102:0.833333 103:0.166667 104:0.738636 105:0.359375 106:0.583333 107:0 108:0.418319 109:0 110:0.80865 111:0.91972 112:0.628796 113:0.584048 114:0.573973 115:0.257582 116:0.679378 117:0.772321 118:0.324605 119:0.332987 120:0.595556 121:0.411465 122:0.636863 123:0.232025 124:0.224463 125:0.665933 126:1 127:0.574945 128:0.011427 129:0.275595 130:0.138033 131:0.29836 132:0 133:0.28701 134:0.41463 135:0.778679 136:0.212524 137:0 138:0.00879733 139:0.0781145 140:0.498278 141:0.161275 142:0.00778764 143:0.5031 144:0.130914 145:0.0915837 146:0.0869018 147:0.0895872 148:0.170198 149:0.0936173 150:0.0216253 151:0.146141 152:0.0699523 153:0.143699 154:0.185904 155:0.0792762 156:0.0885897 157:0.126505 158:0.0428841 159:0.109489 160:0.314014 161:0.0727246 162:0.119397 163:0.118676 164:0.00772073 165:0.196677 166:0.0252743 167:0.0938069 168:0.146736 169:0.166451 170:0.24379 171:0.00695021 172:0.0471918 173:0.0731224 174:0.185434 175:0.039147 176:0.00425494 177:0 178:0 179:0.195652 180:0.478261 181:0.695652 182:0.76087 183:0.608696 184:0.391304 185:0.465184 186:0.93142 187:0.599558 188:0.267697 189:0.172095 190:0.349244 191:0.650756 192:0.047733 193:0.728261 194:0.446429 195:0.625 196:0 197:0.217024 198:0 199:0.90675 200:0.909753 201:0.546789 202:0.475803 203:0.628228 204:0.298766 205:0.741878 206:0.732143 207:0.293109 208:0.467914 209:0.933056 210:0.323055 211:0.596296 212:0.272202 213:0.204833 214:0.583894 215:0.93198 216:0.773801 217:0 218:0.203345 219:0.0228541 220:0.356478 221:0 222:0.404368 223:0.239154 224:0.804832 225:0.172314 226:0 227:0.0228541 228:0.0322836 229:0.417968 230:0.284155 231:0.0110483 232:0.559326 233:0.143182 234:0.130084 235:0.0649758 236:0.110673 237:0.20101 238:0.154056 239:0 240:0.0689278 241:0.0496647 242:0.118378 243:0.170065 244:0.127225 245:0.0668117 246:0.155122 247:0.0134018 248:0.0657465 249:0.261374 250:0.103414 251:0.147271 252:0.169756 253:0.0171035 254:0.198681 255:0.012751 256:0.0657926 257:0.237383 258:0.0811018 259:0.269983 260:0.022336 261:0.0333362 262:0.0786356 263:0.192319 264:0.0356361 265:0.00327425 266:0 267:0 268:0.211538 269:0.538462 270:0.653846 271:0.826923 272:0.538462 273:0.5 274:0.517923 275:0.985071 276:0.5 277:0.378732 278:0.28522 279:0.5 280:0.723607 281:0.0527864 282:0.730769 283:0.5 284:0.653846 285:0 286:0 287:0 288:1.10715 289:0.785398 290:0.463648 291:0.277998 292:0.899287 293:0.330459 294:0.736111 295:0.675 296:0.291667 297:0.286792 298:0.600694 299:0.158113 300:0.225 301:0.570833 302:0.304087 303:0.411905 304:1 305:0.897937 306:0 307:0.0677817 308:0.0342811 309:0.568552 310:0 311:0.328604 312:0.102843 313:0.832082 314:0.125697 315:0.0193662 316:0.0228541 317:0 318:0.168557 319:0.37169 320:0.160784 321:0.770833 322:0.0463605 323:0.0487917 324:0.0298478 325:0.115396 326:0.136745 327:0.196014 328:0 329:0.0467738 330:0.0290657 331:0.125 332:0.168807 333:0.182198 334:0 335:0.180559 336:0.0564975 337:0.0442006 338:0.203385 339:0.108059 340:0.181719 341:0.178629 342:0.0469502 343:0.160868 344:0.00853303 345:0.0570717 346:0.248162 347:0.0402488 348:0.274544 349:0.0444504 350:0.0245896 351:0.141533 352:0.172393 353:0.020801 354:0.000925411 355:0 356:0 
0 2.47887619427926e-13 0 1:0.4 2:0.45 3:0.783333 4:0.766667 5:0.616667 6:0.183333 7:0.490566 8:0.753696 9:0.615316 10:0.084861 11:0.107336 12:0.349244 13:0.650756 14:0.047733 15:0.675926 16:0.375 17:0.666667 18:0.00990212 19:0.277259 20:0 21:0.837981 22:0.982794 23:0.54042 24:0.841571 25:0.37133 26:0.267957 27:0.72905 28:0.705775 29:0.311197 30:0.271671 31:0.537706 32:0.204543 33:0.329654 34:0.343178 35:0.5 36:0.38091 37:1 38:0.80406 39:0.00376912 40:0.142006 41:0.0501656 42:0.518394 43:0 44:0.291416 45:0.19019 46:0.847688 47:0.131716 48:0.00638781 49:0.0142091 50:0.0308935 51:0.338698 52:0.274205 53:0.0556569 54:0.575502 55:0.143526 56:0.111785 57:0.0539789 58:0.0321012 59:0.139117 60:0.179477 61:0.0100782 62:0.129591 63:0.0694203 64:0.055259 65:0.213328 66:0.171629 67:0 68:0.0734984 69:0.0245043 70:0.20929 71:0.20028 72:0.0746619 73:0.299135 74:0.106209 75:0.0124218 76:0.260452 77:0.0464263 78:0.212077 79:0.0869255 80:0.11144 81:0.167947 82:0.00604756 83:0.047801 84:0.0608843 85:0.167059 86:0.0381117 87:0.00333593 88:0 89:0 90:0.282609 91:0.478261 92:0.717391 93:0.717391 94:0.695652 95:0.282609 96:0.413803 97:0.833333 98:0.666667 99:0.166667 100:0.120454 101:0.349244 102:0.650756 103:0.047733 104:0.717391 105:0.359375 106:0.630435 107:0 108:0.337273 109:0 110:0.785398 111:0.962994 112:0.607802 113:0.676785 114:0.497878 115:0.261813 116:0.686705 117:0.757969 118:0.307315 119:0.388597 120:0.730255 121:0.435528 122:0.701264 123:0.249779 124:0.224463 125:0.389752 126:1 127:0.670829 128:0.00911269 129:0.235222 130:0.0848356 131:0.307396 132:0 133:0.36737 134:0.325234 135:0.774772 136:0.209099 137:0 138:0.0161283 139:0.0641587 140:0.506061 141:0.225789 142:0.00680784 143:0.411162 144:0.177045 145:0.160468 146:0.0741902 147:0.0830501 148:0.153986 149:0.131631 150:0.00989421 151:0.125613 152:0.0852833 153:0.108918 154:0.178234 155:0.12339 156:0.0509427 157:0.120419 158:0.0306106 159:0.0932435 160:0.262065 161:0.0981662 162:0.158814 163:0.1647 164:0.0210395 165:0.190436 166:0.0252383 167:0.10019 168:0.165618 169:0.133101 170:0.233758 171:0.0130165 172:0.0603985 173:0.0782439 174:0.191499 175:0.0430316 176:0.00481268 177:0 178:0 179:0.26 180:0.52 181:0.7 182:0.82 183:0.56 184:0.42 185:0.470767 186:0.946304 187:0.531879 188:0.276848 189:0.176599 190:0.341886 191:0.5 192:0.0256584 193:0.72 194:0.446429 195:0.632353 196:0 197:0.146374 198:0 199:0.97362 200:0.881872 201:0.510488 202:0.444068 203:0.630534 204:0.312639 205:0.78045 206:0.679688 207:0.294475 208:0.359314 209:0.74375 210:0.178099 211:0.287698 212:0.409744 213:0.304087 214:0.565679 215:0.782047 216:0.839998 217:0 218:0.123552 219:0.0364508 220:0.465925 221:0 222:0.358113 223:0.175963 224:0.84085 225:0.125481 226:0.0154439 227:0.0182254 228:0.0103282 229:0.330069 230:0.359911 231:0.0570102 232:0.606821 233:0.116983 234:0.127838 235:0.0698702 236:0.107674 237:0.168582 238:0.178762 239:0 240:0.0561905 241:0.0228968 242:0.125 243:0.168035 244:0.172859 245:0.0323368 246:0.167506 247:0.029629 248:0.0609797 249:0.241677 250:0.0970788 251:0.190675 252:0.155555 253:0.0245626 254:0.197357 255:0.00669796 256:0.0861919 257:0.222916 258:0.0533259 259:0.285947 260:0.0303793 261:0.0237219 262:0.0934635 263:0.184904 264:0.0297764 265:0.00217135 266:0 267:0 268:0.173077 269:0.596154 270:0.576923 271:0.826923 272:0.519231 273:0.538462 274:0.57123 275:0.99573 276:0.441679 277:0.470839 278:0.603983 279:0.146447 280:0.5 281:0.146447 282:0.721154 283:0.5 284:0.638889 285:0 286:0 287:0 288:1.13839 289:0.927295 290:0.333244 291:0.136485 292:1.65558 293:0.359364 294:0.77 295:0.595 296:0.34 297:0.078125 298:0.15625 299:0 300:0 301:0.301389 302:0.5 303:2.77556e-17 304:1 305:0.959999 306:0 307:0.0308879 308:0.00911269 309:0.835057 310:0 311:0.146717 312:0.0182254 313:0.955827 314:0.0364508 315:0.00772197 316:0 317:0 318:0.0149624 319:0.134593 320:0.0809821 321:0.96875 322:0 323:0 324:0 325:0.125 326:0.152483 327:0.187846 328:0 329:0.0289175 330:0.0153686 331:0.125 332:0.208803 333:0.156582 334:0 335:0.18833 336:0.0616701 337:0.109046 338:0.205966 339:0.0944242 340:0.197186 341:0.116145 342:0.0272338 343:0.203053 344:0.0158651 345:0.0889756 346:0.245981 347:0.0233047 348:0.236414 349:0.0261771 350:0.0148417 351:0.145388 352:0.177968 353:0.0174664 354:0.000460938 355:0 356:0 
5.645074161888408e-12 0 0 1:0.267857 2:0.339286 3:0.803571 4:0.553571 5:0.839286 6:0.160714 7:0.548098 8:0.665521 9:0.789662 10:0.127577 11:0.107893 12:0.5 13:0.723607 14:0.0527864 15:0.769231 16:0.272727 17:0.642857 18:0 19:0.482182 20:0 21:0.822418 22:0.868539 23:0.665969 24:0.999919 25:0.339313 26:0.248548 27:0.717228 28:0.738514 29:0.343066 30:0.43541 31:0.851972 32:0.35769 33:0.60026 34:0.389777 35:0.36614 36:0.627816 37:1 38:0.575137 39:0.0190703 40:0.283832 41:0.12196 42:0.388502 43:0 44:0.239374 45:0.372125 46:0.791222 47:0.161758 48:0.030144 49:0.0168759 50:0.0466907 51:0.491683 52:0.311385 53:0.0436465 54:0.36759 55:0.160199 56:0.220144 57:0.0934924 58:0.0514585 59:0.174726 60:0.139218 61:0.0306191 62:0.157294 63:0.117009 64:0.10834 65:0.143565 66:0.077771 67:0.00169755 68:0.0959021 69:0.0922755 70:0.130604 71:0.255604 72:0.0922198 73:0.1957 74:0.124767 75:0.0112294 76:0.169179 77:0.0678493 78:0.0853341 79:0.166121 80:0.150329 81:0.16545 82:0.0315519 83:0.0855571 84:0.0786294 85:0.174321 86:0.0430754 87:0.00431146 88:0 89:0 90:0.1875 91:0.416667 92:0.604167 93:0.645833 94:0.625 95:0.520833 96:0.365799 97:0.949073 98:0.704124 99:0.41835 100:0.124364 101:0.5 102:0.723607 103:0.0527864 104:0.760417 105:0.338235 106:0.5 107:0 108:0.61941 109:0 110:0.954499 111:0.815692 112:0.588003 113:0.512921 114:0.578793 115:0.261323 116:0.684091 117:0.76673 118:0.381298 119:0.372838 120:0.697485 121:0.39202 122:0.58869 123:0.379223 124:0.36614 125:0.392252 126:1 127:0.445811 128:0.0228541 129:0.350658 130:0.180677 131:0.452253 132:0 133:0.112097 134:0.43565 135:0.787065 136:0.132773 137:0.0625669 138:0.0175947 139:0.0413372 140:0.423924 141:0.241757 142:0.0340171 143:0.531843 144:0.113899 145:0.117535 146:0.0691521 147:0.064783 148:0.198984 149:0.0807308 150:0.0308488 151:0.183639 152:0.0931432 153:0.170389 154:0.138903 155:0.0385793 156:0.104932 157:0.0851457 158:0.0770734 159:0.138556 160:0.310498 161:0.0645492 162:0.133262 163:0.0835445 164:0.00243949 165:0.164088 166:0.0794846 167:0.133979 168:0.15539 169:0.186066 170:0.141474 171:0.0231067 172:0.0458949 173:0.0705172 174:0.150544 175:0.0271972 176:0.00249357 177:0 178:0 179:0.204545 180:0.431818 181:0.659091 182:0.659091 183:0.75 184:0.431818 185:0.404393 186:0.879049 187:0.765334 188:0.310475 189:0.14602 190:0.5 191:0.853553 192:0.146447 193:0.772727 194:0.328125 195:0.569444 196:0 197:0.487069 198:0 199:0.885067 200:0.844154 201:0.628796 202:0.513274 203:0.619906 204:0.264981 205:0.7294 206:0.7571 207:0.34141 208:0.421636 209:0.805324 210:0.295226 211:0.484921 212:0.267674 213:0.282047 214:0.920595 215:0.875517 216:0.573641 217:0 218:0.317348 219:0.109011 220:0.372359 221:0 222:0.210914 223:0.416727 224:0.825057 225:0.174943 226:0 227:0 228:0.0497214 229:0.45381 230:0.189285 231:0.0586348 232:0.536797 233:0.0840832 234:0.156775 235:0.10894 236:0.0858745 237:0.16248 238:0.120518 239:0.009922 240:0.133605 241:0.093888 242:0.125457 243:0.173756 244:0.0944993 245:0.0977616 246:0.106068 247:0.0202169 248:0.103451 249:0.276009 250:0.0799192 251:0.162101 252:0.141996 253:0.0124769 254:0.200548 255:0.041595 256:0.124905 257:0.15711 258:0.15233 259:0.213139 260:0.00991704 261:0.0440676 262:0.0563879 263:0.172324 264:0.0349108 265:0.00368564 266:0 267:0 268:0.204545 269:0.477273 270:0.659091 271:0.659091 272:0.75 273:0.340909 274:0.444578 275:0.867607 276:0.720564 277:0.242675 278:0.178673 279:0.5 280:0.723607 281:0.0527864 282:0.75 283:0.392857 284:0.640625 285:0 286:0.236454 287:0 288:0.942 289:0.851966 290:0.566729 291:0.432528 292:0.683088 293:0.297556 294:0.780887 295:0.693182 296:0.303094 297:0.493637 298:1 299:0.353238 300:0.733333 301:0.545433 302:0.304087 303:0.404167 304:0.5 305:0.778252 306:0.0228541 307:0.164613 308:0.0342811 309:0.423327 310:0 311:0.347224 312:0.229449 313:0.832968 314:0.134495 315:0.0096831 316:0.0228541 317:0.0202289 318:0.269487 319:0.363097 320:0.0854357 321:0.514086 322:0.116601 323:0.214147 324:0.113499 325:0.105897 326:0.198967 327:0.153709 328:0 329:0.0587699 330:0.0622499 331:0.115318 332:0.127435 333:0.177655 334:0.0727513 335:0.143893 336:0.0089297 337:0.0862691 338:0.218446 339:0.0711079 340:0.214895 341:0.161386 342:0.0223216 343:0.196807 344:0.0261502 345:0.140588 346:0.231379 347:0.0778462 348:0.22426 349:0.0203481 350:0.0301733 351:0.0524478 352:0.185691 353:0.0356316 354:0.00324589 355:0 356:0 
0 3.018282434402435e-12 0 1:0.36 2:0.44 3:0.9 4:0.68 5:0.56 6:0.26 7:0.490944 8:0.720527 9:0.582698 10:0.0589457 11:0.0980928 12:0.295876 13:0.704124 14:0.0917517 15:0.727273 16:0.390625 17:0.68 18:0 19:0.173057 20:0 21:0.849141 22:0.942 23:0.569313 24:0.924551 25:0.340706 26:0.266461 27:0.7797 28:0.642045 29:0.318328 30:0.219762 31:0.434091 32:0.0737552 33:0.135417 34:0.454719 35:1 36:0.257894 37:1 38:0.901037 39:0 40:0.0809008 41:0.0180621 42:0.694437 43:0.00774089 44:0.226761 45:0.0710607 46:0.906874 47:0.058753 48:0.0240516 49:0.0103212 50:0.00499583 51:0.142079 52:0.258843 53:0.127202 54:0.742944 55:0.0923788 56:0.0524692 57:0.0553903 58:0.080788 59:0.136041 60:0.174812 61:0.00536052 62:0.102862 63:0.0593612 64:0.105547 65:0.178014 66:0.157215 67:0.0653256 68:0.0854975 69:0.0307393 70:0.15356 71:0.189627 72:0.0882811 73:0.232764 74:0.132284 75:0.0219219 76:0.244125 77:0.048998 78:0.179195 79:0.125382 80:0.0756527 81:0.184238 82:0.0261184 83:0.0401638 84:0.0761273 85:0.167678 86:0.0375601 87:0.00411876 88:0 89:0 90:0.275 91:0.425 92:0.875 93:0.725 94:0.625 95:0.275 96:0.477723 97:0.78987 98:0.628831 99:0.113506 100:0.11834 101:0.295876 102:0.704124 103:0.0917517 104:0.7375 105:0.375 106:0.675 107:0 108:0.228689 109:0 110:0.785398 111:0.896055 112:0.674741 113:0.819889 114:0.426887 115:0.277852 116:0.797585 117:0.659856 118:0.298294 119:0.428049 120:0.861538 121:0.190345 122:0.347222 123:0.59133 124:0.416871 125:0.443757 126:1 127:0.821088 128:0 129:0.148664 130:0.030248 131:0.464866 132:0.0060496 133:0.36248 134:0.166604 135:0.858048 136:0.11355 137:0.0102527 138:0.0181488 139:0.012197 140:0.30401 141:0.398252 142:0.142611 143:0.564858 144:0.172901 145:0.109963 146:0.0484008 147:0.0855734 148:0.18214 149:0.151797 150:0.00989396 151:0.0850522 152:0.0290737 153:0.122853 154:0.212345 155:0.121271 156:0.0537415 157:0.115331 158:0.046427 159:0.0825538 160:0.260522 161:0.135055 162:0.135417 163:0.147134 164:0.0238192 165:0.158498 166:0.0183859 167:0.10011 168:0.209533 169:0.0621744 170:0.239256 171:0.0516997 172:0.0451307 173:0.115212 174:0.220348 175:0.0571551 176:0.00752787 177:0 178:0 179:0.214286 180:0.547619 181:0.714286 182:0.690476 183:0.5 184:0.428571 185:0.41228 186:0.927179 187:0.457282 188:0.243693 189:0.156334 190:0.211325 191:0.788675 192:0.211325 193:0.738095 194:0.480769 195:0.678571 196:0 197:0 198:0 199:0.982794 200:0.822418 201:0.554307 202:0.445655 203:0.641111 204:0.301429 205:0.763258 206:0.630682 207:0.301136 208:0.203526 209:0.408654 210:0.0543369 211:0.111111 212:0.704798 213:0.75 214:0.345569 215:1 216:0.927308 217:0 218:0.0666425 219:0.0060496 220:0.711588 221:0.0181488 222:0.246065 223:0.0241984 224:0.907823 225:0.060496 226:0.0256317 227:0.0060496 228:0 229:0.0580722 230:0.309987 231:0.207731 232:0.744152 233:0.0519832 234:0.0128269 235:0.0852684 236:0.125 237:0.160347 238:0.178967 239:0 240:0.0707689 241:0.0201883 242:0.125 243:0.182403 244:0.137326 245:0.0343369 246:0.191537 247:0.024126 248:0.0642277 249:0.247907 250:0.0938114 251:0.149537 252:0.161372 253:0.0331452 254:0.172926 255:0.0164328 256:0.0533724 257:0.251592 258:0.070726 259:0.284296 260:0.0384157 261:0.0161338 262:0.0961052 263:0.178021 264:0.0289591 265:0.002181 266:0 267:0 268:0.225 269:0.575 270:0.6 271:0.775 272:0.475 273:0.6 274:0.447214 275:0.991935 276:0.410557 277:0.5 278:0.450304 279:0.5 280:0.5 281:0 282:0.7375 283:0.5 284:0.611111 285:0 286:0 287:0 288:1.03038 289:0.927295 290:0.422854 291:0.155178 292:1.65133 293:0.34268 294:0.690217 295:0.63587 296:0.434783 297:0.0432692 298:0.0673077 299:0 300:0 301:0.125 302:1 303:4.166e-34 304:1 305:0.978571 306:0 307:0.015379 308:0.0060496 309:0.938484 310:0 311:0.0615162 312:0 313:0.95294 314:0 315:0.0410108 316:0.0060496 317:0 318:0.00161562 319:0.0107399 320:0.00833098 321:0.990385 322:0 323:0 324:0 325:0.125 326:0.191054 327:0.146466 328:0 329:0.0725666 330:0.00287452 331:0.125 332:0.240443 333:0.0965964 334:0 335:0.16668 336:0.0833199 337:0.0850639 338:0.217087 339:0.199178 340:0.116654 341:0.116489 342:0.0155276 343:0.172749 344:0.0178023 345:0 346:0.220662 347:0.0493534 348:0.262738 349:0.0583727 350:0.0268823 351:0.19144 352:0.19528 353:0.0279704 354:0.000998437 355:0 356:0 
1.367514132312964e-11 0 0 1:0.321429 2:0.410714 3:0.875 4:0.642857 5:0.589286 6:0.232143 7:0.523507 8:0.717009 9:0.620561 10:0.0659815 11:0.1076 12:0.349244 13:0.650756 14:0.047733 15:0.728261 16:0.390625 17:0.660714 18:0 19:0.223124 20:0 21:0.883125 22:0.962994 23:0.519146 24:0.860347 25:0.347659 26:0.262802 27:0.800442 28:0.642628 29:0.309256 30:0.248487 31:0.50144 32:0.107454 33:0.171955 34:0.482449 35:0.5 36:0.336785 37:1 38:0.870173 39:0.00623292 40:0.0924296 41:0.0311646 42:0.598562 43:0 44:0.286599 45:0.11484 46:0.900956 47:0.0743256 48:0.0184859 49:0.00623292 50:0.0176314 51:0.202032 52:0.352866 53:0.111181 54:0.713548 55:0.100503 56:0.103116 57:0.0573696 58:0.0993444 59:0.188365 60:0.137216 61:0.0258838 62:0.106459 63:0.0723027 64:0.0892882 65:0.148756 66:0.132386 67:0.0638917 68:0.106336 69:0.0462822 70:0.142829 71:0.21652 72:0.0862778 73:0.186883 74:0.133842 75:0.0171376 76:0.221993 77:0.061195 78:0.123953 79:0.168453 80:0.0882095 81:0.183196 82:0.0323372 83:0.0433155 84:0.0773479 85:0.148285 86:0.0315378 87:0.00315415 88:0 89:0 90:0.214286 91:0.404762 92:0.785714 93:0.690476 94:0.595238 95:0.309524 96:0.458608 97:0.840207 98:0.636083 99:0.159793 100:0.130382 101:0.349244 102:0.650756 103:0.047733 104:0.738095 105:0.4 106:0.631579 107:0 108:0.26614 109:0 110:0.835357 111:0.902507 112:0.620249 113:0.670968 114:0.487924 115:0.281381 116:0.795517 117:0.666176 118:0.305811 119:0.425193 120:0.853889 121:0.232372 122:0.338426 123:0.499527 124:0.397584 125:0.514999 126:1 127:0.784106 128:0.0151558 129:0.147693 130:0.0530455 131:0.435568 132:0 133:0.36097 134:0.203462 135:0.860631 136:0.104949 137:0.0192643 138:0.0151558 139:0.0318516 140:0.350115 141:0.36418 142:0.0729227 143:0.585534 144:0.141114 145:0.143421 146:0.0611816 147:0.10972 148:0.209402 149:0.108569 150:0.0110421 151:0.0921521 152:0.0362241 153:0.119149 154:0.189983 155:0.123758 156:0.0860899 157:0.128547 158:0.0281033 159:0.110093 160:0.264541 161:0.115624 162:0.123145 163:0.126037 164:0.0178203 165:0.194449 166:0.0181768 167:0.106117 168:0.197221 169:0.0706994 170:0.254548 171:0.0372891 172:0.0457241 173:0.0757757 174:0.199396 175:0.0447533 176:0.00516899 177:0 178:0 179:0.175 180:0.45 181:0.8 182:0.725 183:0.55 184:0.4 185:0.46934 186:0.900066 187:0.572739 188:0.209043 189:0.165859 190:0.341886 191:0.5 192:0.0256584 193:0.7625 194:0.461538 195:0.676471 196:0 197:0.0723868 198:0 199:0.866302 200:0.91795 201:0.576375 202:0.51805 203:0.603223 204:0.306611 205:0.799268 206:0.6375 207:0.280357 208:0.249413 209:0.505 210:0.0849957 211:0.172222 212:0.607604 213:0.304087 214:0.50202 215:0.73228 216:0.913052 217:0 218:0.0642143 219:0.0227338 220:0.553037 221:0 222:0.363606 223:0.0833571 224:0.889232 225:0.104347 226:0.00642143 227:0 228:0.0141626 229:0.184691 230:0.417224 231:0.13512 232:0.767398 233:0.0432555 234:0.0603702 235:0.0914764 236:0.139698 237:0.225539 238:0.0994162 239:0.00762814 240:0.05606 241:0.0213029 242:0.125 243:0.171916 244:0.15344 245:0.0542539 246:0.179189 247:0.038574 248:0.0756365 249:0.258095 250:0.119385 251:0.0797387 252:0.159773 253:0.0353547 254:0.150387 255:0.0129569 256:0.0438415 257:0.260011 258:0.0588957 259:0.283242 260:0.0545355 261:0.0169863 262:0.119144 263:0.213809 264:0.0436679 265:0.0043394 266:0 267:0 268:0.125 269:0.55 270:0.65 271:0.775 272:0.55 273:0.55 274:0.500724 275:0.994186 276:0.5 277:0.423971 278:0.368876 279:0.5 280:0.5 281:0 282:0.7375 283:0.538462 284:0.636364 285:0 286:0 287:0 288:0.994421 289:0.868539 290:0.502843 291:0.222855 292:1.23398 293:0.329403 294:0.844697 295:0.575758 296:0.352273 297:0.075 298:0.15 299:0.00694444 300:0.0138889 301:0.325521 302:0.5 303:0.0416667 304:0.304087 305:0.948629 306:0 307:0.0513714 308:0 309:0.835995 310:0 311:0.141271 312:0.0227338 313:0.973158 314:0.00757792 315:0.0192643 316:0 317:0 318:0.0298325 319:0.13347 320:0.0647859 321:0.96875 322:0.01875 323:0.0125 324:0 325:0.125 326:0.186663 327:0.160762 328:0 329:0.0450776 330:0.0219923 331:0.125 332:0.14787 333:0.187635 334:0 335:0.22165 336:0.0283503 337:0.0548172 338:0.219895 339:0.0960863 340:0.149089 341:0.169028 342:0.0610852 343:0.164211 344:0.00917389 345:0.0321862 346:0.270244 347:0.0434337 348:0.287525 349:0.0346735 350:0.020724 351:0.137829 352:0.197794 353:0.0298697 354:0.0013874 355:0 356:0 
7.570743602213851e-12 0 0 1:0.33871 2:0.403226 3:0.790323 4:0.596774 5:0.564516 6:0.177419 7:0.502942 8:0.688562 9:0.617851 10:0.0521657 11:0.103812 12:0.5 13:0.723607 14:0.0527864 15:0.73913 16:0.397059 17:0.653226 18:0 19:0.264261 20:0 21:0.932477 22:0.934288 23:0.501604 24:0.823965 25:0.347454 26:0.243732 27:0.798876 28:0.65528 29:0.300709 30:0.316054 31:0.63465 32:0.169135 33:0.322601 34:0.584209 35:0.5 36:0.666106 37:0.796115 38:0.819498 39:0.0072352 40:0.12262 41:0.0506464 42:0.497585 43:0.0036176 44:0.332645 45:0.166152 46:0.873624 47:0.100748 48:0.018393 49:0.0072352 50:0.0170387 51:0.26874 52:0.443932 53:0.149269 54:0.478542 55:0.167834 56:0.169338 57:0.10209 58:0.0644311 59:0.168987 60:0.14501 61:0.0300114 62:0.142442 63:0.0785601 64:0.115397 65:0.157592 66:0.0975702 67:0.0345646 68:0.119261 69:0.0519904 70:0.140536 71:0.253176 72:0.0884279 73:0.180751 74:0.116654 75:0.0146382 76:0.194806 77:0.0628789 78:0.106253 79:0.15853 80:0.126534 81:0.193848 82:0.0234813 83:0.0607985 84:0.0728693 85:0.120712 86:0.0220323 87:0.00191479 88:0 89:0 90:0.214286 91:0.404762 92:0.666667 93:0.690476 94:0.595238 95:0.333333 96:0.393426 97:0.889249 98:0.6557 99:0.227525 100:0.125237 101:0.5 102:0.723607 103:0.0527864 104:0.738095 105:0.4 106:0.5875 107:0.0292492 108:0.302241 109:0 110:0.809784 111:0.927295 112:0.620249 113:0.610518 114:0.545984 115:0.255934 116:0.777952 117:0.685 118:0.314538 119:0.406303 120:0.805679 121:0.284546 122:0.517361 123:0.634455 124:0.5 125:0.790917 126:0.796115 127:0.757242 128:0.0165495 129:0.168286 130:0.0579232 131:0.4577 132:0 133:0.325841 134:0.216459 135:0.845269 136:0.110134 137:0.0280476 138:0.0165495 139:0.0248451 140:0.274607 141:0.379916 142:0.115024 143:0.421125 144:0.190429 145:0.20267 146:0.0607755 147:0.0934153 148:0.189382 149:0.0999267 150:0.0238731 151:0.131856 152:0.0602676 153:0.140271 154:0.188143 155:0.0728645 156:0.108824 157:0.128416 158:0.0249974 159:0.106545 160:0.326143 161:0.0678758 162:0.12237 163:0.107529 164:0.00729932 165:0.199757 166:0.0282136 167:0.108623 168:0.177183 169:0.141251 170:0.246528 171:0.00679704 172:0.0439094 173:0.0477382 174:0.176077 175:0.0356779 176:0.00383014 177:0 178:0 179:0.225 180:0.5 181:0.8 182:0.725 183:0.55 184:0.4 185:0.424883 186:0.889249 187:0.538925 188:0.1886 189:0.142512 190:0.5 191:0.5 192:0 193:0.75 194:0.416667 195:0.676471 196:0 197:0.133135 198:0 199:0.866302 200:0.847817 201:0.643501 202:0.563338 203:0.576918 204:0.28906 205:0.856724 206:0.623311 207:0.285778 208:0.326987 209:0.6625 210:0.17027 211:0.354167 212:0.448528 213:0.25 214:0.832602 215:0.76772 216:0.853448 217:0 218:0.105179 219:0.0413737 220:0.454248 221:0 222:0.384066 223:0.161686 224:0.8975 225:0.0872136 226:0.0070119 227:0.00827474 228:0.0154455 229:0.323358 230:0.400286 231:0.0577194 232:0.585893 233:0.107053 234:0.111389 235:0.1269 236:0.108029 237:0.198 238:0.143008 239:0 240:0.0800969 241:0.0176851 242:0.125 243:0.209294 244:0.118887 245:0.0559212 246:0.148077 247:0.0301936 248:0.0591779 249:0.278922 250:0.159163 251:0.112504 252:0.135173 253:0.0208698 254:0.155136 255:0.00950796 256:0.0622487 257:0.236673 258:0.0656643 259:0.255947 260:0.0510325 261:0.030428 262:0.133363 263:0.208176 264:0.0459915 265:0.00509072 266:0 267:0 268:0.225 269:0.55 270:0.725 271:0.725 272:0.5 273:0.425 274:0.423184 275:0.927179 276:0.457282 277:0.243693 278:0.182269 279:0.5 280:0.5 281:0 282:0.75 283:0.442308 284:0.678571 285:0 286:0 287:0 288:0.96007 289:0.822418 290:0.576375 291:0.401354 292:0.731898 293:0.307848 294:0.795455 295:0.625 296:0.288636 297:0.200454 298:0.407407 299:0.0451848 300:0.0885417 301:0.669643 302:0.5 303:0.366667 304:0.63386 305:0.902531 306:0 307:0.0560952 308:0.0413737 309:0.628502 310:0.00827474 311:0.280476 312:0.0827474 313:0.903229 314:0.0827474 315:0.0140238 316:0 317:0.00180856 318:0.106264 319:0.398324 320:0.237412 321:0.833333 322:0.0232706 323:0.0642734 324:0.051345 325:0.115247 326:0.161842 327:0.179387 328:0 329:0.0706181 330:0.0135109 331:0.125 332:0.202278 333:0.132117 334:0.0126899 335:0.196513 336:0.0301909 337:0.0403846 338:0.274725 339:0.117692 340:0.142471 341:0.162122 342:0.0232111 343:0.12602 344:0.0151112 345:0.0509786 346:0.292186 347:0.0610192 348:0.289774 349:0.033634 350:0.0209453 351:0.110332 352:0.194514 353:0.0333747 354:0.00241672 355:0 356:0 
1.712421972249196e-11 6.195494755866243e-12 1.001564766039378e-12 1:0.1875 2:0.6875 3:0.270833 4:0.8125 5:0.395833 6:0.9375 7:0.613531 8:0.825779 9:0.34797 10:0.847498 11:0.120649 12:0.146447 13:0.5 14:0.146447 15:0.677083 16:0.546875 17:0.395833 18:0.0838504 19:0 20:0.6446 21:0.785398 22:0.982794 23:0.588003 24:0.993834 25:0.335402 26:0.278029 27:0.540554 28:0.480539 29:0.730981 30:0.237399 31:0.474609 32:0.0925348 33:0.130376 34:0.650307 35:1 36:0.369272 37:1 38:0.914279 39:0.0079694 40:0.0697827 41:0.0079694 42:0.676998 43:0.0106259 44:0.267827 45:0.0445486 46:0.90942 47:0.0465937 48:0.0360169 49:0.0079694 50:0.00912659 51:0.136394 52:0.258794 53:0.167282 54:0.687784 55:0.089779 56:0.0922617 57:0.067 58:0.0647534 59:0.126424 60:0.164511 61:0.00475661 62:0.130359 63:0.0959902 64:0.109609 65:0.175601 66:0.127997 67:0.0189567 68:0.0888003 69:0.0599552 70:0.0967497 71:0.195614 72:0.161774 73:0.184688 74:0.140698 75:0.0527635 76:0.191253 77:0.0335846 78:0.086739 79:0.119275 80:0.101022 81:0.195686 82:0.0534073 83:0.0875804 84:0.131453 85:0.205422 86:0.0542007 87:0.0060729 88:0 89:0 90:0.204545 91:0.636364 92:0.568182 93:0.795455 94:0.545455 95:0.704545 96:0.49163 97:0.981812 98:0.425875 99:0.611187 100:0.310926 101:0.146447 102:0.5 103:0.146447 104:0.715909 105:0.461538 106:0.575 107:0 108:0 109:0.0460947 110:1.03709 111:0.915101 112:0.426627 113:0.246528 114:1.03713 115:0.33511 116:0.603125 117:0.528125 118:0.590625 119:0.135417 120:0.270833 121:0.0340909 122:0.0681818 123:0.40625 124:1 125:0.0833333 126:0.5 127:0.960539 128:0.00648561 129:0.0329749 130:0 131:0.848644 132:0.0129712 133:0.1319 134:0.00648561 135:0.931081 136:0.0194568 137:0.0494623 138:0 139:0 140:0.00408261 141:0.0471154 142:0.0672046 143:0.947917 144:0.0104167 145:0.00182791 146:0.0294221 147:0.110631 148:0.127316 149:0.20763 150:0 151:0.0556741 152:0.0371911 153:0.125 154:0.202516 155:0.134043 156:0 157:0.11078 158:0.122107 159:0.0623264 160:0.168821 161:0.160637 162:0.19116 163:0.140314 164:0.0438547 165:0.173835 166:0.0163469 167:0.0666999 168:0.222832 169:0.0467412 170:0.15134 171:0.055425 172:0.0286535 173:0.238126 174:0.184569 175:0.0228884 176:0.000773044 177:0 178:0 179:0.152174 180:0.652174 181:0.326087 182:0.804348 183:0.478261 184:0.847826 185:0.63262 186:0.882235 187:0.398071 188:0.805788 189:0.195102 190:0.5 191:0.146447 192:0.853553 193:0.706522 194:0.5 195:0.411765 196:0.129263 197:0 198:0.785521 199:0.934288 200:0.956133 201:0.480887 202:0.546577 203:0.517052 204:0.297192 205:0.533894 206:0.49569 207:0.74569 208:0.274203 209:0.553846 210:0.0972964 211:0.15625 212:0.691182 213:0.5 214:0.338234 215:1 216:0.925461 217:0.0060496 218:0.0563898 219:0.0120992 220:0.597291 221:0.0181488 222:0.348263 223:0.0362976 224:0.880813 225:0.071203 226:0.0358844 227:0.0120992 228:0.0124609 229:0.196539 230:0.386224 231:0.176955 232:0.729072 233:0.0622288 234:0.0619778 235:0.0681353 236:0.11844 237:0.0881505 238:0.168668 239:0.00656029 240:0.109821 241:0.0463632 242:0.125 243:0.191067 244:0.14593 245:0.0144761 246:0.161334 247:0.0741902 248:0.0505455 249:0.196821 250:0.152041 251:0.14619 252:0.158768 253:0.045635 254:0.141651 255:0.0159382 256:0.0546761 257:0.183466 258:0.094645 259:0.243794 260:0.049439 261:0.063451 262:0.152939 263:0.171812 264:0.0306301 265:0.00257731 266:0 267:0 268:0.075 269:0.7 270:0.35 271:0.775 272:0.4 273:0.85 274:0.602693 275:0.884175 276:0.335354 277:0.774411 278:0.173292 279:0.5 280:0.146447 281:0.853553 282:0.725 283:0.566667 284:0.411765 285:0.0475532 286:0 287:0.73232 288:0.866302 289:0.847817 290:0.643501 291:0.657158 292:0.494554 293:0.284207 294:0.523301 295:0.455056 296:0.780324 297:0.358718 298:0.716987 299:0.164839 300:0.1875 301:0.88953 302:0.5 303:0.623923 304:1 305:0.863022 306:0.0120992 307:0.11278 308:0.0120992 309:0.6057 310:0.0120992 311:0.310998 312:0.071203 313:0.898962 314:0.0530542 315:0.0358844 316:0.0120992 317:0.0130193 318:0.15894 319:0.278334 320:0.205838 321:0.560088 322:0.141741 323:0.135108 324:0.0765248 325:0.0685034 326:0.194027 327:0.18228 328:0 329:0.0790898 330:0.0642675 331:0.118038 332:0.196361 333:0.097433 334:0.00619324 335:0.115217 336:0.0650213 337:0.0173914 338:0.186797 339:0.263842 340:0.07282 341:0.180756 342:0.0919612 343:0.0760621 344:0.00595746 345:0.0162579 346:0.197923 347:0.0739358 348:0.208543 349:0.166858 350:0.0658611 351:0.188602 352:0.198521 353:0.0431019 354:0.00473627 355:0 356:0 
1.013424134925765e-11 7.191091512668398e-12 6.479094704775361e-12 1:0.1875 2:0.6875 3:0.229167 4:0.8125 5:0.354167 6:0.9375 7:0.640712 8:0.811959 9:0.333622 10:0.853553 11:0.126268 12:0 13:0.5 14:0.5 15:0.677083 16:0.5625 17:0.385417 18:0.0892849 19:0 20:0.66701 21:0.785398 22:0.982794 23:0.588003 24:0.991676 25:0.336131 26:0.280132 27:0.533818 28:0.471557 29:0.748945 30:0.241305 31:0.482422 32:0.0925348 33:0.130376 34:0.654474 35:1 36:0.3782 37:1 38:0.905274 39:0.0079694 40:0.0787869 41:0.0079694 42:0.686003 43:0.0106259 44:0.258823 45:0.0445486 46:0.912076 47:0.0439373 48:0.0360169 49:0.0079694 50:0.00912659 51:0.137939 52:0.268186 53:0.167761 54:0.683877 55:0.089779 56:0.0922617 57:0.0709062 58:0.0681016 59:0.124806 60:0.156405 61:0.00528387 62:0.134894 63:0.0958919 64:0.116396 65:0.174841 66:0.123382 67:0.0189567 68:0.0877758 69:0.0722581 70:0.0907418 71:0.190468 72:0.173879 73:0.173319 74:0.138343 75:0.054258 76:0.17978 77:0.0317741 78:0.0819986 79:0.117422 80:0.101008 81:0.189995 82:0.0593017 83:0.0958168 84:0.142904 85:0.208016 86:0.0559409 87:0.00633098 88:0 89:0 90:0.204545 91:0.636364 92:0.5 93:0.795455 94:0.545455 95:0.681818 96:0.494152 97:0.972805 98:0.427261 99:0.645479 100:0.335518 101:0 102:0.5 103:0.5 104:0.715909 105:0.461538 106:0.545455 107:0 108:0 109:0.219648 110:1.03709 111:0.868539 112:0.463648 113:0.232811 114:1.12264 115:0.330769 116:0.585526 117:0.503289 118:0.641447 119:0.125 120:0.25 121:0.0340909 122:0.0681818 123:0.44375 124:1 125:0.151042 126:1 127:0.960539 128:0.00648561 129:0.0329749 130:0 131:0.854139 132:0.0129712 133:0.126404 134:0.00648561 135:0.943062 136:0.0129712 137:0.0439665 138:0 139:0 140:0.00522332 141:0.0608951 142:0.112739 143:0.916667 144:0.0122446 145:0.0104167 146:0.0294221 147:0.112359 148:0.127837 149:0.205807 150:0 151:0.0557679 152:0.0366701 153:0.125 154:0.202976 155:0.133582 156:0 157:0.13881 158:0.0982052 159:0.0616363 160:0.200781 161:0.12772 162:0.194256 163:0.139512 164:0.03908 165:0.173081 166:0.0139714 167:0.0712147 168:0.237357 169:0.0506022 170:0.188842 171:0.0434766 172:0.0246338 173:0.196822 174:0.184897 175:0.023352 176:0.000830621 177:0 178:0 179:0.152174 180:0.630435 181:0.304348 182:0.804348 183:0.5 184:0.869565 185:0.627953 186:0.873602 187:0.42528 188:0.823788 189:0.186818 190:0.853553 191:0.5 192:0.853553 193:0.706522 194:0.519231 195:0.402778 196:0.130285 197:0 198:0.800323 199:0.90675 200:0.945311 201:0.514451 202:0.584003 203:0.502529 204:0.287729 205:0.533215 206:0.493132 207:0.745316 208:0.288626 209:0.578846 210:0.10884 211:0.159722 212:0.67511 213:0.5 214:0.372144 215:1 216:0.920335 217:0.0060496 218:0.0615162 219:0.0120992 220:0.56586 221:0.0181488 222:0.368987 223:0.0470046 224:0.876156 225:0.0758604 226:0.0358844 227:0.0120992 228:0.0124609 229:0.222861 230:0.404392 231:0.16897 232:0.700225 233:0.0662637 234:0.0908188 235:0.0737209 236:0.0995748 237:0.0905606 238:0.171439 239:0.0042176 240:0.0977069 241:0.0792001 242:0.125 243:0.156837 244:0.175465 245:0.00661374 246:0.151295 247:0.0642994 248:0.0387631 249:0.180294 250:0.139793 251:0.140677 252:0.206266 253:0.0719978 254:0.123955 255:0.0149965 256:0.0505224 257:0.185084 258:0.102613 259:0.247688 260:0.05181 261:0.0711832 262:0.152148 263:0.17167 264:0.0319859 265:0.00285171 266:0 267:0 268:0.075 269:0.65 270:0.35 271:0.775 272:0.35 273:0.85 274:0.602693 275:0.884175 276:0.335354 277:0.774411 278:0.176359 279:0.704124 280:0.704124 281:0.908248 282:0.725 283:0.6 284:0.411765 285:0.0290369 286:0 287:0.716243 288:0.866302 289:0.847817 290:0.643501 291:0.645731 292:0.503306 293:0.280878 294:0.513623 295:0.453125 296:0.78635 297:0.339487 298:0.678526 299:0.133589 300:0.166667 301:0.855111 302:0.5 303:0.570785 304:1 305:0.853692 306:0.0120992 307:0.128159 308:0.0060496 309:0.621079 310:0.0120992 311:0.295619 312:0.071203 313:0.910138 314:0.0470046 315:0.0307581 316:0.0120992 317:0.009807 318:0.148694 319:0.264745 320:0.197704 321:0.609031 322:0.124706 323:0.13334 324:0.0752305 325:0.069072 326:0.198225 327:0.175403 328:0.00316129 329:0.0798015 330:0.0626392 331:0.125439 332:0.199986 333:0.0862731 334:0.00275312 335:0.113108 336:0.0845611 337:0.0100505 338:0.173968 339:0.288724 340:0.0527433 341:0.175147 342:0.0989445 343:0.0514052 344:0.00468255 345:0.00972031 346:0.196317 347:0.071825 348:0.194059 349:0.188911 350:0.0727698 351:0.21031 352:0.193641 353:0.0399609 354:0.00412424 355:0 356:0 
6.097477341670392e-12 0 0 1:0.145833 2:0.75 3:0.229167 4:0.770833 5:0.375 6:0.9375 7:0.642579 8:0.80747 9:0.315518 10:0.848466 11:0.124662 12:0.5 13:0.5 14:0.5 15:0.697917 16:0.573529 17:0.364583 18:0.0817704 19:0 20:0.664385 21:0.785398 22:0.954499 23:0.616297 24:1 25:0.332192 26:0.276481 27:0.520362 28:0.469653 29:0.767768 30:0.245357 31:0.49053 32:0.0896431 33:0.126302 34:0.693846 35:0.5 36:0.3824 37:1 38:0.894871 39:0.00774089 40:0.0896468 41:0.00774089 42:0.706726 43:0.00774089 44:0.244842 45:0.0406909 46:0.908432 47:0.0400971 48:0.0437301 49:0.00774089 50:0.00885717 51:0.133714 52:0.258323 53:0.159446 54:0.685881 55:0.0870584 56:0.0894659 57:0.0763333 58:0.0266544 59:0.142525 60:0.147278 61:0.00269546 62:0.1287 63:0.133384 64:0.0702378 65:0.209391 66:0.139134 67:0 68:0.0269115 69:0.0704077 70:0.0487581 71:0.190654 72:0.24835 73:0.133115 74:0.165442 75:0.116362 76:0.116881 77:0.0186054 78:0.0495976 79:0.110237 80:0.0967682 81:0.169412 82:0.0960179 83:0.137899 84:0.204582 85:0.20564 86:0.0565758 87:0.00679862 88:0 89:0 90:0.152174 91:0.652174 92:0.413043 93:0.76087 94:0.521739 95:0.804348 96:0.564345 97:0.913919 98:0.411303 99:0.766091 100:0.216985 101:0.5 102:0.5 103:0.5 104:0.717391 105:0.479167 106:0.416667 107:0.102645 108:0 109:0.744175 110:0.992894 111:0.896055 112:0.480887 113:0.42358 114:0.64153 115:0.307814 116:0.54034 117:0.478571 118:0.751786 119:0.206418 120:0.412821 121:0.0690011 122:0.138889 123:0.613354 124:0.5 125:0.193452 126:1 127:0.941764 128:0 129:0.0461371 130:0.0120992 131:0.701583 132:0.0060496 133:0.268169 134:0.0241984 135:0.905935 136:0.0470046 137:0.0410108 138:0.0060496 139:0.00924851 140:0.144159 141:0.270274 142:0.145928 143:0.826923 144:0.0178914 145:0.0492109 146:0.0273882 147:0.117949 148:0.0973174 149:0.193615 150:0.00466546 151:0.0868057 152:0.0422001 153:0.125 154:0.17455 155:0.157897 156:0 157:0.165423 158:0.0820313 159:0.0391876 160:0.194073 161:0.133938 162:0.154998 163:0.179917 164:0.0504317 165:0.124471 166:0.0109597 167:0.0599917 168:0.241647 169:0.0671395 170:0.230893 171:0.0571497 172:0.0435863 173:0.164162 174:0.170888 175:0.0265712 176:0.00177886 177:0 178:0 179:0.0714286 180:0.666667 181:0.309524 182:0.785714 183:0.428571 184:0.928571 185:0.64795 186:0.866399 187:0.377867 188:0.817546 189:0.169491 190:0.723607 191:0.5 192:0.947214 193:0.702381 194:0.553571 195:0.381579 196:0.091082 197:0 198:0.786617 199:0.835357 200:0.93577 201:0.588003 202:0.718871 203:0.44713 204:0.281548 205:0.528689 206:0.467822 207:0.768057 208:0.398836 209:0.799038 210:0.20017 211:0.256944 212:0.853979 213:0.5 214:0.656451 215:1 216:0.873275 217:0.0060496 218:0.102527 219:0.0181488 220:0.514183 221:0.0120992 222:0.384366 223:0.0893518 224:0.875233 225:0.08191 226:0.0307581 227:0.0120992 228:0.015756 229:0.20133 230:0.352473 231:0.230955 232:0.498533 233:0.188886 234:0.167324 235:0.0779499 236:0.0860128 237:0.169338 238:0.17698 239:0 240:0.0852991 241:0.0643515 242:0.121329 243:0.18198 244:0.114709 245:0.0104737 246:0.122541 247:0.0701001 248:0.02385 249:0.169284 250:0.246143 251:0.101057 252:0.167824 253:0.0887263 254:0.0969231 255:0.00865247 256:0.0302559 257:0.195769 258:0.0717229 259:0.194674 260:0.142675 261:0.0694096 262:0.189919 263:0.193641 264:0.0429748 265:0.00477135 266:0 267:0 268:0.125 269:0.7 270:0.525 271:0.725 272:0.35 273:0.675 274:0.505984 275:0.922159 276:0.253741 277:0.60554 278:0.236318 279:0.853553 280:0.5 281:0.853553 282:0.75 283:0.544118 284:0.425 285:0 286:0 287:0.332546 288:0.866302 289:1.03907 290:0.463648 291:0.375888 292:0.781482 293:0.287797 294:0.493182 295:0.45 296:0.793182 297:0.169872 298:0.341346 299:0.0104167 300:0.0208333 301:0.616515 302:0.5 303:0.17284 304:0.75 305:0.875121 306:0.0120992 307:0.11278 308:0 309:0.851846 310:0 311:0.117906 312:0.030248 313:0.930588 314:0.0120992 315:0.0512635 316:0.0060496 317:0.000643588 318:0.0271969 319:0.107221 320:0.108477 321:0.913462 322:0.0102804 323:0.0185658 324:0.0384615 325:0.0509392 326:0.226821 327:0.164912 328:0.00731718 329:0.0808584 330:0.0592742 331:0.122366 332:0.231529 333:0.0559828 334:0.00292916 335:0.165515 336:0.0214579 337:0.0114074 338:0.218179 339:0.298329 340:0.0292713 341:0.185331 342:0.0675805 343:0.0264625 344:0.00948095 345:0.00724453 346:0.245274 347:0.0791226 348:0.247428 349:0.169893 350:0.058514 351:0.156581 352:0.17481 353:0.0254842 354:0.00125968 355:0 356:0 
